Action MLP:Hidden weights: [array([[ -1.30198264e-01,   1.83590878e-01,   4.94157559e-02,
          1.60330958e-01,   1.53580931e-01,   5.75463740e-02,
          2.19396885e-01,   4.82197704e-02,  -5.16175814e-02,
          8.40634876e-02,   7.25447435e-02,   1.04201736e-01,
         -2.04015733e-01,  -2.33709367e-01,  -1.10703695e-01,
          4.81396868e-02,   1.75348161e-01,   1.63211185e-01,
          1.01036059e-01,   1.37969310e-01,   1.54153264e-01,
         -3.30397717e-01,   1.37877653e-01,  -1.23223693e-01,
         -1.09594787e-01,   2.23030422e-01,   1.69345570e-03,
          6.03034598e-02,  -2.43536134e-01,   1.47669129e-01,
          3.97698012e-02,  -9.10439759e-02,   6.81123120e-02,
          3.10403030e-01,  -1.96972039e-01,   1.24630955e-01,
          1.81950319e-01,  -1.48004603e-01,   2.24623758e-02,
          6.43604786e-02,  -1.74770565e-01,   1.28340774e-01,
          6.68232264e-02,  -2.54813865e-01,  -3.35175216e-01,
         -1.14449328e-01,   3.10639239e-01,   1.80785312e-01,
          1.70566568e-01,   1.88343750e-01,   7.00190615e-02,
          2.59848516e-01,  -7.65563160e-02,   1.59123624e-01,
          6.23729929e-02,  -7.17217276e-02,   2.35867012e-01,
          9.52424613e-04,   1.08644529e-01,  -1.24891818e-01,
         -9.02928179e-02,   1.21506421e-03,   1.27935538e-01,
          3.24676353e-02,  -9.08711487e-02,   1.18536662e-01,
         -2.26161629e-02,   2.74213980e-01,  -4.39829789e-02,
         -4.26615177e-02,   7.61153961e-03,   1.57068650e-01,
         -5.96173475e-02,   1.26763691e-01,   1.70115837e-01,
         -5.35489270e-02,  -1.84835889e-01,   1.54287320e-01,
          4.90861822e-02,   2.67973104e-01,  -9.94708644e-02,
          9.29859298e-05,   1.22875724e-01,   2.08453291e-01,
          1.15370685e-01,   4.88783049e-02,   4.92163517e-02,
          1.92353378e-01,   3.12473519e-01,  -1.78548711e-01,
          3.10284342e-01,  -3.47227274e-02,   2.64601228e-01,
         -1.10278560e-01,   7.88502462e-02,  -1.07791054e-02,
          1.79634285e-01,   9.90961818e-02,   1.59985294e-01,
         -8.45849851e-02],
       [  3.18041672e-01,   4.43930813e-02,   3.69900374e-01,
          3.56541139e-01,   3.21708875e-01,   3.42547744e-01,
          3.57034275e-01,   2.61947800e-01,   3.78996473e-01,
          2.00844703e-01,   4.11448846e-01,   2.52938827e-01,
          2.94824543e-01,   1.13553490e-01,   4.53999780e-01,
          2.93791647e-01,   4.20729035e-01,   5.65448777e-01,
          2.66471667e-01,   4.12702308e-01,   2.74438782e-01,
          6.53888384e-02,   7.10231974e-01,   4.29082579e-02,
          5.69837407e-01,   3.16547324e-01,   6.06726877e-01,
          1.29534186e-01,   4.16442716e-01,   3.23305851e-01,
          1.86414527e-01,   4.86260749e-01,   3.36212205e-01,
          4.36305005e-01,   1.59048572e-01,   2.71370925e-01,
          4.30995649e-01,   3.24538723e-01,   2.83991556e-01,
          3.73567718e-01,   2.96538081e-01,   4.49812236e-01,
          3.07704856e-01,   3.52794236e-01,   6.91298865e-02,
          3.59212386e-01,   3.62685687e-01,   4.99220309e-01,
          3.82108186e-01,   1.90869421e-01,   3.39845425e-01,
          4.21990052e-01,   3.93986031e-01,   3.30764622e-01,
          2.91315756e-01,   3.76735969e-01,   4.37191248e-01,
         -2.00511406e-01,   1.66018049e-01,   5.14572877e-01,
          4.86312442e-01,   2.65711271e-01,   3.54735183e-01,
          1.83961949e-01,   3.64076472e-01,   3.18375759e-01,
          3.08911532e-01,   1.79031473e-01,   1.73797470e-01,
          3.33383423e-01,   3.72104833e-01,   6.04764299e-02,
          3.63930726e-01,   1.27274239e-01,   4.14633958e-01,
          2.70984717e-01,   2.80271007e-01,  -3.91931947e-02,
          3.67722022e-01,   4.97635111e-01,   4.22687179e-01,
          2.78209451e-01,   5.40430454e-01,   3.50050080e-01,
          3.14944434e-01,   2.89859885e-01,   2.92076122e-01,
          1.07561517e-01,   4.74407885e-01,   4.82386418e-01,
          3.57666430e-01,  -9.03236374e-02,   3.10087321e-01,
          3.84187381e-01,   3.02694672e-01,   3.22702931e-01,
          3.36156103e-01,   3.32966931e-01,  -1.78004438e-02,
          3.19743410e-01],
       [ -2.56472569e-01,   4.37549000e-01,  -2.62119235e-02,
          1.25961789e-01,   9.81272092e-02,  -1.83193239e-02,
          2.00815347e-01,  -3.92952173e-02,  -1.28292250e-01,
          2.98875655e-02,   1.06098190e-02,   4.48288715e-02,
         -3.70032414e-01,  -5.03885024e-01,  -2.39155864e-01,
         -3.39729803e-02,   1.53992244e-01,   1.66568892e-01,
          1.92457380e-02,   9.84690992e-02,   1.10577243e-01,
         -7.30128068e-01,   1.46955536e-01,  -3.24482431e-01,
         -2.99064038e-01,   2.26437938e-01,  -1.13937374e-01,
         -6.50822909e-03,  -4.26316980e-01,   8.88148974e-02,
         -5.68831219e-02,  -2.29321934e-01,  -1.69410309e-03,
          3.21702908e-01,  -4.00267786e-01,   5.88630558e-02,
          1.71362230e-01,  -2.83834836e-01,  -6.57646886e-02,
         -1.95517623e-03,  -3.17324399e-01,   9.52092042e-02,
         -2.26389890e-02,  -4.58893499e-01,  -7.82302228e-01,
         -2.46042657e-01,   3.81004105e-01,   1.83180946e-01,
          1.45255275e-01,   2.03993158e-01,  -6.84730965e-03,
          2.78463671e-01,  -1.87640380e-01,   1.07242371e-01,
         -2.47061710e-02,  -1.57596435e-01,   2.24476396e-01,
         -2.16465057e-02,   5.26414816e-02,  -2.78344757e-01,
         -2.09144855e-01,  -9.05121789e-02,   8.08279888e-02,
         -5.74159441e-02,  -2.00210154e-01,   5.11108453e-02,
         -1.08379579e-01,   5.20992609e-01,  -1.86499900e-01,
         -1.53821260e-01,  -7.07089416e-02,   2.39596034e-01,
         -1.55198826e-01,   9.90986882e-02,   1.46699182e-01,
         -1.54807608e-01,  -3.24445791e-01,   4.16099076e-01,
         -1.68747047e-02,   3.07315006e-01,  -1.99607842e-01,
         -1.02653284e-01,   1.08731162e-01,   1.79100541e-01,
          3.62430387e-02,  -4.75065432e-02,  -2.59320348e-02,
          2.69978729e-01,   3.52985051e-01,  -3.49505521e-01,
          3.87789867e-01,  -1.62396867e-01,   2.98069904e-01,
         -2.18600794e-01,  -5.23219070e-03,  -1.09387209e-01,
          1.39290504e-01,   1.81435573e-02,   3.68497636e-01,
         -2.06384650e-01],
       [ -1.94517916e-01,  -1.16291792e+00,  -1.40168336e-01,
         -2.44195336e-01,  -3.29509191e-01,  -2.52142839e-01,
         -2.82425020e-01,  -4.30900706e-01,  -8.90937838e-02,
         -6.19360461e-01,  -4.01636787e-02,  -5.12905038e-01,
         -2.56479879e-01,  -6.17059760e-01,   9.95668281e-02,
         -3.36400492e-01,  -9.14763734e-02,   2.17022760e-01,
         -4.36684540e-01,  -9.62768980e-02,  -4.41975389e-01,
         -7.79440845e-01,   4.47657478e-01,  -7.83085328e-01,
          3.54612249e-01,  -3.92282497e-01,   4.06703297e-01,
         -7.67402120e-01,   2.54715576e-02,  -3.30176866e-01,
         -6.14591454e-01,   1.83699038e-01,  -2.55441429e-01,
         -1.50015046e-01,  -5.01660118e-01,  -4.52482446e-01,
         -6.41165722e-02,  -1.78993385e-01,  -3.53001013e-01,
         -1.48399382e-01,  -2.49375429e-01,   6.09960647e-03,
         -3.39652470e-01,  -1.33107156e-01,  -8.17300372e-01,
         -1.03821254e-01,  -3.57065609e-01,   7.60748428e-02,
         -1.69260405e-01,  -6.78823727e-01,  -2.61508721e-01,
         -1.39491709e-01,  -2.95081419e-02,  -3.00450075e-01,
         -3.92719875e-01,  -8.45755958e-02,  -1.06651354e-01,
         -1.48231486e+00,  -7.09242359e-01,   2.45501119e-01,
          1.64869297e-01,  -4.06920653e-01,  -2.39181378e-01,
         -6.19679462e-01,  -9.73761264e-02,  -2.99034094e-01,
         -2.49415369e-01,  -8.88743576e-01,  -5.46625218e-01,
         -1.95893869e-01,  -1.09522520e-01,  -9.68310907e-01,
         -1.14668076e-01,  -8.20482663e-01,  -9.24038993e-02,
         -3.22862289e-01,  -2.75328430e-01,  -1.36578902e+00,
         -1.31134399e-01,   2.16115905e-02,   3.00840863e-02,
         -3.56239500e-01,   1.79157661e-01,  -2.77092475e-01,
         -3.59571600e-01,  -3.54448693e-01,  -3.80674000e-01,
         -8.99393690e-01,  -9.38322755e-02,   1.64047564e-01,
         -3.78363730e-01,  -1.15373658e+00,  -4.38648731e-01,
         -6.83513127e-02,  -3.37842881e-01,  -2.58771884e-01,
         -3.17442584e-01,  -2.81507165e-01,  -1.26724236e+00,
         -1.99472841e-01],
       [  2.67338219e-01,  -2.69271046e-01,   6.04790694e-02,
         -9.86317043e-02,  -6.65889929e-02,   5.09432218e-02,
         -1.73178779e-01,   1.03646054e-01,   1.35050088e-01,
          5.01099478e-02,   4.39581336e-03,   2.10747831e-02,
          3.48106718e-01,   4.82964462e-01,   2.15676322e-01,
          8.12472280e-02,  -1.36416421e-01,  -1.99720554e-01,
          1.46431973e-02,  -8.13906173e-02,  -3.95506285e-02,
          6.20065034e-01,  -2.27808251e-01,   3.58262409e-01,
          2.18764308e-01,  -1.59403417e-01,   2.70582132e-02,
          7.19821586e-02,   3.83515347e-01,  -4.46376223e-02,
          1.31721943e-01,   1.71793409e-01,   4.94728963e-02,
         -2.77506002e-01,   4.22225577e-01,  -1.67932762e-02,
         -1.70632888e-01,   2.78731511e-01,   1.00912342e-01,
          2.10594652e-02,   3.10086413e-01,  -1.05902687e-01,
          5.95411998e-02,   3.99919336e-01,   6.29990174e-01,
          2.36027881e-01,  -2.94495777e-01,  -1.98284785e-01,
         -1.23072969e-01,  -1.20966265e-01,   2.48202859e-02,
         -2.31160457e-01,   1.62958006e-01,  -8.55295564e-02,
          6.02311938e-02,   1.63881819e-01,  -1.87166872e-01,
          7.17518406e-02,   2.22888369e-02,   2.28804264e-01,
          1.66508136e-01,   1.36684416e-01,  -5.91384245e-02,
          1.08337319e-01,   1.89320536e-01,  -1.37607025e-02,
          1.43142265e-01,  -3.83371975e-01,   2.47445933e-01,
          1.65165689e-01,   7.60332862e-02,  -1.14933150e-01,
          1.71414455e-01,   9.49946160e-03,  -1.35155520e-01,
          1.92837266e-01,   3.31097693e-01,  -2.11690842e-01,
          2.12823813e-02,  -2.70579880e-01,   1.73769367e-01,
          1.49594871e-01,  -1.45044505e-01,  -1.51172141e-01,
         -1.46519308e-02,   8.94032612e-02,   6.07958869e-02,
         -1.52560255e-01,  -2.99352639e-01,   2.87191547e-01,
         -3.10640276e-01,   1.93475002e-01,  -2.29132161e-01,
          2.24290143e-01,   3.75430621e-02,   1.36919147e-01,
         -1.11382500e-01,   3.90300780e-03,  -1.97633365e-01,
          2.24181175e-01],
       [  2.06716010e-01,  -2.47821753e-01,   4.06154071e-02,
         -7.47699246e-02,  -6.24372470e-02,   2.89999180e-02,
         -1.38427738e-01,   2.97827626e-02,   1.24385531e-01,
         -3.82885145e-02,   2.40401048e-02,  -2.75871164e-02,
          2.82447477e-01,   3.30466748e-01,   2.15131421e-01,
          3.94497255e-02,  -8.44468566e-02,  -2.78195004e-02,
         -2.12469160e-02,  -3.03477282e-02,  -7.70106247e-02,
          4.33709753e-01,   2.80268782e-02,   1.79152713e-01,
          2.42169412e-01,  -1.42931387e-01,   1.45034689e-01,
         -2.88572645e-02,   3.47727731e-01,  -4.49509227e-02,
          3.62835396e-02,   2.15027771e-01,   1.58606918e-02,
         -2.07499762e-01,   2.70401601e-01,  -5.85451868e-02,
         -7.86503760e-02,   2.20925448e-01,   5.37663155e-02,
          3.03715696e-02,   2.45324417e-01,  -3.67979501e-02,
          2.49839079e-02,   3.48255641e-01,   4.27087823e-01,
          1.98008532e-01,  -2.33589281e-01,  -7.22319423e-02,
         -7.69550419e-02,  -1.57051502e-01,   1.58516783e-02,
         -1.78042238e-01,   1.61161130e-01,  -7.18853492e-02,
          1.65918034e-02,   1.34956433e-01,  -1.22060598e-01,
         -8.98677806e-02,  -5.74337982e-02,   2.46000706e-01,
          2.11285274e-01,   6.52251475e-02,  -5.21002784e-02,
          2.23869678e-02,   1.69873997e-01,  -2.12138265e-02,
          7.87388231e-02,  -2.99621406e-01,   1.21013225e-01,
          1.18770102e-01,   8.67966570e-02,  -1.61874993e-01,
          1.46014396e-01,  -8.77429544e-02,  -6.45950477e-02,
          1.12519182e-01,   2.59952696e-01,  -2.35745381e-01,
          3.14701802e-02,  -1.43813754e-01,   1.71036215e-01,
          8.85339006e-02,  -6.78300482e-03,  -1.25026155e-01,
         -3.04661361e-02,   4.67890618e-02,   1.26969438e-02,
         -1.78509583e-01,  -2.08741791e-01,   3.04303360e-01,
         -2.52627531e-01,   2.52062586e-02,  -1.96669907e-01,
          1.91157789e-01,   4.24914014e-03,   8.94567878e-02,
         -1.04265307e-01,   9.57996376e-04,  -2.23209103e-01,
          1.60889849e-01],
       [  2.97548471e-02,   6.00746442e-02,   1.18638371e-01,
          1.54298531e-01,   1.39838052e-01,   1.20579977e-01,
          1.60932893e-01,   9.08208510e-02,   8.92796105e-02,
          8.40512160e-02,   1.42766803e-01,   9.86359104e-02,
         -1.44236056e-02,  -1.00988410e-01,   6.35716449e-02,
          9.35690023e-02,   1.71349059e-01,   2.11544937e-01,
          1.02568440e-01,   1.65713958e-01,   1.22452146e-01,
         -1.67971680e-01,   2.17838641e-01,  -4.77324485e-02,
          8.14048356e-02,   1.58221942e-01,   1.53228602e-01,
          4.82925437e-02,  -2.38739249e-02,   1.34477300e-01,
          4.95876150e-02,   8.36137802e-02,   1.21290643e-01,
          1.95420389e-01,  -5.68043042e-02,   1.21013072e-01,
          1.75727904e-01,   1.29210302e-02,   9.59569180e-02,
          1.25755130e-01,   2.68543753e-03,   1.77293033e-01,
          1.13745954e-01,  -4.52000006e-02,  -1.80703187e-01,
          4.67322915e-02,   1.81236470e-01,   1.95233171e-01,
          1.66402050e-01,   1.18072141e-01,   1.12312118e-01,
          1.86278373e-01,   7.68699743e-02,   1.40348698e-01,
          1.05662794e-01,   7.56047439e-02,   1.84020687e-01,
         -4.27183361e-02,   7.76655908e-02,   7.54513026e-02,
          8.14017585e-02,   7.48957862e-02,   1.35209816e-01,
          6.80405004e-02,   6.29843911e-02,   1.24926632e-01,
          8.69440049e-02,   1.13124781e-01,   2.68799155e-02,
          7.10297955e-02,   1.16306635e-01,   6.22466933e-02,
          7.84602735e-02,   7.79599460e-02,   1.83573801e-01,
          5.78053776e-02,  -1.09220308e-02,   2.09570362e-02,
          1.32781528e-01,   2.09479369e-01,   7.79930054e-02,
          7.44777701e-02,   1.90686870e-01,   1.68682211e-01,
          1.27639458e-01,   9.04027893e-02,   9.98758797e-02,
          8.01262185e-02,   2.14678696e-01,   4.12313482e-02,
          1.76087741e-01,  -4.41728190e-02,   1.53172062e-01,
          4.80288847e-02,   1.13478527e-01,   8.84925160e-02,
          1.57108140e-01,   1.29102867e-01,   2.87975986e-02,
          5.48572171e-02],
       [  1.14224340e-01,  -3.91431031e-02,   1.32661463e-01,
          1.07896867e-01,   9.08036906e-02,   1.18963445e-01,
          9.12642733e-02,   9.28588855e-02,   1.32831009e-01,
          6.14169434e-02,   1.36719888e-01,   7.63692062e-02,
          8.71133568e-02,   1.79428542e-02,   1.60364514e-01,
          1.07012439e-01,   1.19510778e-01,   1.63518670e-01,
          8.44385775e-02,   1.31954743e-01,   7.57710830e-02,
         -1.90907417e-02,   2.00669545e-01,   1.50073771e-02,
          1.87012733e-01,   7.67338941e-02,   1.98788308e-01,
          3.45335169e-02,   1.34395239e-01,   9.31975103e-02,
          6.72525078e-02,   1.60867087e-01,   1.03918208e-01,
          8.70240603e-02,   4.52235236e-02,   8.23588733e-02,
          1.28590302e-01,   1.15740016e-01,   9.92653041e-02,
          1.29473726e-01,   1.00039219e-01,   1.31616040e-01,
          9.42014594e-02,   9.60582165e-02,  -2.10590143e-02,
          1.32417816e-01,   6.61252058e-02,   1.45508636e-01,
          1.07200177e-01,   4.07973302e-02,   1.09723513e-01,
          1.02422096e-01,   1.36263353e-01,   9.28565106e-02,
          8.50238912e-02,   1.25990302e-01,   1.17538113e-01,
         -8.09848156e-02,   3.98631269e-02,   1.67254336e-01,
          1.68992501e-01,   9.17410269e-02,   1.15243938e-01,
          5.80936050e-02,   1.29605000e-01,   9.83026080e-02,
          1.11173131e-01,  -2.19532599e-02,   6.10553692e-02,
          1.19013189e-01,   1.29421525e-01,  -6.02727160e-03,
          1.23870508e-01,   1.67105240e-02,   1.14673339e-01,
          1.01206017e-01,   9.46532880e-02,  -6.05136277e-02,
          1.26795680e-01,   1.15395385e-01,   1.42357402e-01,
          9.66143232e-02,   1.68963102e-01,   9.22353198e-02,
          8.99312954e-02,   1.00290140e-01,   9.85139866e-02,
         -3.48203566e-03,   9.80362109e-02,   1.49468408e-01,
          4.79040813e-02,  -2.42876287e-02,   5.75375477e-02,
          1.27132275e-01,   9.67785707e-02,   1.14087075e-01,
          9.26256931e-02,   1.08050914e-01,  -5.16102797e-02,
          1.07703618e-01]])]Hidden bias: [array([-0.27782901, -0.14430469, -0.24082737, -0.20046538, -0.18662717,
       -0.21844385, -0.18973659, -0.18956881, -0.27092094, -0.16750467,
       -0.25171811, -0.16762127, -0.29897575, -0.34189265, -0.26909748,
       -0.20022039, -0.20972319, -0.1644019 , -0.17362361, -0.22270784,
       -0.17018708, -0.35620503, -0.05749966, -0.30603635, -0.23128689,
       -0.17882922, -0.19897198, -0.17909737, -0.29251905, -0.18444489,
       -0.18144766, -0.25917725, -0.21446823, -0.15485074, -0.31675999,
       -0.17363637, -0.20239923, -0.28284565, -0.20749785, -0.23402119,
       -0.29188306, -0.23332229, -0.19736545, -0.30338547, -0.35104079,
       -0.27455378, -0.15332728, -0.1889098 , -0.20367984, -0.16326848,
       -0.21266377, -0.17360072, -0.27346982, -0.19103889, -0.19166955,
       -0.2755854 , -0.18649294, -0.31492892, -0.16246456, -0.25227144,
       -0.26577617, -0.21257692, -0.20823394, -0.18324498, -0.27330385,
       -0.19018172, -0.24263767, -0.11988619, -0.24042452, -0.25737968,
       -0.25114167, -0.16908493, -0.26675631, -0.16378532, -0.20780424,
       -0.24640269, -0.2944116 , -0.15623241, -0.24015038, -0.14546899,
       -0.27999582, -0.21874625, -0.21197589, -0.18924999, -0.18758867,
       -0.19798264, -0.19827895, -0.15742997, -0.14553751, -0.27193285,
       -0.15294526, -0.28874736, -0.16876887, -0.27854636, -0.19362617,
       -0.23920957, -0.19177741, -0.1996434 , -0.16343172, -0.26760169])]Output weights: [[  2.01739018e-02  -8.23783061e-03]
 [  2.06867500e-01  -8.13644187e-02]
 [  7.58477728e-03  -1.82889874e-02]
 [ -3.81530354e-02   2.89542359e-02]
 [ -6.37617409e-02   2.09045786e-02]
 [ -4.01414393e-02  -1.28874531e-02]
 [ -2.67799523e-02   1.74163942e-02]
 [ -8.53386610e-02  -2.63652086e-02]
 [  2.86358812e-02  -2.16715661e-02]
 [ -1.08640621e-01  -5.43674267e-03]
 [  3.84983759e-02  -3.84930075e-03]
 [ -1.07540477e-01  -1.65090710e-03]
 [  2.80718730e-02   3.48067431e-02]
 [  9.63657954e-02   1.02006276e-01]
 [  2.31365448e-02  -2.23934795e-02]
 [ -6.50290030e-02  -1.97843721e-02]
 [ -3.84694690e-03   2.77550634e-02]
 [  3.14781597e-03   3.54788932e-03]
 [ -9.72197205e-02   8.35582710e-04]
 [ -6.24880869e-05   2.03603965e-02]
 [ -7.91226554e-02   1.24595355e-02]
 [  1.76556760e-01   2.17676117e-01]
 [ -6.34508407e-02  -2.92985334e-02]
 [  2.47906808e-02   2.43435198e-02]
 [ -2.61813045e-02  -2.79392312e-02]
 [ -2.65719508e-02   4.89953532e-03]
 [  4.53635349e-02  -5.67803838e-02]
 [ -1.00256325e-01  -7.72877338e-03]
 [ -3.31152063e-02   5.37049424e-02]
 [ -6.80633256e-02   1.36002048e-02]
 [ -1.07955932e-01  -3.05065915e-02]
 [  2.61315880e-02  -2.70339748e-02]
 [ -3.71447599e-02  -1.00546034e-02]
 [ -6.55093025e-03  -3.77098366e-02]
 [  6.47641238e-02   5.48736188e-02]
 [ -9.23950067e-02   1.01543328e-02]
 [ -9.21866301e-03   2.94834282e-02]
 [  2.23743744e-02   1.18440162e-03]
 [ -6.49591660e-02  -2.23039977e-02]
 [ -4.18102757e-03  -4.60465525e-03]
 [  2.37379841e-02   1.62605445e-02]
 [  2.95181205e-02   2.58130323e-02]
 [ -7.12835895e-02  -1.70948431e-02]
 [ -4.00497533e-04   6.93776120e-02]
 [  1.89843968e-01   2.40006461e-01]
 [  2.22169897e-02  -1.67785456e-02]
 [  4.66833629e-02  -6.10233762e-02]
 [  5.03112756e-04   1.93127231e-02]
 [ -2.08137728e-02   3.00077474e-02]
 [ -3.02083113e-02  -5.61630382e-03]
 [ -4.77867044e-02  -2.30641079e-03]
 [ -9.58369304e-03  -6.66665555e-03]
 [  3.43090783e-02  -2.37874911e-02]
 [ -5.43080855e-02   2.63857693e-02]
 [ -8.56949915e-02  -1.37722203e-02]
 [  3.37567811e-02  -2.15781899e-02]
 [ -1.79301005e-02   6.63680111e-03]
 [  1.48322291e-01   2.54683287e-02]
 [ -1.03510501e-01  -4.91568294e-03]
 [ -3.95135962e-03  -1.88846569e-02]
 [  3.26662188e-02  -2.63557722e-02]
 [ -6.91127641e-02  -2.63815363e-02]
 [ -3.81490738e-02   2.64323586e-02]
 [ -1.09090148e-01  -1.99481488e-02]
 [  2.46401436e-02  -1.96525892e-02]
 [ -6.03797752e-02   8.39233647e-03]
 [ -1.29594884e-02  -2.48500634e-02]
 [  2.34189519e-01  -1.24826764e-01]
 [ -4.34048147e-02  -2.61961920e-02]
 [  2.35435567e-03  -2.87937236e-02]
 [  1.38461432e-02  -2.02469961e-02]
 [  3.13873107e-02  -1.59909538e-02]
 [  2.22017115e-02  -2.77603815e-02]
 [ -7.71328867e-02  -1.01611129e-02]
 [ -7.53998057e-03   2.73224680e-02]
 [ -2.10463947e-02  -2.37329728e-02]
 [  2.75588934e-02   2.30951335e-02]
 [  2.33626647e-01  -7.15636674e-02]
 [  5.77426874e-03  -1.69446372e-03]
 [ -3.12995359e-02  -2.24025883e-02]
 [  4.20720050e-02  -1.95345741e-02]
 [ -5.46541978e-02  -3.29199300e-02]
 [  3.66357233e-02   1.31740113e-02]
 [ -3.29217938e-02   2.01328134e-02]
 [ -8.05921263e-02   8.00168765e-03]
 [ -7.19110312e-02  -2.53137889e-02]
 [ -7.85135874e-02  -8.39920383e-03]
 [  3.54354224e-02  -3.06253853e-02]
 [ -1.30017218e-02  -5.07148017e-02]
 [ -2.81955822e-02   1.23755855e-02]
 [  6.08407334e-02  -6.43131496e-02]
 [  2.69851159e-02   5.00505086e-03]
 [  1.65684627e-02  -2.36757940e-02]
 [  2.87768536e-02  -1.76442581e-02]
 [ -7.02958146e-02  -7.20235820e-03]
 [ -2.56430926e-02  -3.00868000e-02]
 [ -4.84246845e-02   2.47661835e-02]
 [ -5.85687477e-02  -4.96994199e-04]
 [  1.82078620e-01  -5.72404585e-02]
 [  1.45630093e-02  -2.36112399e-02]]Output bias: [ 0.49761771  0.10478778]
Value MLP:Hidden weights: [array([[  4.02521829e+00,  -1.42285251e+01,   2.88687233e+01,
          6.64135510e+00,   2.80100336e+01,   2.54888964e+01,
          7.57778394e+00,   4.03638130e+00,  -4.95617645e+00,
         -2.24576536e+01,  -1.97759589e+01,  -3.10079421e+01,
         -2.54217456e+01,   2.26554568e+01,   3.30307115e+01,
          7.50741554e+00,  -5.69977253e+00,   1.66786661e+01,
         -7.92247518e+00,   1.69185254e+00,   2.28640501e+01,
          1.81014032e+00,   6.33261884e+00,  -4.50057598e+00,
         -4.46861117e+00,   1.95652507e+00,   8.71092683e+00,
         -6.91348406e+00,  -5.92830130e-01,   2.20752696e+00,
          2.88341040e+01,   9.29176275e+00,   7.95907857e+00,
          1.26046724e+01,   8.50391853e+00,   1.48313286e+01,
         -2.21042412e+00,  -3.27560636e-01,  -2.73855205e-01,
         -4.22362101e+00,   1.11279376e+01,  -4.12269523e+00,
          1.10022283e+01,   3.82072749e+01,   3.80590799e+01,
          4.98150795e+00,   2.25666526e+01,  -5.01999614e+00,
          1.80995088e+01,  -1.69932276e+01],
       [  2.96575353e+00,   6.79416266e-02,   3.29692173e+00,
         -2.50465339e+00,   3.49950341e+00,   7.66867372e+00,
         -7.23928120e+00,  -1.19550912e+00,   2.13767816e+00,
         -1.24264122e+01,  -3.71319934e+00,  -1.01451533e+01,
         -4.61817362e+00,   4.12543819e+00,   1.60971165e+01,
         -2.67363229e-02,  -1.17004327e-02,  -6.20330089e+00,
          1.27878174e+01,  -4.31213997e+00,   5.32469933e-02,
         -4.41222469e+00,  -5.93129004e+00,  -2.04219718e+00,
          1.43626622e-01,   8.39497716e+00,   5.20862024e+00,
          3.48865799e+00,  -1.30462459e+00,  -7.76274298e+00,
         -5.85461494e+00,  -2.12769350e+00,  -6.13587689e+00,
         -6.38922344e-01,   1.04473743e+00,   4.25530277e+00,
         -3.03041062e+00,  -2.39677662e+00,  -1.72519842e+00,
         -2.39943075e+00,   1.07325012e+00,   8.61160626e+00,
         -1.14785450e+01,   1.12283393e+00,   5.63364518e+00,
          1.52988290e+01,   8.60737890e-01,   2.25209446e+00,
          1.65777802e+00,  -9.75904630e+00],
       [ -7.33722517e+00,   4.11657555e+01,  -2.11505662e+01,
         -5.39441273e+00,   2.38672731e+01,   2.24540044e+01,
          3.03068037e+01,  -2.91289640e+01,  -3.11041782e+00,
          5.30804967e+01,   9.08687460e-01,   4.84446109e+01,
          4.47069757e+01,   3.26875644e+01,   7.17332899e+00,
         -3.70785156e+01,  -4.50911268e+01,   1.74549307e+01,
          1.41800242e+01,   2.49438737e+01,   3.39162014e+01,
         -4.24747149e+01,  -4.64322349e+01,  -3.88136087e+01,
          3.36196877e+01,   4.38574103e+01,  -2.78070236e+00,
         -3.46839631e+01,   4.65660156e+00,  -9.72973251e+00,
          9.21742935e+00,   3.10606610e+01,  -2.50228333e+01,
          4.07442668e+01,  -2.02104011e+01,   1.16042373e+01,
         -2.09428891e+00,  -2.48182165e-01,  -4.01638910e-01,
         -7.71582038e+00,   3.61689308e+01,  -5.37450860e+01,
         -3.81571027e+01,  -2.56452195e+01,   1.51241773e+01,
          1.80385951e+01,  -1.01628756e+01,   2.68837803e+01,
         -4.62777336e+01,   1.91858820e+01],
       [ -3.51557616e+01,   4.09108276e+01,   3.26641088e+01,
          2.58572987e-01,   2.35453055e+00,  -2.42908956e+00,
         -8.57521179e+00,   3.25157674e+00,  -5.11820980e+01,
         -1.62724295e+01,   2.63630101e+00,  -9.12392463e-01,
         -2.02886893e+01,   2.58285486e+01,   1.47577429e+01,
          2.33872751e+01,   2.21341974e+01,   4.04985011e+01,
         -3.56889868e+01,   5.80633786e-01,  -1.47868860e+01,
         -2.48694406e+01,  -2.21051716e+00,   6.66238443e+00,
          1.29044986e+00,   2.41335780e+00,   3.21565774e+01,
         -4.94553105e+00,   4.25758737e+01,   5.41047386e+01,
         -6.28603702e+00,  -2.21105191e+01,  -7.98493717e+00,
         -1.68371460e+01,  -2.76301799e+01,   7.11162702e+00,
          8.00947694e+00,   6.00800623e+00,   5.31044693e+00,
          1.78425629e+01,   1.80345602e+01,   1.11800340e+01,
          1.18156060e+01,   2.00504088e+01,   2.62792388e+01,
          2.80738115e+01,   2.33374186e+01,   3.72754932e+01,
          9.57015441e+00,  -1.99467578e+01],
       [  1.35391376e+00,  -1.79427763e+01,   2.35237083e+01,
          2.83892612e+01,   2.03131393e+01,   3.08422129e+01,
          1.13400599e+00,   3.44048755e+01,   1.04998575e+01,
          1.28974211e+01,  -3.76157506e+01,   9.64147148e+00,
         -1.35455175e+01,   1.28870169e+01,   2.17193707e+01,
          2.89424371e+01,   1.03408620e+00,  -2.35423840e+00,
          2.86715537e+01,  -4.84297886e+01,   2.10590937e+01,
          2.09889904e+01,  -1.19971155e+00,   1.41635324e+01,
          1.86810572e+01,  -1.65658856e+01,  -5.46068310e+00,
          2.49863352e+01,   2.48679607e+00,  -2.00182146e+01,
          2.61062635e+01,   3.41631337e+01,  -1.96810414e+01,
          9.94671083e+00,   4.28551362e+00,   4.07326081e+00,
          2.62114465e-01,  -1.42849051e+00,   6.22803437e-02,
         -2.64682786e+00,  -1.18959494e+01,  -2.40622345e+01,
          4.61401517e+00,  -2.63412793e+00,  -1.89515662e+01,
         -3.47066131e+01,  -1.47268871e+00,  -2.06918492e+01,
          1.62096285e+01,  -1.98320067e+01],
       [  5.44984045e+00,  -2.57704080e+01,  -1.98195223e+01,
          3.62587465e+01,   4.08615458e+01,   9.14382675e+00,
          2.63142969e+01,  -2.57457765e+00,  -3.08854887e+01,
         -6.93648185e+00,  -3.85777422e+00,  -6.88411544e+00,
         -1.42890768e+01,   3.16562827e+00,  -1.70434521e+01,
          4.69291075e+00,  -2.40021424e+00,   1.02057972e+01,
         -2.55384825e+01,   1.96466951e+01,   1.44003760e+01,
         -2.24928730e+01,   2.76612437e+00,  -8.83899723e+00,
          3.34700819e+01,   8.26681866e+00,  -4.75477914e+00,
          3.58988538e-01,  -2.14580938e+00,   3.30147548e+01,
         -2.53323137e+01,   1.40648151e+01,  -2.84792976e+01,
          1.80701067e+01,   1.60682665e+01,   2.04581141e+00,
         -4.52939079e-01,  -6.64365646e-01,  -2.46917811e-01,
          7.36697218e-02,   6.26631247e+00,  -4.16041251e+01,
         -1.05757129e+01,  -1.66114803e+01,   2.39719923e-01,
         -9.37596692e+00,  -8.51087014e-01,   2.27493296e+01,
         -3.30948555e+00,  -2.00097442e+01],
       [  2.47269020e+00,  -6.01804227e+00,  -3.03934778e+00,
         -7.56686197e-01,   7.11255450e+00,   4.61149019e+00,
         -1.77171039e+00,   9.72149817e+00,   5.75763421e+00,
          1.30849960e+01,   6.11686014e+00,  -2.79713601e+00,
          1.58440791e+01,  -1.25105646e+01,   1.20528718e+00,
         -5.65496016e+00,  -5.88993251e+00,  -7.49212736e+00,
         -1.29461094e+00,   7.45192185e+00,  -4.89626251e+00,
         -5.08678645e+00,  -4.59736322e+00,   7.14533475e+00,
         -7.49337193e+00,  -2.02032980e+00,  -3.63839542e-01,
         -2.54747374e+00,  -4.18722760e+00,  -8.39727576e+00,
         -4.67711665e+00,  -2.02701771e-01,   5.09958457e+00,
          1.45618537e+01,  -1.28762520e+00,  -4.47859879e+00,
         -1.78518054e+00,  -3.73822879e+00,  -2.70266054e+00,
         -7.13961053e+00,   8.75796831e+00,  -1.88357692e+00,
          4.02959099e+00,   1.83361760e+01,   1.20666338e+01,
          9.26505773e+00,   1.85160757e-01,  -9.53499757e-02,
          8.37516826e+00,   1.33878402e+01],
       [  4.11261508e+00,  -4.63297060e+00,  -7.75464695e+00,
         -3.88582531e+00,   4.10309942e+00,  -2.52180336e+00,
          3.72876328e-01,  -9.32208135e-01,  -7.37066897e+00,
          4.90815995e+00,  -5.24873038e+00,   1.75043702e+00,
         -2.37840256e+00,  -5.56805348e+00,  -6.56724913e+00,
         -3.32314673e+00,  -6.71702538e-01,  -5.06624925e+00,
          6.46843354e+00,  -3.58108891e+00,   8.39103052e+00,
         -3.85974522e+00,  -4.78175721e+00,   2.77473636e+00,
          1.65455641e+00,  -1.03987431e+01,  -7.01021945e+00,
         -3.84814656e+00,  -4.96408634e+00,   4.98147510e+00,
          1.40763385e+00,  -8.65083318e+00,   1.34459742e+00,
         -1.34396920e+01,   1.01295462e+01,   3.97608738e-02,
         -2.12363980e+00,  -2.57141399e+00,  -1.52768477e+00,
         -7.79793035e+00,   4.07498462e+00,  -2.48665211e+00,
          1.10003649e+00,  -9.30523419e-01,  -5.92976943e+00,
         -2.50089781e+00,  -8.97853693e+00,   5.18530892e+00,
         -4.21279201e+00,  -4.55508102e+00]])]Hidden bias: [array([ 31.89101336, -46.52111885, -16.29666149,  -7.96374727,
        -1.12131488,  -1.11144605,   4.47385635,  -8.06652348,
        39.64939402,  -0.7901738 ,  -0.34793649,  -2.37865151,
         5.32154426, -16.55237552, -10.1819437 ,  -4.01070422,
         3.78891217, -31.06801052,  16.13217442,  -4.40563075,
         8.1689509 ,  18.61833626,   8.84038579,  -5.42875142,
        -4.14545745, -10.81780843, -37.28166628,   8.8488476 ,
       -26.77955844, -36.25904983,  -4.21164118,   8.8658455 ,
         9.6139135 ,   2.64809398,  39.12541296,  -5.09095481,
       -11.528166  , -10.88073975,  -9.04949336, -18.37613341,
       -10.62382097, -13.95047396,  10.77490266,  -4.6139022 ,
       -12.97726279,  -8.96293608, -26.9839941 , -13.54261468,
        -4.43783147,   7.14889161])]Output weights: [[ -0.17471137]
 [  8.85829991]
 [  6.33644261]
 [ -9.16166738]
 [  1.45295547]
 [  1.70086044]
 [  2.96770353]
 [ -3.45591999]
 [ -0.09410225]
 [ -1.93254073]
 [ -8.28571353]
 [ -3.58721139]
 [ -7.2510724 ]
 [ -8.47934056]
 [  2.22916366]
 [  1.05757743]
 [  2.87754816]
 [ -4.36799841]
 [ -0.9590628 ]
 [ -4.53410312]
 [  0.54291674]
 [ -3.37558352]
 [ -0.83639572]
 [  5.50002209]
 [  5.39699944]
 [ -0.49754557]
 [ -9.64426145]
 [  0.32120102]
 [ -2.81164135]
 [ 12.50466788]
 [  0.39981146]
 [  1.99670632]
 [ -4.74200991]
 [  0.17719839]
 [ -2.91884996]
 [  2.52678955]
 [ 14.69355664]
 [ 13.25276546]
 [  7.8220089 ]
 [ -1.36902071]
 [  6.56398154]
 [ -0.67840751]
 [ -4.72551256]
 [  1.21824316]
 [ 10.83173855]
 [  3.74875584]
 [  0.70678054]
 [  3.04802604]
 [ -0.24694995]
 [  0.42732791]]Output bias: [-64.01190735]