Action MLP:Hidden weights: [array([[ -1.10652666e-01,  -1.36843302e-01,  -5.20245637e-02,
          5.41145761e-03,   1.27709391e-01,  -5.48232436e-02,
          1.50125906e-01,   2.31692558e-02,   2.49961272e-02,
          5.80782239e-02,  -7.26026603e-02,   9.20846568e-02,
         -6.47245202e-02,   1.42010319e-01,   6.81642624e-03,
         -6.06408516e-02,  -4.24756641e-02,   6.19406751e-02,
          1.93433008e-02,  -3.93034324e-03,  -8.00542649e-02,
          1.01008903e-01,  -4.12347533e-02,   1.29468876e-01,
         -2.09561051e-01,   9.52852816e-02,   5.12550855e-02,
          1.06627917e-01,   4.26346334e-02,   7.81327415e-03,
          2.02841984e-02,  -1.56081728e-01,  -1.29156345e-01,
          5.11691518e-02,  -2.44659008e-02,  -4.45338377e-02,
         -4.13040020e-03,   1.48178541e-01,   8.79345089e-02,
          1.78058924e-02,  -1.77758304e-02,   1.89549066e-02,
         -5.56877311e-02,  -1.73978118e-02,  -5.43952685e-02,
          6.38926884e-02,  -2.56807910e-02,  -8.59994929e-02,
         -6.37470867e-03,  -1.17227293e-01,   2.09657278e-01,
         -2.41116978e-02,   1.05515537e-01,   5.22137616e-02,
          1.02350094e-01,   5.14843170e-02,  -9.31621600e-02,
         -4.31863466e-02,   1.11410504e-01,   3.65268861e-02,
          9.82309128e-03,  -4.16869847e-02,  -5.77011806e-02,
         -6.86994652e-02,   1.78194802e-01,  -5.34781493e-02,
         -5.66589970e-02,  -2.15065073e-01,  -1.96574002e-02,
          8.58993915e-02,   2.44459417e-04,   3.42938088e-02,
          2.48020671e-02,  -3.52641211e-02,   5.12558341e-02,
          8.35554582e-02,   5.56462072e-02,   9.85791260e-02,
         -2.81759065e-02,  -1.05432964e-01],
       [  3.86313103e-01,   4.05042063e-01,   2.67831293e-01,
          1.46327958e-01,   2.98337386e-01,   3.33684810e-01,
          3.75332826e-01,   4.68740444e-01,   3.60261678e-01,
          2.34869231e-01,   3.22307613e-01,   2.68920098e-01,
          2.57489034e-01,   2.77464221e-01,   2.26029675e-01,
          3.40394645e-01,   5.48467403e-01,   4.46977761e-01,
          2.44749239e-01,   2.50828028e-01,   6.13117479e-01,
          3.21951449e-01,   1.98712209e-01,   2.65083800e-01,
          3.27521111e-01,   3.12139775e-01,   2.92870391e-01,
          4.16155354e-01,   2.48622495e-01,   1.18188413e-01,
          1.35847159e-01,   2.57769530e-01,   4.14922334e-01,
          4.21884751e-01,   1.09107802e-01,   2.79959452e-01,
          3.05173049e-01,   5.20573426e-01,   3.79866114e-01,
          3.94693518e-01,   3.02632759e-01,   2.87293453e-01,
          4.72041338e-01,   2.51670999e-01,   3.94969985e-01,
          2.64252894e-01,   3.35974399e-01,   4.11856951e-01,
          2.90766478e-01,   4.53067742e-01,   2.99128228e-01,
          2.81562947e-01,   2.16846398e-01,   3.74935863e-01,
          2.72833733e-01,   3.10954538e-01,   3.42341324e-01,
          3.30672190e-01,   4.04848766e-01,   3.95652012e-01,
          3.59139354e-01,   4.86252480e-01,   3.40945269e-01,
          4.60094277e-01,   2.83474263e-01,   3.49886334e-01,
          4.20555911e-01,   5.46640105e-01,   4.30251717e-01,
          3.67570600e-01,   3.41435784e-01,   4.26304856e-01,
          3.19173988e-01,   1.65700433e-01,   2.39441023e-01,
          4.65016152e-01,   3.27497066e-01,   3.56029623e-01,
          2.85579074e-01,   3.89531495e-01],
       [ -3.87236910e-02,   1.97946153e-02,  -7.37077201e-03,
         -2.51556228e-02,  -1.22539247e-01,   1.13896579e-02,
         -1.22551494e-01,  -1.62657731e-01,   5.26319651e-02,
          2.37027425e-02,   4.11646521e-02,  -1.04986916e-03,
          6.54865113e-02,   1.72115144e-02,   6.54201452e-02,
          1.02148699e-02,   9.07668662e-02,  -6.77521899e-02,
         -2.02264575e-02,  -9.42490345e-02,   1.65912757e-01,
         -3.83908671e-02,  -1.72855051e-02,  -8.59575939e-03,
          2.11329648e-01,   5.94858855e-02,   2.85963625e-02,
         -8.62805765e-02,  -2.34770918e-03,   5.53947625e-02,
          1.01589759e-01,   5.09860036e-02,   6.92247142e-02,
         -7.30333766e-02,   1.82905144e-03,   7.48926905e-04,
         -7.37212281e-02,   7.87368613e-01,  -1.67660688e-02,
          1.23254685e-02,   2.63137591e-02,  -5.26255321e-03,
          1.32214655e-01,  -4.46584049e-02,   2.53302131e-02,
         -7.01222448e-02,  -3.33575550e-02,  -4.45628566e-02,
         -9.68337619e-03,   1.32464596e-01,  -1.95968047e-02,
         -9.38589079e-03,  -4.92271597e-02,   4.45878969e-02,
          2.46704819e-02,  -3.16568872e-02,  -1.58058213e-02,
          2.86855638e-02,  -3.61562679e-02,   7.20875573e-03,
          9.95479024e-02,  -6.10708506e-02,  -3.51271222e-02,
         -1.34846892e-02,  -5.62171338e-04,   9.27869138e-02,
         -1.09218337e-01,   2.11322849e-01,   1.65752287e-01,
          1.82913175e-02,   2.78074884e-02,  -6.10492313e-03,
          2.31146449e-02,  -5.86304463e-02,  -6.06805884e-02,
         -5.67202543e-02,   1.65122608e-02,   4.06472359e-02,
          9.87171188e-03,   8.41755246e-02],
       [ -2.84753183e-01,  -2.48382241e-01,  -4.64458163e-01,
         -6.08168861e-01,   1.56568498e-03,  -9.15314303e-02,
         -1.11830170e-01,   3.57852806e-02,  -2.15269525e-01,
         -2.66497569e-01,  -3.70166016e-01,  -1.88865749e-01,
         -2.12283101e-01,  -3.21811408e-01,  -6.42468022e-01,
         -2.33620417e-01,   2.18670157e-01,  -1.65838179e-01,
         -2.52917480e-01,  -2.03542763e-01,   2.07223804e-01,
         -3.02852510e-01,  -3.23221613e-01,  -8.07572758e-02,
         -6.02929370e-01,  -2.50527154e-01,  -2.64892946e-01,
         -1.33971718e-01,  -3.43193770e-01,  -4.27956301e-01,
         -3.40580227e-02,  -3.18025039e-01,  -8.00747163e-02,
         -8.95923575e-02,  -4.12528504e-01,  -2.98642883e-01,
         -1.59726594e-01,  -3.33076555e-01,  -1.60791486e-01,
         -1.58937667e-01,  -3.15984369e-01,  -3.39689309e-01,
         -8.30567300e-02,  -2.62955485e-01,  -5.22473629e-02,
          1.36876637e-02,  -2.69355652e-01,  -1.02089384e-01,
         -1.74273593e-01,   5.36563453e-02,  -2.73933735e-01,
         -2.16607410e-01,  -3.36892048e-01,  -1.31313675e-01,
         -3.03598769e-01,  -2.09097508e-01,  -2.43174269e-01,
         -1.33250412e-01,  -1.24525419e-01,  -1.56796757e-01,
         -2.79129215e-01,  -3.16137807e-01,  -7.73481739e-02,
         -1.23526735e-02,  -4.17076228e-01,  -9.39439771e-02,
          7.96519685e-02,   1.64011726e-02,   1.08718160e-01,
         -1.91692192e-01,  -3.26991329e-01,   2.17542549e-01,
         -2.91158384e-01,  -1.95357424e-01,  -1.65602039e-01,
         -2.72339397e-02,  -3.37533149e-01,  -8.83843581e-02,
         -2.09057716e-01,  -2.56309563e-01],
       [ -2.66451448e-03,   1.34483308e-02,  -1.16260510e-02,
          7.48723043e-04,   1.16594667e-01,   1.18974803e-02,
         -5.98997349e-03,   1.13554789e-01,   9.81828304e-02,
          7.05823846e-02,  -1.80587736e-02,  -6.18384879e-03,
          9.34861288e-02,   5.95098793e-02,   2.91394174e-02,
          8.82476887e-02,  -1.41418227e-01,  -2.58804352e-05,
         -1.45283955e-02,   8.01857756e-02,  -8.03983212e-03,
          7.29832468e-02,   2.97732991e-02,  -5.22363028e-02,
         -1.74568769e-01,  -5.22994921e-02,  -6.77772223e-03,
         -7.22270904e-02,  -9.35294174e-03,   1.99565053e-02,
         -7.55119988e-02,   6.05952552e-02,  -6.22269673e-02,
          2.79237188e-02,  -7.57967260e-02,  -5.85484242e-02,
          5.55264757e-02,  -1.18795950e+00,   6.68737002e-02,
         -8.68243462e-02,  -2.52867772e-02,   6.60475152e-03,
         -5.68374920e-03,  -2.03217213e-02,   9.24426598e-02,
          6.30552849e-02,   2.22743033e-02,   6.02658729e-02,
          4.63408603e-02,  -6.67516689e-02,   5.97053506e-02,
          9.31804502e-03,   2.26626456e-02,   3.86675970e-02,
          4.84557184e-02,   4.30409531e-02,   7.78750328e-02,
          4.28788985e-02,  -1.35050079e-02,  -2.52892015e-02,
          6.72336791e-02,   2.08671746e-01,   8.32247207e-04,
          1.08906423e-01,   5.93219006e-02,  -1.10617681e-01,
          1.13099746e-01,  -7.71770082e-02,  -2.22824003e-01,
         -5.96599694e-02,  -2.76871377e-02,   3.79095376e-02,
          1.21550871e-02,  -8.53108030e-02,  -3.82902587e-03,
          9.71686668e-03,   5.03862809e-02,   1.74054403e-02,
         -5.32689069e-02,  -4.17537187e-02],
       [  3.91522206e-02,  -1.11210005e-02,   8.58777971e-02,
         -2.48206158e-01,  -1.86328602e-01,   3.25310826e-02,
         -2.70650226e-02,   8.04067417e-02,   4.35483041e-02,
          7.39570662e-02,   2.36598397e-02,   3.91426388e-02,
          7.78724350e-02,   9.93822313e-02,   2.36873564e-01,
         -3.00788698e-04,   2.92372988e-02,   1.98701515e-01,
          1.01223002e-01,   2.88912321e-02,   3.26108308e-03,
          2.74839871e-01,  -3.75719672e-02,  -8.68792615e-02,
         -3.56149375e-01,   8.09801674e-02,   1.08716025e-01,
          1.86278937e-02,  -1.56799912e-01,  -2.98294531e-01,
         -3.51831468e-01,  -3.06745537e-02,   4.29945074e-02,
          1.21023033e-01,  -2.82824572e-01,  -8.15854876e-02,
         -4.98837196e-02,  -2.40560537e+00,   5.61305829e-03,
         -7.02409916e-02,   8.77354371e-03,   9.78894314e-02,
          1.63305353e-01,   1.58374834e-01,   1.95769581e-02,
         -1.68795728e-01,   1.77446593e-01,  -9.31647588e-02,
         -4.19945244e-02,  -2.98449632e-02,   8.60233036e-02,
         -4.71099483e-02,   7.83917891e-02,   7.16149811e-02,
          8.75239087e-02,   1.42924716e-02,  -3.78680399e-02,
          3.57564791e-02,   7.12240950e-02,   1.24302113e-01,
         -9.72145143e-02,   9.76008947e-01,  -6.26970362e-02,
         -2.30724487e-02,   5.10503429e-02,   9.10879681e-02,
         -1.30446778e-01,  -1.98462336e-01,  -2.82673453e-02,
          8.15974604e-02,  -1.16845762e-01,  -4.25568801e-02,
          2.33940031e-02,  -1.92719738e-01,  -6.26663425e-02,
         -2.38087405e-02,   3.78501894e-02,   3.20125337e-02,
         -7.30732810e-02,  -2.54527408e-02],
       [  5.09657099e-03,   4.11599107e-02,   1.86385341e-02,
         -8.80015016e-02,   6.47198734e-02,   1.03426089e-01,
          3.02686336e-02,  -2.52803116e-02,  -3.09044410e-02,
          1.47301391e-02,   1.79411956e-01,   6.39306803e-02,
         -2.33938631e-02,   2.86925876e-02,   9.79119551e-02,
          8.02316384e-02,   6.89513109e-02,  -9.09697732e-03,
         -1.67629411e-02,   7.05302707e-02,   1.64945975e-01,
          5.92163086e-02,   2.54392733e-02,  -3.47555005e-02,
          7.37323299e-03,   7.88200943e-02,   3.89692767e-02,
          1.07650989e-01,   7.84863115e-02,   4.26785975e-02,
          5.38534848e-02,   9.70811998e-02,   1.72770384e-01,
         -1.16055982e-03,   3.61225834e-03,   7.41180174e-03,
          1.30303659e-01,  -1.32311599e-01,   6.05701423e-02,
          1.86242904e-02,   2.46567287e-02,   4.68452957e-02,
          1.23675430e-01,   3.19710802e-03,   7.98483170e-02,
         -5.35824398e-02,  -2.03689270e-04,   6.56097419e-02,
          5.19704436e-02,   1.05510608e-01,   8.50331479e-03,
          9.19290950e-03,   4.05626443e-02,   1.03433859e-01,
         -2.28153457e-02,   6.43957864e-02,   2.20485178e-02,
         -3.66027423e-02,  -2.72133370e-03,   1.47266610e-01,
         -2.18688011e-02,  -1.77169200e-01,   1.11327851e-01,
          1.05708671e-01,   9.05279009e-02,   9.09203952e-02,
          1.47339288e-01,   7.92576307e-04,  -3.05320733e-03,
          1.26841217e-01,   9.30202949e-02,   4.42001104e-02,
          8.10706064e-03,  -7.80735866e-03,   6.10059251e-02,
          9.21094067e-02,   1.45390128e-01,   1.47393893e-01,
         -5.34911672e-02,   1.26331600e-01],
       [ -2.01384973e-02,   6.84858973e-02,   1.11214220e-02,
          1.53139858e-01,  -1.23591674e-02,   1.54995557e-02,
          9.08463559e-02,   9.49816266e-02,   1.24757384e-01,
         -4.52140527e-02,  -4.53853852e-03,  -3.56406594e-02,
          4.74889636e-03,   1.41250404e-01,   7.30852964e-02,
         -7.95758646e-03,   1.70261452e-01,   2.18640915e-02,
          1.46685231e-01,   6.18481026e-02,   1.07978450e-01,
         -1.61540667e-02,  -2.16087082e-02,   4.96076354e-02,
         -1.79079303e-02,   7.98049362e-03,   1.20266989e-01,
          1.57216183e-01,   1.20453938e-01,   6.14514874e-02,
          1.14875797e-01,   7.13690405e-02,   1.13755287e-01,
         -4.80917573e-02,   6.72513861e-02,   1.17348671e-01,
          8.02834112e-02,  -2.47603326e-01,   5.70072220e-02,
          1.43334051e-01,   1.43874200e-01,   1.52182215e-01,
          2.08842210e-01,   1.27341409e-01,   9.96381442e-05,
          3.28900806e-04,   1.56692031e-01,   7.60625269e-02,
          4.90759607e-02,   9.55287155e-02,   2.65282029e-02,
          8.75360637e-02,   1.17581943e-01,   2.16821380e-02,
          2.47412553e-02,  -5.03953772e-03,  -3.12572434e-02,
          1.31616440e-01,   5.16552254e-02,   1.23413381e-02,
         -1.27640642e-02,  -3.33777832e-01,   1.45936612e-01,
          1.12692963e-01,   7.32035902e-02,   9.66254630e-03,
          1.57149992e-01,   8.38209711e-03,   3.44950932e-02,
          8.37116599e-02,   3.20419831e-02,   8.94675574e-02,
          5.62730179e-03,   2.54116334e-03,   4.19628181e-02,
          1.11033802e-02,  -2.32070994e-02,   2.24492574e-02,
          1.08699442e-01,   3.08263623e-02]])]Hidden bias: [array([-0.41561443, -0.415053  , -0.45209551, -0.51403588, -0.3845214 ,
       -0.35313954, -0.40504836, -0.39356591, -0.42042666, -0.41317392,
       -0.44442334, -0.39006292, -0.39039776, -0.43646239, -0.44041601,
       -0.40776246, -0.3164786 , -0.42518428, -0.39251841, -0.3796915 ,
       -0.31863931, -0.42566957, -0.41998087, -0.37688195, -0.42516279,
       -0.39618269, -0.40249136, -0.4110702 , -0.45823824, -0.48171628,
       -0.40758113, -0.42460929, -0.36761568, -0.4001943 , -0.4709017 ,
       -0.43279503, -0.3907838 , -0.24302399, -0.40774716, -0.40613177,
       -0.42379844, -0.4279526 , -0.35356192, -0.39187458, -0.36231434,
       -0.35388211, -0.39910517, -0.38894897, -0.39319431, -0.34941298,
       -0.43349166, -0.40840522, -0.42259216, -0.38976296, -0.43077924,
       -0.40828179, -0.40091516, -0.37742671, -0.40169477, -0.3858542 ,
       -0.42450693, -0.65743065, -0.37742923, -0.36469915, -0.46631874,
       -0.35616976, -0.36903074, -0.37342718, -0.33047069, -0.3943094 ,
       -0.44972495, -0.30236977, -0.41693444, -0.40531107, -0.39631675,
       -0.38570766, -0.43791535, -0.36638296, -0.39900191, -0.41419953])]Output weights: [[  6.15754365e-02   2.17260832e-02]
 [  2.29915860e-02   2.10192316e-02]
 [  1.70466189e-01   1.71136960e-02]
 [  2.45509080e-01   1.14171579e-01]
 [ -4.92702698e-02   8.16097073e-02]
 [ -1.95204130e-03   4.59633774e-03]
 [ -5.09481888e-03  -4.58612983e-03]
 [ -8.65436617e-02   1.32542999e-02]
 [  5.63796821e-02   1.41640953e-02]
 [  1.36382348e-01   3.85749854e-02]
 [  1.05762994e-01   1.12311292e-02]
 [  7.71250040e-02   1.86567247e-02]
 [  9.61551090e-02   5.79122595e-02]
 [  1.21807025e-01  -4.17707907e-02]
 [  2.38439640e-01  -7.90478619e-02]
 [  5.85418054e-02   2.65913753e-02]
 [ -2.29818997e-01  -2.53209633e-02]
 [  3.61296320e-02   8.10797017e-04]
 [  8.82326107e-02  -1.66599797e-02]
 [  4.80532291e-02  -1.75471770e-02]
 [ -2.25889379e-01  -6.13414371e-02]
 [  1.52611097e-01  -3.81642620e-02]
 [  1.40512203e-01   6.94880667e-02]
 [  5.87496744e-03   7.88635466e-02]
 [  1.54120844e-01   1.44902516e-01]
 [  6.26392857e-02  -1.15082717e-02]
 [  8.08320847e-02  -2.98038354e-02]
 [ -2.11865501e-02  -4.91797870e-02]
 [  9.58063568e-02   6.01329444e-02]
 [  1.76325433e-01   1.66931225e-01]
 [ -2.98538546e-02   2.14172006e-01]
 [  1.01647434e-01   4.63408062e-02]
 [ -6.25154474e-02  -2.10301283e-02]
 [  8.03338226e-03   3.13658178e-02]
 [  1.68778272e-01   1.79364234e-01]
 [  8.28828706e-02   5.89569135e-02]
 [  1.14868882e-02  -1.37273070e-03]
 [ -1.86807015e-02  -9.58037059e-01]
 [  1.93797359e-02  -4.15552018e-03]
 [ -1.29545408e-02   2.05312389e-02]
 [  7.54725375e-02   8.06734409e-03]
 [  1.02929347e-01  -3.37887554e-02]
 [ -7.35553201e-02  -9.33706722e-02]
 [  9.94883907e-02  -2.97669924e-02]
 [ -2.81175480e-02   2.28005067e-02]
 [ -3.32776492e-02   1.16271818e-01]
 [  7.19654107e-02  -4.61105485e-02]
 [ -3.76741353e-02   3.11252563e-02]
 [  4.66781856e-02   3.43122550e-02]
 [ -1.31468977e-01   2.45927775e-02]
 [  1.14125156e-01  -1.24001473e-02]
 [  6.13869206e-02   5.05088413e-02]
 [  1.35518437e-01  -3.48410286e-02]
 [  2.06093943e-02  -9.09605401e-03]
 [  1.29398733e-01   2.09132576e-02]
 [  6.74916373e-02   1.86451590e-02]
 [  5.27797769e-02   4.43292667e-02]
 [  2.06931981e-02   2.40582108e-02]
 [  1.33329117e-02  -3.93124295e-03]
 [  2.19967108e-02  -4.07885841e-02]
 [  6.95070309e-02   5.32636585e-02]
 [  2.92371383e-01   4.66419438e-01]
 [ -3.62008372e-02   1.29684636e-02]
 [ -8.60764458e-02  -1.58944124e-02]
 [  1.45932833e-01  -4.25491409e-02]
 [ -2.69481305e-02   1.87676376e-02]
 [ -1.33623300e-01   8.74897002e-03]
 [ -1.42462467e-01   6.39897307e-02]
 [ -1.74989628e-01   3.57382554e-02]
 [  1.62727627e-02  -4.50103223e-02]
 [  7.46482712e-02   4.58057987e-02]
 [ -1.66001211e-01   1.53642080e-02]
 [  9.15093231e-02   2.17334780e-02]
 [  9.69632641e-02   1.41628475e-01]
 [  4.89152011e-02   4.76893800e-02]
 [ -6.17765416e-02  -2.40918756e-03]
 [  1.08722774e-01  -1.56242439e-02]
 [ -6.77198372e-03  -2.84603082e-02]
 [  4.59565723e-02   7.19030888e-02]
 [  2.39721136e-02   2.52774646e-02]]Output bias: [ 0.65557483  0.57882344]
Value MLP:Hidden weights: [array([[ -1.27460807e+01,  -6.35426998e+00,   1.07932278e+01,
          4.33914677e-01,   2.74452696e+01,  -1.04536416e+01,
          8.21379597e+00,  -1.71464007e+01,  -2.33258695e+00,
          1.98858417e+00,  -1.81297925e+01,  -1.45665452e+01,
         -2.86638365e+00,   1.07349588e+00,   3.83519366e+00,
         -5.39973450e+00,  -8.74364312e+00,  -1.98745214e+01,
         -1.50660532e+01,   3.22449400e+00,  -6.77484801e+00,
          3.09363843e+00,  -5.36270228e+01,   2.68788888e+00,
         -1.48758611e+01,  -1.88963415e+01,   3.41530003e+00,
          2.71595697e-01,  -4.57324452e+00,  -5.75307440e+00,
         -9.32557745e-01,  -1.47138022e+01,  -1.86615563e+00,
         -2.75929253e+01,  -3.36706723e+00,   2.89622358e+01,
         -1.11774341e+00,   1.91231374e+00,  -2.78424682e+00,
          1.65249375e+01,   9.28777503e+00,   4.18370945e-01,
         -2.42901896e+00,  -2.16441116e+00,  -2.14212356e+00,
         -2.99370494e+00,  -1.89181377e+00,  -2.41398197e+01,
         -8.99751465e+00,  -1.56235998e+00],
       [ -3.21168674e+00,  -4.95875841e+00,   8.90717080e+00,
         -5.55292645e+00,   1.41768720e+01,   3.99122532e+00,
         -2.52434257e+00,  -3.15955033e+00,  -2.95256476e+00,
          3.18679902e+00,  -6.02824943e-01,  -3.65203922e-01,
         -7.01624572e+00,   3.64368764e+00,  -7.41944149e+00,
         -1.27137330e+01,  -8.17770569e+00,   3.53817882e+00,
          4.48367612e+00,   3.80157782e+00,   6.76912661e+00,
         -3.19966923e+00,   4.29006468e+01,   7.35562796e+00,
         -9.14529146e+00,  -9.68692062e+00,  -1.42035066e+00,
         -6.67291657e+00,  -3.06798771e+00,   5.93219800e+00,
          2.20681574e+01,   1.36113606e+01,   2.85749593e+00,
          1.36216858e+01,  -1.27547094e+01,   2.02382979e+00,
          2.00486701e+00,  -1.90318026e+00,  -5.32980293e+00,
         -1.18197892e+01,  -1.18531809e+00,  -4.48045555e+00,
          2.94366998e+00,   1.26445679e+01,  -3.91283925e+00,
          3.72520972e+00,   3.38756876e+00,   4.34974830e+00,
         -4.44006997e+00,   1.26203911e+01],
       [ -3.23375152e+01,  -7.50631860e-01,   1.87726301e+01,
          9.28625630e+00,   3.37759960e+01,   2.44070681e+00,
          1.00431746e+01,   1.51889695e+01,   2.73035111e+00,
          2.81826872e+01,  -1.36894803e+01,  -3.08067464e+01,
          1.35629110e+01,   1.64914755e+01,  -4.41556597e+01,
         -1.20754484e+01,  -2.67180444e+01,  -4.20827536e+01,
          3.25736022e+00,   1.75122799e+01,  -1.69650509e+01,
         -2.61056293e+00,  -1.53915433e+02,  -4.28728680e-01,
         -2.62085403e+01,  -4.75426916e+01,   2.19130611e+01,
          2.16545804e+00,  -1.84785176e+00,   1.03207573e+01,
          1.44963661e+01,  -2.40860705e+00,  -6.70255142e+00,
          4.58543247e+01,  -1.46225601e+01,   4.28385723e+01,
         -4.68802543e+00,   5.52627987e+01,  -4.25863971e+00,
          7.11559666e+01,   3.08389432e+01,  -2.72706008e+01,
          6.91648620e-01,  -5.02387198e+00,  -8.90886486e+00,
          7.40220294e+00,  -7.90225807e-01,  -4.43855408e+01,
         -4.16872988e+01,  -2.03160832e+00],
       [  1.28341770e+01,  -1.58528119e+01,   4.87954590e+00,
         -8.27086457e+00,  -2.58909582e+01,   8.49290304e+00,
         -1.26907677e+01,   1.23663359e+01,  -7.07234983e+00,
          9.13410666e+00,  -1.88481966e+01,   9.23297320e+00,
          9.20573282e-01,  -7.45402120e+00,  -2.57605925e+01,
         -4.86944942e+00,   2.71573893e+01,   2.33068699e+01,
          2.21541710e+01,   6.30623180e+00,   9.35722658e+00,
          6.76320336e+00,   4.66229638e+01,   1.53599948e+01,
          7.60671888e+01,  -1.81071825e+01,   1.07523438e+00,
          2.07406621e+01,   1.38525794e+01,   5.32432629e+00,
          4.55548496e+00,   8.29122795e+00,   1.50139970e+01,
          7.19452963e+00,  -1.17610001e+01,   1.00836280e+01,
          1.42079109e+01,  -1.13672185e+01,  -2.79316832e+00,
         -2.33321483e+01,  -3.28730362e+00,  -1.18326611e+01,
          6.91321923e+00,   9.59642068e+00,  -1.61025228e+01,
          8.10923296e+00,  -1.92869868e+01,   1.18507802e+01,
         -5.13179524e+00,   7.23909304e+00],
       [  2.28121498e+01,  -1.52395181e+01,  -1.11193732e+01,
         -2.19126958e+01,  -4.03671029e+01,  -4.93217727e+01,
         -1.87748498e+01,  -5.56248915e+01,  -7.25804827e+00,
         -2.53943132e+01,  -9.64894474e+00,   2.05837818e+01,
         -5.27475725e+01,  -1.93477949e+01,   4.92524795e+01,
         -1.98438473e+01,   1.20199840e+01,   2.50184053e+01,
         -3.38375666e+01,  -3.14685219e+01,   4.91015506e-01,
         -1.33188260e+01,   1.53479528e+02,  -1.85326520e+01,
          6.02556895e+01,   5.32365622e+01,  -3.35333397e+01,
         -5.89069129e-01,  -8.58966685e+00,  -4.07410721e+01,
         -7.08704162e+01,   3.15519741e+01,  -8.77197637e+00,
         -3.34596822e+01,  -5.31194946e+00,  -2.47116660e+01,
         -6.96347516e-02,  -5.74130465e+01,  -1.26424607e+01,
         -4.67898110e+01,  -2.04569105e+01,   3.20771995e+01,
         -1.16103513e+01,  -1.05729441e+01,  -3.08987999e+00,
         -2.10849121e+01,  -2.01462626e+00,   1.76683709e+01,
          4.99061183e+01,  -1.27071501e+01],
       [ -1.84761074e+01,  -1.50781494e+01,  -2.84090143e+01,
         -2.65175752e+01,  -5.11662024e+01,  -1.39000269e+01,
         -3.29758290e+01,   2.76028146e+01,  -3.78071598e+01,
          4.81154790e+00,  -1.47111008e+01,   1.25105639e+01,
          2.77345844e+01,  -2.14276774e+01,  -4.61112369e+01,
         -3.83619879e+01,   4.37578821e+00,   7.57344577e+00,
         -6.06635312e+00,   2.80736476e+01,  -1.36185297e+01,
         -2.78210578e+01,   6.61010056e+01,  -3.07976365e+01,
         -1.26566304e+00,   1.21839727e+02,  -1.94431533e+01,
          1.56909244e+01,   2.67114902e+00,  -1.15836451e+01,
         -1.20713733e+01,   1.97734293e+01,  -2.32624777e+01,
         -1.48536994e+02,  -3.43059744e+01,   4.54776558e+00,
          3.98027671e+00,   4.12001253e+01,  -1.25489112e+01,
         -7.19670450e+01,  -9.27312398e+00,  -1.35881015e+01,
         -2.68143627e+01,  -1.95460239e+01,   1.80197657e+00,
         -2.62428886e+01,  -2.48387586e+01,  -1.75845561e+01,
          1.24480036e+01,  -2.11970395e+01],
       [  4.89139020e+00,   1.33255145e+01,  -7.81905571e+00,
          7.69083980e+00,  -2.61555770e+00,  -1.36736370e+01,
          4.20442083e+00,   6.57409296e+00,  -8.00610836e-01,
          1.11915144e+01,  -1.09325323e+01,  -9.15141575e+00,
          5.55721614e+00,  -8.73866834e+00,  -2.94963138e+00,
          6.63329055e+00,  -1.36536901e+01,  -9.13010743e+00,
         -3.13684295e+00,  -8.49796384e-01,  -8.80139237e+00,
          9.20001746e-01,  -3.97965790e+01,  -1.52745675e+00,
         -7.25092264e+00,   4.95866855e+00,   9.59318113e+00,
         -7.43008574e+00,  -7.15479510e+00,  -3.70832943e+00,
         -4.49559712e+00,  -2.94018726e+01,  -1.78242225e+01,
         -4.58608350e+01,   1.30146710e+01,   3.77386073e+00,
         -1.36252075e+01,  -3.51044427e+00,   4.16439497e+00,
         -2.76075831e+01,  -5.07037780e+00,  -1.41116550e+01,
         -8.18759326e+00,  -2.81785484e+01,   8.86462552e+00,
         -7.43927658e+00,  -5.05253897e+00,  -1.44946386e+01,
         -9.41918497e+00,  -1.67580454e+01],
       [  8.50651614e+00,   1.48595179e+01,   9.47451372e-01,
          4.41881236e+00,  -1.26798814e+01,  -2.84896752e+01,
          1.19812407e+01,  -1.14638879e+01,   2.57190003e-01,
          6.09884875e+00,   4.24633622e+00,  -1.02973716e+01,
         -9.62930743e-01,   7.62853284e+00,   3.01592617e+01,
          1.16460604e+01,  -6.51868256e+00,  -2.11441759e+01,
          4.16713194e+00,  -6.95629151e+00,  -1.20740676e+01,
          9.13037618e+00,  -3.81326363e+01,   1.23820844e+01,
         -7.63407615e+00,   1.37900749e-01,   1.11648472e+01,
         -8.70066050e+00,  -2.63213436e+00,  -1.06091573e+01,
         -2.62405241e+01,  -1.35669141e+01,  -4.54835894e+00,
         -2.97711512e+00,   8.71141023e+00,   5.82990512e-01,
         -9.54118568e+00,  -2.10291432e+01,   6.59717557e+00,
          4.50717827e+00,   9.81552928e-01,  -1.08076377e+01,
         -2.97656425e+00,  -4.69228988e+00,   1.56451470e+01,
         -1.53991948e+01,   1.00124955e+01,  -6.20344329e+00,
         -8.92771676e+00,  -1.28020768e+01]])]Hidden bias: [array([ -0.82737622,  15.06161591,   0.23200403,   7.30210783,
         2.31791805,  -9.48522879,  18.77148111,  -3.53213709,
        10.28301899,  -8.33190771,   5.90480172,  -8.62040679,
         1.11492167,   0.49658553,   5.9110178 ,   8.67711619,
       -26.18876476, -24.25438614, -17.21393252,   1.62064183,
       -10.64151189,   0.65336648, -11.49231997,  -4.33824724,
       -45.14841887,  22.40883144,   2.40876578, -32.66848941,
       -19.20655804,  -9.197696  , -15.86816223, -21.62325227,
       -14.91005704, -29.4610911 ,  16.86657677,   1.49250934,
       -27.56581932, -13.87196752,   5.21630745, -17.74605084,
         3.37739456,  -0.72586339,  -7.21029561, -15.59135712,
        22.46449904, -16.1503453 ,  11.37447499, -12.90886989,
        -1.72776116, -12.56336954])]Output weights: [[ -1.00674907e+00]
 [  7.44033682e+00]
 [ -1.27441287e+00]
 [  7.26335522e-01]
 [ -1.72174309e-01]
 [ -1.70393655e+00]
 [  1.05365072e-01]
 [  1.08157721e+00]
 [  1.88294716e+00]
 [ -4.96984530e+00]
 [  1.78642097e+00]
 [ -5.86763625e-01]
 [ -3.23003761e-01]
 [  9.88161191e-01]
 [  2.84306227e-01]
 [  1.70101563e+00]
 [  3.57110358e+00]
 [ -3.42346622e-01]
 [ -1.83700123e+00]
 [  6.51290683e-01]
 [ -5.25739811e-01]
 [ -1.83552732e+00]
 [ -3.54624413e-01]
 [ -5.08616051e+00]
 [  1.60629234e+00]
 [  1.41809842e+00]
 [ -6.28744538e-01]
 [  8.69642725e+00]
 [  1.23041253e+01]
 [  1.77936440e+00]
 [ -2.41174063e+00]
 [ -6.38383220e+00]
 [  1.81179794e+00]
 [ -2.65586254e+00]
 [ -1.01979916e-02]
 [ -2.86527075e+00]
 [ -1.96233482e+01]
 [  2.27064617e+00]
 [  5.01661605e+00]
 [ -2.39190925e-01]
 [  1.61551656e+00]
 [  2.62156101e+00]
 [ -6.11108493e+00]
 [ -4.88860803e+00]
 [  1.24861574e+01]
 [ -7.53915180e+00]
 [ -4.01336802e+00]
 [  2.79678493e+00]
 [  3.20720873e-01]
 [ -6.32472334e+00]]Output bias: [-144.06670024]