Action MLP:Hidden weights: [array([[  8.26932459e-02,   8.21514209e-02,  -1.12001524e-01,
          3.47118730e-01,   7.29177397e-02,   2.05492054e-01,
          8.81792363e-02,   4.68509984e-02,   1.69729758e-01,
          2.10585535e-01,   2.42852668e-01,   3.46095548e-02,
          2.16330604e-01,   2.38014395e-01,   9.78027164e-02,
         -1.53215891e-01,   4.55639600e-01,  -4.24127482e-02,
          1.18675211e-01,   8.96063717e-02,   4.61381616e-02,
          7.80239184e-02,  -4.39942929e-02,   2.82683370e-01,
          1.93224486e-02,   2.72392577e-01,  -1.34066427e-01,
         -2.26108758e-02,  -1.47484793e-02,  -1.38181322e-01,
          4.75897511e-02,   1.73942204e-01,  -8.63712681e-02,
          4.83618183e-02,  -7.57556684e-02,   5.15183685e-02,
          6.35027030e-02,  -1.11083775e-01,  -6.45289517e-02,
          3.31762873e-03],
       [  2.31396354e-01,   2.72500413e-01,   4.68663668e-01,
          3.48061377e-01,   3.35924676e-01,   3.31367183e-01,
          4.28404599e-01,   3.20338294e-01,   2.66819783e-01,
          1.81165450e-01,   1.92028203e-01,   3.32698280e-01,
          2.69298651e-01,   3.05191382e-01,   3.13849769e-01,
          3.14530725e-01,   3.53382352e-01,   1.82756188e-01,
          3.40000342e-01,   4.36318319e-01,   3.43624002e-01,
          1.78326980e-01,   3.33341044e-01,   2.88288394e-01,
          2.42435367e-01,   2.94095098e-01,   3.91127347e-01,
          5.57011892e-01,   3.47556734e-01,   3.58173132e-01,
          1.73318082e-01,   2.44767604e-01,   4.09140955e-01,
          3.84323607e-01,   2.75307815e-01,   3.89462360e-01,
          3.21384455e-01,   2.68882210e-01,   3.46184944e-01,
          4.18677967e-01],
       [  1.05952586e-02,  -4.56390993e-02,   9.12945736e-02,
         -1.46007061e-01,  -5.94819462e-02,  -6.08476150e-02,
          8.90007778e-02,   5.58677741e-02,  -5.73322014e-02,
         -4.67094171e-03,   2.13796932e-03,   5.04605843e-02,
          9.70333689e-03,  -1.04604315e-01,   5.08415837e-02,
          3.29540234e-02,  -5.90713270e-01,   4.15641511e-02,
         -7.56139351e-02,  -8.76449496e-02,  -3.17737978e-02,
         -4.98218065e-02,   8.08093912e-02,  -2.41721104e-02,
          3.61536469e-02,  -5.86256321e-02,  -3.25056111e-03,
          2.35671340e-01,  -5.26277042e-03,  -1.54856440e-02,
         -2.83059014e-02,  -5.91886827e-02,   3.03826566e-02,
         -5.01916194e-02,  -4.13508847e-02,   3.96742561e-02,
         -8.73232660e-02,   2.56081079e-02,   2.99892404e-02,
          5.69183088e-02],
       [ -1.37567725e-01,   7.10638311e-03,  -3.47728126e-01,
         -1.45740918e-01,  -1.87347158e-01,  -1.80074373e-01,
         -1.02212115e-01,  -1.27410614e-01,  -2.13684225e-01,
         -4.13775094e-01,  -3.55800048e-01,  -3.22437308e-01,
         -6.32287360e-02,  -5.22722570e-02,  -2.41281907e-01,
         -4.20654160e-01,  -4.36195481e-01,  -5.88766742e-01,
         -1.28734878e-01,   2.46500952e-02,  -2.73592241e-01,
         -3.58119816e-01,  -4.19180618e-01,  -1.40246258e-01,
         -1.31207675e-01,  -3.26710201e-01,  -1.37213298e-01,
          7.77443980e-02,  -2.80642349e-01,  -2.49718916e-01,
         -5.33328624e-01,  -2.43822780e-01,  -8.75752041e-02,
         -1.54733655e-01,  -5.02897099e-01,  -4.98857935e-02,
         -7.99175919e-03,  -2.94879111e-01,  -5.91511550e-02,
         -1.31846174e-01],
       [ -8.73978215e-03,   2.30321922e-02,  -1.13326286e-01,
          1.01737247e-01,  -2.04066910e-02,   7.12331705e-02,
          1.27410742e-02,  -7.14688691e-02,  -6.60412420e-03,
          5.50868347e-02,  -7.57173622e-02,   3.07743959e-02,
          8.90904779e-02,  -8.79596410e-02,  -1.86100534e-02,
          5.36903766e-02,   4.77894675e-01,  -3.72897713e-02,
         -1.41687854e-02,   1.87285181e-02,   1.16079788e-03,
         -1.20105732e-01,   4.36349046e-02,   2.68952101e-02,
          8.60546866e-02,  -6.06899556e-02,   5.08134594e-02,
          5.12973882e-02,   3.72340923e-02,  -6.24146430e-02,
          3.33206312e-02,  -1.10898405e-01,  -5.28056598e-02,
         -6.45758254e-02,   1.00324799e-01,  -4.43657838e-02,
         -1.66289091e-02,   8.87897881e-02,   1.05203726e-02,
          6.89543829e-02],
       [  4.26676077e-02,  -7.62675091e-02,  -3.42085957e-01,
          3.54040495e-01,  -5.98913316e-02,  -1.19245146e-02,
         -3.02696145e-02,   9.98106117e-02,   1.31087297e-01,
          2.31042036e-01,  -9.06105121e-02,  -1.15954556e-01,
         -9.12567730e-02,  -3.79319484e-02,   1.15571738e-01,
         -1.61356575e-01,   1.18671839e+00,  -1.19023624e-01,
          6.94676780e-03,   8.19988677e-02,   3.58877286e-02,
          6.56996004e-02,  -1.74762580e-01,   5.68849155e-02,
          3.77108819e-02,   9.60255254e-02,  -3.96841640e-02,
         -1.11903435e-01,  -6.79473884e-02,  -1.09158809e-01,
         -2.30507714e-01,  -3.63185398e-02,   4.19207011e-02,
          1.50212141e-01,   9.05076898e-02,   1.44869017e-01,
          7.37396789e-02,   3.19006270e-02,  -4.44528932e-02,
         -1.38315340e-01],
       [ -6.41741552e-02,  -2.73293352e-02,  -4.43164224e-02,
         -2.57016107e-02,   1.13886636e-01,  -7.10039792e-02,
         -5.75836905e-02,   8.39120069e-03,  -6.03823074e-02,
         -1.41409560e-02,   1.52004321e-01,   7.23248820e-02,
         -3.83435940e-03,   6.63786308e-02,   2.64936221e-02,
          1.05617766e-01,  -5.15236066e-02,  -4.42389076e-02,
         -5.24116838e-02,  -5.45754224e-02,   7.73643781e-02,
          8.85368590e-02,  -4.61069510e-03,   4.57944218e-02,
          1.90577082e-02,   3.31857393e-02,  -2.60832700e-02,
         -7.30338470e-03,   9.71636280e-02,  -8.28828747e-02,
          1.13622375e-01,   1.39722420e-01,  -2.65870625e-02,
         -9.09856379e-03,   8.55214007e-02,   2.72181612e-03,
         -7.64945040e-02,  -7.37900508e-02,  -5.76918083e-02,
         -2.41890464e-02],
       [ -3.32226269e-02,  -8.48458954e-03,  -8.93488349e-02,
         -2.78560677e-02,  -1.24326720e-02,  -1.58917723e-02,
          1.00675581e-01,   4.47302422e-02,   2.07897775e-02,
          1.84459181e-02,  -7.35002431e-02,   3.74983393e-02,
         -2.58140413e-02,  -6.48735068e-02,  -3.72788283e-02,
          3.51275852e-02,  -3.92810668e-02,   1.29390931e-01,
          3.88844212e-03,   4.58181175e-02,   5.16818407e-02,
          2.34276075e-02,  -2.87716800e-02,  -3.58981602e-02,
          1.12192752e-01,  -2.79664215e-02,  -3.48943877e-02,
         -1.45942790e-03,   1.13422864e-01,   1.17818645e-01,
         -5.56715632e-02,   6.12895613e-02,   7.76673590e-02,
          5.33380353e-02,   4.29371569e-03,   1.08935315e-01,
         -6.79765524e-02,   6.29781183e-02,  -5.45682905e-02,
          7.75047035e-02]])]Hidden bias: [array([-0.53042616, -0.49637204, -0.53727048, -0.56703816, -0.53506967,
       -0.55243904, -0.51121996, -0.52925273, -0.5460441 , -0.5621506 ,
       -0.57629642, -0.54942315, -0.51958389, -0.53533973, -0.54261269,
       -0.52635316, -0.39492635, -0.55390268, -0.52744004, -0.51984703,
       -0.54886096, -0.54340587, -0.54683706, -0.5461226 , -0.51368188,
       -0.59444775, -0.48206469, -0.49371344, -0.53273174, -0.50176556,
       -0.55834806, -0.55026045, -0.48953053, -0.53302916, -0.53463785,
       -0.5056938 , -0.5148637 , -0.50554386, -0.47993083, -0.49871081])]Output weights: [[ 0.07767451  0.08922423]
 [-0.02538145  0.1364664 ]
 [ 0.11626714 -0.13813718]
 [ 0.06504808  0.19600135]
 [ 0.08015849  0.06447104]
 [ 0.06194563  0.11918169]
 [-0.03461626  0.01397497]
 [ 0.0320549   0.0189038 ]
 [ 0.11277158  0.08004933]
 [ 0.24455885  0.05635527]
 [ 0.19016984  0.19735817]
 [ 0.13810441  0.0371535 ]
 [ 0.00636964  0.17685827]
 [ 0.00662126  0.19371065]
 [ 0.08639954  0.01743744]
 [ 0.19954554 -0.0539968 ]
 [ 0.21608508  0.81356855]
 [ 0.32993605  0.02047233]
 [ 0.0309941   0.08346701]
 [-0.07400138  0.06206727]
 [ 0.10397193  0.00925744]
 [ 0.21139749  0.05536011]
 [ 0.18698995 -0.01575895]
 [ 0.04802302  0.14533727]
 [ 0.0724137   0.0333712 ]
 [ 0.15754513  0.1118001 ]
 [ 0.01293039 -0.06832747]
 [-0.16751374 -0.09048982]
 [ 0.10359737  0.00620474]
 [ 0.08974246 -0.04650331]
 [ 0.32190491  0.09355728]
 [ 0.11856117  0.1409835 ]
 [-0.01493755 -0.05790845]
 [ 0.03603096 -0.0037068 ]
 [ 0.24960195 -0.10773088]
 [-0.02984361 -0.0154657 ]
 [-0.02109953  0.09344613]
 [ 0.14557601 -0.07249993]
 [-0.01622844  0.00415792]
 [-0.00311701  0.01126819]]Output bias: [ 0.69850293  0.58291   ]
Value MLP:Hidden weights: [array([[  1.97862967,   7.73493937,  -4.08370816,  -4.17353651,
          6.0081075 ,  -4.80050827,  14.66747641,  -1.27684315,
         -7.3138076 ,   2.07482119,   0.31070519,   8.90059044,
          0.66634938,   8.35261476,   5.65057518,  21.12205508,
         11.52472242,  -9.31870163,  -5.3378716 ,  14.36608732],
       [-17.56122474,   2.88012363,   1.53612879,  -3.70164204,
         -1.4816555 ,  -2.15644644,  -2.31327584,  -2.40544977,
         -0.14273691,   5.59296848,  -2.00156114,  -3.09383384,
          8.15658612,  -0.1631536 ,  -7.06318532,  -7.83660558,
          4.08022107,   1.03290523,   5.34248272,   4.73391609],
       [ -2.42093399,   8.14268901,   6.33380893,  -2.3995478 ,
         -1.92172766,   1.24275534,  47.30393451,   0.86372883,
        -21.05028322,  10.56490616,   5.19072438,   6.97140808,
          8.36898993,  18.22065716,  40.01194961,  66.19178966,
         -6.19886799,  -6.40819658, -16.59809162,  21.70211859],
       [ 20.70634917,   0.54532869,   1.05148112,   7.55622367,
         -6.5423345 ,   5.74472119,  11.68885834,   2.9899356 ,
         -5.13668367,   2.22942743,   1.55334304,   7.06169456,
          6.19491048,  -4.88837092,   7.39030497,  26.39120183,
         -9.58477515,  10.6722559 ,   4.7250767 ,   0.60750552],
       [ 21.01342879,   6.00975512, -21.87417569,   0.65693025,
         11.50343387,  -1.37764629, -26.53952399,  -1.11319507,
         35.94615584,   0.1866334 , -17.85712389,  21.53757739,
        -24.61327995, -25.48312163, -23.10073727, -61.84829257,
         16.10102161,  -9.51537878,  11.74182053,  -5.04549592],
       [-64.17841282,  19.39482967, -19.5296348 ,  -1.36301622,
         25.65654415,  -0.93983015,  86.02156636,   0.65686499,
         16.60203189,  23.65223019, -22.12226423,  17.5810967 ,
        -19.31139516,  -4.27356118,  87.19761594, -20.1470144 ,
         34.7401356 ,  -7.89719247,  17.30693208,  -1.7841555 ],
       [ -2.50922146,  -4.89210461,  -2.4601362 ,  -4.71057435,
          0.28036627,  -5.48757756,  -6.51676423,  -2.43977656,
         -5.14250019,   2.10799252,   7.71188626,  -7.70795705,
        -13.89559941,   0.19864831,  -3.43994792,  -6.05191972,
         -0.28219042,  -3.43616763,  -1.54638136,  -4.70509028],
       [  1.41859653,  -9.75969439,  -7.84731862,  -5.28623909,
          2.01794298,  -4.00899621, -31.76013934,  -1.82056592,
         -3.06709399, -11.40039108,  -1.50225866,  -5.926207  ,
         -4.10944974,  -3.55198476, -16.747331  ,  -1.15864505,
          7.20025969,  -1.51920757,  -3.76590042,  -7.44397858]])]Hidden bias: [array([-33.65512439,  -7.74500662,   1.98563563, -19.08524911,
        12.13780688, -13.8767259 , -45.09812249,  -8.51554467,
        -3.57888724,  -4.03949511,   5.95551135, -19.78354475,
       -14.82015505,   3.60235823, -26.32114547, -21.21033061,
        -1.42453832,  -9.57667799,  -1.72880535,  -3.48857429])]Output weights: [[  1.16075873]
 [ -1.85617802]
 [ 10.70296098]
 [  4.50753466]
 [  6.71870497]
 [ 27.09789114]
 [  5.73980834]
 [ 34.749613  ]
 [ -0.50914056]
 [  0.45450925]
 [ 10.36486931]
 [-11.21588337]
 [-11.8789943 ]
 [  9.42991567]
 [  6.13796307]
 [  1.15418348]
 [ -2.34606921]
 [-10.95337527]
 [ -3.43410342]
 [  5.79028165]]Output bias: [-45.59295334]