Action MLP:Hidden weights: [array([[ -1.38996479e+00,  -1.29537521e-01,   5.43609537e-03,
          4.06630655e-03,   1.81729917e-02,  -2.46074308e-01,
         -3.33809958e-02,   3.85550873e-01,  -1.45966035e-01,
          4.48844292e-02,   3.57963651e-03,   1.05216714e-02,
          3.11536105e-02,   1.11498187e-01,  -1.78585770e-01,
         -1.84725455e-02,   5.36794898e-03,   6.39334805e-03,
          3.70110339e-02,   7.41587597e-01],
       [ -1.48405181e+00,  -3.39307276e-01,  -5.48607756e-02,
         -1.74047004e-01,   1.85036105e-02,   5.74796947e-02,
          1.61380119e-01,   6.47293655e-01,  -5.18857229e-01,
         -1.34980142e-03,   4.82872074e-02,  -2.16471920e-02,
         -6.31229637e-02,  -1.93657911e-01,   7.35260717e-01,
          2.00053045e-01,   1.61287641e-01,   6.90091424e-03,
         -2.46698878e-03,  -3.06619934e+00],
       [ -6.46404518e-01,  -1.14889983e-01,   5.89702298e-02,
          9.96777851e-02,   6.56397568e-02,  -4.44294046e-01,
         -6.81032368e-02,   4.27676902e-01,  -8.99848262e-02,
          9.47406982e-02,   1.99236011e-02,   6.45672998e-02,
          1.28605610e-01,   4.66323861e-02,  -4.16586326e-01,
         -3.31803989e-02,   3.98653785e-03,   3.35326676e-02,
          8.82527893e-02,   3.03028979e-01],
       [ -1.51778144e+00,  -3.18047398e-01,  -3.02396440e-01,
         -3.51145887e-01,  -3.04108038e-01,  -2.69941053e-01,
         -2.65326035e-01,  -6.86647522e-01,  -3.59553472e-01,
         -3.20440374e-01,  -2.94013299e-01,  -3.80280546e-01,
         -4.88287235e-01,  -7.20735556e-01,  -2.81277143e-01,
         -2.28745490e-01,  -2.18672410e-01,  -3.13671499e-01,
         -3.50475482e-01,  -3.19263380e+00],
       [ -1.22521226e+00,   3.51951554e-01,   2.68832661e-01,
          2.41014122e-01,   1.61263347e-01,   7.38689430e-01,
          3.88274945e-01,  -6.78515008e-01,   3.03891971e-01,
          8.33507316e-02,   2.24007799e-01,   9.01628692e-02,
         -5.18589989e-02,  -2.68818449e-01,   6.91412990e-01,
          4.00188319e-01,   3.77708451e-01,   1.94043941e-01,
          7.30288807e-02,   8.30718424e-01],
       [  9.10604692e-02,  -1.00396293e-01,   2.56396214e-01,
          2.29586572e-01,   1.53096492e-01,   1.10108090e-01,
          3.54653988e-01,  -1.36962610e+00,  -2.46887167e-02,
          1.30436745e-01,   2.04484763e-01,   1.40660763e-01,
          1.82989025e-01,  -2.53982659e-01,   1.13528730e+00,
          3.89042279e-01,   3.55452034e-01,   1.56819414e-01,
          1.34066252e-01,  -9.05087083e-02],
       [  1.34703239e-01,   2.69586010e-01,  -3.21601600e-01,
         -3.12450084e-01,  -1.09441784e-01,  -3.93789014e-01,
         -3.54241726e-01,  -8.38794765e-01,   3.25103113e-01,
         -1.12470512e-01,  -1.58146093e-01,   1.20237552e-02,
          2.08205921e-01,  -3.01792814e-01,  -8.85429509e-01,
         -3.79558564e-01,  -3.43340511e-01,  -9.81200640e-02,
         -4.05602840e-03,   1.06052509e-02],
       [ -3.22408910e-02,   4.36476255e-01,  -2.99742395e-01,
         -3.22163544e-01,  -1.05429844e-01,   4.57904583e-02,
         -2.60654467e-01,  -9.99531380e-01,   5.18185300e-01,
         -1.23307977e-01,  -1.24268259e-01,   3.40265696e-02,
          1.95815071e-01,  -4.24989554e-01,  -7.41118386e-01,
         -3.17914044e-01,  -3.32951427e-01,  -6.11677353e-02,
         -2.39688350e-02,   2.24648970e-01]])]Hidden bias: [array([-0.81102285, -0.37208771, -0.53507424, -0.53573674, -0.53027268,
       -0.42348351, -0.63393698, -0.69276272, -0.35235585, -0.50232641,
       -0.56176232, -0.56653112, -0.63060821, -0.71247855, -0.63789976,
       -0.60915222, -0.57050655, -0.55661823, -0.54433006, -0.7076691 ])]Output weights: [[ 1.58035552 -0.13180005]
 [-0.42749143  0.39144598]
 [ 0.03518413  0.24164954]
 [-0.00354397  0.24071454]
 [ 0.02610779  0.05980096]
 [-0.05892939  0.56897402]
 [ 0.04266648  0.34557869]
 [ 0.09307729 -1.32028082]
 [-0.61555466  0.38389801]
 [ 0.02783461  0.00261027]
 [ 0.02678377  0.12654533]
 [-0.09961697 -0.00558751]
 [-0.29631601 -0.12818844]
 [-0.23213559 -0.27577639]
 [ 0.19863671  1.13154335]
 [ 0.11394744  0.36169966]
 [ 0.1408218   0.31901313]
 [-0.01309625  0.08850301]
 [-0.04816159 -0.02583072]
 [ 1.95373705 -0.01952503]]Output bias: [ 1.47016359  0.94712167]
Value MLP:Hidden weights: [array([[ -8.86355255e-02,   8.61239219e-01,  -1.60376255e+00,
         -1.22474414e+01,  -3.08677270e-01,  -6.31081020e+00,
         -2.74532532e-02,   8.86048508e-01,   7.85592768e-01,
          2.18042407e+00,   1.35108941e+00,   2.29989552e-01,
          1.29012720e+00,   4.77690791e+00,  -2.48912969e+00,
         -5.27111971e+00,  -1.29339645e+01,  -8.90335966e-01,
          3.64122026e-01,   1.02093701e+00],
       [ -2.99780915e+00,  -2.31197672e+00,  -1.75989977e+00,
         -4.89443781e+00,   2.39425267e+00,  -3.99099289e+00,
          3.19985717e+00,  -3.85019021e+00,   5.86649508e+00,
         -7.02139251e+00,   1.33892655e+00,   2.99460608e+00,
         -1.50633510e+00,  -4.19362456e+00,  -5.95759033e+00,
         -2.10721940e+00,  -2.09556242e+00,  -4.84845793e-01,
          3.42734127e+00,  -3.60458650e+00],
       [  1.41930467e+00,  -4.55567202e-01,  -7.30360839e-01,
         -5.14457118e+00,   1.94773695e+00,  -5.61184003e+00,
         -2.82583838e+00,   8.51400956e-01,   1.94358286e-01,
         -3.58941974e+00,   2.15028180e-01,   1.79714792e-02,
          9.95162402e-03,   4.60344014e+00,   1.04113355e+00,
         -2.55830684e+00,   1.33185298e+00,   3.60726644e-01,
         -1.26622662e+00,   6.89602547e-01],
       [ -5.72289230e+00,  -4.00837902e+00,  -6.22358872e+00,
         -3.86733222e+00,   5.14780453e+00,   7.31468094e+00,
          4.24159050e+00,  -4.82629766e+00,  -1.41973783e+00,
         -4.31499351e+00,   7.47049545e+00,   4.83333043e+00,
          4.10911136e+00,   6.76866709e+00,  -4.17264681e+00,
         -6.69951728e+00,   4.17621348e+00,  -6.39747632e+00,
          5.83149575e+00,  -5.97819687e+00],
       [  2.74121061e-01,   2.87333250e-02,  -1.09242766e+00,
         -3.28872273e+00,  -7.38017416e-01,   2.02236017e+00,
          2.07794651e-01,  -1.26762844e+00,   2.34123174e-01,
          2.76873544e+00,   8.44826242e-01,   2.77343236e-03,
          1.01128283e+00,   2.31397518e+00,  -2.02599211e+00,
         -2.98660049e+00,  -2.69462347e+00,  -6.43353405e-01,
         -8.73959801e-02,  -1.56694384e+00],
       [  3.93365252e-01,   5.63396182e-01,  -3.87173901e-01,
         -1.20472240e+00,  -1.48564121e-01,  -2.36128152e+00,
         -2.13224473e-01,   8.16795056e-01,   1.96480221e+00,
         -2.71226392e+00,   1.97352057e-01,   4.33683420e-02,
         -3.94172559e-01,  -1.18266643e+00,   2.36844695e+00,
         -1.36729536e+00,   1.08394614e+00,   7.40532900e-01,
         -2.67117365e-01,  -1.11525075e-01],
       [  2.96191421e+00,   4.01493432e+00,   4.05738736e+00,
          3.39259229e+00,   4.16531726e-01,   9.83016325e+00,
          5.60319311e-01,   4.89593860e+00,   9.91953485e+00,
          7.62306782e+00,   1.06275338e+01,  -3.46035193e-01,
          9.51230437e+00,   1.65110021e+00,   3.95900785e+00,
          5.67931444e+00,   9.55984206e+00,   2.74336223e+00,
         -3.09563754e+00,   7.07090471e+00],
       [  2.18677197e+00,   3.41055088e+00,   1.46391662e+00,
          2.26459049e+00,   5.48565722e-01,   1.04597370e+01,
          5.95601962e-01,   3.25906567e+00,   1.31019339e+01,
          8.98467391e+00,   2.90497849e+00,  -2.01722322e-01,
         -1.42742568e-01,   1.07786960e+01,   4.37657158e+00,
          2.92482839e+00,   4.52356161e-01,   2.35429899e+00,
         -3.04620448e+00,   9.44801635e+00]])]Hidden bias: [array([  8.51164181,   6.62846758,   7.52732669,  15.10780205,
        -6.16361731,  -5.15354716,  -9.72315464,   8.86548973,
        -8.57999551,   4.64974332,  -7.65350638,  -5.17698518,
        -5.25024004,  -3.71226222,  10.68205371,   8.54203634,
        -2.97974334,   6.10191957,  -8.84540281,   9.16460288])]Output weights: [[  1.87841913]
 [  4.21653318]
 [  6.69804947]
 [ 13.42739476]
 [ 13.96011206]
 [ -0.697726  ]
 [ -1.86095582]
 [ 16.88518623]
 [  4.45106985]
 [ 25.38985306]
 [ -3.71885958]
 [ 15.38594479]
 [ 10.27217306]
 [ -4.40868023]
 [ 29.85451281]
 [ 19.98650953]
 [ -9.93748343]
 [ -6.80733507]
 [ 10.92525561]
 [ 20.74767399]]Output bias: [-16.93730564]