Action MLP:Hidden weights: [array([[ -9.55684902e-01,  -8.47394813e-02,   1.69969042e-02,
          1.75765398e-02,   2.01159018e-02,  -1.92958576e-01,
         -1.52562567e-02,   2.86254749e-01,  -9.89534410e-02,
          4.30734428e-02,   9.81525525e-03,   1.40713769e-02,
          3.16120663e-02,   9.14422414e-02,  -1.06245831e-01,
         -5.36501282e-03,   1.34842121e-02,   1.24901304e-02,
          3.69957573e-02,   3.48506577e-01],
       [ -1.50597926e+00,  -2.98421454e-01,  -5.25423388e-02,
         -1.72652201e-01,   1.83759199e-02,   6.81846050e-02,
          1.69450971e-01,   5.46999826e-01,  -4.56038922e-01,
         -3.05928017e-03,   5.00826081e-02,  -2.09523128e-02,
         -6.37825645e-02,  -2.03497126e-01,   7.00094409e-01,
          2.09258965e-01,   1.68280289e-01,   8.07852128e-03,
         -2.99863220e-03,  -2.92410168e+00],
       [ -6.35126660e-01,  -1.46385374e-01,   3.84935782e-02,
          8.00197838e-02,   6.11407558e-02,  -4.86211129e-01,
         -9.83725668e-02,   4.08209447e-01,  -1.22520831e-01,
          9.57016247e-02,   8.94635295e-03,   6.52646721e-02,
          1.35470211e-01,   7.23916945e-02,  -4.03932510e-01,
         -6.44859166e-02,  -2.41379467e-02,   2.61474403e-02,
          9.15594491e-02,   3.03479868e-01],
       [ -1.48879511e+00,  -3.71264594e-01,  -3.05635242e-01,
         -3.53294102e-01,  -3.05494916e-01,  -2.96111231e-01,
         -2.75012552e-01,  -6.90887720e-01,  -4.32498012e-01,
         -3.20899982e-01,  -2.97012896e-01,  -3.83534144e-01,
         -4.90992676e-01,  -7.08125815e-01,  -2.44911034e-01,
         -2.38697019e-01,  -2.25991835e-01,  -3.16410291e-01,
         -3.52574211e-01,  -3.31864967e+00],
       [ -8.76631076e-01,   3.65295097e-01,   2.59588324e-01,
          2.34555218e-01,   1.57611046e-01,   7.29728753e-01,
          3.75997054e-01,  -6.55824642e-01,   3.23737493e-01,
          8.13246790e-02,   2.18424621e-01,   9.36600397e-02,
         -4.20539614e-02,  -2.63965402e-01,   6.52320457e-01,
          3.81887313e-01,   3.58344480e-01,   1.91717088e-01,
          7.50407079e-02,   4.76668661e-01],
       [ -4.82040740e-02,  -1.96497596e-02,   2.77711931e-01,
          2.49505454e-01,   1.63021922e-01,   1.86512646e-01,
          3.79769767e-01,  -1.30698549e+00,   4.67250639e-02,
          1.32103387e-01,   2.22245173e-01,   1.39443991e-01,
          1.55613021e-01,  -2.72319029e-01,   1.10543075e+00,
          4.14262315e-01,   3.80959238e-01,   1.70663860e-01,
          1.30063898e-01,  -4.51519690e-03],
       [  6.23942054e-02,   2.40845864e-01,  -3.20888623e-01,
         -3.10110630e-01,  -1.12992317e-01,  -4.01499476e-01,
         -3.46964898e-01,  -7.55746409e-01,   3.14936095e-01,
         -1.15661541e-01,  -1.60582980e-01,   7.54377221e-03,
          1.96640450e-01,  -2.82005977e-01,  -8.32758405e-01,
         -3.76222882e-01,  -3.45079396e-01,  -1.01351960e-01,
         -6.77479451e-03,   6.10910012e-02],
       [ -2.95319905e-02,   4.50134551e-01,  -2.85210187e-01,
         -3.07733799e-01,  -1.03952845e-01,   9.34771895e-02,
         -2.35532183e-01,  -9.50390176e-01,   5.40312811e-01,
         -1.25604386e-01,  -1.17359633e-01,   2.84013808e-02,
          1.66775657e-01,  -4.13877013e-01,  -6.67647373e-01,
         -2.93797249e-01,  -3.13499188e-01,  -5.77197510e-02,
         -2.92695242e-02,   2.22300559e-01]])]Hidden bias: [array([-0.95828284, -0.33787569, -0.54063934, -0.54217217, -0.54663855,
       -0.3956489 , -0.62631304, -0.66149386, -0.29430448, -0.52098869,
       -0.57318998, -0.57266678, -0.6157311 , -0.68852155, -0.67750872,
       -0.60650656, -0.57446801, -0.56804795, -0.55677581, -0.60064737])]Output weights: [[ 1.27564104 -0.17626087]
 [-0.42665555  0.38232639]
 [ 0.05407502  0.24765512]
 [ 0.01748053  0.23762144]
 [ 0.03241603  0.06633805]
 [-0.09065215  0.63348149]
 [ 0.06866549  0.37028407]
 [ 0.05460751 -1.29816689]
 [-0.61399665  0.38630763]
 [ 0.03316822  0.00369445]
 [ 0.03610047  0.14278408]
 [-0.09196656  0.00245009]
 [-0.27404492 -0.11889855]
 [-0.18602471 -0.31200409]
 [ 0.30006585  1.13543936]
 [ 0.14315293  0.38339207]
 [ 0.16414318  0.33714426]
 [-0.00705182  0.10001805]
 [-0.04200445 -0.02255928]
 [ 1.92774818  0.01102532]]Output bias: [ 1.40939465  0.9752515 ]
Value MLP:Hidden weights: [array([[ -8.85780526e-02,   8.60507225e-01,  -1.60130555e+00,
         -1.14227661e+01,  -3.14501955e-01,  -5.79301924e+00,
         -2.74184692e-02,   8.85157011e-01,   9.08844316e-01,
          2.73402865e+00,   1.36347110e+00,   2.20443602e-01,
          1.74588073e+00,   2.91341458e+00,  -2.49409748e+00,
         -2.91819807e+00,  -1.34509052e+01,  -8.92250824e-01,
          3.64230952e-01,   1.02137221e+00],
       [ -3.01513303e+00,  -2.40054029e+00,  -1.80741501e+00,
         -4.83611844e+00,   1.77420047e+00,  -4.07629737e+00,
          3.20130047e+00,  -3.97749688e+00,   6.59739470e+00,
         -6.12006745e-01,   1.36092056e+00,   1.94450834e+00,
         -1.45168058e+00,  -2.47120968e+00,  -6.13100378e+00,
         -3.73711139e+00,  -2.40098171e+00,  -4.50104410e-01,
          3.37628332e+00,  -3.74059658e+00],
       [  1.42336723e+00,  -4.77579169e-01,  -7.40535860e-01,
         -4.35635551e+00,   1.67216858e+00,  -5.02179406e+00,
         -2.82640433e+00,   8.63374076e-01,   3.04308944e-01,
         -4.98316661e-02,   2.31753148e-01,  -3.09323661e-02,
          3.22333270e-01,   4.99198642e+00,   1.04675960e+00,
         -1.75813572e+00,   2.02225577e+00,   3.59044632e-01,
         -1.25778781e+00,   7.01357821e-01],
       [ -5.72986701e+00,  -4.05675993e+00,  -6.24163736e+00,
         -3.58685472e+00,   4.90773757e+00,   7.20589449e+00,
          4.24248826e+00,  -4.88421332e+00,  -1.28512462e+00,
          6.70081761e+00,   7.45454524e+00,   4.37690399e+00,
          4.25374286e+00,   6.88843322e+00,  -4.28469438e+00,
         -6.68828955e+00,   4.19550891e+00,  -6.38497300e+00,
          5.81149784e+00,  -6.02931650e+00],
       [  2.73713097e-01,   2.99533691e-02,  -1.09131153e+00,
         -3.15362719e+00,  -7.21305922e-01,   1.61781374e+00,
          2.07920645e-01,  -1.27062091e+00,   2.56405652e-01,
         -1.04137634e+00,   8.32677298e-01,  -5.86455983e-03,
          1.10933358e+00,   2.23456492e+00,  -2.03458981e+00,
         -2.35176401e+00,  -1.89514581e+00,  -6.43188868e-01,
         -8.82202740e-02,  -1.56797069e+00],
       [  3.92754698e-01,   5.63753928e-01,  -3.85747823e-01,
         -1.06268316e+00,  -1.32795969e-01,  -2.44474028e+00,
         -2.13027041e-01,   8.10948759e-01,   2.19897961e+00,
         -1.18071759e+00,   1.73155534e-01,  -2.41732252e-02,
         -3.40600337e-01,  -9.06860109e-01,   2.34655256e+00,
         -1.03996002e+00,   1.05372247e+00,   7.40032772e-01,
         -2.68563220e-01,  -1.12245420e-01],
       [  2.96191421e+00,   4.01493431e+00,   4.05738735e+00,
          3.39259229e+00,   4.21266109e-01,   1.09313607e+01,
          5.60316945e-01,   4.89593860e+00,   7.70744539e+00,
          7.45424935e+00,   1.08501775e+01,  -3.45760864e-01,
          9.45420430e+00,   2.45423338e+00,   3.95900785e+00,
          5.67931444e+00,   6.84110701e+00,   2.74336289e+00,
         -3.09563754e+00,   7.07090471e+00],
       [  2.18677196e+00,   3.41055082e+00,   1.46391624e+00,
          2.26459049e+00,   5.53150008e-01,   1.04782517e+01,
          5.95599666e-01,   3.25906567e+00,   1.09832086e+01,
          8.98586927e+00,   2.90573708e+00,  -2.01665676e-01,
         -1.59094920e-01,   1.07787982e+01,   4.37657158e+00,
          2.92482838e+00,   1.24679002e+00,   2.35430026e+00,
         -3.04620449e+00,   9.44801635e+00]])]Hidden bias: [array([  8.49362785,   6.53629594,   7.48162329,  16.09556937,
        -6.79795792,  -3.94532211,  -9.72164699,   8.7328944 ,
       -12.13121326,  -2.68765553,  -7.40698658,  -6.26586303,
        -4.82829749,  -4.59055424,  10.49967293,   8.85941719,
        -3.60201189,   6.13470866,  -8.89849804,   9.02355679])]Output weights: [[  3.51565971]
 [  5.85995231]
 [  8.33603292]
 [ 14.93112603]
 [ 12.30036721]
 [ -8.22292619]
 [ -3.49571484]
 [ 18.52337949]
 [  3.31562769]
 [ 20.81072543]
 [ -4.85255885]
 [ 13.71343614]
 [  9.13759581]
 [ -6.43140152]
 [ 31.49200671]
 [ 23.0319153 ]
 [-11.61284563]
 [ -5.16979962]
 [  9.28791115]
 [ 22.38541191]]Output bias: [-15.30276397]