Action MLP:Hidden weights: [array([[-0.02968007,  0.07126886, -0.00538455, -0.01680412, -0.03117084,
        -0.01344727,  0.03328464, -0.03958758, -0.05053265,  0.00758102,
         0.03720477, -0.00536956,  0.09397391, -0.03512445,  0.06408859,
        -0.05399048,  0.06648711, -0.06750289,  0.05269131,  0.03073176,
        -0.06151927, -0.05486317, -0.03931666, -0.01072517,  0.07517068,
         0.04374268, -0.02173529, -0.09240289, -0.10220879,  0.0248101 ,
        -0.07902322,  0.05844633, -0.10065589,  0.02092047,  0.00819198,
         0.07110939,  0.0495281 ,  0.06355116,  0.04973183, -0.05923505,
        -0.00761769, -0.0989518 , -0.00436219,  0.0046732 ,  0.08597288,
        -0.01289837, -0.03430889,  0.0672138 , -0.09310689, -0.06778244,
         0.08760407, -0.00256914,  0.01039702,  0.03778729,  0.04172391,
        -0.03007287,  0.07334135, -0.00793956, -0.02105929,  0.06822446,
         0.06227345, -0.05936423,  0.03796402, -0.08972732,  0.09265426,
        -0.07473426, -0.00542372,  0.0309896 ,  0.09287506,  0.02524807,
         0.01602465,  0.01787944,  0.0664649 , -0.01898586,  0.01321711,
        -0.01614914,  0.07380746,  0.02270167,  0.01626666,  0.0582442 ],
       [ 0.09906404,  0.07663407,  0.14793983,  0.02727675,  0.13404828,
         0.13269478,  0.02505709, -0.0283033 , -0.03755936,  0.09343879,
         0.00410218,  0.01109948,  0.12541347,  0.05682417,  0.01513732,
        -0.01343929,  0.13442677,  0.11933468,  0.11932128,  0.0919287 ,
        -0.02618755,  0.03020743, -0.01577724,  0.01510366, -0.05130721,
         0.11252888, -0.01103293,  0.13596815,  0.14742725,  0.15725525,
         0.09342779,  0.00225025, -0.00072773,  0.06918412,  0.09203326,
         0.09769892,  0.09562236, -0.05563373,  0.02888485,  0.0096266 ,
         0.0364163 ,  0.03712338, -0.05061955,  0.06698414,  0.07415557,
        -0.04467122,  0.13256707,  0.00525757,  0.12377698,  0.01937047,
         0.1073179 ,  0.12687094,  0.15181349, -0.02331357,  0.02630748,
        -0.04696063,  0.02793629,  0.10747218,  0.08232947,  0.14677497,
         0.02415111, -0.01747912,  0.06078325,  0.04478708,  0.14382801,
         0.01810218,  0.15019899,  0.15021264, -0.03991573, -0.03872007,
         0.1246242 ,  0.03599257,  0.11333768,  0.07672318,  0.05150031,
        -0.01850421,  0.13839213,  0.03689368, -0.03032325,  0.08050109],
       [ 0.02743127, -0.03238799,  0.07066348,  0.09274138,  0.10150528,
        -0.07794617,  0.06966081,  0.02472561, -0.05465981,  0.09530811,
         0.12899739,  0.02059763, -0.04744977, -0.09358583, -0.04492241,
        -0.00425905,  0.07994815,  0.04858262,  0.07022083,  0.03968026,
        -0.00313263,  0.00919731,  0.05154983,  0.03349841,  0.00519493,
        -0.01103693, -0.01005533, -0.01558731, -0.08302832,  0.05009901,
        -0.00755489, -0.05184971, -0.0539855 , -0.02638644,  0.01364546,
         0.0120282 , -0.0787528 , -0.07649953,  0.0614163 ,  0.00926849,
        -0.02712914, -0.07399367, -0.09757496,  0.07560646,  0.11248092,
         0.04298649, -0.076496  , -0.00559539,  0.01991916,  0.01027671,
         0.02248519,  0.02223096, -0.07464069, -0.06210521,  0.01173536,
        -0.06618961,  0.0979697 , -0.05265467,  0.0959892 , -0.11296606,
        -0.00998046, -0.07083786, -0.03372591, -0.02978957, -0.02504997,
         0.05451043,  0.06919688, -0.04446471, -0.09493119, -0.01935762,
        -0.00250385, -0.06361465,  0.02531654, -0.03668259, -0.01238994,
         0.01507201,  0.02189665, -0.01572841,  0.03809247, -0.09092727],
       [ 0.06397901,  0.03440126,  0.03973142, -0.02841077, -0.01192087,
        -0.03844148, -0.03157367, -0.1190722 , -0.11044787,  0.07043686,
        -0.06146728, -0.00707393,  0.01545859, -0.08677414,  0.06178946,
        -0.06583025,  0.00351305,  0.03250429, -0.12980271, -0.02207698,
        -0.00898743,  0.01978529,  0.03301375, -0.13306365, -0.04731234,
        -0.01636917,  0.0009421 , -0.02438228, -0.07605898, -0.12037401,
         0.01195456,  0.03860295,  0.00199817, -0.15633806, -0.00842326,
        -0.0195932 , -0.01520202,  0.05633029, -0.07465599, -0.03039842,
        -0.06574582,  0.04628638, -0.03116849, -0.10268631, -0.08016546,
        -0.10636899,  0.02217051,  0.07902188,  0.08565688, -0.13429136,
         0.04116302, -0.06424752, -0.11311078, -0.0979657 ,  0.05793139,
         0.08968578, -0.0110309 , -0.03725375,  0.03343366,  0.0190515 ,
         0.08340399, -0.10243503, -0.05514804, -0.01319607, -0.01072998,
         0.00319626, -0.07547515,  0.10684083, -0.01743285, -0.02073309,
        -0.13289253, -0.06862917, -0.0178357 , -0.09157978, -0.09312965,
         0.03621871, -0.12318238, -0.06010025,  0.06091027,  0.00793473],
       [ 0.0272378 , -0.03677924, -0.0444393 ,  0.09585765, -0.05683155,
         0.00793499, -0.01834342,  0.08409751, -0.09392642,  0.06807892,
        -0.13166931, -0.01507432,  0.01402071,  0.04892334,  0.10809696,
         0.00470333,  0.0160602 , -0.02825345, -0.06126304,  0.02866563,
        -0.06769981, -0.01058529, -0.05850174,  0.07898389, -0.10676453,
        -0.02553115,  0.00137661,  0.08232196, -0.00608167,  0.01421789,
        -0.008     , -0.00457634, -0.05231774, -0.08658966,  0.08134046,
         0.07751564,  0.09931082,  0.0934309 ,  0.00750626,  0.0457002 ,
        -0.06594572, -0.04371348,  0.06877067,  0.10066063, -0.12203509,
        -0.0347461 ,  0.04467468, -0.08844706, -0.05652217, -0.0034695 ,
        -0.04259855,  0.02064725,  0.04491022, -0.03381673,  0.04871066,
         0.09424823, -0.09703363,  0.04867421, -0.08559819,  0.12127936,
        -0.07914664, -0.1162832 , -0.03282537,  0.00824373,  0.06177008,
         0.06083671, -0.0437028 ,  0.08152591,  0.02749366, -0.0532855 ,
        -0.00138373,  0.06183351,  0.0773608 , -0.05750111, -0.06008396,
         0.01343853, -0.03665432,  0.0180655 ,  0.02121024, -0.07981837],
       [-0.02198078, -0.02443499, -0.02973483,  0.07304006, -0.04440475,
         0.00245836,  0.08940973, -0.0031299 , -0.02442353, -0.07830294,
        -0.12307304, -0.04963885,  0.08010781,  0.04177657, -0.042534  ,
         0.01290842, -0.04237096, -0.01294165,  0.08512355,  0.13620303,
        -0.00930998,  0.05163428,  0.07507741,  0.04646056, -0.01202843,
         0.03362508,  0.04311904,  0.04081736, -0.01067984, -0.07383201,
         0.05727958, -0.01371045,  0.04738843, -0.03359915,  0.03438106,
        -0.10389059,  0.08501971,  0.00712378,  0.06588745,  0.01838554,
         0.04677093,  0.063576  , -0.09121265,  0.02724437,  0.00297723,
         0.1285428 , -0.07802591,  0.0133508 , -0.11808499,  0.02249497,
         0.06132519,  0.05183682,  0.07458053, -0.05446412, -0.04250592,
         0.07567794, -0.04497085, -0.06464997,  0.00535576,  0.04706721,
        -0.01541913, -0.10202595,  0.02348474, -0.00714117,  0.02117982,
         0.07785725, -0.12771036,  0.05184455,  0.06997371, -0.11574904,
         0.03306161,  0.08411186,  0.00080909,  0.07736487, -0.07831144,
        -0.01825776, -0.01274121, -0.00120159, -0.05494963,  0.06304068],
       [ 0.09052296,  0.08853537,  0.04044479,  0.03059267, -0.07965667,
        -0.0638867 ,  0.07283715, -0.08752303,  0.03289161,  0.09579441,
        -0.03331881,  0.07730043,  0.05385075,  0.06999377, -0.0016556 ,
        -0.00786209, -0.06057783, -0.03724725, -0.06540941, -0.0206954 ,
         0.08877938, -0.00156514,  0.07397393, -0.05311281, -0.0628472 ,
        -0.00971117, -0.02755003, -0.04156713, -0.10033335,  0.03110683,
        -0.00705528,  0.01305209, -0.03901884,  0.0144951 , -0.03656733,
         0.09857424,  0.05995699,  0.09437461, -0.01871076,  0.00850231,
        -0.06555102, -0.03404478, -0.01971074,  0.0015063 ,  0.04928359,
        -0.07579134,  0.01926851,  0.05084022, -0.02639815,  0.05620568,
         0.00608045, -0.03564678,  0.03029037, -0.0248524 , -0.00811105,
         0.02267709,  0.08511478, -0.00494058,  0.08226379, -0.06778337,
        -0.01016841, -0.08566203, -0.02548508,  0.08178986, -0.02318469,
         0.01298366,  0.04165611, -0.03156446,  0.07479441, -0.06892957,
         0.06305845, -0.02243462, -0.00282784,  0.04431918,  0.07279772,
         0.03776324, -0.04453166,  0.02232198, -0.094048  ,  0.03166481],
       [-0.0323251 ,  0.04506552,  0.00240032,  0.04487778, -0.08680705,
         0.06479906,  0.01199891, -0.02966792,  0.07978185,  0.01340145,
        -0.03741894,  0.02268221, -0.09868338,  0.08310365, -0.0519108 ,
         0.01037674,  0.09267404, -0.02354285,  0.04716538,  0.03384561,
         0.03199392,  0.03875862, -0.02855967, -0.00040532, -0.07238139,
         0.03294678, -0.08763487, -0.05640158, -0.04721704,  0.01834418,
         0.02330816, -0.03981973,  0.01296088,  0.0228485 , -0.09176847,
         0.04208422, -0.05684366, -0.00979973, -0.06749706, -0.04763828,
         0.01477536, -0.03672325, -0.004089  , -0.07693936,  0.05145507,
         0.05563249,  0.010495  ,  0.00828465,  0.08899672,  0.06952676,
         0.03932467, -0.00699731,  0.08983442,  0.09406299,  0.02928335,
         0.00907436, -0.06096383, -0.06850609, -0.08051975, -0.08032342,
         0.06655975, -0.0544678 , -0.02537867,  0.02223565, -0.00432416,
         0.03782641,  0.03282375, -0.06167635,  0.09100685,  0.00702972,
        -0.02988378, -0.05769461,  0.10065649,  0.08809653,  0.04739354,
         0.06633726, -0.03286967,  0.07461424, -0.02985908, -0.01319505]])]Hidden bias: [array([-0.93770965, -0.93643701, -0.93932405, -0.9387603 , -0.93570489,
       -0.93618098, -0.94188956, -0.93963536, -0.9380445 , -0.93937809,
       -0.92500569, -0.94438066, -0.93499714, -0.93470941, -0.94041529,
       -0.94192828, -0.93744626, -0.93389042, -0.93062982, -0.93158932,
       -0.94242744, -0.93864328, -0.94144379, -0.93555737, -0.94010619,
       -0.93515168, -0.94755429, -0.93562918, -0.93617507, -0.93410692,
       -0.93654633, -0.94415796, -0.93920264, -0.92957223, -0.93881187,
       -0.93514281, -0.92993765, -0.94532028, -0.93861026, -0.94097603,
       -0.93800598, -0.94084233, -0.94138519, -0.937524  , -0.93037919,
       -0.93986851, -0.93473857, -0.93709463, -0.92811105, -0.93642063,
       -0.93548286, -0.93623653, -0.92624274, -0.93887465, -0.93990061,
       -0.93600459, -0.9364892 , -0.93561805, -0.93396915, -0.92684358,
       -0.93436511, -0.9350276 , -0.93716978, -0.94485261, -0.93751382,
       -0.9388096 , -0.92693578, -0.92891478, -0.94306355, -0.93828008,
       -0.93177389, -0.93353117, -0.93731368, -0.93461584, -0.93430318,
       -0.94171752, -0.92942351, -0.94030349, -0.94798396, -0.94192843])]Output weights: [[ 0.00648674 -0.04274771]
 [ 0.00066583 -0.06489008]
 [ 0.01898956  0.01818948]
 [ 0.06487914  0.03113242]
 [ 0.10994529 -0.0766625 ]
 [ 0.00387639  0.11593737]
 [ 0.03870651  0.09532642]
 [ 0.09951983 -0.02799597]
 [ 0.01000198 -0.05560692]
 [ 0.01061427 -0.0022871 ]
 [-0.01990167 -0.15885225]
 [-0.04720013  0.06212727]
 [-0.01637538  0.02128826]
 [-0.01981056  0.09703582]
 [-0.03258791  0.10683593]
 [-0.00447409  0.0868319 ]
 [ 0.06539663 -0.00980683]
 [-0.05423141 -0.02228382]
 [ 0.14778315 -0.02749261]
 [ 0.0678828   0.12855099]
 [-0.00090974  0.01891318]
 [-0.05097714 -0.03206498]
 [-0.01880593  0.04127106]
 [ 0.15579579  0.01462432]
 [-0.00128833 -0.04485582]
 [-0.02943497  0.00987888]
 [ 0.11407894 -0.04468665]
 [ 0.12340379  0.07267048]
 [ 0.08118545  0.10688349]
 [ 0.11075716  0.0079751 ]
 [-0.01648566 -0.00432097]
 [ 0.04668843  0.03563132]
 [-0.01537064  0.01501896]
 [ 0.1262074  -0.08697921]
 [ 0.11364511  0.08070016]
 [ 0.03821493 -0.05013376]
 [ 0.01520107  0.11381378]
 [ 0.02884052  0.02796235]
 [ 0.00562523  0.04215712]
 [ 0.05851766 -0.01465618]
 [-0.02279304 -0.04269289]
 [ 0.02360031  0.01276061]
 [-0.04880291  0.03106645]
 [ 0.04014491  0.11037036]
 [ 0.1096563  -0.1287595 ]
 [ 0.05537034  0.08834876]
 [-0.03978265 -0.04131468]
 [-0.04185913 -0.07862724]
 [-0.05795117 -0.10300445]
 [ 0.1296383   0.02491209]
 [-0.02440993  0.0059501 ]
 [ 0.14431887  0.09612671]
 [ 0.14440155  0.11538527]
 [-0.01347924 -0.02723314]
 [-0.01693407  0.02362491]
 [-0.07261717  0.07490639]
 [-0.02474286 -0.0580187 ]
 [ 0.02093067 -0.02049653]
 [-0.05621727 -0.04413522]
 [-0.05172192  0.1609296 ]
 [-0.08043717 -0.04581591]
 [-0.01149705 -0.08798832]
 [ 0.0083323   0.03026682]
 [ 0.10320636  0.09639713]
 [ 0.12764045  0.07509147]
 [ 0.0465683   0.06951973]
 [ 0.07022276 -0.09859212]
 [-0.07007077  0.10007101]
 [-0.02575328 -0.01944115]
 [ 0.05575696 -0.09690077]
 [ 0.1479676   0.05048389]
 [ 0.08668145  0.10055089]
 [ 0.06866605 -0.02659671]
 [ 0.06188869  0.03974659]
 [ 0.05915695 -0.0542285 ]
 [-0.0613959   0.07426813]
 [ 0.12217417 -0.08080229]
 [ 0.13365306  0.01749745]
 [ 0.03653542  0.03242027]
 [ 0.10126002 -0.02030486]]Output bias: [ 0.94896219  0.97267258]
Value MLP:Hidden weights: [array([[ -2.84067933e+00,  -3.41671241e+00,   7.31452827e+00,
          8.95935610e-01,  -7.67267385e+00,   3.54520807e+00,
          1.53079442e-01,  -1.05883463e+01,  -6.66634111e-01,
          1.76131248e+00,   4.05030585e+00,  -2.60090438e+00,
          8.32783948e+00,   6.17348948e+00,   1.85447984e-01,
         -1.61964269e+01,   6.87025223e-01,   1.77652785e+00,
          1.44487397e+01,  -3.45843880e+00,   1.79217777e+00,
         -5.93014590e+00,  -2.69875391e+00,   5.18102598e+00,
         -7.85264786e+00,  -4.85674530e+00,  -1.02211815e+01,
         -9.47459985e+00,  -1.56310582e+00,  -4.04576079e+00,
          7.02648307e+00,  -7.55682273e+00,  -4.04565636e-01,
         -1.86580809e-01,   3.28061116e+00,   7.10237308e+00,
         -3.28372178e+00,  -3.90049505e+00,   6.23780550e+00,
         -1.50986241e+01,  -4.44526516e+00,   1.79551208e+01,
          3.21875520e+00,  -3.63399196e+00,   8.34821872e+00,
          1.19555226e+00,  -1.97677414e+00,   3.92419566e+00,
         -3.30985589e-01,   7.23714020e+00],
       [  2.57584341e+01,  -9.34855320e-01,   8.70684679e+00,
          2.55997527e+00,  -7.49978515e+00,  -2.29396046e+00,
          2.90556573e+00,   1.46874180e+01,   1.29549457e+01,
          6.46976726e+00,  -2.03121773e+00,   5.46506340e+00,
         -2.89304055e-01,   1.52381478e+01,  -4.81276489e+00,
          6.08610370e+00,   5.94372178e+00,   1.03819008e+01,
         -2.30432500e-01,   3.23257454e+00,   2.74097416e+00,
          1.37147627e+01,   7.41960461e+00,  -1.66385726e+00,
         -1.67252470e+00,   1.91258783e+01,  -1.67496758e+00,
          2.47276752e+00,   1.39984643e+01,   3.24841022e+00,
          2.91859074e+00,   8.93751611e+00,   2.50739788e+00,
          1.75349833e+00,   8.35804258e+00,   7.64325852e+00,
         -3.75714696e+00,   1.03145282e+01,   9.96663529e+00,
          1.40612078e+01,  -5.04638395e-01,  -4.13890835e+00,
          1.66698904e+00,  -1.21944987e+01,   3.86675695e+00,
          6.94740347e+00,   4.19374117e+00,   1.04657555e+01,
          3.22207391e+00,   2.19708575e+00],
       [  4.13746075e+00,  -1.86550775e+01,   1.23329358e+01,
          1.04927642e+01,  -4.70230272e+01,   7.22962873e+00,
         -1.13423840e+01,  -1.19808015e+01,  -2.07645229e+01,
         -6.06265287e+00,   1.54300273e-01,  -8.65128667e+00,
          7.74604847e+00,   2.00494429e+01,  -1.72503622e+01,
         -3.53084234e+01,   1.15068705e-01,   8.20519948e+00,
         -7.62257637e+00,  -3.41915301e+00,  -9.87420652e-01,
          3.28790263e+01,   4.27951551e+00,   6.08262986e+00,
         -2.27505488e+00,  -1.92080313e+01,  -1.69569344e+01,
         -1.57416219e+01,   1.57740470e+01,  -1.07753073e+01,
          1.49473420e+01,   1.64343385e+01,   3.30247544e+00,
         -5.79753363e-01,  -1.76429682e+00,   7.00342445e+00,
         -7.06201642e+00,  -1.32806896e+01,  -1.26433278e+01,
         -1.12205739e+01,  -8.75016340e+00,   3.16087135e+01,
          3.95146970e+00,  -3.07973266e+01,   4.63715877e+00,
          8.50241594e+00,  -4.54512946e+01,  -1.16147464e+01,
          1.15804372e+01,   7.96304728e+00],
       [  3.09178170e+01,   8.45073943e+00,  -1.94148729e+01,
         -1.36281197e+01,   3.17589569e+01,   2.54674504e+01,
         -2.43162022e+01,  -2.53960101e+01,  -3.32278038e+01,
          9.35027097e+00,   1.40045344e+01,   1.05244600e+01,
          1.60499948e+01,  -1.69855771e+01,   5.73360632e+00,
         -1.29753460e+00,   1.82817084e+01,  -1.82624565e+01,
         -8.93252369e+00,   1.15438719e+01,   2.64479902e+01,
         -1.84616392e-01,   1.95168197e+01,   7.62302430e+00,
          1.26783419e+01,  -4.06177862e+01,   3.84171347e+01,
          1.75444819e+01,  -1.64101097e+01,  -4.61292021e+01,
         -1.84150266e+01,   2.71297231e+01,   2.33682679e+01,
          9.79725507e+00,   1.04018821e+01,  -2.14341791e+01,
          2.39115887e+01,  -2.88793612e+01,  -2.24688132e+01,
          1.18704457e+01,  -7.96256290e+00,   2.73873532e+01,
          2.55409438e+01,   2.50162572e+01,   2.96494842e+01,
         -2.10305937e+01,  -4.87456712e+01,   1.97472888e+01,
          1.91322966e+01,   3.10739520e+01],
       [ -9.66655308e+01,   2.13443626e+01,   4.66898522e+00,
         -1.34141065e+01,   6.83331330e+01,   3.53365872e+01,
          1.87888137e+01,   2.63533747e+01,   4.57095989e+01,
          2.70895372e+01,   2.28112485e+01,   9.04090608e+00,
         -1.33827527e+01,  -6.07688537e+00,  -2.58245297e+01,
          7.16367313e+01,   2.13363714e+01,  -5.21177922e+00,
          1.84031685e+01,  -5.89010356e+00,   1.20756665e+01,
         -1.06181536e+02,  -3.36948432e+01,  -9.09633747e+00,
          9.41287970e+00,   4.10588944e+01,   1.07637666e+02,
          6.56090321e+00,   4.47425984e+00,  -3.23918614e+01,
         -1.46996818e+01,  -7.40272284e+01,   8.07462298e+00,
         -2.06640412e+00,   3.45533106e+01,  -3.61373614e+00,
          4.03086894e+00,   3.18001673e+01,   5.38743352e+01,
          3.48242825e+01,   2.91313272e+01,  -1.96098732e+01,
          1.41361598e+01,   8.46192774e+01,   1.53464007e+01,
         -1.84515144e+01,   1.32440359e+02,   6.35425825e+01,
          3.84489497e+00,   2.30997064e+01],
       [  7.54568199e-01,  -3.03137286e+01,   6.43396981e-01,
         -2.63902226e+01,   8.51946654e+00,  -2.36565031e+01,
          4.11213579e+00,   4.36777528e+01,   3.47691735e+01,
          1.22240275e+00,  -1.89667892e+01,   3.60519387e+01,
         -2.44663202e+01,  -1.83039192e+01,   3.53401348e+01,
          6.09421983e+00,   1.17864766e+01,  -2.93832243e+01,
          1.59495299e+01,  -3.29322529e+01,   1.55529252e+01,
         -3.43929016e+01,  -1.14977289e+01,  -1.86351961e+01,
          3.14031997e+01,   6.00624169e+01,   2.76842615e+01,
          2.78673534e+00,  -2.31785824e+01,   1.11345451e+01,
         -3.60750752e+00,  -2.94410251e+01,  -3.22476844e+00,
         -2.00302388e+01,   1.53677992e+01,  -1.80223812e+01,
         -4.73601431e+00,   3.27292693e+01,  -7.17666338e+00,
         -9.36036331e+00,   4.76628501e+00,  -1.48155234e+02,
          1.90276018e+01,  -3.32594438e+01,   2.72031013e+01,
         -3.81825913e+01,  -1.36724204e+02,   3.50793116e+01,
         -1.05335091e+01,  -1.86735048e+01],
       [ -5.07350327e+01,  -7.17083898e+00,  -9.77898135e+00,
          8.99943196e+00,  -3.83071723e+01,   6.13316565e+00,
          3.25251669e+00,   1.38029371e+00,  -2.70689235e+00,
         -2.78533795e+01,  -1.44570145e+01,  -9.86937679e+00,
         -1.29114460e+01,  -9.05864013e+00,  -1.80557307e+01,
         -3.02922648e+01,  -1.22989843e+01,  -1.59414507e+01,
          4.23003857e+00,  -5.73614684e+00,  -3.30835420e+00,
          6.87271237e+00,  -1.08890839e+01,  -1.48831869e+01,
         -2.27770094e+01,   6.59846581e+00,  -8.67761070e+00,
         -3.92916594e+00,  -9.56917963e+00,   1.34505952e+01,
          3.71148971e+00,  -1.33444129e+01,  -1.41368594e+01,
         -7.37027959e+00,  -1.87297654e+01,  -7.36639249e+00,
         -9.53919586e+00,  -5.12068798e+00,   5.14075407e+00,
         -2.87271285e+01,  -1.45410819e+01,  -1.39133403e+01,
         -2.40197560e+01,  -2.96343457e+01,  -2.00451299e+01,
          1.17168926e+00,   4.04181773e+01,  -1.17779969e+01,
         -8.03206337e+00,  -3.09109182e+01],
       [ -3.52028419e+00,   2.26353110e+00,   5.41794093e+00,
          9.59085201e+00,  -1.25929020e+01,   1.31135571e+01,
          7.02997687e+00,   3.91143608e+00,   6.70243004e+00,
         -1.04253907e+01,   8.92095062e+00,  -6.94981417e+00,
          3.86203345e+00,   1.24411148e+01,  -1.00049344e+01,
          9.04594309e+00,  -3.67949217e+00,  -1.46088748e+00,
          1.17374459e+01,  -9.01890770e-02,  -1.35466804e+00,
         -2.28132620e+01,  -1.35801026e+00,   8.61627228e+00,
         -2.25000949e-01,   1.29047531e+01,  -1.44890732e+01,
         -2.15796947e+01,  -5.51935745e-01,   1.00102243e+01,
          7.72738418e+00,  -3.89514658e-01,  -1.27200900e+00,
         -8.80792250e-01,  -3.62674515e+00,   1.43398122e+01,
         -3.53885103e+00,   9.75669074e+00,   1.43757030e+01,
         -7.94315686e+00,   4.17853687e+00,  -2.49364832e+01,
          7.13790156e+00,  -1.64667162e+01,  -3.02894258e-01,
          1.86503989e+01,   2.58085480e+01,  -5.54493293e+00,
         -1.56521343e+01,   8.43717150e+00]])]Hidden bias: [array([-45.766519  ,  -3.41097723,  16.46183259,  15.44124418,
       -40.79729353, -15.15094009,  18.53808593,  10.75349654,
        14.1562051 , -26.84471946, -10.27814385, -22.67712736,
       -17.49742579,  13.10727371, -21.0040537 , -25.55100689,
       -18.56062337,   8.53243795,  12.69575814, -11.89157061,
       -15.86079864, -10.66311278, -23.03743887, -10.53484514,
       -29.50424514,  24.6377122 , -24.77401949, -28.14900478,
         8.06653414,  50.883163  ,  12.31459061, -37.42214942,
       -18.3558806 , -12.15473983, -16.88557912,  24.86923183,
       -35.49503752,  11.29119324,   6.63632848, -25.49246142,
        -6.69295616, -54.49050833, -19.13366686, -55.68544532,
       -27.20385658,  17.32987366,  25.83182563, -30.33771559,
       -34.22269105, -24.87337762])]Output weights: [[ -7.0748397 ]
 [-15.83194072]
 [  2.05178961]
 [ -7.4237704 ]
 [ -7.74251661]
 [ -6.45142041]
 [  4.02234192]
 [ -5.70742756]
 [  3.74462873]
 [ 22.39582146]
 [ -3.18873195]
 [ -9.59447707]
 [-10.4250778 ]
 [ -1.34978438]
 [ 18.5126729 ]
 [  3.61030615]
 [ -5.31799257]
 [ -0.74719004]
 [ -5.56799871]
 [ 17.77502989]
 [  0.56264026]
 [-11.78565893]
 [ -0.23356388]
 [  5.66898252]
 [  3.6485655 ]
 [  4.80040653]
 [ -4.84039806]
 [-12.92095113]
 [  2.87792516]
 [ 11.6947205 ]
 [ -0.74695599]
 [ -0.95574239]
 [ -3.19080131]
 [  0.67292059]
 [  5.23212909]
 [  5.94129923]
 [ 49.37798826]
 [ -5.00105169]
 [  2.29626197]
 [ -8.14912408]
 [  4.79586856]
 [ -7.41313395]
 [ -1.800728  ]
 [ 19.53248878]
 [ -6.86213262]
 [  2.26017576]
 [  5.63948646]
 [ -9.67237735]
 [-12.55596263]
 [  1.23364438]]Output bias: [-143.47314856]