Action MLP:Hidden weights: [array([[-0.02379117, -0.04371946, -0.02373817, -0.03338319, -0.01143232,
        -0.03637653, -0.02434128, -0.01516291, -0.03374442, -0.03200027,
        -0.02206278, -0.03757771, -0.00685087, -0.0178246 , -0.01498714,
        -0.03656425, -0.03217137, -0.04305793, -0.0146407 , -0.04204924,
        -0.02636446, -0.02075588, -0.01806455, -0.00411425, -0.01441144,
        -0.02551816, -0.02837208, -0.02326827, -0.03088635, -0.02335495,
        -0.00781611, -0.02344083, -0.04314633, -0.01686149, -0.03056959,
        -0.01341873, -0.02354106, -0.0181367 , -0.01574891, -0.01717944,
        -0.00595691, -0.04713127, -0.01755008, -0.01579403, -0.01502107,
        -0.03241953, -0.0149839 , -0.0201111 , -0.03473248, -0.02678931],
       [ 0.36532775,  0.32019254,  0.33158926,  0.33212301,  0.36835908,
         0.34010685,  0.38393703,  0.37618585,  0.32890214,  0.35787506,
         0.36365903,  0.34284   ,  0.37537622,  0.34519285,  0.37146862,
         0.33391728,  0.34587226,  0.32827018,  0.36411271,  0.32141183,
         0.32883511,  0.34133932,  0.36225756,  0.39003295,  0.34728962,
         0.32950227,  0.32557744,  0.38400817,  0.3636515 ,  0.32848526,
         0.38388903,  0.34660996,  0.29992017,  0.33994936,  0.31646524,
         0.40015925,  0.37516204,  0.38740082,  0.35614871,  0.36940908,
         0.39469855,  0.32047538,  0.35798759,  0.3594997 ,  0.34647205,
         0.34036942,  0.38971081,  0.37296837,  0.33879233,  0.33420504],
       [-0.03958397, -0.01391257, -0.02532074, -0.01811305, -0.04002675,
        -0.02378816, -0.05231284, -0.02636934, -0.03042209, -0.02904263,
        -0.03574454, -0.00616594, -0.01412463, -0.02951412, -0.02805997,
        -0.02210159, -0.03414716, -0.01819275, -0.02584963, -0.02247121,
        -0.02855627, -0.01378205, -0.04268177, -0.03787562, -0.02528629,
        -0.02290651, -0.00824653, -0.04808399, -0.03325469, -0.00858476,
        -0.04405381, -0.01842204, -0.01170299, -0.00526469, -0.00806358,
        -0.03503522, -0.03622582, -0.04531824, -0.0426766 , -0.02219214,
        -0.0497569 , -0.02561103, -0.03681669, -0.03936588, -0.02472337,
        -0.02905886, -0.04348163, -0.03034036, -0.02201182, -0.01868893],
       [-0.21256385, -0.26329091, -0.24532408, -0.24190846, -0.21111881,
        -0.22922646, -0.20097708, -0.20770207, -0.25167689, -0.2212868 ,
        -0.2129843 , -0.23392498, -0.21286282, -0.23292158, -0.20627797,
        -0.2421515 , -0.22277011, -0.25322026, -0.20817161, -0.25108844,
        -0.23800178, -0.24153059, -0.21377297, -0.20093944, -0.22412518,
        -0.24557288, -0.2520087 , -0.18808108, -0.20635649, -0.24586621,
        -0.1948571 , -0.23781944, -0.27271626, -0.24122705, -0.26180727,
        -0.18787477, -0.1966518 , -0.19418794, -0.2193438 , -0.22059832,
        -0.18867042, -0.25763992, -0.21569528, -0.22140948, -0.23021164,
        -0.24023001, -0.19375908, -0.207357  , -0.23522488, -0.24106812],
       [-0.05672599, -0.04280473, -0.05301173, -0.04980544, -0.05554996,
        -0.05144997, -0.05814808, -0.05187524, -0.05585535, -0.05340373,
        -0.0554608 , -0.04379763, -0.05020346, -0.0567741 , -0.05434917,
        -0.0532335 , -0.05424016, -0.0440944 , -0.05262341, -0.04989501,
        -0.05107769, -0.05182263, -0.05819641, -0.05349957, -0.05355927,
        -0.05032914, -0.04575703, -0.05397775, -0.05430447, -0.0439097 ,
        -0.05542883, -0.05310771, -0.04076616, -0.04735148, -0.04247872,
        -0.05171995, -0.05167275, -0.05498984, -0.05906048, -0.05371612,
        -0.05640238, -0.04768982, -0.05619801, -0.0577807 , -0.05348746,
        -0.05481499, -0.05554339, -0.05250683, -0.05309385, -0.05021321],
       [-0.00260721,  0.10871495,  0.04682993,  0.05001063, -0.01043574,
         0.02932475, -0.01825406,  0.00979083,  0.06040096,  0.02598805,
        -0.01447162,  0.06388404,  0.01357362,  0.02166809, -0.00561501,
         0.04918716,  0.00254342,  0.09397058,  0.00888813,  0.05939497,
         0.07024637,  0.04420799,  0.01229608, -0.03305248,  0.01703821,
         0.06190309,  0.06724682, -0.02526159,  0.013279  ,  0.08276138,
        -0.01436666,  0.02505153,  0.15386737,  0.05466717,  0.120631  ,
        -0.0280187 , -0.01139494, -0.0219662 , -0.00154364, -0.00079966,
        -0.02015785,  0.10293452, -0.00421451,  0.01678463,  0.01631752,
         0.05777187, -0.01611247,  0.00665102,  0.03972466,  0.04686177],
       [ 0.01957458,  0.03139622,  0.02889585,  0.01907975,  0.01003624,
         0.02577447,  0.00466511,  0.01214785,  0.03368487,  0.02224724,
         0.00216175,  0.0209695 ,  0.01515823,  0.02036574,  0.01252207,
         0.02626038,  0.02425735,  0.02742557,  0.01764319,  0.02358244,
         0.02290429,  0.02684766,  0.00763071,  0.00542861,  0.019314  ,
         0.02904654,  0.03029833,  0.00993103,  0.00616075,  0.03305663,
         0.00655633,  0.0143146 ,  0.03334433,  0.03134689,  0.03804902,
        -0.01295792,  0.01289563,  0.00525921,  0.01015429,  0.00797505,
        -0.00707568,  0.03378247,  0.01962666,  0.01154299,  0.01613679,
         0.02917117,  0.0079249 ,  0.01904535,  0.03088275,  0.02639276],
       [ 0.01448038,  0.02161271,  0.02417775,  0.02199615,  0.00489749,
         0.00958092,  0.00652363, -0.01153578,  0.02704272,  0.01638801,
         0.0011872 ,  0.0089552 ,  0.00179072,  0.00994368,  0.00716355,
         0.02453287,  0.01708233,  0.01620878,  0.00531747,  0.01502964,
         0.0108727 ,  0.01589538,  0.01086926, -0.01190843,  0.01309469,
         0.02888017,  0.01085634,  0.000909  ,  0.01314503,  0.00931197,
        -0.01082066,  0.01080493,  0.02799746,  0.01680806,  0.02961884,
        -0.01637679, -0.00141169, -0.00565417,  0.00483385,  0.00220165,
         0.00093152,  0.02736566, -0.00096771, -0.0016987 ,  0.00984222,
         0.00640507, -0.00833792,  0.00628116,  0.01698782,  0.00678164]])]Hidden bias: [array([-0.47835219, -0.46539286, -0.47171566, -0.46905819, -0.47875311,
       -0.47060412, -0.48293551, -0.48033682, -0.47355015, -0.47654089,
       -0.47877332, -0.46680794, -0.4812482 , -0.47706545, -0.47652152,
       -0.47191509, -0.47347713, -0.46507929, -0.47259517, -0.46742804,
       -0.4606657 , -0.47628345, -0.47552546, -0.48467266, -0.47181573,
       -0.46679871, -0.46797235, -0.47362369, -0.47150188, -0.46187788,
       -0.47680328, -0.48056302, -0.45976479, -0.47185693, -0.4597445 ,
       -0.48211249, -0.47385816, -0.47984932, -0.47747847, -0.48589321,
       -0.47753059, -0.46346535, -0.47647795, -0.47926356, -0.47583004,
       -0.47401277, -0.48027971, -0.47806434, -0.47226144, -0.47090557])]Output weights: [[  1.78301350e-02  -3.12918239e-02]
 [ -1.68592637e-02  -1.42216360e-02]
 [  3.83436642e-03  -2.92901582e-02]
 [ -3.75569452e-07  -2.89382143e-02]
 [  1.83738267e-02  -3.39406982e-02]
 [  5.33797339e-03  -2.99349331e-02]
 [  2.35811246e-02  -2.92013492e-02]
 [  9.95259783e-03  -3.35044797e-02]
 [  3.69107806e-03  -2.48851548e-02]
 [  8.64948648e-03  -2.87759545e-02]
 [  1.76064503e-02  -3.55375601e-02]
 [ -7.71006944e-03  -2.65763640e-02]
 [  7.31605807e-03  -3.73822519e-02]
 [  1.07348696e-02  -3.39089701e-02]
 [  1.57331049e-02  -3.52308149e-02]
 [  2.97282013e-03  -2.81397774e-02]
 [  1.38070434e-02  -3.18431656e-02]
 [ -1.23509412e-02  -1.61451631e-02]
 [  1.14376757e-02  -3.33785035e-02]
 [ -1.99976852e-03  -2.56689308e-02]
 [ -1.12703469e-03  -2.14348031e-02]
 [  1.74055839e-03  -3.34423174e-02]
 [  1.60951212e-02  -2.96670062e-02]
 [  2.15723893e-02  -3.69256177e-02]
 [  9.79724529e-03  -3.43495554e-02]
 [ -3.46465614e-04  -2.55414575e-02]
 [ -7.38582041e-03  -2.88928937e-02]
 [  2.27483967e-02  -2.84109238e-02]
 [  1.24792991e-02  -2.89910911e-02]
 [ -1.04554535e-02  -2.40506924e-02]
 [  2.03724397e-02  -3.16790886e-02]
 [  5.81196769e-03  -3.60948576e-02]
 [ -2.90791279e-02  -1.12274452e-03]
 [ -3.42667398e-03  -3.28428370e-02]
 [ -1.82967875e-02  -1.40040342e-02]
 [  1.94668125e-02  -3.49749083e-02]
 [  1.62090705e-02  -3.08702824e-02]
 [  2.16535393e-02  -3.10048691e-02]
 [  1.84351492e-02  -3.33876305e-02]
 [  1.19618795e-02  -3.84983656e-02]
 [  2.39344843e-02  -3.04892216e-02]
 [ -1.05382885e-02  -1.18059130e-02]
 [  1.65170555e-02  -3.38570162e-02]
 [  1.35471185e-02  -3.13031530e-02]
 [  9.08094487e-03  -3.56658146e-02]
 [  2.87390346e-03  -2.49208748e-02]
 [  2.07887577e-02  -3.10454136e-02]
 [  1.23807333e-02  -3.14780958e-02]
 [  4.58452696e-03  -2.94317913e-02]
 [  4.56153679e-04  -3.03102502e-02]]Output bias: [ 0.52402804  0.46859775]
Value MLP:Hidden weights: [array([[ -7.09605080e+03,   6.21419683e+04,  -1.04779826e+07,
         -3.73904778e+05,   4.03822876e+06,  -7.21577714e+03,
          1.35291411e+02,  -1.31299917e+06,  -2.99031009e+02,
          2.89461605e+05,  -3.95737411e+03,  -6.64748991e+05,
         -2.37652918e+03,  -6.17696935e+01,  -1.23663087e+04,
         -6.30238232e+04,  -2.06726435e+02,  -2.45332725e+01,
          7.81688074e+04,   2.01060801e+04,   6.98592434e+02,
          8.10432585e+02,   3.11568181e+02,   2.46837909e+03,
         -1.33185961e+04,   8.22848008e+02,   1.16250633e+03,
         -2.25316630e+05,   2.85653359e+01,  -7.52757953e+02,
          8.96622163e+00,  -2.89777075e+02,  -4.72180814e+02,
         -5.96710987e+03,   1.46026279e+04,  -1.20460353e+03,
         -1.73480979e+07,  -4.41075642e+03,   2.05011042e+05,
          2.46948941e+03,   2.62444298e+04,  -4.17148912e+03,
          4.06637518e+03,  -1.14923199e+03,  -3.90344710e+01,
          4.64561402e+05,  -1.41335159e+06,   3.15215275e+01,
         -1.53185435e+02,   7.91713459e+03],
       [  8.73625507e+04,   8.07798042e+03,   1.28234975e+08,
         -2.31804164e+05,   1.02778181e+07,  -1.89954588e+04,
          4.01882258e+03,   2.34914505e+06,   7.11446669e+02,
         -2.35958178e+06,  -1.54801088e+04,  -4.94284821e+06,
         -3.88136958e+04,  -1.61309487e+03,   2.01357814e+05,
         -7.78000584e+04,   7.38681497e+02,   1.33871305e+03,
          2.56194031e+05,  -2.38543553e+04,   1.20292327e+04,
         -4.66970315e+03,   2.34232348e+03,  -1.74370301e+04,
          2.96430211e+03,   1.84817851e+04,  -1.36596808e+04,
         -1.44859051e+05,   3.30837993e+02,  -5.75585638e+03,
         -4.72128962e+02,  -1.03601000e+03,  -1.55585225e+05,
          1.10751629e+05,   3.65808174e+04,   2.30775141e+04,
          7.80286864e+07,   7.70848848e+03,   6.45933570e+04,
          1.70768342e+02,   1.59455107e+03,   3.44395106e+04,
          7.08149649e+03,  -1.28142189e+03,  -1.44544459e+03,
         -2.72402394e+06,  -1.19776318e+06,  -7.84655299e+01,
         -2.50656310e+03,   4.86990439e+03],
       [ -6.85205693e+03,  -9.51753010e+04,  -2.15658123e+06,
         -5.76633972e+05,   9.18953741e+06,  -2.47933809e+04,
          2.26751119e+03,  -2.17453587e+06,  -2.75236851e+02,
          4.99717066e+04,  -1.14841371e+04,  -4.63788408e+06,
          2.55474752e+04,  -4.99805657e+01,  -4.54860453e+04,
         -1.56284326e+05,  -2.66337765e+01,   5.47310583e+02,
          2.38644793e+05,   3.27330285e+04,   7.04467297e+03,
          1.10570210e+03,   1.26011563e+03,   5.51903948e+03,
         -3.27089362e+03,  -3.13891634e+03,   5.48964249e+03,
         -3.81529441e+05,   6.64567722e+01,  -1.94711336e+03,
         -1.83174946e+01,  -6.25203356e+02,   1.32311808e+04,
          3.13295647e+04,   2.75938310e+04,  -1.73035029e+04,
         -2.82474680e+07,  -1.49483440e+04,   3.41591506e+05,
          3.91901916e+02,   1.10407050e+04,  -5.33544334e+04,
         -8.36394954e+04,  -1.52475261e+03,  -5.73705350e+02,
          2.00471518e+06,  -4.71152733e+06,  -2.47651831e+02,
         -1.50277130e+03,   2.48637141e+04],
       [ -4.19210807e+04,  -3.06602009e+04,  -7.93615611e+06,
          1.90595352e+06,   3.76234381e+06,   5.19974557e+02,
         -2.56069138e+03,   5.50186097e+05,  -4.27734016e+01,
          5.13042089e+06,   1.64434246e+04,  -1.51512161e+06,
          1.21984551e+04,   5.61736085e+02,  -4.47449557e+04,
         -3.59833040e+04,  -6.25655306e+02,  -5.20929644e+02,
         -2.16555519e+05,   2.72326759e+04,  -7.29224867e+02,
          1.90244536e+03,  -3.03832348e+02,   7.48918577e+03,
          2.05466910e+04,   3.96084506e+03,   1.55843613e+01,
          8.81169240e+05,  -7.16176651e+02,  -2.24558525e+03,
          3.02175618e+02,   1.23097914e+03,   3.65586604e+04,
          3.69205359e+03,   1.13363959e+04,   6.83366951e+03,
         -2.76279579e+06,   1.00175011e+04,  -8.21903122e+05,
          9.17350360e+02,   2.06896902e+05,   1.60549156e+04,
          2.34450709e+04,  -6.68109566e+02,   2.08829909e+03,
         -5.60363952e+05,   2.00930152e+06,   1.19428589e+03,
          2.13200492e+03,  -1.26828550e+03],
       [  2.05627384e+05,  -4.29012059e+05,  -2.59457985e+07,
          2.14241023e+06,  -4.23986213e+06,   2.58853360e+04,
         -1.11577581e+03,   7.52401182e+05,  -1.04523302e+02,
          7.51747478e+06,   8.26112002e+03,   4.33705395e+06,
         -6.12123472e+04,   5.71730868e+02,  -5.24000815e+03,
          6.07571683e+04,  -5.75712574e+02,  -1.00091990e+03,
         -2.61375483e+05,  -7.23957199e+03,   1.20198106e+03,
          1.23553072e+03,  -1.70056455e+03,   5.46525344e+03,
         -2.98724530e+04,   6.78443502e+03,   1.68363173e+03,
          4.58891061e+05,  -3.63663907e+02,  -1.85313248e+03,
          2.79795841e+02,  -1.34895050e+02,   5.65183910e+03,
          3.15395576e+04,  -1.38851265e+04,   4.74797554e+03,
          2.58266748e+07,   7.47184986e+04,  -6.95321734e+05,
         -1.13772287e+03,  -8.67437408e+05,   3.36162706e+04,
          3.59219308e+04,   6.68340622e+03,   1.15573271e+03,
         -4.52727742e+05,   3.73701663e+06,   1.12310587e+03,
          7.81958212e+02,  -2.36208381e+04],
       [  5.47464469e+04,   2.91428693e+05,  -1.41413466e+07,
          1.07020918e+06,  -1.35341736e+06,   2.28177749e+04,
         -2.06940077e+03,   1.80750632e+05,  -1.08887462e+01,
          5.26795685e+06,   5.91457225e+03,   1.71477401e+06,
         -4.66475197e+04,   5.94921962e+02,  -9.57867345e+03,
          2.33810601e+04,   9.06046185e+02,  -1.02065468e+03,
         -2.53439451e+05,   6.47104566e+03,   3.24919946e+03,
          7.44049838e+02,  -1.78549657e+03,   7.43160049e+03,
         -2.38523018e+04,   8.63652127e+03,   2.18800474e+03,
          2.50243213e+05,  -2.75141335e+02,   1.96321562e+02,
          3.33842969e+02,  -3.99482250e+02,   8.67646878e+03,
          1.99827298e+03,  -4.82915737e+03,   4.99382694e+03,
          2.97282927e+07,   3.48437171e+04,  -3.72947249e+05,
          5.97600657e+03,  -1.17715608e+05,   2.45082586e+04,
         -1.46165651e+05,   5.74416126e+03,   7.19264951e+02,
         -3.32054148e+05,   1.09450121e+06,   7.61198335e+02,
          1.02360214e+03,  -1.63119115e+04],
       [ -4.67040796e-01,   8.91902691e-01,   9.86434396e-03,
          4.68686582e+00,   3.78340684e+04,  -6.72364167e+00,
          1.10542816e+02,   1.29356929e+02,  -1.15735525e+00,
         -2.52633340e+02,   2.21137152e+02,  -1.13074857e+00,
         -3.23145832e-02,  -5.19811536e+00,  -1.67831590e-01,
         -3.33043769e+02,   2.62230206e+02,   4.30374434e-01,
         -4.28812447e+00,  -5.00238483e-01,   4.93413979e-04,
         -6.88734501e+00,   9.10498068e-03,   1.66340777e+01,
         -1.54906865e+00,   1.76481544e-03,  -1.37369236e+00,
          5.15038119e+01,   9.36820861e-02,   1.54626298e-02,
          2.97120188e+00,  -1.91604715e+00,   3.47685823e-03,
         -1.06483174e+02,  -2.69854274e+01,  -1.10012220e+00,
         -1.51857790e+00,  -2.67337132e-02,   1.86580236e-03,
          3.09800431e+02,  -1.76529022e+00,   2.49074042e+01,
          1.97657564e+01,   1.65390394e+02,   1.06348739e-01,
          4.84619180e+00,   1.03572731e+02,   9.79565390e-01,
         -1.32086373e+02,  -2.17143735e+00],
       [ -4.02060381e+01,   8.73533104e+04,  -3.78931513e-03,
         -1.76470607e+01,  -9.28376737e+01,   7.70240425e-05,
          4.55565114e-03,  -9.27764127e-02,   5.13037283e+00,
         -1.83200368e-03,   4.52059805e-03,   8.07298752e+01,
          1.06058858e+02,  -9.22969819e-03,   7.69998478e-03,
          5.73018126e-03,   8.29525349e+00,  -2.28267829e+02,
          5.04993901e+01,  -4.90415526e-01,   7.57273642e+02,
          2.64124473e-03,  -3.91285104e-03,   2.79618314e+01,
         -1.56875673e+00,  -4.27327470e-03,   3.41066167e-04,
          8.58771465e+03,   1.39670791e+00,   1.22272933e-03,
          4.13660985e+00,   2.63897142e+01,  -1.75504762e-02,
          1.79046669e-01,  -3.64869539e+01,   4.91585829e-01,
          4.71940655e+01,   3.96787761e+00,  -1.10092084e+02,
         -3.68999641e+03,   1.45291410e-02,  -5.31747774e-03,
         -2.02332720e+00,   1.67035202e+03,   3.90797079e-03,
         -1.27812969e+00,   1.05671624e+02,   7.33221001e-03,
         -1.30691639e+02,   8.86416368e-03]])]Hidden bias: [array([  2.26948637e+04,   8.80950546e+04,   1.31148586e+08,
        -1.12554710e+06,   6.41745076e+06,  -1.71509087e+04,
         4.73209605e+03,   1.61462627e+06,   8.94074159e+02,
        -4.02134214e+06,  -2.07929796e+04,  -2.96056552e+06,
        -4.02289254e+04,  -1.75396651e+03,   2.19891805e+05,
        -6.31839784e+04,   1.41116803e+03,   1.52326950e+03,
         3.08912363e+05,  -3.65322571e+04,   1.30152478e+04,
        -5.83478005e+03,   2.30110550e+03,  -2.09313464e+04,
        -6.10987545e+03,   1.72200448e+04,  -1.46477053e+04,
        -5.52731819e+05,   8.02123557e+02,  -5.35187647e+03,
        -5.94454167e+02,  -1.64822198e+03,  -1.69314125e+05,
         1.21039667e+05,   2.10890041e+04,   2.38600430e+04,
         3.64980006e+07,   2.42136639e+02,   4.80385167e+05,
        -3.28914752e+03,  -4.86533152e+04,   7.21635738e+03,
        -8.38204632e+04,  -2.47457693e+03,  -2.75070703e+03,
        -2.78371411e+06,  -2.08173315e+06,  -8.69108329e+02,
        -3.50982712e+03,   4.31990468e+03])]Output weights: [[   305.53238484]
 [   206.25592662]
 [-19105.04798511]
 [   708.34710724]
 [-15303.00221277]
 [  8056.39423036]
 [ -4107.33855317]
 [   217.78464924]
 [-17576.69409309]
 [ -3582.86330766]
 [   306.23601469]
 [ 19220.90245647]
 [ -4192.48204463]
 [   147.66791527]
 [  3073.86138767]
 [  1008.7138175 ]
 [ -2794.58246405]
 [  2649.6129609 ]
 [  2667.07171657]
 [ -1178.91107056]
 [ -1179.42536477]
 [-15022.25049375]
 [  2591.28203255]
 [  6317.41378445]
 [ -6500.97506363]
 [  1204.18872201]
 [ -8706.15089263]
 [  2644.60523103]
 [ 15060.04584622]
 [  4983.56770492]
 [  8291.09252818]
 [   320.29341213]
 [ -2758.90852688]
 [ -1489.95423758]
 [ -3424.9229885 ]
 [   938.86910936]
 [  2027.71063796]
 [   844.14245357]
 [  -805.65196003]
 [  2860.34252221]
 [ -1038.96278485]
 [  -882.67694914]
 [   512.96268162]
 [  4539.96044075]
 [-18608.84761403]
 [  -486.77983394]
 [   687.39259943]
 [  4083.95574335]
 [-18260.6951241 ]
 [ -1060.2773547 ]]Output bias: [-12153.39158698]