Action MLP:Hidden weights: [array([[  8.43989573e-03,   7.13433975e-03,  -3.31788780e-03,
          8.03550182e-03,   6.40720305e-03,  -3.02962558e-03,
         -8.19281665e-03,  -1.19392994e-03,  -5.53798827e-03,
          6.02210458e-03,   1.06307929e-02,  -4.77082587e-03,
          5.50159186e-03,   1.15022252e-02,   3.45159896e-03,
          2.31398661e-03,   6.23902832e-03,  -2.17161076e-03,
         -6.39971912e-03,   6.41368699e-03,   8.24453154e-03,
         -1.63697965e-03,  -4.03982743e-03,   9.80977700e-03,
          6.54223131e-03,  -3.03781355e-03,   2.34868816e-03,
          3.66250310e-03,  -6.92570866e-03,   4.75079554e-03,
         -1.80489979e-03,  -6.19412315e-04,   8.92667983e-03,
          4.46432052e-03,   9.82534685e-03,  -7.71629653e-05,
         -3.09980427e-03,  -2.13656893e-03,  -5.00224145e-03,
          9.56815332e-03,  -2.38744787e-03,  -5.04595718e-03,
          3.76074730e-03,   5.86722931e-03,  -1.61394308e-03,
         -5.89192510e-03,   6.70515279e-03,  -9.70663762e-03,
         -4.98491594e-03,  -6.17590016e-03],
       [  4.66675662e-02,   6.28654487e-02,   7.26588503e-02,
          1.30899051e-01,   6.92231664e-02,   9.65165025e-02,
          5.79704214e-02,   9.96420773e-02,   5.63665138e-02,
          6.21086404e-02,   8.71391214e-02,   5.74707485e-02,
          5.77170978e-02,   3.44670846e-02,   6.43996084e-02,
          9.84214600e-02,   9.06429759e-02,   1.97100769e-02,
          8.56876685e-02,   6.78078343e-02,   4.55582529e-02,
          8.72665613e-02,   7.70240992e-02,   1.13354890e-01,
          8.86316173e-02,   4.25559409e-02,   9.25215506e-02,
          6.61718100e-02,   1.36696065e-01,   7.04700379e-02,
          7.28227273e-02,   9.49910263e-02,   3.71580073e-02,
          6.20348624e-02,   4.92294901e-02,   1.15020379e-01,
          7.93437105e-02,   6.49430217e-02,   9.56100820e-02,
          7.63090879e-02,   5.34517537e-02,   6.26542524e-02,
          7.44967483e-02,   1.10616021e-01,   5.22907935e-02,
          4.83988809e-02,   8.80466141e-02,   1.31206052e-01,
          1.27877201e-01,   8.24222578e-02],
       [  2.45733658e-03,  -1.13985254e-02,  -6.67690773e-03,
         -6.05330583e-04,  -1.15355454e-02,  -2.66020967e-03,
          5.25788629e-03,   6.29070212e-03,  -1.23985544e-02,
         -1.41184703e-02,  -1.70467721e-02,  -1.34336651e-02,
          1.69637571e-04,   7.44268795e-03,   3.75550627e-03,
          4.31563107e-03,  -1.33192559e-02,   8.33412214e-04,
          5.52202149e-03,  -1.76822817e-03,  -9.55664742e-03,
         -1.20769655e-03,  -9.36409319e-04,  -6.09792683e-03,
         -1.56483995e-03,   1.18395585e-03,   2.99611993e-04,
         -1.08625778e-02,  -6.87498276e-03,  -5.14795375e-03,
          4.28961344e-03,  -9.45626315e-03,  -7.91887231e-03,
          2.22212056e-03,   4.57068398e-03,  -3.55993948e-03,
         -1.41708164e-02,  -1.29066071e-02,  -1.13479966e-02,
         -2.53438545e-03,  -6.50654797e-04,   5.63185993e-03,
          3.17217540e-03,  -6.81589750e-03,  -1.43093319e-02,
          2.66547378e-03,  -1.43731664e-02,  -9.71175900e-03,
         -1.55138117e-02,   1.55008608e-03],
       [  2.23125674e-01,   2.45341861e-01,   2.78177692e-01,
          3.59614698e-01,   2.75988277e-01,   3.08261017e-01,
          2.58539901e-01,   3.40583270e-01,   2.69216780e-01,
          2.53022736e-01,   2.93226108e-01,   2.35262379e-01,
          2.39506830e-01,   2.23909310e-01,   2.56949918e-01,
          3.18796698e-01,   3.19656120e-01,   1.71739299e-01,
          2.94662122e-01,   2.56551390e-01,   2.16870778e-01,
          3.02252325e-01,   2.83530385e-01,   3.53621621e-01,
          2.93309466e-01,   2.44276129e-01,   3.13011216e-01,
          2.74178636e-01,   3.67265940e-01,   2.88116483e-01,
          2.69972334e-01,   3.12442789e-01,   2.29821301e-01,
          2.46697150e-01,   2.26480557e-01,   3.38031677e-01,
          3.07559965e-01,   2.63899351e-01,   3.08626513e-01,
          3.01794989e-01,   2.29603122e-01,   2.49918723e-01,
          2.75091644e-01,   3.47755998e-01,   2.37637715e-01,
          2.19033462e-01,   2.88152731e-01,   3.68754550e-01,
          3.68870872e-01,   2.98698569e-01],
       [  2.76548359e-03,  -2.90503207e-03,   6.60202107e-03,
         -1.13697151e-02,   9.57274435e-03,   4.05253841e-03,
         -2.66201608e-03,  -5.53751559e-03,  -2.65056598e-04,
          2.75916433e-03,  -2.07233322e-03,  -4.11650025e-03,
         -3.60175655e-03,   4.98281539e-03,   5.57594325e-03,
         -1.16595195e-03,  -2.78344806e-04,  -2.10679184e-03,
          1.92047880e-03,  -3.54146554e-03,  -2.15988318e-03,
          4.86369038e-03,  -1.04673525e-02,  -1.12033223e-02,
          5.96015437e-03,   1.13231040e-03,  -7.03919342e-03,
          5.48880389e-04,  -5.00177896e-03,  -9.79569809e-03,
         -5.17373404e-04,   6.40132040e-04,  -5.87274654e-03,
         -1.07499275e-03,   2.12350227e-03,  -1.31928557e-02,
         -1.07138203e-02,  -1.11910221e-02,  -2.03856478e-03,
          6.11314433e-03,  -8.46265903e-03,   3.74591957e-03,
          2.73480475e-03,  -2.87012526e-03,   3.61412724e-03,
          1.13092006e-02,   7.24607066e-04,  -1.80774838e-02,
         -6.78149299e-04,   8.88397174e-04],
       [ -1.34901339e-02,  -2.24295487e-02,  -1.26665498e-02,
         -9.58642081e-03,  -4.56430356e-03,  -2.29208388e-02,
         -1.66915430e-02,  -7.06097781e-03,  -2.38405275e-02,
         -8.21564139e-03,  -1.60180255e-02,  -1.13872233e-02,
         -4.98539859e-03,  -2.00484547e-02,  -8.99778909e-03,
         -1.61645565e-02,  -1.86874583e-02,  -1.61529692e-02,
         -1.35046228e-02,  -9.56586486e-03,  -1.05382530e-02,
         -1.98336817e-02,  -2.29536193e-02,  -1.59060687e-02,
         -2.19081694e-02,  -6.57291383e-03,  -8.80906072e-03,
         -1.67320235e-02,  -2.23541375e-02,  -2.35066499e-02,
         -1.08888865e-02,  -5.89464182e-03,  -1.61897754e-02,
         -1.58783995e-02,  -4.68084544e-03,  -1.15682813e-02,
         -9.31138936e-03,  -2.30916228e-02,  -2.04991279e-02,
         -1.38781417e-02,  -1.58836965e-02,  -1.40604398e-02,
         -1.22962081e-02,  -1.45229477e-02,  -1.94785834e-02,
         -1.01899058e-02,  -1.56544715e-02,  -1.79280212e-02,
         -2.08741280e-02,  -3.75472597e-03],
       [  1.23655941e-01,   1.38849166e-01,   1.37721163e-01,
          1.62131691e-01,   1.41346161e-01,   1.56277801e-01,
          1.29573442e-01,   1.67589455e-01,   1.45044847e-01,
          1.29707787e-01,   1.57770171e-01,   1.36177683e-01,
          1.35377333e-01,   1.33342521e-01,   1.37199770e-01,
          1.66319329e-01,   1.59243383e-01,   9.83374536e-02,
          1.56465698e-01,   1.45997978e-01,   1.19467915e-01,
          1.50049638e-01,   1.48417756e-01,   1.66736415e-01,
          1.51149275e-01,   1.33993945e-01,   1.47537873e-01,
          1.47289525e-01,   1.85898101e-01,   1.50838953e-01,
          1.37027074e-01,   1.58155766e-01,   1.21179376e-01,
          1.35562699e-01,   1.23762234e-01,   1.68824434e-01,
          1.54475567e-01,   1.39209545e-01,   1.60381243e-01,
          1.55918592e-01,   1.21969590e-01,   1.44538035e-01,
          1.31119812e-01,   1.82127849e-01,   1.27014223e-01,
          1.11820698e-01,   1.64230333e-01,   1.86970927e-01,
          1.75042662e-01,   1.44788862e-01],
       [  1.09541959e-01,   1.24450720e-01,   1.32794693e-01,
          1.60517268e-01,   1.34371842e-01,   1.39448527e-01,
          1.33893970e-01,   1.59999522e-01,   1.31509605e-01,
          1.25634021e-01,   1.36625241e-01,   1.17990930e-01,
          1.16718304e-01,   1.14048205e-01,   1.25336236e-01,
          1.54003539e-01,   1.57030269e-01,   9.35791797e-02,
          1.49206155e-01,   1.33020678e-01,   1.12885328e-01,
          1.40344010e-01,   1.36755249e-01,   1.66988035e-01,
          1.40397764e-01,   1.31542341e-01,   1.47746648e-01,
          1.36036380e-01,   1.70533600e-01,   1.46685320e-01,
          1.23796760e-01,   1.48517974e-01,   1.18670890e-01,
          1.17370776e-01,   1.13332363e-01,   1.50515988e-01,
          1.36839273e-01,   1.24380843e-01,   1.43355276e-01,
          1.48814042e-01,   1.21585036e-01,   1.41527861e-01,
          1.39066902e-01,   1.59488590e-01,   1.15794561e-01,
          1.14398279e-01,   1.49884018e-01,   1.71299465e-01,
          1.67795218e-01,   1.48684484e-01]]), array([[-0.02359804, -0.03010955, -0.02261156, ..., -0.02285362,
        -0.02086051, -0.02820974],
       [-0.0178203 , -0.02938945, -0.02902738, ..., -0.02321164,
        -0.03462672, -0.01688105],
       [-0.01912802, -0.02887471, -0.03216027, ..., -0.03657849,
        -0.02836189, -0.03712571],
       ..., 
       [-0.04916791, -0.03513834, -0.04768027, ..., -0.04862262,
        -0.05290536, -0.03701662],
       [-0.03715537, -0.04404188, -0.03597297, ..., -0.04582657,
        -0.04212619, -0.03317449],
       [-0.03582474, -0.03263906, -0.03926991, ..., -0.02362728,
        -0.03389765, -0.03612737]])]Hidden bias: [array([-0.89306846, -0.8820836 , -0.8693693 , -0.83065292, -0.86984834,
       -0.85442054, -0.87710668, -0.83907753, -0.87202144, -0.88023467,
       -0.86123513, -0.88659597, -0.8854565 , -0.89081634, -0.8780123 ,
       -0.8484712 , -0.84804423, -0.91357443, -0.85937809, -0.87662625,
       -0.89517859, -0.85759676, -0.86545637, -0.83237496, -0.86073441,
       -0.88246678, -0.85288003, -0.86903174, -0.8243356 , -0.86246148,
       -0.87359612, -0.85195807, -0.88959885, -0.8826434 , -0.89150983,
       -0.84008147, -0.85553127, -0.8749472 , -0.8535458 , -0.85656625,
       -0.89013626, -0.87806097, -0.87010157, -0.83439827, -0.88652713,
       -0.89500629, -0.86099223, -0.82363925, -0.82459887, -0.85905024]), array([-1.0231206 , -1.01712558, -1.01625801, -1.01643872, -1.02024896,
       -1.01584142, -1.01699901, -1.01540424, -1.01709464, -1.01616485,
       -1.0176174 , -1.02020571, -1.01632535, -1.02151832, -1.01895587,
       -1.02097141, -1.01587147, -1.02449583, -1.01414373, -1.01690999,
       -1.01796282, -1.02052912, -1.01692517, -1.01540749, -1.01461061,
       -1.01642534, -1.01807555, -1.01445385, -1.01577579, -1.01959242,
       -1.02354965, -1.01679079, -1.01865759, -1.01523496, -1.01487617,
       -1.01660876, -1.01500389, -1.0192471 , -1.01456883, -1.0196858 ,
       -1.01594244, -1.02377366, -1.0212415 , -1.0229263 , -1.01720543,
       -1.01744663, -1.01871908, -1.01835244, -1.02318238, -1.01506532])]Output weights: [[ 0.09222079 -0.00670371]
 [ 0.09670188 -0.0094356 ]
 [ 0.09729833 -0.00883345]
 [ 0.09948139 -0.0092052 ]
 [ 0.09840314 -0.00878848]
 [ 0.09736439 -0.0099447 ]
 [ 0.09816638 -0.00934906]
 [ 0.09923973 -0.00931462]
 [ 0.09899137 -0.00996496]
 [ 0.09753156 -0.00865473]
 [ 0.09798379 -0.00897436]
 [ 0.09810032 -0.00946975]
 [ 0.09683293 -0.00956597]
 [ 0.09738175 -0.00919451]
 [ 0.09838363 -0.00886551]
 [ 0.09847061 -0.00899591]
 [ 0.09697665 -0.00943924]
 [ 0.09334311 -0.00704969]
 [ 0.09866729 -0.00953013]
 [ 0.09802457 -0.00947961]
 [ 0.09862062 -0.00934479]
 [ 0.09769857 -0.00856878]
 [ 0.09815371 -0.00907611]
 [ 0.09749231 -0.01000843]
 [ 0.09960099 -0.00960557]
 [ 0.09854647 -0.01015068]
 [ 0.09881542 -0.00962649]
 [ 0.09563632 -0.00938159]
 [ 0.08655877  0.00201575]
 [ 0.09769525 -0.00856702]
 [ 0.09728101 -0.00802436]
 [ 0.09770827 -0.00914876]
 [ 0.09896412 -0.00935802]
 [ 0.09750715 -0.0099409 ]
 [ 0.09763766 -0.0097274 ]
 [ 0.09751057 -0.00961511]
 [ 0.09728356 -0.00952671]
 [ 0.09736239 -0.00960326]
 [ 0.09688191 -0.00963233]
 [ 0.09706247 -0.00883631]
 [ 0.09908207 -0.01020352]
 [ 0.09332089 -0.00657249]
 [ 0.09769408 -0.00807588]
 [ 0.09470879 -0.00777763]
 [ 0.09798147 -0.00933866]
 [ 0.09923153 -0.00875202]
 [ 0.09834541 -0.0089334 ]
 [ 0.0963516  -0.00921201]
 [ 0.09378921 -0.00650678]
 [ 0.09742648 -0.00974023]]Output bias: [ 0.18759098 -0.00621216]
Value MLP:Hidden weights: [array([[ -5.98317977e-02,  -4.79919441e-02,  -4.89750480e-02,
         -5.42324196e-02,  -6.13097327e-02,  -4.63869590e-02,
         -4.07533857e-02,  -5.61593109e-02,  -4.74870082e-02,
         -4.91977632e-02,  -4.57936479e-02,  -5.52339857e-02,
         -6.03472782e-02,  -4.78473510e-02,  -6.36655660e-02,
         -3.77834195e-02,  -4.13723624e-02,  -5.14282872e-02,
         -3.14807059e-02,  -4.24529804e-02,  -4.67686522e-02,
         -3.28529914e-02,  -5.64855204e-02,  -5.49489749e-02,
         -4.59688799e-02,  -6.04547805e-02,  -6.15918576e-02,
         -6.55604392e-02,  -6.21054275e-02,  -5.20041958e-02,
         -4.06877225e-02,  -3.84474458e-02,  -5.20843941e-02,
         -5.91213720e-02,  -5.28240726e-02,  -3.07701308e-02,
         -4.87127698e-02,  -4.97141358e-02,  -3.35109098e-02,
         -5.53032584e-02,  -4.83397803e-02,  -2.30638952e-02,
         -4.81241263e-02,  -6.90162136e-02,  -5.82801758e-02,
         -5.83042656e-02,  -5.65673785e-02,  -5.57943604e-02,
         -5.16838767e-02,  -6.54954975e-02],
       [  9.72694520e-01,   1.10214769e+00,   1.00248202e+00,
          9.44091971e-01,   9.88727253e-01,   8.96182753e-01,
          9.35129979e-01,   9.58169161e-01,   9.24316914e-01,
          8.87815733e-01,   9.88613971e-01,   9.28694568e-01,
          1.00263163e+00,   9.54886072e-01,   1.00266959e+00,
          9.05465859e-01,   8.97294318e-01,   9.19561557e-01,
          8.62231049e-01,   1.10296109e+00,   1.07553345e+00,
          8.70515808e-01,   9.47087892e-01,   9.55103124e-01,
          9.16189661e-01,   1.01134537e+00,   1.07989999e+00,
          1.04524018e+00,   1.06752317e+00,   1.05197488e+00,
          9.10310317e-01,   1.09427549e+00,   9.85604911e-01,
          9.69448553e-01,   9.12355076e-01,   8.71489158e-01,
          9.23878682e-01,   9.28841514e-01,   8.56777593e-01,
          9.21790541e-01,   8.98264137e-01,   8.53449769e-01,
          9.07491793e-01,   1.01741529e+00,   9.76415276e-01,
          9.97183852e-01,   1.00148799e+00,   1.04936596e+00,
          9.23252830e-01,   1.04034043e+00],
       [  1.99004862e-01,   2.64662792e-01,   2.28018811e-01,
          1.88328678e-01,   2.22394103e-01,   1.72813981e-01,
          1.87007449e-01,   2.03621733e-01,   1.87092309e-01,
          1.80745938e-01,   2.17703214e-01,   1.92990574e-01,
          2.12326725e-01,   1.96097884e-01,   2.12673447e-01,
          1.92368484e-01,   1.76295694e-01,   1.93088315e-01,
          1.73836633e-01,   2.72706630e-01,   2.63507951e-01,
          1.85909668e-01,   1.95461761e-01,   2.10985512e-01,
          1.86931811e-01,   2.25421020e-01,   2.63148074e-01,
          2.48546757e-01,   2.68296063e-01,   2.42632762e-01,
          1.85350737e-01,   2.61238232e-01,   2.06356414e-01,
          2.06735982e-01,   1.92649575e-01,   1.85857200e-01,
          1.99892792e-01,   1.87092302e-01,   1.74688380e-01,
          1.85316605e-01,   1.80306267e-01,   1.75164226e-01,
          1.85550801e-01,   2.36703901e-01,   2.18892496e-01,
          2.09539605e-01,   2.23131871e-01,   2.53008302e-01,
          1.85041947e-01,   2.47355361e-01],
       [  4.59916129e-01,   1.45955519e+00,   5.57487046e-01,
          3.89983175e-01,   5.15748357e-01,   3.14397901e-01,
          3.81136673e-01,   4.34177548e-01,   3.68711848e-01,
          2.86440905e-01,   5.07673997e-01,   3.63403985e-01,
          5.48688118e-01,   4.26420892e-01,   5.46196149e-01,
          3.27241575e-01,   3.12789248e-01,   3.49499537e-01,
          2.48246923e-01,   1.49427001e+00,   1.06719817e+00,
          2.61712008e-01,   3.98127430e-01,   4.32432213e-01,
          3.43981738e-01,   5.73920462e-01,   1.09099483e+00,
          7.36432237e-01,   1.00973316e+00,   7.72050572e-01,
          3.42106450e-01,   1.36342420e+00,   5.01294381e-01,
          4.60907179e-01,   3.37742315e-01,   2.59849300e-01,
          3.65780782e-01,   3.67904544e-01,   2.37918164e-01,
          3.58023160e-01,   3.13126770e-01,   2.31000144e-01,
          3.23405410e-01,   6.10935837e-01,   4.82065613e-01,
          5.17492045e-01,   5.45007125e-01,   7.90138588e-01,
          3.48683793e-01,   7.35360817e-01],
       [ -1.46421893e-01,  -1.70257743e-01,  -1.51546602e-01,
         -1.29187943e-01,  -1.51293217e-01,  -1.10675293e-01,
         -1.33404713e-01,  -1.44868501e-01,  -1.32298628e-01,
         -1.10195914e-01,  -1.56098799e-01,  -1.29780049e-01,
         -1.49186635e-01,  -1.35029687e-01,  -1.40202577e-01,
         -1.25174149e-01,  -1.11626244e-01,  -1.25778796e-01,
         -9.71643190e-02,  -1.62981649e-01,  -1.67039632e-01,
         -1.06764036e-01,  -1.35419942e-01,  -1.35272904e-01,
         -1.24147337e-01,  -1.61551295e-01,  -1.60233285e-01,
         -1.58332262e-01,  -1.72733888e-01,  -1.60225035e-01,
         -1.22672075e-01,  -1.62277119e-01,  -1.46025438e-01,
         -1.37832662e-01,  -1.30717642e-01,  -9.76645566e-02,
         -1.38734997e-01,  -1.28274430e-01,  -1.02330123e-01,
         -1.30820887e-01,  -1.12851103e-01,  -1.02979776e-01,
         -1.24071772e-01,  -1.47646620e-01,  -1.41149169e-01,
         -1.55496250e-01,  -1.44118582e-01,  -1.67987676e-01,
         -1.28950480e-01,  -1.65825065e-01],
       [  3.66902535e-03,   2.84621731e-02,   5.99606752e-03,
          1.10436004e-02,   1.13661825e-02,  -5.50489988e-03,
         -2.97345198e-03,  -2.48914739e-04,  -3.25148063e-03,
          4.13425926e-03,   5.91195065e-03,   1.15061552e-02,
          2.01751610e-02,   1.57545770e-03,   7.45095740e-03,
         -5.91907772e-03,   1.52323377e-03,  -4.35514659e-03,
         -4.45305041e-03,   2.32802957e-02,   2.18779100e-02,
          5.00072136e-03,   5.00842813e-03,   2.51856234e-03,
         -6.80566775e-03,   1.50988078e-02,   1.40812891e-02,
          1.38643777e-02,   1.08795068e-02,   1.49724625e-02,
         -1.31464923e-03,   1.68963777e-02,   1.25751925e-02,
          1.34147074e-02,   7.39513036e-03,   5.41518909e-03,
          1.33351146e-02,  -5.87957502e-03,  -1.41719211e-02,
          5.32292673e-03,   5.92089099e-03,   9.24348184e-04,
         -8.77849104e-03,   1.72075767e-02,   2.63265835e-03,
          2.04643028e-02,   2.01014598e-02,   1.60748299e-02,
          1.14211276e-02,   1.90691261e-02],
       [ -4.29264417e-02,  -1.87160433e-02,  -5.00574298e-02,
         -5.19405629e-02,  -4.26225035e-02,  -4.78466171e-02,
         -4.46722455e-02,  -4.37849678e-02,  -4.69738636e-02,
         -5.08847376e-02,  -5.25024523e-02,  -5.13283801e-02,
         -4.17003807e-02,  -4.96002776e-02,  -4.55981935e-02,
         -5.63393301e-02,  -5.06005088e-02,  -4.21891290e-02,
         -5.94704749e-02,  -3.34842304e-02,  -3.59028274e-02,
         -5.55475038e-02,  -5.20421097e-02,  -5.00170197e-02,
         -6.09817462e-02,  -3.29876691e-02,  -2.59099700e-02,
         -4.42964769e-02,  -3.71222970e-02,  -3.49195981e-02,
         -5.47405306e-02,  -3.10739130e-02,  -4.90816933e-02,
         -4.16258037e-02,  -5.97377170e-02,  -5.55990021e-02,
         -5.94930485e-02,  -5.91902505e-02,  -5.39450764e-02,
         -5.42864625e-02,  -4.75977553e-02,  -5.63721515e-02,
         -4.24139620e-02,  -4.77432708e-02,  -4.57616813e-02,
         -4.18206912e-02,  -4.78625640e-02,  -3.41070630e-02,
         -4.61318058e-02,  -4.33181571e-02],
       [ -4.59614037e-02,  -3.53017969e-02,  -4.75541754e-02,
         -4.68114496e-02,  -4.80558231e-02,  -6.44578590e-02,
         -5.09534415e-02,  -5.83937774e-02,  -6.04958963e-02,
         -6.23951037e-02,  -4.44004931e-02,  -5.62378630e-02,
         -4.46561125e-02,  -5.47676864e-02,  -5.05843156e-02,
         -5.53211878e-02,  -5.10271071e-02,  -5.94133553e-02,
         -5.24625076e-02,  -2.73379791e-02,  -3.09168435e-02,
         -5.35344331e-02,  -4.82177718e-02,  -5.21190598e-02,
         -6.18743698e-02,  -5.52328670e-02,  -2.95423619e-02,
         -5.06123058e-02,  -4.07347873e-02,  -5.09001955e-02,
         -6.03949992e-02,  -3.98068342e-02,  -5.19049052e-02,
         -4.84804991e-02,  -5.34142809e-02,  -5.35443564e-02,
         -5.45718311e-02,  -4.89095045e-02,  -6.14584136e-02,
         -5.00327250e-02,  -5.55251806e-02,  -5.87239960e-02,
         -4.69239982e-02,  -5.15029506e-02,  -5.46621859e-02,
         -4.48519095e-02,  -4.96670707e-02,  -4.00845334e-02,
         -5.78292071e-02,  -3.61163670e-02]]), array([[ 0.15761491,  0.1425857 ,  0.14673627, ...,  0.13483524,
         0.13624594,  0.16034174],
       [ 0.29152844,  0.27546543,  0.27472832, ...,  0.25123984,
         0.26045107,  0.27443355],
       [ 0.16684651,  0.1676401 ,  0.14911173, ...,  0.15398068,
         0.16245115,  0.15795068],
       ..., 
       [ 0.20344591,  0.18591917,  0.18299528, ...,  0.1880118 ,
         0.17062703,  0.19078482],
       [ 0.14065996,  0.13648283,  0.13274364, ...,  0.13089587,
         0.13349248,  0.12734191],
       [ 0.1944982 ,  0.18304001,  0.1727597 , ...,  0.17012754,
         0.17807947,  0.19155004]])]Hidden bias: [array([-1.57255193, -2.12879055, -1.64457232, -1.51443342, -1.6125839 ,
       -1.4260842 , -1.50103905, -1.54779027, -1.48191198, -1.40892501,
       -1.61088103, -1.48904218, -1.63578514, -1.53924676, -1.63714561,
       -1.44891843, -1.42844729, -1.47465565, -1.35881575, -2.15058357,
       -1.94039028, -1.37908465, -1.5234272 , -1.54433247, -1.46576587,
       -1.66119949, -1.95881008, -1.76584193, -1.9055041 , -1.78698529,
       -1.45549153, -2.08254487, -1.59923662, -1.56818796, -1.45951035,
       -1.37963269, -1.48307942, -1.48924403, -1.34779189, -1.47533849,
       -1.43083592, -1.34019394, -1.44996325, -1.68052043, -1.58775275,
       -1.62301389, -1.6370684 , -1.78959661, -1.47570535, -1.75409762]), array([-0.9816756 , -1.00648075, -1.00478057, -0.98882956, -0.98084823,
       -1.01103149, -1.00156424, -0.99709964, -1.0008388 , -1.02032481,
       -0.99999286, -1.01441722, -1.00132683, -0.99384634, -1.00285569,
       -1.01869005, -0.98779213, -0.98770822, -0.99199682, -0.99055084,
       -0.98604725, -1.00123276, -0.99773095, -0.99480916, -1.00375616,
       -1.01857241, -1.01198176, -1.0116265 , -0.98790232, -1.01609344,
       -1.01985131, -1.01356885, -1.0098347 , -1.00886672, -0.99931634,
       -0.9912421 , -1.00394176, -0.99550923, -1.00250352, -1.0112096 ,
       -1.0146867 , -0.99005933, -1.01908854, -1.01509684, -1.00672487,
       -1.01344483, -0.99920633, -1.02462768, -1.01795241, -0.9920266 ])]Output weights: [[-1.82935836]
 [-1.7652629 ]
 [-1.76238124]
 [-1.81078583]
 [-1.83554331]
 [-1.71982469]
 [-1.76959972]
 [-1.75517702]
 [-1.75714312]
 [-1.6959489 ]
 [-1.7741334 ]
 [-1.73009487]
 [-1.77546564]
 [-1.79259339]
 [-1.77746784]
 [-1.69456863]
 [-1.7852799 ]
 [-1.78360258]
 [-1.81023918]
 [-1.81437287]
 [-1.81488644]
 [-1.75832131]
 [-1.79903904]
 [-1.79180423]
 [-1.76692642]
 [-1.70451612]
 [-1.74281725]
 [-1.75263079]
 [-1.81411901]
 [-1.72644406]
 [-1.6894891 ]
 [-1.7546768 ]
 [-1.75211355]
 [-1.73599778]
 [-1.7994866 ]
 [-1.78529791]
 [-1.78204608]
 [-1.75837122]
 [-1.77071126]
 [-1.75626803]
 [-1.71193557]
 [-1.79613696]
 [-1.70176007]
 [-1.70780325]
 [-1.72502433]
 [-1.72771691]
 [-1.74724395]
 [-1.70356467]
 [-1.70640806]
 [-1.79860328]]Output bias: [-3.23669685]