Action MLP:Hidden weights: [array([[-0.00367996,  0.00331387, -0.00914027, ...,  0.00738872,
        -0.00827312,  0.00981019],
       [ 0.00341266,  0.00358251,  0.00566759, ..., -0.0071419 ,
        -0.00667761,  0.00131897],
       [ 0.0053951 , -0.00793914,  0.00757773, ...,  0.00589911,
        -0.0080968 , -0.00299729],
       ..., 
       [ 0.00407321,  0.00248989, -0.00506707, ..., -0.00884308,
         0.00725529,  0.00372044],
       [-0.00721639,  0.00043719,  0.0093608 , ...,  0.00761042,
        -0.00538153,  0.00304236],
       [-0.00077576,  0.00528842,  0.00099845, ...,  0.00819508,
        -0.00269796, -0.00651213]]), array([[  6.29522773e-03,  -3.51588207e-03,  -8.61783674e-03,
         -4.71575062e-03,  -9.84821741e-04,  -1.26762865e-03,
         -8.50145858e-03,  -5.06064164e-03,  -4.40663683e-03,
          1.72900403e-03,   3.11667910e-03,  -9.79118338e-03,
          2.94793682e-03,   8.70754262e-03,   8.25644580e-03,
         -7.83142954e-03,   3.26585746e-03,  -2.10257494e-03,
         -1.57584714e-03,   6.47883126e-03],
       [ -5.18038564e-03,  -2.01671185e-03,  -3.37472696e-04,
          5.76778088e-03,   9.30520110e-03,   3.39151607e-03,
         -3.79305717e-03,  -7.52499682e-03,  -1.36878957e-03,
          3.98933749e-03,  -1.81911939e-03,  -6.36238151e-04,
          9.99053023e-03,   4.67845639e-03,  -6.61464220e-03,
          1.99887956e-03,  -8.76743191e-03,  -2.23808406e-03,
          8.12218594e-03,   3.36205336e-03],
       [  3.56539897e-03,  -7.78264858e-03,  -3.78529717e-03,
         -4.87136153e-03,   3.95646947e-03,  -7.66734453e-03,
         -7.41807590e-03,   2.55655945e-03,   7.67845536e-03,
         -3.52563562e-03,  -9.63052087e-03,  -1.06826487e-03,
         -2.84765089e-03,   3.46696456e-03,  -9.42683301e-04,
         -9.30608870e-03,  -8.91614378e-03,  -3.56918278e-03,
         -3.51361390e-03,  -3.82282756e-03],
       [  4.11219932e-03,   5.06540009e-03,   8.24948548e-03,
         -1.89143112e-03,   1.92455665e-03,  -1.00191008e-02,
          5.46208773e-03,   8.89893644e-03,   1.93285631e-03,
          3.13200881e-03,  -4.33815362e-03,  -4.14480364e-03,
          2.30811986e-03,  -6.31718379e-03,   9.18750086e-03,
          7.77734036e-03,   7.86458895e-03,   9.76559131e-03,
         -2.69336756e-03,  -6.18527537e-03],
       [  5.01867970e-03,  -9.28378803e-03,   7.65851856e-03,
          7.91121816e-03,   8.44263069e-03,   1.15901269e-03,
         -9.00366381e-03,  -3.66921918e-03,  -7.90998581e-03,
         -7.63727522e-03,   4.76718230e-03,  -9.33544392e-03,
         -8.70658789e-03,   6.81741444e-03,   2.43489542e-04,
         -9.75533561e-03,  -4.54076265e-03,   8.11212886e-03,
         -3.59040238e-03,  -3.45623874e-03],
       [  4.68886045e-03,  -9.35363626e-03,  -5.59205690e-03,
         -8.38326307e-03,  -3.65091467e-03,   8.52910637e-03,
          7.36997293e-03,   6.10234522e-03,   4.91304359e-04,
         -9.45418782e-03,   7.13086832e-03,   6.39353088e-03,
          2.34109683e-03,   1.90789221e-03,  -3.65608292e-03,
          5.27393624e-03,   6.89685924e-04,  -8.53166854e-03,
          9.26584099e-03,   1.10045371e-03],
       [  5.92071336e-03,   4.36600623e-03,   7.33189577e-03,
          5.98711753e-03,   5.46902139e-03,   8.08288871e-04,
          4.52010472e-03,  -3.64032697e-03,  -1.57380863e-03,
         -1.16589078e-03,  -1.26157085e-04,  -1.32710893e-03,
         -8.56881928e-03,   6.61388951e-03,  -6.09343573e-03,
          1.26636604e-03,   9.43676685e-03,  -4.60554696e-03,
         -1.04053127e-03,   9.85861732e-03],
       [  5.61380273e-03,  -2.84308255e-03,  -7.56102848e-04,
          3.90727009e-03,  -4.03761277e-03,   9.17814192e-04,
         -2.71210186e-03,  -2.90225367e-03,  -5.09856366e-03,
         -7.42399150e-03,  -3.59025087e-03,   6.92969135e-03,
         -3.83461909e-03,   8.95124493e-03,  -5.92580611e-04,
         -2.76607615e-03,   1.65470405e-03,   5.83503798e-03,
          1.61997435e-04,  -3.87539096e-03],
       [ -6.40119451e-03,  -3.57186991e-03,   2.85623349e-03,
          3.96438048e-03,  -2.80541742e-03,   6.74691887e-03,
          7.85480899e-03,   8.10396535e-03,   4.99807220e-03,
         -5.49572407e-03,   8.87832251e-04,   7.46776183e-03,
          1.95192737e-03,  -7.82574225e-03,   2.61514909e-03,
          8.13799620e-03,  -6.73595718e-03,   7.55845712e-03,
          4.79705595e-03,  -1.25041661e-03],
       [ -7.52831177e-03,   3.55267798e-03,   1.08812966e-03,
         -9.32205244e-03,   1.80090288e-03,  -9.33502021e-04,
          1.31946572e-03,   5.86956571e-04,  -1.52477069e-03,
          7.33858640e-03,  -7.54195012e-03,  -6.23610682e-03,
          1.29509495e-03,  -6.41419992e-04,   5.17789354e-03,
         -2.85614584e-03,  -6.46712930e-04,   7.09042638e-03,
          9.11280526e-03,   3.18513278e-03],
       [ -8.01533824e-03,   2.89092364e-03,   5.58705762e-03,
         -2.87666721e-04,   5.64678677e-03,  -9.96349510e-03,
          5.91718966e-03,  -1.79166893e-03,   1.48420708e-03,
         -6.40159263e-03,   1.56261701e-03,   9.43921191e-03,
          7.55458511e-03,   7.93990399e-03,   7.22699794e-03,
          3.77178403e-03,  -9.82679399e-03,  -4.46971011e-03,
          3.59907215e-03,   4.90722987e-03],
       [ -8.48933823e-03,  -6.11019995e-03,  -8.00830939e-03,
         -7.75956865e-03,  -3.31427771e-04,  -2.48408854e-03,
          4.44139250e-03,   5.91635399e-03,   5.42057393e-03,
          6.70574538e-03,   2.27217559e-04,   7.49855033e-04,
         -8.68751846e-03,  -6.90028401e-04,   1.95868415e-03,
         -9.96998935e-03,   9.20530920e-03,   1.36268880e-03,
          4.32343326e-03,   9.40524974e-03],
       [ -9.72952652e-03,  -6.23625945e-03,   4.17736250e-03,
          8.42336434e-03,  -8.48651195e-03,   3.75130765e-03,
         -7.96747899e-03,  -4.80863400e-03,  -9.29936834e-03,
          6.83977285e-04,   5.75789633e-04,  -9.34078759e-03,
          6.67197148e-04,  -2.72486305e-03,  -9.23476895e-03,
          5.29230964e-03,   2.55330455e-03,   5.28024113e-03,
          8.64318318e-03,  -8.71621473e-03],
       [ -9.20534187e-04,   2.72734532e-03,   8.35700090e-03,
         -3.89532585e-03,  -1.93925409e-03,  -2.07772797e-03,
         -2.69592153e-05,  -8.81198552e-03,  -7.69354114e-03,
         -3.78612906e-03,   4.04982594e-03,   6.38948708e-03,
          7.34712876e-03,  -5.64961790e-04,   2.59214064e-03,
          4.77004351e-03,   2.20800823e-03,   2.76624979e-05,
         -8.02193588e-04,  -2.80957388e-03],
       [ -7.12244626e-03,   8.82481478e-03,  -6.31253867e-03,
         -2.48308946e-03,  -8.25679024e-04,  -1.37570195e-03,
         -9.61990480e-03,  -8.29581165e-03,  -9.14300906e-03,
          3.10325095e-03,  -6.06752692e-03,   3.57733567e-03,
         -6.81669824e-03,  -9.77875355e-03,   2.26481157e-03,
         -1.47040963e-03,   7.08282800e-03,   5.99029971e-03,
          2.95245545e-03,  -8.57494025e-03],
       [ -5.84919710e-03,   5.05828110e-03,  -8.88713522e-03,
         -1.36844827e-03,   1.88593999e-03,  -8.67299262e-03,
         -6.32346902e-03,   9.74566072e-03,   7.95498840e-03,
         -2.53864775e-03,  -7.16285819e-03,  -8.01777984e-03,
         -9.91037649e-03,   7.14797309e-03,   4.67670030e-03,
         -8.84157117e-04,   6.50493691e-03,   3.06409256e-04,
         -6.55800134e-03,   1.24512020e-03],
       [ -3.54176113e-03,  -9.19929074e-03,  -3.85609063e-03,
          3.63041244e-03,   5.18757708e-03,   8.32890842e-03,
          7.16892991e-03,   5.86582361e-03,   4.05039012e-03,
          9.36644613e-03,   7.90854275e-03,   6.44987440e-03,
          4.38907025e-03,   5.30851399e-03,  -2.70444532e-03,
          2.64529748e-03,   5.73954182e-03,  -7.40109700e-03,
         -3.70632862e-03,  -3.66220215e-03],
       [ -2.16136310e-04,  -2.82134427e-03,  -9.56832375e-04,
         -3.08212178e-03,  -5.06111026e-03,  -5.43913094e-03,
         -5.90756797e-03,  -3.91790630e-03,   4.84501864e-03,
          9.33842022e-03,   6.84719079e-03,   3.23017259e-03,
         -7.38709312e-03,  -7.23442823e-03,   9.48097653e-03,
          7.96558273e-03,   8.78735490e-03,  -3.93785012e-03,
          1.62578884e-04,  -2.62476292e-03],
       [ -8.26401786e-03,  -9.81391345e-03,  -3.27055396e-03,
         -5.13846074e-03,   5.23473260e-03,   2.36254591e-03,
         -6.54265354e-03,  -7.83408356e-03,  -9.61548362e-03,
          5.17014674e-03,  -1.70362974e-04,   7.75017395e-03,
          6.70542526e-03,  -4.66830661e-03,   8.84964029e-03,
         -1.51838810e-03,  -8.42175540e-03,   9.23430197e-03,
         -8.56871270e-03,   3.26900280e-03],
       [ -5.33953844e-03,  -6.01808723e-03,  -4.84009777e-04,
          2.02012939e-05,   5.60410201e-03,  -5.66009044e-03,
         -3.45299094e-03,  -5.85411232e-03,  -9.72969584e-03,
         -4.67017846e-03,   7.45421913e-03,  -2.57016626e-03,
         -3.75327214e-05,  -2.25741447e-03,  -3.71340637e-03,
          8.96181386e-03,  -8.66325479e-03,  -4.84241393e-03,
         -4.73506986e-03,   1.69731930e-03]])]Hidden bias: [array([-1.00000049, -0.99999951, -1.00000028, -1.00000057, -0.99999983,
       -0.99999971, -1.00000013, -0.99999997, -0.99999954, -1.00000012,
       -0.9999996 , -1.00000059, -0.9999998 , -0.99999955, -1.00000016,
       -1.00000083, -0.99999968, -1.00000051, -0.99999966, -0.9999995 ]), array([-1.00003316, -0.99998328, -0.9999636 , -1.00002479, -0.99999696,
       -0.99993914, -0.99998193, -1.00002931, -1.00001162, -1.00000798,
       -0.99995919, -0.99997013, -0.99999896, -0.99997683, -1.00003409,
       -0.99999243, -1.0000701 , -0.99999934, -1.00001448, -1.00002285])]Output weights: [[ 0.00940338  0.01090248]
 [ 0.0034306   0.00317232]
 [ 0.00211755 -0.00221821]
 [ 0.00780487  0.01128258]
 [ 0.00173556  0.01214273]
 [-0.00132103 -0.00512332]
 [ 0.00184682  0.0057339 ]
 [ 0.01307936  0.00282717]
 [ 0.00801039  0.00544061]
 [ 0.00528494  0.00959795]
 [ 0.00015424 -0.00032104]
 [ 0.00455868 -0.00441225]
 [ 0.00727145  0.00200713]
 [ 0.00312967  0.0010415 ]
 [ 0.01153849  0.00872622]
 [-0.00045402  0.01443773]
 [ 0.01632751  0.01366385]
 [ 0.01129212 -0.0054082 ]
 [ 0.01008859  0.00306739]
 [ 0.01599309 -0.00521078]]Output bias: [ 0.9886165   0.99413656]
Value MLP:Hidden weights: [array([[  7.68442188e-03,   8.98332908e-03,  -5.08068300e-03, ...,
         -7.06963234e-03,  -6.35120915e-03,   9.50423535e-03],
       [  6.53032450e-03,   2.26705220e-03,   3.32732436e-03, ...,
          6.06221608e-03,   9.66476911e-03,   3.02357680e-03],
       [  5.81360122e-03,  -7.03760151e-03,   8.95717048e-03, ...,
          7.74961567e-04,  -4.96074305e-03,  -8.91512846e-03],
       ..., 
       [ -7.33623099e-05,   3.27641849e-03,   5.49332242e-03, ...,
         -4.90950009e-03,   9.81663471e-03,   3.25774056e-03],
       [ -9.31859466e-05,  -4.21683761e-03,   7.70527174e-04, ...,
         -1.52238324e-03,   7.15783198e-03,   3.07112707e-03],
       [ -9.76812590e-03,  -1.42035092e-03,   4.29578715e-03, ...,
          4.70806275e-03,   2.12511449e-03,   6.64020976e-03]]), array([[ 0.03790363,  0.03311717,  0.04126945,  0.04048521,  0.04619622,
         0.04256149,  0.04019182,  0.04637475,  0.04605844,  0.04856288,
         0.04095554,  0.04900297,  0.03181484,  0.04776374,  0.03317244,
         0.03726281,  0.03732376,  0.04602069,  0.04624555,  0.03508492],
       [ 0.03494499,  0.035521  ,  0.0358518 ,  0.04713516,  0.04795532,
         0.04705021,  0.04533703,  0.03155803,  0.03821113,  0.034541  ,
         0.0328606 ,  0.03621793,  0.04143484,  0.04027097,  0.04382619,
         0.03840736,  0.03288219,  0.02993417,  0.04220855,  0.04484078],
       [ 0.03562057,  0.05076035,  0.04743367,  0.04177086,  0.03830851,
         0.03943659,  0.03410731,  0.03307754,  0.04848387,  0.03759163,
         0.04176461,  0.03438753,  0.04234161,  0.04314009,  0.03626655,
         0.0356054 ,  0.04205143,  0.03142304,  0.0370372 ,  0.04197419],
       [ 0.04344602,  0.04205405,  0.04979909,  0.04827464,  0.05089509,
         0.04253674,  0.03722054,  0.04786482,  0.03748469,  0.05153854,
         0.03156003,  0.04075383,  0.04447604,  0.03749403,  0.03370413,
         0.04926325,  0.04767288,  0.04025991,  0.04773875,  0.05025496],
       [ 0.03449225,  0.04886075,  0.04473718,  0.03996242,  0.0480153 ,
         0.0312764 ,  0.04401796,  0.04274387,  0.05043931,  0.03597111,
         0.03452861,  0.04056959,  0.03096363,  0.03882653,  0.04354503,
         0.04570464,  0.04284694,  0.03417336,  0.03237503,  0.03744618],
       [ 0.03627884,  0.04125368,  0.03202046,  0.03240576,  0.03500921,
         0.0443463 ,  0.04096527,  0.04262022,  0.03396622,  0.03616258,
         0.04733503,  0.05048154,  0.03460211,  0.03928211,  0.03324942,
         0.03936764,  0.04448493,  0.04073451,  0.04054315,  0.03693554],
       [ 0.03227667,  0.03136123,  0.04639727,  0.03166741,  0.04973972,
         0.04908053,  0.03313781,  0.03666155,  0.04736733,  0.03361428,
         0.04650612,  0.0348708 ,  0.03723487,  0.04420607,  0.03842935,
         0.03518285,  0.03467654,  0.04567469,  0.04819909,  0.03570859],
       [ 0.04961891,  0.0414053 ,  0.04837837,  0.03568804,  0.04085583,
         0.03281356,  0.04730776,  0.03845944,  0.03585226,  0.0479231 ,
         0.0436882 ,  0.03235802,  0.04439582,  0.03475047,  0.03996977,
         0.04589342,  0.03660796,  0.02999069,  0.0482468 ,  0.03134047],
       [ 0.03847824,  0.04033449,  0.03948328,  0.04351699,  0.0315714 ,
         0.04923278,  0.03931292,  0.04434753,  0.04400795,  0.03303003,
         0.04600367,  0.03316875,  0.04620506,  0.03707988,  0.03839073,
         0.04205441,  0.03161975,  0.04514164,  0.04937967,  0.04797212],
       [ 0.03792297,  0.04006098,  0.04784434,  0.03975143,  0.03759361,
         0.03437553,  0.03951187,  0.04850455,  0.03965687,  0.04004406,
         0.03937579,  0.04358923,  0.04063587,  0.03462467,  0.04540605,
         0.04193917,  0.03112853,  0.03557195,  0.03940153,  0.03890491],
       [ 0.04639444,  0.04872553,  0.04695932,  0.03952871,  0.03791019,
         0.03195097,  0.03752992,  0.0391696 ,  0.03648756,  0.03173863,
         0.03680877,  0.03357555,  0.04877706,  0.04245663,  0.03541961,
         0.04556168,  0.04653776,  0.04580879,  0.03164088,  0.04862152],
       [ 0.04436652,  0.03837639,  0.04398781,  0.0374865 ,  0.03927218,
         0.03863849,  0.03779168,  0.03767748,  0.02971058,  0.03322579,
         0.04899255,  0.03902042,  0.03940721,  0.04789032,  0.0470407 ,
         0.0429468 ,  0.0342243 ,  0.04176961,  0.03591919,  0.03096025],
       [ 0.04910946,  0.04109726,  0.03815872,  0.04617267,  0.03185114,
         0.03947479,  0.04460945,  0.04875591,  0.03210876,  0.04112219,
         0.03485793,  0.05010487,  0.04217584,  0.0338045 ,  0.03234574,
         0.04378476,  0.03560306,  0.04937467,  0.04265345,  0.03202239],
       [ 0.03798443,  0.04031937,  0.0300502 ,  0.04316753,  0.04514952,
         0.04456558,  0.03830136,  0.04719395,  0.0331542 ,  0.04144796,
         0.04600523,  0.03304057,  0.03741453,  0.03230951,  0.03134016,
         0.03815528,  0.03028445,  0.04472216,  0.02954537,  0.0405072 ],
       [ 0.03494254,  0.03996698,  0.04975025,  0.05060203,  0.04923031,
         0.04707764,  0.04482648,  0.04082026,  0.03815807,  0.03511197,
         0.04766439,  0.04534903,  0.04407609,  0.04361129,  0.04697293,
         0.03923179,  0.03945681,  0.03808353,  0.03275091,  0.03368306],
       [ 0.04259679,  0.03985433,  0.03158236,  0.0343437 ,  0.04007846,
         0.04822748,  0.0457034 ,  0.04639246,  0.04946686,  0.04456136,
         0.03471109,  0.04146394,  0.04285629,  0.03638067,  0.04345611,
         0.03551227,  0.03777991,  0.03179607,  0.04086391,  0.049327  ],
       [ 0.02963389,  0.04118244,  0.04320041,  0.03440076,  0.04166167,
         0.03344658,  0.03884021,  0.02992155,  0.03573467,  0.03556862,
         0.03692491,  0.03125602,  0.04192829,  0.02981338,  0.04781562,
         0.04514828,  0.04629246,  0.03697262,  0.04700319,  0.04360879],
       [ 0.04347723,  0.03553213,  0.04600197,  0.04179669,  0.03084601,
         0.04787993,  0.03978426,  0.03714877,  0.03933661,  0.0500594 ,
         0.04408565,  0.05186497,  0.04733994,  0.0456421 ,  0.04487834,
         0.04093648,  0.04839508,  0.04637814,  0.04750419,  0.04834463],
       [ 0.04215689,  0.03182044,  0.03710876,  0.04844125,  0.03902943,
         0.0292808 ,  0.03551432,  0.03174323,  0.0468338 ,  0.04822025,
         0.04000614,  0.03885559,  0.04660957,  0.03991332,  0.04469804,
         0.02903673,  0.04811598,  0.04464909,  0.03313919,  0.04434001],
       [ 0.03216106,  0.03532822,  0.03805131,  0.03410466,  0.03414515,
         0.03610481,  0.02925297,  0.0447454 ,  0.04545907,  0.04979828,
         0.03805692,  0.03516555,  0.04736422,  0.03682554,  0.03651039,
         0.03259084,  0.0437416 ,  0.04494989,  0.04507634,  0.04520225]])]Hidden bias: [array([-1.00790738, -1.00699666, -1.00699936, -1.00736716, -1.00632719,
       -1.0071536 , -1.00708823, -1.00741087, -1.00719919, -1.00732025,
       -1.00742123, -1.00733658, -1.0066627 , -1.0068144 , -1.00795111,
       -1.00681891, -1.00796415, -1.0082583 , -1.00739855, -1.00729114]), array([-1.0517791 , -1.05252756, -1.05113714, -1.0521664 , -1.05151774,
       -1.05058153, -1.05052864, -1.05206958, -1.0506038 , -1.05178626,
       -1.05031268, -1.05315828, -1.05048357, -1.05072767, -1.05165346,
       -1.05009267, -1.05091273, -1.05086663, -1.04985771, -1.0520925 ])]Output weights: [[ 0.62596879]
 [ 0.63481937]
 [ 0.65129372]
 [ 0.64080805]
 [ 0.64073353]
 [ 0.63469383]
 [ 0.62639731]
 [ 0.64325911]
 [ 0.63408918]
 [ 0.63900365]
 [ 0.63490746]
 [ 0.63604033]
 [ 0.64574396]
 [ 0.62337275]
 [ 0.63125287]
 [ 0.63009652]
 [ 0.62673321]
 [ 0.63242636]
 [ 0.63606384]
 [ 0.64369518]]Output bias: [ 0.24533605]