Action MLP:Hidden weights: [array([[  6.25283723e-02,  -9.87855866e-02,   5.84968961e-02,
         -3.42569907e-01,  -7.89345409e-03,  -3.39169863e-02,
          8.61146983e-02,  -7.52254936e-01,   1.36294340e-01,
         -8.10540757e-02,   2.14467167e-01,  -6.59240875e-02,
         -1.51341474e-02,   3.15896397e-01,   2.70091347e-02,
         -8.94362751e-02,  -7.30894469e-03,  -1.33711783e-01,
         -1.52372456e-01,  -1.58600619e-01],
       [  1.90598042e-01,   1.96726784e-01,   2.14347192e-01,
          1.53787392e-01,   1.74669235e-01,   2.49676850e-01,
          1.96680509e-01,   2.03807915e-01,   2.44664468e-01,
          2.34924165e-01,   2.52114813e-01,   2.09240956e-01,
          2.53587378e-01,   1.41767240e-01,   2.59248978e-01,
          2.39239171e-01,   2.37797190e-01,   2.22862796e-01,
          2.32513469e-01,   3.74963859e-01],
       [  9.09736222e-02,  -5.21407375e-02,   1.04297153e-01,
         -2.80599761e+00,   8.09928328e-02,  -6.67889350e-03,
          1.21869699e-01,  -3.21342619e+00,   1.56757448e-01,
         -3.72920250e-02,   1.87946890e-01,  -3.29187067e-02,
          1.76000805e-02,   3.65235873e-01,   5.77960244e-02,
         -1.43792613e-02,   5.91944878e-02,  -6.72737063e-02,
         -5.71287386e-02,  -1.04759465e-01],
       [ -2.63196254e-01,  -2.33948526e-01,  -2.30505680e-01,
          2.38720019e+00,  -2.54064050e-01,  -1.85076157e-01,
         -2.49622092e-01,  -2.88755577e+00,  -2.24844582e-01,
         -1.92821956e-01,  -2.34934658e-01,  -2.19964032e-01,
         -1.76341479e-01,  -3.58697106e-01,  -1.78278895e-01,
         -1.70063651e-01,  -1.93787996e-01,  -1.89149569e-01,
         -1.70573837e-01,  -1.65085697e-01],
       [ -2.39215573e-03,  -9.89642606e-02,   2.42933150e-02,
          1.99966532e+00,  -4.36975188e-02,  -1.07258682e-02,
          2.71087076e-02,   1.88053510e+00,   9.63097396e-02,
         -5.36359126e-02,   1.44401346e-01,  -6.74548811e-02,
          1.11939398e-02,   7.88507829e-02,   4.38643143e-02,
         -4.04645671e-02,   9.01679791e-03,  -9.20311599e-02,
         -8.44357836e-02,   1.20389312e-02],
       [  9.35459937e-03,   2.70052482e-03,   1.36518375e-02,
         -2.62634981e-01,  -3.25605002e-02,   4.44039641e-02,
          1.09392213e-02,  -2.11023909e-01,   4.75864936e-02,
          2.74173488e-02,   8.48262053e-02,   1.98934885e-02,
          4.55716745e-02,  -7.13460213e-02,   5.02512659e-02,
          1.47798117e-02,   1.78855872e-02,   8.45905193e-03,
         -1.46355182e-03,   1.43245898e-01],
       [  1.63532772e-01,   1.51631819e-01,   1.67427127e-01,
          3.68053271e-01,   1.44425119e-01,   1.71988810e-01,
          1.60825992e-01,  -2.25451172e-01,   1.78842634e-01,
          1.75839973e-01,   1.86719090e-01,   1.65554036e-01,
          1.72457718e-01,   1.36413381e-01,   1.81308696e-01,
          1.72898313e-01,   1.72257331e-01,   1.73084162e-01,
          1.62973840e-01,   2.77379312e-01],
       [  1.49016945e-01,   1.35392701e-01,   1.56076488e-01,
          2.53436196e-01,   1.27475354e-01,   1.58000719e-01,
          1.56150077e-01,   3.51350538e-01,   1.88420969e-01,
          1.36490762e-01,   2.07452854e-01,   1.35070827e-01,
          1.58638837e-01,   1.86076224e-01,   1.64963359e-01,
          1.27219027e-01,   1.49141675e-01,   1.13977700e-01,
          1.19145958e-01,   1.35225243e-01]])]Hidden bias: [array([-0.21595057, -0.24645348, -0.21266107, -0.80067664, -0.21697983,
       -0.23803216, -0.2048223 , -0.14818727, -0.20418769, -0.24455774,
       -0.19204645, -0.23996843, -0.22989598, -0.17882716, -0.22181525,
       -0.23550508, -0.22439887, -0.24634442, -0.24503196, -0.31487956])]Output weights: [[-0.03119874 -0.01345543]
 [-0.04851074  0.02714679]
 [-0.00597911 -0.0099607 ]
 [-0.64087058  0.35776765]
 [-0.0496998   0.02147571]
 [ 0.01240528  0.00266387]
 [-0.01654901 -0.01964038]
 [ 0.59319624  0.58631612]
 [ 0.030518   -0.04372804]
 [-0.00809116  0.02395608]
 [ 0.05075905 -0.08065456]
 [-0.02912917  0.01747422]
 [ 0.023128   -0.00079328]
 [-0.06608256 -0.05070183]
 [ 0.03436837 -0.01081614]
 [ 0.00297581  0.03546013]
 [ 0.00892938  0.00972299]
 [-0.02253466  0.047292  ]
 [-0.0137031   0.05483049]
 [ 0.08707859  0.02399816]]Output bias: [-0.22980973 -0.01400848]
Value MLP:Hidden weights: [array([[  8.56619805e+00,   4.06354703e+01,  -6.96323228e+00,
         -1.57450547e+01,   2.82265345e+01,   1.67912828e+01,
         -2.64561127e+00,  -2.85391042e+01,   5.72039591e+01,
          2.27547281e+01,  -2.02691277e+01,   2.66713050e+01,
         -1.37339213e-01,   3.25592681e+00,   5.78979690e+00,
         -2.65260834e+01,   1.01499491e+01,  -3.16278759e+01,
         -1.82712986e+00,  -8.05826653e+00],
       [  2.62882811e+00,  -3.27130190e+01,  -1.96584549e+01,
          2.83560011e+00,  -1.53394337e+01,   3.58306092e+00,
          1.90198257e+00,   8.28964616e+01,   3.69850899e+00,
          2.83071811e+00,   7.35666542e+00,  -2.33065626e+01,
          2.83143196e+01,  -4.56922416e+00,  -4.05958739e+01,
          1.39518855e-02,   5.17223318e+01,  -1.85577789e+01,
          1.76124783e+01,   3.82429652e+01],
       [  8.36428794e+00,   8.80251779e+00,  -6.64413440e+01,
         -1.01476525e+01,  -2.50719610e+01,   6.43357154e+01,
          4.49563093e+01,  -3.78651004e+01,   1.87070912e+01,
          9.03222385e+01,  -1.26834341e+01,   1.10449413e+01,
          1.88250395e+01,  -6.30953068e+01,   1.73944147e+01,
          1.16451229e+00,   3.25078249e+01,  -3.46271222e+01,
          4.69584858e+01,  -8.62553406e+00],
       [  2.97872100e+01,  -2.90385466e+01,   1.89525499e+01,
          2.67025005e+01,  -2.15426237e+01,   3.14265721e+01,
         -2.18226121e+01,  -1.65978425e+01,   9.55605218e+01,
         -1.95737369e+01,   2.81188835e+01,  -5.58106966e+01,
          7.80110826e+01,  -3.27836666e+01,  -4.99372483e+01,
         -1.19371102e+01,   2.10757869e+01,  -1.75501216e+01,
         -5.24740491e+01,  -1.57371014e+01],
       [  1.90904910e-01,   1.76089621e+02,  -1.38025480e+02,
         -1.77706842e+02,   1.14596216e+02,  -7.76835448e+01,
         -6.67130027e+01,  -8.41989812e+01,  -2.04185583e+01,
          8.87876643e+01,  -9.96104572e+01,   7.89113937e+01,
         -1.75569542e+01,   3.28336099e+01,  -1.37860366e+02,
          2.42664425e+01,  -9.36394309e+01,  -8.98566330e+01,
         -1.64394623e+02,  -4.09721572e-01],
       [ -1.22944944e+01,  -8.65942346e+00,  -9.33889573e+01,
         -7.34749136e+01,  -3.02052027e+01,   7.44836727e+01,
          8.53939521e+01,  -2.17435711e+02,   3.01314768e+01,
          7.82153820e+01,  -5.12383366e+01,  -2.74574751e+01,
          1.84360760e+01,  -8.61651463e+01,  -3.95753821e+01,
          1.56658732e+02,   1.65698626e+02,  -6.06277482e+01,
         -2.29860171e+00,   6.75696806e+00],
       [ -3.37934311e+01,   1.35922810e+01,   3.02624524e+00,
         -3.51532553e+01,   2.08952067e+01,  -1.43702896e+01,
         -2.92208399e+01,  -3.12192164e+01,  -5.19756918e+01,
         -2.82680831e+00,  -2.86847254e+01,   3.15506990e+01,
         -6.98555543e+01,   5.88943589e-01,   6.74366644e+01,
         -2.36248901e+01,  -5.64271274e+01,   2.70824497e+01,
          4.11427220e+01,   2.96685082e+00],
       [ -4.75011471e+01,   9.15800460e+01,   1.82192039e+00,
         -9.28388823e+01,  -1.30945399e+01,  -1.71335326e+01,
          4.79566221e+01,   2.21999418e+01,  -7.82021044e+01,
         -3.45362177e+00,  -1.84897341e+01,  -4.81116560e+00,
         -7.72201370e+01,  -2.75116692e+01,   3.41043256e+01,
          7.40194639e+01,  -3.22997616e+01,   3.52578512e+01,
         -4.01060736e+01,   2.55054676e+01]])]Hidden bias: [array([ -70.45120649,   45.33786985,    1.40288318, -118.60610546,
         22.60685126,  -55.20347078,    3.78377821,  -36.43933702,
       -107.3908383 ,   22.72216277,  -32.42304233,   47.51134613,
        -82.94087886,   18.34767679,   31.93071041,   40.61818189,
        -52.73677646,   45.61547869,   14.04713658,   57.290933  ])]Output weights: [[  2.60241381]
 [ -6.22406418]
 [  4.29840148]
 [  1.86253246]
 [ -7.30511511]
 [  8.54189658]
 [ -6.3632398 ]
 [  9.07029021]
 [ -5.50396173]
 [ -0.45319469]
 [  0.9050709 ]
 [ -5.83574274]
 [ 10.524186  ]
 [  7.59319113]
 [ -2.97775305]
 [ -3.04728679]
 [ -2.13219914]
 [ 10.68846207]
 [  4.66542979]
 [  0.24971598]]Output bias: [-21.13993886]