Action MLP:Hidden weights: [array([[  6.26431101e-02,  -9.89070521e-02,   5.85703950e-02,
         -3.41881742e-01,  -7.96627831e-03,  -3.39433870e-02,
          8.62548406e-02,  -7.52401716e-01,   1.36534146e-01,
         -8.11875608e-02,   2.14905093e-01,  -6.60027430e-02,
         -1.51475851e-02,   3.16276627e-01,   2.70478481e-02,
         -8.96425140e-02,  -7.36611322e-03,  -1.33969164e-01,
         -1.52678576e-01,  -1.58818926e-01],
       [  1.90908925e-01,   1.98678783e-01,   2.14133664e-01,
          1.76879065e-01,   1.76394651e-01,   2.49437599e-01,
          1.96446933e-01,   2.16517524e-01,   2.42588053e-01,
          2.35798517e-01,   2.48525787e-01,   2.10443932e-01,
          2.52971353e-01,   1.41672811e-01,   2.58048667e-01,
          2.40144586e-01,   2.37792953e-01,   2.24755215e-01,
          2.34388088e-01,   3.73555060e-01],
       [  9.12054931e-02,  -5.35251053e-02,   1.04641583e-01,
         -2.81345515e+00,   7.98505562e-02,  -6.64909555e-03,
          1.22457200e-01,  -3.20649859e+00,   1.58575390e-01,
         -3.81912540e-02,   1.91132927e-01,  -3.37884167e-02,
          1.78577037e-02,   3.66523072e-01,   5.85155821e-02,
         -1.55595832e-02,   5.89823656e-02,  -6.91088363e-02,
         -5.91349595e-02,  -1.04762347e-01],
       [ -2.62533851e-01,  -2.34069495e-01,  -2.30205941e-01,
          2.38422475e+00,  -2.54017697e-01,  -1.85313383e-01,
         -2.48971699e-01,  -2.90356882e+00,  -2.24146046e-01,
         -1.93338110e-01,  -2.33593796e-01,  -2.20076238e-01,
         -1.76614662e-01,  -3.56814238e-01,  -1.78430833e-01,
         -1.70982476e-01,  -1.94140172e-01,  -1.90060136e-01,
         -1.71766820e-01,  -1.66792717e-01],
       [ -1.53579786e-03,  -9.82401355e-02,   2.45436305e-02,
          2.00628544e+00,  -4.28019891e-02,  -1.10746220e-02,
          2.77094738e-02,   1.86756508e+00,   9.61361327e-02,
         -5.37671188e-02,   1.44226392e-01,  -6.70403135e-02,
          1.06500037e-02,   8.09489763e-02,   4.31959966e-02,
         -4.09620958e-02,   8.69437287e-03,  -9.21094713e-02,
         -8.47868342e-02,   9.67024843e-03],
       [  9.37902539e-03,   1.70178473e-03,   1.38557217e-02,
         -2.72094705e-01,  -3.34065728e-02,   4.44997329e-02,
          1.12381728e-02,  -2.02436824e-01,   4.88268739e-02,
          2.68803750e-02,   8.69200615e-02,   1.92796519e-02,
          4.58506723e-02,  -7.07186639e-02,   5.08558834e-02,
          1.41285288e-02,   1.78292677e-02,   7.31588639e-03,
         -2.66709693e-03,   1.43620771e-01],
       [  1.63567350e-01,   1.52009269e-01,   1.67370364e-01,
          3.70486942e-01,   1.44753168e-01,   1.71943299e-01,
          1.60754093e-01,  -2.24459586e-01,   1.78409560e-01,
          1.76017532e-01,   1.85966017e-01,   1.65785890e-01,
          1.72339889e-01,   1.36314402e-01,   1.81075200e-01,
          1.73090975e-01,   1.72259546e-01,   1.73468897e-01,
          1.63362080e-01,   2.77151451e-01],
       [  1.49136503e-01,   1.35568542e-01,   1.56101536e-01,
          2.55416579e-01,   1.27664909e-01,   1.57957807e-01,
          1.56212906e-01,   3.51516547e-01,   1.88299254e-01,
          1.36519699e-01,   2.07238929e-01,   1.35177722e-01,
          1.58556619e-01,   1.86278731e-01,   1.64839989e-01,
          1.27206778e-01,   1.49111574e-01,   1.14055588e-01,
          1.19190811e-01,   1.34919238e-01]])]Hidden bias: [array([-0.21594344, -0.2439605 , -0.21309943, -0.77053254, -0.21484487,
       -0.23819915, -0.20548806, -0.12277647, -0.20718902, -0.24317808,
       -0.19733286, -0.23841375, -0.23050932, -0.18002827, -0.22322424,
       -0.23385043, -0.2242014 , -0.24346887, -0.24201293, -0.31558532])]Output weights: [[-0.02807213 -0.01495196]
 [-0.04386157  0.03073113]
 [-0.00438805 -0.01225486]
 [-0.68381059  0.36528084]
 [-0.04550276  0.02135725]
 [ 0.0134785   0.00311884]
 [-0.01445633 -0.02236411]
 [ 0.57662969  0.64346913]
 [ 0.02991523 -0.04871532]
 [-0.00570312  0.02614351]
 [ 0.04911854 -0.08744919]
 [-0.02559638  0.01986171]
 [ 0.02349018 -0.00127923]
 [-0.06237264 -0.05960666]
 [ 0.03393091 -0.01277577]
 [ 0.00461539  0.03703089]
 [ 0.00992339  0.00867793]
 [-0.01923128  0.05118454]
 [-0.01101573  0.05842441]
 [ 0.08600526  0.02614307]]Output bias: [-0.25329869  0.03355091]
Value MLP:Hidden weights: [array([[  8.56619805e+00,   2.10487780e+01,  -1.39531637e+01,
         -8.07656116e+00,   1.25741905e+01,   1.90276583e+01,
          1.20973612e+01,  -2.94547059e+01,   5.37300766e+01,
          2.67184013e+01,  -9.79479303e+00,   1.36516998e+01,
          6.94972874e+00,  -1.74676813e+00,   1.78786528e+01,
         -2.80271072e+01,   2.32167875e+01,  -8.77934071e+00,
          2.02587101e+00,  -8.05826653e+00],
       [  2.62882811e+00,  -4.03028691e+01,  -1.90269676e+01,
         -6.98174991e+00,  -1.04639987e+01,  -1.90842345e+01,
         -2.31112112e+01,  -9.80130687e+00,   1.31471595e+01,
         -3.65914965e+00,  -5.04034267e+00,  -2.88962357e+00,
          2.27108029e+01,  -1.55731280e-01,  -1.90386352e+01,
          1.48387430e+00,   1.80841401e+01,  -4.06428878e+00,
          2.66223212e+01,   3.82429652e+01],
       [  8.36428794e+00,  -3.77436450e+01,  -3.94991700e+01,
         -1.88020088e+01,   1.22037771e+01,   3.73589127e+01,
         -6.96830242e+00,   7.88327680e+00,   4.70210519e+01,
          3.70460933e+01,   5.36521056e+00,  -1.04337624e+01,
          9.29879622e+00,   3.68615117e+01,   2.71833330e+01,
         -7.67196484e+01,  -1.39437333e-01,   5.39667185e+01,
          6.56783489e+01,  -8.62553406e+00],
       [  2.97872100e+01,  -9.56557073e+00,   1.68309562e+01,
          2.14373830e+01,  -4.01735423e+01,   4.69829411e+01,
         -9.72839887e+00,  -1.72700837e+00,   5.64394711e+01,
          7.60576578e+00,   7.88235115e+00,  -5.28753004e+01,
          3.91277455e+01,   8.44861600e-01,  -5.09565953e+01,
         -2.73647569e+01,   1.31312816e+01,   1.30609030e+01,
         -3.74063775e+01,  -1.57371014e+01],
       [  1.90904910e-01,   1.02165325e+02,  -1.64468062e+02,
         -2.80819865e+00,  -4.70855625e+01,   2.28724395e+01,
          8.24912899e+01,  -1.75737520e+02,  -3.37919857e+01,
          1.01723436e+02,   1.29178394e+01,   3.28158919e+01,
          4.96314103e+01,  -7.70859501e+01,   4.70991893e+01,
          1.01410633e+02,   7.19972058e+01,  -5.09766006e+01,
         -1.29725954e+02,  -4.09721572e-01],
       [ -1.22944944e+01,  -1.41820622e+02,  -4.05526687e+01,
          6.54277785e+01,  -8.55790780e+01,   1.04559097e+01,
          4.60558315e+01,  -1.14664973e+02,   8.95945068e+01,
         -6.61734627e+01,   7.92027383e+01,  -1.50182345e+01,
          4.26676605e+01,   2.33521821e+01,   1.05989711e+02,
          4.50480076e+01,   1.27260835e+02,   8.40955024e+01,
          7.71989519e+01,   6.75696806e+00],
       [ -3.37934311e+01,  -2.70965243e+01,   5.75238198e+00,
         -3.79598416e+01,   2.39279202e+01,  -9.35283937e+00,
         -4.43528638e+01,  -1.30594257e+01,  -2.40527885e+01,
         -3.53244110e+01,  -1.41332488e+01,   2.09458914e+01,
         -3.34322305e+01,  -1.80644214e+01,   3.27222876e+01,
         -5.52325835e+00,  -1.84903872e+01,   2.63391277e+01,
          3.14563325e+01,   2.96685082e+00],
       [ -4.75011471e+01,   6.47230904e+01,   1.22839752e+01,
         -6.19074691e+00,  -1.25288924e+01,  -1.92131318e+01,
          4.89364222e+01,   1.93030702e+01,  -7.98166972e+01,
         -1.00563526e+01,   1.61543083e+01,  -4.50347823e+00,
         -4.61960271e+01,  -3.02741889e+01,   4.76930999e+01,
          7.25239931e+01,  -3.51847536e+00,   1.34491605e+01,
         -5.76046383e+01,   2.55054676e+01]])]Hidden bias: [array([ -70.45120649,   -0.33009482,   13.51917169,  -41.11885923,
         28.02287537,  -64.04739399,  -16.19583667, -133.14154642,
        -62.50132862,  -15.6928096 ,    6.07818082,   82.77445037,
        -30.15546299,  -20.18026134,   60.61788045,   73.61457459,
        -44.97734621,   14.78438737,    8.05876945,   57.290933  ])]Output weights: [[ -3.01710595]
 [  8.66302723]
 [  5.47392667]
 [ -6.67827182]
 [  4.65646615]
 [  0.51038822]
 [ -7.55708543]
 [  5.6925855 ]
 [  6.15507751]
 [  2.99427797]
 [ -3.25604336]
 [-22.41102814]
 [ -6.09745898]
 [  5.53796604]
 [ -3.10463744]
 [  0.75435889]
 [ -3.99947182]
 [ -1.9714789 ]
 [  3.63210986]
 [  5.86923574]]Output bias: [-15.5204191]