Action MLP:Hidden weights: [array([[-0.05226224, -0.04735028, -0.04724277, ..., -0.04161657,
        -0.03364638, -0.06023051],
       [ 0.56289894,  0.56078056,  0.54871407, ...,  0.5466192 ,
         0.59456374,  0.55229734],
       [-0.09563057, -0.1054983 , -0.0788609 , ..., -0.12012654,
        -0.08177624, -0.10767419],
       ..., 
       [-0.018262  , -0.03581959, -0.01148819, ..., -0.08269593,
         0.00669564, -0.07752851],
       [-0.01878668, -0.00236659, -0.02263669, ..., -0.01035088,
         0.01150645, -0.02117037],
       [-0.01796007, -0.0167843 , -0.03059385, ..., -0.00743513,
         0.00982894, -0.01815365]])]Hidden bias: [array([-0.17572388, -0.16225628, -0.17222745, -0.16246847, -0.14402888,
       -0.17861842, -0.16459146, -0.1563475 , -0.16615211, -0.13073694,
       -0.15157217, -0.14805248, -0.15932529, -0.16425881, -0.16146426,
       -0.15166808, -0.16854172, -0.13719949, -0.13839567, -0.14826093,
       -0.1723229 , -0.16535769, -0.15394954, -0.16370658, -0.14882337,
       -0.15359286, -0.15117091, -0.1662583 , -0.15862863, -0.15755488,
       -0.16772959, -0.16821799, -0.14733673, -0.15785108, -0.14735228,
       -0.1568085 , -0.15531076, -0.11958798, -0.15457604, -0.14600173,
       -0.16360358, -0.16932626, -0.16416676, -0.16249926, -0.12515223,
       -0.14430362, -0.16261327, -0.15711908, -0.14871419, -0.16577117,
       -0.17123111, -0.16305875, -0.15053757, -0.15391253, -0.1657363 ,
       -0.15810236, -0.16948716, -0.15345878, -0.17411419, -0.14717709,
       -0.1438058 , -0.17152863, -0.16290436, -0.14407672, -0.15687944,
       -0.1569211 , -0.15785995, -0.1586514 , -0.16719292, -0.14302281,
       -0.15939655, -0.17582311, -0.16203199, -0.15670869, -0.14851931,
       -0.16370958, -0.17267088, -0.16802066, -0.17555906, -0.16070866,
       -0.14934604, -0.1420319 , -0.1638353 , -0.15785633, -0.16242802,
       -0.14862451, -0.15683633, -0.15970424, -0.16921982, -0.14717335,
       -0.15391788, -0.14341981, -0.15801275, -0.15213518, -0.12646729,
       -0.15051762, -0.16664504, -0.16436429, -0.16645395, -0.14880526,
       -0.15208265, -0.16501461, -0.15979428, -0.14310815, -0.15310588,
       -0.15782364, -0.15648514, -0.14484586, -0.15047651, -0.16573564,
       -0.13678677, -0.15937779, -0.14549826, -0.15121111, -0.15778185,
       -0.15705849, -0.15350026, -0.14780675, -0.17101868, -0.15793448,
       -0.16010843, -0.14591417, -0.16925487, -0.15388881, -0.15245556,
       -0.16601091, -0.15773688, -0.16567993, -0.15996575, -0.16051655,
       -0.17644593, -0.15440363, -0.1725436 , -0.155582  , -0.1471186 ,
       -0.15556606, -0.14678194, -0.14998415, -0.149173  , -0.13216022,
       -0.15300077, -0.14186205, -0.16415368, -0.15977536, -0.14357248,
       -0.16788126, -0.14125332, -0.14998775, -0.14844544, -0.16859684,
       -0.17941153, -0.1565962 , -0.1428215 , -0.1551818 , -0.13886742,
       -0.16600795, -0.13646577, -0.15117527, -0.16130895, -0.16205889,
       -0.15541769, -0.1542898 , -0.13261229, -0.1545396 , -0.1676682 ,
       -0.15892938, -0.15746511, -0.15750129, -0.16477794, -0.15676334,
       -0.17920785, -0.15803337, -0.16057138, -0.1556964 , -0.16339195,
       -0.13909774, -0.15373697, -0.16341409, -0.16859738, -0.16093386,
       -0.14818152, -0.12456837, -0.17805243, -0.12557558, -0.1622769 ,
       -0.16485249, -0.1445784 , -0.16277326, -0.13936207, -0.1669917 ,
       -0.1590706 , -0.17589677, -0.16577285, -0.14947547, -0.16639036,
       -0.17891571, -0.15607889, -0.16479723, -0.14827403, -0.15922526,
       -0.16040223, -0.17826302, -0.16273972, -0.17507633, -0.1633624 ,
       -0.16550322, -0.15568853, -0.16534042, -0.15798299, -0.16621528,
       -0.1506059 , -0.17370924, -0.16179159, -0.17845497, -0.1465855 ,
       -0.14871107, -0.16118061, -0.15129537, -0.14505674, -0.15609773,
       -0.15352572, -0.13914576, -0.1623313 , -0.15681751, -0.17004615,
       -0.16437627, -0.16217867, -0.17545056, -0.15820954, -0.15365298,
       -0.14061425, -0.14860345, -0.1374596 , -0.14029317, -0.15225706,
       -0.12624126, -0.13923756, -0.1524409 , -0.17782919, -0.14702071,
       -0.15281592, -0.14726379, -0.13769889, -0.16534352, -0.13226166,
       -0.12725489, -0.12796831, -0.17556215, -0.15634677, -0.1732038 ,
       -0.1707593 , -0.1324849 , -0.14563384, -0.16141763, -0.15718483,
       -0.16773527, -0.16471491, -0.15510178, -0.14251791, -0.17445723,
       -0.14879684, -0.13695973, -0.14867775, -0.18115546, -0.17044313,
       -0.16809862, -0.15803477, -0.14176303, -0.14450672, -0.1503095 ,
       -0.13493798, -0.137602  , -0.14384121, -0.16079388, -0.16893401,
       -0.13331328, -0.16794991, -0.1658563 , -0.15094225, -0.17395395,
       -0.15872524, -0.1320122 , -0.1787556 , -0.16931273, -0.15050875,
       -0.1526987 , -0.14881009, -0.12710383, -0.17413866, -0.16287559,
       -0.13421892, -0.14851167, -0.15266639, -0.15629038, -0.12922625,
       -0.177096  , -0.1548872 , -0.151653  , -0.16044345, -0.16040842,
       -0.17459376, -0.17222372, -0.17952642, -0.14848834, -0.154215  ,
       -0.12461077, -0.14524792, -0.14213933, -0.14785798, -0.14602999,
       -0.1412865 , -0.15754318, -0.15927024, -0.16736511, -0.14061843,
       -0.16158783, -0.14626677, -0.16194007, -0.14765137, -0.14079007,
       -0.14813152, -0.15895072, -0.15602548, -0.13363179, -0.16180205,
       -0.13570335, -0.16444448, -0.1657318 , -0.16964074, -0.17655501,
       -0.15477326, -0.12862458, -0.15624421, -0.14602963, -0.15992829,
       -0.13582771, -0.14282067, -0.15951441, -0.13749557, -0.16028629,
       -0.14586661, -0.15987687, -0.14349138, -0.16777562, -0.14024901,
       -0.1644798 , -0.15505163, -0.13204672, -0.1618084 , -0.15895187,
       -0.16440679, -0.17006284, -0.16229305, -0.15060125, -0.13246947,
       -0.16378447, -0.14065315, -0.15996422, -0.13609509, -0.16138909,
       -0.16318755, -0.15136726, -0.14759883, -0.17256895, -0.14259552,
       -0.18160925, -0.14391674, -0.15061985, -0.15949942, -0.16604495,
       -0.12693282, -0.16604539, -0.13256681, -0.15970856, -0.16287662,
       -0.16568326, -0.16278796, -0.11325524, -0.1615371 , -0.16007335,
       -0.16216138, -0.14335537, -0.15811884, -0.16804344, -0.15736356,
       -0.16166526, -0.14125297, -0.15409083, -0.15312974, -0.14147546,
       -0.1533569 , -0.16939492, -0.15053574, -0.13414323, -0.16358974,
       -0.15039395, -0.16912554, -0.14871826, -0.16069747, -0.12873627,
       -0.16168969, -0.15134696, -0.15863578, -0.14965283, -0.15684079,
       -0.13889048, -0.15198029, -0.17001034, -0.16203286, -0.14182765,
       -0.15043306, -0.14480516, -0.16339146, -0.1689227 , -0.15454743,
       -0.1647265 , -0.12626367, -0.15903903, -0.16108397, -0.16498866,
       -0.15504223, -0.1684724 , -0.14418553, -0.15810731, -0.15919699,
       -0.15723572, -0.15606617, -0.14918073, -0.14197978, -0.14343536,
       -0.16079761, -0.16780012, -0.15247345, -0.18285452, -0.11637107,
       -0.16563072, -0.16885455, -0.13939902, -0.15420507, -0.14073814,
       -0.15092088, -0.16791994, -0.18198167, -0.15475539, -0.15047462,
       -0.16899424, -0.16350169, -0.11591563, -0.15363494, -0.12810108,
       -0.13851276, -0.1578001 , -0.14123635, -0.1595056 , -0.14695972,
       -0.13912732, -0.16349842, -0.15886194, -0.14779789, -0.15459909,
       -0.15878972, -0.16824931, -0.15253191, -0.14918308, -0.14633223,
       -0.17057667, -0.16979063, -0.16585294, -0.15135568, -0.15883542,
       -0.1424933 , -0.15419585, -0.13574933, -0.13661516, -0.13091136,
       -0.16940831, -0.16594529, -0.13861241, -0.15346455, -0.17104787,
       -0.1622284 , -0.16034534, -0.15803067, -0.16240371, -0.14961163,
       -0.17246146, -0.13372008, -0.16810984, -0.16837717, -0.16255942,
       -0.16809385, -0.15275599, -0.17121527, -0.15195522, -0.14617498,
       -0.14083596, -0.16995494, -0.14613849, -0.15227376, -0.1410465 ])]Output weights: [[  1.69417254e-02   3.10236722e-02]
 [  1.45205177e-02   1.31688568e-02]
 [  5.75188451e-02   4.86675223e-02]
 [  1.94571246e-02  -4.81339019e-03]
 [ -2.66492933e-02  -3.90724805e-02]
 [ -7.38046534e-02   8.49218281e-02]
 [ -7.08550515e-02   3.28369394e-02]
 [  3.00850823e-02  -3.63056822e-02]
 [  2.96906175e-02   1.18466829e-02]
 [ -3.88813589e-02  -9.08060664e-02]
 [  6.68730426e-02  -2.63136672e-02]
 [  3.34689170e-02  -2.74269821e-02]
 [  6.87173396e-02   4.94121198e-02]
 [  1.68268803e-02  -8.82898160e-03]
 [ -1.14851264e-01  -2.55443852e-03]
 [  3.05017015e-02  -3.63149170e-02]
 [ -3.33262138e-02   4.83920808e-02]
 [  4.42567486e-02  -4.54788627e-02]
 [ -1.71765191e-02  -8.33268374e-02]
 [ -4.03860231e-02   1.80944924e-02]
 [  6.57855339e-02   2.75002320e-03]
 [ -1.42537490e-02   6.19913991e-02]
 [ -6.10604869e-02   4.14048244e-02]
 [ -3.52590500e-02  -1.94982288e-02]
 [  4.55605945e-02  -6.85982532e-02]
 [ -1.98644444e-02   5.31229998e-02]
 [  1.07694044e-01  -3.71155950e-03]
 [ -1.01034939e-02   3.21766777e-02]
 [ -3.00296795e-02  -2.64573854e-02]
 [  6.96266710e-02   5.51951030e-02]
 [  6.46996424e-02   6.63335206e-02]
 [ -3.92390456e-02   3.23659885e-02]
 [ -8.19320077e-02   2.16947649e-02]
 [ -3.95301695e-03  -4.55725930e-02]
 [  4.57531168e-02  -2.54092466e-02]
 [ -9.28389020e-02   3.47747061e-02]
 [  4.37485066e-02  -5.35999801e-03]
 [ -2.05482058e-03  -1.27136653e-01]
 [ -2.90945308e-02  -7.98700866e-03]
 [  1.06461983e-01  -7.60861019e-02]
 [ -8.71387571e-02   3.99277480e-03]
 [  8.86316669e-02   5.79308377e-02]
 [ -3.18553446e-02   9.84762054e-03]
 [  9.02992584e-02   1.24634053e-03]
 [ -7.80204038e-03  -1.06785430e-01]
 [  2.13640671e-03  -2.36662444e-02]
 [ -1.46923115e-02  -1.46293631e-02]
 [ -7.38291402e-02   1.81388617e-02]
 [  2.77855034e-02  -2.24659886e-02]
 [  1.03265895e-01   2.18146345e-02]
 [ -4.23991102e-02   4.01267322e-02]
 [  5.90717172e-02  -3.48303658e-02]
 [  7.93734839e-03  -2.72732547e-02]
 [  5.88178584e-02  -1.48704465e-02]
 [ -4.87408097e-02   4.13047066e-03]
 [  1.57156889e-02   1.08993250e-02]
 [  6.93572900e-02   7.08523621e-02]
 [  1.51667036e-02   1.00789476e-02]
 [ -1.17288722e-01   3.19080478e-02]
 [ -1.13583641e-01  -3.29317824e-02]
 [ -7.41772294e-02  -8.00456039e-02]
 [  9.60775851e-02   4.25613362e-02]
 [ -5.61315617e-02   3.60926559e-02]
 [ -8.84658605e-02   3.00037016e-02]
 [ -9.30701325e-03  -1.92275653e-02]
 [  3.33476213e-02   2.12800099e-02]
 [  6.41489881e-02   4.35452047e-02]
 [ -3.24297647e-02   4.82373386e-02]
 [  1.27310686e-02   2.06936645e-02]
 [ -6.97690188e-02  -7.80023235e-02]
 [  8.20940721e-02   3.46466362e-02]
 [  8.08654348e-02   6.48807387e-02]
 [  5.47372743e-02   1.40412202e-02]
 [  1.54073753e-02  -4.37442645e-02]
 [  1.93311013e-03  -3.40367044e-02]
 [  5.46870657e-02   3.17042972e-02]
 [  6.44923915e-02   1.00609133e-01]
 [  1.23956860e-01   4.79412447e-02]
 [ -6.95079770e-03   6.81668439e-02]
 [  2.87115587e-02   4.98080343e-03]
 [ -2.00602212e-02   2.38930367e-03]
 [ -4.05720130e-02  -6.51346076e-02]
 [ -2.36226236e-02   3.80528236e-02]
 [ -1.07717907e-02  -2.22196451e-02]
 [  1.05091241e-02   1.55127933e-03]
 [ -2.98062315e-02  -4.97175236e-02]
 [ -1.10683989e-02   4.05172382e-03]
 [ -1.16322877e-01  -1.07645125e-02]
 [ -3.42639812e-02   3.66391112e-03]
 [ -5.42237456e-02  -1.33935357e-02]
 [ -8.53373008e-02   1.50063494e-03]
 [ -6.65629702e-02  -3.86639120e-04]
 [ -4.90101241e-02  -3.26698398e-02]
 [  3.82777540e-02  -3.91397170e-02]
 [ -2.98524309e-02  -6.74210091e-02]
 [ -1.35737681e-02  -3.12562648e-02]
 [ -4.27013599e-02   4.73384780e-02]
 [  2.96038985e-02  -2.74707989e-03]
 [  5.81556813e-02   7.46571741e-02]
 [ -7.19407269e-03  -2.61038527e-02]
 [  7.03367905e-02   3.76193945e-03]
 [ -7.32838475e-02   2.51146891e-02]
 [ -1.32991688e-01   4.31143583e-02]
 [  9.62846860e-03  -3.37298572e-02]
 [  1.11308172e-01   6.42500457e-02]
 [ -1.15645515e-01  -9.82870709e-03]
 [ -4.18414660e-02   4.25383899e-02]
 [  1.26650627e-01  -6.46126529e-02]
 [ -2.96453493e-02   1.63766518e-02]
 [  1.14935677e-01  -2.25091012e-02]
 [  1.20875294e-02  -8.28200741e-02]
 [ -2.54506032e-02   3.10564935e-02]
 [  3.26737631e-02  -6.10932160e-02]
 [ -1.19134927e-01   3.93617610e-02]
 [  4.21993893e-03   2.96730798e-02]
 [ -3.46924878e-02  -5.08982083e-02]
 [  1.00321952e-01  -1.25493889e-02]
 [ -5.10995778e-04  -4.85011764e-03]
 [  5.42261176e-02   8.55707789e-02]
 [ -1.09534272e-01   4.37024836e-02]
 [  5.63364410e-02  -4.40683739e-03]
 [  4.63731696e-02   1.11890895e-02]
 [ -2.94779753e-02   4.59358248e-02]
 [  6.44940882e-02  -3.45739279e-03]
 [ -2.21299221e-02   6.00809527e-02]
 [ -5.46933632e-02   8.91596373e-02]
 [  8.24163458e-02  -2.90153968e-02]
 [ -7.05569602e-02   7.96017761e-02]
 [ -3.69897521e-02   6.68249999e-03]
 [  7.68067134e-02   3.71697620e-02]
 [ -2.51958982e-02   7.91825703e-02]
 [  5.92974986e-02  -2.15207063e-02]
 [  4.85397638e-02   7.82878003e-02]
 [ -1.70535608e-02   4.10447105e-03]
 [  1.10352481e-02   4.25733856e-03]
 [  5.65972995e-02  -2.19183885e-02]
 [  2.86925072e-02   3.34047014e-02]
 [  8.65628666e-03  -6.75470794e-02]
 [ -9.54975242e-03  -1.32309194e-02]
 [ -3.07488044e-02  -8.95896160e-02]
 [ -6.49081606e-02  -6.93056503e-02]
 [  6.57035178e-02  -3.69542438e-02]
 [  4.97774308e-02  -4.61463744e-02]
 [ -1.17203735e-01   4.98326761e-02]
 [ -9.96365933e-02  -1.07789940e-01]
 [ -6.08221783e-02   1.39283154e-02]
 [  1.49727324e-02  -1.01511477e-01]
 [  6.55638357e-03  -2.63337358e-02]
 [  6.43523157e-02  -4.41627763e-02]
 [ -5.57296125e-02  -1.00654237e-02]
 [  6.24463406e-02   5.17363779e-02]
 [  3.54409076e-02   1.39055240e-02]
 [  1.08518538e-01  -1.07089398e-01]
 [ -5.37732997e-02  -3.85361895e-02]
 [  2.87323652e-02  -5.74962024e-03]
 [ -5.05327007e-02   5.94797412e-02]
 [  4.85022333e-03  -5.15284848e-02]
 [ -1.56622033e-03   6.23488412e-03]
 [ -4.65109625e-02  -1.59268171e-02]
 [  2.71020732e-02   2.35745918e-02]
 [  6.88853603e-02  -5.31719037e-02]
 [ -5.95437968e-02   7.43204919e-03]
 [ -1.26905934e-02  -2.63202911e-02]
 [  2.48176199e-02  -3.38096050e-03]
 [  1.45811335e-02   8.01846790e-02]
 [ -4.67183125e-03   1.76419707e-02]
 [  8.28318243e-02  -2.82177889e-02]
 [ -1.83209883e-02   3.50912862e-02]
 [  3.10340810e-02   2.92286940e-02]
 [ -4.36466553e-03   6.84084328e-02]
 [  1.02321885e-01   1.21869993e-01]
 [ -8.28957503e-02  -1.48036421e-02]
 [ -5.83276620e-02   6.55037687e-02]
 [ -7.90076611e-02   7.85052104e-02]
 [ -1.11421625e-01   3.50104938e-02]
 [  5.42814551e-02  -5.32320571e-02]
 [ -1.26861295e-02  -4.01098649e-02]
 [ -5.29343339e-03  -5.15869476e-02]
 [  1.14916119e-01   9.22145837e-04]
 [ -5.76650007e-02   2.91443307e-02]
 [  7.30998565e-02  -7.64600941e-02]
 [  3.65260137e-03  -1.26339664e-01]
 [  1.50830582e-01   1.15809093e-01]
 [ -6.99208627e-02  -1.12195115e-01]
 [ -1.10783807e-02   3.40214212e-02]
 [  6.98760575e-02   3.47805095e-02]
 [  8.84076757e-02  -5.81250053e-02]
 [  6.19105737e-02   5.54385537e-02]
 [ -4.35615190e-02  -6.38273321e-02]
 [  2.20376821e-02   1.40710932e-02]
 [ -7.70986429e-03  -5.59436521e-03]
 [  5.32349268e-02   8.79063571e-02]
 [  8.61189682e-03   7.56396797e-02]
 [  5.40915994e-02  -4.60708784e-02]
 [  9.79508890e-02   5.61935081e-02]
 [ -3.88506561e-02   7.50745262e-02]
 [  3.60660840e-02   4.91074166e-03]
 [ -8.49703351e-02  -1.11770050e-02]
 [  2.44483598e-02   4.74672508e-04]
 [  1.30946513e-01  -2.76427917e-02]
 [ -4.50907265e-02   2.54938591e-02]
 [ -5.30366229e-03   1.97942713e-02]
 [ -4.40045777e-02  -5.87681329e-02]
 [  1.63678525e-02   4.41154098e-02]
 [  8.87365578e-03  -2.75227882e-02]
 [  4.70261573e-02   2.35011565e-02]
 [  1.17707398e-02  -2.79041970e-03]
 [  2.14840431e-02   4.40882977e-02]
 [  1.68476027e-02   5.26511438e-02]
 [ -1.01612999e-02   8.69955037e-02]
 [ -1.13175365e-02  -8.66035766e-02]
 [  8.75527336e-03   5.08164838e-02]
 [ -2.55695378e-02  -2.75951467e-02]
 [  3.36600199e-02   9.30851616e-02]
 [ -1.94330622e-02   3.87868276e-02]
 [ -6.23022265e-02   2.24699296e-02]
 [  8.34465911e-02   2.18827613e-02]
 [ -2.98275523e-02   1.31282611e-02]
 [ -6.77683517e-02   3.15598456e-02]
 [ -6.17447798e-02   1.63773372e-02]
 [ -9.61347739e-03  -4.14441086e-02]
 [  4.26703744e-02  -3.31028484e-02]
 [ -8.06177165e-02   1.41705153e-02]
 [ -6.24566594e-02   1.91803657e-02]
 [ -6.51827270e-02   9.56918361e-02]
 [ -4.84301959e-02   3.36467444e-02]
 [ -6.05912729e-03   1.17407489e-03]
 [  5.22170068e-02   3.17427427e-02]
 [  5.81782267e-02   3.18948647e-02]
 [  1.60319335e-02  -7.90417294e-02]
 [ -2.45136204e-02  -2.39872621e-02]
 [ -1.91345011e-02  -1.86270358e-02]
 [  3.26737124e-02  -1.01729121e-01]
 [ -8.10831806e-02  -7.57247806e-02]
 [ -9.78438944e-03   1.63356191e-03]
 [ -9.28318258e-02  -8.07499002e-02]
 [  1.72549078e-02  -4.11934002e-02]
 [ -1.24812877e-02  -2.41303824e-02]
 [ -3.55896994e-02   1.32529946e-01]
 [ -8.01317301e-02  -1.75121892e-02]
 [  1.84725645e-02  -8.41675642e-02]
 [ -4.03436280e-02  -2.47220296e-02]
 [  2.39889934e-02  -6.65894753e-02]
 [  7.94917676e-02   1.34685524e-03]
 [ -3.87212456e-02  -1.06354341e-01]
 [  5.73698398e-02  -7.65778247e-02]
 [ -9.53933821e-02  -6.14355161e-02]
 [  1.64267721e-02   9.78868534e-02]
 [  5.08388737e-02  -2.30597197e-02]
 [  5.96574048e-02   3.68802039e-02]
 [  1.38614729e-01   8.27840702e-02]
 [ -2.17890061e-02  -7.03742383e-02]
 [  3.91392234e-03  -3.81947594e-02]
 [  7.72504083e-02   4.39485573e-02]
 [ -1.95832957e-02  -4.89700097e-03]
 [  1.41362875e-03   6.54213791e-02]
 [ -6.17833681e-02   5.73585064e-02]
 [  2.94133605e-02  -1.16072044e-02]
 [ -1.87604455e-02  -3.06527787e-02]
 [ -9.90306707e-02   5.42825391e-02]
 [ -1.03368459e-02  -2.01348299e-02]
 [ -1.12477160e-02  -5.42661309e-02]
 [  4.00930227e-03   1.20205815e-02]
 [ -5.36203626e-02   6.48431556e-02]
 [  5.00727217e-02   1.28549361e-01]
 [ -9.22827678e-02   3.61351572e-02]
 [ -8.20110672e-03  -4.24978438e-02]
 [  1.49007850e-02  -5.67764559e-02]
 [  2.83906574e-02  -6.68915684e-02]
 [  2.11627587e-02  -1.46987643e-03]
 [  4.44852418e-02  -1.33933352e-02]
 [ -7.91430962e-02  -6.20168798e-02]
 [  4.75597286e-02  -9.07513041e-04]
 [ -3.19268021e-03  -7.97168707e-03]
 [ -5.76854305e-03   8.44166706e-02]
 [ -5.29214724e-02  -1.17214636e-01]
 [ -9.30817347e-02   2.85692739e-02]
 [ -5.93081519e-02   1.85057549e-02]
 [ -3.24210255e-02  -8.71737433e-03]
 [ -4.61277929e-02   6.02469754e-02]
 [ -2.45457366e-02   1.03700800e-02]
 [  1.96268604e-03  -4.80181741e-02]
 [  5.63690653e-02   7.41840814e-02]
 [  3.22933048e-02   7.14987933e-02]
 [ -5.19295728e-02   3.98434521e-02]
 [ -2.31216927e-02  -1.82701192e-02]
 [  1.02065367e-01  -3.97143371e-02]
 [ -3.03667954e-02  -1.07937400e-01]
 [ -1.72690274e-02   4.76188273e-02]
 [ -2.81321671e-02   4.45462171e-02]
 [ -9.23751695e-02  -6.88544262e-02]
 [  1.34744903e-02  -3.20526145e-02]
 [  3.49898738e-02  -3.49458160e-03]
 [  8.71672859e-03  -1.84681465e-02]
 [ -3.70058520e-02  -5.60361612e-02]
 [  3.53574895e-02   8.91521744e-02]
 [  9.91364625e-02   1.48085750e-02]
 [ -8.05230807e-02  -5.11521717e-02]
 [ -9.90623725e-02   2.04389581e-03]
 [ -2.43294122e-02  -6.51758146e-02]
 [  2.29632709e-02   9.65201147e-03]
 [ -4.90416149e-02   8.64582602e-02]
 [  5.09011617e-02   4.71548195e-02]
 [ -1.50891417e-02   9.00812292e-04]
 [  2.53644997e-02   6.52533998e-02]
 [ -1.91867503e-02  -8.27016339e-02]
 [ -6.40728962e-02  -3.31031160e-02]
 [ -7.33627693e-02  -8.26611011e-02]
 [  7.57317637e-02  -2.72399694e-02]
 [ -9.86251161e-02  -5.35120288e-03]
 [  2.63055934e-04  -3.69769120e-02]
 [  6.76876323e-02   4.20624603e-03]
 [ -1.41945062e-02   8.20378826e-03]
 [  4.04289297e-03   3.21783164e-03]
 [  1.00502842e-01  -5.69329765e-02]
 [  9.81735480e-03   3.83019110e-02]
 [  3.26321184e-02  -8.26308375e-02]
 [  1.07181007e-02  -4.63351355e-02]
 [ -5.78152938e-02  -6.28749227e-02]
 [ -4.79974157e-02  -2.80983152e-02]
 [ -7.37645955e-03  -2.85772476e-02]
 [  5.00398640e-02  -2.89836627e-02]
 [ -4.87420281e-02  -5.35437736e-05]
 [ -1.07189286e-02  -6.39192554e-02]
 [  7.33932478e-02   1.66936788e-02]
 [ -5.07320135e-02  -6.26764770e-02]
 [  8.44130722e-02   1.63589091e-02]
 [ -2.46828456e-02   1.10511085e-02]
 [  1.07544680e-01   1.42124603e-02]
 [  8.59427006e-02   9.26032327e-02]
 [  5.34340972e-02  -2.65619712e-02]
 [ -1.51545581e-03  -7.26489865e-02]
 [ -6.66974920e-02  -1.40566994e-02]
 [  3.38285783e-02  -2.02531418e-02]
 [  4.66987901e-03   5.21401498e-02]
 [  2.67614875e-02  -3.88591828e-02]
 [ -7.73902866e-02  -3.68034562e-02]
 [ -3.09841231e-02   5.07827448e-04]
 [  1.54688959e-02  -8.88582034e-02]
 [  2.78535197e-02   8.42415408e-02]
 [ -3.91727796e-02   7.54710179e-03]
 [  4.17975014e-02  -1.66459729e-02]
 [  1.75047883e-03  -5.78384127e-02]
 [ -2.22321680e-02   2.82577101e-02]
 [ -4.41940727e-02  -1.97505475e-02]
 [  1.23470131e-01   1.04875756e-02]
 [ -2.95875090e-02  -2.49640525e-02]
 [ -4.93493294e-02  -5.34986280e-02]
 [ -1.13256436e-02  -1.26083832e-03]
 [ -3.90008099e-03   3.23688077e-02]
 [ -3.34466924e-02   4.79340296e-02]
 [ -1.20379823e-02   4.77958247e-02]
 [  3.76281918e-02   5.29853981e-03]
 [ -5.23124002e-02   2.01034428e-02]
 [ -6.09408591e-02  -5.85407914e-02]
 [ -1.26379427e-01   7.48733472e-02]
 [  1.09050683e-01  -8.66736541e-02]
 [ -1.57295748e-02  -3.69884039e-02]
 [ -2.02045199e-02  -1.07706857e-01]
 [ -9.42859928e-02   5.16099602e-02]
 [ -9.75854597e-02  -6.01811429e-03]
 [ -9.39603279e-02  -2.15233909e-02]
 [  2.51254605e-02  -7.08093651e-02]
 [ -9.11926759e-02   3.88307022e-02]
 [ -9.04530210e-02  -4.14875504e-02]
 [  6.40808521e-02   7.38635275e-02]
 [  2.06400419e-02  -9.09282630e-02]
 [  2.78570259e-02  -1.95297818e-02]
 [  2.39880850e-02   1.07940132e-03]
 [ -3.05474480e-02   9.46602013e-02]
 [  7.43010140e-04  -3.16178522e-02]
 [  8.30841205e-02   1.13441199e-02]
 [  2.95635296e-02  -1.13604722e-01]
 [  2.30527031e-02  -2.93398544e-02]
 [  1.43617777e-02  -5.35445717e-03]
 [ -7.75769732e-03   4.62328259e-02]
 [ -1.49723729e-02   2.20971431e-02]
 [ -4.54844677e-02  -9.42545652e-02]
 [  8.12269053e-02   6.95776882e-03]
 [  4.49822409e-02   9.25135060e-03]
 [ -3.82255376e-02   5.32456861e-02]
 [ -2.09748551e-02  -5.12437820e-02]
 [  9.37869892e-03   2.44791151e-02]
 [  6.90919495e-02  -4.08189040e-02]
 [  9.68766251e-02  -2.70646627e-02]
 [ -1.09789222e-01   1.26447009e-02]
 [  4.44171119e-02  -3.49635656e-02]
 [ -9.34425374e-02   4.19516580e-02]
 [ -1.12241517e-01   4.18863670e-02]
 [ -2.24721788e-02  -4.75447791e-02]
 [ -3.11211551e-02  -4.23783767e-02]
 [  1.41856513e-02   8.69385067e-02]
 [ -1.13227127e-01   1.25530547e-02]
 [ -2.92519415e-02  -9.82649744e-02]
 [  7.62052068e-02   2.39847267e-02]
 [  3.36150542e-02  -4.13618970e-02]
 [  5.05343232e-02   2.89137506e-02]
 [ -1.41330382e-02  -3.08912823e-02]
 [ -4.01245298e-02   7.16853935e-03]
 [  7.33618046e-02  -9.96743375e-02]
 [ -1.20777644e-02   3.06600292e-02]
 [  1.90021383e-02  -3.43241620e-02]
 [  1.21958088e-02  -3.14786530e-03]
 [  5.89939509e-02  -1.32241445e-02]
 [ -1.99371494e-02  -9.99268002e-03]
 [ -2.37543125e-02  -4.32419238e-02]
 [  3.33917291e-02  -3.19330446e-02]
 [  2.09341153e-02  -2.28501962e-02]
 [  1.50639885e-02  -2.30920116e-02]
 [ -3.27852752e-02  -6.71865468e-02]
 [ -1.28996124e-02  -1.96093931e-02]
 [  1.74381356e-02  -7.58829037e-02]
 [ -1.89415312e-02   4.21582077e-02]
 [  7.71775547e-02   2.78864594e-02]
 [  1.21019252e-02  -1.47549360e-02]
 [  1.19709025e-01   6.47070668e-02]
 [ -5.29239734e-02  -9.75708225e-02]
 [  4.76023611e-02  -1.86832506e-02]
 [ -6.58388869e-03   4.91344038e-02]
 [ -2.96778927e-02  -2.78630899e-02]
 [ -3.61610563e-02  -7.54617671e-03]
 [ -4.49830999e-02  -3.29868604e-04]
 [  7.25669648e-02  -6.07591093e-02]
 [ -3.24310296e-02  -5.44492091e-02]
 [  6.83781598e-02   4.79033803e-02]
 [ -9.21110974e-02  -1.89132885e-02]
 [ -1.56102508e-02   3.02199244e-02]
 [ -3.14119116e-02   3.03118076e-02]
 [ -2.62628021e-02  -3.34511492e-02]
 [  1.01618992e-01  -7.77971699e-02]
 [  2.63004846e-02   9.11297945e-02]
 [  1.27018606e-03   4.83388856e-02]
 [ -1.12791767e-01  -5.04617007e-02]
 [  1.89732056e-02   6.98565936e-02]
 [ -4.92245483e-03  -1.49582787e-01]
 [  5.04170640e-03  -9.35194518e-03]
 [  2.58583148e-02   1.71885139e-02]
 [  3.26953277e-02  -7.28202350e-02]
 [ -9.66293996e-02   1.03562797e-02]
 [ -7.05643030e-02  -1.61606499e-02]
 [ -6.16378308e-02   4.14115512e-02]
 [ -3.73843631e-03   2.20910340e-04]
 [ -1.26787908e-02   1.03420485e-01]
 [  4.39943270e-02   7.58962426e-03]
 [  4.62315196e-02   3.48300819e-02]
 [ -1.07883003e-02   4.90742626e-02]
 [ -1.33100719e-02   7.23298076e-02]
 [ -9.54111178e-05  -1.06235349e-01]
 [  1.23728911e-01  -1.34354748e-02]
 [ -2.81330126e-02  -1.16088107e-01]
 [ -3.27949902e-02  -9.45888995e-02]
 [  9.90781615e-02   3.61266329e-03]
 [  7.16041872e-02  -4.91648512e-02]
 [  4.79737440e-02   7.84238984e-02]
 [  6.19987071e-02   1.90437020e-03]
 [  4.20903504e-02  -2.25650628e-02]
 [  1.08186738e-02   1.79133716e-03]
 [ -6.87864480e-02  -7.46326961e-03]
 [ -7.27620308e-02  -1.93019541e-02]
 [  1.05042957e-01  -4.44853269e-02]
 [  1.17924047e-02  -1.72056684e-02]
 [ -2.16379455e-02   6.92992709e-02]
 [  8.02834699e-02  -2.17736263e-02]
 [ -1.79456958e-02   1.08788456e-02]
 [  6.75311455e-03   3.13212474e-02]
 [ -5.24853258e-02   7.91713634e-02]
 [  1.01767836e-02   4.57368450e-02]
 [ -3.23205360e-02   4.39998064e-02]
 [ -1.32673290e-01  -1.25091087e-02]
 [ -1.73983533e-02  -5.38387426e-02]
 [ -5.05062119e-02  -2.86045670e-02]
 [  2.99735647e-02  -1.15717730e-02]
 [  6.40016488e-03  -8.80969134e-02]
 [ -7.67646054e-02  -5.39276667e-02]
 [ -9.11747295e-03  -5.67134696e-02]
 [  1.89989954e-02   4.13923887e-02]
 [ -8.97763700e-02   4.70881866e-02]
 [ -9.91515807e-02  -9.26688480e-02]
 [  3.12173449e-02   3.34775618e-02]
 [  5.00436834e-02   3.17879195e-02]
 [  1.53640125e-02  -8.28073538e-03]
 [ -2.76946383e-02  -1.29928573e-02]
 [  2.03635126e-03  -3.01301523e-04]
 [  5.11038794e-02   1.30967317e-02]
 [  7.52301655e-02  -2.54103920e-02]
 [  8.15207090e-02   5.80822459e-02]
 [  2.98105146e-02  -2.80535057e-02]
 [ -3.40055753e-02   8.10211911e-03]
 [  8.00382951e-02   3.47957352e-02]
 [  9.52680857e-04   7.25929539e-02]
 [ -2.26580245e-02   1.06918495e-01]
 [ -4.89588969e-03  -2.56054465e-02]
 [  1.39230463e-02   1.56955192e-02]
 [  3.43392612e-02   1.56758330e-02]
 [ -4.78589116e-02   2.89166389e-02]
 [  8.56785968e-02  -1.28724281e-02]
 [  3.74429902e-02   7.70815529e-02]
 [  2.56689577e-02  -4.41325874e-02]
 [ -5.32828328e-02   5.50471165e-02]
 [  3.58479231e-02  -3.15615024e-02]]Output bias: [ 0.20364425  0.18736586]
Value MLP:Hidden weights: [array([[ -2.24631986e-01,   9.32647383e-01,   1.09114079e+00, ...,
         -1.53401731e-01,   1.08883720e+00,   1.07990714e+00],
       [ -3.30831597e-01,  -3.47939397e-01,  -2.50567101e-01, ...,
         -1.24109898e+01,  -2.75726088e-01,  -2.50327087e-01],
       [ -1.19343900e+00,   7.79236744e-01,   5.91984041e-01, ...,
          2.81851363e-01,   6.47618283e-01,   5.90113158e-01],
       ..., 
       [ -2.97058711e-01,  -2.68113303e+00,  -3.02013928e+00, ...,
          1.79567951e-01,  -3.56267391e+00,  -3.19361057e+00],
       [ -3.79438219e-02,   2.70196337e+00,   3.06190122e+00, ...,
          1.21458637e+00,   3.50940074e+00,   3.16948402e+00],
       [ -5.59520210e-03,   1.25268646e+00,   1.38898123e+00, ...,
          1.65086790e+00,   1.81747883e+00,   1.54195885e+00]])]Hidden bias: [array([ -4.19998771e-03,   3.83818089e+00,   3.83886366e+00,
         3.84569074e+00,   3.72642920e+00,   4.26654925e+00,
         3.33977564e-01,   3.91738847e+00,   5.71964702e+00,
         5.07551087e+00,   5.13724317e+00,   3.29618598e+00,
         3.24405238e+00,   4.45379721e+00,   3.55674747e+00,
         2.48091197e-01,   4.50723081e+00,   3.81457436e+00,
         5.81503824e+00,   3.37342354e+00,   5.42246447e+00,
         3.98663805e+00,   9.88305539e-02,   5.81956301e+00,
         1.31994807e-01,   5.51256688e+00,   5.57785588e+00,
         5.52254117e+00,   5.22101105e+00,   4.45923469e+00,
         4.79354540e+00,   5.60910784e+00,  -3.18043428e+00,
        -2.00027508e+00,   5.21869321e+00,   3.80882600e+00,
         4.36265044e+00,   4.95697489e+00,   4.15498052e+00,
        -5.60467134e+00,   5.82064865e+00,   3.59391088e+00,
         5.32821358e+00,   5.27553095e+00,   1.40405344e-01,
         5.72528106e+00,   5.58747102e+00,   5.79382906e+00,
         4.58610796e+00,  -3.18346900e+00,  -5.10227732e+00,
         5.11029174e+00,   5.01462741e+00,   5.70815801e+00,
         3.76919730e+00,   4.58937230e+00,   5.70127808e+00,
         4.59331307e+00,   5.48670255e+00,   4.31347731e+00,
         5.85465209e+00,  -4.17915996e+00,   5.15022513e+00,
         4.41558586e+00,   5.34260276e+00,   2.03626844e-01,
        -3.01862851e+00,   5.78925883e+00,   4.51415919e+00,
         5.76872757e+00,   5.44268723e+00,   5.29341186e+00,
         2.97221835e-01,   5.82332872e+00,   5.69279972e+00,
         5.74835034e+00,   5.13060010e+00,   5.27007140e+00,
         4.11447641e+00,   4.86971793e-01,   4.37556769e+00,
        -1.52163745e+00,   3.33784980e+00,   5.85295005e+00,
         5.32019117e+00,   3.63207377e+00,   4.89007678e+00,
         5.02761318e+00,   3.45113679e+00,   3.36643889e+00,
         4.40602252e+00,  -3.40757481e+00,   5.73015041e+00,
         2.51955809e-01,  -7.94059267e-01,   5.71852925e+00,
         4.35190739e+00,   4.51362075e+00,   5.67618915e+00,
         5.83144549e+00,   5.29033830e+00,   5.02956211e+00,
         5.68829608e+00,   3.94613333e+00,   1.20143856e-01,
         5.68796631e+00,   5.81988121e+00,   5.34969196e+00,
         5.86042806e+00,   5.84731489e+00,   4.22494007e+00,
         4.35609556e+00,   4.17143535e-01,   3.71521563e+00,
         1.66952626e-01,   4.28900355e+00,  -1.91009269e+00,
         5.82392792e+00,   4.98157171e-01,   4.80165816e+00,
        -2.55941971e+00,   1.70352077e-01,   5.59294731e+00,
         5.37016826e+00,   5.60596667e+00,  -6.28529646e+00,
         5.78711853e+00,   4.50395368e+00,   5.01721882e+00,
         4.21015163e+00,   4.63306436e+00,   5.63645664e+00,
        -2.83036458e+00,   5.17206123e+00,   4.65541694e+00,
         4.37899235e+00,  -7.54876426e+00,   4.79759310e+00,
         4.52122595e+00,   4.02383317e+00,   1.78566301e-01,
         4.85843977e+00,   3.46373108e+00,   3.79838034e+00,
         5.85764359e+00,   3.10031100e+00,   5.52102033e+00,
         3.11906206e+00,  -2.97953328e-01,  -1.41133852e+00,
         3.34777304e+00,   2.74527108e-01,   5.20320533e+00,
         4.56942163e+00,   3.44099003e+00,   4.08619976e+00,
         7.22209180e-02,   4.55901576e+00,   3.85901881e+00,
         5.07526700e+00,   4.51402149e+00,  -7.10249974e-01,
         5.12734419e+00,   2.87716505e+00,   5.03380254e+00,
        -3.49404388e+00,   2.91347063e-01,   3.96489165e+00,
         5.16381330e+00,   4.61563455e+00,   5.48896258e+00,
         4.00857751e+00,   1.12467277e-01,   4.46763888e+00,
         4.22029329e+00,   5.51966440e+00,   4.74599968e+00,
         3.45306281e+00,   4.11243309e+00,   5.32170923e+00,
         3.99767256e+00,   2.03350134e-01,   5.02729594e+00,
         5.75291540e+00,   4.94214536e+00,   5.43310962e+00,
         3.52019959e+00,   5.86377060e+00,   4.55748957e+00,
         2.39898770e+00,   5.31592100e+00,   3.61232918e+00,
         4.66062066e+00,   5.40954447e+00,   3.66725555e+00,
         4.74745351e+00,   5.62182317e+00,  -9.46406792e-01,
         5.36888940e+00,   5.67982463e+00,   4.97196665e+00,
         4.35238682e+00,   2.53126414e-01,   4.58638978e+00,
         4.35512586e+00,   4.29536158e+00,   5.12416160e+00,
        -2.33529631e-02,   5.49601245e+00,   4.64020124e+00,
        -5.19478845e+00,   5.37386229e+00,   4.72881282e+00,
         5.83344292e+00,   4.54881650e+00,   3.67763916e+00,
         5.69951581e+00,   5.39030485e+00,   3.65604398e+00,
         5.22657972e+00,   4.47625013e+00,   4.85698963e+00,
         5.30151439e+00,   2.93795088e+00,   4.08012766e+00,
         5.79738397e+00,  -2.95957520e-01,   5.71589222e+00,
         3.94342464e+00,  -3.19733196e+00,   4.58577808e+00,
         4.29205023e+00,   5.56257987e+00,   3.38814742e+00,
         4.63227188e+00,  -5.23171402e+00,   3.73514950e+00,
         5.75354946e+00,  -7.01243792e-01,   2.40936393e+00,
         4.83435118e+00,   4.11875036e+00,   1.21422285e-01,
         4.93615548e+00,   3.23682524e+00,   4.76761835e+00,
         5.78426242e+00,   5.21009120e+00,   6.29823575e-01,
         4.50104232e+00,   3.23834188e+00,   3.12414490e+00,
         5.51986740e+00,   4.47526223e+00,   4.29623416e+00,
         4.30899978e+00,   5.60209385e+00,   2.85094508e-01,
         3.48695933e+00,   5.83454215e+00,   3.65923083e+00,
         5.54954000e+00,   5.12575284e+00,   5.37579242e+00,
         4.76562924e+00,  -3.13536676e+00,   3.16232814e+00,
        -4.60392126e+00,   3.14006203e+00,   2.49014169e-01,
         3.73876022e+00,   5.06591093e+00,   4.63149418e+00,
         5.85359390e+00,   3.89711673e+00,   4.95309852e+00,
         5.39074505e+00,   9.87865178e-02,   5.18658181e+00,
         4.55134784e+00,  -4.75330606e+00,   3.63086809e+00,
         5.78708376e+00,   5.86350106e+00,   1.44149846e-01,
         5.13847007e+00,   4.61755182e+00,  -5.13690911e+00,
         5.57587249e+00,   5.21573558e+00,   3.80305576e+00,
         5.74538221e+00,   3.35962111e+00,   3.56032596e+00,
         3.57239602e+00,   5.62231971e+00,   2.21010127e+00,
         5.64651314e+00,   5.72350523e+00,   4.01523389e+00,
         5.39324684e+00,   5.81071701e+00,   5.78221937e+00,
         4.97901549e+00,   4.44632197e+00,   4.79439041e+00,
         4.33611280e+00,   3.37892218e+00,   3.12278051e+00,
         1.99440433e-01,  -2.85895515e+00,   2.78926797e+00,
         4.83242489e+00,   5.46684183e+00,   2.17179172e+00,
         4.27728458e+00,   5.49633768e+00,   3.43450215e+00,
         5.63215583e+00,   3.72319930e+00,   3.21349622e+00,
         4.57188525e+00,   2.92712729e-01,   5.81793217e+00,
         5.45283000e+00,   5.76542002e+00,   3.04949286e-01,
         4.40333540e+00,   5.85941328e+00,  -7.38266861e+00,
         4.38564561e+00,   5.22831229e+00,  -4.77856776e+00,
         5.04077006e+00,   5.59714566e+00,   4.47392200e+00,
         5.81943279e+00,   3.38273796e+00,   5.43295647e+00,
         4.30135604e+00,   5.81944411e+00,   4.34181158e+00,
         1.40579289e-01,   3.61472664e+00,   5.73711097e+00,
         4.70897755e+00,  -8.74408973e-01,   4.49424053e+00,
         6.18399636e-01,   2.11513897e-01,   4.77994521e-02,
         5.54530516e+00,   4.55171511e+00,   5.81436384e+00,
         3.58847930e+00,   1.70411932e+00,   5.85481196e+00,
         5.63939232e+00,   4.30953002e+00,   5.73242347e+00,
         8.52393098e-01,   4.14757068e+00,   4.15606358e+00,
         5.14761660e+00,   4.60448973e+00,   7.90756966e+00,
         4.22960166e+00,   5.35566973e+00,   3.19274676e-01,
         5.67430490e+00,   4.17052026e+00,   5.85867736e+00,
         1.58503566e-01,   5.84191418e+00,   3.84617199e+00,
         5.85715346e+00,   5.61841773e+00,   4.01103267e+00,
         5.52561349e+00,   4.99747706e+00,   2.97589823e-01,
        -2.70170952e+00,   4.48001883e-01,   5.81559460e+00,
         3.33094353e+00,   6.41456126e-01,   5.44541377e+00,
         5.14575604e+00,   3.49910118e+00,   3.76256811e+00,
         5.67367604e+00,   3.53241020e+00,  -4.90012766e+00,
         4.87328528e-01,  -3.86453633e+00,   2.53620249e-01,
         2.71618370e-01,   1.86321340e+00,   6.83127463e-01,
         4.48895394e+00,   4.81751468e+00,   2.91478725e+00,
         4.22019093e+00,   4.67321263e+00,   4.63954990e+00,
        -6.56957506e-01,   2.96748537e-01,   4.59098754e+00,
         5.79840945e+00,   4.50781969e+00,   2.09018466e-04,
         5.80095526e+00,   3.99785708e+00,   5.81700979e+00,
         4.70450267e+00,   4.41289195e+00,   4.91155529e+00,
         4.09940606e+00,   1.11762202e-02,   4.76107064e+00,
         3.87496068e+00,   3.36386914e+00,   4.56262187e+00,
         5.41094421e+00,   5.12824053e+00,   4.52260932e+00,
         5.44236211e+00,   3.68656866e+00,   4.59286832e+00,
         4.43635599e+00,   3.24635314e+00,   3.33275946e+00,
         5.29807319e+00,   5.87491785e+00,  -5.26269550e+00,
         5.56448311e+00,   5.84207290e+00,   5.43977006e+00,
         2.36732376e+00,   6.92974833e-01,   2.79840448e-01,
         1.88347601e+00,   5.09881341e+00,   1.82824519e+00,
         5.67171578e+00,   5.28707807e+00,   3.58477210e+00,
        -3.79451394e+00,   5.59861366e+00,   3.57850611e+00,
         4.30448140e+00,   5.84167971e+00,   2.65479927e-01,
         4.37386478e+00,   2.42836422e+00,   4.04472900e+00,
         5.17482728e-01,   5.54361571e+00,   5.62323749e+00,
         2.52036518e-01,   5.55675404e+00,   5.63091393e+00,
         3.73853565e+00,   5.60655550e+00,   5.24720348e+00,
         3.19927279e-01,   5.83530162e+00,   1.55314843e-01,
         5.05030849e+00,   5.67586946e+00,   4.73792927e+00,
         5.22344860e+00,   3.81300106e+00,  -7.18731361e+00,
         3.69284118e+00,   1.67849033e-01,   5.13810933e+00,
         3.88821716e+00,   5.47431544e+00,   2.35004710e+00,
         3.35527717e+00,   4.99604307e+00,   5.61312820e+00,
         4.13749718e+00,   4.42999959e+00,  -6.31918383e-01,
         3.19907833e+00,   5.67553342e+00,   4.19740585e+00,
         5.12124017e+00,   3.46508352e+00,  -2.88021700e-01,
         5.83526657e+00,   4.84172271e+00,   5.13215684e+00,
         1.61385679e+00,  -6.69067641e+00,   1.67699815e+00,
         4.86312479e+00,   4.17711407e+00])]Output weights: [[ -6.72890460e-03]
 [  3.24732545e+00]
 [ -1.30798486e+00]
 [  3.26450893e+00]
 [  3.29493878e+00]
 [  3.13267438e+00]
 [  6.07646138e-02]
 [ -1.26387311e+00]
 [  7.14572755e-01]
 [  2.69016567e+00]
 [ -1.90195167e-01]
 [ -1.66129793e+00]
 [  3.32446031e+00]
 [ -8.54355008e-01]
 [ -1.47048249e+00]
 [  4.26025438e-02]
 [  3.05532340e+00]
 [ -1.32514183e+00]
 [  1.45023946e+00]
 [ -1.57056528e+00]
 [  2.37579610e+00]
 [ -1.21258885e+00]
 [  2.31672728e-02]
 [  1.00939360e+00]
 [  1.93728657e-02]
 [  2.24790392e+00]
 [  2.16065175e+00]
 [  2.21718343e+00]
 [ -1.05630499e-01]
 [ -8.51317112e-01]
 [ -5.69481251e-01]
 [  4.78317374e-01]
 [ -2.76085783e+00]
 [ -1.58410423e-02]
 [  2.56245340e+00]
 [ -1.31824308e+00]
 [ -9.26183294e-01]
 [ -3.78995936e-01]
 [ -1.08430840e+00]
 [ -1.46905373e+00]
 [  1.66280480e+00]
 [ -1.44170551e+00]
 [  6.62821345e-02]
 [ -8.34793910e-03]
 [  1.13483779e-02]
 [  1.81683349e+00]
 [  4.16132539e-01]
 [  9.87896042e-01]
 [ -7.38699211e-01]
 [ -3.28767251e+00]
 [ -4.61825233e+00]
 [  2.67893706e+00]
 [ -3.23053151e-01]
 [  1.96475088e+00]
 [  3.32578682e+00]
 [ -7.32298126e-01]
 [  6.89342288e-01]
 [  3.01257101e+00]
 [  2.95539599e-01]
 [  3.29911183e+00]
 [  1.40355800e+00]
 [ -6.71364862e+00]
 [  2.63814645e+00]
 [  3.23324199e+00]
 [  9.59199121e-02]
 [  5.74970411e-02]
 [ -2.86583960e+00]
 [  1.68731989e+00]
 [ -7.94206636e-01]
 [  8.74552941e-01]
 [  2.33723343e+00]
 [  2.82936364e+00]
 [  4.61654508e-02]
 [  1.51550892e+00]
 [  2.00558501e+00]
 [  8.16683719e-01]
 [  2.62142710e+00]
 [  5.56271344e-04]
 [ -1.10493558e+00]
 [  2.75503183e-02]
 [ -9.26901766e-01]
 [ -6.54086038e-03]
 [ -1.57990685e+00]
 [  1.23207136e+00]
 [  2.46450446e+00]
 [ -1.42869734e+00]
 [ -4.68641200e-01]
 [  2.75579121e+00]
 [  3.32683090e+00]
 [ -1.60070928e+00]
 [ -8.80139202e-01]
 [ -4.55977043e+00]
 [  7.40266818e-01]
 [  4.14415422e-02]
 [ -1.83482178e-02]
 [  7.07085826e-01]
 [  3.16973100e+00]
 [ -7.98598589e-01]
 [  6.12140134e-01]
 [  1.22784420e+00]
 [  2.49190003e+00]
 [ -3.09160774e-01]
 [  1.98384834e+00]
 [ -1.23837176e+00]
 [  2.82166870e-02]
 [  1.96268594e+00]
 [  1.06889790e+00]
 [  2.41437226e+00]
 [  1.40981658e+00]
 [  1.37687009e+00]
 [ -1.04165179e+00]
 [ -9.29022117e-01]
 [  3.15104254e-02]
 [ -1.38123774e+00]
 [  3.58373067e-02]
 [ -9.89537553e-01]
 [ -2.25565754e+00]
 [  1.49192767e+00]
 [  7.64013292e-02]
 [ -5.47425480e-01]
 [  1.72997340e+00]
 [  6.10286582e-02]
 [  4.58372883e-01]
 [  9.42362389e-02]
 [  2.12504263e+00]
 [ -6.73299695e+00]
 [  9.00326642e-01]
 [  3.04742636e+00]
 [ -3.13280539e-01]
 [ -1.04498171e+00]
 [  3.01010009e+00]
 [  5.36328771e-01]
 [ -5.15642028e+00]
 [ -1.55401393e-01]
 [ -6.87280382e-01]
 [  3.21863887e+00]
 [ -2.68517803e+00]
 [ -5.35607656e-01]
 [  3.04170387e+00]
 [ -1.18546703e+00]
 [  3.42910769e-02]
 [ -4.86258567e-01]
 [ -1.54776366e+00]
 [ -1.33785205e+00]
 [  1.23004068e+00]
 [  3.35355356e+00]
 [  2.17081077e+00]
 [  3.33864337e+00]
 [ -3.32529260e-02]
 [ -1.40822209e+00]
 [ -1.61510988e+00]
 [  4.24261214e-02]
 [ -9.76865746e-02]
 [  3.04640946e+00]
 [ -1.55109273e+00]
 [ -1.13711720e+00]
 [  1.49528005e-02]
 [ -7.86924881e-01]
 [ -1.29523628e+00]
 [ -2.65479905e-01]
 [ -8.23778324e-01]
 [ -7.72341062e-03]
 [  2.67577472e+00]
 [  3.32122769e+00]
 [ -2.87506196e-01]
 [ -5.98165997e-01]
 [  4.38890459e-02]
 [ -1.21776356e+00]
 [  2.61795617e+00]
 [ -7.20238861e-01]
 [  2.25378924e+00]
 [ -1.18344472e+00]
 [  4.45874135e-02]
 [  3.18284907e+00]
 [  3.16043389e+00]
 [  2.24472468e+00]
 [ -6.01927117e-01]
 [ -1.54481605e+00]
 [ -1.12040364e+00]
 [  3.54225378e-02]
 [ -1.20282651e+00]
 [  5.71113069e-02]
 [ -3.21809016e-01]
 [  8.17804972e-01]
 [ -3.88140871e-01]
 [  2.09152967e-01]
 [ -1.50455143e+00]
 [  1.24647644e+00]
 [ -7.72342858e-01]
 [  2.72476017e+00]
 [  3.43764189e-02]
 [ -1.43679835e+00]
 [  3.11819615e+00]
 [  1.64776755e-01]
 [  3.28445363e+00]
 [ -5.83329733e-01]
 [  5.09001699e-01]
 [ -2.07709843e-02]
 [  2.42944591e+00]
 [  1.99162987e+00]
 [  2.79308967e+00]
 [ -9.43203531e-01]
 [  4.17465028e-02]
 [ -7.31387624e-01]
 [ -9.34114998e-01]
 [ -9.82082572e-01]
 [  2.65077824e+00]
 [ -1.90523909e-02]
 [  2.90350992e-01]
 [  3.12931474e+00]
 [ -1.31560028e+00]
 [  1.22379841e-01]
 [ -5.99061873e-01]
 [ -6.95191260e+00]
 [  3.06344675e+00]
 [  3.27659846e+00]
 [  1.99923412e+00]
 [  1.28567843e-01]
 [ -1.40588302e+00]
 [ -5.99733983e-02]
 [ -8.51433702e-01]
 [  2.86257682e+00]
 [  3.59484533e-02]
 [ -1.83663438e+00]
 [ -3.73640657e+00]
 [  1.82176216e+00]
 [  1.95188486e-02]
 [  6.93870756e-01]
 [ -1.23603897e+00]
 [ -2.76907735e+00]
 [  3.02780637e+00]
 [ -9.90667695e-01]
 [  4.04208605e-01]
 [  3.34251831e+00]
 [ -6.95260058e-01]
 [ -1.12598166e+00]
 [ -1.36348960e+00]
 [  1.83451909e+00]
 [ -2.65450089e-02]
 [ -1.54928635e+00]
 [ -5.20637196e-01]
 [ -1.11243091e+00]
 [  5.39282306e-02]
 [ -4.15253706e-01]
 [ -1.70935371e+00]
 [  2.93960756e+00]
 [  1.76566604e+00]
 [ -9.34333929e-02]
 [  8.19693025e-02]
 [ -8.36093578e-01]
 [ -1.66998500e+00]
 [ -1.86347770e+00]
 [  2.23437695e+00]
 [  3.19150354e+00]
 [ -9.71143311e-01]
 [ -9.71787512e-01]
 [  2.12543103e+00]
 [  4.47821741e-02]
 [  3.31191878e+00]
 [  1.41179598e+00]
 [ -1.41744345e+00]
 [  2.19304454e+00]
 [ -2.13570272e-01]
 [  1.17533488e-01]
 [ -5.60351099e-01]
 [  1.29353653e+00]
 [ -1.69993358e+00]
 [ -5.94929283e+00]
 [  3.11876261e+00]
 [  4.09313893e-02]
 [  3.26385712e+00]
 [ -2.97805485e-01]
 [ -7.05003109e-01]
 [  1.25208597e+00]
 [ -1.25704929e+00]
 [  2.78736436e+00]
 [  1.40167802e-01]
 [  5.28914718e-02]
 [  2.59648819e+00]
 [ -7.66111799e-01]
 [  2.18503443e-01]
 [ -1.43341294e+00]
 [  1.77024577e+00]
 [  1.26349257e+00]
 [  4.40754128e-02]
 [  2.63331252e+00]
 [  3.00288053e+00]
 [ -9.33676438e+00]
 [  4.25395516e-01]
 [  2.55378136e+00]
 [  3.30958068e+00]
 [  7.97960787e-01]
 [ -1.57393186e+00]
 [ -1.46419758e+00]
 [ -1.53620492e+00]
 [  2.07078785e+00]
 [ -1.20216807e+00]
 [  5.73336982e-01]
 [  1.91597258e+00]
 [ -1.18330455e+00]
 [  1.18524836e-01]
 [  1.56132569e+00]
 [  1.67436365e+00]
 [  2.77372593e+00]
 [  3.18108461e+00]
 [  3.01185513e+00]
 [  3.27079494e+00]
 [ -1.58348891e+00]
 [  4.18624035e+00]
 [  6.08359377e-02]
 [ -6.08991039e-01]
 [ -7.52435558e-01]
 [ -5.49344199e-01]
 [  2.60749016e+00]
 [ -1.43150703e+00]
 [ -9.80119122e-01]
 [  2.92201721e-01]
 [  3.31319551e+00]
 [  2.04024798e+00]
 [ -1.37689944e+00]
 [ -1.81885881e+00]
 [ -7.54809918e-01]
 [  4.62102046e-02]
 [  1.06036451e+00]
 [  2.12919734e-01]
 [  8.07737598e-01]
 [  5.68200563e-02]
 [ -9.08327262e-01]
 [  1.36755309e+00]
 [ -2.46357578e+00]
 [ -9.24317052e-01]
 [  2.55063304e+00]
 [ -9.78211487e-01]
 [ -3.09646371e-01]
 [  2.13497175e+00]
 [  3.12144860e+00]
 [  1.43907219e+00]
 [ -1.58011784e+00]
 [  2.35387854e+00]
 [  3.12380673e+00]
 [  1.00909551e+00]
 [ -9.41735082e-01]
 [  2.62322877e-02]
 [ -1.43815677e+00]
 [  7.68709446e-01]
 [ -6.12864081e-01]
 [ -6.92742973e+00]
 [  3.06269301e+00]
 [  1.74847997e+00]
 [  6.11721809e-02]
 [  3.83276959e-02]
 [  2.16813663e+00]
 [ -7.70511531e-01]
 [  1.63101237e+00]
 [  3.36020917e+00]
 [ -8.58093644e-01]
 [  1.47651854e+00]
 [  2.06976396e+00]
 [ -9.85851301e-01]
 [  7.66056369e-01]
 [  1.41188606e+00]
 [  3.17050331e+00]
 [ -1.08236638e+00]
 [  2.63532659e+00]
 [ -7.22134184e-01]
 [ -7.25490445e+00]
 [ -1.03364841e+00]
 [  2.41315188e+00]
 [  5.86309740e-02]
 [  6.28786313e-01]
 [ -1.07956395e+00]
 [  1.44609511e+00]
 [  5.62552545e-02]
 [  1.55053253e+00]
 [  3.44232750e+00]
 [  1.40200076e+00]
 [  4.81875014e-01]
 [ -1.21362419e+00]
 [  3.50800634e-01]
 [ -3.19518248e-01]
 [  4.54824929e-02]
 [ -2.15013290e-02]
 [  7.30813386e-02]
 [  1.68912756e+00]
 [ -1.61885991e+00]
 [  5.13495798e-02]
 [  2.63120674e+00]
 [  2.62955436e+00]
 [ -1.50411045e+00]
 [ -1.34133973e+00]
 [  6.19782794e-01]
 [ -1.48331535e+00]
 [ -1.01588895e-01]
 [  7.51660853e-02]
 [ -5.21026099e+00]
 [  4.29853973e-02]
 [  4.84066552e-02]
 [  4.47933339e+00]
 [  6.01730423e-02]
 [  3.06317790e+00]
 [ -5.20493059e-01]
 [ -1.82817583e+00]
 [ -1.04632321e+00]
 [  2.96413088e+00]
 [  2.97620202e+00]
 [ -4.69258664e-03]
 [  4.58532458e-02]
 [ -7.37577316e-01]
 [  1.00890719e+00]
 [ -8.12475235e-01]
 [  1.70714592e-04]
 [  1.67132302e+00]
 [  3.22645576e+00]
 [  1.02724091e+00]
 [ -6.14777796e-01]
 [ -8.97702513e-01]
 [ -4.22899058e-01]
 [ -1.13487622e+00]
 [  6.41717580e-03]
 [  2.90636301e+00]
 [ -1.26994832e+00]
 [ -1.58758468e+00]
 [  3.15336949e+00]
 [  2.38556046e+00]
 [ -1.84084897e-01]
 [  3.16736519e+00]
 [  2.38958914e+00]
 [ -1.39681523e+00]
 [ -7.43513768e-01]
 [  3.16467852e+00]
 [ -1.72000105e+00]
 [  3.33694674e+00]
 [  2.48488668e+00]
 [  1.48769241e+00]
 [ -1.24766509e+00]
 [  2.21583365e+00]
 [  1.35865479e+00]
 [  2.19989028e-01]
 [ -1.39385051e+00]
 [  1.63178359e+00]
 [  4.43104211e-02]
 [ -9.12825164e-01]
 [  2.70691500e+00]
 [ -8.34662734e-01]
 [  2.05703981e+00]
 [  2.51743187e+00]
 [ -4.68600143e+00]
 [ -8.44863017e-01]
 [  2.09258295e+00]
 [ -1.46976960e+00]
 [ -9.87267495e-01]
 [  1.50821818e+00]
 [  4.28809391e-02]
 [  3.12913312e+00]
 [  2.70358387e+00]
 [ -1.18073186e+00]
 [  3.95480420e-02]
 [  3.79973980e-01]
 [  5.19043753e-01]
 [  4.07189651e-02]
 [  3.84869804e-01]
 [  5.34945683e-01]
 [ -1.33881791e+00]
 [  2.09736569e+00]
 [ -4.73669121e-02]
 [  5.58601136e-02]
 [  1.63215633e+00]
 [  1.37260353e-02]
 [ -2.78147780e-01]
 [  1.97901416e+00]
 [ -6.17398203e-01]
 [ -1.04554052e-01]
 [ -1.31854986e+00]
 [ -3.59967990e+00]
 [ -1.38568054e+00]
 [  4.10684779e-02]
 [ -1.84635907e-01]
 [  3.31582710e+00]
 [  2.62094409e-01]
 [ -1.70605701e+00]
 [  3.33301057e+00]
 [ -3.49829675e-01]
 [  4.83031061e-01]
 [  3.18318277e+00]
 [ -8.81402870e-01]
 [ -6.61631566e-03]
 [ -1.77190711e+00]
 [  6.37010900e-01]
 [  3.16261702e+00]
 [  2.67371592e+00]
 [ -1.52376751e+00]
 [ -3.53693001e-02]
 [  1.51749296e+00]
 [  3.00334719e+00]
 [ -2.05060262e-01]
 [  5.64195995e+00]
 [ -5.27850470e+00]
 [  5.93930898e+00]
 [ -4.65222653e-01]
 [ -1.07952887e+00]]Output bias: [ 8.92467071]