Action MLP:Hidden weights: [array([[-0.05215096, -0.04728346, -0.04706711, ..., -0.04168019,
        -0.03351907, -0.06025849],
       [ 0.56210015,  0.55992468,  0.54796709, ...,  0.54561842,
         0.59374985,  0.55131762],
       [-0.09538019, -0.1052658 , -0.07863926, ..., -0.1199838 ,
        -0.08139439, -0.10753049],
       ..., 
       [-0.01786139, -0.03549604, -0.01036562, ..., -0.0823075 ,
         0.00594572, -0.07695145],
       [-0.01770401, -0.00172925, -0.02073766, ..., -0.01096685,
         0.01248669, -0.02138669],
       [-0.01588178, -0.01575486, -0.02740971, ..., -0.00982684,
         0.01329551, -0.01977682]])]Hidden bias: [array([-0.1767636 , -0.16302137, -0.17280437, -0.16275613, -0.14462505,
       -0.18256331, -0.16746983, -0.15579373, -0.16655907, -0.13056788,
       -0.15046641, -0.14762457, -0.15973026, -0.16450741, -0.16453454,
       -0.15112199, -0.17098251, -0.13625069, -0.13789304, -0.15029354,
       -0.17177062, -0.16769895, -0.15685118, -0.16479716, -0.14733644,
       -0.15591318, -0.14968993, -0.16789716, -0.1594892 , -0.15807182,
       -0.16854301, -0.17043874, -0.15029484, -0.15778956, -0.14673531,
       -0.16021244, -0.15510213, -0.1179989 , -0.15583016, -0.1430961 ,
       -0.16623985, -0.16945155, -0.16579683, -0.16144274, -0.12406873,
       -0.14463317, -0.16340098, -0.15979135, -0.14852662, -0.16484036,
       -0.17366839, -0.16189184, -0.15063647, -0.15320097, -0.16758132,
       -0.15880493, -0.17028529, -0.15417648, -0.17787489, -0.14965149,
       -0.14452505, -0.17116607, -0.16557626, -0.14735713, -0.15747905,
       -0.15748741, -0.15824178, -0.16109689, -0.16812632, -0.14368023,
       -0.15920061, -0.17623575, -0.16198655, -0.15630366, -0.14862028,
       -0.16402115, -0.17421538, -0.16716549, -0.17784318, -0.16101841,
       -0.15063763, -0.14238514, -0.16587969, -0.15841699, -0.16302655,
       -0.1490423 , -0.15794806, -0.16265349, -0.17075263, -0.1488425 ,
       -0.15650623, -0.1456294 , -0.1591403 , -0.1513896 , -0.12660416,
       -0.15097864, -0.16924886, -0.1644782 , -0.1675728 , -0.14925414,
       -0.15153508, -0.16779143, -0.16419488, -0.14308184, -0.15293428,
       -0.16077209, -0.15901693, -0.14174787, -0.15224597, -0.16361373,
       -0.13573877, -0.16133268, -0.14443202, -0.15529559, -0.15911218,
       -0.15751778, -0.15196736, -0.14855823, -0.17244937, -0.16186342,
       -0.15964634, -0.14604499, -0.17155578, -0.15329796, -0.15497   ,
       -0.16970809, -0.1562221 , -0.1694962 , -0.16164153, -0.16049257,
       -0.17931988, -0.15355425, -0.17393921, -0.15682082, -0.14782185,
       -0.15476383, -0.14772346, -0.14926193, -0.149929  , -0.13185076,
       -0.15370096, -0.14060707, -0.16295457, -0.16397476, -0.14420897,
       -0.17016006, -0.13975161, -0.15014997, -0.14704637, -0.17027344,
       -0.17992944, -0.15696449, -0.13928094, -0.15628998, -0.13904083,
       -0.16901865, -0.13619307, -0.15216626, -0.16272016, -0.16278091,
       -0.15372055, -0.1564601 , -0.13322198, -0.1547748 , -0.1698091 ,
       -0.16018619, -0.15596664, -0.15940876, -0.16551983, -0.15907342,
       -0.18037213, -0.16020901, -0.16388496, -0.15971038, -0.16715769,
       -0.13776544, -0.15398835, -0.16323297, -0.16696586, -0.16349207,
       -0.14596761, -0.12286667, -0.17803183, -0.12560147, -0.16398465,
       -0.16489995, -0.14241144, -0.16342454, -0.13981158, -0.16759806,
       -0.15990938, -0.17736565, -0.1679305 , -0.14824765, -0.16629155,
       -0.18194942, -0.15624216, -0.16705323, -0.14863016, -0.1567088 ,
       -0.1626331 , -0.17950588, -0.1631909 , -0.176392  , -0.16339068,
       -0.16579627, -0.15620029, -0.16658874, -0.15953292, -0.16900584,
       -0.14987625, -0.17532351, -0.16253047, -0.18043133, -0.14862339,
       -0.15126584, -0.16070165, -0.15299821, -0.1479388 , -0.15849271,
       -0.15369427, -0.13846803, -0.16504683, -0.15927988, -0.17405748,
       -0.1668197 , -0.16310728, -0.17577331, -0.15846936, -0.15252508,
       -0.14148564, -0.14945061, -0.13561022, -0.14125073, -0.15330739,
       -0.12737929, -0.13890874, -0.15302576, -0.18199844, -0.14913605,
       -0.1515245 , -0.14841715, -0.13674394, -0.16448393, -0.1317646 ,
       -0.12543843, -0.1295633 , -0.17801336, -0.15563907, -0.17348751,
       -0.17031966, -0.13237474, -0.14562763, -0.16151921, -0.15828642,
       -0.16983819, -0.16790692, -0.15507739, -0.14312893, -0.17830071,
       -0.14942953, -0.13694912, -0.14967596, -0.1842706 , -0.17286102,
       -0.17146403, -0.15813504, -0.14115226, -0.14342832, -0.15068246,
       -0.1346474 , -0.13882307, -0.14370642, -0.16148178, -0.17156188,
       -0.13287228, -0.17118142, -0.16821203, -0.15225272, -0.17686636,
       -0.16023649, -0.13188031, -0.17987729, -0.17090919, -0.15319811,
       -0.1536153 , -0.14672106, -0.12642372, -0.17622175, -0.16514622,
       -0.13557233, -0.14841976, -0.15269507, -0.15653776, -0.12973005,
       -0.17897316, -0.15393549, -0.1530462 , -0.16330157, -0.16034543,
       -0.1750631 , -0.17572297, -0.18019006, -0.14965618, -0.15585478,
       -0.12423095, -0.14671595, -0.14279308, -0.14656058, -0.1487816 ,
       -0.14138051, -0.15702462, -0.16051967, -0.16811644, -0.13826681,
       -0.16296291, -0.14478429, -0.16154934, -0.14836753, -0.14205103,
       -0.1485345 , -0.15811562, -0.15781566, -0.13343285, -0.16141671,
       -0.13632748, -0.16380765, -0.16723287, -0.1684412 , -0.17744796,
       -0.15393799, -0.12809669, -0.15811571, -0.14577436, -0.16169661,
       -0.13537025, -0.14450282, -0.16094564, -0.13625925, -0.16227661,
       -0.14766301, -0.15946662, -0.14312301, -0.16956604, -0.14161045,
       -0.16287327, -0.15595133, -0.13284342, -0.16279958, -0.16049364,
       -0.16684816, -0.17205975, -0.16241956, -0.15290504, -0.13339336,
       -0.16865977, -0.13750029, -0.16032223, -0.13519684, -0.16514913,
       -0.16582737, -0.15366217, -0.14649279, -0.1759529 , -0.14444158,
       -0.18254315, -0.14248456, -0.15046863, -0.15982515, -0.16937831,
       -0.12718822, -0.16532644, -0.13055669, -0.15943904, -0.16325449,
       -0.16756713, -0.16432504, -0.11320921, -0.16077962, -0.16013686,
       -0.16480994, -0.14358233, -0.15923966, -0.16652695, -0.15558228,
       -0.16494035, -0.14049629, -0.1576596 , -0.15709823, -0.14180468,
       -0.15393102, -0.17166042, -0.15393242, -0.13361371, -0.16328701,
       -0.14969095, -0.16944355, -0.14920586, -0.16245219, -0.12613922,
       -0.16335121, -0.15109066, -0.15912843, -0.14900064, -0.15784522,
       -0.13935841, -0.15146347, -0.16986651, -0.16203393, -0.14198225,
       -0.15113238, -0.14375978, -0.16542766, -0.16866381, -0.15480343,
       -0.16434775, -0.12625093, -0.15847085, -0.16302026, -0.16579137,
       -0.15643691, -0.17013693, -0.14230812, -0.15844309, -0.15957651,
       -0.15952502, -0.15781074, -0.15127333, -0.14269754, -0.14060348,
       -0.16294765, -0.1695484 , -0.15455365, -0.18462692, -0.11440536,
       -0.16610642, -0.16944889, -0.13813847, -0.15719701, -0.14271558,
       -0.153849  , -0.16877602, -0.18508246, -0.15482656, -0.15107722,
       -0.17097753, -0.16603572, -0.11471059, -0.15157293, -0.12721227,
       -0.13809984, -0.15659373, -0.13962181, -0.16095167, -0.14654766,
       -0.13866519, -0.164102  , -0.16091017, -0.14971734, -0.15230658,
       -0.15899639, -0.1708699 , -0.15123921, -0.15060139, -0.1476869 ,
       -0.17402802, -0.17129769, -0.16818569, -0.15464412, -0.15888011,
       -0.14380047, -0.15416258, -0.13471305, -0.13794486, -0.13083016,
       -0.17063479, -0.16950537, -0.13960193, -0.15433762, -0.1714392 ,
       -0.16252896, -0.1614363 , -0.15879392, -0.1624064 , -0.14836023,
       -0.17273318, -0.1334301 , -0.16973026, -0.16820964, -0.16481566,
       -0.17150361, -0.15314503, -0.17200937, -0.1523942 , -0.14859284,
       -0.13966508, -0.1715609 , -0.14555369, -0.1553155 , -0.14052103])]Output weights: [[  1.77305699e-02   3.17198685e-02]
 [  1.55721337e-02   1.41280310e-02]
 [  5.92656247e-02   4.86671488e-02]
 [  2.00667020e-02  -4.57686819e-03]
 [ -2.67372114e-02  -3.68321730e-02]
 [ -7.34166742e-02   9.02156089e-02]
 [ -7.07391338e-02   3.82248070e-02]
 [  3.01677403e-02  -3.69052748e-02]
 [  3.06337778e-02   1.15050222e-02]
 [ -3.94276782e-02  -8.94566452e-02]
 [  6.78997423e-02  -2.83967920e-02]
 [  3.41706213e-02  -2.87391313e-02]
 [  7.09956696e-02   4.90124395e-02]
 [  1.72312132e-02  -8.56097922e-03]
 [ -1.15987255e-01   3.06382497e-03]
 [  3.10799655e-02  -3.66466588e-02]
 [ -3.26850179e-02   5.14871694e-02]
 [  4.53307469e-02  -4.60220900e-02]
 [ -1.77352801e-02  -8.36001729e-02]
 [ -3.98362373e-02   2.07674639e-02]
 [  6.67253414e-02   1.48259927e-03]
 [ -1.31053285e-02   6.45475977e-02]
 [ -6.06824264e-02   4.53350103e-02]
 [ -3.58917768e-02  -1.70856997e-02]
 [  4.59141022e-02  -6.98119235e-02]
 [ -1.87422444e-02   5.52824372e-02]
 [  1.09753101e-01  -5.95751112e-03]
 [ -9.32099324e-03   3.45458415e-02]
 [ -3.04184310e-02  -2.45007704e-02]
 [  7.20116065e-02   5.47771576e-02]
 [  6.68720493e-02   6.58100259e-02]
 [ -3.88771986e-02   3.57539337e-02]
 [ -8.16678869e-02   2.60780618e-02]
 [ -4.26132391e-03  -4.50643258e-02]
 [  4.69850856e-02  -2.58061973e-02]
 [ -9.27831654e-02   4.04798277e-02]
 [  4.48765062e-02  -6.62301736e-03]
 [ -2.46157055e-03  -1.27642046e-01]
 [ -2.87432196e-02  -5.60323252e-03]
 [  1.07452221e-01  -7.94044706e-02]
 [ -8.78415708e-02   8.44920227e-03]
 [  9.10622616e-02   5.76541909e-02]
 [ -3.17268835e-02   1.19999705e-02]
 [  9.20068174e-02  -7.83636260e-05]
 [ -8.16907073e-03  -1.06939522e-01]
 [  2.88191085e-03  -2.28192495e-02]
 [ -1.44781328e-02  -1.25912032e-02]
 [ -7.39837512e-02   2.23548939e-02]
 [  2.86041116e-02  -2.21865950e-02]
 [  1.05461385e-01   2.00530796e-02]
 [ -4.20923877e-02   4.33494632e-02]
 [  5.95954999e-02  -3.65503016e-02]
 [  8.41242410e-03  -2.75117297e-02]
 [  5.98808388e-02  -1.66771720e-02]
 [ -4.88966115e-02   7.05203603e-03]
 [  1.68751949e-02   1.18150855e-02]
 [  7.17505564e-02   7.12147787e-02]
 [  1.60434730e-02   1.05028847e-02]
 [ -1.18322426e-01   3.82078095e-02]
 [ -1.14931428e-01  -2.75413417e-02]
 [ -7.53520588e-02  -7.66034295e-02]
 [  9.80861418e-02   4.14098686e-02]
 [ -5.58339982e-02   3.96278831e-02]
 [ -8.80238004e-02   3.51669747e-02]
 [ -9.24625694e-03  -1.84922232e-02]
 [  3.47586576e-02   2.17841669e-02]
 [  6.62371320e-02   4.31358546e-02]
 [ -3.13443047e-02   5.18734300e-02]
 [  1.34687717e-02   2.15901647e-02]
 [ -7.10581420e-02  -7.51609108e-02]
 [  8.41442632e-02   3.27461476e-02]
 [  8.28946293e-02   6.41336786e-02]
 [  5.59707196e-02   1.37302775e-02]
 [  1.55895999e-02  -4.36380497e-02]
 [  2.17568892e-03  -3.33580893e-02]
 [  5.64076287e-02   3.11704958e-02]
 [  6.70803654e-02   1.00516896e-01]
 [  1.26415241e-01   4.52471340e-02]
 [ -5.82265548e-03   7.06247130e-02]
 [  2.98014328e-02   5.22962156e-03]
 [ -1.93467062e-02   4.71499137e-03]
 [ -4.11885121e-02  -6.29597962e-02]
 [ -2.30121200e-02   4.06779265e-02]
 [ -1.06979914e-02  -2.12260889e-02]
 [  1.10017240e-02   2.08597901e-03]
 [ -3.01514098e-02  -4.83477393e-02]
 [ -1.06150896e-02   5.43379652e-03]
 [ -1.17527741e-01  -5.02604506e-03]
 [ -3.42446550e-02   6.67072158e-03]
 [ -5.40976861e-02  -9.97698882e-03]
 [ -8.57140230e-02   6.08526872e-03]
 [ -6.63506226e-02   3.67143678e-03]
 [ -4.95332564e-02  -2.96312899e-02]
 [  3.89036875e-02  -3.95136082e-02]
 [ -2.99892028e-02  -6.63509023e-02]
 [ -1.36958444e-02  -2.98199852e-02]
 [ -4.22388893e-02   5.08043489e-02]
 [  3.04346002e-02  -3.09869849e-03]
 [  6.05239520e-02   7.53714874e-02]
 [ -6.98376894e-03  -2.53145983e-02]
 [  7.21981169e-02   2.80672507e-03]
 [ -7.34694957e-02   2.94280701e-02]
 [ -1.33572554e-01   5.02052881e-02]
 [  1.03358298e-02  -3.28120906e-02]
 [  1.14571074e-01   6.28518724e-02]
 [ -1.16948443e-01  -4.49080815e-03]
 [ -4.09499792e-02   4.62636932e-02]
 [  1.28177959e-01  -6.83254522e-02]
 [ -2.87548850e-02   1.86458647e-02]
 [  1.16176328e-01  -2.58381375e-02]
 [  1.20893968e-02  -8.31451933e-02]
 [ -2.48832309e-02   3.37720029e-02]
 [  3.31976734e-02  -6.17981455e-02]
 [ -1.19143007e-01   4.61267606e-02]
 [  5.41983540e-03   3.15496392e-02]
 [ -3.55731716e-02  -4.92080548e-02]
 [  1.02207966e-01  -1.51509360e-02]
 [  1.41810320e-04  -3.99395542e-03]
 [  5.65275838e-02   8.59927101e-02]
 [ -1.09702012e-01   4.94163579e-02]
 [  5.74325451e-02  -5.48500647e-03]
 [  4.80369970e-02   1.10516379e-02]
 [ -2.87027097e-02   4.92966501e-02]
 [  6.60992554e-02  -4.86008150e-03]
 [ -2.07910472e-02   6.25731082e-02]
 [ -5.37864519e-02   9.38385859e-02]
 [  8.35766098e-02  -3.11026835e-02]
 [ -6.97494450e-02   8.49933416e-02]
 [ -3.67913875e-02   9.84024804e-03]
 [  7.88993152e-02   3.63192394e-02]
 [ -2.41720824e-02   8.24067512e-02]
 [  6.01941285e-02  -2.30783058e-02]
 [  5.05852080e-02   7.85120890e-02]
 [ -1.65807715e-02   5.74328327e-03]
 [  1.19708886e-02   4.66058492e-03]
 [  5.76746803e-02  -2.26579484e-02]
 [  3.06175996e-02   3.43976016e-02]
 [  8.60143997e-03  -6.74414126e-02]
 [ -8.97589316e-03  -1.12620467e-02]
 [ -3.12882750e-02  -8.81727269e-02]
 [ -6.63031679e-02  -6.69657905e-02]
 [  6.69127692e-02  -3.89987490e-02]
 [  4.99760179e-02  -4.72947464e-02]
 [ -1.17468830e-01   5.63977153e-02]
 [ -1.01721521e-01  -1.04572179e-01]
 [ -6.10500597e-02   1.83807690e-02]
 [  1.45975325e-02  -1.02099188e-01]
 [  6.89761050e-03  -2.55720417e-02]
 [  6.51300251e-02  -4.62333433e-02]
 [ -5.63912143e-02  -6.25822141e-03]
 [  6.40919481e-02   5.15672033e-02]
 [  3.67677057e-02   1.40318369e-02]
 [  1.09303139e-01  -1.11016368e-01]
 [ -5.44907478e-02  -3.61602311e-02]
 [  3.01013430e-02  -5.49038383e-03]
 [ -4.97004962e-02   6.36087729e-02]
 [  5.25363777e-03  -5.13996403e-02]
 [ -4.98875715e-04   7.58884048e-03]
 [ -4.67191727e-02  -1.29016218e-02]
 [  2.83948908e-02   2.40292043e-02]
 [  6.96461924e-02  -5.51294423e-02]
 [ -5.96633273e-02   1.07830098e-02]
 [ -1.19179443e-02  -2.53365810e-02]
 [  2.58320112e-02  -3.43608041e-03]
 [  1.63394898e-02   8.14480283e-02]
 [ -3.65023851e-03   1.98040508e-02]
 [  8.39061294e-02  -3.04990651e-02]
 [ -1.74550816e-02   3.67376602e-02]
 [  3.23600913e-02   2.96041835e-02]
 [ -2.77498274e-03   7.06989214e-02]
 [  1.05517804e-01   1.21400000e-01]
 [ -8.36182428e-02  -1.07862256e-02]
 [ -5.75240339e-02   6.97726922e-02]
 [ -7.80776774e-02   8.38772950e-02]
 [ -1.11941839e-01   4.13086323e-02]
 [  5.51776766e-02  -5.47525388e-02]
 [ -1.26172343e-02  -3.90146737e-02]
 [ -5.85270904e-03  -5.12122672e-02]
 [  1.16652579e-01  -1.51650745e-03]
 [ -5.76318131e-02   3.25709637e-02]
 [  7.36314756e-02  -7.85358780e-02]
 [  3.17047792e-03  -1.26795690e-01]
 [  1.54492674e-01   1.13817213e-01]
 [ -7.11225855e-02  -1.10252831e-01]
 [ -1.02975148e-02   3.59366654e-02]
 [  7.16306588e-02   3.38583854e-02]
 [  8.96607267e-02  -6.08679104e-02]
 [  6.41272851e-02   5.56899063e-02]
 [ -4.41984773e-02  -6.16174128e-02]
 [  2.27849049e-02   1.44158129e-02]
 [ -7.33112870e-03  -3.98207739e-03]
 [  5.53706089e-02   8.89360475e-02]
 [  1.03908845e-02   7.79345264e-02]
 [  5.45686826e-02  -4.78175979e-02]
 [  1.00681179e-01   5.52200175e-02]
 [ -3.80892890e-02   7.94548373e-02]
 [  3.72210839e-02   4.85706572e-03]
 [ -8.59406213e-02  -6.91068370e-03]
 [  2.55714746e-02   1.16999580e-03]
 [  1.32792781e-01  -3.08609753e-02]
 [ -4.48922532e-02   2.87176765e-02]
 [ -5.17653021e-03   2.19171383e-02]
 [ -4.51065242e-02  -5.68736667e-02]
 [  1.72903970e-02   4.57537648e-02]
 [  9.11234161e-03  -2.71450667e-02]
 [  4.84730534e-02   2.34950463e-02]
 [  1.25614047e-02  -2.05030920e-03]
 [  2.28904240e-02   4.58235896e-02]
 [  1.83669662e-02   5.36020792e-02]
 [ -8.56060099e-03   8.90724231e-02]
 [ -1.22989186e-02  -8.66817746e-02]
 [  9.64517163e-03   5.26423113e-02]
 [ -2.59374184e-02  -2.64851777e-02]
 [  3.54564579e-02   9.43305287e-02]
 [ -1.81173478e-02   4.13586597e-02]
 [ -6.20780060e-02   2.64434400e-02]
 [  8.52696531e-02   2.06985273e-02]
 [ -2.92569886e-02   1.56766409e-02]
 [ -6.70551935e-02   3.57423422e-02]
 [ -6.16185111e-02   2.07787741e-02]
 [ -9.52819331e-03  -3.99581351e-02]
 [  4.37776584e-02  -3.39140578e-02]
 [ -8.08862908e-02   1.86004831e-02]
 [ -6.22923230e-02   2.30757419e-02]
 [ -6.40810219e-02   1.01277645e-01]
 [ -4.79898472e-02   3.75290171e-02]
 [ -5.56491299e-03   2.55716147e-03]
 [  5.34499396e-02   3.16101599e-02]
 [  6.01511785e-02   3.16729871e-02]
 [  1.55031496e-02  -7.95662216e-02]
 [ -2.41402352e-02  -2.25088793e-02]
 [ -1.89725349e-02  -1.63152511e-02]
 [  3.27274965e-02  -1.03105556e-01]
 [ -8.23590211e-02  -7.20561886e-02]
 [ -9.20999226e-03   3.64966893e-03]
 [ -9.39145153e-02  -7.69279427e-02]
 [  1.77907243e-02  -4.14408727e-02]
 [ -1.22155187e-02  -2.23362241e-02]
 [ -3.39927917e-02   1.36820737e-01]
 [ -8.05222095e-02  -1.31334089e-02]
 [  1.80656553e-02  -8.53333525e-02]
 [ -4.03012105e-02  -2.21056101e-02]
 [  2.43009173e-02  -6.70174332e-02]
 [  8.08144252e-02  -8.15675601e-04]
 [ -3.94946807e-02  -1.05294616e-01]
 [  5.83972323e-02  -7.87320218e-02]
 [ -9.61208149e-02  -5.72778639e-02]
 [  1.83644558e-02   9.93324746e-02]
 [  5.17652456e-02  -2.39141282e-02]
 [  6.12847293e-02   3.69033947e-02]
 [  1.41858653e-01   8.06730693e-02]
 [ -2.19230923e-02  -6.96640427e-02]
 [  4.22398630e-03  -3.69658772e-02]
 [  7.96203425e-02   4.36931806e-02]
 [ -1.95206573e-02  -3.42878156e-03]
 [  2.84888726e-03   6.70249200e-02]
 [ -6.11977965e-02   6.20608040e-02]
 [  3.04181611e-02  -1.17538871e-02]
 [ -1.85425341e-02  -2.93619486e-02]
 [ -9.93737478e-02   6.01683253e-02]
 [ -1.01682403e-02  -1.86982753e-02]
 [ -1.12134720e-02  -5.36479794e-02]
 [  4.96808721e-03   1.27693759e-02]
 [ -5.33944742e-02   6.93755246e-02]
 [  5.29199492e-02   1.29733875e-01]
 [ -9.26116490e-02   4.18800936e-02]
 [ -8.44166988e-03  -4.15368002e-02]
 [  1.50884494e-02  -5.73805435e-02]
 [  2.84596208e-02  -6.73475463e-02]
 [  2.22567108e-02  -6.75966544e-04]
 [  4.60478221e-02  -1.39393093e-02]
 [ -7.99155424e-02  -5.83004317e-02]
 [  4.92625905e-02  -1.56348067e-03]
 [ -2.98312585e-03  -7.49836563e-03]
 [ -4.28515667e-03   8.67564038e-02]
 [ -5.42146488e-02  -1.15664219e-01]
 [ -9.34555561e-02   3.37155551e-02]
 [ -5.93214728e-02   2.25060105e-02]
 [ -3.20359210e-02  -6.17968147e-03]
 [ -4.55723616e-02   6.38680625e-02]
 [ -2.42144559e-02   1.23291600e-02]
 [  2.62328622e-03  -4.79579960e-02]
 [  5.82979754e-02   7.42861126e-02]
 [  3.41130039e-02   7.21663548e-02]
 [ -5.10967765e-02   4.39602287e-02]
 [ -2.31079758e-02  -1.65238877e-02]
 [  1.03482305e-01  -4.23431832e-02]
 [ -3.10371075e-02  -1.07345816e-01]
 [ -1.65909452e-02   4.97036656e-02]
 [ -2.73622444e-02   4.71844132e-02]
 [ -9.34221512e-02  -6.49909384e-02]
 [  1.40619109e-02  -3.12700220e-02]
 [  3.60906653e-02  -4.04643852e-03]
 [  9.15023375e-03  -1.80413842e-02]
 [ -3.69910946e-02  -5.45944706e-02]
 [  3.73440614e-02   9.02877579e-02]
 [  1.01352484e-01   1.29311720e-02]
 [ -8.16254258e-02  -4.75597597e-02]
 [ -9.98057423e-02   7.50026656e-03]
 [ -2.53206145e-02  -6.39287492e-02]
 [  2.34258247e-02   9.76179451e-03]
 [ -4.80325675e-02   9.09514179e-02]
 [  5.22006672e-02   4.77153786e-02]
 [ -1.43545972e-02   2.57423323e-03]
 [  2.74443219e-02   6.66399383e-02]
 [ -1.92082798e-02  -8.21358746e-02]
 [ -6.46500926e-02  -2.95612554e-02]
 [ -7.43871708e-02  -7.93422442e-02]
 [  7.68592723e-02  -2.96245332e-02]
 [ -9.89855238e-02  -6.00967942e-04]
 [  8.57783350e-04  -3.66564239e-02]
 [  6.91638567e-02   2.58866977e-03]
 [ -1.36039960e-02   1.05019230e-02]
 [  4.45624862e-03   4.77873350e-03]
 [  1.01830614e-01  -5.96682580e-02]
 [  1.10872086e-02   3.97625193e-02]
 [  3.26955024e-02  -8.30025444e-02]
 [  1.04566118e-02  -4.65127940e-02]
 [ -5.87133875e-02  -6.03046129e-02]
 [ -4.80316592e-02  -2.60056515e-02]
 [ -7.07740459e-03  -2.78276855e-02]
 [  5.05790851e-02  -3.06224072e-02]
 [ -4.86151016e-02   3.37052942e-03]
 [ -1.05507628e-02  -6.37162585e-02]
 [  7.50795441e-02   1.55632944e-02]
 [ -5.12438340e-02  -6.02438970e-02]
 [  8.61337442e-02   1.48684306e-02]
 [ -2.44429036e-02   1.39063890e-02]
 [  1.09288763e-01   1.19272796e-02]
 [  8.86082359e-02   9.22265768e-02]
 [  5.41971655e-02  -2.77342438e-02]
 [ -1.37979304e-03  -7.20466551e-02]
 [ -6.73300600e-02  -1.04918578e-02]
 [  3.48363763e-02  -2.03801202e-02]
 [  6.18554089e-03   5.44016062e-02]
 [  2.76261113e-02  -3.91093869e-02]
 [ -7.80385371e-02  -3.29326554e-02]
 [ -3.07287082e-02   3.54280261e-03]
 [  1.54919388e-02  -8.90645033e-02]
 [  3.00079072e-02   8.51505587e-02]
 [ -3.85191581e-02   9.97439748e-03]
 [  4.26136661e-02  -1.71931850e-02]
 [  1.84506062e-03  -5.76924013e-02]
 [ -2.18125897e-02   3.15241671e-02]
 [ -4.39175616e-02  -1.74097781e-02]
 [  1.25490535e-01   7.91134175e-03]
 [ -2.96344676e-02  -2.32467306e-02]
 [ -4.96465901e-02  -5.10530501e-02]
 [ -1.08352907e-02   3.97863736e-04]
 [ -2.92047450e-03   3.43690850e-02]
 [ -3.29666765e-02   5.08396760e-02]
 [ -1.11242182e-02   4.97459334e-02]
 [  3.86506203e-02   5.60389134e-03]
 [ -5.17887346e-02   2.38236951e-02]
 [ -6.12931325e-02  -5.61045696e-02]
 [ -1.26459084e-01   8.20783148e-02]
 [  1.09995791e-01  -9.06429911e-02]
 [ -1.59593565e-02  -3.53082261e-02]
 [ -2.09993336e-02  -1.07150914e-01]
 [ -9.42507167e-02   5.68992400e-02]
 [ -9.86627553e-02  -1.16492299e-03]
 [ -9.47699774e-02  -1.70968603e-02]
 [  2.53022632e-02  -7.11465478e-02]
 [ -9.17372114e-02   4.43053794e-02]
 [ -9.13266154e-02  -3.73807671e-02]
 [  6.58908464e-02   7.40908442e-02]
 [  2.04189604e-02  -9.21069528e-02]
 [  2.85989239e-02  -2.05192090e-02]
 [  2.47834003e-02   8.19246216e-04]
 [ -2.90151501e-02   9.83365851e-02]
 [  1.71367514e-03  -3.11083068e-02]
 [  8.47168952e-02   9.79938627e-03]
 [  2.94356706e-02  -1.15434596e-01]
 [  2.34558455e-02  -2.88326255e-02]
 [  1.47227456e-02  -5.00127806e-03]
 [ -6.75609929e-03   4.83515713e-02]
 [ -1.42690577e-02   2.39037006e-02]
 [ -4.56314093e-02  -9.28696426e-02]
 [  8.26928784e-02   5.41053540e-03]
 [  4.62672501e-02   9.44464510e-03]
 [ -3.75185951e-02   5.68061566e-02]
 [ -2.13764381e-02  -5.01224993e-02]
 [  1.02863362e-02   2.51798998e-02]
 [  6.95166919e-02  -4.27764231e-02]
 [  9.84591938e-02  -2.97796505e-02]
 [ -1.10589214e-01   1.82897144e-02]
 [  4.56159780e-02  -3.56300630e-02]
 [ -9.34500159e-02   4.71923858e-02]
 [ -1.12296029e-01   4.81437037e-02]
 [ -2.26538045e-02  -4.70500509e-02]
 [ -3.16008776e-02  -4.04794514e-02]
 [  1.60358044e-02   8.89619783e-02]
 [ -1.13817782e-01   1.77057158e-02]
 [ -3.00165424e-02  -9.73618087e-02]
 [  7.80353739e-02   2.29808857e-02]
 [  3.42643283e-02  -4.19929478e-02]
 [  5.19455184e-02   2.85077914e-02]
 [ -1.40746740e-02  -2.99075507e-02]
 [ -4.00248798e-02   9.93428798e-03]
 [  7.40421355e-02  -1.02575810e-01]
 [ -1.11770779e-02   3.30946460e-02]
 [  1.95800584e-02  -3.40457014e-02]
 [  1.29705056e-02  -1.65518463e-03]
 [  6.04561555e-02  -1.43053085e-02]
 [ -1.98185724e-02  -8.64723764e-03]
 [ -2.37792100e-02  -4.20453272e-02]
 [  3.39388006e-02  -3.26510207e-02]
 [  2.09435914e-02  -2.27817858e-02]
 [  1.52496853e-02  -2.26712653e-02]
 [ -3.33955287e-02  -6.54371963e-02]
 [ -1.24642613e-02  -1.79874666e-02]
 [  1.73251505e-02  -7.63519702e-02]
 [ -1.81906416e-02   4.43734945e-02]
 [  7.88424095e-02   2.68150647e-02]
 [  1.25419121e-02  -1.46116454e-02]
 [  1.22699834e-01   6.33274483e-02]
 [ -5.37586869e-02  -9.53925126e-02]
 [  4.86163062e-02  -1.94218035e-02]
 [ -5.38837151e-03   5.12544680e-02]
 [ -3.02784210e-02  -2.53090201e-02]
 [ -3.58856891e-02  -4.81020995e-03]
 [ -4.53332528e-02   2.60718029e-03]
 [  7.34504108e-02  -6.29759046e-02]
 [ -3.31396939e-02  -5.27469297e-02]
 [  7.06098891e-02   4.73015796e-02]
 [ -9.29211681e-02  -1.45173954e-02]
 [ -1.46618733e-02   3.26983841e-02]
 [ -3.05075408e-02   3.37678909e-02]
 [ -2.60928473e-02  -3.11915719e-02]
 [  1.02724276e-01  -8.11127492e-02]
 [  2.86459389e-02   9.24691079e-02]
 [  2.27060780e-03   4.96197474e-02]
 [ -1.14387244e-01  -4.54687006e-02]
 [  2.00974298e-02   7.16112029e-02]
 [ -5.59236801e-03  -1.50708093e-01]
 [  5.22210888e-03  -8.18102544e-03]
 [  2.67763157e-02   1.83035793e-02]
 [  3.29926869e-02  -7.33523972e-02]
 [ -9.72028239e-02   1.53625450e-02]
 [ -7.05659336e-02  -1.22322722e-02]
 [ -6.10893574e-02   4.55742590e-02]
 [ -3.41286520e-03   1.96613759e-03]
 [ -1.12718291e-02   1.06875731e-01]
 [  4.52932517e-02   7.52533434e-03]
 [  4.83530184e-02   3.48995209e-02]
 [ -9.82560095e-03   5.20939795e-02]
 [ -1.18091711e-02   7.53528794e-02]
 [  1.88899887e-05  -1.06667878e-01]
 [  1.25874032e-01  -1.65338534e-02]
 [ -2.87872849e-02  -1.15325869e-01]
 [ -3.37338490e-02  -9.38961473e-02]
 [  1.01115409e-01   1.20002664e-03]
 [  7.26179638e-02  -5.13678076e-02]
 [  5.04363000e-02   7.90998423e-02]
 [  6.35639973e-02   1.49858327e-04]
 [  4.33212256e-02  -2.34381934e-02]
 [  1.11510376e-02   2.35120940e-03]
 [ -6.90555892e-02  -3.22486695e-03]
 [ -7.32136237e-02  -1.55482754e-02]
 [  1.06358608e-01  -4.76739039e-02]
 [  1.20826551e-02  -1.66312053e-02]
 [ -2.05514299e-02   7.27748815e-02]
 [  8.19021302e-02  -2.37940584e-02]
 [ -1.71421682e-02   1.21699582e-02]
 [  8.19404425e-03   3.30998820e-02]
 [ -5.16058289e-02   8.30972901e-02]
 [  1.14333030e-02   4.69628711e-02]
 [ -3.16865139e-02   4.70235539e-02]
 [ -1.34014404e-01  -6.25215039e-03]
 [ -1.80593642e-02  -5.28912561e-02]
 [ -5.05248861e-02  -2.59933232e-02]
 [  3.09730776e-02  -1.13920183e-02]
 [  6.20484363e-03  -8.85529901e-02]
 [ -7.74379540e-02  -5.06579409e-02]
 [ -8.71202410e-03  -5.64350003e-02]
 [  2.03921767e-02   4.28472163e-02]
 [ -8.97058154e-02   5.24785866e-02]
 [ -1.00689613e-01  -8.83354060e-02]
 [  3.27105448e-02   3.37496288e-02]
 [  5.12768721e-02   3.18375149e-02]
 [  1.57988512e-02  -8.13177915e-03]
 [ -2.77056007e-02  -1.10293403e-02]
 [  2.63295842e-03   4.10825043e-04]
 [  5.24578694e-02   1.27674403e-02]
 [  7.64866914e-02  -2.73751219e-02]
 [  8.35292388e-02   5.71457737e-02]
 [  3.11056239e-02  -2.84344411e-02]
 [ -3.41524591e-02   1.08059502e-02]
 [  8.19087839e-02   3.43072147e-02]
 [  2.75118050e-03   7.51267981e-02]
 [ -2.08063586e-02   1.10536394e-01]
 [ -4.63597751e-03  -2.52039462e-02]
 [  1.43966024e-02   1.67137521e-02]
 [  3.60267516e-02   1.58329140e-02]
 [ -4.70183076e-02   3.26076388e-02]
 [  8.76550844e-02  -1.48089695e-02]
 [  3.96132127e-02   7.78010773e-02]
 [  2.63792623e-02  -4.42458637e-02]
 [ -5.23885726e-02   5.83270784e-02]
 [  3.67015896e-02  -3.23499735e-02]]Output bias: [ 0.22318304  0.16748436]
Value MLP:Hidden weights: [array([[ -2.10890937e-01,   9.27804870e-01,   1.09410936e+00, ...,
         -4.99384243e-02,   1.08921854e+00,   1.08144551e+00],
       [ -3.75685902e-01,  -3.43298546e-01,  -2.55687766e-01, ...,
         -1.29930972e+01,  -2.76414164e-01,  -2.52472986e-01],
       [ -1.16095390e+00,   7.53417582e-01,   6.05506155e-01, ...,
          1.42330087e-01,   6.48795348e-01,   5.96256109e-01],
       ..., 
       [ -2.62611456e-01,  -2.68083095e+00,  -3.01871147e+00, ...,
         -1.73068876e-01,  -3.56281315e+00,  -3.19333334e+00],
       [  1.08607416e-02,   2.70195078e+00,   3.06188362e+00, ...,
          1.22576242e+00,   3.50940070e+00,   3.16947983e+00],
       [  8.84458537e-03,   1.25249420e+00,   1.38875151e+00, ...,
          1.65712250e+00,   1.81746938e+00,   1.54188138e+00]])]Hidden bias: [array([  1.63859745e-02,   3.85801379e+00,   3.81357742e+00,
         3.86553613e+00,   3.74923258e+00,   4.28164451e+00,
         2.09797819e-01,   3.89511604e+00,   5.71924753e+00,
         5.08736113e+00,   5.13561257e+00,   3.17868527e+00,
         3.25405291e+00,   4.44735218e+00,   3.50648341e+00,
         1.83734149e-01,   4.52129359e+00,   3.78853195e+00,
         5.81578823e+00,   3.28995682e+00,   5.43090196e+00,
         3.96754546e+00,   7.73723635e-02,   5.81946184e+00,
         9.49180013e-02,   5.51933850e+00,   5.58349573e+00,
         5.52881693e+00,   5.21963792e+00,   4.45274723e+00,
         4.79027882e+00,   5.60851334e+00,  -3.17242207e+00,
        -1.88685473e+00,   5.22953010e+00,   3.78130078e+00,
         4.35476199e+00,   4.95472089e+00,   4.14329583e+00,
        -5.60560219e+00,   5.82216968e+00,   3.54918624e+00,
         5.32706965e+00,   5.27425841e+00,   1.31254470e-01,
         5.72773407e+00,   5.58682358e+00,   5.79370983e+00,
         4.58125603e+00,  -3.17414612e+00,  -5.10915182e+00,
         5.12238830e+00,   5.01254210e+00,   5.71167105e+00,
         3.79951023e+00,   4.58463032e+00,   5.70085799e+00,
         4.60856296e+00,   5.48588247e+00,   4.33689212e+00,
         5.85523565e+00,  -3.61551713e+00,   5.16162989e+00,
         4.43745487e+00,   5.34148535e+00,   1.63490861e-01,
        -3.00383217e+00,   5.79086530e+00,   4.50864017e+00,
         5.76848514e+00,   5.45060612e+00,   5.30547722e+00,
         2.28769468e-01,   5.82428708e+00,   5.69664636e+00,
         5.74805217e+00,   5.14231835e+00,   5.26879307e+00,
         4.10187056e+00,   5.71318184e-01,   4.36804331e+00,
        -1.35803854e+00,   3.22382500e+00,   5.85317050e+00,
         5.33037610e+00,   3.59295892e+00,   4.88746085e+00,
         5.04088040e+00,   3.47282296e+00,   3.27225324e+00,
         4.39917661e+00,  -3.58073346e+00,   5.72977537e+00,
         1.92062081e-01,  -5.79561341e-01,   5.71814014e+00,
         4.37437581e+00,   4.50797599e+00,   5.67569292e+00,
         5.83167391e+00,   5.30072364e+00,   5.02753530e+00,
         5.69202301e+00,   3.92590352e+00,   1.51310468e-01,
         5.69150067e+00,   5.81984893e+00,   5.35904433e+00,
         5.86102687e+00,   5.84783363e+00,   4.21414421e+00,
         4.34853418e+00,   3.38240852e-01,   3.68260955e+00,
         1.97347088e-01,   4.27993820e+00,  -2.02556035e+00,
         5.82481711e+00,   3.24113188e-01,   4.79849935e+00,
        -2.47464358e+00,   1.27215537e-01,   5.59230879e+00,
         5.36914110e+00,   5.61122209e+00,  -6.29895093e+00,
         5.78690899e+00,   4.51847110e+00,   5.01513139e+00,
         4.19942280e+00,   4.64772280e+00,   5.63590499e+00,
        -3.18920785e+00,   5.17056075e+00,   4.65112700e+00,
         4.40136959e+00,  -7.54955078e+00,   4.79448913e+00,
         4.53544494e+00,   4.00728065e+00,   1.34349070e-01,
         4.85558913e+00,   3.40841533e+00,   3.77040937e+00,
         5.85786706e+00,   3.11824970e+00,   5.52685346e+00,
         3.12504983e+00,  -1.63964390e-01,  -1.46457366e+00,
         3.24263811e+00,   2.09736020e-01,   5.20171247e+00,
         4.58540094e+00,   3.36643971e+00,   4.07131980e+00,
         5.67100530e-02,   4.55381754e+00,   3.83435306e+00,
         5.07335614e+00,   4.50825007e+00,  -4.34754532e-01,
         5.13958174e+00,   2.64304678e+00,   5.03180899e+00,
        -3.47404449e+00,   2.24802682e-01,   3.94576456e+00,
         5.17558081e+00,   4.61101921e+00,   5.49586709e+00,
         3.99157330e+00,   2.65278606e-01,   4.48883703e+00,
         4.23652693e+00,   5.52633135e+00,   4.74243915e+00,
         3.38634939e+00,   4.09980188e+00,   5.32056653e+00,
         3.98021359e+00,   1.64051914e-01,   5.02523904e+00,
         5.75261284e+00,   4.93972218e+00,   5.43218440e+00,
         3.46000081e+00,   5.86401251e+00,   4.55212281e+00,
         2.39696184e+00,   5.31478825e+00,   3.57470688e+00,
         4.67975995e+00,   5.40858087e+00,   3.68634532e+00,
         4.74396994e+00,   5.62124776e+00,  -8.59376839e-01,
         5.37823231e+00,   5.68355700e+00,   4.98529520e+00,
         4.34418628e+00,   1.92389575e-01,   4.58152771e+00,
         4.34713925e+00,   4.28620008e+00,   5.13566308e+00,
        -6.70526877e-03,   5.49521866e+00,   4.65953109e+00,
        -5.19545275e+00,   5.37284740e+00,   4.72527648e+00,
         5.91563939e+00,   4.56955572e+00,   3.69752463e+00,
         5.70334080e+00,   5.38928431e+00,   3.61465888e+00,
         5.22519209e+00,   4.47009555e+00,   4.87031162e+00,
         5.30031217e+00,   2.39879515e+00,   3.92838532e+00,
         5.79969634e+00,  -7.27972352e-02,   5.71548210e+00,
         3.92365031e+00,  -3.18972454e+00,   4.60143104e+00,
         4.28297971e+00,   5.56190732e+00,   3.41851539e+00,
         4.62778120e+00,  -5.23165463e+00,   3.70526938e+00,
         5.75603473e+00,  -6.35611691e-01,   2.03972949e+00,
         4.83138785e+00,   4.10544606e+00,   1.26541549e-01,
         4.93369000e+00,   3.07544389e+00,   4.78191231e+00,
         5.78627527e+00,   5.20867564e+00,   4.35821299e-01,
         4.49488251e+00,   3.07791104e+00,   2.77440671e+00,
         5.52641843e+00,   4.49663588e+00,   4.28752213e+00,
         4.30034035e+00,   5.60719644e+00,   2.25259007e-01,
         3.51012477e+00,   5.83519158e+00,   3.61658370e+00,
         5.55555341e+00,   5.12405224e+00,   5.37473664e+00,
         4.76233912e+00,  -3.01918059e+00,   2.90362334e+00,
        -7.22155838e+00,   3.28538754e+00,   2.07658766e-01,
         3.75721419e+00,   5.06408100e+00,   4.62701747e+00,
         5.85385611e+00,   3.87424352e+00,   4.96570396e+00,
         5.38973409e+00,   1.08539582e-01,   5.19831426e+00,
         4.54596962e+00,  -4.75109512e+00,   3.59161383e+00,
         5.78916844e+00,   5.86378827e+00,   1.18062186e-01,
         5.14983039e+00,   4.63236431e+00,  -4.84502391e+00,
         5.57522346e+00,   5.22640238e+00,   3.83253660e+00,
         5.74505120e+00,   3.26703304e+00,   3.51064645e+00,
         3.73356519e+00,   5.62687985e+00,   2.18740216e+00,
         5.64598649e+00,   5.72662402e+00,   3.99766613e+00,
         5.39228205e+00,   5.81182328e+00,   5.78385534e+00,
         4.99115601e+00,   4.46739130e+00,   4.81251057e+00,
         4.35899683e+00,   3.29137847e+00,   3.87538693e+00,
         1.43457074e-01,  -2.68798612e+00,   2.28876070e+00,
         4.82946346e+00,   5.47699289e+00,   1.87996573e+00,
         4.26831522e+00,   5.49552186e+00,   3.44958212e+00,
         5.63654624e+00,   3.68565232e+00,   3.03759384e+00,
         4.56664778e+00,   2.28417422e-01,   5.81790572e+00,
         5.45198283e+00,   5.76510538e+00,   2.49397187e-01,
         4.39606048e+00,   5.85991418e+00,  -7.38341921e+00,
         4.37791781e+00,   5.23957921e+00,  -4.77798295e+00,
         5.03873755e+00,   5.60250015e+00,   4.49490301e+00,
         5.82016518e+00,   3.28234060e+00,   5.44120434e+00,
         4.31684996e+00,   5.81933360e+00,   4.33394201e+00,
         1.54627605e-01,   3.57348887e+00,   5.73676677e+00,
         4.70538102e+00,  -6.07668569e+00,   4.50882557e+00,
         6.77324129e-01,   1.52700834e-01,   6.53564862e-02,
         5.55104502e+00,   4.54645994e+00,   5.81570295e+00,
         3.62204754e+00,   1.75792377e+00,   5.85561716e+00,
         5.64399760e+00,   4.30039156e+00,   5.73207870e+00,
         7.42553048e-01,   4.16392575e+00,   4.14420071e+00,
         5.15933960e+00,   4.59976192e+00,   7.88010877e+00,
         4.21939198e+00,   5.36484414e+00,   1.99908446e-01,
         5.67383515e+00,   4.15819114e+00,   5.85937289e+00,
         1.38934505e-01,   5.84295989e+00,   3.87857683e+00,
         5.85773346e+00,   5.61783055e+00,   3.99426843e+00,
         5.52487395e+00,   4.99531272e+00,   2.27270410e-01,
        -2.62846049e+00,   2.85578369e-01,   5.81718407e+00,
         3.21890079e+00,   5.06868243e-01,   5.45573100e+00,
         5.15799473e+00,   3.43068901e+00,   3.73183106e+00,
         5.67319666e+00,   3.47720874e+00,  -4.89868060e+00,
         3.13199813e-01,  -3.77445044e+00,   1.88877508e-01,
         1.83763576e-01,   1.65715419e+00,   5.34559010e-01,
         4.50389634e+00,   4.81440911e+00,   2.36343027e+00,
         4.20905396e+00,   4.68637431e+00,   4.65304566e+00,
        -3.07119042e-01,   2.27238040e-01,   4.58606178e+00,
         5.79831251e+00,   4.50196535e+00,   6.22778310e-03,
         5.80251246e+00,   4.01666652e+00,   5.81692708e+00,
         4.70083682e+00,   4.40560241e+00,   4.90904839e+00,
         4.08467405e+00,   1.45684475e-02,   4.77419218e+00,
         3.85305000e+00,   3.27734028e+00,   4.58306296e+00,
         5.41956117e+00,   5.12653865e+00,   4.54319822e+00,
         5.45108977e+00,   3.64970281e+00,   4.58801524e+00,
         4.45780404e+00,   3.08906508e+00,   3.35284526e+00,
         5.30826856e+00,   5.87573206e+00,  -5.26293876e+00,
         5.57069578e+00,   5.84256007e+00,   5.43887661e+00,
         1.97192289e+00,   5.44002977e-01,   2.22077489e-01,
         1.62252926e+00,   5.11144483e+00,   1.55491109e+00,
         5.67594678e+00,   5.29785007e+00,   3.66930957e+00,
        -3.78502849e+00,   5.60344654e+00,   3.53458644e+00,
         4.29568487e+00,   5.84257304e+00,   2.16136047e-01,
         4.39152166e+00,   2.45304262e+00,   4.02957652e+00,
         4.26362817e-01,   5.54290585e+00,   5.62266464e+00,
         1.93308545e-01,   5.55605522e+00,   5.63035558e+00,
         3.70781774e+00,   5.61143679e+00,   5.24587370e+00,
         2.36311489e-01,   5.83665691e+00,   1.17923020e-01,
         5.04832395e+00,   5.67953389e+00,   4.73434089e+00,
         5.22204402e+00,   3.78453603e+00,  -7.18897281e+00,
         3.65903593e+00,   1.40605315e-01,   5.13641157e+00,
         3.91708334e+00,   5.47347473e+00,   1.81011599e+00,
         3.37675789e+00,   4.99382859e+00,   5.61253685e+00,
         4.15534453e+00,   4.42314697e+00,  -3.93033170e-01,
         2.99594847e+00,   5.67506356e+00,   4.21368157e+00,
         5.13368964e+00,   3.39251996e+00,  -2.06435989e-01,
         5.83619659e+00,   4.85952016e+00,   5.13053232e+00,
         1.71639315e+00,  -6.90775033e+00,   1.54089811e+00,
         4.86043284e+00,   4.16564415e+00])]Output weights: [[  1.38804445e-02]
 [  3.21289362e+00]
 [ -1.34031162e+00]
 [  3.23015580e+00]
 [  3.25962958e+00]
 [  3.09995938e+00]
 [  4.68688404e-03]
 [ -1.29584284e+00]
 [  6.85598818e-01]
 [  2.65817480e+00]
 [ -2.19211913e-01]
 [ -1.70521601e+00]
 [  3.28694720e+00]
 [ -8.84045564e-01]
 [ -1.50608054e+00]
 [  1.27769571e-02]
 [  3.02300184e+00]
 [ -1.35749737e+00]
 [  1.42084492e+00]
 [ -1.61032015e+00]
 [  2.34434663e+00]
 [ -1.24408927e+00]
 [ -2.80548876e-02]
 [  9.80327401e-01]
 [ -4.60943732e-02]
 [  2.21681065e+00]
 [  2.12983212e+00]
 [  2.18621529e+00]
 [ -1.34610078e-01]
 [ -8.81020916e-01]
 [ -5.98741278e-01]
 [  4.49377078e-01]
 [ -2.73262946e+00]
 [  3.73235937e-02]
 [  2.53056612e+00]
 [ -1.35085167e+00]
 [ -9.56083554e-01]
 [ -4.08083637e-01]
 [ -1.11470206e+00]
 [ -1.43958440e+00]
 [  1.63315481e+00]
 [ -1.47645540e+00]
 [  3.73142699e-02]
 [ -3.73271988e-02]
 [  9.06767235e-03]
 [  1.78687166e+00]
 [  3.87194536e-01]
 [  9.58836988e-01]
 [ -7.68158572e-01]
 [ -3.25953882e+00]
 [ -4.58864415e+00]
 [  2.64686258e+00]
 [ -3.52133709e-01]
 [  1.93449688e+00]
 [  3.28947586e+00]
 [ -7.61736042e-01]
 [  6.60373721e-01]
 [  2.97997530e+00]
 [  2.66598001e-01]
 [  3.26516296e+00]
 [  1.37423818e+00]
 [ -6.88189107e+00]
 [  2.60621586e+00]
 [  3.19951777e+00]
 [  6.69533103e-02]
 [  3.61314444e-02]
 [ -2.83826602e+00]
 [  1.65764177e+00]
 [ -8.23755319e-01]
 [  8.45534769e-01]
 [  2.30589346e+00]
 [  2.79760328e+00]
 [  2.39685747e-02]
 [  1.48603913e+00]
 [  1.97524501e+00]
 [  7.87686749e-01]
 [  2.58936706e+00]
 [ -2.84255016e-02]
 [ -1.13542767e+00]
 [ -9.20215734e-02]
 [ -9.56760678e-01]
 [  2.03020382e-02]
 [ -1.62352092e+00]
 [  1.20288525e+00]
 [  2.43265247e+00]
 [ -1.46274574e+00]
 [ -4.97787233e-01]
 [  2.72350823e+00]
 [  3.29004120e+00]
 [ -1.64195537e+00]
 [ -9.09852690e-01]
 [ -5.05208110e+00]
 [  7.11285274e-01]
 [  1.45080807e-02]
 [ -3.20186774e-02]
 [  6.78117547e-01]
 [  3.13561510e+00]
 [ -8.28179168e-01]
 [  5.83178580e-01]
 [  1.19864865e+00]
 [  2.46003098e+00]
 [ -3.38230158e-01]
 [  1.95353123e+00]
 [ -1.27000169e+00]
 [  4.64948701e-02]
 [  1.93242273e+00]
 [  1.03980541e+00]
 [  2.38269092e+00]
 [  1.38049186e+00]
 [  1.34756989e+00]
 [ -1.07197182e+00]
 [ -9.58843899e-01]
 [ -3.90226461e-02]
 [ -1.41450978e+00]
 [  4.25662504e-02]
 [ -1.01960215e+00]
 [ -2.18397856e+00]
 [  1.46247967e+00]
 [  7.00944444e-03]
 [ -5.76651602e-01]
 [  1.21221714e+00]
 [  3.58846748e-02]
 [  4.29427934e-01]
 [  6.52890812e-02]
 [  2.09431629e+00]
 [ -6.70325202e+00]
 [  8.71297474e-01]
 [  3.01498893e+00]
 [ -3.42359498e-01]
 [ -1.07526932e+00]
 [  2.97766875e+00]
 [  5.07383376e-01]
 [ -4.89069260e+00]
 [ -1.84393753e-01]
 [ -7.16675686e-01]
 [  3.18474372e+00]
 [ -2.65636741e+00]
 [ -5.64813951e-01]
 [  3.00934117e+00]
 [ -1.21661579e+00]
 [ -4.80841274e-03]
 [ -5.15445585e-01]
 [ -1.58381269e+00]
 [ -1.37051727e+00]
 [  1.20085363e+00]
 [  3.31303389e+00]
 [  2.13993184e+00]
 [  3.29942154e+00]
 [ -6.79911823e-03]
 [ -1.25792479e+00]
 [ -1.65774494e+00]
 [  1.92576412e-02]
 [ -1.26694405e-01]
 [  3.01368446e+00]
 [ -1.58987368e+00]
 [ -1.16802243e+00]
 [ -2.22055912e-02]
 [ -8.16453082e-01]
 [ -1.32748262e+00]
 [ -2.94545516e-01]
 [ -8.53401953e-01]
 [  1.95684610e-02]
 [  2.64366771e+00]
 [  3.27015884e+00]
 [ -3.16565190e-01]
 [ -5.65458287e-01]
 [  2.31687063e-02]
 [ -1.24920672e+00]
 [  2.58588536e+00]
 [ -7.49669072e-01]
 [  2.22265784e+00]
 [ -1.21460451e+00]
 [  3.06437791e-02]
 [  3.14918984e+00]
 [  3.12745584e+00]
 [  2.21365915e+00]
 [ -6.31209456e-01]
 [ -1.58254145e+00]
 [ -1.15096729e+00]
 [  6.45942033e-03]
 [ -1.23407935e+00]
 [  3.55309909e-02]
 [ -3.50883907e-01]
 [  7.88801250e-01]
 [ -4.17263240e-01]
 [  1.80201766e-01]
 [ -1.54153902e+00]
 [  1.21728543e+00]
 [ -8.01890736e-01]
 [  3.17872322e+00]
 [  5.42436118e-03]
 [ -1.47054464e+00]
 [  3.08496683e+00]
 [  1.35829725e-01]
 [  3.24949568e+00]
 [ -6.12595341e-01]
 [  4.80055594e-01]
 [  3.46846829e-02]
 [  2.39779192e+00]
 [  1.96131836e+00]
 [  2.76083199e+00]
 [ -9.73160445e-01]
 [  1.48005826e-02]
 [ -7.60849682e-01]
 [ -9.64032461e-01]
 [ -1.01216332e+00]
 [  2.61883103e+00]
 [ -2.07237921e-02]
 [  2.61414102e-01]
 [  3.09606219e+00]
 [ -1.28583308e+00]
 [  9.34343721e-02]
 [ -6.28327052e-01]
 [ -6.83504619e+00]
 [  3.02963229e+00]
 [  3.24156675e+00]
 [  1.96889507e+00]
 [  9.96087376e-02]
 [ -1.44035930e+00]
 [ -8.89650909e-02]
 [ -8.81104694e-01]
 [  2.83038628e+00]
 [  6.98066672e-03]
 [ -1.92248684e+00]
 [ -3.33805166e+00]
 [  1.79187650e+00]
 [  1.80259745e-03]
 [  6.64897194e-01]
 [ -1.26760024e+00]
 [ -2.74080207e+00]
 [  2.99513632e+00]
 [ -1.02074094e+00]
 [  3.75271157e-01]
 [  3.30410476e+00]
 [ -7.24673452e-01]
 [ -1.09681187e+00]
 [ -1.39633332e+00]
 [  1.80456309e+00]
 [  2.66479852e-02]
 [ -1.68552270e+00]
 [ -5.49843375e-01]
 [ -1.14309304e+00]
 [  3.56450944e-02]
 [ -4.44390484e-01]
 [ -1.75777720e+00]
 [  2.90724227e+00]
 [  1.73586084e+00]
 [ -1.22425728e-01]
 [  1.22834227e-02]
 [ -8.65787345e-01]
 [ -1.71806305e+00]
 [ -1.91843816e+00]
 [  2.20333735e+00]
 [  3.15782891e+00]
 [ -1.00112714e+00]
 [ -1.00178606e+00]
 [  2.09475724e+00]
 [  2.79165679e-02]
 [  3.27518448e+00]
 [  1.38243636e+00]
 [ -1.45216219e+00]
 [  2.16213325e+00]
 [ -2.42598917e-01]
 [  8.85727960e-02]
 [ -5.89582726e-01]
 [  1.31637788e+00]
 [ -1.75227870e+00]
 [ -5.43871097e+00]
 [  4.35279248e+00]
 [  3.22138982e-02]
 [  3.22931376e+00]
 [ -3.26842680e-01]
 [ -7.34418621e-01]
 [  1.22288494e+00]
 [ -1.28902911e+00]
 [  2.75528038e+00]
 [  1.11215615e-01]
 [  3.61230501e-02]
 [  2.56439393e+00]
 [ -7.95659838e-01]
 [  2.47680928e-01]
 [ -1.46751560e+00]
 [  1.74041534e+00]
 [  1.23428213e+00]
 [ -1.30361897e-02]
 [  2.60137558e+00]
 [  2.97039347e+00]
 [ -9.32605186e+00]
 [  3.96457911e-01]
 [  2.52192683e+00]
 [  3.27341611e+00]
 [  7.68970043e-01]
 [ -1.61487888e+00]
 [ -1.49964320e+00]
 [ -6.81275027e-01]
 [  2.04024505e+00]
 [ -6.37998683e-01]
 [  5.44383893e-01]
 [  1.88583117e+00]
 [ -1.21456298e+00]
 [  8.95894641e-02]
 [  1.53180810e+00]
 [  1.64465961e+00]
 [  2.74175316e+00]
 [  3.14741592e+00]
 [  2.97871888e+00]
 [  3.23688164e+00]
 [ -1.62392905e+00]
 [  4.36452488e+00]
 [  2.49154486e-02]
 [ -5.73315264e-01]
 [  3.14305842e-01]
 [ -5.78553995e-01]
 [  2.57592571e+00]
 [ -1.01535978e+00]
 [ -1.01013576e+00]
 [  2.63255158e-01]
 [  3.27725177e+00]
 [  2.00973253e+00]
 [ -1.41097973e+00]
 [ -1.86869844e+00]
 [ -7.84340144e-01]
 [  2.63423316e-02]
 [  1.03126866e+00]
 [  1.83989942e-01]
 [  7.78739159e-01]
 [  4.31836051e-02]
 [ -9.38147937e-01]
 [  1.33826294e+00]
 [ -2.43474796e+00]
 [ -9.54222307e-01]
 [  2.51859920e+00]
 [ -9.48201066e-01]
 [ -3.38725759e-01]
 [  2.10422430e+00]
 [  3.08765263e+00]
 [  1.40968057e+00]
 [ -1.62234796e+00]
 [  2.32245271e+00]
 [  3.09103745e+00]
 [  9.80036253e-01]
 [ -9.71619214e-01]
 [  4.04915354e-02]
 [ -1.47254186e+00]
 [  7.39719258e-01]
 [ -6.42126856e-01]
 [ -5.16229424e+00]
 [  3.03025095e+00]
 [  2.42602091e+00]
 [  2.66750649e-02]
 [ -1.31508685e-02]
 [  2.13728858e+00]
 [ -8.00029669e-01]
 [  1.60142446e+00]
 [  3.32282175e+00]
 [ -6.03525913e-01]
 [  1.44711451e+00]
 [  2.03920808e+00]
 [ -1.01596692e+00]
 [  7.37071253e-01]
 [  1.71266499e+00]
 [  3.13738888e+00]
 [ -1.11280867e+00]
 [  2.60329749e+00]
 [ -7.51577140e-01]
 [ -7.28523950e+00]
 [ -1.06387476e+00]
 [  2.38152869e+00]
 [  4.96046098e-04]
 [  5.99831664e-01]
 [ -1.11010172e+00]
 [  1.41673392e+00]
 [  3.63365496e-02]
 [  1.52104275e+00]
 [  3.40648838e+00]
 [  1.37268092e+00]
 [  4.52935406e-01]
 [ -1.24480151e+00]
 [  3.21866295e-01]
 [ -3.48607037e-01]
 [  2.25405373e-02]
 [  5.07685080e-03]
 [  6.20326663e-03]
 [  1.65946330e+00]
 [ -1.66223682e+00]
 [  3.33380346e-03]
 [  2.59963150e+00]
 [  2.59736817e+00]
 [ -1.54227741e+00]
 [ -1.37432028e+00]
 [  5.90824958e-01]
 [ -1.51953506e+00]
 [ -7.24932046e-02]
 [  9.11831661e-03]
 [ -4.75437860e+00]
 [  1.23175090e-02]
 [  4.94888650e-03]
 [  5.86034122e+00]
 [  6.08172629e-03]
 [  3.03064370e+00]
 [ -5.49714500e-01]
 [ -1.91882383e+00]
 [ -1.07670254e+00]
 [  2.93201413e+00]
 [  2.94399907e+00]
 [  1.01112466e-02]
 [  2.26008098e-02]
 [ -7.67065369e-01]
 [  9.79841999e-01]
 [ -8.42098080e-01]
 [ -3.18391300e-02]
 [  1.64165654e+00]
 [  3.19264113e+00]
 [  9.98168337e-01]
 [ -6.44055928e-01]
 [ -9.27547228e-01]
 [ -4.52026661e-01]
 [ -1.16579026e+00]
 [ -2.98029774e-02]
 [  2.87422997e+00]
 [ -1.30172059e+00]
 [ -1.62765515e+00]
 [  3.11987489e+00]
 [  2.35407169e+00]
 [ -2.13114084e-01]
 [  3.13384321e+00]
 [  2.35807065e+00]
 [ -1.43066857e+00]
 [ -7.72993401e-01]
 [  3.13087758e+00]
 [ -1.76825658e+00]
 [  3.29926929e+00]
 [  2.45306853e+00]
 [  1.45829313e+00]
 [ -1.21833351e+00]
 [  2.18489118e+00]
 [  1.32936321e+00]
 [  1.91047220e-01]
 [ -1.49844675e+00]
 [  2.40101957e+00]
 [  2.87810357e-02]
 [ -8.79177473e-02]
 [  2.67474806e+00]
 [ -2.39690040e-02]
 [  2.02660822e+00]
 [  2.48549217e+00]
 [ -4.27574713e+00]
 [ -8.13734703e-01]
 [  2.06196308e+00]
 [ -1.50450006e+00]
 [ -1.01731965e+00]
 [  1.47878298e+00]
 [  2.90527076e-02]
 [  3.09599090e+00]
 [  3.17739965e+00]
 [ -1.21164926e+00]
 [ -2.13561547e-03]
 [  3.51038036e-01]
 [  4.90094693e-01]
 [  1.49815429e-02]
 [  3.55928120e-01]
 [  5.06002007e-01]
 [ -1.37169242e+00]
 [  2.06674002e+00]
 [ -7.63483046e-02]
 [  2.67338632e-02]
 [  1.60256544e+00]
 [ -2.72624093e-02]
 [ -3.07215301e-01]
 [  1.94871256e+00]
 [ -6.46693433e-01]
 [ -1.33547897e-01]
 [ -1.35133265e+00]
 [ -3.57078110e+00]
 [ -1.41904261e+00]
 [ -3.03007590e-03]
 [ -2.13667983e-01]
 [  3.28011781e+00]
 [  2.33154813e-01]
 [ -2.00749151e+00]
 [  3.29544163e+00]
 [ -3.78932368e-01]
 [  4.54093004e-01]
 [  3.14974772e+00]
 [ -9.11181233e-01]
 [  2.29992645e-02]
 [ -1.82293350e+00]
 [  6.08052716e-01]
 [  3.12960745e+00]
 [  2.64153752e+00]
 [ -1.56238403e+00]
 [ -8.88218421e-03]
 [  1.48804106e+00]
 [  2.97029836e+00]
 [ -2.34073140e-01]
 [  6.78067696e+00]
 [ -7.24913555e+00]
 [  7.23729966e+00]
 [ -4.94365724e-01]
 [ -1.10993382e+00]]Output bias: [ 8.89606628]