Action MLP:Hidden weights: [array([[  6.02502258e-03,  -5.44106883e-03,   8.72363723e-03,
          9.10321731e-03,  -5.14099931e-03,  -7.63545999e-03,
          5.00575893e-03,  -6.48929884e-03,   2.65019021e-03,
         -3.46316963e-04,  -5.88314041e-03,   2.70499207e-03,
         -5.30099224e-03,   6.88237031e-03,  -7.88200143e-03,
         -1.86241347e-03,   4.06499107e-03,  -9.83043625e-04,
         -2.36391721e-03,   1.10601793e-04,  -2.16269742e-03,
         -2.05107974e-03,  -6.51238146e-03,   5.83521762e-03,
          3.93645434e-03,  -5.80268153e-03,   1.18995325e-03,
         -9.37379027e-03,  -4.37374981e-03,   6.32829536e-03,
          1.84174063e-03,   7.13896365e-03,   9.69016457e-03,
          8.61750247e-03,  -2.13166520e-03,   8.30064591e-03,
          8.32883403e-03,  -5.39725031e-03,   2.08326761e-03,
         -9.71968342e-03,   7.26578820e-03,   8.30030285e-03,
          9.57820481e-03,   7.71910838e-03,   7.42341594e-03,
         -7.72972952e-03,   3.12251063e-03,   1.55426587e-04,
          3.80338875e-03,  -6.79810871e-04],
       [ -3.25256015e-03,  -1.04724264e-03,  -4.19474878e-03,
         -5.65377450e-03,   2.86594182e-03,  -2.18889095e-03,
          9.73748882e-04,  -8.98066019e-03,   6.75456944e-03,
          3.74705879e-03,   5.98184991e-04,   8.13056921e-03,
         -3.76512886e-03,  -5.92947352e-03,  -6.35770733e-03,
          6.71100093e-03,  -2.88165793e-03,  -3.69903438e-03,
          6.17851986e-03,   8.36059447e-03,   3.42970351e-03,
          6.97521363e-03,   2.23684400e-03,   1.20754008e-03,
          2.26579924e-03,  -8.69152081e-03,  -8.57344193e-03,
         -7.93630884e-04,  -3.93272518e-03,  -2.29238640e-03,
          9.06718909e-03,   8.29784811e-03,   7.92257711e-03,
          3.96377390e-03,  -8.57879648e-03,  -6.13047338e-03,
         -7.09386471e-03,   9.55667841e-03,  -9.24332233e-04,
          2.35663993e-03,  -3.43704343e-03,  -3.47589334e-04,
          8.87777598e-03,  -2.43045146e-03,  -5.77326443e-03,
          9.08019780e-04,   6.58311638e-03,  -4.27199044e-03,
          2.40058761e-03,  -4.62645787e-03],
       [  4.66099058e-03,  -3.05340108e-03,  -5.56477815e-03,
         -8.46852794e-03,   7.13089050e-03,  -3.10626435e-03,
         -4.73923710e-03,   3.04724166e-03,   9.75689347e-03,
         -3.45733677e-03,   6.01538905e-03,   7.82127297e-03,
          8.64701160e-03,  -5.78314934e-03,   7.46303938e-03,
          1.02138167e-03,  -2.82110197e-03,  -3.80122823e-03,
          6.22044007e-03,  -6.71920459e-03,   3.18802560e-03,
          2.70980367e-03,  -5.03431988e-03,  -2.08249952e-03,
          1.73297404e-03,  -2.28604968e-03,   6.14798617e-03,
          7.51638897e-03,   2.37287486e-03,   9.89256610e-03,
          9.34483407e-03,  -6.37033501e-03,   8.13303162e-03,
         -3.22813252e-03,  -1.39467918e-03,  -4.05262662e-03,
         -3.40175449e-04,   5.48097364e-03,  -1.42951143e-05,
         -5.49006444e-03,  -1.26444413e-03,   5.65981700e-03,
         -5.76467392e-03,   9.25999867e-03,  -1.99975501e-03,
         -5.55899475e-03,   3.69068448e-03,   4.18215899e-03,
          8.27895303e-04,   6.97617028e-03],
       [ -4.89863216e-03,  -6.69870535e-03,  -1.73731225e-03,
         -3.37382972e-03,  -5.47556083e-05,   7.09217184e-03,
          3.92493811e-03,   6.11820534e-03,  -8.83682597e-03,
         -1.35413707e-03,  -7.41792842e-03,   5.72121492e-03,
          7.19443936e-03,  -3.60192704e-03,  -8.32391062e-03,
          6.53825613e-03,  -8.51836427e-03,   9.28990875e-03,
          8.67238524e-03,  -1.29011625e-03,  -2.73676629e-03,
          6.44163628e-03,  -5.39312616e-03,  -5.64974216e-03,
         -3.80938936e-04,   2.52423170e-03,  -4.00261983e-04,
         -5.02205836e-03,   5.91255196e-03,   1.49517729e-05,
         -1.88765481e-03,   6.55828057e-03,   8.53113356e-03,
          5.15350040e-03,   9.85283101e-03,  -7.07212680e-03,
          6.39928745e-03,  -9.09885934e-03,   4.44563725e-03,
         -1.20570923e-04,  -7.08412299e-03,   8.65344977e-03,
         -8.64751986e-03,   2.13212044e-03,  -9.33379832e-03,
         -6.71385223e-03,   2.72151199e-03,  -7.40720270e-03,
          3.55457126e-03,  -3.17573012e-03],
       [ -9.11770203e-03,   5.52881260e-03,   9.15930942e-03,
         -2.55587439e-03,   3.16505117e-03,   1.28623617e-03,
          4.08479906e-03,  -6.91386133e-03,   9.70877890e-03,
          4.11388875e-03,  -5.32368962e-03,   9.71075369e-03,
         -1.47735234e-03,  -1.37769663e-03,   5.70539199e-03,
         -9.14796856e-03,  -4.96391780e-03,   9.18405312e-03,
          5.33337611e-04,   7.95921199e-03,   1.63626875e-03,
         -2.74423757e-03,  -6.40283552e-03,  -8.88249964e-03,
         -7.99973566e-03,  -4.49657851e-03,  -7.81788274e-03,
         -8.99472383e-03,  -5.45602587e-03,  -3.30916528e-03,
          9.06075934e-03,   5.34635094e-03,   3.72203733e-03,
          9.67202237e-03,  -3.92730156e-03,   4.62710004e-03,
          9.06562934e-03,   5.19609991e-03,   7.61193817e-03,
          8.62388918e-03,   1.79299121e-03,  -7.66597877e-03,
         -6.11554121e-03,   7.43166149e-03,   9.52169124e-03,
         -4.81682592e-04,  -1.00123499e-02,   7.16975215e-03,
          9.83581537e-03,  -4.93974294e-03],
       [  2.73903632e-03,  -5.49883713e-03,  -1.26726777e-03,
          5.59296650e-03,  -4.41619542e-03,   2.68536250e-03,
         -5.27368110e-03,  -8.73562315e-03,  -1.96762048e-03,
         -2.55079628e-03,   9.90280465e-03,  -8.72420312e-03,
         -2.27577119e-03,   6.44635689e-03,  -9.51629219e-03,
         -1.27042093e-03,   7.98182644e-03,  -6.57335422e-03,
          4.65431744e-04,   5.10554932e-03,  -4.21204477e-03,
          6.81270921e-03,   7.60534735e-03,   6.17977987e-03,
          7.40347193e-03,  -6.63190611e-03,  -5.84444323e-03,
          4.89401795e-03,   7.86332462e-03,  -7.32957074e-03,
         -7.51297825e-04,  -7.84867512e-03,  -2.78159209e-03,
         -2.35833741e-03,  -6.02105430e-03,  -8.35868782e-03,
          5.19534007e-03,  -8.09127331e-03,  -9.28790180e-03,
          1.88208958e-03,   5.50657656e-03,   6.11093341e-03,
          2.34388886e-03,   7.02582965e-03,   2.62706245e-03,
         -5.06979965e-03,  -4.15578287e-03,  -5.99192092e-04,
         -2.38645543e-03,   8.81546191e-03],
       [  6.99502515e-03,   1.36169754e-03,   6.26252475e-03,
         -2.24097736e-03,  -3.30892573e-03,  -3.14070125e-03,
          8.55506714e-03,  -1.65685115e-03,  -2.49955266e-03,
          2.49044477e-03,  -5.69226685e-04,   8.45485138e-03,
         -8.03504041e-03,   7.35285037e-03,   7.95903642e-03,
         -9.04262623e-04,   8.85210240e-03,   6.40252844e-03,
          2.14520172e-03,   8.51844128e-03,  -9.30684986e-03,
          1.01683853e-02,  -2.36789631e-03,  -8.71854339e-04,
         -6.98566744e-04,   8.18361890e-03,  -3.08439744e-03,
          6.46850949e-03,   4.96979751e-03,   8.33023472e-03,
          1.00996852e-02,   8.45054285e-03,   5.53387778e-03,
          5.93742689e-03,  -8.74295392e-05,   8.90928666e-03,
         -8.72348510e-03,   9.53433844e-03,   2.57702784e-03,
          1.03903463e-02,  -1.08901060e-03,  -4.99378895e-03,
          8.69763619e-03,  -5.31287471e-03,  -7.93198345e-03,
         -4.64145591e-03,  -8.74194825e-03,   4.40907207e-03,
         -6.09830026e-03,  -1.49896205e-03],
       [ -3.14670763e-03,  -3.66723946e-03,   4.42041352e-03,
         -1.40001200e-04,   7.01572381e-03,   9.06588934e-03,
         -8.96304502e-03,   1.92357356e-03,  -5.61309036e-03,
          1.00159971e-02,   1.63037815e-03,   1.05597277e-03,
         -9.18394834e-03,   9.01664562e-03,   1.03532684e-02,
         -8.83707475e-03,   4.99510423e-03,   2.67830870e-03,
          8.56475407e-03,  -4.07561435e-03,   3.46147439e-03,
          1.23354294e-03,   1.06588018e-03,  -3.29195433e-03,
         -8.71235890e-04,   8.91630836e-04,  -1.05614255e-03,
         -6.93276875e-03,  -1.13210491e-03,   6.67450607e-03,
          5.56879784e-03,   2.01191911e-03,   4.33658163e-03,
         -7.82302197e-03,  -4.04542219e-05,   7.97710360e-03,
         -2.83483191e-03,   8.08462092e-03,   4.00169005e-03,
          1.98859346e-04,  -4.74220236e-03,  -6.70664069e-03,
         -5.34087294e-03,   9.63100581e-03,   3.96716556e-03,
          9.98477970e-03,  -5.12145672e-03,  -5.35320446e-03,
          7.52018117e-03,   5.78159590e-03]])]Hidden bias: [array([-0.9987081 , -0.99863434, -0.99873241, -0.99867091, -0.99870791,
       -0.99859552, -0.99865273, -0.99863557, -0.99870112, -0.99867967,
       -0.99868767, -0.99860344, -0.99863396, -0.9987155 , -0.9987137 ,
       -0.9986249 , -0.99866382, -0.99872918, -0.99864518, -0.99859047,
       -0.99874315, -0.99855693, -0.99863272, -0.9988053 , -0.99866337,
       -0.99877934, -0.99872907, -0.99872831, -0.99867635, -0.99865225,
       -0.99858974, -0.99867914, -0.99865539, -0.99878546, -0.99879845,
       -0.9986922 , -0.99872535, -0.99864015, -0.99870655, -0.99865645,
       -0.99862952, -0.99878139, -0.99874069, -0.9987049 , -0.99877326,
       -0.99865649, -0.99865882, -0.99858389, -0.99867995, -0.99878484])]Output weights: [[ 0.01679387  0.01068737]
 [ 0.01014919  0.00556476]
 [ 0.02102219  0.00873335]
 [ 0.01225986  0.00994546]
 [ 0.01712348  0.00980996]
 [ 0.01007063 -0.00233742]
 [ 0.00880009  0.01324382]
 [ 0.01351641 -0.00047092]
 [ 0.01221656  0.01563178]
 [ 0.01106045  0.01672508]
 [ 0.01639542  0.00599059]
 [ 0.00733329  0.00608203]
 [ 0.00683712  0.0104432 ]
 [ 0.0196657   0.008451  ]
 [ 0.01979848  0.00805258]
 [ 0.00874616  0.00528437]
 [ 0.01440479  0.00641874]
 [ 0.02304629  0.00387478]
 [ 0.01614401 -0.00206722]
 [ 0.00826946  0.00014203]
 [ 0.0233234   0.00371599]
 [ 0.00549755 -0.00106488]
 [ 0.00891445  0.00785677]
 [ 0.02467303  0.01547779]
 [ 0.01478938  0.00322841]
 [ 0.02517955  0.01181184]
 [ 0.01645387  0.0154903 ]
 [ 0.02233657  0.00330773]
 [ 0.01018938  0.01748592]
 [ 0.0091575   0.01530071]
 [ 0.00744688  0.00351464]
 [ 0.01743304  0.00331123]
 [ 0.01507767  0.00257638]
 [ 0.02462554  0.01196573]
 [ 0.02422238  0.01751701]
 [ 0.01602027  0.01035681]
 [ 0.0199257   0.00605633]
 [ 0.01245322  0.00525622]
 [ 0.01649621  0.01150345]
 [ 0.01711312 -0.00146697]
 [ 0.00762306  0.00908097]
 [ 0.02414965  0.01092929]
 [ 0.01976104  0.0112028 ]
 [ 0.01426253  0.01556039]
 [ 0.02369229  0.01010412]
 [ 0.01253497  0.0069729 ]
 [ 0.01207543  0.00575162]
 [ 0.00780197 -0.00119634]
 [ 0.01027648  0.01688646]
 [ 0.0246972   0.01278202]]Output bias: [ 0.97966912  0.99020198]
Value MLP:Hidden weights: [array([[ -1.42260526e-02,  -7.49370272e-03,  -8.78665908e-03,
         -1.55505726e-02,  -8.25864125e-04,  -1.63447915e-02,
         -3.64906595e-03,  -1.39519791e-02,  -7.42513423e-03,
          2.66139955e-03,   4.92366525e-05,  -1.53355150e-02,
          1.70510325e-03,  -1.37018964e-02,  -4.72443802e-03,
         -8.99726037e-03,   2.49753794e-03,  -6.71832437e-03,
          2.98312996e-03,   1.97443417e-03,  -1.27417670e-02,
         -1.41670183e-02,  -9.07106954e-03,  -5.37621676e-03,
         -7.33081303e-03,   2.55455468e-03,  -2.74594845e-04,
         -3.50080338e-03,  -1.13415168e-02,  -2.96574698e-03,
         -7.52102524e-04,  -5.83419523e-03,  -1.62782755e-02,
         -1.37353696e-03,  -3.59777529e-03,  -4.76826894e-03,
         -1.24735663e-02,  -1.58455090e-02,   1.05330889e-03,
          2.80368683e-03,  -1.50310377e-02,  -8.75635382e-03,
         -6.00142336e-03,  -8.93411580e-03,  -7.08923855e-03,
         -2.91611561e-03,  -1.16268612e-02,  -7.56465601e-03,
         -3.45449123e-03,  -8.20439388e-03],
       [ -2.07400062e-02,  -1.72500443e-02,  -9.90097752e-03,
         -9.43876673e-03,  -2.35083988e-02,  -1.00366585e-02,
         -9.96686782e-03,  -1.53783862e-02,  -1.98224535e-02,
         -1.49761918e-02,  -2.00376049e-02,  -2.27871103e-02,
         -9.79511691e-03,  -1.21352772e-02,  -9.89251226e-03,
         -1.14785497e-02,  -1.30020891e-02,  -2.32804724e-02,
         -1.19140497e-02,  -2.10348416e-02,  -9.48690827e-03,
         -8.45246869e-03,  -1.66970556e-02,  -2.14659309e-02,
         -1.78768886e-02,  -5.63616415e-03,  -1.24552855e-02,
         -1.77820219e-02,  -1.21530177e-02,  -1.69698060e-02,
         -1.70357900e-02,  -9.92159183e-03,  -7.23148859e-03,
         -1.91396536e-02,  -8.06212489e-03,  -1.08954898e-02,
         -5.91862583e-03,  -1.07614802e-02,  -1.11736090e-02,
         -1.93123524e-02,  -2.34489856e-02,  -2.07270324e-02,
         -2.12605074e-02,  -1.74172153e-02,  -2.39015513e-02,
         -2.08384379e-02,  -2.21977539e-02,  -1.31042657e-02,
         -1.27440986e-02,  -5.11177312e-03],
       [ -6.47051113e-03,  -6.91347586e-03,  -1.59025164e-03,
         -5.44845925e-03,   2.68849322e-03,   1.64944506e-03,
         -7.66438720e-03,   3.64515148e-04,  -1.59756894e-03,
         -1.63141867e-02,  -4.12640574e-03,  -6.16126625e-03,
         -1.35601592e-02,  -1.20596600e-02,   2.74420291e-03,
         -8.78400198e-03,  -7.21641523e-03,  -1.37998783e-02,
         -6.48065641e-03,  -1.57001517e-03,  -9.16178688e-03,
         -1.89274245e-03,  -1.32076173e-02,  -2.70847765e-03,
         -7.74398345e-03,  -5.07715098e-03,  -6.79268191e-05,
         -1.58321450e-02,  -1.85653529e-03,  -1.13829360e-02,
         -1.09075120e-02,  -1.61021740e-02,  -1.32028316e-02,
         -1.32276470e-02,  -8.49366536e-03,  -5.12426063e-03,
         -1.24679294e-02,  -1.18815026e-03,   3.21350018e-03,
          6.08074548e-04,  -1.37601485e-02,  -1.24211229e-02,
         -9.81311753e-03,  -3.89030570e-03,  -1.12217318e-02,
         -1.11225369e-02,  -6.57748185e-03,   3.18445012e-04,
         -4.57245105e-03,   2.24297077e-03],
       [  1.69928462e-02,   7.99337878e-03,   1.09593829e-02,
          2.50390541e-03,   2.10357274e-02,   1.78412497e-02,
          3.39847076e-03,   1.24607438e-02,   5.62924596e-03,
          2.49444137e-03,   1.54544095e-02,   8.45238953e-03,
          1.53895871e-02,   2.15813971e-02,   1.53244482e-02,
          4.40634735e-03,   2.27009809e-02,   1.31963290e-02,
          4.38844077e-03,   9.20834217e-03,   1.26276990e-02,
          1.45903929e-02,   1.75571051e-02,   1.64907583e-02,
          1.18652465e-02,   1.22559347e-02,   3.15282424e-03,
          1.41310025e-02,   1.94867870e-02,   7.33766927e-03,
          1.98235478e-02,   6.55665981e-03,   2.12628851e-02,
          3.70092306e-03,   1.32329672e-02,   1.65713192e-02,
          1.12350169e-02,   1.02171434e-02,   3.51855816e-03,
          5.05695043e-03,   1.74418152e-02,   1.24698269e-02,
          4.98230431e-03,   2.12075850e-02,   1.33303337e-02,
          5.34559569e-03,   1.20704087e-02,   6.79795882e-03,
          2.25938905e-02,   2.84279034e-03],
       [  6.29558375e-05,   2.69341345e-03,  -4.74186036e-03,
          8.16570820e-04,   4.15245356e-03,   3.60008745e-03,
         -1.01548824e-02,   4.16197840e-03,   1.53535136e-03,
         -1.90201427e-03,   3.59055539e-03,   3.00031767e-03,
         -6.63187405e-03,  -6.13802276e-03,   7.46087740e-03,
         -1.70910444e-03,  -1.06178484e-02,   7.85815597e-03,
         -4.37925393e-04,  -3.25682541e-03,   5.46547482e-03,
         -2.78403713e-03,  -9.21751886e-03,  -4.37884979e-03,
          6.00090119e-03,  -2.86502434e-03,  -9.43559836e-03,
         -9.72201680e-03,   8.85474920e-03,  -3.62185649e-03,
          6.61381233e-03,  -7.66904897e-03,  -5.19646864e-03,
          8.72466419e-03,   4.95823019e-03,   1.90321939e-03,
          5.20272820e-03,   7.37922251e-03,  -6.19327082e-03,
          2.56588960e-03,  -5.09559945e-03,  -1.03768284e-02,
         -6.53800969e-03,  -2.64346659e-03,  -9.29212648e-03,
         -8.42974139e-03,   6.72456571e-03,   3.98795171e-04,
          8.44944386e-03,   4.67446631e-03],
       [  1.26585157e-02,   1.04368745e-02,  -1.45453352e-03,
          5.88046032e-03,   8.59856563e-03,   1.97166831e-03,
          1.57001017e-02,   1.38183323e-02,   3.05756291e-04,
          1.09946325e-02,   1.02365957e-02,   6.96776720e-03,
          2.06101755e-03,   2.77533782e-03,   3.61481160e-03,
          1.94145177e-03,   6.06405365e-03,   5.68277716e-03,
          1.31625362e-02,  -2.76671817e-03,   1.08894924e-02,
          6.66632727e-03,   1.97682899e-03,   6.22032501e-04,
          5.50058922e-03,   4.12975537e-04,   3.70327628e-03,
          1.29987741e-02,   7.49965197e-03,  -4.81090660e-04,
          4.88149180e-03,   6.50335821e-03,   9.68500478e-03,
          5.66879677e-03,   4.42882887e-03,   3.28826807e-03,
          2.71963747e-03,   3.33579830e-03,   5.80506913e-03,
          9.24528527e-03,   9.17303170e-03,   1.45665605e-02,
          1.70685155e-03,   2.55114623e-03,   3.60037571e-04,
          1.44767470e-02,   3.69999496e-03,  -3.02799014e-03,
          1.42638969e-02,   1.34525078e-02],
       [ -1.89836528e-01,  -1.79694682e-01,  -1.82260375e-01,
         -1.79595666e-01,  -1.80371059e-01,  -1.87488429e-01,
         -1.77178170e-01,  -1.82522511e-01,  -1.82274774e-01,
         -1.74293735e-01,  -1.74624743e-01,  -1.84100046e-01,
         -1.88979479e-01,  -1.77716973e-01,  -1.78200855e-01,
         -1.74596449e-01,  -1.83842079e-01,  -1.85398824e-01,
         -1.74156625e-01,  -1.78439684e-01,  -1.83220293e-01,
         -1.81667403e-01,  -1.78525412e-01,  -1.82657704e-01,
         -1.78242941e-01,  -1.84788165e-01,  -1.79827651e-01,
         -1.77554406e-01,  -1.86655596e-01,  -1.77225859e-01,
         -1.86362970e-01,  -1.76043882e-01,  -1.84702222e-01,
         -1.86858649e-01,  -1.87087978e-01,  -1.90042774e-01,
         -1.72667945e-01,  -1.81743951e-01,  -1.81181972e-01,
         -1.84724390e-01,  -1.91729495e-01,  -1.91700330e-01,
         -1.87285116e-01,  -1.79079793e-01,  -1.80657193e-01,
         -1.75032372e-01,  -1.77490274e-01,  -1.83551887e-01,
         -1.76088437e-01,  -1.80836003e-01],
       [ -1.69280910e-01,  -1.67645166e-01,  -1.79120986e-01,
         -1.72452113e-01,  -1.73854740e-01,  -1.64812996e-01,
         -1.76027766e-01,  -1.76861151e-01,  -1.71689416e-01,
         -1.76626887e-01,  -1.81238737e-01,  -1.69251044e-01,
         -1.70721233e-01,  -1.74590376e-01,  -1.67016388e-01,
         -1.82444621e-01,  -1.72555050e-01,  -1.77637720e-01,
         -1.80010253e-01,  -1.71995037e-01,  -1.66990120e-01,
         -1.70003879e-01,  -1.67355000e-01,  -1.72124430e-01,
         -1.72378552e-01,  -1.78741948e-01,  -1.71033368e-01,
         -1.77151433e-01,  -1.73371833e-01,  -1.77928768e-01,
         -1.66632274e-01,  -1.67443702e-01,  -1.75136258e-01,
         -1.77131144e-01,  -1.69630571e-01,  -1.72641385e-01,
         -1.78458007e-01,  -1.70603422e-01,  -1.73684786e-01,
         -1.67386256e-01,  -1.65595313e-01,  -1.70869511e-01,
         -1.76327516e-01,  -1.76929097e-01,  -1.77294776e-01,
         -1.72012071e-01,  -1.65686732e-01,  -1.77333404e-01,
         -1.78485562e-01,  -1.75595152e-01]])]Hidden bias: [array([-1.2468212 , -1.25308797, -1.24743081, -1.24533523, -1.2455344 ,
       -1.248313  , -1.24868812, -1.24588419, -1.25233744, -1.24527596,
       -1.25000912, -1.24360974, -1.24565758, -1.2512159 , -1.25178456,
       -1.25067163, -1.2506192 , -1.24628856, -1.24587587, -1.2512411 ,
       -1.24740932, -1.24931022, -1.25184311, -1.24495411, -1.24308806,
       -1.24679075, -1.24618603, -1.24362842, -1.24978452, -1.25358147,
       -1.24675295, -1.24839036, -1.2513058 , -1.24898366, -1.24176951,
       -1.24822531, -1.2438617 , -1.25334931, -1.2441895 , -1.24378653,
       -1.25041585, -1.24917508, -1.24317929, -1.24443134, -1.24632284,
       -1.24686261, -1.24913795, -1.24344436, -1.2516943 , -1.24495855])]Output weights: [[-1.2270799 ]
 [-1.22059045]
 [-1.23026806]
 [-1.21622255]
 [-1.21845667]
 [-1.22076913]
 [-1.2216848 ]
 [-1.22595266]
 [-1.22785305]
 [-1.21379441]
 [-1.22660448]
 [-1.21549909]
 [-1.22520201]
 [-1.2246701 ]
 [-1.21598896]
 [-1.22943926]
 [-1.22806012]
 [-1.23066757]
 [-1.21854301]
 [-1.22142021]
 [-1.21674078]
 [-1.22124126]
 [-1.21724355]
 [-1.21858805]
 [-1.21097032]
 [-1.23136162]
 [-1.21513072]
 [-1.21656855]
 [-1.23212148]
 [-1.23081626]
 [-1.21863861]
 [-1.20941496]
 [-1.2343682 ]
 [-1.23531803]
 [-1.21628788]
 [-1.23285097]
 [-1.21286511]
 [-1.22767082]
 [-1.21714734]
 [-1.21318754]
 [-1.22998592]
 [-1.23441136]
 [-1.22684766]
 [-1.21953919]
 [-1.22451093]
 [-1.21159417]
 [-1.21034254]
 [-1.22387384]
 [-1.22752542]
 [-1.22059663]]Output bias: [ 2.54551515]