Action MLP:Hidden weights: [array([[ -9.68873460e-03,  -5.10811222e-03,  -1.83176266e-03,
         -8.30205579e-03,   5.57596149e-03,   6.37780518e-03,
          8.72266021e-03,  -3.15900319e-03,   7.86141804e-03,
          1.98716927e-03,   2.41772574e-03,   2.21316454e-03,
          3.11370793e-04,  -4.13991730e-03,  -8.96340502e-03,
         -1.70694674e-04,  -7.65654544e-03,  -8.27727720e-03,
          1.79625152e-03,   2.53311394e-03,   1.58351491e-03,
         -7.50697099e-03,   4.73670738e-03,   9.59651247e-03,
          6.73909067e-03,  -9.95376166e-03,  -4.85772205e-03,
          1.59010871e-03,  -8.36788223e-03,  -1.00401743e-02,
         -4.32252803e-03,  -9.01346477e-03,   6.44070042e-03,
          1.20311600e-03,   5.50399482e-03,  -1.91053682e-03,
         -7.92055895e-04,   1.29080745e-03,  -4.73167279e-04,
          2.29942717e-04,  -2.86622691e-03,  -6.72564238e-03,
          4.95825712e-03,  -8.02382793e-03,  -5.07905263e-03,
         -9.74952240e-03,   7.57436946e-03,  -1.03610346e-02,
         -5.19487539e-03,   3.67185016e-03,   4.69588958e-03,
         -5.42769812e-03,   1.34055369e-03,   8.56942383e-03,
          3.41366099e-03,   4.46758333e-03,   3.25349076e-03,
          1.03964247e-03,  -7.74501437e-03,  -9.05693237e-03,
          2.68689075e-03,   8.75014853e-03,  -4.40879035e-03,
         -1.88887852e-03,   1.98881893e-03,  -9.39012825e-03,
         -3.08059823e-05,   4.92969758e-03,  -2.36356787e-03,
         -5.89354345e-03,   4.00455291e-03,   5.97320187e-03,
         -7.28971465e-03,  -1.16153821e-03,  -1.94995120e-03,
         -5.48924286e-03,   6.69358952e-03,  -4.32581950e-03,
          6.85899649e-03,  -7.63926847e-03,   7.59550871e-03,
          1.79676694e-04,  -6.06709172e-04,   7.71220672e-04,
          7.29817680e-03,   7.25060211e-03,   4.40234021e-03,
          5.24597189e-03,  -3.80859125e-03,  -6.48021066e-03,
         -9.46524145e-04,   1.69267245e-03,   3.07234712e-03,
          2.30561513e-03,  -1.08961345e-02,   6.93717520e-03,
         -8.72447040e-03,  -5.58244411e-03,  -5.42805237e-03,
          3.50822602e-03],
       [ -6.25351316e-04,   4.53699468e-03,   9.07592928e-03,
          9.48906849e-03,  -2.55463799e-03,   9.44032915e-03,
         -4.05168883e-03,   8.84125347e-03,   5.21115193e-03,
         -5.82548670e-03,   5.92623015e-03,   1.30521863e-03,
         -7.12985151e-03,  -7.18018012e-03,   5.86280268e-03,
         -4.42761923e-04,  -6.67877739e-03,   4.74750348e-03,
         -3.80390769e-03,  -2.51564564e-03,  -9.16366828e-03,
         -1.81768770e-03,   6.75848402e-03,   2.82560096e-05,
         -7.15288303e-04,  -1.63307628e-03,   7.24362140e-03,
         -1.12255685e-03,   6.81627006e-03,   5.03947321e-03,
          5.40831866e-04,  -8.45163610e-03,  -8.60477007e-03,
         -5.52658876e-03,   5.25217245e-03,   1.70691807e-03,
          1.52321014e-03,  -9.61699155e-03,   4.61473957e-03,
          3.05855390e-03,   1.51179905e-03,  -2.68545287e-03,
         -8.07083238e-03,  -4.26028268e-04,  -5.33519423e-03,
          1.04578989e-02,   2.95678363e-03,  -9.42388154e-03,
          3.96546403e-03,  -6.61528626e-03,  -4.99846981e-03,
          6.49867543e-03,   3.17420964e-03,  -5.22544027e-06,
         -1.31859002e-04,   7.78373664e-03,   8.96513334e-03,
         -8.14355013e-03,   1.63400606e-03,  -3.79847590e-03,
          5.03023855e-03,   1.81674934e-03,   9.04974277e-03,
         -4.85488306e-03,  -9.44568705e-03,  -6.53303439e-03,
          7.42252916e-03,   2.34303098e-03,  -6.99553991e-03,
          3.67206283e-03,   1.00323551e-02,   1.00813359e-02,
          5.42158697e-03,   1.70685217e-03,   8.40018254e-03,
          2.92422864e-03,  -8.39938099e-03,   5.31081546e-03,
         -9.68440894e-03,   6.14348211e-03,  -4.15200167e-05,
          5.76818313e-04,   1.67887356e-03,  -9.21833552e-03,
          6.48191091e-04,   7.01194785e-03,  -1.61908482e-03,
          6.53719109e-03,  -2.40369022e-03,  -8.78124005e-03,
          9.17944331e-03,  -9.73469940e-03,  -9.32584078e-03,
         -5.48344091e-03,   7.30333007e-03,  -7.97822201e-03,
         -8.89483945e-03,   1.41849366e-03,   6.41187787e-03,
          3.14155968e-03],
       [  7.09116247e-03,  -2.43817070e-03,   5.39740067e-03,
          7.59152207e-04,  -1.00966327e-02,  -4.44209948e-03,
         -1.12129539e-02,  -1.36049760e-02,  -3.27913935e-03,
         -2.27899487e-03,  -1.05866669e-02,  -4.50739152e-03,
         -4.65197119e-03,   6.24437075e-03,  -1.07831300e-02,
         -7.82842277e-04,  -5.41688553e-03,  -4.02674283e-03,
         -4.70736267e-03,   3.40772435e-03,  -9.49842648e-03,
          3.95479161e-03,  -9.58504459e-03,   7.73849743e-03,
         -8.57951870e-03,  -3.65630553e-03,   6.45275434e-03,
         -2.21301383e-03,  -9.09510475e-03,   4.66025587e-03,
         -5.82079727e-03,  -3.32402033e-05,  -1.53990787e-02,
          3.55595697e-03,  -5.72790911e-03,   6.43797511e-03,
          4.64555475e-03,  -1.36480832e-02,   3.98085464e-04,
          3.21053306e-03,  -5.69410375e-03,   4.49478052e-03,
          5.28825102e-03,  -8.20438648e-03,  -4.95096455e-05,
          4.79051777e-03,  -3.29156219e-03,  -6.96062816e-03,
         -1.50508115e-02,  -1.15221729e-02,  -8.86278143e-03,
         -7.98452697e-04,  -1.28080623e-02,  -1.17572662e-02,
         -1.42820566e-02,  -1.00423738e-02,   2.17021392e-03,
         -6.46489068e-03,   3.11395620e-03,   3.28852842e-03,
         -9.62326357e-04,  -5.54499258e-03,   2.15919648e-03,
         -6.21467844e-03,  -1.02750862e-03,  -6.19465403e-03,
         -1.18144226e-02,  -7.45753433e-04,   2.37983607e-03,
         -4.88886275e-03,  -1.30477872e-02,  -1.09845274e-02,
         -3.09543981e-03,  -6.43949026e-03,  -4.83356619e-03,
         -9.87439679e-03,  -6.39830338e-03,   4.36564912e-03,
          8.07798758e-03,   3.94332966e-03,   3.62196638e-03,
          6.58156706e-03,  -2.73096260e-03,   6.70430248e-03,
          4.23978832e-03,  -7.07194498e-04,   2.75796797e-03,
         -1.27035504e-02,  -7.38058965e-03,  -6.24890993e-03,
         -1.42735545e-02,  -4.70289710e-04,  -3.69338364e-03,
         -1.23997490e-02,  -6.62697917e-03,  -1.42814587e-02,
          1.10046804e-03,  -3.94047382e-03,   5.46890617e-03,
         -2.52224637e-03],
       [ -6.89542136e-03,  -7.74473444e-03,   5.91098248e-03,
         -3.76229046e-03,  -1.05935034e-02,  -7.59750980e-03,
         -1.41790997e-02,  -8.87406448e-03,   2.44540023e-03,
         -1.07195759e-02,  -2.06674987e-03,  -3.94995821e-03,
          2.93177697e-03,  -2.32353568e-03,   6.48272470e-03,
         -6.76820210e-03,   5.99151677e-03,   3.45231954e-03,
          5.51033413e-04,  -8.84674922e-03,  -3.00852555e-03,
         -8.69651666e-03,  -8.00375914e-03,  -9.50544640e-04,
         -3.22145471e-03,  -1.68479091e-03,   6.64469400e-03,
         -7.46456756e-03,   4.62617580e-03,  -1.12128608e-03,
          5.68870547e-03,  -5.26708339e-03,   3.49198891e-04,
          2.42217804e-03,   6.04083848e-03,  -1.32332492e-02,
         -1.10506089e-02,  -9.42389668e-03,  -2.18666137e-04,
          2.37640808e-03,   1.31740692e-03,   2.86086291e-03,
         -3.44410961e-03,  -5.14555955e-03,  -7.28390547e-03,
         -1.70795227e-03,  -7.33748182e-04,  -6.56267866e-03,
         -1.05752674e-02,   1.25821306e-05,  -9.71069593e-04,
          7.72213104e-03,  -1.23330201e-02,  -1.74930807e-04,
         -3.75763559e-03,  -4.55954480e-03,   3.09922641e-03,
         -9.98024084e-04,  -6.78719705e-03,  -2.85894762e-03,
          1.53516303e-03,  -1.44471167e-02,  -4.98842491e-03,
         -7.92937331e-03,  -8.25424338e-04,  -1.15810623e-02,
         -1.04628652e-02,   6.67312250e-03,  -5.59548167e-03,
         -1.33134209e-02,  -1.13822316e-03,   3.67268429e-03,
         -8.21797399e-03,  -1.28421178e-02,   3.74893512e-04,
         -4.77468180e-03,   3.91449047e-04,  -1.00585550e-02,
         -7.52556345e-03,   4.40217111e-03,  -2.56777080e-03,
          5.05951971e-03,   4.76823171e-03,   3.19945327e-04,
          3.55986081e-03,   7.37101824e-03,  -1.43659752e-03,
          5.62373603e-03,  -2.54322886e-04,   4.48511896e-03,
          3.62203344e-03,  -2.43984731e-04,   7.57234374e-04,
         -4.32042905e-03,   8.12696823e-03,  -6.35031581e-03,
          4.41146954e-03,   3.48040782e-03,   2.70621499e-03,
         -3.27538284e-03],
       [  7.75340521e-03,  -1.84400399e-03,  -3.86279089e-03,
         -1.44697086e-03,   1.00096154e-03,   4.89550924e-04,
          3.58043269e-03,   7.80056158e-03,  -6.63202500e-03,
         -3.66796455e-03,  -4.86686475e-03,   4.02903794e-03,
          7.96930143e-03,   1.06474744e-02,   1.19261750e-02,
          6.15174905e-03,   2.94897764e-03,  -3.15076614e-03,
         -6.89950283e-03,  -7.28260381e-03,   1.02460129e-02,
          9.85530359e-03,   4.47234827e-04,  -2.10120747e-03,
          1.59471713e-03,   1.12998125e-02,  -7.47751853e-03,
          8.84024248e-03,   5.27859712e-03,   1.07737415e-02,
          1.38826635e-02,   7.91701916e-03,  -1.28795390e-03,
          2.30898711e-03,   3.96952397e-03,   7.83809589e-04,
          2.05459542e-03,   2.79637720e-03,  -1.74053509e-03,
          3.89526929e-04,   9.02309991e-03,   2.45494499e-03,
          8.08744949e-03,   7.44099371e-03,   8.59169598e-03,
         -4.02581939e-03,  -3.50278635e-03,  -1.91452849e-03,
          1.13305847e-02,  -2.81918551e-03,   1.52191045e-03,
          1.30879651e-02,   3.50021522e-03,   1.73270647e-05,
          9.92754004e-03,  -3.07730382e-03,   9.47854134e-03,
          8.52596780e-03,  -2.74635133e-04,   5.06302671e-04,
          4.04915030e-03,   6.47375959e-03,  -9.28263466e-04,
          1.12956033e-02,   7.00924582e-03,   1.00710539e-02,
         -1.90055778e-03,   5.90203544e-03,   5.33427381e-03,
          1.33260763e-03,  -7.58805528e-03,   7.79659400e-03,
          9.79868358e-03,   2.52001613e-03,   8.19609218e-03,
          2.52393877e-03,   6.72928432e-03,   9.06807338e-03,
         -9.08036623e-03,   1.33527422e-03,   3.49771966e-03,
          6.81952333e-03,   1.91966655e-03,   7.00689645e-03,
          2.80694516e-03,   5.47101126e-03,   3.61048674e-03,
          2.35747477e-03,  -3.74074888e-03,  -5.07612620e-04,
          7.19925517e-03,  -6.92383113e-03,   5.11743140e-03,
          8.46516526e-03,  -4.46405022e-03,   1.14216975e-02,
          7.64836392e-03,   6.36236252e-03,  -2.98342178e-03,
          3.15250815e-03],
       [ -4.49803141e-03,   1.20324271e-02,   2.98565777e-03,
          1.01836367e-02,   8.07366602e-04,  -2.98018301e-03,
          8.61947308e-03,   1.11244737e-02,   1.03314360e-02,
         -4.36365836e-03,   3.15351017e-04,  -2.91659380e-03,
          3.06277287e-03,   1.79078776e-03,   2.21304472e-03,
          4.49554357e-03,  -3.09873123e-03,  -8.68269454e-04,
         -2.62470248e-04,   2.47707157e-03,  -6.51587754e-03,
          2.36437969e-03,   1.55101013e-03,  -9.18545969e-03,
          1.15934523e-02,  -2.28263961e-03,   8.72987993e-03,
          9.07554518e-04,   5.38373417e-03,  -2.67868072e-03,
          3.37443093e-03,   9.21295984e-03,   7.40710508e-03,
         -5.20283717e-03,  -5.68259994e-03,  -6.28966032e-03,
          2.57340072e-04,   8.47962360e-03,   8.46064272e-03,
          6.72531342e-03,  -2.59423999e-03,  -7.68768649e-03,
         -5.81255961e-03,  -6.55850193e-03,   9.25109931e-03,
          7.93670573e-03,   8.98972708e-03,   8.68975589e-03,
          8.27503346e-03,  -1.52728741e-03,  -3.26299077e-03,
          2.69847210e-03,  -7.57387214e-03,   1.06034841e-02,
         -4.47246074e-03,  -3.08151625e-03,   1.00186469e-02,
         -1.36473088e-03,   5.73147086e-03,   1.41543247e-04,
         -3.95152199e-03,  -8.79202234e-03,  -1.16317856e-03,
          2.19829273e-03,   9.58840360e-03,   7.12105215e-03,
         -1.06373533e-03,   2.23528575e-03,  -5.23997065e-03,
         -4.68039975e-04,  -5.23133090e-03,   6.07954878e-03,
         -1.64642109e-04,  -4.22848157e-03,   1.49090337e-03,
         -1.54900228e-03,   4.15854643e-03,  -8.00308475e-03,
         -4.18936535e-03,   2.38666794e-03,   4.08263662e-03,
          1.16177369e-03,  -3.08144920e-04,  -9.15602074e-03,
          9.24394866e-03,   9.53814225e-03,   8.17929666e-03,
         -3.78144292e-03,   2.20662895e-03,   7.31583188e-04,
          4.24600202e-03,   7.45427154e-03,   1.13765955e-02,
         -5.87639555e-03,  -3.67624263e-03,  -1.93225712e-03,
          5.09099015e-03,   1.43679230e-03,  -5.17917622e-04,
          5.24509069e-03],
       [ -9.70133644e-03,  -1.92604201e-03,   5.71226047e-03,
         -2.48720058e-04,  -7.17349760e-03,  -9.31314321e-03,
          6.87084519e-03,  -9.35873871e-03,  -1.02520529e-03,
         -6.79146000e-03,  -4.06283766e-03,  -8.26082251e-03,
          8.50541463e-03,   2.82674219e-03,  -6.00784891e-03,
          3.36529879e-03,   8.11296884e-03,  -9.20617612e-03,
          1.68402013e-03,  -5.60499763e-03,   9.61739557e-03,
          3.25563597e-03,  -5.14004941e-03,   5.50040325e-04,
          3.64234838e-03,   1.31486070e-04,   9.55790750e-03,
         -9.53914235e-04,  -3.40530667e-03,  -2.55618919e-03,
         -4.42328634e-03,   7.75310147e-03,  -2.30299221e-04,
         -5.67804422e-03,  -8.29622031e-03,   8.96634814e-03,
         -3.28591755e-03,  -9.09038415e-03,   4.89642560e-03,
          4.93339895e-03,  -9.23942240e-03,   6.42736475e-03,
          4.42452110e-03,   4.89042582e-03,  -8.45795420e-03,
          5.98458109e-03,   8.76350784e-03,   5.79508888e-03,
          8.36010149e-03,   9.56631321e-03,   5.17446017e-03,
          4.24968380e-03,   9.49657654e-03,  -2.12025651e-03,
          9.72321512e-03,   9.67130370e-03,   4.52852079e-03,
          3.15564039e-03,   5.50184117e-03,  -9.17237699e-03,
          6.94145492e-03,   7.41428882e-03,   8.23977256e-03,
          2.86713078e-03,   5.62212345e-03,   4.65850297e-03,
          4.45727457e-03,  -9.80954565e-03,  -4.18707637e-03,
         -2.98526778e-03,   4.66716887e-03,  -5.72037373e-03,
         -5.16267914e-03,   7.50789504e-03,   2.04531568e-03,
         -1.05370338e-03,  -2.40535923e-03,   2.46250596e-03,
         -7.53385273e-03,   5.99548974e-04,   6.70031747e-04,
          9.38117842e-03,  -5.81040954e-03,  -3.90795762e-03,
          3.20608758e-03,   3.42785880e-03,  -8.39637161e-03,
         -4.27300131e-03,  -9.80265017e-03,   5.00576139e-03,
          4.60351312e-03,   7.60787171e-03,  -1.87654670e-03,
         -4.12480635e-03,   4.74472142e-03,   9.55461212e-04,
         -9.60871036e-03,  -5.91646505e-03,   5.59316586e-04,
         -3.60968507e-03],
       [  6.58420574e-03,  -6.24545481e-03,   5.91057971e-04,
         -9.86192129e-03,  -4.71540139e-03,  -7.17558550e-03,
         -8.98775331e-03,   9.40475611e-03,   1.18295071e-03,
         -4.29907931e-03,  -9.11597453e-03,   2.95897264e-03,
          8.00399494e-03,  -1.97942435e-03,  -1.79351465e-03,
          2.28246590e-03,   8.12900821e-03,  -9.85055841e-03,
         -2.73119139e-03,  -4.09693524e-04,  -9.74987370e-03,
         -3.39936460e-03,   5.94028022e-04,  -1.89575096e-03,
         -8.65006895e-03,  -2.77830736e-03,  -8.96128712e-03,
         -7.13556311e-03,   9.03097099e-03,   7.34038998e-03,
          7.79842338e-04,  -1.75232353e-03,  -5.46835849e-03,
         -3.90244288e-03,  -7.67316389e-03,   3.35671539e-04,
          1.24514008e-03,   2.49077547e-03,  -3.80941914e-04,
         -1.00061867e-02,   1.57185408e-03,  -3.09978838e-03,
          3.73787022e-03,  -6.86169605e-03,   7.26935287e-03,
          9.00474669e-03,   6.36023234e-03,   1.04245413e-03,
          3.02888947e-03,  -3.06285253e-03,   5.58720371e-03,
          8.22681966e-03,   7.33878984e-03,   3.72075287e-03,
         -3.96218722e-03,  -6.27023151e-04,   3.24582763e-03,
         -9.56011172e-03,  -1.95622274e-03,  -9.72776747e-03,
         -7.20266054e-03,  -6.47273609e-03,   9.87412371e-03,
          2.57421072e-03,   4.15512560e-03,  -7.65766791e-03,
         -4.83349961e-03,   1.09824445e-03,  -7.45756047e-03,
          6.88485739e-03,   2.67765147e-03,  -7.36438952e-03,
         -8.55177747e-03,  -3.11850288e-03,   2.32938277e-05,
          9.66384671e-03,   8.02491025e-03,  -6.82682917e-03,
          7.34915403e-03,  -9.67227110e-03,  -5.67874907e-03,
         -6.03316337e-03,   6.65015648e-03,  -1.94737565e-05,
          1.21586444e-03,   6.18267515e-03,   7.97312475e-03,
         -1.28867639e-03,  -8.44567212e-03,  -6.51405168e-03,
          1.78035545e-03,  -8.30385966e-03,  -3.81729483e-03,
          8.37906326e-03,   5.52171552e-04,   8.72253530e-03,
          4.23635900e-03,  -1.09616074e-04,   5.71229963e-05,
         -6.70839536e-03]])]Hidden bias: [array([-0.99919171, -0.99931679, -0.99926358, -0.99912292, -0.9991254 ,
       -0.9991833 , -0.99913816, -0.99914262, -0.999243  , -0.99932655,
       -0.99921253, -0.99930314, -0.99932102, -0.99917952, -0.99912408,
       -0.99928512, -0.99927881, -0.9993818 , -0.99927472, -0.99922362,
       -0.99912876, -0.99927762, -0.99916398, -0.99918716, -0.99920518,
       -0.99911953, -0.99927281, -0.99927181, -0.99915684, -0.9992557 ,
       -0.99917229, -0.9992769 , -0.99926215, -0.99919445, -0.99919467,
       -0.99920514, -0.99930047, -0.99919705, -0.99921834, -0.99920116,
       -0.99921668, -0.99933056, -0.99922882, -0.99928739, -0.9991758 ,
       -0.99920681, -0.99928942, -0.99927561, -0.99910014, -0.99929501,
       -0.99912622, -0.99923559, -0.99920649, -0.99914637, -0.99916856,
       -0.99921902, -0.99928214, -0.99911397, -0.99929797, -0.99931638,
       -0.99927769, -0.99920085, -0.99921797, -0.99916343, -0.99919193,
       -0.99910857, -0.99919606, -0.99933232, -0.99932091, -0.99915944,
       -0.99919658, -0.99921244, -0.99919783, -0.99916296, -0.9992625 ,
       -0.99916351, -0.99922173, -0.99927383, -0.99916619, -0.9992043 ,
       -0.99918666, -0.99922435, -0.99923049, -0.99919682, -0.99914944,
       -0.99920131, -0.99929606, -0.99935344, -0.99921702, -0.99930062,
       -0.99923167, -0.99926861, -0.99922501, -0.99914225, -0.99928567,
       -0.99912919, -0.99919567, -0.99916568, -0.99915544, -0.99934743])]Output weights: [[ 0.02012116  0.00376702]
 [ 0.01521504  0.02425445]
 [ 0.01083524  0.00606865]
 [ 0.00268064  0.00779294]
 [ 0.00826095  0.0113056 ]
 [ 0.01068009  0.00959971]
 [ 0.02214293  0.0147268 ]
 [ 0.02160093  0.02336289]
 [ 0.01001011  0.01079277]
 [ 0.01145309  0.0190305 ]
 [ 0.01078011  0.0139376 ]
 [ 0.0170115   0.01961444]
 [ 0.01655473  0.02488488]
 [ 0.00782251  0.0094472 ]
 [ 0.00533534  0.02820351]
 [ 0.0181735   0.01973061]
 [ 0.00955221  0.0207243 ]
 [ 0.01939381  0.01732104]
 [ 0.02116248  0.00575686]
 [ 0.01130156  0.00759681]
 [ 0.00833936  0.01199671]
 [ 0.02292649  0.01664732]
 [ 0.01475444  0.0095052 ]
 [ 0.00963249  0.0014972 ]
 [ 0.00387945  0.02567364]
 [ 0.00522561  0.01158409]
 [ 0.00927185  0.00729629]
 [ 0.0120361   0.02369677]
 [ 0.00881314  0.01328025]
 [ 0.01463059  0.01254901]
 [ 0.00728687  0.02330147]
 [ 0.02110444  0.02191689]
 [ 0.01898439  0.02533516]
 [ 0.00885183  0.00525792]
 [ 0.00787046  0.00935798]
 [ 0.02354316  0.00438849]
 [ 0.01999847  0.01402601]
 [ 0.02357954  0.02753475]
 [ 0.01569611  0.00504505]
 [ 0.01235019  0.00416091]
 [ 0.00734251  0.02215039]
 [ 0.01075312  0.01417884]
 [ 0.00662264  0.01103566]
 [ 0.02128905  0.02466129]
 [ 0.02070887  0.00900235]
 [ 0.00326315  0.01108359]
 [ 0.01452208  0.01457445]
 [ 0.01954403  0.02423401]
 [ 0.02254022  0.02278335]
 [ 0.02055392  0.01634025]
 [ 0.00342769  0.00948692]
 [ 0.00688843  0.02215532]
 [ 0.01489034  0.02307905]
 [ 0.00477681  0.01851242]
 [ 0.01321308  0.02448364]
 [ 0.01276876  0.01308671]
 [ 0.01704617  0.01272932]
 [ 0.00441257  0.00954873]
 [ 0.00477713  0.02015415]
 [ 0.00492992  0.0197257 ]
 [ 0.00538253  0.01813452]
 [ 0.02425312  0.01178022]
 [ 0.01403247  0.0066422 ]
 [ 0.0189266   0.01463723]
 [ 0.01351143  0.01123207]
 [ 0.01137648  0.01769951]
 [ 0.0085837   0.02132787]
 [ 0.01592294  0.01565453]
 [ 0.01724601  0.01702772]
 [ 0.02055173  0.00725698]
 [ 0.00776273  0.01254252]
 [ 0.01220182  0.02285198]
 [ 0.01660026  0.01620924]
 [ 0.02180762  0.00694626]
 [ 0.01925106  0.01344605]
 [ 0.01195607  0.01303114]
 [ 0.01783948  0.01264419]
 [ 0.01744972  0.01415728]
 [ 0.00828853  0.00123978]
 [ 0.00527175  0.00945764]
 [ 0.00461153  0.0093048 ]
 [ 0.01307838  0.0045493 ]
 [ 0.01437817  0.00605706]
 [ 0.01447142  0.00302998]
 [ 0.00549843  0.00445238]
 [ 0.00996655  0.00727459]
 [ 0.00928073  0.01819186]
 [ 0.01933322  0.0226625 ]
 [ 0.0115928   0.01294375]
 [ 0.01012955  0.0227831 ]
 [ 0.01672019  0.02665435]
 [ 0.01865471  0.00790493]
 [ 0.00900446  0.02052191]
 [ 0.01214214  0.0142185 ]
 [ 0.00211042  0.02379752]
 [ 0.01463644  0.02017423]
 [ 0.01227134  0.00811696]
 [ 0.00876716  0.00908843]
 [ 0.00300301  0.00438948]
 [ 0.020525    0.02088927]]Output bias: [ 0.98441294  0.98121804]
Value MLP:Hidden weights: [array([[  1.51628487e+00,   3.43844099e-01,  -1.55864431e-01,
          1.11829438e-01,  -1.26299351e-01,  -1.99121381e+00,
          1.57070906e-01,  -5.24594557e-01,  -1.81567197e+00,
         -2.38227553e-01,  -1.89082810e+00,  -2.66293439e-01,
          1.65839791e-01,   9.72420296e-01,  -8.96153862e-02,
          1.62144832e-01,   6.53233651e-02,  -1.79343711e+00,
          1.43694866e+00,   2.32104784e+00,   1.73622124e-01,
          7.80913194e-02,   1.39478398e+00,   8.74058482e-02,
         -4.77002653e-01,   6.75158563e-01,  -1.64326396e-02,
         -1.49460594e+00,   1.62653951e-01,   5.63703081e-02,
          5.52781856e-02,   1.15769508e-01,   9.98529963e-02,
          2.00387124e-01,   5.60038300e-02,  -3.14364242e-01,
          6.14526680e-02,   1.48026421e+00,   9.23481369e-01,
          1.30974072e-01,   1.57840426e-01,  -6.01259325e-01,
          4.54110494e-01,  -1.97134175e+00,  -4.22424002e-01,
         -4.49943041e-02,   1.81004117e-01,   1.84953759e+00,
         -3.40008498e-01,   8.90022357e-02,   2.21221067e-01,
          9.69577855e-02,   1.28538012e-01,  -1.22238735e+00,
          1.68804777e-01,   1.19595755e-01,   5.49293407e-01,
          1.45440406e-01,  -4.20489228e-01,   2.71203955e-01,
          1.69807358e+00,   1.21010716e+00,   2.36760409e-01,
          8.73064999e-01,   2.25247394e-01,  -3.55267638e-01,
          1.25945267e-01,  -1.77347656e+00,   8.82770137e-01,
          7.87202526e-02,   1.73914998e-01,  -5.17151093e-01,
         -5.26822907e-01,   5.63288098e-02,   7.85836232e-02,
          1.20588957e-01,   4.89288419e-02,   8.45079677e-01,
         -1.03715779e-01,   2.63311748e-01,   1.22096759e+00,
          1.13032377e-01,   9.64896471e-01,  -2.96965053e-01,
          1.07680808e+00,   1.23945200e+00,  -3.40851656e-01,
         -6.09498747e-01,  -3.64850676e-01,   9.95079537e-01,
          3.09850893e-01,  -6.19090006e-01,  -1.34422371e+00,
          1.04349291e+00,   1.52266921e-01,  -2.12317043e-02,
          1.05879639e+00,  -1.59277284e-02,  -1.94344027e-01,
          2.67077869e-01],
       [ -1.52677056e+00,   2.82769370e-02,   6.54477353e-01,
         -6.91132120e-01,   6.07744023e-01,  -7.72191275e-01,
         -6.96296567e-01,   6.23896997e-01,  -6.47679039e-01,
         -5.17209535e-01,  -6.25132913e-01,   5.94514821e-01,
         -6.91098359e-01,   6.11072811e-01,   1.14185358e+00,
         -6.89881799e-01,  -6.52514770e-01,  -3.40660565e-01,
         -1.50675443e+00,   2.52542284e-01,  -6.94280837e-01,
         -6.24824526e-01,  -1.34015595e+00,  -6.73471135e-01,
          5.85223820e-01,   3.54718996e-01,  -6.21853345e-01,
         -8.56069590e-01,  -2.65129001e-01,   6.03164844e-01,
         -7.70633242e-01,  -6.74296970e-01,  -7.01244741e-01,
         -1.53668509e-01,  -6.81919250e-01,   5.69248999e-01,
         -6.86454697e-01,  -8.37324747e-02,   4.08556099e-01,
         -7.05632225e-01,  -2.76963751e-01,   5.69417696e-01,
          1.57800531e-01,  -6.99530517e-01,  -2.42723496e-01,
          5.45680902e-01,  -6.96507663e-01,   2.52253087e-01,
          5.58255175e-01,  -6.72226355e-01,  -1.20484499e-01,
         -6.73410359e-01,  -6.84096009e-01,  -8.84692024e-01,
         -7.01276179e-01,  -6.79626220e-01,   4.77105316e-01,
         -2.70102555e-01,   6.29469428e-01,  -4.94034021e-02,
         -1.58057372e+00,  -1.49446396e+00,  -7.49640014e-02,
          3.52098193e-01,  -1.07263307e-01,   4.90435756e-01,
         -6.74021125e-01,  -7.34714207e-01,  -8.37386466e-01,
         -6.60013274e-01,  -6.85025804e-01,   4.89084210e-01,
         -4.93875086e-02,  -6.96867806e-01,  -6.74070978e-01,
         -5.20239934e-01,  -6.99136546e-01,   4.05927328e-01,
          6.26012403e-01,  -4.65447275e-02,  -1.44406899e+00,
         -6.93770279e-01,  -7.55960769e-01,  -1.35837258e+00,
          3.47142434e-01,  -1.42851698e+00,   5.30397338e-01,
          5.89695963e-01,   6.34927230e-01,   4.02936538e-01,
         -1.46073159e-03,  -7.23495658e-01,   3.91184921e-01,
          6.92216699e-01,  -2.50713016e-01,  -7.23397080e-02,
         -1.05846797e+00,   5.61298605e-01,   5.11996353e-01,
         -4.23227367e-02],
       [  9.36320207e-01,   3.91934272e-01,  -9.78188147e-01,
          6.28824981e-02,  -8.93301236e-01,  -7.71664207e-01,
          6.75034091e-02,  -1.55848578e+00,  -1.64002275e+00,
         -1.65877113e-01,  -1.84334203e+00,  -1.10781330e+00,
          7.33124492e-02,  -2.49455624e+00,  -2.48187013e+00,
          8.26357044e-02,   5.02604463e-02,  -1.70359835e+00,
          1.02270428e+00,   4.16919583e+00,   8.24025268e-02,
          1.99083960e-01,   1.10315479e+00,   2.88987264e-02,
         -1.46376099e+00,   4.24672848e-01,  -3.54898898e-04,
         -1.16781971e+00,   2.22788517e-01,  -6.20968852e-01,
          2.95114773e-01,   6.31312037e-02,  -1.45720518e-02,
          2.33926149e-01,   1.82980505e-02,  -1.16939839e+00,
          6.16414694e-03,   2.34691517e+00,   3.87414754e-01,
          5.35125517e-02,   2.20629792e-01,  -1.65317649e+00,
          4.56901883e-01,  -5.10300453e-01,  -3.11221977e-01,
         -7.07888565e-01,   7.84012168e-02,   4.46491265e+00,
         -1.19339129e+00,   3.03519678e-02,   2.60584887e-01,
          3.35602008e-02,   6.07232120e-02,  -1.02979855e+00,
          6.96127653e-02,   4.88256201e-02,  -1.89081909e-01,
          2.14678676e-01,  -1.40301370e+00,   2.96188827e-01,
          9.39957923e-01,   1.03320548e+00,   2.59999714e-01,
         -6.17846183e-02,   2.41701162e-01,  -4.63585740e+00,
          5.02625608e-02,  -5.31701893e-01,   3.56834873e+00,
          4.90940330e-02,   8.58920351e-02,  -1.42348767e+00,
         -4.06264490e-01,  -2.13765564e-02,   5.20650899e-02,
          3.04071299e-01,  -2.44172452e-02,   4.01688069e-01,
         -8.88215440e-01,   2.89081415e-01,   1.05943796e+00,
         -1.93952417e-03,   2.83257879e-01,  -4.14751836e+00,
          3.19643040e-01,   1.08514519e+00,  -1.17878283e+00,
         -1.67161881e+00,  -1.32286835e+00,   3.67141211e-01,
          3.28979860e-01,  -5.51509096e-01,  -1.37775920e+00,
          1.14929178e-01,   2.27032345e-01,  -1.86602492e+00,
         -1.93511960e+00,  -6.96347519e-01,  -9.44658429e-01,
          2.82659892e-01],
       [ -1.45420239e-01,  -1.54357488e-01,   3.42564954e-01,
          2.36126843e-01,   3.05682125e-01,  -1.73938662e+00,
          2.76343317e-01,   4.34722411e-01,  -4.45571788e-01,
          2.93011514e-01,  -2.85452735e-01,   3.41674791e-01,
          2.64085919e-01,   1.45395333e+00,   1.12669641e+00,
          2.83836708e-01,   2.50410553e-01,  -2.49200225e-01,
         -1.28180870e-01,  -1.65044309e+00,   2.87093740e-01,
          4.12678486e-01,  -1.00381027e-01,   5.66258442e-01,
          4.18756296e-01,  -6.80782258e-02,   2.61426511e-01,
          4.51978217e-01,  -3.86492194e-03,   9.92893472e-02,
          2.75916078e-03,   2.45404211e-01,   5.14571382e-01,
          1.73761298e-02,   5.58163826e-01,   3.49619179e-01,
          5.75403340e-01,  -1.80615981e+00,   1.21846876e-01,
          3.71665163e-01,  -2.28177389e-02,   4.38385329e-01,
         -2.50002765e-01,  -1.76198817e+00,   4.28901196e-01,
          1.42438908e-01,   3.52907376e-01,  -1.71364779e+00,
          3.41770914e-01,   5.22993674e-01,  -9.72404392e-03,
          5.11522359e-01,   4.16940445e-01,   2.05065870e-01,
          3.36314048e-01,   4.68579762e-01,  -8.65119440e-02,
         -1.26089524e-02,   3.93537434e-01,  -3.29229269e-02,
         -8.20686394e-02,  -2.74508971e-01,   1.03641049e-02,
          1.01441004e-01,   1.82017157e-02,   8.53513147e-01,
          4.73355046e-01,   1.33033025e-01,  -2.20746373e+00,
          2.50646320e-01,   2.74979656e-01,   2.80876082e-01,
          4.67857984e-01,   6.11049447e-01,   2.34102061e-01,
         -1.13512449e-02,   6.03751092e-01,   7.87730125e-02,
          2.87382461e-01,  -1.96017175e-02,  -2.23253170e-01,
          5.03487990e-01,   1.01563394e+00,   2.64859105e-01,
          2.65014987e-01,  -1.91334135e-01,   2.79509798e-01,
          4.54388808e-01,   4.37208753e-01,   1.65906970e-01,
         -5.20476967e-02,  -1.53260171e-01,   1.95135800e-01,
         -7.22367195e-01,  -8.49489010e-03,  -1.72259784e+00,
         -1.28464512e+00,   1.56497707e-01,   1.58419602e-01,
         -7.04820904e-03],
       [ -7.16857330e-01,   1.15918705e+00,   2.01297069e+00,
          1.60118340e-01,   2.05409371e+00,  -2.89718449e-01,
          1.50986934e-01,   2.21701798e+00,   8.46113730e-01,
          4.22904600e-01,   8.41075552e-01,   2.14300878e+00,
          1.59850559e-01,   2.58243707e+00,   1.90806495e+00,
          1.62097267e-01,   1.81247017e-01,   6.81384612e-01,
         -6.67967569e-01,  -3.03467372e+00,   1.61090196e-01,
          2.23738664e-01,  -6.12715565e-01,   7.18406427e-02,
          2.28363596e+00,   1.25335763e+00,   2.12346430e-01,
          6.44812979e-01,   1.06488885e+00,   1.85311171e+00,
          8.30257862e-01,   1.66433510e-01,   4.16263849e-02,
          1.14705534e+00,   6.00128644e-02,   2.19922355e+00,
          4.91706416e-02,  -2.46610729e-01,   1.39042656e+00,
          1.19393627e-01,   1.03267521e+00,   2.32561475e+00,
          1.18892653e+00,   1.46757447e-01,   6.70850253e-01,
          1.99421766e+00,   1.49697008e-01,  -1.77629259e+00,
          2.17344081e+00,   8.11367837e-02,   1.14605558e+00,
          8.60808637e-02,   1.20972210e-01,   6.61324084e-01,
          1.43622209e-01,   1.06635426e-01,   1.60914134e+00,
          1.03964763e+00,   2.12285580e+00,   1.17967359e+00,
         -8.02840801e-01,  -8.87446557e-01,   1.17717371e+00,
          1.62254108e+00,   1.15801631e+00,   2.96600359e+00,
          1.08503695e-01,   3.92914519e-01,  -2.24811286e+00,
          1.69783168e-01,   1.67756873e-01,   2.21540026e+00,
          7.16078816e-01,   2.78638439e-02,   1.69936495e-01,
          8.17392043e-01,   2.81783891e-02,   1.32094916e+00,
          2.01285430e+00,   1.18312728e+00,  -7.48182466e-01,
          3.58377269e-02,  -9.34232900e-01,   4.57586128e+00,
          1.49511577e+00,  -7.42308910e-01,   2.17890133e+00,
          2.31495415e+00,   2.22636499e+00,   1.43860485e+00,
          1.21433727e+00,   1.24095795e+00,   4.33080944e-01,
          9.59043638e-01,   1.06595542e+00,   1.66947904e+00,
          2.87468856e+00,   1.99121083e+00,   2.07222071e+00,
          1.18695595e+00],
       [  1.36615819e+00,   2.18890594e+00,   2.77704472e+00,
         -1.76144938e-01,   3.22598461e+00,   2.22841829e+00,
         -1.35642409e-01,   2.43855895e+00,  -2.25217194e+00,
         -2.41027355e-01,  -1.67315475e+00,   3.06290578e+00,
         -1.53486641e-01,   3.39575350e+00,   3.67856641e+00,
         -1.51222856e-01,  -2.38066560e-01,  -1.63078744e+00,
          1.37130606e+00,  -1.13124892e+00,  -1.46548136e-01,
         -4.09259630e-03,   1.31820096e+00,  -8.59369419e-02,
          2.77242895e+00,   2.74712643e+00,  -3.26378846e-01,
          3.23552386e+00,   1.80567389e+00,   3.06880823e+00,
          1.78167682e+00,  -1.87889374e-01,  -1.04840509e-01,
          1.85329140e+00,  -9.07336568e-02,   3.08982930e+00,
         -8.35158217e-02,   2.00557847e+00,   3.01360056e+00,
         -9.05882569e-02,   1.81937941e+00,   2.59685532e+00,
          2.43094441e+00,   2.38923626e+00,  -1.56767952e-01,
          3.41649543e+00,  -1.13079574e-01,   2.46563027e+00,
          3.10250421e+00,  -8.43057632e-02,   1.95352082e+00,
         -8.42581295e-02,  -8.86715992e-02,   3.10773538e+00,
         -1.10735545e-01,  -8.31160676e-02,   3.24818723e+00,
          1.85825062e+00,   2.50826743e+00,   1.96999790e+00,
          1.35509099e+00,   1.34929096e+00,   1.91925010e+00,
          3.26106981e+00,   1.89415735e+00,  -3.12303763e-02,
         -8.73573532e-02,   3.17630197e+00,  -1.09699848e+00,
         -2.11050418e-01,  -1.62567908e-01,   2.87800765e+00,
         -1.98888066e-01,  -4.39501477e-02,  -2.10643948e-01,
          1.76618315e+00,  -5.54912264e-02,   2.89496044e+00,
          2.99245860e+00,   1.95344048e+00,   1.35630900e+00,
         -6.70199789e-02,   1.22449784e+00,   1.59545376e+00,
          3.37269837e+00,   1.36509463e+00,   3.09525839e+00,
          2.51831165e+00,   2.78712090e+00,   3.05994608e+00,
          2.02295750e+00,   2.20312351e+00,  -1.69958113e+00,
          1.60920932e+00,   1.82572071e+00,   2.07128038e+00,
          4.41698728e-01,   3.42469279e+00,   3.22527314e+00,
          1.95354504e+00],
       [  3.18412953e-01,   2.94897774e-01,   3.81588505e-01,
          5.80137270e-03,   5.74569158e-01,  -2.75329596e+00,
          1.26294316e-02,   2.80214701e-01,  -3.55175249e-01,
         -1.11043466e-01,  -3.33373225e-01,   5.32328030e-01,
         -1.85129013e-03,  -1.64790230e+00,  -3.91369090e-02,
          9.53412508e-03,  -1.64756930e-02,  -4.84565925e-01,
          3.54990613e-01,   5.36256872e-01,   4.55420315e-03,
          7.62495371e-02,   3.47442236e-01,  -6.15448634e-04,
          4.36355939e-01,   4.62170106e-01,  -1.41288864e-02,
          2.81848209e-01,   1.34301550e-01,   6.58481569e-01,
          1.55510330e-01,  -1.44767547e-02,  -6.25119683e-02,
          1.15332462e-01,  -1.30311576e-02,   5.56830840e-01,
         -2.47206083e-02,  -1.07047409e+00,   5.95971510e-01,
          3.13105630e-02,   1.66168807e-01,   3.66019541e-01,
          4.15199158e-01,  -2.65578459e+00,  -1.76967717e-01,
          7.43369954e-01,   1.98148412e-02,   2.88824992e-01,
          5.59387606e-01,   6.69970503e-04,   1.51993417e-01,
          2.49431319e-03,   3.17236206e-02,   1.16061801e-01,
          2.61345678e-02,   3.22908308e-02,   9.56556915e-01,
          1.59133942e-01,   3.40284523e-01,   1.77341097e-01,
          4.32712263e-01,   6.34620531e-01,   1.23755295e-01,
          1.07010825e+00,   1.22358032e-01,  -5.39063091e-03,
          3.39465753e-02,  -7.35963513e-01,   1.62956478e+00,
         -1.16217364e-03,  -6.16331054e-03,   5.88162223e-01,
         -2.06588353e-01,  -6.95351969e-02,   1.97846605e-03,
          1.87881626e-01,  -7.35773149e-02,   5.68696046e-01,
          5.12741894e-01,   1.61229312e-01,   5.10245035e-01,
         -3.92114859e-02,  -2.99853876e-01,   2.59154126e+00,
          7.71452621e-01,   4.88972557e-01,   6.24109404e-01,
          3.24367149e-01,   3.84244121e-01,   6.52655292e-01,
          1.82423789e-01,   7.09495371e-02,  -3.95080974e-01,
         -7.62329324e-01,   1.55643297e-01,   6.76512578e-01,
          2.01035923e+00,   7.30991817e-01,   7.27877432e-01,
          1.49079941e-01],
       [ -3.86826323e-01,  -6.27721928e-01,  -1.08506348e+00,
         -2.57064603e-01,  -1.06514990e+00,  -8.06252858e-01,
         -2.28027893e-01,  -1.03478894e+00,  -5.63923023e-01,
         -3.21535175e-01,  -5.85839225e-01,  -1.06904589e+00,
         -2.42731116e-01,  -1.69088970e+00,  -2.32638259e+00,
         -2.31842049e-01,  -2.43966331e-01,  -8.51036529e-01,
         -5.18872007e-01,   1.35062152e+00,  -2.28539363e-01,
         -2.48512047e-01,  -3.53026120e-01,  -1.61067059e-01,
         -1.03838557e+00,  -4.47220041e-01,  -2.69511493e-01,
          5.16509098e-02,  -5.14237626e-01,  -9.25939059e-01,
         -1.63163270e-01,  -2.49605483e-01,  -1.66512795e-01,
         -6.02790936e-01,  -1.46510928e-01,  -1.02075874e+00,
         -1.60401410e-01,  -1.01565512e+00,  -4.01865913e-01,
         -1.90928986e-01,  -5.02538971e-01,  -9.94480212e-01,
         -5.66737058e-01,  -9.65313534e-01,  -4.01706689e-01,
         -9.00979221e-01,  -2.08229146e-01,   1.32273192e+00,
         -1.03246756e+00,  -1.30018940e-01,  -6.12508863e-01,
         -1.35564340e-01,  -1.60820781e-01,  -2.12802840e-01,
         -2.16389644e-01,  -1.59719029e-01,  -5.68863179e-01,
         -5.05307050e-01,  -1.07237541e+00,  -6.28024337e-01,
         -2.32863138e-01,  -9.74725125e-01,  -6.43037701e-01,
         -4.06296241e-01,  -6.22456387e-01,  -1.71482138e-01,
         -1.71313798e-01,  -3.48126384e-01,   2.63761027e+00,
         -2.64278787e-01,  -2.39155288e-01,  -8.92933229e-01,
         -3.67854024e-01,  -2.01853653e-01,  -2.53548101e-01,
         -3.34224971e-01,  -1.71408892e-01,  -3.89664778e-01,
         -1.05436694e+00,  -6.42488287e-01,  -8.25011074e-01,
         -1.67404958e-01,  -3.17965522e-02,   8.53453932e-01,
         -3.71144431e-01,  -7.55380399e-01,  -9.54186027e-01,
         -1.04573139e+00,  -1.12300284e+00,  -3.94251701e-01,
         -6.52781649e-01,  -1.78340899e-02,  -9.13934850e-01,
         -1.12112238e+00,  -5.15340796e-01,  -3.48195412e-01,
          1.03343864e+00,  -9.35436991e-01,  -8.55522204e-01,
         -6.46346711e-01]])]Hidden bias: [array([-1.17793726, -1.73169671, -1.76897132, -2.08864118, -1.74616089,
       -0.00518489, -2.08925387, -1.84998831, -2.79256685, -2.36207415,
       -3.26234536, -1.79023433, -2.0702347 ,  0.92178182,  0.30173792,
       -2.0797614 , -2.12565814, -3.14389353, -1.33649306,  1.33779576,
       -2.07675247, -2.37983259, -1.30550104, -2.36534926, -1.84173871,
       -1.23997104, -2.19491267, -2.10641128, -1.97486354, -1.58913646,
       -1.94187986, -2.09316457, -2.43552197, -1.9884516 , -2.384539  ,
       -1.78425966, -2.41344061,  0.42058644, -1.08231035, -2.16964677,
       -1.97390194, -1.85258596, -1.50179887, -0.10075691, -2.55745158,
       -1.61775621, -2.11490014,  1.10872596, -1.77851032, -2.32150842,
       -1.96409939, -2.3043772 , -2.19767702, -1.75900756, -2.11663226,
       -2.24491849, -1.17513288, -1.99459145, -1.82616993, -1.91170122,
       -1.07531364, -1.5744452 , -1.9629716 , -1.01883313, -1.97504517,
        0.94803784, -2.25035249, -1.09250098,  2.77080675, -2.12504685,
       -2.06700396, -1.733776  , -2.61551175, -2.52221522, -2.10863928,
       -1.97885286, -2.4986978 , -1.12306616, -1.73170378, -1.92067724,
       -1.54894316, -2.41140774, -1.82042809,  1.89138239, -1.01513928,
       -1.54398158, -1.74053198, -1.86962336, -1.86598557, -1.0547297 ,
       -1.86188919, -1.56467122, -2.99995801,  1.12837384, -1.98058971,
        2.55980172,  2.30487162, -1.6341193 , -1.64393999, -1.91966045])]Output weights: [[  2.31206225]
 [ -0.87129844]
 [ -1.857193  ]
 [  3.93694345]
 [ -2.06827429]
 [  4.41591099]
 [  3.92264253]
 [ -2.15282281]
 [  4.26310796]
 [  3.91842913]
 [  4.31422401]
 [ -2.11735277]
 [  3.91254136]
 [  7.53880235]
 [  7.33964572]
 [  3.90951432]
 [  3.93194589]
 [  4.29858565]
 [  2.20947036]
 [  8.46868426]
 [  3.92214254]
 [  2.5972065 ]
 [  1.77604095]
 [  3.7202073 ]
 [ -2.24814234]
 [ -1.35677   ]
 [  3.93471726]
 [  4.10682083]
 [ -0.57000407]
 [ -1.79902689]
 [  0.38668002]
 [  3.93595109]
 [  3.39046875]
 [ -0.72062121]
 [  3.71081106]
 [ -2.17816544]
 [  3.66942556]
 [  4.82057923]
 [ -1.64747116]
 [  3.86725795]
 [ -0.54484494]
 [ -2.31291167]
 [ -1.08150668]
 [  4.4111551 ]
 [  3.85471364]
 [ -2.06956793]
 [  3.88039641]
 [  8.86618091]
 [ -2.17876298]
 [  3.7637208 ]
 [ -0.73986541]
 [  3.75830043]
 [  3.82643887]
 [  3.85179107]
 [  3.90829413]
 [  3.82257364]
 [ -1.77655087]
 [ -0.55775231]
 [ -2.04060935]
 [ -0.80678135]
 [  2.45503071]
 [  2.14495384]
 [ -0.80299762]
 [ -1.93482754]
 [ -0.76902171]
 [  7.42042565]
 [  3.80408604]
 [  4.0932351 ]
 [  9.71217281]
 [  3.94069214]
 [  3.9186977 ]
 [ -2.18619742]
 [  3.79613917]
 [  3.55349478]
 [  3.93501393]
 [ -0.20913921]
 [  3.57717478]
 [ -1.55394026]
 [ -1.92180479]
 [ -0.81886243]
 [  2.03990553]
 [  3.35049905]
 [  2.60190834]
 [ 10.88701214]
 [ -1.95274164]
 [  1.99785908]
 [ -2.16071957]
 [ -2.32053346]
 [ -2.17277326]
 [ -1.73475564]
 [ -0.84804882]
 [  1.34816563]
 [  4.16534687]
 [  4.34160892]
 [ -0.58668439]
 [  5.36508026]
 [  6.44514139]
 [ -2.08529796]
 [ -2.06785201]
 [ -0.82332776]]Output bias: [-3.80351656]