Action MLP:Hidden weights: [array([[  2.04493261e-04,   5.09950444e-02,   1.44010912e-02,
          3.89193986e-02,   7.21991493e-02,   7.13236570e-02,
          6.61721011e-02,   1.07607731e-02,   4.55583355e-02,
          2.36576967e-02,   2.82835405e-02,  -6.58388701e-03,
          5.99710219e-02,   8.53604200e-02,   7.53516203e-02,
          1.49795831e-02,   5.74406107e-02,   5.44349411e-02,
          4.40589970e-02,   4.23202990e-02],
       [  2.24640909e-01,   2.02864481e-01,   2.36608757e-01,
          1.91913055e-01,   2.30942383e-01,   2.49768461e-01,
          2.53892816e-01,   1.86713054e-01,   2.32860018e-01,
          2.39999983e-01,   1.82614636e-01,   2.04894897e-01,
          2.34815616e-01,   2.69755160e-01,   2.30147248e-01,
          1.82830547e-01,   2.42353345e-01,   2.29531620e-01,
          2.26395512e-01,   2.10197683e-01],
       [ -1.04699072e-01,  -1.27519612e-01,  -9.81375963e-02,
         -1.11794446e-01,  -1.17591504e-01,  -1.04520548e-01,
         -9.12100619e-02,  -1.19755803e-01,  -1.04896096e-01,
         -1.01522813e-01,  -1.18321147e-01,  -1.01011679e-01,
         -1.03127658e-01,  -1.01778857e-01,  -1.22901456e-01,
         -1.26614436e-01,  -1.29195057e-01,  -1.16575904e-01,
         -1.11801511e-01,  -1.27538189e-01],
       [ -3.26372055e-01,  -3.66808483e-01,  -3.23810355e-01,
         -3.35947689e-01,  -3.22898276e-01,  -3.14579062e-01,
         -3.03423871e-01,  -3.47776022e-01,  -3.00171089e-01,
         -3.13785659e-01,  -3.66931403e-01,  -3.56085649e-01,
         -3.19065675e-01,  -3.03700950e-01,  -3.34212674e-01,
         -3.83766164e-01,  -3.13055800e-01,  -3.19167390e-01,
         -3.38000004e-01,  -3.44271735e-01],
       [ -7.13255097e-03,   6.88654334e-02,  -2.27275397e-02,
          7.60265759e-02,  -1.99375964e-02,   8.51333887e-03,
         -2.20708066e-02,   7.45267599e-02,   3.92556650e-02,
          2.49688158e-02,   8.80612077e-02,  -2.42380770e-02,
          4.31260593e-02,  -3.19849006e-02,  -1.81090395e-02,
          6.64500925e-03,   5.24902271e-02,  -4.10037746e-02,
         -3.58575884e-02,  -3.53069130e-03],
       [  2.81838462e-02,   1.24511685e-01,   3.36460783e-02,
          7.91845538e-02,   8.50059437e-02,   9.25963277e-02,
          5.76157921e-02,   5.39805769e-02,   7.85354590e-02,
          4.96952278e-02,   7.86529708e-02,   8.09753140e-03,
          7.81928891e-02,   8.82045809e-02,   1.01994726e-01,
          4.08025791e-02,   1.19348087e-01,   7.41130712e-02,
          5.67833502e-02,   6.40167032e-02],
       [  1.70989660e-03,   1.18721636e-02,  -2.08179761e-03,
          5.30208950e-03,   5.82902265e-03,   1.11476182e-02,
          6.99699503e-03,   5.63919253e-03,   1.59906567e-02,
          4.25100613e-03,   1.17430095e-02,   6.84165680e-03,
          7.32931123e-03,   5.84679337e-03,   1.21782005e-02,
          6.15627608e-03,   8.67976508e-03,   2.31451307e-03,
          6.84591519e-03,   9.56470174e-03],
       [  1.04483440e-02,   1.85285857e-02,   3.86674032e-03,
          1.24582754e-02,   5.69664417e-03,   1.71290586e-02,
          1.81088788e-02,   3.23797187e-04,   1.73888744e-02,
          1.62058179e-02,   3.69590346e-03,  -4.09407022e-03,
          1.35257094e-02,   8.09533608e-03,   2.14775629e-02,
         -1.92063619e-03,   1.17803779e-02,   1.17480827e-02,
          1.04420243e-02,   1.66638564e-02]])]Hidden bias: [array([-0.61728233, -0.61828273, -0.61632285, -0.61945131, -0.61190249,
       -0.61096949, -0.61237025, -0.62020948, -0.61474943, -0.61636038,
       -0.62173925, -0.6163464 , -0.61464377, -0.60731583, -0.61137432,
       -0.61763051, -0.61195644, -0.61365135, -0.61757958, -0.61808713])]Output weights: [[ 0.10541253  0.0753581 ]
 [ 0.14489843  0.12859405]
 [ 0.10227696  0.08352229]
 [ 0.13210581  0.10850068]
 [ 0.11606138  0.12721001]
 [ 0.09001079  0.13902961]
 [ 0.08553631  0.12348887]
 [ 0.13588705  0.08791251]
 [ 0.08494125  0.12720333]
 [ 0.08299025  0.10465317]
 [ 0.15366802  0.09999072]
 [ 0.13780198  0.06139699]
 [ 0.09169124  0.13220937]
 [ 0.08594987  0.14583878]
 [ 0.12425096  0.13350044]
 [ 0.15753204  0.08075858]
 [ 0.09983424  0.14935536]
 [ 0.11812816  0.11413679]
 [ 0.12593459  0.10291309]
 [ 0.13187726  0.10560708]]Output bias: [ 0.92301993  0.87387532]
Value MLP:Hidden weights: [array([[ -1.13444845e+01,  -2.93289795e+01,  -4.76510209e+01,
         -2.59482120e+01,   3.80433083e+01,  -2.79753927e+01,
          3.25508509e+01,   2.48353125e+01,   3.39872026e+01,
          6.57681175e-01,   5.07891575e+01,   3.55668130e+01,
         -2.24164013e+01,   1.95863411e+00,  -4.66185949e+01,
          5.24117540e+01,   1.14636025e+01,  -3.98587592e+01,
          5.03255430e+01,  -1.86141904e+01],
       [  3.24616275e+01,   2.54199324e+00,   6.58009454e-01,
         -1.71612344e+00,   8.81849473e+00,   1.65338949e+01,
         -2.65444563e-02,   7.60542142e+00,   8.20374225e-01,
         -5.82962285e-01,   1.31722243e+01,  -1.29557173e+00,
          3.02909291e+00,  -5.91775705e+00,  -6.77824753e+00,
          1.64108997e-01,  -1.20272216e+01,  -1.49466745e+00,
          1.34217999e+01,  -4.21506737e-01],
       [  1.68342580e+01,  -3.56089183e+01,  -2.33171531e+01,
         -3.98765145e+01,   5.97505915e+01,  -3.77943195e+01,
          3.66891554e+01,   3.42921780e+01,   4.96219526e+01,
         -2.34789229e+01,   3.82108505e+01,   4.32010726e+01,
         -2.88560871e+01,   6.72349168e-01,  -1.98653831e+01,
          1.51953143e+01,   6.22604702e+01,  -9.92222149e+00,
          3.26134948e+01,  -3.87919395e+01],
       [  1.05400274e+01,   3.08370397e+00,   3.86048498e+00,
         -2.43518908e+00,  -8.55221017e+00,   3.98488395e+00,
         -6.48225661e+00,  -6.18847317e+00,  -6.86345582e+00,
          1.45000503e+00,  -1.44341268e+00,  -1.09290135e+00,
         -9.51812917e-01,   1.60626416e+00,   2.87901242e+00,
         -4.57871448e+00,  -4.64225532e+00,   2.91640828e+00,
         -3.77395128e+00,   3.38378725e+00],
       [  6.78727242e+00,  -2.18236454e+01,  -3.93192524e+01,
         -3.38768906e+01,   2.41190623e+01,   1.86543673e+01,
          1.32671385e+00,   2.82431753e+01,  -1.64893679e+01,
          3.04477046e+01,   2.96614523e+01,  -2.36770399e+00,
          2.44290224e+01,   1.18083461e+00,  -2.66312278e+01,
          4.30274811e+01,  -6.98889833e+00,  -3.21062037e+01,
          3.98889204e+01,   4.41842915e+00],
       [ -1.81523463e+01,  -3.59751657e+01,  -1.89266129e+01,
          4.95846112e+01,   1.78129386e+01,  -4.86849876e+01,
          6.00780531e+01,   3.36257640e+01,   2.11901097e+01,
         -1.92829555e+01,   8.41197164e+00,   2.85233793e+01,
         -2.92398827e+00,  -3.02841222e-01,  -2.14240542e+01,
          4.33285616e+00,   2.20059262e+00,   1.26348288e+00,
         -3.79987867e+01,  -3.37078278e+01],
       [ -5.93816638e+01,  -1.34637847e+01,  -1.07367626e+01,
          6.53312650e+00,  -2.21121852e+01,  -3.95846112e+01,
         -2.94243019e+00,   1.95024919e+01,  -1.88641009e+01,
         -1.46285836e+01,  -3.61955833e+01,  -2.85282366e+01,
         -2.66602660e+01,  -3.13912320e-02,   9.12173612e+00,
         -2.64656699e+01,   2.90324047e+01,   2.76137542e+01,
         -5.30308551e+01,  -1.85202811e+00],
       [ -2.44952520e+01,  -5.04062182e+00,  -1.13650509e+00,
         -9.66790703e+00,  -3.51975430e+01,   5.78717050e+00,
         -2.99660565e+01,  -5.31080297e+01,  -5.06073536e+00,
          1.25391574e+01,  -2.27838365e+01,  -3.06586844e+01,
         -3.09482043e+00,   1.79545698e-01,   6.79683104e+00,
         -1.62293408e+01,   1.46941233e+01,   5.77684238e+00,
         -1.93650615e+01,  -1.93679231e+00]])]Hidden bias: [array([-62.16610678,  -2.39271595,   1.69462181,   1.57567533,
        -3.21386689, -14.51765725,  -4.17647119,   2.06110518,
        -1.73945368,  -4.6611041 , -18.32044779,   2.77477594,
        -7.28752433,  -8.70062542,   4.48735715,  -8.32743846,
        17.87191401,  -1.80660837, -13.62383978,  -4.10936561])]Output weights: [[-10.00402708]
 [ -0.09778983]
 [  5.72213788]
 [ -6.54040118]
 [  1.59391056]
 [  5.79080133]
 [ -7.97809004]
 [  4.6799374 ]
 [-11.20353248]
 [-11.70415972]
 [ -8.49660883]
 [  5.47903676]
 [ -7.53449506]
 [ 63.58778182]
 [ -2.77781585]
 [ -5.55358442]
 [  8.95678728]
 [ -8.4143295 ]
 [ -8.74149193]
 [  0.91996   ]]Output bias: [-67.69808766]