Action MLP:Hidden weights: [array([[ -5.59377946e-03,   4.43452315e-02,   8.54671535e-03,
          3.23329660e-02,   6.47478479e-02,   6.44308330e-02,
          5.98558287e-02,   4.40573429e-03,   3.93036596e-02,
          1.78331232e-02,   2.16536108e-02,  -1.30733929e-02,
          5.33849786e-02,   7.84227473e-02,   6.75493778e-02,
          7.45129620e-03,   5.09517059e-02,   4.72970551e-02,
          3.69057014e-02,   3.49532556e-02],
       [  2.40605562e-01,   2.29487709e-01,   2.51526658e-01,
          2.15442992e-01,   2.50908312e-01,   2.67158910e-01,
          2.67963858e-01,   2.09526819e-01,   2.50293959e-01,
          2.55154389e-01,   2.08222610e-01,   2.23612683e-01,
          2.53384443e-01,   2.84753146e-01,   2.51951940e-01,
          2.07377134e-01,   2.64095042e-01,   2.48484326e-01,
          2.45574990e-01,   2.32140103e-01],
       [ -1.12397549e-01,  -1.33904837e-01,  -1.06389626e-01,
         -1.19197880e-01,  -1.27154653e-01,  -1.13202919e-01,
         -1.00305190e-01,  -1.26948852e-01,  -1.12248652e-01,
         -1.08879910e-01,  -1.25619346e-01,  -1.09737777e-01,
         -1.10844680e-01,  -1.11918364e-01,  -1.32544523e-01,
         -1.35593723e-01,  -1.35660298e-01,  -1.26186697e-01,
         -1.21539660e-01,  -1.36521635e-01],
       [ -3.32549540e-01,  -3.75574707e-01,  -3.29802701e-01,
         -3.44036956e-01,  -3.30561322e-01,  -3.21315724e-01,
         -3.09318318e-01,  -3.55630631e-01,  -3.06581344e-01,
         -3.19607896e-01,  -3.75546959e-01,  -3.63269537e-01,
         -3.25875991e-01,  -3.10088042e-01,  -3.42439251e-01,
         -3.92682867e-01,  -3.20436602e-01,  -3.26535102e-01,
         -3.45470911e-01,  -3.52404118e-01],
       [  6.91390254e-03,   8.20601879e-02,  -7.92796526e-03,
          8.98755456e-02,  -1.59509085e-04,   2.81082860e-02,
         -4.16920584e-03,   8.74449323e-02,   5.61180324e-02,
          4.06815998e-02,   1.00649486e-01,  -9.76917199e-03,
          6.07334018e-02,  -1.16108936e-02,   2.39607760e-03,
          2.28458525e-02,   6.87003921e-02,  -2.25199080e-02,
         -1.78772092e-02,   1.43015958e-02],
       [  4.18297617e-02,   1.37650764e-01,   4.77368756e-02,
          9.32772303e-02,   1.02400441e-01,   1.09013619e-01,
          7.34801892e-02,   6.77685071e-02,   9.31957657e-02,
          6.37036245e-02,   9.25009897e-02,   2.31859225e-02,
          9.35815455e-02,   1.05467835e-01,   1.19741698e-01,
          5.74875406e-02,   1.33319522e-01,   9.08954712e-02,
          7.36361733e-02,   8.07433981e-02],
       [  1.08247083e-03,   1.14799685e-02,  -2.72686031e-03,
          4.80589868e-03,   5.24140250e-03,   1.06328145e-02,
          6.34664153e-03,   5.09597128e-03,   1.54964350e-02,
          3.70844311e-03,   1.12409251e-02,   6.03142364e-03,
          6.81159142e-03,   5.25949691e-03,   1.16336134e-02,
          5.45315989e-03,   8.28775592e-03,   1.69382387e-03,
          6.15911275e-03,   8.94437104e-03],
       [  1.12209812e-02,   1.96136018e-02,   4.63213010e-03,
          1.35245271e-02,   6.71799748e-03,   1.80584359e-02,
          1.89312655e-02,   1.36575791e-03,   1.82680347e-02,
          1.69951378e-02,   4.84658943e-03,  -3.25717434e-03,
          1.44577196e-02,   9.01066483e-03,   2.25457348e-02,
         -8.15061285e-04,   1.27385300e-02,   1.27299177e-02,
          1.14208629e-02,   1.77115107e-02]])]Hidden bias: [array([-0.60663859, -0.60233044, -0.6059378 , -0.60493731, -0.59804362,
       -0.59848945, -0.60177467, -0.60630271, -0.60295544, -0.6058737 ,
       -0.60630868, -0.60432833, -0.60212273, -0.59553318, -0.5964284 ,
       -0.60230323, -0.59813632, -0.60047794, -0.60441566, -0.60371905])]Output weights: [[ 0.1143273   0.07850452]
 [ 0.1618502   0.14619328]
 [ 0.11109361  0.08515978]
 [ 0.14399166  0.12270153]
 [ 0.12769731  0.13326921]
 [ 0.10475083  0.14831181]
 [ 0.09530416  0.12588789]
 [ 0.14713027  0.1010948 ]
 [ 0.09794374  0.13819615]
 [ 0.09536427  0.11245979]
 [ 0.16671243  0.11563369]
 [ 0.14369931  0.0614713 ]
 [ 0.10559907  0.14372198]
 [ 0.09945623  0.15043986]
 [ 0.13789588  0.14162584]
 [ 0.16682728  0.08764517]
 [ 0.11834493  0.16582938]
 [ 0.12793156  0.11728863]
 [ 0.13519056  0.10541884]
 [ 0.1426101   0.11255609]]Output bias: [ 0.99504372  0.90483186]
Value MLP:Hidden weights: [array([[  8.44626591e-01,   7.82986642e+00,   1.63662812e+01,
          1.70991355e+00,   6.87444710e+00,   1.63187987e+01,
         -1.94148952e+01,  -1.53598343e+01,  -3.76839714e+00,
         -1.30659263e+00,  -9.79769852e+00,   6.01665914e+00,
         -1.35777770e+00,   1.94395934e+00,   9.76254864e+00,
         -1.69157845e+01,   1.48207071e+01,   1.28225094e+01,
         -2.59316364e+00,  -2.49275935e+01],
       [  4.32314823e+00,   7.57737736e+00,   4.09475322e-02,
          1.76320084e+00,   1.24227479e+01,   9.94925314e+00,
          2.21105648e+01,   1.04138361e+01,   1.19540474e+01,
          1.21874757e+00,   2.85275302e+00,   4.99725266e+00,
          1.19672092e+00,  -5.91693187e+00,  -6.38325591e+00,
         -2.21770158e+00,  -1.46575630e+01,  -8.64175848e-01,
          1.56262542e+01,   8.23756194e+00],
       [ -2.87523933e+01,   2.98807965e+01,   2.08077876e+01,
          1.89959744e+01,  -6.87352928e+00,   1.36327102e+01,
         -3.66329729e+00,  -2.27144968e+01,  -2.84513673e+01,
         -4.56555849e-01,  -2.53614097e+01,  -9.14069068e+00,
         -6.51576861e-01,   6.51970537e-01,   3.04572842e+01,
         -2.43944191e+01,   3.59062410e+01,   2.97465444e+01,
         -4.96115286e+01,  -1.67467439e+01],
       [  1.00970896e+01,  -3.31234940e+00,  -5.09139940e+00,
          3.26234470e+00,   1.19077670e+00,   8.19104191e+00,
          1.42536281e+01,   5.34292473e+00,   1.10562454e+01,
         -4.61115155e+00,   9.91806120e+00,  -1.84693554e+00,
         -4.52050240e+00,   1.62230023e+00,  -1.04425376e+01,
         -6.62349228e+00,  -9.31053230e+00,  -2.25575771e+00,
          1.27124341e+01,   3.82109218e+00],
       [ -5.96424653e+00,  -4.17787821e+01,   5.24559758e+00,
         -1.28239418e+01,   2.25646965e+01,   2.85868732e+01,
         -1.49600170e+01,  -7.18602839e+00,   1.97046146e+01,
         -1.02003505e+00,  -5.75486570e+00,   3.00246457e+01,
         -8.60821203e-01,   1.16425347e+00,  -8.88786614e+00,
         -1.01286767e+01,   3.33700568e+01,   4.55421885e+00,
          4.57468911e+01,  -2.71606133e+01],
       [ -2.59817793e+01,  -8.23593252e+00,   2.76205864e+01,
          3.09951709e+01,   1.25145478e+01,   1.01535553e+01,
          3.82322344e+01,  -2.27612279e+01,  -4.13876700e+00,
          9.26354784e-02,  -4.26303137e+01,   8.84917773e+00,
          4.17082242e-02,  -3.08808887e-01,   1.48712476e+01,
         -2.20791504e+01,   3.40865635e+01,   2.40246194e+01,
         -3.48192012e+01,  -1.73743992e+01],
       [  2.30495658e+00,   4.40355529e-01,  -5.14291152e+00,
          8.84475015e+00,  -1.40633516e+01,  -1.88956489e+01,
         -6.89857190e+00,  -1.16028629e+00,  -2.65688990e+01,
          3.70523808e+00,  -1.70132008e+01,  -2.70976408e+01,
          3.53654299e+00,  -1.88034246e-02,   5.49998389e+00,
          6.03921565e-01,   2.53643340e+01,  -2.68468295e+00,
         -2.10922318e+01,  -5.76076275e+00],
       [ -3.26473501e-01,  -1.37179433e+01,  -5.49761795e+00,
         -1.72613667e+00,  -1.89501894e+01,  -2.16130603e+01,
         -1.64204355e+01,  -1.95458461e+01,  -8.62068518e+00,
          1.26374912e+00,   3.51349487e+00,  -3.24444671e+00,
          1.24831142e+00,   1.69965499e-01,  -9.90127813e-01,
          6.96308724e-01,   2.29992827e+00,   1.92050028e+00,
         -2.27348747e+01,  -1.21685500e+01]])]Hidden bias: [array([ -9.09188102,  -0.15096557,   3.79869984,   3.48571423,
       -13.16205391, -21.90802064, -23.21888493, -13.51710906,
       -15.09814617,   6.01823719,  -2.44215919,  -2.05372981,
         5.64796447,  -8.71707577,  13.05858088,  -2.04309057,
         9.32186234,  -2.69647155, -15.85115022,  -8.56397948])]Output weights: [[  5.99523386]
 [ 11.74052687]
 [  1.14805926]
 [  7.91976754]
 [-23.49179895]
 [ -1.27003348]
 [  5.86813028]
 [ -3.27077822]
 [ -5.01764273]
 [-22.23415249]
 [ -2.27034575]
 [ 24.30349181]
 [-22.23219298]
 [ 36.22965753]
 [ -0.8780848 ]
 [  1.55293088]
 [ -0.08376528]
 [ -8.55070025]
 [  8.08573575]
 [ -7.97555363]]Output bias: [-40.34007082]