Action MLP:Hidden weights: [array([[-0.42492814,  0.24168932, -0.41390915,  0.13356979,  0.01117031,
         0.39336751, -0.04852715, -0.05575866,  0.05827151, -0.1425857 ,
         0.02184877,  0.46089369,  0.44976514, -0.43266434, -0.09397885,
        -0.40547422, -0.33282252, -0.15236781, -0.30467495, -0.42981193,
         0.08436571,  0.38347426,  0.23285637, -0.16454798,  0.27277558,
         0.46925546,  0.56896197,  0.45922288, -0.23646602, -0.09607101,
         0.43984524, -0.24516393, -0.06917474, -0.42400353,  0.18142971,
        -0.23095397,  0.22108073,  0.09936968,  0.28747594,  0.33918083,
         0.27307048,  0.16780817,  0.49370645,  0.41964845, -0.02506133,
        -0.07906287,  0.46280533,  0.28250849,  0.42344116,  0.31369153],
       [ 0.56539388, -0.25174167,  0.69131994,  0.64787595,  0.39331374,
         0.49160202,  0.40446563,  0.55067238,  0.6068807 ,  0.49697548,
         0.77222013, -0.1518367 , -0.37964951,  0.48782572, -0.01668119,
        -0.25479318,  0.40676003,  0.23167403,  0.49354324, -0.06405812,
         0.67603579,  0.40384746,  0.26540299,  0.24390637,  0.20201137,
         0.57418509,  0.46110218,  0.2847901 , -0.07967524,  0.4782802 ,
        -0.11607817,  0.16879641,  0.07461074, -0.33228804,  0.13983481,
        -0.33863791,  0.01404994, -0.01678972,  0.18079841,  0.5630294 ,
        -0.37321817,  0.18408091,  0.45476579,  0.04092347,  0.4951106 ,
        -0.20594056,  0.21601696, -0.52197683,  0.24779796, -0.0059025 ],
       [ 0.36362308, -0.39367857, -0.23438443, -0.22031539, -0.42890587,
         0.48307532,  0.42735812,  0.14734144, -0.3472922 ,  0.24385088,
        -0.23995905, -0.02970695, -0.18314347,  0.02642619, -0.27382687,
         0.36327191,  0.44231059, -0.23451968, -0.18010692,  0.40422537,
         0.24177423, -0.28373811, -0.25818766, -0.40126543,  0.39697269,
        -0.24762629,  0.00475889,  0.0456313 ,  0.03115057, -0.07646346,
        -0.2691799 , -0.22099305,  0.19324044,  0.09758169, -0.08819777,
         0.39090123,  0.41993971, -0.01872732, -0.45418319,  0.19729523,
        -0.29160754, -0.41628195, -0.21776837, -0.3407425 ,  0.4570242 ,
        -0.29308834,  0.04654236,  0.01680613,  0.15754812, -0.4070787 ],
       [-0.23272222, -0.35159706,  0.09013576, -0.70918294,  0.06908479,
         0.30714464, -0.63875833,  0.19257356, -0.53323357,  0.0143407 ,
         0.00754594,  0.03601106,  0.22802504,  0.12164092, -0.21520302,
        -0.07408668, -0.17475446, -0.61813373, -0.0504627 ,  0.21710156,
        -0.82720619, -0.09276562, -0.61816054, -0.28680111,  0.08504378,
        -0.39396086, -0.48053207,  0.39293557,  0.42665217,  0.39707006,
        -0.48977617,  0.2357076 , -0.07143006, -0.3732389 , -0.51785754,
         0.23200951,  0.09512997,  0.33534188,  0.21216509,  0.33819653,
        -0.49899903,  0.47861351,  0.21007353, -0.2676827 ,  0.21739889,
        -0.07340015,  0.35922523,  0.25861204, -0.80661609,  0.30826252],
       [ 0.21251024, -0.28587931, -0.28715644, -0.1586467 , -0.37256271,
         0.33012748, -0.30099985, -0.25685448,  0.39610259,  0.18574355,
        -0.15323666, -0.17028301, -0.02609642, -0.32869978, -0.01196838,
         0.01409928,  0.06171962, -0.11236401,  0.1977878 , -0.29640466,
         0.00296712, -0.35713328, -0.25845249, -0.22971587, -0.42246147,
         0.31685578, -0.03980877, -0.22217644,  0.45034576,  0.52471435,
         0.23347073, -0.07636181,  0.54485361, -0.20781354,  0.13463871,
        -0.36644728, -0.35425715, -0.24716845,  0.39702812, -0.48309066,
        -0.40525424, -0.13267107, -0.15233255, -0.41144248, -0.16072445,
        -0.00938503, -0.41378445,  0.29043752,  0.30034994,  0.26714586],
       [-0.35474152, -0.22557532, -0.39859127, -0.18128036,  0.40234046,
        -0.28246015,  0.33751131, -0.19860173,  0.75667966,  0.37444803,
        -0.99398054, -0.28067932, -0.39117518, -0.20012186, -0.15498178,
         0.05041766, -0.04501936, -0.1541903 ,  1.32767469,  0.21013434,
        -0.64292999, -0.14079674,  0.10947165,  0.26764434, -0.37836038,
         0.68604161,  0.32332287,  0.02978312, -0.26937565,  0.43970134,
         0.15808516, -0.35736045,  0.27082781,  0.36000448,  0.01516928,
         0.48989345,  0.29427741,  0.1583701 , -0.05016051, -0.02151758,
         0.40213352, -0.45629461,  1.06719863,  0.10842208,  0.18285497,
        -0.42675912,  0.00852877,  0.57119715, -0.093353  , -0.30981774],
       [-0.15232742,  0.27865148, -0.35138977, -0.36430675, -0.29145016,
         0.17111622,  0.26532966, -0.1186567 ,  0.24895496, -0.13631548,
        -0.001613  ,  0.22437688, -0.02886736, -0.47848469, -0.1599909 ,
        -0.24947543,  0.41096191, -0.45781674,  0.08560281,  0.39786001,
        -0.33347921,  0.05926345, -0.18887848,  0.06140213,  0.52369403,
        -0.17058532, -0.13339982,  0.14319026,  0.02832747, -0.11093201,
        -0.01776982,  0.04928232,  0.50262454,  0.35665328,  0.33979026,
         0.19214457, -0.09029101, -0.05464705, -0.43533942, -0.33825007,
         0.29390748, -0.11419084,  0.31637982, -0.21731543, -0.0527826 ,
         0.03083851,  0.09151323,  0.36454287,  0.1004481 ,  0.16172467],
       [-0.41398972, -0.04253319,  0.4476648 ,  0.12749171,  0.24242672,
         0.25445497,  0.21791289, -0.21228286,  0.07392437, -0.15295172,
        -0.04917656,  0.5063584 ,  0.19870261,  0.45693405, -0.15914254,
         0.25197512, -0.06928543, -0.23424967, -0.12556743,  0.04330778,
        -0.39044955,  0.49128145, -0.01333992, -0.44935186,  0.08876964,
         0.2217091 , -0.15512367, -0.18131377, -0.25119889, -0.07538735,
         0.49490122, -0.24424258,  0.05884627,  0.35866545, -0.17796546,
        -0.0942725 ,  0.446266  , -0.01731539, -0.48985948, -0.11500033,
         0.05920393,  0.06115351, -0.35581018, -0.4373993 , -0.21896439,
         0.10029081,  0.09799637,  0.10338335, -0.46298567,  0.24749225]])]Hidden bias: [array([-0.77671949, -0.76177774, -0.81539878, -0.85039303, -0.76482334,
       -0.70246018, -0.72393344, -0.66498614, -0.64784918, -0.71494454,
       -0.64644078, -0.77694402, -0.86577614, -0.6576314 , -0.75029538,
       -0.7897928 , -0.69108382, -0.73256003, -0.44308085, -0.71595901,
       -0.83740259, -0.82535752, -0.73701112, -0.76436473, -0.7579515 ,
       -0.67211953, -0.78299137, -0.70053489, -0.73929811, -0.66312612,
       -0.70141389, -0.94148106, -0.83143426, -0.80557256, -0.68360074,
       -0.83901123, -0.77928628, -0.85726348, -0.7196375 , -0.77114462,
       -0.8451408 , -0.76858619, -0.42415946, -0.76765948, -0.71641407,
       -0.82414692, -0.6912646 , -0.908101  , -0.69845256, -0.79584981])]Output weights: [[ 0.12478977 -0.16795805]
 [-0.03197531  0.20778907]
 [ 0.13912565 -0.20739066]
 [ 0.39814484 -0.07937074]
 [ 0.08999652  0.09008242]
 [-0.14696422 -0.17209329]
 [ 0.30459661  0.06472255]
 [-0.21948449 -0.21593846]
 [ 0.38968172  0.47729693]
 [ 0.11769605  0.12694651]
 [-0.16632375 -0.5060114 ]
 [-0.17771367  0.43435908]
 [ 0.32550858  0.19480822]
 [-0.3001811  -0.11931595]
 [-0.17084897  0.11607684]
 [-0.0916577   0.25391844]
 [ 0.18356109 -0.14308268]
 [ 0.36186104 -0.09663568]
 [-0.10381958  0.81389115]
 [-0.22368348  0.04353458]
 [ 0.47398335 -0.44469845]
 [ 0.1786743   0.26747755]
 [ 0.29455763  0.23477555]
 [-0.04373854 -0.02973034]
 [ 0.01570716 -0.08728729]
 [ 0.22838642  0.41881896]
 [ 0.23272283  0.2892889 ]
 [-0.10338943 -0.13915824]
 [-0.29529029  0.14265362]
 [-0.18712964  0.12191208]
 [ 0.41645291  0.31627927]
 [ 0.28831327  0.23308539]
 [-0.15399176 -0.3182503 ]
 [ 0.22410291 -0.36744479]
 [ 0.2151146  -0.13040507]
 [ 0.04223718 -0.45987802]
 [-0.08639448 -0.1669274 ]
 [ 0.22581309  0.25085822]
 [-0.24207773  0.10224546]
 [-0.06653259 -0.19618238]
 [ 0.05745075 -0.30555528]
 [-0.37483158  0.36353634]
 [-0.00892368  0.54432487]
 [ 0.35866008  0.06200918]
 [-0.22256755 -0.03442894]
 [-0.02528234  0.44706784]
 [-0.32598281  0.22000085]
 [-0.07401519 -0.50114255]
 [ 0.52397639 -0.16414322]
 [ 0.06269714  0.29469754]]Output bias: [ 0.88062463  0.91324167]
Value MLP:Hidden weights: [array([[  2.26055942e-02,  -8.86915082e-01,  -4.45873654e-01,
         -9.56521808e-01,  -3.81202795e-01,   2.38122824e-01,
         -2.77119845e+00,  -2.03693765e+00,  -6.20200797e-01,
          1.90164522e+00,  -9.67466483e-01,  -1.50156704e-01,
         -2.30576302e+00,  -1.65927640e+00,  -8.03131409e-01,
         -1.10544313e+00,  -1.74532143e+00,  -1.71607947e+00,
         -5.91100079e+00,   5.09647669e-01,  -5.42938654e-02,
         -3.45214071e+00,  -4.03216600e+00,  -1.20721023e-01,
          2.05536710e-01,  -4.62764668e-01,   2.84258586e+00,
          2.50856572e-01,   1.95651060e+00,   5.33732887e-01,
          5.74557272e-01,   3.76869530e+00,  -8.75543778e-01,
         -2.73105187e-02,   2.29645662e+00,   9.10683001e-01,
          4.36218686e-01,   1.75570259e-01,   7.17267227e-01,
          4.60917219e-02,  -6.32025414e-01,   1.16368791e+00,
         -2.06430924e-01,   9.01964607e+00,   3.58185700e+00,
         -1.17157426e+00,   2.27724374e-01,  -1.64966529e+00,
          9.01003744e+00,   4.58682590e-02],
       [ -1.09401553e+00,  -3.42408842e+00,  -1.43203325e+00,
         -4.65445781e+00,  -1.16018959e+00,  -7.91606005e-01,
          8.32536744e-01,  -3.07348018e+00,  -1.01024473e+00,
         -2.18255511e+00,   2.44276362e+00,  -1.05800032e+00,
         -6.44282023e+00,  -2.86142092e+00,  -9.08239742e-01,
         -2.85529118e+00,   2.76019033e+00,  -7.31372885e-01,
         -1.40387856e+00,   3.31116176e-01,  -1.62345023e+00,
         -5.40340596e-01,  -1.12601558e+00,  -8.53498633e-01,
          2.02255960e+00,  -1.07702079e+00,  -2.92803843e-01,
          4.09737273e-02,  -5.67753226e+00,  -1.65457262e+00,
         -2.33567766e+00,   3.02237092e+00,  -3.99332036e+00,
         -1.09036086e+00,  -2.67303567e+00,  -1.40054663e+00,
         -3.92572902e+00,  -1.88371846e+00,  -1.41851002e+00,
         -1.82229728e+00,  -1.19411138e+00,  -2.43116813e+00,
         -7.81767617e-01,  -2.89325204e+00,  -9.15001151e+00,
         -3.41463870e-01,  -8.49561673e-01,   4.32117783e+00,
          3.48294689e+00,  -7.77887639e-01],
       [  5.47216356e-02,  -2.37541680e+00,  -2.02486735e-01,
         -5.00761633e-01,  -3.77978240e-01,   1.44406586e-01,
          8.97894586e+00,  -4.78441173e+00,   5.63341765e-02,
          5.01708823e+00,  -1.23982432e+00,   5.24189478e-01,
         -6.00434438e+00,  -9.13143283e+00,   5.63705047e-01,
         -2.46254528e-02,   8.23920627e-01,  -3.26449286e+00,
         -7.70706014e+00,  -6.52447612e-01,   2.00922582e+00,
         -6.97149645e+00,  -8.71639497e+00,  -3.09503914e-01,
         -3.85945296e+00,  -1.60135573e-01,  -3.60501391e+00,
         -8.22927538e-02,   4.29053002e+00,   8.18591583e-01,
         -5.51947809e-01,   4.62957407e+00,  -6.91442205e+00,
          3.11776201e-02,   4.71518156e+00,   1.56186707e+00,
          4.20914406e-01,   1.65948508e+00,   1.15820151e+00,
          3.15537197e-01,   1.93629651e+00,   1.44718115e+00,
         -4.44749238e-01,   1.30019033e+01,   2.63975742e+00,
          6.66139789e+00,   6.22413829e-02,  -8.89209839e+00,
          5.20792807e+00,  -2.81048963e-01],
       [  9.85315652e-01,  -1.70564258e+00,   1.17679084e+00,
         -9.18745709e-01,   1.00688089e+00,   1.06256166e+00,
          1.23214521e+00,  -9.48621335e-01,   9.14858273e-01,
          1.88021482e+00,   7.09647569e-02,   1.01636360e+00,
         -1.29111159e+01,  -3.86642843e-01,  -1.13882428e+00,
          1.08082395e+00,  -1.11305265e+01,  -8.42084741e+00,
         -7.79711263e+00,  -4.74964731e+00,   2.38392408e+00,
          1.61325143e-01,   1.83475118e+00,   8.09293035e-01,
         -2.89757835e+00,   1.15758126e+00,  -7.54123707e+00,
         -5.75866182e+00,   4.46770712e-01,   1.34262605e+00,
          1.18599662e-01,   4.80209834e-01,  -8.18609283e+00,
          5.42559315e-01,  -2.26932778e-01,   3.35263047e+00,
          5.13482002e-01,  -3.58028714e-02,   4.91681587e+00,
          2.37236607e+00,   2.92804998e+00,   1.44770816e+00,
          4.02464900e-01,  -7.78800239e-01,  -6.43111234e+00,
         -8.27489048e-01,   8.28320169e-01,  -3.01917601e+00,
          1.94738239e+00,   9.37118314e-01],
       [ -2.04189023e-01,   6.51964418e+00,   1.74548909e-01,
         -2.04410448e-01,  -1.74426739e-01,   1.69930790e-01,
         -7.62964232e+00,   8.24262471e+00,  -1.99516912e-01,
         -3.51358071e+00,   2.17073280e+00,   2.28715323e-01,
          4.36240277e+00,   5.61571207e+00,  -3.74257210e-01,
          6.23670040e-01,  -2.33487725e+00,   1.40776040e+00,
          2.70743172e+00,   3.18067815e+00,  -5.44209946e-01,
          4.92205421e+00,   5.65759394e+00,   1.73294399e-01,
          5.64984109e+00,   2.13029723e-01,   1.03389778e+01,
          1.85893897e+00,  -3.59511876e+00,   1.26185533e+00,
         -2.50191642e+00,  -3.05325753e+00,   4.28542654e+00,
          5.17048417e-01,   5.61112220e-02,  -9.69595400e-01,
         -2.82349097e+00,   4.14743697e-01,   1.24515062e+00,
          1.08407823e+00,  -1.50491032e+00,  -2.78157723e-01,
         -3.19410465e-02,  -9.25270377e+00,   7.68898540e+00,
          2.09093344e+00,  -7.49223790e-02,   1.22946258e+01,
          4.12028826e+00,  -3.95682476e-02],
       [ -5.18613203e-01,   9.10809581e+00,   1.17516474e-02,
         -5.54449681e+00,  -1.33354607e-01,  -3.92661614e-02,
         -1.46836582e+00,   8.47870346e+00,  -2.32566642e-01,
          6.40557499e+00,   1.06359489e+01,  -1.18112216e-02,
          2.49682562e+00,  -8.98225533e-01,   6.92035061e-01,
          1.85723739e-01,   4.26601762e+00,  -1.27236065e+01,
          4.76518209e-01,   9.37735802e-01,   9.71445971e-01,
          4.20231916e+00,  -6.07522681e-01,  -5.90242304e-02,
          3.21422477e+00,  -2.72754732e-01,   1.04176886e+01,
         -1.01804670e+01,  -5.00872323e+00,  -8.32749537e-01,
         -7.52850163e+00,   4.59883339e+00,   9.84749215e+00,
         -1.47004167e-01,   1.82847460e+00,  -1.80780746e+00,
         -8.39731258e+00,   8.70669957e-01,   1.58728303e-01,
          6.31617436e-01,   6.78074745e-01,  -4.59536396e+00,
         -3.99186351e-02,  -9.36789894e+00,   8.08456676e+00,
          1.18644480e+01,   1.48759295e-01,   1.14095386e+01,
          1.67051910e+01,  -7.74491657e-04],
       [  5.06955683e-02,   7.13768467e+00,  -9.94167564e-01,
          8.43992435e-01,  -7.45379172e-01,  -8.61028474e-01,
         -2.93252979e+00,   2.43100393e+00,  -6.76244411e-01,
          7.64147985e-01,   4.93308169e+00,  -1.29541969e+00,
          1.12425551e+00,   7.51246137e-01,  -2.09319897e+00,
         -1.23517243e+00,   8.12797429e+00,  -7.88055989e-01,
         -5.10580101e-01,   3.59881284e+00,  -1.27653799e+00,
         -9.64822404e-01,  -3.95474506e+00,   3.35009045e-02,
          3.60760660e+00,  -1.21355358e+00,  -6.10736643e-01,
         -7.08325012e+00,   1.91319069e+00,  -1.96700250e+00,
          4.20503331e-01,   2.82378647e+00,   1.12224719e+00,
         -3.73231536e-01,   2.53362968e+00,  -4.75511524e-01,
          2.13534926e+00,  -1.08919609e+00,  -2.09412354e+00,
         -5.73981914e-01,  -1.01849615e+00,   5.94145113e-01,
         -4.62063556e-01,   4.74694958e+00,   4.19024842e+00,
          2.55239390e+00,   1.43859830e-01,  -5.67332845e+00,
         -2.07046183e+00,  -2.20129205e-01],
       [ -6.99695998e-01,   2.15667431e+00,  -5.11444412e-01,
         -1.13674246e+00,  -4.38513660e-01,  -3.74829312e-01,
         -1.11888962e+01,  -2.28038088e+00,  -3.08112509e-01,
         -2.51256450e+00,  -1.64766255e+00,  -3.50042136e-01,
          4.62044274e+00,   4.47347371e+00,  -1.78132986e+00,
         -1.41177035e+00,  -1.76399666e+00,   4.55182508e+00,
          4.95011396e+00,   1.55221394e+00,  -1.15047359e+00,
         -1.72553402e+00,  -4.14315735e+00,  -9.21105162e-01,
          5.29864359e+00,  -6.06601155e-01,   7.26947138e+00,
          9.41882768e+00,  -1.60688621e+00,  -2.08665893e+00,
          2.90977292e+00,   2.22023816e+00,   8.45513063e+00,
         -8.14085910e-01,  -8.07427990e-01,  -2.23922971e+00,
         -8.80190648e-01,  -1.42339163e+00,  -1.18910052e+00,
         -2.16519589e-01,  -3.82100834e+00,  -1.16211169e+00,
         -2.68821665e-01,  -1.11962806e+00,  -1.51466963e+00,
         -4.20810140e+00,  -3.67058545e-01,  -6.89897484e-01,
         -6.24384223e+00,  -3.97671619e-01]])]Hidden bias: [array([ -4.33464338,  -1.00142727,  -4.1111427 ,  -6.47810813,
        -4.07237502,  -3.53082002,  -9.99846603,  -2.57646033,
        -4.18088803,  -7.97345048,   3.82126053,  -3.56784085,
         5.20299904,  -1.91722614,  -5.54504677,  -6.64005388,
        10.93317013,   4.63480638,   3.31024428,   5.33911925,
        -5.37399951,  -1.95394145,  -5.80753554,  -3.47080868,
         8.53727241,  -4.87135173,   3.29382808,   4.17472396,
        -6.64067439,  -7.30078671,  -2.21833914,   3.63963422,
         4.04008912,  -4.0890412 ,  -4.92803955,  -7.29005875,
        -8.43790496,  -4.98147654,  -6.33421006,  -5.12155213,
        -7.47160429,  -4.71474295,  -3.92583631,   1.06111597,
        -4.26755905,  -3.21285914,  -3.33072119,   1.7822074 ,
        -3.10934896,  -3.21538744])]Output weights: [[ 5.92171185]
 [-5.46189179]
 [ 5.88058125]
 [ 0.84495337]
 [ 4.58368517]
 [ 6.14332313]
 [ 6.37407479]
 [-1.78479492]
 [ 4.63888483]
 [ 2.37626463]
 [ 4.93792168]
 [ 6.31835099]
 [ 5.89572615]
 [-3.19057012]
 [ 6.01763963]
 [ 2.95080457]
 [ 6.07974677]
 [-1.12643261]
 [-2.8175186 ]
 [ 3.11970346]
 [ 2.10886081]
 [ 1.66875078]
 [-2.31954849]
 [ 6.21466339]
 [ 1.71646435]
 [ 5.03200203]
 [ 3.70242972]
 [ 2.17454375]
 [ 5.07635004]
 [ 3.10785125]
 [-1.74681642]
 [ 3.40600768]
 [-3.10238575]
 [ 5.4905092 ]
 [ 0.66399484]
 [ 0.26249498]
 [ 3.84866327]
 [-0.14314409]
 [ 2.88945503]
 [ 3.28942334]
 [ 2.79375681]
 [ 3.90106948]
 [ 5.48745314]
 [-0.33894027]
 [-1.85642464]
 [ 7.29003807]
 [ 5.97854339]
 [ 6.54175432]
 [-4.61604888]
 [ 4.31470063]]Output bias: [-5.46576522]