Action MLP:Hidden weights: [array([[-0.06138527,  0.12887366, -0.07216226, ...,  0.07688238,
         0.02959854,  0.0390773 ],
       [ 0.38649702,  0.36980215,  0.43949679, ...,  0.32794171,
         0.41568542,  0.39762097],
       [ 0.04828811, -0.20139806, -0.0227223 , ..., -0.07881089,
        -0.00243944, -0.05060927],
       ..., 
       [-0.22262735,  0.1781099 , -0.00766055, ..., -0.11146263,
         0.138899  ,  0.07737629],
       [ 0.09319724,  0.11473946,  0.03970525, ...,  0.04064826,
         0.09406713,  0.00760248],
       [ 0.07913379, -0.00365157,  0.10540143, ...,  0.01249426,
         0.07322053,  0.03031856]])]Hidden bias: [array([-0.40279465, -0.3543096 , -0.36412057, -0.33076739, -0.36689543,
       -0.38344558, -0.37248012, -0.30923311, -0.35039315, -0.32444213,
       -0.35789765, -0.33861899, -0.3292026 , -0.37888802, -0.35907458,
       -0.34707853, -0.36070556, -0.37941821, -0.3822266 , -0.34537365,
       -0.36232573, -0.3935467 , -0.31699408, -0.31844704, -0.38362394,
       -0.36025705, -0.31480792, -0.34614926, -0.35090495, -0.36308123,
       -0.34733234, -0.33503192, -0.37065424, -0.30688822, -0.32310368,
       -0.33678916, -0.31080586, -0.3144615 , -0.37219261, -0.35748753,
       -0.35998289, -0.34440411, -0.332286  , -0.34272268, -0.33476577,
       -0.3392602 , -0.35526274, -0.34857255, -0.31258648, -0.34871761,
       -0.3646448 , -0.32239217, -0.35398285, -0.35292655, -0.33573324,
       -0.36985518, -0.36363193, -0.38909267, -0.37390592, -0.36153678,
       -0.369866  , -0.32417234, -0.34721561, -0.35184091, -0.36390078,
       -0.33152572, -0.36015809, -0.35618733, -0.39008589, -0.31337765,
       -0.36167398, -0.31654216, -0.35765862, -0.35080997, -0.40138773,
       -0.32819633, -0.37694773, -0.40505521, -0.36205501, -0.36076925,
       -0.30514045, -0.37901647, -0.36472993, -0.32247863, -0.3421106 ,
       -0.33355379, -0.4106822 , -0.33920611, -0.34461882, -0.39185943,
       -0.39961483, -0.353914  , -0.32979505, -0.37807243, -0.31628012,
       -0.36209722, -0.34527842, -0.42064618, -0.32270968, -0.32341182,
       -0.30222109, -0.37908281, -0.36207835, -0.37046445, -0.36134134,
       -0.36281404, -0.36684603, -0.35982825, -0.33151133, -0.36291137,
       -0.31124556, -0.33854107, -0.38675034, -0.38295732, -0.32879642,
       -0.34054482, -0.39006823, -0.34133303, -0.34748456, -0.35965205,
       -0.36907284, -0.32373002, -0.31101508, -0.32575762, -0.35653006,
       -0.31260498, -0.31302994, -0.35691221, -0.38699572, -0.35410529,
       -0.39978993, -0.3144853 , -0.38536264, -0.38905844, -0.3325609 ,
       -0.3479764 , -0.31944146, -0.34735972, -0.32964155, -0.35199686,
       -0.35604036, -0.39808653, -0.30940298, -0.31738524, -0.36079244,
       -0.32571279, -0.32779463, -0.33234296, -0.38141529, -0.32094607,
       -0.37424987, -0.34178798, -0.36154974, -0.30416032, -0.33499729,
       -0.329317  , -0.29616566, -0.3545433 , -0.34996604, -0.30901241,
       -0.37317061, -0.32254278, -0.35987431, -0.34488012, -0.39754762,
       -0.36610671, -0.34229255, -0.34904546, -0.37282937, -0.35597354,
       -0.32528054, -0.32568577, -0.35961773, -0.37141655, -0.3933189 ,
       -0.35472735, -0.31962223, -0.34658441, -0.39210439, -0.32187272,
       -0.34813395, -0.3617926 , -0.2960699 , -0.37311647, -0.34497129,
       -0.31622787, -0.35086843, -0.37534076, -0.38145424, -0.34258302,
       -0.37233841, -0.31380963, -0.37522415, -0.35909776, -0.32415144,
       -0.39060845, -0.37775745, -0.33359071, -0.38796124, -0.39634728])]Output weights: [[  3.07992738e-02   3.67132849e-03]
 [  7.44292657e-03   7.35897015e-02]
 [ -1.60383851e-03   2.03050641e-02]
 [  4.83346296e-03   1.03346888e-02]
 [  6.82980159e-03  -3.12905282e-03]
 [  1.11605357e-02  -2.81064482e-02]
 [  9.00132063e-03  -2.62872486e-02]
 [ -9.88764385e-03   5.60188841e-02]
 [  5.83963598e-02   2.61962498e-02]
 [  1.83822115e-02   1.56078714e-02]
 [  4.43397851e-02   1.20286969e-03]
 [ -2.21338369e-02   2.93599331e-03]
 [ -4.84204597e-03   6.96027383e-03]
 [ -1.88017224e-02   2.22489549e-02]
 [ -2.12136759e-02   2.46241113e-02]
 [  1.74499384e-02  -5.42888989e-03]
 [  4.21104941e-04   1.73508438e-02]
 [  2.99150569e-02   2.84809395e-02]
 [ -1.59636416e-02   3.93124267e-02]
 [  4.86764939e-02  -3.52517622e-02]
 [  2.95038025e-02  -2.34568668e-02]
 [  3.51124674e-02   2.40295333e-02]
 [ -2.05369692e-02   1.20511805e-02]
 [ -3.80757162e-02   2.41202422e-03]
 [  1.05576715e-02   2.56437741e-02]
 [  1.32140038e-02  -8.09430693e-03]
 [ -5.14583686e-03   4.13886771e-02]
 [  4.24007410e-02  -1.89923923e-02]
 [  4.64675631e-02   1.38805466e-02]
 [ -6.96641138e-03   8.86149652e-03]
 [ -2.73887616e-03  -3.40710304e-03]
 [  2.24200586e-02   1.99761758e-03]
 [  1.37686102e-02  -1.81430973e-02]
 [ -9.28297257e-03   7.24814421e-03]
 [  1.11735442e-02  -4.55241002e-03]
 [ -9.85327939e-03   1.59303310e-02]
 [  1.54815074e-02  -5.34691920e-02]
 [ -3.70145791e-02   5.22828111e-02]
 [ -2.74455650e-02   7.44960917e-02]
 [  1.25567989e-02  -2.57700246e-02]
 [  1.87206437e-02  -3.76187664e-03]
 [ -5.97364107e-02  -1.39560176e-02]
 [  1.38014060e-02   3.66225519e-02]
 [  1.74143955e-02   6.62270771e-03]
 [  3.86768927e-02  -8.11977687e-03]
 [  2.04694189e-02   3.75051258e-02]
 [  4.44159922e-02   2.85718284e-02]
 [  4.48916589e-02   1.54405107e-02]
 [ -3.19964110e-02   4.56193774e-02]
 [  6.52643404e-02   7.01664152e-02]
 [  4.70546695e-02   1.37124569e-02]
 [ -3.49131802e-02  -9.26897738e-03]
 [ -8.99422514e-02   7.60845320e-02]
 [  3.59081918e-02  -2.39278156e-02]
 [  2.89967114e-02   1.79246148e-02]
 [ -2.18910423e-02   2.23583423e-02]
 [  1.96302128e-03  -6.34056307e-03]
 [  1.14011786e-02  -1.80563743e-02]
 [ -4.41012101e-02   4.63361994e-02]
 [  2.92784291e-02  -3.65579568e-02]
 [  2.70361709e-02  -2.50627350e-04]
 [  2.79119656e-02  -2.10578153e-02]
 [ -4.68402155e-02  -4.06331334e-02]
 [  7.29348879e-03   4.98506985e-02]
 [ -1.61918362e-02   1.18048134e-02]
 [ -6.60871260e-03   1.91333697e-02]
 [  3.15977699e-03   5.59729346e-02]
 [ -9.17503592e-03   2.47293916e-02]
 [  6.39628260e-02   5.71899405e-02]
 [  8.41845584e-04  -1.77831939e-02]
 [ -2.88025329e-02  -1.56782443e-02]
 [  2.32337377e-02  -6.71537260e-03]
 [  1.66882334e-02  -4.56609622e-03]
 [ -2.08146086e-02   1.25587535e-02]
 [  2.19445766e-02   4.62256816e-02]
 [ -4.92601091e-02  -7.77673967e-03]
 [  5.47581332e-02  -5.64992824e-02]
 [  3.36717931e-02   2.59159217e-02]
 [  2.80302354e-03  -1.00542180e-02]
 [  4.65422508e-02   1.68290725e-02]
 [ -2.31700791e-02   4.31310307e-02]
 [  2.62714265e-02   5.10687119e-02]
 [  5.02525009e-02   7.31209162e-02]
 [ -4.71255755e-02   5.73609339e-02]
 [  1.86923324e-02  -2.78941125e-02]
 [  9.81557156e-03   3.71013449e-02]
 [  6.10204657e-03   7.55236733e-03]
 [ -1.32491982e-02  -1.26473097e-02]
 [  1.21700307e-02  -3.20875889e-02]
 [  7.45735819e-02   6.06268142e-03]
 [  1.74539714e-01  -2.61645814e-01]
 [ -4.22670003e-02  -3.85861928e-02]
 [  9.73650989e-03   5.87429125e-02]
 [  1.89642666e-02   3.67525171e-02]
 [ -2.51602127e-02   1.34650536e-02]
 [  7.80563350e-02   8.18908336e-02]
 [ -2.90615078e-02   1.58122332e-02]
 [  4.88423646e-02   5.56187507e-03]
 [ -3.08165045e-02   2.59546785e-02]
 [  1.72110191e-02   8.86821061e-03]
 [ -1.34795901e-02   2.33891983e-02]
 [  4.66169835e-02   2.03028650e-03]
 [  5.83056572e-02  -3.99937830e-03]
 [  7.99293924e-03   1.20654683e-02]
 [ -1.37455497e-02   2.50712807e-02]
 [  3.98892696e-02   2.65286898e-02]
 [  2.01200685e-02  -1.44922796e-02]
 [ -3.33258042e-02   5.70782045e-02]
 [  2.21168300e-02  -1.80240187e-02]
 [ -3.33110347e-02   2.60349247e-02]
 [  1.98009270e-02   4.43165180e-02]
 [ -2.27353269e-02  -3.63792906e-03]
 [  4.95904480e-02  -1.72361764e-02]
 [  3.25401379e-02   4.76881630e-02]
 [ -2.14977128e-02   2.60215477e-02]
 [ -1.10458245e-02   1.59045602e-03]
 [  5.25213408e-02  -2.53003875e-03]
 [  3.17135617e-02   7.73731992e-02]
 [  3.36816513e-02   5.16311241e-02]
 [ -1.01322577e-02  -7.32857456e-03]
 [ -2.51706219e-04  -3.30714199e-03]
 [ -5.81987052e-02  -2.02843447e-02]
 [  6.81694445e-03  -2.22407672e-02]
 [ -5.04462435e-03   4.17024050e-02]
 [ -2.01857452e-02   3.69644411e-02]
 [ -6.18466622e-03   3.04310077e-02]
 [ -9.96970345e-03  -5.92160902e-03]
 [  2.45877523e-02   1.79219123e-02]
 [  2.59554840e-02  -3.16260043e-02]
 [ -2.23338585e-02   2.37403375e-02]
 [  2.52904465e-02   3.92121057e-03]
 [  3.60420880e-02  -1.87705573e-02]
 [  4.61255449e-02   5.67620443e-02]
 [  1.66383799e-02   2.95656067e-02]
 [ -6.50580342e-03  -4.49869462e-02]
 [ -4.26589957e-02  -1.01535529e-03]
 [ -4.95253543e-02   4.96296411e-02]
 [  3.28881066e-02   3.53872294e-02]
 [  2.16731914e-02  -1.41263267e-02]
 [  1.61190173e-02  -3.31979807e-02]
 [ -7.80617047e-03  -4.37115061e-02]
 [  1.79703381e-02   3.36580978e-02]
 [ -2.43152952e-02   6.14228137e-02]
 [ -3.47088282e-02   8.51008602e-02]
 [  1.22977122e-02   4.74436355e-02]
 [  2.68201359e-02   6.12051054e-03]
 [  3.43809985e-02   4.41929618e-02]
 [ -2.48888891e-03   5.78811221e-02]
 [  2.48111237e-03  -1.14931614e-02]
 [  1.28899618e-02  -1.50637685e-02]
 [  4.29837470e-02  -5.92402989e-02]
 [ -4.41546482e-02   1.19631086e-02]
 [ -2.96998863e-02   2.38272330e-03]
 [ -2.18749510e-02  -3.36741968e-02]
 [ -2.49877519e-03   4.03416754e-02]
 [  2.19646735e-03  -3.81573308e-03]
 [ -2.58528341e-02   5.53555456e-03]
 [  1.21898816e-02  -1.42348487e-03]
 [ -2.51781191e-02   2.36641964e-03]
 [ -1.82260661e-02   2.26762416e-02]
 [  4.21752500e-02   4.91655784e-03]
 [  1.37478469e-02   4.26012057e-02]
 [  4.80390315e-02  -5.48576814e-02]
 [  4.37969761e-02  -2.81871944e-02]
 [  1.28585961e-02  -1.05238901e-02]
 [ -1.69142380e-02   6.81773109e-03]
 [  6.84215307e-03   1.78045540e-02]
 [  1.69187618e-02  -6.65419542e-03]
 [ -4.11645856e-02   6.43805540e-02]
 [ -1.56267793e-02   6.16067910e-03]
 [  6.33320286e-03  -2.66528846e-02]
 [ -2.51144546e-02   2.27546858e-02]
 [  1.59587184e-02   4.13714950e-02]
 [ -1.81210970e-03  -2.02479895e-02]
 [  9.05813815e-03   1.57999624e-02]
 [  4.65096630e-02  -1.46875147e-02]
 [ -1.27548117e-02   1.26130482e-02]
 [  4.98877931e-02  -1.65828786e-02]
 [ -2.64899837e-02   3.19331723e-02]
 [  8.58305025e-03  -1.47197358e-02]
 [  3.86283242e-02   4.96389390e-02]
 [  9.98792801e-02  -1.66810073e-02]
 [ -2.70410430e-02   4.51780928e-02]
 [ -1.13460353e-03  -1.68418234e-02]
 [  3.75184144e-02   5.09821002e-02]
 [ -5.73320893e-02   2.73527158e-02]
 [ -1.13460124e-03   2.55809182e-02]
 [  3.82052848e-02  -3.81255384e-02]
 [ -1.68997223e-02   6.01258508e-03]
 [  5.39418884e-02  -1.02979262e-02]
 [  1.25924681e-02   2.04420115e-02]
 [ -3.24575146e-02   5.16019902e-02]
 [  4.33438366e-02  -2.62419923e-02]
 [ -2.10010110e-03  -2.54373143e-02]
 [  9.79897762e-03   6.39601188e-02]
 [  4.78079883e-02  -1.07588522e-02]
 [  2.10597373e-02  -3.95239464e-02]
 [  7.05758819e-03   6.65982919e-02]
 [  3.00307636e-02  -1.80563264e-02]
 [  4.54803979e-02   1.97685513e-02]]Output bias: [ 0.30781707  0.02522106]
Value MLP:Hidden weights: [array([[  3.15963861e+00,  -8.21295165e+00,  -7.72865824e+00,
         -2.69215584e+01,   2.38630240e+01,   4.35649123e+00,
          2.41697943e+00,   2.54214198e+00,  -1.76263037e+01,
          4.22914019e+00,  -4.09022597e+00,  -1.14120898e+01,
          3.45073193e-01,  -9.35336803e+00,   3.94477497e-01,
         -6.81878304e+00,   3.60519323e+00,  -1.43122676e+01,
          1.81062825e+01,  -2.33256787e+01,   1.95064779e+01,
          6.53560218e+00,   1.07015142e+01,   1.15223716e+01,
          7.40168221e-01,  -1.37411762e+01,  -7.19640301e+00,
          1.21529949e+01,  -1.07488706e-01,  -4.20983277e-01,
          1.27581008e+00,   1.42197967e+01,  -1.98464019e+00,
          4.64056566e-01,   2.26886940e+01,   7.52997765e+00,
         -3.54664027e+00,  -1.21970668e+01,  -1.59874057e+01,
         -3.05548267e+00,  -3.45002504e-01,   7.58167324e-01,
          2.49054247e+01,   1.90199513e+00,  -8.19254370e+00,
         -2.31236931e+01,   1.07701481e+01,   6.42058230e-01,
         -1.81274766e+00,  -1.16597663e-02],
       [ -4.44340560e+00,   1.54688927e+01,   1.98111707e+00,
          6.70970343e+00,  -1.13219199e+00,   1.20147157e-01,
          3.00284987e-01,  -7.23383657e+00,   1.75843666e+01,
          3.86600423e-02,  -1.33546708e+01,  -1.40537491e+01,
          4.26030337e+00,   2.73468281e+00,   9.39688716e+00,
         -5.21558743e-01,   6.54772914e+00,  -3.99155951e+00,
         -1.10718272e+01,   6.49141686e+00,   1.15223985e+00,
         -2.86879458e+00,   1.04136819e+00,   3.89994851e+00,
         -1.65285971e+00,   4.51348486e+00,   1.74674555e+01,
         -8.99047281e+00,  -6.97029465e+00,  -1.19454479e+01,
          8.94584404e+00,   2.87103689e+00,  -1.41704559e+01,
          4.57038998e+00,   4.85336538e+00,  -5.87419113e+00,
         -6.69315583e+00,   6.45486532e+00,   1.06476792e+01,
          5.50278301e+00,  -4.29126135e+00,   4.81382003e+00,
         -6.39904413e-01,  -6.51096191e+00,   5.51698918e+00,
          5.18418295e+00,   1.00520166e+01,  -5.28961203e+00,
         -2.15977666e+01,  -6.99705048e+00],
       [  3.57165064e+01,   1.67649323e+01,   2.28896919e+01,
         -1.66235551e+01,   2.79829697e+01,   2.14201680e+01,
          2.14465917e+01,   4.87706320e+00,  -2.77910207e+01,
          2.25921000e+01,  -1.08058939e+01,  -6.79448971e+00,
         -5.97218891e+00,   3.03293345e+01,  -3.46141178e+01,
          2.98247450e+01,  -2.26356149e+01,   1.07780939e+01,
          2.74034330e+01,  -2.07163573e+01,  -2.86619203e+01,
          1.74502104e+01,   3.46658190e+01,   1.78055296e+01,
         -2.71587093e+01,  -3.51283916e+01,   4.13987915e+01,
          2.83089493e+01,  -2.36817841e+01,   4.47941495e+01,
         -4.30466388e+01,   3.29233282e+01,   2.39391001e+01,
          3.37591050e+01,   4.41817737e+01,   2.66632173e+01,
         -2.75693293e+00,   2.58378815e+01,   3.17916637e+01,
         -2.35958933e+01,  -3.67330272e-01,   2.44080685e+01,
          3.41234789e+01,   4.51642379e-01,  -2.74080855e+01,
         -1.97303715e+01,  -2.82604523e+01,   2.62305735e-01,
          6.79275329e+00,   2.09327475e+00],
       [ -2.72646610e-01,   1.19933591e+01,   7.61658319e+00,
          4.45386574e+00,   6.16016369e+00,  -4.47791255e+00,
          4.48639595e+00,   7.89965118e+00,   4.06242424e+00,
         -1.05377590e+01,   6.31456154e+00,   8.80704784e+00,
         -2.74255581e+00,  -5.28582224e-01,   2.27907373e+00,
          9.56140621e+00,  -5.29351177e+00,   1.06690630e+01,
          6.59521238e-01,   8.15485446e+00,  -1.09410691e+01,
         -1.33971301e+00,   9.37833897e+00,   8.98718727e-01,
         -4.59846965e+00,   4.82521536e+00,   1.96154156e+01,
          1.74252575e+00,  -1.70065889e+01,   1.43379733e+01,
         -4.95660163e-02,   1.86499306e+00,   3.48103292e+00,
          3.74355214e+00,   8.97538353e+00,   2.32046217e+00,
          3.34666898e+00,   6.64876524e+00,   2.10788397e+01,
         -4.49242727e+00,   5.46913843e+00,   1.13495200e+01,
          8.79004072e+00,   8.18394554e+00,  -2.17375988e+00,
          3.35658286e+00,   1.93835323e+00,   8.55176646e+00,
          2.36897122e+00,  -1.47413618e+00],
       [  4.60506428e+00,  -3.93494062e+01,  -1.66002953e+01,
         -1.62684888e+01,   1.52126760e+01,  -1.37960526e+01,
         -2.14558453e+00,   2.42143394e+00,  -1.01555224e+01,
         -1.79367547e+01,   1.38696599e+01,  -6.98138499e+00,
          1.14017888e+01,  -2.14212686e+01,  -6.70341842e+00,
         -2.47115258e+01,   9.25721255e+00,  -1.55305807e+01,
          1.03286818e+01,  -2.37594174e+01,  -1.82414332e+00,
         -2.60355295e+01,  -2.51456733e+01,   1.98861800e+01,
         -4.30954970e+00,  -3.02824318e-02,  -3.39880984e+01,
          5.06687597e+00,   1.49438826e+00,   2.38423806e+01,
         -2.54667625e+01,  -3.12086548e+00,  -2.56037749e+01,
         -2.14576680e+01,  -1.31832883e+01,  -6.96020063e-02,
          1.64316710e+01,  -2.55766093e+01,  -4.99018513e+01,
         -1.78570827e+01,  -2.86309251e+00,  -7.44016501e+00,
          2.73436922e+01,   3.51688854e+00,   6.66926728e+00,
         -1.96493486e+01,   3.96815087e+00,   1.95331060e+00,
          6.67135292e+00,   1.63630611e+01],
       [  1.90877021e+01,   1.23576566e+01,   4.23725970e+00,
         -1.01498707e+01,   4.35446941e+01,  -1.03670651e+01,
          2.45602774e+01,   1.15131677e+00,  -1.63058890e+01,
         -1.92506104e+01,   2.64730066e+01,  -3.84916378e+00,
          8.32206616e+00,   2.16903066e+01,  -4.20552619e+01,
         -6.96402383e-02,  -1.81128441e+01,  -1.21750459e+00,
          1.31351015e+01,  -3.26805070e+01,  -5.04121696e+01,
         -9.99033494e+00,   7.61608037e+00,   2.03116208e+01,
         -2.18832470e+01,  -1.45389182e+01,   6.15219181e+00,
          2.27953567e+01,  -2.67475203e+01,   7.41801140e+01,
         -6.86744768e+01,  -7.12184377e+00,   1.79540860e+01,
         -1.37916244e+01,   1.04006350e+01,   1.60770575e+01,
          1.55085474e+01,   7.11408261e+00,   1.49576938e+00,
         -1.32776697e+01,  -2.30072026e+00,   4.12897819e+00,
          8.12427752e+01,  -2.71208218e+00,  -1.39856314e+01,
         -2.08191615e+00,  -2.74275335e+01,   1.30888428e+00,
          1.94237348e+01,   2.66412224e+01],
       [ -2.44376109e+00,   9.65827228e+00,   5.67597152e+00,
         -1.77700374e+00,  -4.01022307e-01,  -1.51828378e+00,
          7.75644240e+00,  -1.03940583e+00,  -1.72892015e+01,
          3.64899623e+00,   5.56808535e+00,  -8.58494604e-01,
          6.68635753e+00,   2.70211713e+00,  -3.38320310e+00,
          7.11922479e+00,  -9.74984892e+00,   2.02827983e+00,
          1.41564294e+01,  -2.19915077e+00,   2.31059761e+01,
          1.17116169e+01,  -3.25143300e+00,  -9.28746166e+00,
         -1.23803639e+00,  -2.69376738e+00,  -4.04151303e-01,
          6.73740034e+00,   1.41546963e+01,  -1.06737264e+00,
          1.68952104e+01,  -9.74751615e-01,   2.38767142e+01,
          5.18194206e+00,  -1.55589077e+00,   9.15542629e-01,
          2.13842086e+01,  -2.32029046e+00,  -8.13137148e+00,
          1.00842979e+00,  -3.07915258e+00,   4.43126119e+00,
         -1.50931031e+00,  -3.82677145e-01,  -4.65306726e+00,
         -1.71632582e+00,   1.27879648e+00,  -2.89452786e+00,
          8.37386117e+00,   5.47079738e+00],
       [  1.02917117e+01,   1.38564823e+00,  -2.31229086e+00,
          6.06474791e+00,  -9.80821295e+00,  -5.07150636e+00,
          6.79556531e-01,  -1.29533554e-01,  -1.31370889e+01,
         -2.62302071e+00,   3.24838742e+00,  -2.35920401e+00,
          8.05037723e+00,  -1.40226227e+01,   2.98231648e+00,
          1.40439053e+01,   1.03306848e+01,  -6.96114574e+00,
         -2.39687714e+00,   4.98885066e-01,   8.23816284e-01,
          3.30063940e+00,   3.18435296e+00,  -1.61932782e+01,
          1.20990944e+01,   4.97580735e+00,  -7.84583914e+00,
         -1.62321591e+00,   8.98833065e+00,   1.92349869e+01,
         -7.61722005e+00,  -8.31611334e+00,   3.50148452e+00,
         -2.02737085e+00,  -2.72406440e+00,  -1.05549527e+01,
         -9.18929719e+00,  -7.42759182e+00,  -2.03191850e+01,
         -1.47828208e+00,  -6.25288968e+00,  -6.36395322e+00,
         -1.92246672e+01,  -5.35342646e-01,  -5.20016631e+00,
         -8.17700378e+00,  -1.29675582e+01,  -2.58653597e+00,
          1.07492022e+01,  -4.12762231e+00]])]Hidden bias: [array([  5.94558199, -16.83950412,  -5.23624025,  -5.84569888,
        -0.12782145,   1.56908837,   2.13595525, -12.51936252,
       -13.59068157,  -2.3908655 , -11.20936628, -31.1767293 ,
        16.35374857,  -0.41684891,  -9.81338605,   4.5377134 ,
         2.03085183, -18.7342911 ,   5.34058489,  -5.93104969,
        -0.92014996,   3.11859295,  -3.89572603,  -2.8680808 ,
        -2.46145181,   1.36409917, -20.47924308,   4.59272903,
         6.57213851,   1.03736116,  -0.74328446,  -0.79609948,
         9.18733032,  -3.06247707,  -5.2645973 ,  -3.15655643,
         5.04094937,  -1.5088839 , -23.61485443,   4.03163571,
       -18.66840767,  -3.80237248,   2.33336195, -14.10247744,
        -3.50726998,  -5.85922585,  -7.61117146, -13.87559671,
       -12.02674011,  11.16828524])]Output weights: [[ -2.14421556]
 [ -1.33026053]
 [ -1.57346   ]
 [  0.7965046 ]
 [ -1.83365893]
 [  5.95264247]
 [ -1.30426168]
 [  9.64860071]
 [  1.70939463]
 [ -1.6679454 ]
 [  4.67719709]
 [  9.6281757 ]
 [  1.30789913]
 [ -0.47744582]
 [  7.84379831]
 [ -4.3649686 ]
 [  2.4030269 ]
 [  3.66978634]
 [ -4.778724  ]
 [ -3.80783776]
 [ -5.53869309]
 [  5.78928387]
 [  0.4379349 ]
 [ -0.53710824]
 [  7.17853592]
 [  4.01240892]
 [ -1.43347009]
 [  0.54424806]
 [  6.31557682]
 [  3.38091863]
 [  1.01043259]
 [ -1.05551541]
 [ -8.7883764 ]
 [ -4.27397061]
 [ -2.46160874]
 [ -2.86300269]
 [ -3.64716674]
 [ -0.05545619]
 [ -3.4908649 ]
 [ -0.97908442]
 [  8.29534837]
 [  3.17611719]
 [ -3.97425133]
 [  0.92823432]
 [  6.20873492]
 [  2.07258714]
 [  0.01801927]
 [  0.48859148]
 [  3.83996104]
 [ 12.6689695 ]]Output bias: [-23.23289982]