Action MLP:Hidden weights: [array([[  5.54417624e-02,   2.82607749e-02,  -4.31486722e-02,
         -1.06979061e-01,   2.73751904e-02,  -9.05576997e-02,
         -1.33497296e-01,   9.40400485e-02,   1.58693771e-02,
          8.73621674e-02,   1.46591970e-01,   3.02468502e-03,
          6.20153539e-02,   4.62360587e-03,   5.94353865e-02,
          1.53607908e-01,   5.58710129e-02,   7.69811637e-02,
         -6.49981358e-02,  -1.43247934e-02,   2.77211243e-02,
         -1.42317004e-01,   5.28688091e-02,   5.27867915e-02,
         -1.71813613e-01,   6.73061940e-02,   1.47358620e-01,
         -8.58800939e-03,   5.67682368e-02,   3.52232003e-02,
         -2.84024507e-01,  -1.80600630e-01,   3.93598762e-02,
         -3.57261654e-01,   4.76885710e-02,   6.13706409e-02,
         -4.35939305e-02,   8.46677561e-02,  -4.27024378e-02,
          5.59881366e-02,   4.36158860e-02,  -1.28414907e-01,
          1.90211501e-01,   9.54411319e-02,  -3.21735769e-02,
         -9.52120361e-02,  -1.75775311e-01,  -6.29225049e-03,
         -7.41002500e-02,   2.27113785e-01,   4.84370067e-02,
          4.39576407e-02,   3.62267475e-02,  -1.16749934e-02,
          3.25711421e-02,  -2.78784515e-02,  -3.83860043e-02,
         -6.84675951e-02,   3.72772319e-02,  -2.43117205e-02,
         -8.15335102e-03,   1.44360885e-02,   7.69296766e-02,
         -1.38152438e-01,   9.87967887e-02,   1.35549155e-01,
          8.33067883e-02,   9.42680258e-02,   2.48864644e-02,
          1.80630099e-02,   1.03209784e-01,  -1.54095198e-02,
          4.08360895e-03,   1.08576585e-01,   1.59467632e-02,
          8.39797880e-02,  -1.33237493e-01,  -1.14645915e-02,
         -2.93978960e-02,  -9.97014064e-02,   1.15927782e-01,
          2.89042911e-01,  -2.24561633e-01,  -7.08059474e-02,
          1.21964363e-01,  -6.33190696e-02,   8.31208014e-02,
          7.35393062e-02,  -1.79877427e-01,  -1.08510124e-01,
         -1.30707508e-01,  -1.66984807e-03,   1.05757834e-03,
         -3.68993652e-03,  -7.20017854e-02,   5.98554593e-02,
         -2.66061017e-01,   1.29071450e-01,   7.19419017e-02,
         -1.32145684e-01],
       [  1.03453873e-01,   3.44929559e-01,   3.27074834e-01,
          5.55370218e-01,   1.88556785e-01,   2.01510025e-01,
          5.02947271e-03,   1.08650502e-01,   5.49146931e-01,
          6.31985021e-01,   3.07505103e-01,   8.26951157e-02,
          2.76179266e-01,   2.42394355e-01,   5.55639674e-01,
          3.74005049e-01,   1.71093128e-01,   3.50874084e-01,
          2.77338343e-01,   3.20973137e-01,   3.06760885e-01,
          6.07330399e-02,   3.39333533e-01,   4.40224088e-01,
          2.67834623e-01,   3.13268880e-01,   4.04110076e-01,
          5.09127580e-01,   4.59189658e-01,   4.49723048e-01,
          1.20298764e-01,   3.31986418e-01,   4.27496609e-01,
         -2.59265513e-02,   2.56531164e-01,   3.01498828e-01,
          1.13315267e-01,   4.95708836e-01,   3.71809234e-01,
          2.47007690e-01,   1.42571370e-01,   2.26346038e-01,
          7.11989039e-01,   2.32896827e-01,   3.18623302e-01,
          2.70626243e-01,   2.49888341e-01,   4.60370682e-01,
          3.72197150e-01,   7.03891366e-01,   3.86161951e-01,
          3.49397645e-01,   4.59880497e-01,   6.17772827e-02,
          5.39125309e-01,   5.54522778e-01,   2.74426146e-01,
          3.35958431e-01,   2.53392215e-01,   2.68364989e-01,
          3.10089042e-01,   1.55416836e-01,   3.02151167e-01,
          3.54547657e-01,   4.83220413e-01,   3.55544146e-01,
          5.90596161e-01,   3.53012518e-01,   2.14228225e-01,
          1.49497421e-01,   2.67443401e-01,   1.74453293e-01,
          1.71297101e-01,   5.55247842e-01,   4.13247523e-01,
          2.33387045e-01,   3.04617054e-01,   3.58590979e-01,
          4.79491473e-01,   1.39069876e-01,   5.11589916e-01,
          9.55848647e-01,   3.09771658e-01,   6.30781237e-01,
          3.87769248e-01,   3.15857190e-01,   3.97249235e-01,
          3.99591580e-01,   4.29283143e-01,   3.67736988e-01,
          3.70532907e-01,   5.00895553e-01,   4.20549492e-01,
          3.36191307e-01,   3.01234645e-01,   2.89551645e-01,
          7.36868553e-02,   4.86791832e-01,   3.47451761e-01,
          2.68930452e-01],
       [  1.13321516e-01,  -8.07272124e-03,  -5.53086763e-02,
         -2.94401547e-01,   4.19422848e-02,  -7.46090651e-02,
         -9.45597957e-02,   1.73834311e-01,  -7.94233874e-02,
         -6.89334147e-03,   1.32471213e-01,   4.68968863e-02,
          4.20961823e-02,   2.08226131e-02,  -2.82866012e-02,
          1.33188522e-01,   6.98144475e-02,   4.19359124e-02,
         -8.45031821e-02,  -2.80205540e-02,   1.05706554e-02,
         -1.37142135e-01,   2.01974406e-02,  -7.72725961e-04,
         -1.95754647e-01,   3.93461422e-02,   1.24583357e-01,
         -9.63586035e-02,  -6.54066709e-04,  -1.85674227e-02,
         -3.38558259e-01,  -2.13261290e-01,  -8.30669334e-03,
         -4.49916907e-01,   6.06142796e-02,   5.20198320e-02,
         -1.86887772e-02,   1.38980475e-02,  -7.31159314e-02,
          4.77673379e-02,   7.07273507e-02,  -1.33538190e-01,
          1.18104529e-01,   1.09843188e-01,  -5.90359052e-02,
         -8.92808749e-02,  -1.76027439e-01,  -6.53066048e-02,
         -1.12192066e-01,   1.64708337e-01,   1.39311802e-02,
          8.48131482e-03,  -2.71542533e-02,   2.99297319e-02,
         -7.88178738e-02,  -1.54511826e-01,  -4.55127547e-02,
         -7.57247288e-02,   2.30760088e-02,  -3.16051875e-02,
         -1.60474006e-02,   2.32158686e-02,   4.67595634e-02,
         -1.81674890e-01,   4.12259059e-02,   9.41695846e-02,
         -1.33718679e-02,   6.92977187e-02,   3.39931639e-02,
          2.61501736e-02,   1.11651443e-01,   6.89933142e-03,
          1.41183571e-02,   2.43492274e-02,  -2.42016007e-02,
          8.14540451e-02,  -1.47488820e-01,  -3.23680291e-02,
         -1.11259014e-01,  -8.60085842e-02,   5.93680772e-02,
          1.68576244e-01,  -2.63970959e-01,  -2.87078963e-01,
          6.16614908e-02,  -7.61911697e-02,   2.38890308e-02,
          2.54045333e-02,  -2.66754818e-01,  -1.51626098e-01,
         -1.61785967e-01,  -9.75947070e-02,  -5.16180937e-02,
         -2.29417750e-02,  -9.43989274e-02,   3.86023108e-02,
         -3.03176286e-01,   7.87862590e-02,   3.06227693e-02,
         -1.23280278e-01],
       [ -9.46252830e-01,  -2.94231619e-01,  -2.44150513e-01,
          2.47352718e-01,  -6.79071738e-01,  -4.64372128e-01,
         -8.32123041e-01,  -1.15884347e+00,   1.69078533e-01,
          2.16173628e-01,  -6.97421947e-01,  -9.12397634e-01,
         -5.37512434e-01,  -4.96800954e-01,   1.16330339e-01,
         -5.68787122e-01,  -7.81373696e-01,  -3.60144544e-01,
         -3.48450100e-01,  -3.04845393e-01,  -3.77511954e-01,
         -7.12639409e-01,  -3.39175682e-01,  -1.15280348e-01,
         -3.07567194e-01,  -4.47018462e-01,  -4.68290467e-01,
          1.14353182e-01,  -1.01245242e-01,  -7.20866810e-02,
         -4.86191635e-01,  -1.50645348e-01,  -1.30296998e-01,
         -7.30068910e-01,  -5.45811509e-01,  -4.70500398e-01,
         -7.38351858e-01,  -3.46545534e-02,  -1.50176428e-01,
         -5.91418034e-01,  -8.23370028e-01,  -3.96473467e-01,
          1.29978411e-01,  -7.61130441e-01,  -2.90894518e-01,
         -3.32866015e-01,  -3.19192708e-01,  -1.63922985e-02,
         -1.47398312e-01,   2.60281255e-02,  -2.33265610e-01,
         -3.10466687e-01,  -5.81208453e-02,  -8.92029181e-01,
          1.39309732e-01,   2.08934718e-01,  -3.71654268e-01,
         -2.19462865e-01,  -5.25107717e-01,  -4.07461542e-01,
         -3.45674685e-01,  -7.01509223e-01,  -4.92859849e-01,
         -1.21832143e-01,  -1.07955682e-01,  -5.23338446e-01,
          1.58777574e-01,  -4.26007471e-01,  -6.28886298e-01,
         -7.45115123e-01,  -7.00281529e-01,  -6.38959426e-01,
         -6.84267696e-01,   1.88136611e-02,  -1.50086853e-01,
         -6.95006863e-01,  -2.55526833e-01,  -2.14528576e-01,
          6.16653077e-02,  -5.94408723e-01,  -1.08985778e-01,
          4.03238386e-01,  -1.91949303e-01,   3.67998065e-01,
         -3.76550663e-01,  -2.82167608e-01,  -2.71907148e-01,
         -2.66943346e-01,   4.46741221e-02,  -1.26595172e-01,
         -1.01636682e-01,   9.40729433e-02,  -1.07531985e-01,
         -2.70382368e-01,  -2.73278208e-01,  -4.98949074e-01,
         -5.95659531e-01,  -1.71054232e-01,  -3.70859068e-01,
         -3.18025336e-01],
       [ -1.87776451e-01,  -3.36197556e-02,   1.96880734e-01,
          6.16807361e-01,  -7.96464270e-02,   2.59862271e-01,
          3.03534298e-01,  -3.40813291e-01,   9.50809297e-02,
         -1.13576218e-01,  -3.90760887e-01,  -7.95358920e-02,
         -1.71846919e-01,  -3.56494859e-03,  -8.24820442e-02,
         -4.02577101e-01,  -1.53698011e-01,  -1.75133112e-01,
          2.34643757e-01,   1.01761594e-01,  -7.84604144e-03,
          3.50405352e-01,  -6.35709724e-02,  -7.70124373e-02,
          5.72286555e-01,  -1.48572960e-01,  -3.94157849e-01,
          1.87997337e-01,  -9.96270514e-02,  -2.20162127e-02,
          7.81785957e-01,   5.88954804e-01,  -2.60950006e-02,
          8.85572860e-01,  -1.22441920e-01,  -1.63367244e-01,
          9.02062296e-02,  -1.31432084e-01,   2.32187119e-01,
         -1.15526785e-01,  -1.51443365e-01,   3.94361217e-01,
         -3.98634992e-01,  -2.64614964e-01,   1.54300918e-01,
          2.97640353e-01,   5.43785949e-01,   1.07930051e-01,
          3.28342127e-01,  -4.99053604e-01,  -4.62779377e-02,
         -6.31787936e-02,  -2.96915606e-02,   7.82580978e-04,
          5.59152620e-02,   2.83347706e-01,   1.31020004e-01,
          2.56421192e-01,  -6.37159678e-02,   1.15682178e-01,
          5.24658195e-02,  -4.16469381e-02,  -1.93947414e-01,
          4.81003953e-01,  -2.18778240e-01,  -3.59340182e-01,
         -9.82859112e-02,  -2.25585296e-01,  -7.57188331e-02,
         -3.50989237e-02,  -2.88183726e-01,   3.72745734e-02,
         -4.05317723e-02,  -2.16502723e-01,   8.78126447e-03,
         -2.34740859e-01,   4.56330658e-01,   7.26224716e-02,
          2.20731446e-01,   2.72852526e-01,  -2.83248663e-01,
         -4.50788433e-01,   7.01042909e-01,   5.04656842e-01,
         -2.85772275e-01,   2.14652281e-01,  -1.65837690e-01,
         -1.49572558e-01,   6.81048545e-01,   4.17175207e-01,
          4.47900612e-01,   1.58002336e-01,   7.29456631e-02,
          9.23149072e-02,   2.52976324e-01,  -1.66090957e-01,
          7.05167403e-01,  -3.09550521e-01,  -1.34077196e-01,
          4.02349439e-01],
       [ -8.19684306e-02,   1.58413578e-02,   7.12267437e-02,
          1.96841549e-01,  -3.14972440e-02,   7.68400436e-02,
          9.55533299e-02,  -1.20780472e-01,   7.99071448e-02,
          6.60428288e-02,  -7.07687410e-02,  -6.07503394e-02,
         -3.62906055e-02,  -6.80048541e-03,   6.01789150e-02,
         -6.42025514e-02,  -5.17785493e-02,  -7.25846912e-03,
          8.68965185e-02,   3.52478549e-02,   1.73053749e-02,
          1.06671537e-01,   1.19420341e-02,   2.71037782e-02,
          2.23892621e-01,  -2.11001856e-02,  -5.79227721e-02,
          8.70589118e-02,   2.62943196e-02,   3.09381618e-02,
          3.00612265e-01,   1.92854425e-01,   2.32877269e-02,
          3.59375757e-01,  -3.58915798e-02,  -3.89148685e-02,
          9.76365108e-03,   4.17587253e-02,   7.67512430e-02,
         -2.46021567e-02,  -5.29329817e-02,   1.22286348e-01,
          5.78563812e-02,  -6.61105365e-02,   4.90148481e-02,
          8.40024452e-02,   1.84524179e-01,   7.14312935e-02,
          1.30841259e-01,   2.74294877e-02,   1.09302384e-02,
          1.92356769e-03,   4.08154032e-02,  -3.77462179e-02,
          7.78859321e-02,   1.09442261e-01,   4.16208562e-02,
          9.67549084e-02,  -2.46309947e-02,   3.30708878e-02,
          1.82626894e-02,  -2.02702783e-02,  -3.42014345e-02,
          1.74040698e-01,   2.53551914e-02,  -4.69786703e-02,
          6.13770152e-02,  -3.38018512e-02,  -2.18271759e-02,
         -2.06051290e-02,  -5.94302630e-02,   8.40479391e-03,
         -2.28142437e-02,   3.15884270e-02,   3.73991214e-02,
         -5.43337643e-02,   1.45733381e-01,   4.49294283e-02,
          1.04590572e-01,   7.98367759e-02,   3.53596541e-03,
          1.13737152e-01,   2.41391071e-01,   1.65077174e-01,
         -2.05323731e-02,   7.05728098e-02,  -2.30201527e-03,
          8.33848553e-03,   2.21690111e-01,   1.57594720e-01,
          1.64671515e-01,   8.04930623e-02,   5.00100473e-02,
          4.41640063e-02,   9.13006238e-02,  -3.12784100e-02,
          2.73557523e-01,   1.23826014e-02,  -6.09352291e-03,
          1.23556412e-01],
       [ -5.43967332e-03,   1.05560628e-01,   7.05603170e-02,
          7.67821834e-02,   3.89641689e-02,   2.03090786e-02,
         -8.31912400e-02,  -4.29969485e-02,   1.67070070e-01,
          2.06547008e-01,   6.22556060e-02,  -1.46056300e-02,
          7.26268472e-02,   5.82923214e-02,   1.81816899e-01,
          9.39480425e-02,   2.13135318e-02,   1.11931739e-01,
          4.66765877e-02,   8.80142200e-02,   8.28289778e-02,
         -5.50150276e-02,   1.06015492e-01,   1.44475581e-01,
         -2.65558173e-02,   8.47806352e-02,   1.03021596e-01,
          1.48587891e-01,   1.52491974e-01,   1.51343999e-01,
         -1.47141927e-01,  -8.46700654e-03,   1.32060693e-01,
         -2.68607940e-01,   7.75734166e-02,   8.58448767e-02,
         -1.00302307e-02,   1.66999146e-01,   8.43262748e-02,
          7.00644114e-02,   2.21409956e-02,   6.16322732e-03,
          2.40231902e-01,   4.87236903e-02,   7.98597444e-02,
          4.31273026e-02,  -1.99854101e-02,   1.39747804e-01,
          6.52497812e-02,   2.23028062e-01,   1.18519269e-01,
          1.13772243e-01,   1.58724097e-01,  -1.90784013e-02,
          1.70111480e-01,   1.42779411e-01,   5.68572102e-02,
          7.27306381e-02,   6.95078777e-02,   5.22769645e-02,
          8.68822977e-02,   2.56014906e-02,   8.70597439e-02,
          3.11200596e-02,   1.58744730e-01,   1.03252123e-01,
          1.97542656e-01,   1.13661130e-01,   5.13394096e-02,
          1.47836428e-02,   6.45545848e-02,   3.56728532e-02,
          2.76940790e-02,   1.86297562e-01,   1.34298861e-01,
          5.12230603e-02,   8.68899044e-03,   9.85997393e-02,
          1.20405837e-01,  -2.02681028e-02,   1.70774031e-01,
          3.05309685e-01,  -5.24518393e-02,   1.14443556e-01,
          1.25472527e-01,   6.15630665e-02,   1.36132039e-01,
          1.23512667e-01,   4.80843575e-03,   5.49293591e-02,
          5.33554488e-02,   1.51257010e-01,   1.27270571e-01,
          9.57870113e-02,   5.19329708e-02,   8.22696849e-02,
         -1.45409222e-01,   1.57933074e-01,   1.04611066e-01,
          1.62715920e-02],
       [ -1.40704935e-02,   9.10633039e-02,   1.06923929e-01,
          1.49754532e-01,   3.53912701e-02,   7.50040252e-02,
          2.40603805e-02,  -5.97415311e-02,   1.42141372e-01,
          1.34697692e-01,  -5.37498314e-03,   1.37558667e-02,
          4.97465731e-02,   7.81814853e-02,   1.29907448e-01,
          1.11902370e-02,   1.63934068e-02,   6.95412656e-02,
          9.37771501e-02,   9.53813610e-02,   9.42101104e-02,
          4.08567186e-02,   8.44484239e-02,   1.08581187e-01,
          7.58698178e-02,   6.89060462e-02,   3.92644879e-02,
          1.37800635e-01,   1.09050221e-01,   1.10463876e-01,
          1.02816291e-02,   8.99318072e-02,   1.06000033e-01,
         -6.65155014e-02,   4.76940715e-02,   6.05913294e-02,
          4.34118510e-02,   1.08617917e-01,   1.16046496e-01,
          4.15109494e-02,   1.72415329e-02,   7.91495858e-02,
          1.01012199e-01,   3.13292148e-03,   1.08350082e-01,
          9.18435611e-02,   7.10451979e-02,   1.26307494e-01,
          1.25664054e-01,   8.30021349e-02,   9.65635510e-02,
          8.84953623e-02,   1.11487074e-01,   1.79471862e-02,
          1.45224545e-01,   1.61001493e-01,   9.36639102e-02,
          1.06442011e-01,   6.68817873e-02,   9.50298033e-02,
          9.08081981e-02,   3.94608981e-02,   5.04974528e-02,
          1.10889215e-01,   1.01250190e-01,   3.70265105e-02,
          1.37129646e-01,   5.14562832e-02,   4.67394602e-02,
          3.42365900e-02,   1.13454151e-02,   5.79634543e-02,
          4.48419802e-02,   1.15292230e-01,   1.19407949e-01,
          2.97555389e-02,   1.04593304e-01,   1.09089337e-01,
          1.47577268e-01,   6.10679873e-02,   9.10694673e-02,
          1.47803996e-01,   7.09457878e-02,   1.60520252e-01,
          5.32849234e-02,   1.15462018e-01,   7.88123104e-02,
          9.14734327e-02,   1.02690534e-01,   1.20185828e-01,
          1.12976716e-01,   1.44623910e-01,   1.27664283e-01,
          1.01174695e-01,   1.11144043e-01,   5.63344365e-02,
          1.65068773e-02,   7.84037523e-02,   7.76857368e-02,
          1.03158559e-01]])]Hidden bias: [array([-0.2427995 , -0.22933838, -0.24609891, -0.16385548, -0.22896077,
       -0.25356557, -0.30007885, -0.25077674, -0.18524308, -0.12986626,
       -0.18613209, -0.25152723, -0.2155448 , -0.23620171, -0.17797575,
       -0.18422732, -0.22428231, -0.21481609, -0.2469821 , -0.24284891,
       -0.2344678 , -0.28239051, -0.22856525, -0.22204808, -0.27741018,
       -0.21954221, -0.18719501, -0.20817585, -0.22025027, -0.22495509,
       -0.34235425, -0.26396922, -0.23009008, -0.4248398 , -0.22424693,
       -0.21958804, -0.25141416, -0.20349719, -0.24578655, -0.22162741,
       -0.23008432, -0.26173583, -0.05970836, -0.20965691, -0.24468531,
       -0.25415531, -0.27605317, -0.23020358, -0.2500254 , -0.06112195,
       -0.2327149 , -0.22921602, -0.22183924, -0.25947981, -0.1886167 ,
       -0.18183896, -0.2417078 , -0.24980201, -0.22798294, -0.24309331,
       -0.23987438, -0.23226247, -0.21244887, -0.24936219, -0.199428  ,
       -0.19021523, -0.15972109, -0.21215325, -0.22805656, -0.23445392,
       -0.2048447 , -0.2409109 , -0.23240668, -0.17923465, -0.23625704,
       -0.21083135, -0.26429424, -0.23817663, -0.22082791, -0.26143809,
       -0.18913704,  0.19666549, -0.28613455, -0.10425207, -0.19912572,
       -0.24977731, -0.21693011, -0.22155737, -0.23802312, -0.24891196,
       -0.24830031, -0.21035256, -0.23709259, -0.24160378, -0.24601743,
       -0.21656375, -0.33963127, -0.18581038, -0.22183956, -0.26334672])]Output weights: [[  1.01140493e-01   7.10636464e-03]
 [  1.59312892e-02   1.05303324e-02]
 [  2.35233888e-02   2.20304569e-02]
 [ -9.17886806e-02   3.28892302e-02]
 [  5.44386499e-02   8.41693540e-03]
 [  4.85379901e-02   1.25146580e-02]
 [  1.22959698e-01   9.16377507e-03]
 [  1.39314778e-01  -1.85165812e-02]
 [ -5.50237006e-02   8.33047679e-03]
 [ -9.85929001e-02  -1.26491174e-02]
 [  4.00801321e-02  -1.98492383e-02]
 [  9.68589620e-02   1.82928418e-03]
 [  3.01629745e-02   2.14520246e-03]
 [  4.21731388e-02   2.18271339e-02]
 [ -5.46009833e-02  -4.10864224e-03]
 [  2.63305176e-02  -1.77522312e-02]
 [  6.39136333e-02   3.31566250e-03]
 [  1.49071392e-02   6.67341420e-03]
 [  2.81555799e-02   6.19302359e-03]
 [  2.46004509e-02   2.02332350e-02]
 [  2.69143501e-02   1.91364631e-02]
 [  9.05601136e-02   1.12226383e-03]
 [  1.93609305e-02   1.62668779e-02]
 [ -3.58005191e-03   1.34872299e-02]
 [  2.61209483e-02   2.68886460e-02]
 [  2.39132053e-02   9.71892549e-03]
 [  1.75420646e-02  -1.20081460e-02]
 [ -3.47259573e-02   1.66396380e-02]
 [ -8.69985038e-03   9.50492281e-03]
 [ -5.81446224e-03   1.64174333e-02]
 [  6.03312551e-02   6.91875222e-02]
 [  8.43604512e-03   3.42214182e-02]
 [  2.45326874e-03   2.07492413e-02]
 [  1.25925139e-01   1.41818398e-01]
 [  3.98817786e-02   1.88219828e-02]
 [  2.86993243e-02   1.41531917e-02]
 [  7.59126190e-02   3.01454350e-03]
 [ -2.19774261e-02   6.48537561e-03]
 [  1.38692674e-02   2.53813949e-02]
 [  3.84491731e-02   8.18104169e-03]
 [  7.18590334e-02   1.93732644e-04]
 [  3.90328126e-02   1.42096277e-02]
 [ -1.23174692e-01  -8.34646216e-02]
 [  5.39659478e-02  -1.82910519e-03]
 [  2.19814086e-02   1.32645589e-02]
 [  3.29734439e-02   1.90241264e-02]
 [  3.32562436e-02   3.24618564e-02]
 [ -1.14547649e-02   1.25297809e-02]
 [  8.87005163e-03   1.72027067e-02]
 [ -9.58899860e-02  -9.97088743e-02]
 [  1.34241057e-02   2.45347613e-02]
 [  1.66854265e-02   1.49097390e-02]
 [ -1.13627745e-02   8.57555890e-03]
 [  1.02212932e-01   7.89072672e-03]
 [ -5.16708854e-02   3.13197945e-04]
 [ -6.65172264e-02   1.34847093e-02]
 [  3.14597152e-02   1.24297812e-02]
 [  2.02752899e-02   1.96530282e-02]
 [  3.61804383e-02   1.32301667e-02]
 [  3.42784243e-02   1.63849607e-02]
 [  2.62609225e-02   1.83048807e-02]
 [  6.04456578e-02   3.55108737e-03]
 [  2.45318778e-02   1.99277766e-03]
 [  3.20542361e-03   1.75616341e-02]
 [ -1.66862377e-02   8.49611420e-05]
 [  1.71646644e-02  -1.86672454e-02]
 [ -7.19289221e-02  -4.81311877e-03]
 [  1.88778171e-02   8.05477756e-03]
 [  4.60670022e-02   6.78299462e-03]
 [  6.45861341e-02   3.71862031e-03]
 [  4.42731884e-02  -3.70370548e-03]
 [  5.60687380e-02   8.00262657e-03]
 [  5.57614540e-02   1.47811801e-03]
 [ -4.49853358e-02  -9.29240954e-03]
 [  3.88239378e-03   1.44897158e-02]
 [  4.49818670e-02  -2.20907398e-03]
 [  2.29647366e-02   2.72323767e-02]
 [  1.59413588e-02   1.70535055e-02]
 [ -2.41589816e-02   1.18826146e-02]
 [  6.58665301e-02   7.08757104e-03]
 [ -2.25292985e-02  -7.02365626e-03]
 [ -3.39191278e-01  -2.47477662e-01]
 [  1.08619109e-02   4.65517668e-02]
 [ -1.44585982e-01   2.37522538e-02]
 [  6.08509639e-03  -9.80274181e-03]
 [  2.30201725e-02   1.39391882e-02]
 [  4.50610433e-03   4.15300941e-03]
 [  6.14314781e-03   7.69402236e-03]
 [ -2.72705990e-02   4.33991522e-02]
 [  3.96437158e-03   1.55310564e-02]
 [  2.24936516e-03   1.83750119e-02]
 [ -3.27197140e-02   1.05211036e-02]
 [  6.05423174e-04   1.31563516e-02]
 [  2.17857538e-02   2.10781401e-02]
 [  2.29473106e-02   9.17777877e-03]
 [  2.69034129e-02   3.25468082e-03]
 [  8.16462997e-02   5.56432360e-02]
 [ -1.52775106e-02  -9.85212804e-03]
 [  1.65828561e-02   9.91240014e-03]
 [  3.21826083e-02   2.35139149e-02]]Output bias: [ 0.79317556  0.38817682]
Value MLP:Hidden weights: [array([[ -1.76266799e+00,  -1.51991385e+01,  -4.96979769e+00,
          1.23208703e+01,   1.38691250e+01,   8.07958160e+00,
         -2.14942284e+00,  -4.31823100e+00,  -6.45682497e+00,
         -9.20984170e-01,  -1.61647988e+00,  -4.82050671e+00,
          6.46402840e-01,   5.79577702e+00,  -1.80475107e+00,
          2.84023796e+00,  -9.39856222e-01,  -3.98166770e-01,
         -1.40108662e+00,   2.43163212e+01,  -6.75355557e+00,
          2.44838099e+00,  -1.09878783e+00,   1.65530641e+01,
          1.08238441e+01,   3.10311592e+01,   7.02295082e+00,
          5.35596776e+00,  -1.68021389e+00,  -1.15888331e-01,
         -1.00119295e+00,  -5.75617045e+00,  -2.00084610e+00,
          4.68973096e-01,   5.67411287e+00,  -2.61783312e+00,
         -1.53157530e+00,  -1.00045939e+00,  -2.16558607e+00,
          3.47001041e-01,  -1.56137524e+01,  -1.84278017e+00,
          3.52312633e-01,  -1.78659609e+00,  -2.05449604e+00,
          8.33002040e-01,   5.94392946e-01,  -8.62020817e+00,
         -8.79072403e+00,  -4.41547283e+00,  -1.10391026e+00,
         -2.73174787e+00,   6.53866900e-01,  -3.39270311e+00,
          1.05688499e+01,   1.73617099e+00,   3.76104356e+00,
         -4.99112500e+00,   3.90868961e+00,   3.54751425e+00,
         -4.69605238e+00,   6.95659629e-01,  -2.37952005e+00,
         -1.04131689e+01,  -1.06798582e+00,  -2.36213111e-01,
         -5.01789279e+00,   1.26714720e+01,  -4.02480422e+00,
         -1.62080615e+00,   2.20476582e+00,   2.09188974e+00,
         -1.85894878e+01,  -1.10330844e+01,  -3.44237005e+00],
       [ -8.18555573e+00,   6.94117129e-01,  -1.92926821e+00,
          2.86610839e+00,  -3.13379509e-01,  -4.75271759e+00,
         -4.09547857e+00,   9.58405739e+00,   2.60622844e-01,
         -3.59615941e+00,  -2.50458738e+00,   3.83347481e+00,
         -4.72315798e+00,   1.04732167e+00,  -1.96286882e+00,
          9.58802126e+00,  -3.96137234e+00,  -2.80041983e+00,
         -3.97410615e+00,  -5.55022722e+00,  -5.32611435e+00,
          6.14838250e+00,  -3.72550433e+00,  -7.08156339e+00,
          3.60938857e+00,  -1.14513543e+00,  -2.77048825e+00,
          9.49289346e+00,  -4.12789377e+00,  -2.72675601e+00,
         -3.05040717e+00,  -4.05062468e+00,  -5.25182515e+00,
         -7.24754916e+00,   8.68740282e+00,  -2.47569711e+00,
         -3.94176907e+00,  -4.99225133e+00,  -6.32819939e+00,
          5.36484404e-02,  -4.89992217e+00,  -2.55994011e+00,
         -6.15167310e+00,  -3.96904462e+00,  -2.60302768e+00,
         -3.65324664e+00,  -2.08648954e-01,  -2.68033602e+01,
          4.10511372e+00,  -6.46897750e+00,  -1.15707337e+00,
         -1.82456777e+00,  -3.10970639e+00,  -2.89024275e+00,
          3.32093032e+00,   6.27685346e+00,  -8.95784418e-01,
          4.30196990e-01,   4.15284031e+00,  -2.66911805e+00,
         -1.11913873e+00,  -1.95065131e+00,  -2.54793165e+00,
          6.55784176e+00,  -3.78491584e+00,  -4.37086748e+00,
         -4.77647690e+00,  -1.21480497e+01,  -2.71373297e+00,
         -3.02774465e+00,  -6.34666444e-01,   7.35094128e+00,
          6.80561319e-01,   6.61710831e+00,   2.11492336e+00],
       [  5.85136497e+00,   1.56754584e+01,  -3.33957486e+01,
          2.31401591e+01,  -1.38125395e+01,  -6.35005311e+00,
          5.96880119e-01,  -2.58388361e+00,   5.57136603e+00,
         -4.85976624e-01,  -2.21113817e+00,   7.08322331e+00,
         -4.22954153e+00,   1.42094928e+01,  -3.34404535e+00,
          1.22123126e+01,  -1.24979635e-01,  -2.62052139e+00,
         -2.13030194e-01,  -1.54320940e+01,   1.68584950e+00,
          1.98528299e+00,  -3.59300823e+00,   1.55101646e+01,
          2.13395513e+01,   1.60580555e+01,  -8.56052996e+00,
         -2.83941823e+01,  -3.29184053e+00,  -2.91954697e+00,
         -6.92350117e-01,  -1.69224071e+01,  -2.15997238e+00,
         -3.89185456e+00,  -6.15825543e+00,   2.77365439e-01,
         -4.58617597e-01,  -5.91191761e+00,  -5.80643036e+00,
         -2.69229701e+00,   1.06416177e+01,  -4.13777931e+00,
          1.43838622e+00,  -1.26255844e+00,  -5.21979618e+00,
         -3.19309066e+00,   6.11321979e+00,   2.59018024e+00,
          8.28915843e+00,  -9.02840411e+00,  -2.97910993e+00,
          1.04431084e+00,  -1.64273119e+00,  -1.58788643e+00,
         -8.34063979e+00,  -4.85217663e+00,   1.27473208e+01,
          5.16630640e+00,   3.09000567e+01,   1.43726887e+01,
          1.09809854e+01,  -2.26182342e+00,  -5.37557582e+00,
         -1.33226094e+01,  -7.43259687e-01,  -4.10285941e+00,
         -1.78729888e+01,   2.04466194e+01,  -2.61617346e+00,
         -3.35162907e+00,   1.32195760e-04,  -1.09404598e+00,
          1.21050567e+01,   9.27596483e+00,  -5.27635113e+00],
       [ -2.06709078e+00,   3.25626079e+00,   1.45607691e+00,
          1.64195224e+00,   2.82183977e+00,  -4.71590216e+00,
          7.26135257e+00,   7.35968001e+00,  -1.06511482e+00,
          2.76938859e+00,   3.03828939e+00,   9.18202507e-01,
          3.32826649e+00,   1.04449928e+00,   1.23236153e+00,
          1.94446682e+00,   2.94335144e+00,   3.21769892e+00,
          3.13417343e+00,  -5.12213508e+00,  -2.23417931e+00,
         -2.07557188e+00,   1.62266795e+00,  -2.03271605e+00,
          2.12515515e+00,  -3.05728264e+00,   5.99649405e+00,
          4.66841492e+00,   2.50714074e+00,   3.70586115e+00,
          2.34146951e+00,   1.04239711e-01,   2.48798034e+00,
          5.96706435e+00,  -3.23255771e-02,   9.87274749e-01,
          3.56141670e+00,   1.19529296e+00,  -3.07960926e-01,
          3.54747829e+00,   5.01725757e-01,   2.05511089e+00,
          3.77377116e+00,   3.30468745e+00,   1.89577638e+00,
          4.11355588e+00,  -6.48545777e-01,  -6.59725265e+00,
         -7.99837655e+00,   6.08595201e-01,   3.34346252e+00,
          1.54365792e-01,   3.54810605e+00,   8.88416858e-01,
         -6.52255368e+00,   3.70720466e+00,  -4.77413532e-01,
         -6.36392705e+00,   9.42305539e-01,   4.40434111e+00,
         -1.85990075e+01,   3.00423446e+00,   4.27795566e+00,
          6.65867802e-01,   3.24908281e+00,   3.49471883e-01,
         -3.01166279e+00,  -1.93539439e+00,   2.43730876e+00,
          2.72732092e+00,   4.23990979e+00,   5.06741377e-02,
         -6.26839443e+00,  -3.65400414e+00,   9.11686627e+00],
       [ -1.26125420e+01,  -2.55007145e+01,  -1.34786968e+00,
         -1.09042509e-02,   1.21593866e+01,   5.69133968e-01,
          6.08197574e+00,   3.93648784e+00,   2.54519270e+00,
         -3.63405277e-01,   2.77661368e+00,  -9.43210543e+00,
         -3.66676956e+00,  -1.07775248e+01,   5.30507397e+00,
          1.37693282e+00,  -2.77115098e-02,   6.20186086e-01,
         -4.28536963e-01,  -1.05943523e+00,   2.95401593e+00,
          7.13510745e+00,   2.42296686e+00,  -2.57572615e+00,
         -3.83693748e+00,  -1.31218593e+00,  -2.38314274e+00,
          1.00601050e+01,   1.19404060e+00,   3.24796160e+00,
          1.70412623e-01,   1.77714755e+01,   3.59824256e-01,
          3.82858892e+00,  -1.40409762e+00,  -1.30402815e+00,
         -1.13816698e+00,   4.17058247e+00,   1.14618273e+01,
          5.92911639e+00,  -1.65907643e+01,   1.84604871e+00,
          1.07382291e+00,  -3.51932220e-01,  -1.64142426e-01,
          4.53284373e+00,   3.38607099e+00,  -3.61051461e+00,
         -1.04140013e+01,  -4.41404847e+00,   6.90438328e+00,
          5.65101807e+00,   3.00272964e+00,   6.92099408e+00,
         -1.25806483e+00,  -8.94135734e+00,  -1.65002760e+00,
         -1.22391975e+01,   4.61444391e+00,  -7.00375165e+00,
         -2.09861802e+01,   5.57529508e+00,   4.36832632e+00,
          5.65903702e+00,  -2.19925608e+00,   6.38430649e+00,
         -8.04071113e+00,  -2.19258628e+01,   5.23290999e+00,
          2.37130520e+00,   4.07939106e+00,   3.76239379e+00,
         -2.32462333e+00,  -5.94578606e+00,   2.01379706e+00],
       [ -3.36054191e+01,  -1.78809029e+01,  -1.18117082e+00,
          1.24744605e+01,   4.58347259e+00,  -1.20620749e+01,
         -8.79687982e+00,  -2.47779618e+00,   1.60897678e+01,
          4.38001880e-01,   2.50993140e+00,  -1.68001031e+00,
         -7.48823655e-01,   1.58600247e+01,   1.42762041e+00,
          1.47043610e+01,   6.42001587e-01,  -2.00717749e+00,
         -4.43114370e-01,  -1.82402137e+01,   1.33629300e+01,
          7.00318615e+00,  -1.97439860e+00,   4.16859248e-01,
         -2.10174490e+00,  -8.35943399e+00,   4.77626652e+00,
         -3.00880257e+01,   1.48145955e+00,   3.12272570e+00,
          5.04339751e-01,   6.72746596e+00,  -1.91652734e-01,
          1.12621158e+01,   2.04025275e+01,   6.35870230e+00,
          1.90078442e-01,   2.44724071e+00,   3.11459978e+00,
          3.08219714e+00,   1.13931759e+00,  -9.31356423e-01,
          1.42934511e+00,  -4.56452526e-01,  -1.68480308e+00,
          2.53160450e+00,   1.57978894e+01,  -3.40029646e-02,
         -3.42233371e+00,   3.59342289e-01,   1.12427031e+00,
          9.54594345e+00,   2.50700795e+00,   4.94811853e+00,
          9.65740151e+00,   8.89824563e+00,   1.08468837e+01,
         -8.33887467e+00,  -1.69672439e+01,  -7.49940029e+00,
         -3.97352554e+00,  -2.49633860e-01,   1.98769587e-01,
          5.24279955e+00,   1.61413175e+00,   2.71823553e-01,
          1.48162704e+01,  -1.16136381e+00,  -1.70951650e+00,
         -6.38735260e-01,  -1.38120997e+00,  -1.25033216e+00,
          5.80405659e+00,   1.18130373e+01,  -1.07189888e+01],
       [  3.95218761e+00,   2.72217072e-01,   9.47540701e+00,
          1.20865307e+01,  -2.30400314e-01,  -9.07919358e+00,
         -8.33004173e-01,  -2.39669534e-01,   4.17756410e+00,
         -1.53169371e-01,  -2.94269406e+00,   8.96544017e+00,
         -2.78575229e+00,   6.60983368e+00,  -8.87079730e-01,
          3.56801638e+00,  -1.13721264e-01,  -1.10778755e+00,
         -1.45307478e-01,  -4.04181442e+00,   1.51125779e+00,
          2.82661254e+00,  -3.72477638e-01,   1.51172783e+01,
         -9.54634373e+00,   7.25773348e+00,  -2.58030759e+00,
         -5.35784693e+00,  -1.19274978e+00,  -1.00106242e+00,
         -8.86326157e-02,  -1.24001797e+00,  -4.88563790e-01,
         -3.51339805e+00,   5.10346296e+00,   2.92707961e+00,
         -1.40655177e-01,  -1.10289115e+00,  -4.56537636e+00,
         -2.65105620e+00,   7.93955719e+00,  -7.70166047e-01,
         -5.14843796e-02,  -1.42499753e-01,  -2.93454461e-01,
         -1.35767409e+00,  -1.14375000e+00,   1.17400193e+01,
          7.20146905e-01,   1.77531064e+01,  -1.05589493e+00,
         -3.25038696e+00,  -1.94093513e+00,   2.59979747e+00,
          1.46933968e+01,  -2.88200636e+00,   2.24493910e+00,
          4.31524410e+00,  -3.06684711e+00,  -4.12240299e+00,
          5.63730078e+00,  -6.64871036e-01,  -6.40930842e-01,
         -4.24734421e+00,  -7.55243926e-01,  -9.78436990e-01,
          8.52569327e+00,  -1.95021844e+00,  -3.63045417e+00,
         -9.05400162e-02,  -7.26970495e-01,  -1.07002541e+00,
          1.20569734e+00,  -1.62765048e+01,  -2.33627572e-01],
       [  2.33339279e+00,  -2.13439149e+00,   9.82561091e+00,
          1.21653867e+00,   7.12328946e+00,  -1.35224605e+00,
         -7.77617645e+00,  -6.44361565e+00,   2.83609697e+00,
          2.12717768e-02,  -2.30580673e+00,   4.40700562e+00,
          1.54847049e-01,  -3.18538965e+00,   1.93456712e-01,
         -7.51328165e+00,   1.47350998e-03,  -1.16312160e-01,
         -1.11227471e+00,   8.62094350e+00,   7.80510582e+00,
         -1.64512287e+01,  -1.47726537e-01,  -3.60041489e+00,
         -9.63214757e+00,   7.92898738e+00,  -1.46795938e+01,
         -1.07094069e+01,  -1.20860149e+00,  -2.14251532e+00,
          8.07925107e-03,   6.34570489e-01,   1.07980215e+00,
         -7.02654244e-01,   3.51226409e+00,  -3.75491589e+00,
         -4.68272110e-01,   9.09501604e-01,  -4.05430498e-01,
         -5.47594709e-01,  -7.49399120e-01,   2.08538375e-01,
         -2.82730236e+00,  -7.20036163e-02,  -1.55410494e+00,
          1.72131553e-01,  -2.60426581e+00,   7.43290299e+00,
         -9.47445408e+00,  -4.40614571e+00,  -1.26239466e+00,
         -1.36685049e+00,  -2.29806397e+00,  -2.87612699e-03,
         -2.12832487e-01,  -3.30278570e+00,  -4.41034289e-01,
         -9.91597271e-01,   8.07237863e+00,   2.02605592e+00,
          7.55556566e+00,  -7.52826301e-01,   9.03171832e-01,
         -6.86265377e+00,  -1.14482124e+00,  -3.19163052e-02,
         -6.99639563e-01,   7.52707448e+00,  -2.25990825e+00,
         -8.94772088e-01,  -2.26943944e+00,  -3.46078902e+00,
         -4.95103385e+00,  -8.53518124e-01,  -1.63892723e+01]])]Hidden bias: [array([-20.11862945,  12.99431958,  -0.57079707,  -0.23696488,
        -3.44778543, -10.39042835, -18.3493102 , -18.01297504,
         9.57921593,  -6.53314229,  -7.57672032,  12.15015932,
       -11.09593386,  -0.11986671,  -6.41573433,  -7.80403236,
        -6.44263777,  -8.76668639,  -7.93759655,  -0.40255921,
        14.22384314,  12.34347603,  -7.51840128,   8.17573981,
        -6.03228037,   4.7903693 , -12.34554789,  -9.04314466,
        -7.96914029,  -8.04031739,  -5.35566956,  -4.15843764,
        -8.83369379, -15.54578972,  21.57899686, -10.57191588,
        -7.4890523 ,  -6.69538003, -12.49096201,  -7.10681038,
        12.72014405,  -7.20945452, -12.69044079,  -7.13457169,
        -7.12595221,  -7.04429691,  -3.77648006,  -2.28951656,
        14.60318254, -14.53527019,  -8.06572874,  -7.68467725,
        -8.82183145, -13.02307502,  18.29747524,  10.70276544,
        -2.74172383,   7.96655257,   0.0808637 ,  -3.61280247,
        20.23040231,  -6.86979492,  -8.03405909,  -4.68692195,
        -8.57534081,  -7.46517879,   4.5018857 ,   7.333073  ,
       -12.98509684,  -8.27930672, -10.881084  ,  15.36832244,
        13.3681721 ,   8.91323985, -17.78823686])]Output weights: [[-11.06946658]
 [  6.97870577]
 [-16.75423451]
 [  1.00470889]
 [  4.75361704]
 [  8.42962744]
 [  4.70989459]
 [ -3.63924381]
 [  6.02214792]
 [ 10.21311082]
 [  4.85072594]
 [ -8.48655427]
 [ -1.5071465 ]
 [  5.71303579]
 [ -1.14689151]
 [  3.95066141]
 [ 10.70611582]
 [  0.0636042 ]
 [  3.07007297]
 [  8.04264892]
 [ -9.43337382]
 [ -2.74586102]
 [  1.04998667]
 [ -4.99975534]
 [ -2.41750762]
 [  9.63106557]
 [ 10.31761857]
 [ 10.92330439]
 [  1.58320326]
 [  1.33933942]
 [ 12.10978233]
 [ -7.92809034]
 [  1.32804183]
 [  6.31340424]
 [  2.32004646]
 [ -1.73542336]
 [  3.87330157]
 [  0.21114171]
 [  2.44754245]
 [ -4.15108313]
 [ -9.69982337]
 [  1.15447677]
 [  1.64478611]
 [  4.37044544]
 [  0.13619959]
 [ -1.49449945]
 [ 12.89731883]
 [ -3.88175632]
 [ -9.59212152]
 [  3.25802864]
 [ -4.48294441]
 [  0.8535876 ]
 [  1.58189681]
 [  3.8620015 ]
 [ -5.59668239]
 [ -2.95019036]
 [ -2.37826901]
 [  5.02247626]
 [ -0.29822273]
 [ -8.57092749]
 [  6.93425219]
 [ -0.3534916 ]
 [ -0.685221  ]
 [  7.58840557]
 [  0.38833609]
 [ -0.48115123]
 [ -2.60463717]
 [-13.58136742]
 [  2.59365406]
 [  1.52678123]
 [ -0.83050912]
 [ -9.24837861]
 [ -8.09897935]
 [  2.63096992]
 [ -4.91979181]]Output bias: [-12.83544951]