Action MLP:Hidden weights: [array([[  4.75877021e-02,   2.18733906e-02,   1.11996490e-01,
          1.67705237e-01,  -1.14733112e-01,   1.36211536e-01,
          2.63021771e-02,   2.32483300e-02,   1.10323027e-01,
         -5.76021541e-03,   1.87836911e-02,   4.51201456e-02,
          1.71499369e-02,   7.40325212e-03,   1.05965167e-01,
          4.11647875e-02,  -7.56181146e-02,  -1.08117877e-01,
         -1.90444885e-02,   1.74036589e-01,   4.44981378e-02,
         -1.46061455e-02,   1.83333253e-01,   5.70398241e-02,
         -3.00849431e-02,  -9.24229769e-02,   4.01372060e-02,
          5.64236827e-02,   7.76680130e-02,  -1.15277101e-01,
          2.58879775e-02,   1.08654231e-01,  -2.43375139e-02,
          6.07974145e-02,   7.18155248e-02,  -2.11726769e-01,
          2.50639842e-02,   3.69428744e-02,  -5.91150615e-02,
         -5.53766312e-02,   6.43926021e-03,  -1.14775262e-01,
         -8.61219824e-02,   4.80298963e-03,  -6.03648874e-03,
          6.17910802e-02,  -1.48689789e-02,  -2.88876548e-02,
          1.77462993e-02,  -2.38640667e-02],
       [  1.66003302e-01,  -3.50209561e-01,  -3.30196841e-01,
          5.25810702e-02,  -1.56726038e+00,   4.32508905e-02,
          1.74935448e-01,   1.64791623e-01,  -2.59968030e-01,
          6.75190684e-02,   1.61513963e-01,   1.17334695e-01,
          1.88998530e-01,  -9.40421163e-02,   8.36846221e-02,
          8.79900944e-02,   2.17235085e-01,   2.39615072e-01,
          1.64486584e-01,  -1.54461613e-01,  -5.47701895e-01,
          1.37409507e-01,  -1.98290562e-01,   1.97493002e-01,
          1.44168833e-01,   2.11647757e-01,  -5.27368622e-02,
         -4.07079164e-01,  -1.49435939e-01,  -8.36018557e-02,
          1.94645958e-01,   1.76268563e-01,   1.15828240e-01,
          7.35619652e-02,   1.58361013e-01,   2.96469668e-01,
         -1.72916901e-01,   1.93497706e-01,   1.04035334e-01,
          1.53806245e-01,  -1.24247647e-02,   1.75580945e-01,
          2.11247581e-01,   1.60809231e-01,   4.82291336e-02,
          2.10038956e-01,   1.83652657e-01,   1.42213302e-01,
          1.86235423e-01,   5.37951596e-02],
       [ -5.09851057e-02,   7.07814930e-02,   4.24853711e-02,
         -1.50436317e-01,  -1.02795965e-01,  -1.08053366e-01,
         -2.94849616e-02,  -3.76786191e-02,   4.18971260e-02,
          5.33564489e-02,   8.42401937e-03,  -3.98509142e-02,
         -2.21995835e-02,   6.16512477e-02,  -8.10723177e-02,
         -5.07460117e-03,   1.55352298e-01,   2.47251352e-01,
          5.15435872e-02,  -4.53013643e-02,   6.51891955e-02,
          7.10899515e-02,  -1.88269286e-02,  -8.54594670e-02,
          7.77934897e-02,   2.04888576e-01,   2.76134092e-02,
          6.40680232e-02,   2.80659115e-02,   1.40955497e-01,
         -3.69970567e-02,  -1.54198791e-01,   7.40549208e-02,
         -1.19572440e-02,  -7.01181245e-02,   4.61823557e-01,
          6.21125196e-02,  -3.60554292e-02,   1.56377278e-01,
          1.19938269e-01,   5.50713728e-02,   2.55332258e-01,
          1.69015211e-01,   1.19515482e-02,   7.24536938e-02,
         -1.20647147e-01,   3.30593931e-02,   9.93202539e-02,
         -5.76726166e-03,   7.52872574e-02],
       [ -2.46465435e-01,  -6.23666640e-01,  -6.18596439e-01,
         -3.70251819e-01,  -2.58834189e+00,  -3.46945108e-01,
         -2.56302024e-01,  -5.43929822e-01,  -5.53323080e-01,
         -3.06372581e-01,  -2.59100374e-01,  -2.61946141e-01,
         -2.78345667e-01,  -3.98955045e-01,  -3.04078438e-01,
         -2.78014130e-01,  -3.70634991e-01,  -3.81357100e-01,
         -2.68031513e-01,  -5.11058482e-01,  -8.39003337e-01,
         -2.70279751e-01,  -5.38891329e-01,  -2.83458775e-01,
         -2.81870139e-01,  -3.25978655e-01,  -3.72902931e-01,
         -6.77822731e-01,  -4.49129165e-01,  -5.04293215e-01,
         -2.80075449e-01,  -2.64232699e-01,  -2.80832516e-01,
         -2.93797792e-01,  -2.56056961e-01,  -5.42431220e-01,
         -4.68618345e-01,  -2.99090001e-01,  -3.19302497e-01,
         -2.84013386e-01,  -3.44676257e-01,  -3.39965117e-01,
         -3.97706803e-01,  -2.62169854e-01,  -3.16264692e-01,
         -3.37886827e-01,  -3.32605082e-01,  -2.91978237e-01,
         -3.71464314e-01,  -3.17829046e-01],
       [  1.24404113e-01,   2.64445941e-02,   1.69708165e-01,
          3.35971439e-01,  -3.00264910e-01,   2.51562923e-01,
          8.37939176e-02,   9.23150623e-02,   1.82928626e-01,
          5.19632392e-04,   5.70024140e-02,   1.08101804e-01,
          6.31790974e-02,   2.81591992e-02,   2.00968182e-01,
          8.87469413e-02,  -1.03827004e-01,  -1.90063845e-01,
         -1.09484599e-02,   2.96798068e-01,   4.18761507e-02,
         -1.78035359e-02,   3.08315401e-01,   1.36414297e-01,
         -2.61732986e-02,  -1.66034924e-01,   8.08743129e-02,
          7.54077847e-02,   1.57040754e-01,  -2.17841143e-01,
          8.72147930e-02,   2.37241441e-01,  -9.68605431e-03,
          1.15347732e-01,   1.41626535e-01,  -3.65612716e-01,
          3.85285496e-02,   9.50075581e-02,  -1.22896971e-01,
         -7.82037670e-02,   2.92367345e-02,  -2.06611277e-01,
         -1.22250565e-01,   2.96896954e-02,  -1.59468426e-02,
          1.63723085e-01,   1.70169579e-02,  -4.35294074e-02,
          6.49774183e-02,  -2.30594115e-02],
       [  1.94138292e-01,   4.99546431e-02,   2.05051953e-01,
          4.31603852e-01,  -3.33831369e-01,   3.56890682e-01,
          1.53890250e-01,   1.27373532e-01,   2.44338368e-01,
          2.99979339e-02,   1.09932316e-01,   1.90477455e-01,
          1.34613202e-01,   5.68779500e-02,   2.94666485e-01,
          1.58545822e-01,  -7.55230015e-02,  -1.68630895e-01,
          3.72623560e-02,   3.75251250e-01,   3.49241438e-02,
          3.62314316e-02,   3.60467005e-01,   2.11185682e-01,
          4.82038555e-03,  -1.61907202e-01,   1.19125017e-01,
          9.28724971e-02,   1.99227640e-01,  -2.48682216e-01,
          1.50091284e-01,   3.45069798e-01,   2.03224702e-02,
          1.76423308e-01,   2.40841915e-01,  -3.66258215e-01,
          6.84729287e-02,   1.51640973e-01,  -1.30341715e-01,
         -5.82896121e-02,   5.97998731e-02,  -2.61757353e-01,
         -7.53765904e-02,   7.61816512e-02,   2.75848019e-02,
          2.14273663e-01,   6.54624241e-02,  -1.13251787e-02,
          9.46935274e-02,  -5.67327984e-03],
       [ -5.13596594e-02,  -7.30489733e-02,  -1.09467977e-01,
         -2.01078037e-01,   1.49837875e-01,  -1.56439360e-01,
         -1.35060134e-02,   3.86440190e-01,  -1.10457127e-01,
         -5.98017750e-02,  -2.84762337e-02,  -7.33341027e-02,
          2.38112878e-02,  -7.91299744e-02,  -1.24107696e-01,
         -7.54940255e-02,   1.25571825e-01,   1.05125607e-01,
          2.74737593e-02,  -1.83924191e-01,  -6.45649297e-02,
         -3.45085092e-02,  -1.64159622e-01,   3.06093965e-02,
         -1.12673561e-02,   5.60301883e-02,  -8.91212966e-02,
         -8.13476176e-02,  -1.09251755e-01,  -6.90174901e-02,
          2.08041607e-02,  -1.26087965e-01,  -3.86637236e-02,
         -7.97607151e-02,  -7.61604104e-02,   2.37267269e-01,
         -8.90991142e-02,   6.09259380e-02,  -4.94761541e-02,
         -7.46215724e-03,  -7.00271463e-02,  -3.19439763e-02,
          1.92643204e-01,   2.94983195e-03,  -5.60832856e-02,
          1.17848062e-01,   1.38018560e-01,  -1.76751792e-02,
          1.92173229e-01,  -4.47511545e-02],
       [  2.47796794e-02,  -9.42830954e-02,  -5.91026991e-02,
         -3.76876574e-02,   1.59622040e-01,  -4.56147649e-02,
          3.56736342e-02,   4.66346958e-01,  -6.63343573e-02,
         -7.78047798e-02,  -1.16365810e-02,  -3.07415194e-02,
          5.89673727e-02,  -9.94215666e-02,  -4.96842666e-02,
         -3.69983423e-02,   4.01988140e-02,  -3.06119160e-02,
          6.56926293e-03,  -4.28494269e-02,  -7.56214724e-02,
         -4.67407866e-02,  -5.49213035e-02,   1.28258565e-01,
         -6.32071874e-02,  -7.28929439e-02,  -8.49611226e-02,
         -7.89541758e-02,  -7.01452099e-02,  -2.13516064e-01,
          7.82333869e-02,  -9.37434597e-03,  -7.05170570e-02,
         -5.40709997e-02,   1.30186229e-02,  -7.05252602e-02,
         -9.08802456e-02,   1.18345260e-01,  -1.42677218e-01,
         -8.48154786e-02,  -8.29335692e-02,  -1.98825359e-01,
          8.40194732e-02,   7.98943931e-03,  -8.59290071e-02,
          2.33240538e-01,   1.50072016e-01,  -6.33260274e-02,
          2.29947998e-01,  -9.87396690e-02]])]Hidden bias: [array([-0.62945329, -0.76919335, -0.75930404, -0.56535821, -1.01798083,
       -0.59095122, -0.63925935, -0.52795109, -0.7245808 , -0.63002501,
       -0.63985746, -0.62534553, -0.64062598, -0.66042846, -0.60028254,
       -0.62919818, -0.62096603, -0.59874843, -0.64760242, -0.65641399,
       -0.85666293, -0.63550658, -0.68153046, -0.61699432, -0.63301438,
       -0.61040442, -0.64845944, -0.79505638, -0.67685782, -0.60550319,
       -0.6371529 , -0.58156437, -0.63066238, -0.62471905, -0.61692835,
       -0.49239197, -0.6897234 , -0.62951505, -0.59974692, -0.62612973,
       -0.64182698, -0.56207637, -0.60503667, -0.64568627, -0.62992312,
       -0.58584989, -0.62934914, -0.62807958, -0.60573263, -0.62789629])]Output weights: [[ -3.09990578e-02   1.92434740e-01]
 [  2.64620385e-01  -1.64540011e-02]
 [  2.50910227e-01   1.94831962e-01]
 [  8.08411196e-02   4.96502574e-01]
 [  1.96804517e+00  -3.52447085e-01]
 [  7.46742780e-02   3.81783771e-01]
 [ -6.50608951e-02   1.34277566e-01]
 [ -6.21021631e-01   1.66236355e-01]
 [  1.98375871e-01   2.21026575e-01]
 [  2.19011417e-02  -4.50732556e-02]
 [ -3.67528092e-02   6.81933163e-02]
 [  1.68781823e-02   1.65922159e-01]
 [ -1.10833200e-01   1.08641507e-01]
 [  9.59720803e-02  -2.11230167e-02]
 [  5.21314705e-02   3.00776176e-01]
 [  2.25793996e-02   1.19804973e-01]
 [ -2.19903236e-01  -2.06357333e-01]
 [ -1.95449558e-01  -3.58831523e-01]
 [ -8.16596709e-02  -3.43949654e-02]
 [  1.47508924e-01   4.08956631e-01]
 [  4.49718126e-01   5.58488127e-03]
 [ -1.98197033e-02  -5.20098753e-02]
 [  1.69931478e-01   3.98649583e-01]
 [ -1.41004798e-01   2.37258573e-01]
 [ -2.97430051e-02  -8.63700790e-02]
 [ -1.13015996e-01  -3.22647055e-01]
 [  8.05693902e-02   6.59259217e-02]
 [  3.12652448e-01   5.32328895e-02]
 [  1.30096603e-01   1.69885317e-01]
 [  8.84038925e-02  -4.08457065e-01]
 [ -1.20361992e-01   1.41503850e-01]
 [  2.68509244e-02   3.92347236e-01]
 [ -3.46253017e-03  -6.67768215e-02]
 [  3.37016786e-02   1.45745921e-01]
 [ -9.62892265e-03   2.41201037e-01]
 [ -3.64146849e-01  -6.97793838e-01]
 [  1.37594641e-01  -9.78889541e-04]
 [ -1.63236934e-01   1.50472802e-01]
 [  1.14796604e-02  -2.64163758e-01]
 [ -3.19268611e-02  -1.74909337e-01]
 [  5.67593172e-02  -1.34737530e-02]
 [ -1.60335898e-02  -4.44152909e-01]
 [ -2.86466513e-01  -2.22787214e-01]
 [ -6.13455996e-02   3.24668600e-02]
 [  2.78942700e-02  -6.44836634e-02]
 [ -2.61536274e-01   2.79419991e-01]
 [ -2.41202032e-01   1.87850154e-02]
 [ -3.04314756e-02  -1.13070872e-01]
 [ -3.19276164e-01   9.23064746e-02]
 [  2.50590505e-02  -9.70760135e-02]]Output bias: [ 1.23778838  0.88273517]
Value MLP:Hidden weights: [array([[  3.81887788e+00,   1.91293817e-02,   4.43458977e-02,
         -3.56422930e-01,  -4.00975843e-01,  -6.53291281e-01,
         -5.10191905e-01,  -3.51062575e-01,  -9.31388201e-02,
         -5.86482400e-01,  -9.01831406e-01,   5.20334590e-01,
         -7.47141720e-01,  -1.08089713e+00,  -3.00836620e-01,
         -5.99594281e-01,   1.25479663e+00,  -6.87392422e+00,
         -6.45480346e-01,   2.91012754e-01,  -3.73760739e-01,
         -6.85168272e-01,  -5.64090256e-01,  -4.63998323e-01,
         -3.81637396e-01,  -7.34236981e-01,  -2.17547993e+00,
         -5.09434697e-01,  -4.11589344e-01,  -2.49974122e-01,
         -1.18991761e+00,   1.41063034e-01,  -7.78564110e-01,
         -3.09211928e-01,  -7.08118633e-01,  -8.87688198e-01,
         -3.56742499e+00,  -4.36386637e-01,  -1.12229277e+00,
         -6.26663666e-01,  -3.90356285e-01,  -1.21638031e+00,
          2.20612676e+00,  -3.54418283e-01,  -4.88574915e-01,
          3.08663367e-01,  -1.47536780e+00,   3.38149390e-01,
         -8.41222053e-01,   1.62273354e-01],
       [ -3.16678082e+00,   1.13824382e+00,   4.48344058e-01,
         -1.88275336e-01,  -1.67887745e+00,  -2.94351064e-01,
         -1.67790485e+00,   5.83490620e-01,  -4.39673327e+00,
         -1.07085863e+00,  -5.05548403e+00,  -3.70134899e-01,
         -1.18945577e+00,  -2.19376425e+00,  -2.31887171e-01,
          3.26407122e-01,  -1.74291187e+00,  -1.01628484e+00,
         -1.88090668e+00,   2.54255441e+00,  -1.32910704e-01,
         -1.94878212e+00,  -1.74950035e+00,  -1.65289964e+00,
         -1.09292461e+00,  -1.38618614e+00,  -8.48604420e-01,
          2.10119002e+00,   5.01900232e-01,  -1.17376053e+00,
         -1.18002273e-01,   1.45741592e+00,  -2.28332174e-01,
          2.72255809e-01,  -1.15856024e-01,  -3.88311547e+00,
          5.73160856e-01,   1.15047099e+00,  -4.07410958e+00,
         -7.54803421e-01,   9.77951488e-01,   1.02753068e+00,
         -3.18696818e+00,  -1.34634767e-01,   1.04430222e-01,
          1.45547253e+00,  -2.83479766e+00,   2.12176593e+00,
         -4.08643725e+00,   9.37483283e-01],
       [  2.71588150e+00,   2.79149362e-01,   6.41875502e-01,
         -1.61311779e-01,  -1.93109119e+00,  -1.97194202e-01,
          6.87467727e-02,  -3.40032205e-01,   1.55706246e+00,
         -3.34745120e-01,   8.74639139e-01,  -8.08034588e-01,
          7.57883515e-01,   1.15149383e+00,   3.33071892e-03,
         -5.80454784e-01,   3.11988134e+00,  -3.01961055e+00,
          4.50348671e-01,  -1.96296916e+00,  -1.81589414e-01,
          5.60398461e-01,   1.91657627e-01,   6.93361876e-01,
          9.88351157e-02,   7.28527728e-02,  -2.21180640e+00,
         -1.24248126e+00,  -2.95681057e-01,   4.00208755e+00,
          8.86026550e-01,  -1.10320193e+00,  -1.00290146e+00,
          1.65061168e-01,  -9.74210617e-01,   4.81800200e-01,
         -5.71796067e+00,  -4.86444406e-01,  -1.25344197e-01,
         -5.95353503e-01,  -4.35298202e-01,   2.63720044e+00,
          4.64240036e+00,   3.67931327e-02,  -2.48959787e-01,
         -1.36438553e+00,  -3.72631431e+00,  -1.65506797e+00,
          3.03528177e-01,   5.30952504e-01],
       [  3.51900922e+00,   1.14107690e+00,   4.11097925e+00,
          7.96917394e-01,  -3.29441124e+00,   2.42404155e+00,
         -8.21916348e-01,  -2.27351575e-01,   5.01549893e+00,
         -6.20828612e-01,  -7.82724797e+00,   7.39535215e+00,
         -4.92780583e+00,  -1.19067026e+00,  -3.72055874e-01,
          1.47990813e-01,   3.59784230e+00,   7.03340766e+00,
         -9.94828943e-01,  -7.04025687e-01,   7.94765760e-01,
         -1.02367351e+00,  -9.07230149e-01,  -7.90528925e-01,
         -2.93236757e-01,  -1.81672703e+00,   2.94763246e+00,
          1.04652758e+00,  -2.44315397e-01,   4.89602127e+00,
          7.07918007e+00,   3.50974936e+00,   2.57424144e-01,
          1.13270757e-01,   2.24947827e-01,  -3.97008263e+00,
          4.79367838e+00,  -1.12907248e-02,  -3.14057845e+00,
          2.47831156e-01,  -8.59915643e-02,   4.49805634e+00,
          2.38798407e+00,  -3.70747029e-01,  -2.20354176e-01,
          4.72039008e+00,   2.06458069e+00,   6.17537368e+00,
         -3.76493661e+00,   1.71477999e+00],
       [ -3.21205977e+00,   5.40359065e-01,   1.37031643e+00,
          2.88415082e-01,   1.20925635e+00,   1.06123283e+00,
          3.07887111e-01,   9.91941396e-01,  -1.61244872e+00,
          3.49123219e-01,   2.08997587e-01,   1.39430289e+00,
          1.13135661e+00,  -1.24268321e-03,   7.85459537e-01,
          1.09731930e+00,  -2.97459326e+00,  -8.83787055e-02,
          2.85324600e-01,   1.62149516e+00,   2.86269645e-01,
          2.46715363e-01,   2.81114332e-01,  -3.24831793e-01,
         -7.40490812e-02,   1.82682222e+00,   2.24755538e+00,
          1.56479872e+00,   8.71657366e-01,  -5.51197267e+00,
         -1.79129419e+00,   2.30654188e+00,   1.28853131e+00,
          2.65468405e-01,   1.31336563e+00,   4.52264173e-01,
          5.13852222e+00,   9.62370612e-01,   3.88015369e-01,
          8.71107804e-01,   1.00514799e+00,   1.07097445e-02,
         -2.85383437e+00,   7.84789198e-01,   6.54219471e-01,
          2.89703593e+00,   2.40263622e+00,   2.86637134e+00,
         -7.15645661e-02,   7.88945216e-01],
       [  1.50366709e+00,   3.07489418e-02,   3.01475473e-01,
          2.04974967e-01,   1.51897184e-01,  -2.74769546e-01,
          3.93151918e-01,   1.30402664e-01,   1.02396364e-01,
          1.94793293e-01,   5.65292455e-01,   9.62970708e-01,
          1.20802072e+00,   9.77914612e-01,   2.63419486e-01,
          1.91624629e-01,   2.83653064e+00,  -1.72239780e+00,
          5.65351832e-01,  -1.26241860e+00,   2.00839910e-01,
          6.41403883e-01,   4.28695954e-01,   2.78359073e-01,
          1.06900464e-01,   7.54893851e-01,  -7.05241054e-01,
         -1.17711593e-01,   1.37875898e-01,  -1.49106983e+00,
          5.24086475e-01,   5.21186554e-01,   2.39595022e-01,
          8.79555626e-02,   1.48867774e-01,   6.80286348e-01,
         -1.56002657e+00,   9.24571193e-02,   6.84576452e-01,
          3.30020590e-01,   9.44683621e-02,   1.16284959e+00,
          1.09419234e+00,   2.89589885e-01,   1.35857991e-01,
          5.65196654e-01,  -2.16438216e-01,  -7.39795817e-01,
          4.88945298e-01,   1.66907774e-01],
       [  1.19373775e+00,   4.39262604e-01,   2.05137837e+00,
          8.82076536e-02,   8.84624824e-01,   2.12616583e+00,
          2.18941468e+00,   1.73423491e+00,   3.76084165e+00,
          1.75000849e+00,   2.33985559e+00,  -4.89173613e+00,
          2.24955493e+00,   2.21220410e+00,   1.82445541e+00,
         -2.69910773e-01,   6.90500206e+00,  -1.20943221e+00,
          2.22749928e+00,   9.66133329e+00,   1.01387565e-01,
          2.21186581e+00,   2.17242156e+00,   9.52446585e-01,
          9.18177439e-01,   2.14137073e+00,  -1.82855041e+00,
         -5.66938318e-01,   1.70915344e+00,   2.42693363e+00,
         -2.07639106e+00,  -3.11829864e-01,  -2.70229389e-01,
          1.07473223e+00,  -4.63823383e-01,   8.30825464e-01,
         -3.45519100e+00,   1.71039265e+00,   1.70880858e+00,
          1.36192229e+00,   1.74743125e+00,  -4.60825509e+00,
          5.53212707e+00,   1.73200783e+00,   1.85555430e+00,
         -6.52164645e-01,   7.76298424e+00,  -1.65438578e+00,
          9.41340935e-01,   3.86670110e-01],
       [  2.50924797e+00,   4.00370142e-01,   1.34736814e+00,
         -8.92673515e-02,   7.95350887e-01,   5.05833562e+00,
          1.87586782e+00,   1.26031610e+00,   3.42407775e+00,
          1.71267887e+00,   2.12494509e+00,  -1.22730756e+01,
          1.47472609e+00,   1.86931078e+00,   1.55078948e+00,
         -6.71377304e-01,   8.57296188e-01,  -1.30998413e+00,
          1.90793624e+00,   8.94788996e+00,  -5.96763555e-02,
          1.90154225e+00,   1.87478455e+00,   7.15023771e-01,
          6.89691937e-01,   1.66097358e+00,  -1.26904274e+00,
         -8.94786419e-01,   1.32038734e+00,   7.30697252e+00,
         -2.57213025e+00,  -3.35593438e+00,  -1.20018518e+00,
          8.05657641e-01,  -1.42530198e+00,   7.13474263e-01,
          3.60188784e+00,   1.18086681e+00,   1.43393939e+00,
          9.87633272e-01,   1.19156787e+00,  -4.85765210e+00,
          4.69381841e+00,   1.49403034e+00,   1.60588874e+00,
         -3.24211798e+00,   6.03438951e+00,  -1.54563902e+00,
          7.67672250e-01,   3.05274039e-01]])]Hidden bias: [array([ 8.36014021,  1.1529044 ,  1.71943385, -3.10810097,  3.83262456,
       -2.24140745,  1.2656973 ,  1.67061527,  6.09528211,  0.65492257,
        6.97379131, -6.19891388,  5.85077381,  1.65621949,  1.21226451,
       -1.34020956, -3.0453715 , -4.45772113,  1.4357602 , -6.70975043,
       -3.09799456,  1.49243916,  1.30532243,  1.3639257 ,  1.05414938,
        3.33546058, -2.87636176, -1.49893403,  1.5628736 , -4.31456449,
       -6.07500628, -5.38284642, -2.01733486,  1.40531721, -1.96952629,
        1.9194626 , -6.67050886,  1.76951302,  1.59463175, -0.39421313,
        1.76781327, -6.54197024, -1.42110428,  1.27010282,  1.13749953,
       -6.12392372, -2.67728784, -8.09985884,  1.7304525 ,  0.49671126])]Output weights: [[ -3.80871332]
 [ -0.4659594 ]
 [ -3.41253864]
 [  4.49072674]
 [  6.08043159]
 [  3.52290313]
 [  1.90896267]
 [  1.78531878]
 [-13.76357801]
 [  1.14191768]
 [-21.39671801]
 [ -7.86560417]
 [  7.82352083]
 [  2.9821095 ]
 [  1.2422785 ]
 [ -1.42386807]
 [ -3.76038594]
 [-12.16148344]
 [  2.31237688]
 [ 13.17242757]
 [  4.14901761]
 [  2.44857067]
 [  2.04798074]
 [  2.12523854]
 [  1.28945444]
 [  4.31855637]
 [ -2.82388592]
 [ -2.87600371]
 [  1.64307984]
 [ -7.31062925]
 [ -4.96036932]
 [ -8.30583865]
 [ -1.97505766]
 [  0.14407562]
 [ -1.96428865]
 [  6.20718691]
 [-12.70022859]
 [  1.771667  ]
 [  5.29597462]
 [  0.17389969]
 [  1.81014299]
 [ -2.37872156]
 [ -4.39772429]
 [  1.31259519]
 [  1.13373212]
 [-10.23427748]
 [ -6.72447935]
 [-11.22023354]
 [  6.13190638]
 [ -0.91088083]]Output bias: [-0.40465931]