Action MLP:Hidden weights: [array([[  2.20241049e-02,   1.60556834e-02,   8.19714925e-02,
          8.91215090e-02,  -4.44783855e-01,   7.66252462e-02,
          1.01393090e-02,   2.00914794e-02,   7.82713060e-02,
         -2.44675443e-03,   9.29401094e-03,   2.02096949e-02,
          6.88477891e-03,   6.42313627e-03,   5.94363049e-02,
          2.25073988e-02,  -4.76707324e-02,  -5.43204733e-02,
         -1.41287588e-02,   1.14496852e-01,   2.48976737e-02,
         -9.43777138e-03,   1.26699917e-01,   3.38663677e-02,
         -1.98542968e-02,  -4.20420959e-02,   2.80195233e-02,
          4.06580284e-02,   5.22922728e-02,  -4.88591737e-02,
          1.23826337e-02,   4.85552154e-02,  -1.75112928e-02,
          3.81573083e-02,   3.80537845e-02,  -8.72297693e-02,
          2.10681131e-02,   2.58955246e-02,  -1.90095819e-02,
         -3.17443351e-02,   4.89021954e-03,  -3.50333491e-02,
         -5.64898748e-02,   1.16444963e-03,  -4.33257611e-04,
          4.62707115e-02,  -7.44554144e-03,  -1.48624199e-02,
          2.32463443e-02,  -1.34400309e-02],
       [  1.92371942e-01,  -3.25344304e-01,  -2.98930736e-01,
          1.55271253e-01,  -2.68255336e+00,   1.34681630e-01,
          1.73334861e-01,  -3.81777524e-01,  -2.15768537e-01,
          9.53333094e-02,   1.72593584e-01,   1.64455544e-01,
          1.51486725e-01,  -6.11225106e-02,   1.59752058e-01,
          1.28294595e-01,   8.69641462e-02,   1.72024209e-01,
          1.40042333e-01,  -6.89608430e-02,  -5.64116756e-01,
          1.54566531e-01,  -1.19988979e-01,   1.50298130e-01,
          1.55965690e-01,   2.08757466e-01,  -1.65672939e-02,
         -3.90593261e-01,  -1.05492514e-01,   1.79499772e-02,
          1.53018783e-01,   2.54747179e-01,   1.40344639e-01,
          1.19013086e-01,   2.03608897e-01,   1.72402249e-01,
         -1.42624766e-01,   1.15154909e-01,   1.64671391e-01,
          1.76122591e-01,   1.87000224e-02,   2.76180799e-01,
          1.75861967e-02,   1.51372325e-01,   7.68081866e-02,
          5.02204024e-02,   2.13167623e-02,   1.54120353e-01,
         -5.64714688e-02,   8.36365721e-02],
       [ -4.60987799e-02,   7.65107662e-02,   8.18105332e-02,
         -1.51811491e-01,  -4.14100557e-01,  -1.03870307e-01,
         -3.74549259e-02,  -2.47779190e-01,   7.36853947e-02,
          3.40274215e-02,   1.82413450e-03,  -3.34968544e-02,
         -4.84734653e-02,   4.02907887e-02,  -7.57075112e-02,
         -4.35143715e-03,   1.48357391e-02,   1.14028999e-01,
          1.63048235e-02,  -1.64296831e-02,   9.71174671e-02,
          5.32179017e-02,   1.91946324e-02,  -1.05033655e-01,
          5.26391327e-02,   1.37348542e-01,   1.84210985e-02,
          9.06585222e-02,   3.92135566e-02,   4.32627573e-02,
         -6.06175820e-02,  -1.47797998e-01,   5.62958010e-02,
         -1.10340780e-02,  -6.36468622e-02,   2.36713415e-01,
          4.77675692e-02,  -7.44209349e-02,   1.28742741e-01,
          9.18254202e-02,   3.48308830e-02,   2.27684711e-01,
         -1.45042427e-02,  -5.31668473e-03,   4.60539308e-02,
         -1.63866000e-01,  -6.24283141e-02,   6.82194271e-02,
         -1.14380168e-01,   4.68284417e-02],
       [ -2.39862871e-01,  -5.78389137e-01,  -5.70336338e-01,
         -2.80178443e-01,  -1.67778642e+00,  -2.85648751e-01,
         -2.72054400e-01,  -7.85104189e-01,  -5.20725676e-01,
         -3.15763734e-01,  -2.70206368e-01,  -2.44178754e-01,
         -3.19766445e-01,  -3.99763993e-01,  -2.57384990e-01,
         -2.67739147e-01,  -4.89508653e-01,  -4.98351046e-01,
         -3.10594613e-01,  -4.71857876e-01,  -7.12859829e-01,
         -2.87228480e-01,  -4.98768225e-01,  -3.22820110e-01,
         -3.06441617e-01,  -4.05119256e-01,  -3.68272334e-01,
         -6.11085074e-01,  -4.33398847e-01,  -5.53662376e-01,
         -3.21766877e-01,  -1.95316071e-01,  -2.94708472e-01,
         -2.78309363e-01,  -2.34254800e-01,  -7.31819339e-01,
         -4.63165630e-01,  -3.66326904e-01,  -3.49417377e-01,
         -3.15637171e-01,  -3.48810053e-01,  -3.98522920e-01,
         -5.42163889e-01,  -2.89531196e-01,  -3.27083121e-01,
         -4.48168420e-01,  -4.57419790e-01,  -3.20078232e-01,
         -5.33825892e-01,  -3.32255866e-01],
       [  1.15225118e-01,   4.28999378e-02,   1.58923732e-01,
          3.14143834e-01,   2.62215225e-01,   2.35532606e-01,
          8.36155309e-02,   1.12104110e-01,   1.69147305e-01,
          3.34286936e-02,   6.65647262e-02,   1.06326999e-01,
          6.78073330e-02,   5.60601123e-02,   1.89887258e-01,
          9.54122922e-02,  -1.70032482e-02,  -8.81262005e-02,
          1.86262318e-02,   2.66250446e-01,   6.93798390e-02,
          1.57352957e-02,   2.77179797e-01,   1.21917907e-01,
          1.26311489e-02,  -9.70325743e-02,   9.46943625e-02,
          8.44147487e-02,   1.50960767e-01,  -1.23998515e-01,
          8.49152410e-02,   2.15127740e-01,   2.57269434e-02,
          1.19840748e-01,   1.30408576e-01,  -1.97843757e-01,
          5.79370659e-02,   8.77396665e-02,  -6.58210258e-02,
         -2.88499667e-02,   5.83294268e-02,  -1.33530993e-01,
         -1.39150756e-02,   4.37102592e-02,   2.46572409e-02,
          1.15239208e-01,   3.22809346e-02,   1.60225946e-03,
          5.15865705e-02,   2.02717836e-02],
       [  9.51350026e-02,   7.68919787e-02,   1.31055801e-01,
          2.93404011e-01,  -1.88097626e-02,   2.33493802e-01,
          8.27847392e-02,  -3.11079761e-02,   1.65395574e-01,
          8.45212045e-02,   8.68783314e-02,   1.25322873e-01,
          7.54978556e-02,   1.03412928e-01,   1.89764902e-01,
          1.21470785e-01,   1.10622891e-01,   1.11693079e-01,
          7.63673771e-02,   2.40576522e-01,   4.79033270e-02,
          9.23434564e-02,   2.23480384e-01,   4.84586116e-02,
          7.91118062e-02,   4.66373856e-02,   1.19562838e-01,
          8.33938537e-02,   1.43414739e-01,  -5.38687464e-02,
          6.30576031e-02,   1.94320829e-01,   8.36582412e-02,
          1.31239155e-01,   1.31841716e-01,   1.46169150e-01,
          9.96091583e-02,   4.68549367e-02,   2.03974335e-02,
          6.07531568e-02,   1.02111588e-01,  -9.14386818e-02,
          1.34169264e-01,   6.76184633e-02,   1.00533456e-01,
         -4.05534212e-02,   5.20815390e-02,   8.29667231e-02,
         -9.52505502e-03,   7.98488322e-02],
       [ -6.18939523e-02,  -5.34452804e-02,  -1.08571442e-01,
         -3.70597573e-01,   3.91124370e-01,  -2.53051313e-01,
         -1.16303965e-02,   3.57219692e-01,  -1.23650728e-01,
         -5.07154782e-02,  -1.85661716e-02,  -7.99280255e-02,
          2.93822720e-02,  -7.15548445e-02,  -1.78976008e-01,
         -7.33760361e-02,   1.12403184e-01,   4.57311119e-02,
          3.81944936e-02,  -2.78852815e-01,  -1.75049885e-02,
         -2.25129405e-02,  -2.44712720e-01,   2.15924969e-02,
         -3.77530452e-03,   1.71985042e-03,  -8.33576501e-02,
         -5.55114035e-02,  -1.17580887e-01,  -1.86152823e-01,
          2.36870388e-02,  -2.28962252e-01,  -2.86322971e-02,
         -8.25268637e-02,  -1.04359195e-01,   5.63188015e-02,
         -8.14150985e-02,   6.65288716e-02,  -8.76877956e-02,
         -1.41023111e-02,  -6.13924193e-02,  -1.69492936e-01,
          1.83978536e-01,   1.44021269e-02,  -4.81628807e-02,
          1.31749087e-01,   1.52151241e-01,  -1.36662305e-02,
          2.11508602e-01,  -4.12177493e-02],
       [  9.68578736e-03,  -8.77168038e-02,  -8.05832090e-02,
         -2.48679026e-01,   4.11364739e-01,  -1.68836313e-01,
          3.77386458e-02,   4.70097984e-01,  -1.01146314e-01,
         -6.55723273e-02,  -4.51231939e-04,  -4.35923432e-02,
          6.87737125e-02,  -9.25476031e-02,  -1.22436256e-01,
         -3.83382948e-02,   4.48205008e-02,  -7.77003707e-02,
          2.40729041e-02,  -1.68599462e-01,  -5.29937852e-02,
         -2.98668076e-02,  -1.67304151e-01,   1.20442742e-01,
         -4.95589325e-02,  -1.19251533e-01,  -8.25295794e-02,
         -7.23239194e-02,  -9.05317208e-02,  -3.27234962e-01,
          8.38579166e-02,  -1.38188399e-01,  -5.60216227e-02,
         -6.21341345e-02,  -2.32733779e-02,  -2.73742582e-01,
         -8.69135737e-02,   1.28543194e-01,  -1.75257207e-01,
         -8.43890730e-02,  -7.32802298e-02,  -3.35039666e-01,
          9.94815840e-02,   2.26782263e-02,  -7.39210651e-02,
          2.51198727e-01,   1.75924525e-01,  -5.23189925e-02,
          2.59169367e-01,  -9.07072742e-02]])]Hidden bias: [array([-0.63201519, -0.77491315, -0.81172128, -0.84603716, -2.23174052,
       -0.73484531, -0.61565146, -0.62141453, -0.76413685, -0.57063796,
       -0.60163547, -0.62054245, -0.60514783, -0.60222804, -0.67780662,
       -0.6042698 , -0.56987796, -0.57197266, -0.59092506, -0.79038172,
       -0.97478921, -0.57854433, -0.80767829, -0.61106673, -0.57454638,
       -0.58435238, -0.60421059, -0.83958751, -0.67257754, -0.5923143 ,
       -0.60923017, -0.7582124 , -0.57224303, -0.60831659, -0.6486956 ,
       -0.57671236, -0.64379554, -0.59495307, -0.56013673, -0.572203  ,
       -0.58249222, -0.6228077 , -0.55531325, -0.59833255, -0.56647162,
       -0.55662582, -0.57367931, -0.56831622, -0.56463011, -0.56432171])]Output weights: [[  4.49664624e-02   2.66626536e-02]
 [  3.42756057e-03   1.67378766e-02]
 [  2.10275601e-02   9.26296332e-02]
 [  9.93434405e-02   1.88188905e-01]
 [  1.55954271e+00  -1.24235971e-02]
 [  7.59965082e-02   8.69837405e-02]
 [  8.94910169e-03   9.22700315e-03]
 [ -8.82850908e-01   1.00660690e-01]
 [  5.90431050e-03   7.28806855e-02]
 [  3.10001877e-02  -4.78664111e-02]
 [  3.92721424e-02  -1.14253991e-02]
 [  6.59240852e-02   2.19455821e-03]
 [ -4.74716995e-02  -7.20020550e-04]
 [ -1.85449141e-02  -4.68433213e-02]
 [  7.70111437e-02   4.07269905e-02]
 [  5.19437159e-02  -1.43237758e-02]
 [ -1.68114479e-01  -1.00353826e-01]
 [ -5.87448462e-02  -1.32117525e-01]
 [ -6.31382296e-03  -3.11714379e-02]
 [  9.10955652e-03   1.44250518e-01]
 [  1.34112507e-01   7.84141466e-02]
 [  5.50055886e-02  -4.60236307e-02]
 [  1.51617632e-02   1.55031498e-01]
 [ -8.82148624e-02   4.17752124e-02]
 [  4.47240948e-02  -5.07026817e-02]
 [  4.44404395e-02  -7.76517954e-02]
 [ -3.89769665e-03  -2.99985937e-02]
 [  4.11121528e-02   5.83047616e-02]
 [ -7.36292996e-03   2.28257652e-02]
 [ -1.85556524e-02  -1.20215426e-01]
 [ -5.82476133e-02   1.44485103e-02]
 [  1.16657089e-01   1.08700171e-01]
 [  5.50564605e-02  -4.95621229e-02]
 [  4.89615974e-02  -1.25906682e-02]
 [  6.06962977e-02   2.88735832e-02]
 [ -1.34384691e-01  -2.62888780e-01]
 [ -3.62125316e-02  -2.50368537e-02]
 [ -1.21627545e-01   1.81895776e-02]
 [  9.53772087e-02  -6.48751269e-02]
 [  7.00639320e-02  -5.72173856e-02]
 [  5.44804949e-03  -4.91288059e-02]
 [  1.88333589e-01  -5.54075365e-02]
 [ -2.74148373e-01  -1.22234976e-01]
 [  8.61674242e-03  -9.46144274e-03]
 [  2.54907535e-02  -6.25650116e-02]
 [ -2.67014453e-01   8.72396514e-02]
 [ -2.38645678e-01  -1.28442872e-02]
 [  4.45565426e-02  -5.96777306e-02]
 [ -3.70737685e-01   4.41790020e-02]
 [  2.65430433e-02  -6.18296669e-02]]Output bias: [ 1.09057157  0.72723965]
Value MLP:Hidden weights: [array([[  2.22141265e+01,   1.09096243e+01,   2.12560232e+01,
         -2.33909528e+01,   7.54003989e+00,  -4.10291755e+00,
          9.50275296e+00,   9.96815151e+00,   1.04672676e+00,
         -3.10393623e+00,  -2.44187627e+00,   1.99651877e+00,
          1.29319886e+01,  -3.84127853e+00,   2.60191832e+00,
         -6.22335415e-01,   7.08824161e+00,  -1.29745701e+01,
          4.64678265e+00,  -7.07286151e+00,  -4.25151213e+00,
         -1.80402018e+01,  -1.84562223e+01,   1.85751860e+01,
         -5.65256536e-01,   4.63003862e+00,  -1.02213849e+01,
         -9.44649938e+00,   7.30012271e-01,   6.08814362e+00,
         -4.39794070e+00,   7.86437524e-01,  -1.13316639e+01,
         -2.06029656e+00,  -8.75884452e+00,  -6.80889974e+00,
          2.35693221e+00,  -1.40977809e+01,   6.13180882e+00,
         -1.71843729e+01,  -2.13809346e+01,   7.11085727e+00,
         -5.98133196e-02,   1.05286300e+01,  -4.93704136e+00,
          4.11036115e+01,  -5.78793599e+00,  -7.85175632e+00,
         -7.96664011e+00,  -4.71829147e+00],
       [  1.74141232e+01,  -1.04388219e+01,  -2.20370566e+01,
         -1.29010138e+01,  -1.29073115e+01,   1.11647321e+01,
         -4.05917430e+00,   1.20189549e+01,   1.18908352e+00,
         -2.10444831e+01,   1.11888915e+01,  -3.11809097e+00,
          3.65365096e+01,   9.95682512e+00,   7.05830483e+00,
          2.09175301e+00,  -1.99236042e+00,  -5.59241275e+00,
         -1.78647700e+01,   1.40467671e+01,  -4.86286163e+00,
          4.41807796e+01,   1.99569061e+01,  -9.61695643e+00,
          1.33430225e+01,   1.55903012e+01,   7.02448538e+00,
          8.91714424e+00,  -2.88264536e+01,   4.42655873e+00,
         -9.92204982e+00,   1.31879483e+00,  -8.58982349e+00,
         -1.88974185e+01,   1.74944589e+01,   4.45144052e+00,
          1.09597176e+01,  -3.24258382e+00,   6.59423867e+00,
         -2.25740305e+01,   5.42832410e+00,   2.25176024e+01,
         -1.43874971e+00,   8.57092778e+00,   8.21956110e+00,
          2.88270717e+01,   1.34309939e+01,  -1.02950460e+01,
          1.97260063e+01,  -8.49861000e+00],
       [  1.01930992e+01,  -1.16851467e+01,   3.22765209e+01,
         -3.32514576e+01,  -5.37707201e+00,   7.45850163e+00,
         -8.62556988e+00,   1.30015836e+01,  -3.32133581e-01,
         -7.49843571e+01,   1.34578788e+01,  -8.20335994e+00,
          7.60959865e+01,   1.58220648e+01,   1.19357344e+01,
         -8.18149064e-01,  -5.35203822e+00,  -6.34569049e+00,
         -5.46085708e+01,   1.85651570e+01,  -2.39320448e+01,
          3.51789346e+01,   5.83742447e+00,  -4.04446003e+01,
         -4.44253018e+00,   2.10443711e+01,   1.14403871e+01,
          7.04569656e+00,  -6.41418653e+01,   2.30087358e+00,
         -3.65862285e+01,  -7.68239623e-01,  -1.65344654e+01,
         -1.87480095e+01,   1.55672453e+01,   1.04443104e+01,
          3.53076785e+01,   6.61358585e-01,   1.15343960e+01,
         -3.16689071e+01,   3.42412610e+00,   2.94478713e+01,
          9.00565071e+00,   3.98089343e+01,  -1.68033672e+00,
          7.06046877e+01,   2.07596799e+01,  -2.30475979e+01,
          4.08319301e+01,   7.84277323e+00],
       [  1.07163716e+02,   2.97184346e+01,  -5.84123638e+01,
          1.35697153e+01,   8.07691355e+00,  -2.47875509e+01,
          8.77032456e+00,  -5.71162972e+00,  -3.47853965e+00,
          6.39443309e+00,  -2.27107023e+01,   1.43083156e+01,
         -3.18344112e+01,  -1.74151488e+01,   2.73979414e+00,
          4.42126094e+00,  -4.27247965e+00,   1.10083935e+01,
          3.90696546e+01,  -2.64559694e+00,   1.07954846e+01,
         -1.22313914e+02,  -1.54030780e+01,   7.49990726e+00,
          1.95458089e+01,  -9.83682244e+00,  -2.70145692e+01,
         -3.80308845e+00,   7.03440489e+01,  -5.88793164e+00,
          7.46098943e+00,   4.87293968e+00,   3.02973270e+01,
          5.22053265e+01,  -4.58947431e+01,  -1.88046198e+01,
         -3.87500235e+01,  -2.27769960e+01,  -1.63510753e+01,
          1.95397962e+01,   2.06562841e+01,  -4.28283966e+01,
         -7.62765227e+00,  -1.15733339e+01,  -1.80829834e+01,
          3.53583028e+01,  -4.72034249e+01,   1.41979249e+01,
         -3.19231758e+01,  -1.43644603e+01],
       [ -5.85877025e+01,   1.97961740e+01,  -3.79502069e+01,
          4.61837611e+01,   3.47510512e+01,  -2.76995739e+01,
          2.02746157e+01,  -2.90565532e+01,  -9.89023593e-01,
          3.20622194e+02,  -8.38450480e+01,   2.82163328e+01,
         -1.63785251e+02,  -4.88572417e+01,  -2.83451901e+01,
          4.28402999e+00,  -1.92532426e+01,   1.01521547e+01,
          9.19006639e+01,  -9.73412282e+01,   6.68887132e+01,
         -8.40122845e+01,  -6.02273761e+01,   7.23201003e+01,
          3.79175495e+01,  -7.59030121e+01,  -3.97432056e+01,
         -3.45266865e+01,   9.75067973e+01,  -7.47526922e+00,
          6.37588133e+01,   3.81285823e+00,   1.07468176e+02,
          6.79374295e+01,  -2.05641244e+01,  -2.04478892e+01,
         -9.33252210e+01,  -4.01244662e+01,  -2.62512029e+01,
          4.71788208e+01,  -2.05776028e+02,  -5.20656182e+01,
         -2.90160602e+01,  -2.42177434e+01,  -5.73349627e+01,
          4.82174424e+00,  -3.78263938e+01,   3.63029841e+01,
         -6.18595768e+01,  -1.50632161e+01],
       [ -2.51486513e+01,  -3.63941905e+00,  -4.46927278e+01,
          2.16853276e+01,   2.45068279e+01,   2.22102661e+00,
          4.54226707e+00,  -1.94769398e+01,   1.24314243e+00,
         -2.58793991e+01,  -5.71395370e+01,  -7.01957561e+00,
          6.36333356e+01,   4.15817286e+01,  -4.80993480e+01,
         -2.18530926e+00,  -3.36382392e+00,   2.95380542e+01,
         -5.37999019e+01,  -5.71781764e+01,   1.22298030e+01,
         -1.43811855e+01,  -5.63471125e+01,  -6.53314623e+00,
         -7.69210943e+00,  -4.84896130e+00,   7.82058930e-01,
         -3.55669547e+01,  -7.87873159e+01,   3.08520900e+00,
          5.88764990e+00,   9.84285291e-01,  -3.85384031e+01,
         -1.43212499e+01,  -3.42809617e+01,  -7.33737840e+00,
          3.37816260e+01,   2.79150378e+01,  -2.16087925e+01,
          1.87743849e+01,  -2.71389250e+01,  -5.96294223e+01,
         -5.01954666e-01,  -1.50758626e+01,   4.90611645e+00,
         -6.14649555e+00,  -3.54591410e+01,   1.45736205e+01,
         -9.78927623e+01,  -3.37491547e+00],
       [  2.30883576e+01,  -1.08045324e+01,   1.39480135e+00,
          9.72982358e+00,  -1.60049038e+01,   7.47658826e+00,
         -5.38398554e+00,   9.05592577e+00,   3.76084785e+00,
          3.15692947e+01,  -9.77672242e+00,  -1.62842775e+01,
          4.58622529e+00,   2.56147520e+01,   3.92385464e+00,
         -3.16684473e+00,   1.42118317e+01,   1.61156165e+00,
         -1.23722730e+01,   1.68705864e+01,  -2.35384822e+00,
         -7.96743878e+00,   2.75667698e+01,  -4.18916080e+01,
         -5.71559828e-01,   6.35730701e+00,   1.82714020e+00,
          1.45299705e+01,  -5.64200340e+00,   3.37306483e+00,
         -1.54845888e+01,  -2.90262088e-01,  -1.90968648e+01,
          7.44869570e+00,   1.43607023e+01,   1.93651020e+01,
          3.74448982e+01,   1.49772963e+01,   1.00705716e+00,
          3.69706621e+00,  -2.43890890e+01,   2.52650613e+01,
          5.02989288e+00,   6.57171091e+00,   2.60966409e+01,
         -8.17682523e+00,   1.24688116e+01,  -2.72020009e+00,
          1.62872662e+01,   1.53115314e+00],
       [  1.09076509e+01,  -6.70881994e+00,  -3.53431568e-01,
         -4.05398473e+00,  -2.00901570e+00,   1.10177348e+00,
          1.97511751e+00,  -1.12616458e+01,   3.42406985e+00,
         -1.20288297e+01,   1.26033339e+01,  -1.28490778e+01,
          1.60976948e+01,   2.74558692e+00,  -4.19344586e+00,
         -3.95607831e+00,   7.48478961e+00,  -6.65208099e+00,
         -4.55524371e+00,   1.36558042e+01,   1.47151153e+01,
         -2.03570594e+01,  -2.36171883e+01,  -1.32245235e-01,
         -5.31272945e+00,   2.91225466e+00,  -1.28433070e+00,
          2.44004176e+01,  -1.79033385e+01,   1.73085572e+01,
         -3.23650483e+00,  -3.35583215e+00,   1.84292391e+01,
          1.56587536e+01,   9.26951436e-01,   2.55474515e+00,
          6.81652367e+00,   1.61145729e+01,   5.98151228e+00,
          9.46340951e+00,  -2.59789974e+00,   7.44883750e+00,
          9.91298933e+00,   1.02751597e+01,   4.66456242e+00,
         -2.72245172e+00,   1.30144207e+01,  -1.41648931e+00,
          5.84836148e+00,   5.33048328e-02]])]Hidden bias: [array([ 11.98498337, -18.56510143,  86.62872134, -20.75592829,
       -15.6402306 ,  18.44584076, -29.69079282,  14.71679294,
        10.953014  , -46.01700058,  47.52577911, -22.58046355,
        41.89802794,  33.37865453,  13.71905085, -11.71991856,
        18.48622989, -19.45984937, -55.50269257,  22.32577147,
       -28.77132163,  73.03488701,  36.29414553, -35.09576448,
       -34.94997217,  14.65177554,  23.62442297,  32.23386767,
       -92.73815887,  17.88012597, -26.67145315,  -8.23759291,
       -57.57226828, -35.45641592,  42.96601846,  19.89047804,
        88.90358973,  64.51031842,  16.45443563, -19.37516952,
         5.87697359,  35.32465515,  29.42526357,  31.34424309,
        17.27518234,  -2.07289222,  48.05297937, -19.70454984,
        56.24327644,  26.50364358])]Output weights: [[-31.11282967]
 [-33.09977106]
 [ -8.87558469]
 [  5.4129499 ]
 [ -2.77521769]
 [ 26.02684661]
 [ 25.98604699]
 [  2.27711826]
 [-52.11832927]
 [  4.3867594 ]
 [  7.93490084]
 [ -4.52706684]
 [  0.11928684]
 [ -6.81184316]
 [ -0.48861598]
 [ 23.05726976]
 [-27.32021491]
 [ -0.16036647]
 [ -0.44136601]
 [ -1.13284664]
 [  7.14760352]
 [ 34.12429814]
 [ 10.19345664]
 [  6.8022109 ]
 [-12.97775261]
 [  1.53235141]
 [ 11.72417272]
 [ -4.26897355]
 [ -2.57857284]
 [-23.91832704]
 [  2.52434483]
 [ 17.44568504]
 [ 11.46196094]
 [-10.46544969]
 [ -3.67134931]
 [  4.17703521]
 [-11.06682605]
 [ -8.79309391]
 [ -0.05857423]
 [  7.79318807]
 [-17.64881247]
 [  7.64763294]
 [-20.27421387]
 [ -4.53460354]
 [ -3.8950974 ]
 [ 16.45548799]
 [ 20.35897053]
 [  1.70731119]
 [-11.83975047]
 [-19.99169035]]Output bias: [-38.47059552]