Action MLP:Hidden weights: [array([[ -2.19855566e-02,   6.52750652e-02,  -1.78510821e-02,
          4.16003044e-02,   3.69013275e-02,   5.96996869e-02,
          1.04124132e-01,   4.63140386e-04,   2.00735478e-02,
          1.05489279e-01,  -1.53941186e-02,   7.60638433e-02,
         -9.12341594e-03,   5.06726343e-02,   1.81668075e-02,
         -3.24302307e-02,   9.65859761e-02,   1.30216827e-01,
          1.70475318e-02,  -1.13879478e-02,   2.78459782e-02,
          2.48574054e-02,   4.75239663e-02,  -1.87403315e-02,
          5.10445429e-02,   7.49225763e-02,  -5.88068074e-02,
         -2.56168901e-02,   1.27350973e-02,  -2.02566927e-02,
          1.78329799e-02,   5.29892022e-02,  -2.82027587e-02,
          5.72844606e-02,  -3.02761527e-02,   6.62826525e-02,
          4.28931705e-02,   1.51779029e-02,   9.60868634e-02,
          6.16054327e-02,   1.33605388e-02,   8.26623382e-02,
          4.06296788e-02,   1.92090669e-02,  -1.31448330e-02,
          3.29632609e-02,   9.07946767e-02,  -6.70874703e-02,
          3.02111116e-02,   2.48705519e-02,   3.70643842e-02,
          8.70933190e-02,   2.64345184e-02,  -4.68210167e-02,
          4.61749864e-02,  -1.13892913e-02,  -4.37504204e-02,
         -4.31112971e-02,   2.43395900e-02,   4.76863442e-03,
          5.57707125e-02,   5.62332969e-02,   1.32777182e-01,
          2.29019415e-02,   2.53930477e-03,   5.02116903e-02,
          3.79946206e-02,  -1.19563619e-02,   6.57849547e-02,
          4.50026274e-02,   4.51589528e-03,   3.43317144e-02,
          4.54055277e-02,   3.83653489e-02,   3.48811921e-03,
          4.29880344e-02,   8.15958569e-02,   4.50745372e-02,
          4.81671050e-02,   5.26171416e-02,   3.35429613e-02,
          3.32633743e-02,   7.37012585e-03,   3.14765128e-02,
          6.81449109e-03,   1.61547109e-02,   1.78164481e-02,
          7.01012826e-02,   7.88333921e-02,   4.11616564e-02,
          3.44943004e-02,   2.85085677e-02,   1.50418921e-02,
          7.23776267e-02,   2.50775448e-02,  -4.72121952e-04,
          4.85911351e-02,   1.26704635e-02,   5.88455031e-02,
          5.39301954e-02],
       [  3.39083410e-01,   3.15752983e-01,   3.24690715e-01,
          2.60495531e-01,   2.94898641e-01,   2.69406298e-01,
          1.95112456e-01,   3.19852140e-01,   3.28167529e-01,
          2.65368943e-01,   3.31105712e-01,   2.49033325e-01,
          3.11606892e-01,   2.58274819e-01,   2.99503583e-01,
          3.31464224e-01,   2.59599898e-01,   2.41627636e-01,
          3.07760179e-01,   3.49071954e-01,   2.90814194e-01,
          3.16672268e-01,   2.98903596e-01,   3.55114925e-01,
          2.54793871e-01,   2.82060013e-01,   3.97568776e-01,
          3.41708146e-01,   3.14202200e-01,   3.28698397e-01,
          2.77637326e-01,   3.34834492e-01,   3.56327775e-01,
          2.54858857e-01,   3.36139299e-01,   3.04306713e-01,
          2.77429898e-01,   3.34961645e-01,   2.47871303e-01,
          2.26548481e-01,   2.87382248e-01,   2.25457411e-01,
          3.24641826e-01,   2.73163016e-01,   3.36772536e-01,
          3.28064302e-01,   2.91910244e-01,   3.85188735e-01,
          2.86384037e-01,   2.89856748e-01,   3.38699991e-01,
          3.00072679e-01,   3.15662061e-01,   3.68720823e-01,
          2.52843727e-01,   3.44464230e-01,   3.82564475e-01,
          3.87586906e-01,   3.13266426e-01,   3.33647259e-01,
          3.34206326e-01,   2.72830234e-01,   1.63917466e-01,
          2.92772336e-01,   2.90881607e-01,   2.46878746e-01,
          2.83545865e-01,   2.94986972e-01,   2.61855651e-01,
          3.12064925e-01,   2.89985288e-01,   2.89370990e-01,
          2.62229507e-01,   3.11431767e-01,   3.52642565e-01,
          3.18990811e-01,   2.55401495e-01,   2.98551436e-01,
          2.78389509e-01,   3.11475148e-01,   3.02465826e-01,
          2.76832286e-01,   3.02499166e-01,   3.25760310e-01,
          3.45573102e-01,   3.13006540e-01,   2.78598900e-01,
          2.27136936e-01,   2.58069740e-01,   2.94899560e-01,
          2.87305898e-01,   3.04202835e-01,   2.96324660e-01,
          2.78925455e-01,   2.89166397e-01,   3.61818741e-01,
          2.40147020e-01,   2.96352333e-01,   2.51634870e-01,
          2.61554776e-01],
       [  1.53487407e-02,  -6.73695345e-02,   4.48015683e-02,
          2.27947726e-02,   7.81442833e-03,  -2.05158817e-03,
          1.93005565e-02,   2.66787338e-02,  -3.08021944e-02,
         -9.75137161e-02,   3.81651160e-02,  -1.95538009e-03,
          3.20154570e-02,   2.79528121e-02,   9.16114209e-03,
          6.42210894e-02,  -6.67836256e-02,  -8.64799434e-02,
          9.83428862e-03,   6.80795107e-03,  -7.64550680e-04,
         -1.88365166e-02,  -3.16097352e-02,   3.77616676e-02,
          1.94801721e-02,  -6.67325315e-02,   4.89857331e-02,
          2.86038644e-02,   2.39594372e-02,   3.64398096e-02,
          3.06971322e-02,  -1.03038742e-01,   5.46145203e-02,
          1.81073554e-02,   4.28003489e-02,  -7.03445875e-02,
          1.41289567e-02,  -2.51917403e-02,  -2.42117930e-02,
          2.47404053e-02,   2.68283433e-02,   1.68202393e-02,
         -6.89854218e-02,   3.21510424e-02,   9.11337110e-04,
         -7.26083410e-02,  -9.43348192e-02,   1.53959553e-01,
          9.47756366e-03,   1.54310034e-02,  -7.76235620e-02,
         -1.29980837e-01,  -1.50524684e-02,   4.45212676e-02,
          2.73297637e-02,   1.45772711e-02,   4.38046981e-02,
          3.56638441e-02,  -6.94469643e-03,  -1.89628502e-02,
         -7.44576359e-02,  -1.78810786e-02,   9.43755777e-03,
         -1.86073106e-03,   2.15614002e-02,   3.77127971e-02,
          2.45294502e-03,   5.46470796e-02,  -1.66341322e-03,
         -4.99432160e-02,   5.39706874e-02,  -3.69282719e-03,
         -2.90225936e-03,  -2.39641607e-02,  -2.44109192e-02,
         -4.16371889e-02,  -2.24818356e-02,  -2.80510393e-02,
          9.49084833e-03,  -4.72267751e-02,  -6.75210620e-03,
          6.65104067e-03,  -4.55207255e-04,  -2.59263659e-02,
         -1.65557664e-02,   1.60068355e-03,   8.20776736e-03,
          1.54276763e-02,  -2.14611876e-02,  -1.68879487e-02,
         -9.60024798e-05,  -1.22610981e-02,   1.84276057e-03,
         -2.42994209e-02,   1.89693384e-02,  -3.93525340e-02,
          3.57593927e-02,   3.75572525e-02,   1.27130813e-02,
          1.19042674e-02],
       [ -2.03496510e-01,  -1.37804585e-01,  -2.45194287e-01,
         -2.62183363e-01,  -2.18936940e-01,  -2.11863066e-01,
         -3.20488918e-01,  -2.37440646e-01,  -1.49174778e-01,
         -1.85674986e-01,  -2.45477939e-01,  -2.49127142e-01,
         -2.63840810e-01,  -2.90722462e-01,  -2.21507022e-01,
         -2.63541862e-01,  -1.92923432e-01,  -2.36858627e-01,
         -2.30021911e-01,  -1.83303468e-01,  -2.12937002e-01,
         -1.69952234e-01,  -1.72665894e-01,  -2.17387182e-01,
         -2.80298162e-01,  -1.68501731e-01,  -1.87324444e-01,
         -2.18010834e-01,  -2.37453371e-01,  -2.40716402e-01,
         -2.67844588e-01,  -1.05638997e-01,  -2.24473674e-01,
         -2.65683598e-01,  -2.27931766e-01,  -1.26600428e-01,
         -2.35873134e-01,  -1.62538939e-01,  -2.22522357e-01,
         -2.84916125e-01,  -2.52568718e-01,  -2.86742960e-01,
         -1.22806817e-01,  -2.81624725e-01,  -1.99801967e-01,
         -1.10003013e-01,  -1.57095585e-01,  -3.16264812e-01,
         -2.49120793e-01,  -2.50201925e-01,  -1.02769780e-01,
         -1.16062976e-01,  -1.95566060e-01,  -2.17431728e-01,
         -2.96531500e-01,  -2.21392103e-01,  -2.16850489e-01,
         -1.92660442e-01,  -2.00046908e-01,  -1.59381003e-01,
         -1.18795594e-01,  -2.11601566e-01,  -3.36613526e-01,
         -2.19725711e-01,  -2.55378828e-01,  -3.12578174e-01,
         -2.21970351e-01,  -3.01098825e-01,  -2.39768466e-01,
         -1.49800234e-01,  -2.98514846e-01,  -2.34437880e-01,
         -2.37338561e-01,  -1.67789618e-01,  -1.40218576e-01,
         -1.56109790e-01,  -2.29555717e-01,  -1.89410674e-01,
         -2.47977358e-01,  -1.53491394e-01,  -2.18158439e-01,
         -2.54048656e-01,  -2.17576409e-01,  -1.69916008e-01,
         -1.64910952e-01,  -1.86312320e-01,  -2.44500642e-01,
         -2.98306615e-01,  -2.19190364e-01,  -1.86468121e-01,
         -2.28232107e-01,  -1.91740007e-01,  -2.38221739e-01,
         -1.95505567e-01,  -2.53004807e-01,  -1.29883994e-01,
         -3.05725671e-01,  -2.74905381e-01,  -2.83682307e-01,
         -2.53063237e-01],
       [ -1.17851063e-02,   5.39828350e-02,  -6.03204382e-02,
         -3.19381616e-02,  -3.67667571e-04,   4.93800149e-03,
         -3.36508088e-02,  -2.64682751e-02,   3.97293484e-02,
          1.02450302e-01,  -5.77801580e-02,  -1.30332269e-02,
         -5.32089559e-02,  -4.60214608e-02,  -2.21125323e-02,
         -6.87732569e-02,   8.73923110e-02,   1.01007066e-01,
         -2.07332538e-02,  -3.79716650e-03,  -1.07346920e-02,
          2.32980027e-02,   1.29079551e-02,  -4.88774577e-02,
         -2.31173373e-02,   6.12643607e-02,  -4.58948925e-02,
         -4.13054616e-02,  -3.70292662e-02,  -4.38852740e-02,
         -3.67022380e-02,   1.11436294e-01,  -6.19614541e-02,
         -1.83148061e-02,  -3.77643156e-02,   7.84065628e-02,
         -1.42658388e-02,   2.28889186e-02,   3.27333303e-02,
         -2.09866362e-02,  -3.58798808e-02,  -8.29009791e-03,
          6.42003688e-02,  -4.80907948e-02,  -2.37012218e-02,
          6.17225552e-02,   8.40482198e-02,  -1.53998763e-01,
         -3.05321191e-02,  -1.81464550e-02,   8.56814247e-02,
          1.24006363e-01,  -4.98048247e-04,  -6.45905356e-02,
         -4.39079322e-02,  -2.92333251e-02,  -5.92363453e-02,
         -5.00331718e-02,  -3.97646759e-03,   2.43201577e-02,
          7.28263232e-02,  -4.30490644e-03,  -1.08461256e-02,
         -1.64543021e-02,  -3.11130260e-02,  -5.63766034e-02,
         -1.59648750e-03,  -7.13309748e-02,  -6.16071667e-03,
          5.60987864e-02,  -6.49699022e-02,  -1.83433809e-02,
         -7.73856265e-03,   3.20977254e-02,   3.04288796e-02,
          4.36812239e-02,   1.02341620e-02,   1.92262832e-02,
         -2.75613664e-02,   3.34328023e-02,  -1.36736504e-02,
         -1.90620997e-02,  -1.15892948e-02,   2.31743716e-02,
          1.18325349e-02,  -7.87243312e-03,  -3.13571607e-02,
         -4.04851943e-02,   2.33139724e-02,   7.31174845e-03,
         -6.10505773e-03,   4.03249614e-04,  -2.15049991e-02,
          2.26980472e-02,  -3.60019610e-02,   3.88054172e-02,
         -3.65424417e-02,  -4.44052255e-02,  -2.29597582e-02,
         -2.57119317e-02],
       [ -1.14525081e-02,   9.01080906e-02,  -3.68953315e-02,
          4.35081265e-02,   3.56445786e-02,   5.34490609e-02,
          9.17590833e-02,  -1.16722312e-02,   5.04164671e-02,
          2.10142321e-01,  -2.82029903e-02,   7.03275666e-02,
         -1.52622121e-03,   3.71067566e-02,   2.26609511e-02,
         -6.08487250e-02,   1.97114369e-01,   2.74357142e-01,
          1.06709949e-02,  -4.57757358e-03,   2.98110543e-02,
          4.42176242e-02,   5.41303750e-02,  -4.58135148e-02,
          3.34548598e-02,   1.13855427e-01,  -8.58701005e-02,
         -4.42715060e-02,   8.76579463e-03,  -2.60496892e-02,
          6.19634285e-03,   1.40011299e-01,  -6.14948994e-02,
          5.08194736e-02,  -4.11804759e-02,   1.15297494e-01,
          3.75530199e-02,   2.73339267e-02,   1.28467137e-01,
          6.83523894e-02,   2.52482557e-02,   1.01877398e-01,
          7.84414388e-02,   2.24257206e-02,   6.54243176e-04,
          7.28029679e-02,   1.76807315e-01,  -1.96647569e-01,
          1.95324471e-02,   3.20862210e-02,   8.45930863e-02,
          2.09096965e-01,   3.75438680e-02,  -7.82938426e-02,
          3.56875900e-02,  -2.66019209e-02,  -7.72905345e-02,
         -7.00385198e-02,   3.66930626e-02,   2.96608166e-02,
          8.46328582e-02,   5.12457469e-02,   1.71673634e-01,
          1.82917678e-02,   5.70193348e-03,   3.58007241e-02,
          2.32548477e-02,  -3.00539117e-02,   7.38189716e-02,
          7.74064907e-02,  -1.50270878e-02,   4.52010759e-02,
          5.50580680e-02,   5.66270997e-02,   2.94770950e-02,
          5.26593186e-02,   1.01801758e-01,   5.31396428e-02,
          4.10694140e-02,   6.83073272e-02,   3.70301357e-02,
          3.51019301e-02,   1.84553006e-02,   4.25667811e-02,
          1.79870111e-02,   1.66492882e-02,   2.54139043e-02,
          4.70455008e-02,   1.35315018e-01,   3.52733907e-02,
          4.86857054e-02,   3.71445687e-02,   2.12757705e-02,
          7.48380606e-02,   1.14617984e-02,   3.89223884e-02,
          3.03822548e-02,   1.49714852e-03,   5.65425095e-02,
          5.42294022e-02],
       [  1.73466272e-02,   2.45022470e-02,   9.72505224e-03,
          3.51937107e-02,   1.13577423e-02,   3.11426764e-02,
          4.43802673e-02,   1.42888026e-02,   1.90430620e-02,
          3.42017920e-02,   1.16848935e-02,   1.98327999e-02,
          1.24803053e-02,   2.31572329e-02,   1.35838375e-02,
          1.22141259e-02,   1.61296791e-02,   2.96481630e-02,
          1.71499422e-02,   1.38605552e-02,   2.29459737e-02,
          9.43031554e-03,   3.13416796e-02,   5.76773787e-03,
          3.14592599e-02,   1.30917977e-02,   1.03886771e-02,
          6.56704455e-03,   1.80780987e-02,   6.89668312e-03,
          3.04865256e-02,   9.31536446e-03,   1.77460066e-03,
          3.74478124e-02,   7.59721169e-03,   2.42019215e-02,
          2.03300160e-02,   9.21414443e-03,   3.46155276e-02,
          3.95978394e-02,   1.69847351e-02,   4.14078429e-02,
          2.60306866e-02,   1.73201209e-02,   1.74617688e-02,
          1.40179234e-02,   2.66489552e-02,  -1.08159108e-03,
          1.49580436e-02,   2.67371747e-02,   1.22936599e-02,
          2.37193146e-02,   1.86474754e-02,  -1.86139328e-03,
          2.20451672e-02,   4.78656676e-03,   5.43968031e-03,
          7.83891811e-03,   9.73848917e-03,   2.25613823e-02,
          1.35444066e-02,   1.57897177e-02,   4.26525185e-02,
          1.79275565e-02,   2.47998147e-02,   3.73226920e-02,
          2.78949174e-02,   2.49132339e-02,   3.47713896e-02,
          1.32809632e-02,   2.71928195e-02,   2.39783415e-02,
          2.50773030e-02,   1.48154590e-02,   1.33466640e-02,
          2.78977889e-02,   3.29456435e-02,   2.45211437e-02,
          3.35927338e-02,   2.67943998e-02,   1.35526550e-02,
          2.86007677e-02,   1.09301684e-02,   9.59538058e-03,
          6.39021737e-03,   2.08022245e-02,   2.79612600e-02,
          2.67508079e-02,   2.86118486e-02,   2.43657304e-02,
          2.50049698e-02,   1.49862543e-02,   2.13003034e-02,
          1.95651435e-02,   2.02360759e-02,   1.15825354e-02,
          2.14813222e-02,   2.38308866e-02,   3.78444563e-02,
          3.27494664e-02],
       [  1.86488766e-02,  -1.23089062e-02,   1.93288424e-02,
          7.11074738e-03,   2.79157339e-03,  -4.23929064e-03,
          4.25194481e-03,   2.00537347e-02,   1.41149017e-03,
          9.30769700e-04,   2.16108503e-02,  -5.62859142e-03,
          2.26692218e-02,   3.62571584e-03,   5.67171816e-03,
          1.87942741e-02,  -1.46157813e-02,  -8.75922219e-03,
          8.76013357e-03,   1.67473282e-02,   3.81936929e-03,
         -2.36476935e-03,  -7.12786550e-03,   5.55228141e-03,
          1.04281145e-02,  -1.35753713e-02,   2.38343562e-03,
          5.85848732e-03,   1.51979935e-02,   1.62081433e-02,
          3.51909082e-03,  -1.18706979e-03,   1.69538967e-02,
          6.47272538e-04,   2.17951976e-02,  -2.05180146e-04,
          8.23130034e-03,   3.27344899e-03,  -1.42492501e-02,
          1.16643979e-02,   4.24589697e-04,   8.92402983e-04,
         -1.01059083e-03,   7.68941414e-03,   4.31451589e-03,
         -1.32981328e-02,   2.21267357e-04,   1.67078162e-02,
          4.45644246e-03,   8.56929542e-03,  -5.00914639e-03,
         -1.41758175e-02,   1.00977899e-02,   1.37521499e-02,
          1.23904326e-03,   6.13459719e-03,   1.74374857e-02,
          1.26618148e-02,   8.64878956e-03,   9.08115415e-03,
         -1.11098658e-02,   7.32722992e-03,   7.23615326e-03,
         -6.36422452e-05,   1.57312135e-02,   7.34910082e-04,
          1.37776719e-02,   1.67756522e-02,  -1.49339719e-03,
         -7.24838650e-03,   7.00699839e-03,   1.13248805e-02,
         -2.03672935e-03,  -4.21690216e-03,   8.87171772e-03,
          7.92317540e-03,  -2.41475482e-03,  -3.94566605e-03,
          1.00284296e-02,  -1.15397493e-02,   1.41403424e-02,
          9.49400985e-03,   1.02249660e-02,  -3.38398429e-03,
          8.02158261e-03,   1.75288006e-03,   1.36014362e-02,
          2.34559310e-03,   7.24704771e-05,   7.67416239e-03,
         -3.55894131e-03,   1.29334512e-02,   3.31892927e-03,
         -1.26693271e-02,   3.08115732e-03,   1.01541070e-02,
          1.69819449e-02,   5.48764459e-03,   6.21456069e-03,
          3.26194059e-03]])]Hidden bias: [array([-0.53264108, -0.56279795, -0.52931374, -0.55939819, -0.55539735,
       -0.56242065, -0.57840748, -0.53883497, -0.55204913, -0.5592985 ,
       -0.53219817, -0.56966128, -0.53999804, -0.56101027, -0.54656724,
       -0.52610281, -0.56320214, -0.55757786, -0.54594668, -0.53315179,
       -0.55059279, -0.55190775, -0.55760645, -0.52736319, -0.56284859,
       -0.56507306, -0.51651093, -0.52671464, -0.54317485, -0.53228007,
       -0.54662695, -0.56146445, -0.52368611, -0.56624336, -0.52735976,
       -0.56113005, -0.55706673, -0.54490645, -0.57240457, -0.57014872,
       -0.54911095, -0.57775958, -0.55781762, -0.55065757, -0.53506876,
       -0.55399707, -0.56309926, -0.50471366, -0.55102893, -0.55600265,
       -0.55667314, -0.55532137, -0.55235105, -0.51969658, -0.5610927 ,
       -0.53361743, -0.52229578, -0.51990044, -0.55123024, -0.54355638,
       -0.56044885, -0.56075053, -0.57968773, -0.547427  , -0.54447654,
       -0.56124076, -0.55303853, -0.53580589, -0.56959167, -0.5607714 ,
       -0.54074188, -0.55890738, -0.56295664, -0.55777828, -0.54054487,
       -0.55774341, -0.57176219, -0.56040125, -0.55964212, -0.56008115,
       -0.55465987, -0.55848277, -0.54565917, -0.55347175, -0.53998839,
       -0.54111472, -0.55022587, -0.56736692, -0.57165585, -0.55294895,
       -0.56025447, -0.55117218, -0.55014755, -0.56692399, -0.54767367,
       -0.542783  , -0.56125734, -0.54556084, -0.57028236, -0.5644614 ])]Output weights: [[ -7.95183285e-03  -4.49536402e-02]
 [ -6.37498832e-02   8.45190204e-02]
 [  4.29961543e-02  -8.12999894e-02]
 [  7.94747651e-02   7.44323882e-03]
 [  2.47238740e-02   1.29830867e-02]
 [  3.27805920e-02   4.39447262e-02]
 [  1.50685771e-01   5.54100865e-02]
 [  3.05799336e-02  -4.49767648e-02]
 [ -5.47163385e-02   3.62390655e-02]
 [ -3.52521711e-02   1.56600742e-01]
 [  3.81349915e-02  -7.58746066e-02]
 [  6.86654725e-02   4.94323778e-02]
 [  5.49776920e-02  -5.65233172e-02]
 [  1.02357869e-01  -2.38166973e-03]
 [  2.79712681e-02  -8.01551018e-03]
 [  5.46345005e-02  -1.09157839e-01]
 [ -1.57650630e-02   1.38407296e-01]
 [  1.30403471e-02   1.84664488e-01]
 [  2.89934064e-02  -1.62503468e-02]
 [ -2.62806764e-02  -3.41327367e-02]
 [  2.34064358e-02   1.08217109e-02]
 [ -2.93631223e-02   2.82753463e-02]
 [ -1.51017681e-02   4.88247297e-02]
 [  7.83839269e-03  -8.40529866e-02]
 [  8.99538514e-02   1.16797792e-02]
 [ -3.48251326e-02   1.01035411e-01]
 [ -3.38463013e-02  -1.22779551e-01]
 [  9.87756978e-03  -7.51562556e-02]
 [  3.74010867e-02  -3.39708721e-02]
 [  3.14003683e-02  -6.99846280e-02]
 [  7.43994094e-02  -2.57687263e-02]
 [ -1.22881480e-01   1.10395532e-01]
 [  1.69612492e-02  -1.05351565e-01]
 [  8.08351546e-02   2.40581464e-02]
 [  1.95493931e-02  -8.01711492e-02]
 [ -7.36798624e-02   1.00018249e-01]
 [  4.97313940e-02   1.25364646e-02]
 [ -4.43529486e-02   1.51892423e-02]
 [  3.74349101e-02   9.45761587e-02]
 [  1.07687352e-01   3.27262376e-02]
 [  5.81860210e-02  -1.99650297e-02]
 [  1.06044317e-01   5.49505460e-02]
 [ -8.33413001e-02   7.42369684e-02]
 [  8.64846362e-02  -2.54735589e-02]
 [ -8.08046572e-03  -3.34571107e-02]
 [ -9.41547548e-02   7.14869320e-02]
 [ -5.75066820e-02   1.32058983e-01]
 [  9.22134028e-02  -2.51506254e-01]
 [  5.37804454e-02  -6.57272045e-03]
 [  4.97774940e-02  -3.10201654e-03]
 [ -1.11635673e-01   7.86057877e-02]
 [ -1.09120652e-01   1.60847063e-01]
 [ -5.59566874e-03   1.49637956e-02]
 [  2.57339517e-03  -1.16485540e-01]
 [  1.06188531e-01  -1.95438455e-03]
 [  5.08722830e-03  -5.60009195e-02]
 [ -5.19143943e-03  -1.17010382e-01]
 [ -2.52400501e-02  -1.06634190e-01]
 [  6.77959220e-04   9.33009633e-03]
 [ -4.51288281e-02   1.14548649e-02]
 [ -9.25546933e-02   8.17260475e-02]
 [  2.77209036e-02   4.31367079e-02]
 [  1.68605962e-01   9.81927096e-02]
 [  2.65315111e-02   2.14144880e-03]
 [  5.45007472e-02  -2.87054086e-02]
 [  1.25817269e-01  -9.32358028e-03]
 [  3.22055077e-02   1.51173903e-02]
 [  9.48275171e-02  -8.14552791e-02]
 [  5.50043093e-02   4.62558786e-02]
 [ -5.49438805e-02   6.83582312e-02]
 [  9.67879188e-02  -6.62031498e-02]
 [  3.72739325e-02   1.44371537e-02]
 [  4.96520594e-02   3.44573630e-02]
 [ -2.97735861e-02   4.38850766e-02]
 [ -6.81642562e-02   9.76628300e-03]
 [ -4.67877895e-02   5.23289677e-02]
 [  4.29631301e-02   7.35634125e-02]
 [ -8.07250571e-03   4.56252809e-02]
 [  5.94200807e-02   1.15008423e-02]
 [ -4.21655419e-02   6.33300085e-02]
 [  2.01980967e-02   1.10181765e-02]
 [  5.74080683e-02   8.36376546e-03]
 [  1.67334431e-02  -6.14733231e-03]
 [ -3.39395686e-02   2.99220149e-02]
 [ -4.31869847e-02  -2.10415202e-03]
 [ -3.22531793e-03  -2.97439796e-03]
 [  5.35944370e-02  -4.60020984e-03]
 [  1.19090670e-01   2.55771806e-02]
 [  3.19095589e-02   8.30661492e-02]
 [ -2.01624440e-04   3.17609717e-02]
 [  3.21020587e-02   2.07618253e-02]
 [ -1.33036629e-03   1.88839193e-02]
 [  3.58321364e-02  -6.09191604e-03]
 [  8.02303881e-03   6.62164770e-02]
 [  5.81316812e-02  -1.86420360e-02]
 [ -8.60148603e-02   1.73619691e-02]
 [  1.18348046e-01  -1.60644371e-03]
 [  7.18797699e-02  -4.28390729e-02]
 [  9.19097955e-02   2.52668091e-02]
 [  7.10571743e-02   2.34203085e-02]]Output bias: [ 1.0052722   0.69014852]
Value MLP:Hidden weights: [array([[  4.09912537e+00,   2.82751952e+00,  -7.98220769e-01,
          6.11136533e-03,   1.75175192e+00,   1.07116986e+01,
         -3.67318279e+00,   3.98761080e+00,  -1.38167070e+00,
          4.16847293e+00,   5.26375039e+00,  -8.45059426e+00,
          6.74776485e+00,   9.77863524e-02,  -3.88120234e+00,
          2.24677657e-01,   5.10339410e+00,  -1.70741268e+00,
          3.78154465e+00,   1.15339041e+01,  -4.98391108e+00,
          6.20584389e-01,  -1.07797653e+00,  -6.01292026e+00,
          2.68339797e+00,   1.88008190e+00,   1.82306647e+00,
         -1.09343363e+01,   3.25101792e+00,   4.40783975e+00,
         -2.66238911e+00,   6.51318252e+00,  -6.50601132e+00,
          2.19390823e+00,  -1.99816834e+00,  -2.25249658e+00,
         -9.39537282e+00,   5.88402479e+00,  -6.65614316e-02,
         -4.83288708e+00,   1.47055370e+01,  -6.24242060e+00,
          7.22321299e-01,  -8.74297759e-01,  -3.82630564e+00,
          4.28604728e+00,  -6.76302548e+00,   3.42454252e+00,
         -4.98761898e+00,  -2.67590971e+00],
       [ -1.22270859e+00,  -1.52482198e+00,  -4.90554654e+00,
         -2.48048260e+00,  -5.95936771e+00,  -1.10474095e-02,
          7.22143225e-01,   2.60510912e+00,   1.70341293e+00,
         -6.71586736e+00,  -5.48575134e+00,   4.26924272e+00,
         -7.25506875e+00,  -2.62841663e+00,   3.24024795e-01,
         -2.10485147e+00,  -1.87339062e+00,   4.15638502e+00,
          2.64402289e+00,  -9.03226958e-01,  -4.10685702e+00,
          1.86488658e+00,   2.53520574e+00,   3.56146397e-01,
          3.14382225e+00,  -4.45825543e+00,  -1.03097983e+00,
          2.58967264e+00,  -7.23890795e+00,  -3.00143592e+00,
         -3.74605628e+00,   6.33329704e+00,   4.75544677e+00,
         -6.33375462e+00,  -5.56144456e-02,   3.25871530e+00,
         -1.21554698e+00,   1.07152738e+00,  -1.70748680e+00,
          3.81837825e-01,  -7.45087690e+00,  -2.24652705e-02,
          2.80486195e+00,  -2.81478029e+00,   6.86938145e+00,
         -1.04794056e+00,   1.68948993e+00,   2.98235772e-01,
         -4.97333317e+00,   4.04994531e+00],
       [  1.08066496e+01,   1.03910046e+01,  -9.81707128e-01,
         -1.48639419e+00,  -1.13238211e+01,   1.47480223e+01,
         -5.59009718e+00,   1.21285283e+01,   1.03908188e+00,
          1.51188533e+00,   1.07702580e+01,   3.80015225e+00,
          1.00141419e+01,  -7.08126301e-01,  -1.09186937e+01,
         -3.64743577e-01,   1.29221147e+01,  -5.58582324e+00,
          5.96115446e+00,   1.78907134e+01,  -1.27565266e+01,
          1.28521193e+01,  -2.39840065e+00,  -5.21536942e+00,
         -1.48018454e+01,   1.18111652e+00,   1.72131470e-01,
         -2.34788506e+01,  -9.16564711e+00,   1.57439027e+01,
         -1.24527981e+00,   1.57117183e+01,  -2.55586591e+00,
         -1.12556578e+00,  -4.26010910e+00,  -9.27420422e+00,
         -1.89602648e+01,   1.60099475e+01,  -1.08494165e+00,
         -9.96779411e+00,   2.11633913e+01,  -2.73950221e+00,
          3.70200477e+00,  -8.05371736e-01,  -5.77819610e+00,
          2.54313411e+00,   1.60015848e+01,   1.02077956e+01,
         -1.68167605e+01,   3.02014937e+00],
       [  8.34213396e+00,   1.36046071e+00,   4.56064236e+00,
          4.60401650e+00,  -9.14417072e+00,   1.37314114e+01,
          3.45519362e-01,   1.57132250e+00,   2.44477095e+00,
          2.50295971e+00,  -2.94870378e+00,   8.01435916e+00,
          1.42101059e+01,   3.11377929e+00,   1.87514060e+00,
          1.52093601e+00,   5.56319949e+00,   2.43104404e+00,
         -5.73142245e+00,   1.01562029e+01,  -1.15732868e+00,
          1.46451866e+00,   6.66256317e+00,  -2.02118708e+01,
         -8.47471504e-01,   3.70625419e+00,   2.55699060e+00,
         -3.89020719e-01,   5.71009936e+00,  -7.25484710e+00,
          7.80924422e+00,   1.08147817e+01,  -1.15937060e+00,
          8.84116626e+00,   4.65138494e+00,   4.25512208e+00,
         -1.89507689e+00,   2.87196698e+00,   1.70548041e+00,
          3.01783409e+00,   3.88283421e+00,  -1.93798817e+01,
          1.46724433e+00,   6.31364914e+00,   2.37597627e+00,
          6.68135999e-01,  -7.45486815e-01,  -1.37940372e+00,
         -7.28377555e+00,  -1.69977190e+00],
       [ -1.09923839e+01,  -1.65280953e+01,   3.87377008e+00,
          1.24581626e+01,   1.49910362e+01,   8.79780558e+00,
         -1.67071242e+00,  -1.30111217e+01,  -4.77736029e+00,
         -7.05408346e-01,  -4.50588641e+00,   2.09594269e+00,
          6.68911326e+00,  -8.10963132e-01,   1.15720522e+01,
          1.21467389e-01,  -8.68335279e+00,   4.41316080e-01,
          4.02494282e+00,   5.04562076e-01,   1.15210184e+01,
          2.18949623e+00,  -6.05379955e+00,   4.03982070e+01,
          1.31242335e+01,  -7.82255291e-01,   4.05260762e-01,
          2.60205466e+01,  -4.15389779e+01,  -2.33124363e+01,
          3.31462444e+00,  -8.99874466e+00,  -2.04437007e+01,
          9.01202882e+00,  -1.25635908e+01,   1.17107079e+01,
          1.67458857e+01,  -1.80915358e+01,  -7.62923105e-03,
          4.67575656e+00,  -9.54317613e+00,   3.99399328e+01,
         -1.56069246e+01,   2.46235649e+00,  -3.41625913e+00,
         -3.74940230e+01,  -9.52378830e+00,  -1.86288965e+01,
          1.89580003e+01,  -1.75589267e+01],
       [ -1.37628584e+01,   2.30443831e+01,  -2.77195367e+00,
          1.81609239e+01,   7.86228570e+00,   1.09560594e+01,
         -1.33141414e+01,   1.67018520e+01,  -1.25721428e+01,
         -7.17003018e-01,  -4.44848497e+00,   2.27135381e+01,
          1.87055804e+00,  -2.96018654e-01,   4.02288380e-01,
         -3.03944468e-01,  -1.47507869e+01,  -1.22727644e+01,
          1.77601514e+01,   1.53681237e+01,  -8.98254937e+00,
          1.36044572e+01,  -1.42782497e+01,   6.72326105e+00,
         -7.53117027e+00,   1.19042744e+01,  -9.75659146e+00,
         -6.12656400e+01,   2.14214545e+01,   1.71865000e+00,
         -3.96114144e+00,  -3.36309881e+00,  -1.37370641e+01,
         -2.98970141e+01,  -2.69317889e+01,   8.15166640e+00,
         -3.94541103e+01,   6.10488698e+00,  -3.84689917e-01,
         -1.10597356e+01,   1.85159319e+00,   1.26839963e+01,
         -3.84825174e+00,   7.87138426e+00,  -9.49110774e+00,
         -2.98806843e+01,   1.87875388e+01,   1.38655218e+01,
         -2.74386420e+00,  -1.12928389e+01],
       [ -4.32789259e+00,  -1.34729357e+00,  -3.14822791e+00,
         -5.97250901e+00,  -7.27346123e+00,  -2.57250468e+00,
         -4.51658909e+00,   1.37947703e+00,  -5.03500307e+00,
         -8.30145071e-01,   3.76583188e+00,   2.00640796e+00,
         -1.43332206e+00,  -2.04538387e+00,  -1.81636168e+00,
         -8.97882521e-01,  -3.10942513e+00,  -3.12524490e+00,
         -1.85128260e+00,  -5.09568255e+00,  -1.39731088e+00,
          3.10439565e+00,  -4.49206907e+00,   8.82170866e+00,
         -2.11384666e+00,  -3.85306145e-01,  -4.19514100e+00,
         -1.55743327e+01,  -7.32863608e+00,  -3.39346499e+00,
         -1.13947469e+01,  -1.04034908e+00,  -3.10398621e+00,
         -7.29212011e+00,  -6.55141745e+00,   4.71801549e-02,
         -1.21699433e+01,  -2.02591548e+00,  -1.50941644e+00,
         -2.51825926e+00,   1.11789025e+00,   7.68639059e+00,
         -3.29766349e+00,  -3.70711959e+00,  -5.73116707e+00,
         -3.44320417e+00,   6.49231237e+00,  -3.95632493e-01,
         -1.27260048e+00,  -5.16853765e+00],
       [  8.95272570e-01,  -4.35215945e+00,  -4.47809173e-01,
         -5.06223741e+00,  -4.26189572e+00,  -8.47540913e+00,
         -1.07885276e-01,  -6.36318201e+00,  -1.69884048e-01,
         -1.18834984e+00,  -4.63521470e-03,  -1.06884266e+01,
         -4.12639178e+00,  -4.02727980e+00,  -3.23093294e+00,
         -6.76342314e-01,   2.22230363e+00,   1.98673546e+00,
         -8.17277280e-01,  -3.68706197e-01,   3.03386056e+00,
         -7.62096894e+00,  -4.25976736e+00,   7.08178911e-01,
          5.21418567e+00,  -2.68758491e+00,  -2.52800637e+00,
          1.52692915e+00,  -2.98769549e+00,  -9.87915692e+00,
         -7.78510929e+00,  -5.37193216e+00,  -4.68990195e+00,
          3.79675608e-02,   2.65636175e+00,  -3.01108011e+00,
         -3.86507291e+00,  -5.80564928e+00,  -8.09884642e-01,
         -2.41538783e-01,  -7.53938840e-01,  -2.13024309e+00,
         -3.12193823e+00,  -3.81946906e+00,  -8.57898006e-02,
          2.84036377e-02,  -1.01010091e+01,  -8.92319920e+00,
          8.21018343e-01,  -3.34910395e+00]])]Hidden bias: [array([ -8.35800044,  -5.90945687, -10.65366935,  -8.68287887,
        -6.09027984, -13.20522391,  -3.96611798,  -1.3324819 ,
        -5.45760265, -13.49686169,  -2.61438446,  -8.43965525,
       -20.85306592, -10.80765316,  -2.82901799,  -5.14716369,
        -2.83408452,   0.19487355,   4.41647622,  -8.07217573,
        -2.94621258,  -2.4174355 ,  -8.35851014,   6.08800059,
        -3.35795984,  -8.34552569,  -7.52222899, -11.18637647,
       -16.79699192,  -7.56622759, -25.24994682,  -6.85232284,
        -5.3614351 , -21.42463843,  -5.79183821,  -4.28683113,
       -14.27806789,  -5.29784534,  -5.65704671,  -6.7523326 ,
        -8.04547844,   2.76312336,  -1.35356115, -11.12209314,
        -1.88299142,  -6.55125689,   0.49954007,  -7.80687271,
        -5.69980963,  -1.8574622 ])]Output weights: [[ -2.00824192e+00]
 [  2.78472788e+00]
 [  3.91276871e+00]
 [ -4.60581028e+00]
 [  2.40909086e+00]
 [  3.89766828e+00]
 [  5.15704656e+00]
 [ -1.11213009e+00]
 [ -7.32859990e+00]
 [  4.56947541e+00]
 [ -1.43687939e+00]
 [ -8.06427090e+00]
 [  7.87920208e+00]
 [  1.33460673e+01]
 [ -5.76947191e+00]
 [  2.58593303e+01]
 [ -1.30652494e+00]
 [ -4.96814844e+00]
 [ -5.88659847e+00]
 [ -3.91763302e+00]
 [  4.98855709e-04]
 [  1.04955418e+00]
 [ -8.99464637e+00]
 [  1.92028527e+00]
 [ -3.96054809e+00]
 [  9.14476076e+00]
 [  8.63028032e+00]
 [  2.71590489e+00]
 [  9.08155352e+00]
 [  2.34013093e+00]
 [  8.17463632e+00]
 [  1.40424186e+00]
 [  3.65119521e+00]
 [  6.73974775e+00]
 [ -3.24074199e+00]
 [ -7.49710640e+00]
 [  5.22560469e+00]
 [ -3.36681484e+00]
 [  2.75918501e+01]
 [ -1.56969229e+00]
 [  6.69733800e+00]
 [  2.69682173e+00]
 [  3.10725528e+00]
 [  4.87183588e+00]
 [ -7.32575795e+00]
 [ -3.61299173e+00]
 [ -4.88378946e+00]
 [ -2.02234447e+00]
 [ -1.74043666e+00]
 [  5.73431870e+00]]Output bias: [-33.16611683]