Action MLP:Hidden weights: [array([[ -3.15812984e-02,   5.62464654e-02,  -4.38425899e-02,
         -1.86773796e-02,  -3.85026112e-03,   1.97620407e-02,
          1.60277851e-02,  -3.77819559e-02,   1.83188326e-02,
          1.31396591e-01,  -4.28832179e-02,   2.17636680e-02,
         -5.19079865e-02,  -2.36863096e-02,  -1.44703672e-02,
         -5.67624523e-02,   1.24569589e-01,  -4.07252066e-01,
         -2.17613378e-02,  -1.56710124e-02,  -5.70990794e-03,
          1.27233454e-02,   3.28832006e-02,  -1.97449439e-02,
         -2.70036393e-02,   5.97602366e-02,  -1.17452331e-02,
         -3.18192394e-02,  -2.57186713e-02,  -4.44139106e-02,
         -3.91024910e-02,   9.11420060e-02,  -2.71315518e-02,
         -7.30523452e-03,  -4.58855945e-02,   6.93628010e-02,
         -8.99132727e-03,   8.51893192e-03,   6.41809330e-02,
         -1.41623585e-02,  -2.81754799e-02,   1.77577437e-02,
          4.54246233e-02,  -4.20866147e-02,  -1.76164590e-02,
          4.93458229e-02,   9.86355635e-02,   2.00170016e-01,
         -2.00994499e-02,  -2.57909390e-02,   6.12713793e-02,
         -2.77497535e-01,   1.54480607e-04,  -2.96995825e-02,
         -2.95409518e-02,  -2.78081321e-02,  -2.79696691e-02,
         -1.42566503e-02,  -2.37339123e-03,   2.44223068e-03,
          6.25523620e-02,   1.41212987e-02,   1.06886824e-01,
         -1.04189511e-02,  -4.59656637e-02,  -3.38071815e-02,
         -1.28403616e-02,  -7.17520899e-02,   1.47233138e-02,
          3.74248947e-02,  -5.73422239e-02,  -1.19921772e-02,
         -1.57046292e-03,   2.17223743e-02,   1.39617273e-02,
          2.16675549e-02,   3.40765541e-02,   1.65799566e-02,
         -7.31948547e-03,   4.13831542e-02,  -6.77457163e-03,
         -2.41015944e-02,  -2.38247298e-02,   1.78015207e-02,
          4.17681423e-03,   2.23104137e-03,  -3.02118090e-02,
         -1.38359236e-02,   5.03205654e-02,   1.13697481e-02,
         -4.15223998e-03,   2.84621908e-04,  -2.45561178e-02,
          3.86967658e-02,  -2.41772471e-02,   1.90444484e-02,
         -4.35041392e-02,  -4.16139481e-02,  -1.54302344e-02,
         -1.56334072e-03],
       [  1.53064166e-01,   1.81782165e-01,   1.34745574e-01,
          1.10505418e-01,   1.32569810e-01,   1.33450212e-01,
          9.04094417e-02,   1.32222739e-01,   1.72906964e-01,
          2.16851221e-01,   1.37987814e-01,   1.18105296e-01,
          1.21239708e-01,   9.80296448e-02,   1.33428731e-01,
          1.31139655e-01,   1.88739008e-01,   3.03246771e-01,
          1.32154986e-01,   1.65922101e-01,   1.34830273e-01,
          1.58970405e-01,   1.59172664e-01,   1.59870667e-01,
          9.90656862e-02,   1.59644188e-01,   1.96390817e-01,
          1.49521928e-01,   1.34505800e-01,   1.35134468e-01,
          1.06665965e-01,   2.20382385e-01,   1.60162615e-01,
          1.09451014e-01,   1.42810837e-01,   1.87001333e-01,
          1.22602383e-01,   1.67488568e-01,   1.41594560e-01,
          9.68177913e-02,   1.17491301e-01,   1.05972600e-01,
          1.87977054e-01,   1.01208471e-01,   1.56335292e-01,
          1.91761921e-01,   1.96680029e-01,   2.45635786e-01,
          1.18339912e-01,   1.20436262e-01,   2.02845620e-01,
          1.21045603e-01,   1.51705707e-01,   1.68056106e-01,
          9.26936018e-02,   1.48088136e-01,   1.75844802e-01,
          1.87956092e-01,   1.47577899e-01,   1.69584224e-01,
          1.94778063e-01,   1.33258386e-01,   1.26189294e-01,
          1.30855023e-01,   1.14898696e-01,   8.72572408e-02,
          1.27374382e-01,   9.99286902e-02,   1.26047010e-01,
          1.69132659e-01,   1.00140428e-01,   1.29570405e-01,
          1.19904658e-01,   1.60093661e-01,   1.85510971e-01,
          1.68334256e-01,   1.33019502e-01,   1.49189037e-01,
          1.23041907e-01,   1.71288076e-01,   1.38356746e-01,
          1.15443074e-01,   1.32689826e-01,   1.63560686e-01,
          1.71401239e-01,   1.52534524e-01,   1.18616015e-01,
          8.74028242e-02,   1.43862887e-01,   1.47362605e-01,
          1.30255967e-01,   1.47779683e-01,   1.25505950e-01,
          1.45354418e-01,   1.17802160e-01,   1.94737567e-01,
          8.26408812e-02,   1.11517958e-01,   1.03324460e-01,
          1.17506391e-01],
       [ -1.27863881e-02,  -1.16434708e-01,   5.16879729e-02,
          2.69701064e-02,  -1.29886519e-02,  -7.00089635e-05,
         -2.63874632e-02,   8.68569180e-03,  -6.63678508e-02,
         -2.43473249e-01,   4.22099428e-02,  -8.32899537e-03,
          1.92592155e-02,   3.70585997e-02,   1.45602498e-02,
          6.63820007e-02,  -2.10718481e-01,  -2.89582350e+00,
          1.51790759e-02,  -1.62482683e-02,   1.51590293e-02,
         -4.07988443e-02,  -1.25737072e-02,   4.15534293e-02,
          3.47877585e-02,  -1.59298508e-01,   5.88961932e-02,
          3.49353781e-02,   2.22657407e-02,   1.97338235e-02,
          4.41463537e-02,  -2.15028661e-01,   5.95657324e-02,
          1.54010748e-02,   1.74771445e-02,  -1.77884982e-01,
          1.05107158e-02,  -3.64599270e-02,  -1.30875175e-01,
         -1.04546674e-02,   1.45006891e-02,  -8.62144696e-02,
         -1.26751778e-01,   2.60698828e-02,   1.32600506e-02,
         -1.14658169e-01,  -2.13076895e-01,   3.05651053e+00,
          3.05330378e-02,  -1.17055161e-03,  -1.60688453e-01,
         -1.70934621e-01,  -8.84841200e-03,   6.81954942e-02,
          3.66253258e-02,   1.39417141e-02,   6.15622591e-02,
          5.11130731e-02,  -1.15823295e-02,  -4.09840988e-02,
         -1.47537095e-01,   4.04470379e-03,  -1.86376987e-01,
          2.42136279e-02,   2.00659481e-02,   5.40771066e-02,
          1.84333534e-02,   6.56344121e-02,  -1.86574657e-02,
         -1.12870208e-01,   5.96418533e-02,   4.94908082e-03,
         -3.00329210e-04,  -5.48033264e-02,  -5.19525962e-02,
         -6.40320851e-02,  -7.17082341e-02,  -2.66637934e-02,
          2.56202549e-02,  -5.16627821e-02,   2.91869979e-03,
          1.41166665e-02,  -5.71313135e-04,  -3.75751419e-02,
         -2.66988883e-02,   1.30664529e-02,   3.31989961e-02,
          4.73826326e-02,  -1.28987648e-01,   3.93600341e-03,
         -9.26776052e-03,  -5.15931013e-03,   1.56054312e-02,
         -4.50768426e-02,   3.78475883e-02,  -6.87209815e-02,
          3.80818038e-02,   3.02117348e-02,   7.50919475e-03,
          1.68533100e-02],
       [ -2.45139504e-01,  -1.96803299e-01,  -2.61422577e-01,
         -2.52755517e-01,  -2.40517394e-01,  -2.28604364e-01,
         -2.56524597e-01,  -2.58079927e-01,  -2.12892047e-01,
         -2.20239109e-01,  -2.62456629e-01,  -2.38256007e-01,
         -2.67954343e-01,  -2.65727732e-01,  -2.41703514e-01,
         -2.74916134e-01,  -2.15683734e-01,  -3.78654838e+00,
         -2.49097668e-01,  -2.35702110e-01,  -2.35453880e-01,
         -2.19956311e-01,  -2.14041566e-01,  -2.52183556e-01,
         -2.62404699e-01,  -2.06414210e-01,  -2.47250445e-01,
         -2.50808532e-01,  -2.53789194e-01,  -2.60830397e-01,
         -2.62602900e-01,  -1.73513501e-01,  -2.57432645e-01,
         -2.52705378e-01,  -2.57611374e-01,  -1.89952370e-01,
         -2.44375202e-01,  -2.20387464e-01,  -2.24042886e-01,
         -2.54920184e-01,  -2.55141877e-01,  -2.53275276e-01,
         -1.95041626e-01,  -2.66919635e-01,  -2.38556898e-01,
         -1.87223275e-01,  -1.91000452e-01,  -4.36705759e+00,
         -2.52356641e-01,  -2.55984206e-01,  -1.87126461e-01,
         -2.29234598e-01,  -2.31914849e-01,  -2.56192952e-01,
         -2.67849482e-01,  -2.52845423e-01,  -2.59261039e-01,
         -2.46651019e-01,  -2.33812155e-01,  -2.20100841e-01,
         -1.93016706e-01,  -2.28165100e-01,  -2.59082288e-01,
         -2.39147162e-01,  -2.60279757e-01,  -2.74507781e-01,
         -2.40731044e-01,  -2.85875755e-01,  -2.38350744e-01,
         -2.07867856e-01,  -2.82004473e-01,  -2.45044737e-01,
         -2.39313858e-01,  -2.17242526e-01,  -2.13308408e-01,
         -2.13625203e-01,  -2.29047321e-01,  -2.23834741e-01,
         -2.49239073e-01,  -2.05318338e-01,  -2.40034311e-01,
         -2.53840216e-01,  -2.42180525e-01,  -2.20827688e-01,
         -2.23638403e-01,  -2.27082209e-01,  -2.49172442e-01,
         -2.60666645e-01,  -2.25797498e-01,  -2.23054253e-01,
         -2.41826073e-01,  -2.27792958e-01,  -2.49980267e-01,
         -2.19188862e-01,  -2.55565850e-01,  -2.09494361e-01,
         -2.72712173e-01,  -2.70323204e-01,  -2.60465358e-01,
         -2.46587519e-01],
       [  2.13394716e-02,   2.45812651e-02,  -2.67238277e-02,
         -4.59475517e-02,  -1.46924630e-02,  -3.09539700e-02,
         -1.58298268e-02,  -9.79521184e-03,   2.57273817e-02,
          2.56142048e-01,  -2.64103847e-02,  -3.52705440e-02,
         -2.07519723e-02,  -5.83913809e-02,  -3.17928592e-02,
         -1.61412557e-02,   1.93013588e-01,   1.73867815e+00,
         -3.22936541e-02,   1.51077346e-02,  -3.88122554e-02,
          3.64701242e-03,  -3.22896255e-02,  -6.01969296e-03,
         -6.02259481e-02,   7.23034709e-02,   3.29400866e-02,
         -8.24277318e-03,  -3.08130338e-02,  -2.29851213e-03,
         -4.50380395e-02,   1.38636001e-01,  -5.80197280e-03,
         -3.95005166e-02,   1.28341579e-02,   9.81077774e-02,
         -3.62693075e-02,   7.53711228e-04,   7.09637059e-02,
         -1.90966012e-02,  -2.05654368e-02,   5.05684271e-02,
          5.31247009e-02,  -3.72968041e-02,  -1.60337219e-02,
          4.32783926e-02,   1.13699267e-01,  -1.67803296e+00,
         -5.22733256e-02,  -2.00570992e-02,   9.74805364e-02,
          1.63765399e+00,  -3.09376007e-02,  -4.61074868e-03,
         -5.70035330e-02,  -9.36953877e-03,  -7.68715580e-04,
          8.31024807e-03,  -2.30481268e-02,   1.54748171e-02,
          6.67818657e-02,  -5.23795647e-02,   2.11430957e-01,
         -4.41160813e-02,  -2.77450918e-02,  -6.71946988e-02,
         -4.68638283e-02,  -4.53552620e-02,  -2.57718897e-02,
          4.81375131e-02,  -4.34333493e-02,  -4.43318071e-02,
         -3.52646328e-02,   7.04709511e-03,   2.62140014e-02,
         -1.11340173e-03,   2.30572533e-03,  -2.60974571e-02,
         -5.36896834e-02,  -1.66685680e-02,  -4.36521313e-02,
         -4.40286455e-02,  -2.18993889e-02,  -7.46715513e-03,
          7.82269340e-04,  -2.37782017e-02,  -5.43822074e-02,
         -7.58983249e-02,   7.04926451e-02,  -4.21573732e-02,
         -2.13862632e-02,  -3.38353628e-02,  -3.74949374e-02,
         -1.52704203e-02,  -4.86684132e-02,   3.63488090e-02,
         -5.98087035e-02,  -2.85027732e-02,  -4.33973585e-02,
         -4.46423329e-02],
       [  1.24262685e-02,   5.36671186e-02,  -2.09329285e-02,
         -2.08613628e-02,  -1.01265781e-02,  -3.30907480e-02,
          1.18575274e-02,  -2.99116796e-03,   2.08404511e-02,
          3.14250248e-01,  -9.74430545e-03,  -1.41575918e-02,
          1.60536334e-02,  -2.62314733e-02,  -1.23792285e-02,
         -3.32642550e-02,   2.19687645e-01,  -1.88739401e-01,
         -1.26885097e-02,   7.03763302e-03,  -2.11617452e-02,
          4.77374092e-03,  -2.01624043e-02,  -3.25127277e-02,
         -3.28631098e-02,   1.01639152e-01,  -5.76777688e-02,
         -2.23430543e-02,  -8.77028215e-03,  -1.43511809e-03,
         -3.19689400e-02,   1.25903615e-01,  -4.06460208e-02,
         -2.67720258e-02,  -5.78734049e-03,   1.03785304e-01,
         -2.03466102e-02,   4.58695553e-03,   8.67532207e-02,
          6.09423634e-03,  -4.95701211e-03,   6.00107566e-02,
          6.10834461e-02,  -3.51831189e-03,  -2.63399137e-03,
          4.62584858e-02,   1.88505753e-01,   6.15859128e-01,
         -2.28385489e-02,   2.15821681e-03,   6.86465401e-02,
          3.48323884e+00,   2.33731529e-04,  -4.25841022e-02,
         -2.42961750e-02,  -8.71867669e-03,  -3.95818820e-02,
         -3.86167186e-02,   2.19998930e-03,   1.31834238e-02,
          6.22515766e-02,  -1.81529361e-02,   1.68604873e-01,
         -2.57173834e-02,  -1.01195825e-03,  -3.56423191e-02,
         -2.91282215e-02,  -2.05752938e-02,  -6.81514422e-04,
          4.96457624e-02,  -2.91971270e-02,   1.93368508e-03,
         -9.22476171e-03,   9.16468977e-03,   1.46528990e-02,
          1.71956250e-02,   4.72769008e-02,  -3.89831522e-03,
         -2.34036763e-02,   3.89832797e-03,  -2.19380413e-03,
         -7.79930749e-03,   3.82111317e-03,   1.21814014e-04,
          3.86977448e-03,  -2.64187183e-02,  -1.16327037e-02,
         -4.10174632e-02,   1.05639253e-01,  -2.53404278e-02,
         -2.50673350e-03,  -4.56727649e-03,  -6.39051337e-03,
         -2.80595574e-03,  -2.87103076e-02,   2.88394842e-02,
         -2.64232791e-02,  -1.61362465e-02,  -7.21847995e-03,
         -2.05319767e-02],
       [  5.76976618e-02,   5.60983704e-02,   7.22379314e-02,
          9.37796820e-02,   7.34654352e-02,   8.69132442e-02,
          9.42583986e-02,   6.92262634e-02,   5.59083601e-02,
          1.52613996e-02,   7.14194058e-02,   8.67506571e-02,
          7.18150927e-02,   9.72876217e-02,   7.67684186e-02,
          7.42094719e-02,   2.30170465e-02,   9.31256858e-02,
          7.85409767e-02,   5.57647394e-02,   8.22327493e-02,
          6.20184012e-02,   8.09032307e-02,   6.60084092e-02,
          9.91513165e-02,   4.49228839e-02,   5.68091825e-02,
          6.66326845e-02,   7.67032432e-02,   6.49653505e-02,
          9.43209487e-02,   2.27351580e-02,   6.29734743e-02,
          9.62520150e-02,   5.88322727e-02,   3.61745251e-02,
          8.30968189e-02,   5.95536079e-02,   5.96044792e-02,
          8.89875839e-02,   8.03009047e-02,   7.27622022e-02,
          4.68839589e-02,   8.60653274e-02,   6.95817706e-02,
          4.62603733e-02,   3.00795785e-02,  -2.37123070e-01,
          8.69971881e-02,   8.15022044e-02,   3.33117220e-02,
         -8.99131277e-01,   7.30179110e-02,   6.11128883e-02,
          9.79675718e-02,   6.62437456e-02,   6.14640769e-02,
          5.77195936e-02,   6.89732969e-02,   5.86552263e-02,
          4.19746523e-02,   8.16098260e-02,   4.23618588e-02,
          8.37345282e-02,   8.10625642e-02,   1.08196114e-01,
          8.59466279e-02,   9.11493314e-02,   8.65344110e-02,
          4.99103065e-02,   9.46606207e-02,   8.27845604e-02,
          8.61726927e-02,   6.32300564e-02,   5.00145146e-02,
          6.42109375e-02,   7.39288251e-02,   7.75632423e-02,
          9.24129916e-02,   7.18663758e-02,   7.63568111e-02,
          8.86871105e-02,   7.10034534e-02,   6.49263406e-02,
          5.69980247e-02,   7.47308742e-02,   8.81431844e-02,
          1.04801620e-01,   5.27464436e-02,   7.96542268e-02,
          8.17154454e-02,   7.17521261e-02,   8.33845596e-02,
          7.60398154e-02,   8.90872444e-02,   4.48571394e-02,
          9.66653099e-02,   8.67743118e-02,   9.63582777e-02,
          9.23761091e-02],
       [  7.07574288e-02,   2.94816117e-02,   8.01840583e-02,
          6.23044128e-02,   5.58195001e-02,   4.22831363e-02,
          4.21522997e-02,   7.57353844e-02,   4.55262240e-02,
         -2.68902547e-04,   8.21635173e-02,   4.25857083e-02,
          8.47633394e-02,   6.56379229e-02,   6.28830940e-02,
          8.26608191e-02,  -8.84751771e-04,   1.38639653e-02,
          6.71500683e-02,   6.64743263e-02,   5.78180952e-02,
          4.75842877e-02,   3.93434814e-02,   6.66525409e-02,
          6.73035395e-02,   2.67957403e-02,   5.83022858e-02,
          6.87827581e-02,   7.26421954e-02,   7.70593761e-02,
          6.82301391e-02,   1.46950195e-02,   7.39450525e-02,
          5.42758967e-02,   7.72692749e-02,   2.49201343e-02,
          6.00656149e-02,   5.28753327e-02,   2.07447044e-02,
          5.76714933e-02,   6.38948002e-02,   4.07804327e-02,
          3.42969694e-02,   7.27772223e-02,   6.46510129e-02,
          2.82108820e-02,   2.20386028e-02,  -2.58326479e-01,
          6.57700295e-02,   6.62165731e-02,   2.41298712e-02,
         -1.75530771e-01,   6.11107159e-02,   7.35377479e-02,
          6.58300910e-02,   6.92758726e-02,   7.52104390e-02,
          6.74964754e-02,   6.10245815e-02,   5.48330572e-02,
          2.54373570e-02,   5.35537632e-02,   3.76242697e-04,
          5.88579998e-02,   7.57759093e-02,   6.70617815e-02,
          6.34992458e-02,   8.75257114e-02,   4.62446590e-02,
          3.49712217e-02,   7.81862769e-02,   6.57132438e-02,
          5.20831870e-02,   4.30450834e-02,   5.20459330e-02,
          4.85885449e-02,   3.93778339e-02,   4.66609073e-02,
          6.26763295e-02,   3.48087274e-02,   6.62636859e-02,
          6.69030471e-02,   6.70212846e-02,   4.76158930e-02,
          5.77927898e-02,   5.39516571e-02,   7.13775463e-02,
          6.05443767e-02,   3.43714299e-02,   5.34455412e-02,
          5.35392250e-02,   6.09383197e-02,   6.56116532e-02,
          3.35517575e-02,   6.59365561e-02,   5.14889495e-02,
          7.51099280e-02,   7.15638450e-02,   6.10135241e-02,
          5.53241060e-02]])]Hidden bias: [array([-0.10367865, -0.07176162, -0.11199504, -0.1077736 , -0.09631561,
       -0.08956916, -0.09518281, -0.11022904, -0.08375258, -0.03907726,
       -0.11330678, -0.08946228, -0.11727338, -0.11130985, -0.10099514,
       -0.11694665, -0.03914478,  0.03735718, -0.10581946, -0.09783833,
       -0.098881  , -0.08615621, -0.08413098, -0.10044993, -0.11347974,
       -0.06726944, -0.09261973, -0.10359709, -0.10832   , -0.11000672,
       -0.11430118, -0.05235008, -0.10299337, -0.10405414, -0.10824367,
       -0.06278587, -0.10128664, -0.08851756, -0.06891301, -0.10476955,
       -0.10620371, -0.09011542, -0.07312443, -0.11431763, -0.1008734 ,
       -0.06798932, -0.05542649,  0.01912483, -0.10662712, -0.10873823,
       -0.06286324, -0.26161599, -0.09757193, -0.10235732, -0.11273266,
       -0.1043735 , -0.10441159, -0.09695661, -0.09634351, -0.09084217,
       -0.06578596, -0.0923136 , -0.05056698, -0.10033776, -0.1150923 ,
       -0.11774557, -0.10417007, -0.1279153 , -0.09391562, -0.07524531,
       -0.12282515, -0.10500263, -0.09775171, -0.08379407, -0.0847016 ,
       -0.08747756, -0.08466766, -0.09042879, -0.10559901, -0.07933033,
       -0.10151303, -0.10993036, -0.10320058, -0.08657247, -0.09027205,
       -0.0929937 , -0.1110237 , -0.10819107, -0.07437214, -0.09272127,
       -0.09879984, -0.09581167, -0.10739724, -0.08023408, -0.10836509,
       -0.08260516, -0.11846103, -0.11519963, -0.109417  , -0.10127424])]Output weights: [[  4.37018261e-03   4.79994779e-03]
 [ -2.31088477e-03  -3.69083850e-02]
 [ -7.09499219e-03   2.50792874e-02]
 [ -6.15707463e-03   2.27763074e-02]
 [ -6.27764878e-03   3.44509446e-03]
 [ -2.02443564e-02  -1.47703071e-03]
 [ -3.24412821e-03   8.51924037e-03]
 [  2.94165848e-03   1.71721051e-02]
 [ -3.05366929e-03  -2.14227181e-02]
 [ -1.54634123e-03  -9.05744320e-02]
 [ -3.79512536e-03   2.45736739e-02]
 [ -1.57069294e-02   2.68110694e-03]
 [  1.03720478e-02   2.94226072e-02]
 [ -6.11923347e-03   2.95054135e-02]
 [ -7.80667163e-03   1.29263197e-02]
 [ -7.77432841e-03   2.89199236e-02]
 [ -6.54360098e-03  -8.00481244e-02]
 [  7.30474504e-01   4.57253792e-01]
 [ -4.77894022e-03   1.59725093e-02]
 [ -2.83631628e-03  -2.59249893e-03]
 [ -1.17948768e-02   1.04438471e-02]
 [ -7.47963426e-03  -1.21943773e-02]
 [ -2.28481503e-02  -1.01964441e-02]
 [ -2.02778954e-02   7.02171993e-03]
 [ -4.34850862e-03   2.94891165e-02]
 [  1.03370280e-02  -4.23805401e-02]
 [ -3.73092892e-02  -9.00597543e-03]
 [ -1.11099885e-02   1.26465461e-02]
 [ -4.61161339e-03   1.83138147e-02]
 [  1.77199574e-03   1.87747627e-02]
 [ -3.65585900e-03   3.02700182e-02]
 [  4.55497497e-03  -7.90730521e-02]
 [ -2.29750962e-02   1.05805029e-02]
 [ -9.21102458e-03   1.64599870e-02]
 [  7.14430363e-04   1.40888008e-02]
 [  8.17327096e-03  -5.68773528e-02]
 [ -8.46450421e-03   1.28980207e-02]
 [ -7.41415950e-03  -1.13691669e-02]
 [  1.99653368e-03  -3.63353898e-02]
 [  4.43329564e-03   1.75891578e-02]
 [ -5.94444431e-04   1.94728084e-02]
 [  1.17497299e-02  -8.55628127e-03]
 [  3.66034566e-03  -4.03921593e-02]
 [  5.06700166e-03   3.14965294e-02]
 [ -7.89188789e-03   8.28977681e-03]
 [ -3.28499219e-03  -4.17124854e-02]
 [  1.01495428e-02  -6.39774322e-02]
 [  6.83304427e-01  -3.12612271e-01]
 [ -8.07514224e-03   2.22735977e-02]
 [  3.65696558e-03   1.75118653e-02]
 [  1.62837832e-03  -5.96777922e-02]
 [ -1.94262274e-01   5.84134980e-01]
 [ -7.49117613e-03   3.67438977e-03]
 [ -2.54384402e-02   1.04439437e-02]
 [ -3.08805668e-03   3.20145491e-02]
 [ -5.50353804e-03   1.09528005e-02]
 [ -2.47120152e-02   8.09640757e-03]
 [ -2.91115993e-02  -1.43958675e-03]
 [ -6.17782017e-03   3.26185092e-03]
 [ -2.84313854e-03  -1.15431496e-02]
 [ -3.90035681e-04  -5.20067985e-02]
 [ -1.59765592e-02   5.52887787e-03]
 [ -5.13935984e-03  -6.60951687e-02]
 [ -1.23567214e-02   1.40305511e-02]
 [  7.16562089e-03   2.79344392e-02]
 [ -5.05853049e-03   3.80102779e-02]
 [ -9.10157162e-03   1.50135272e-02]
 [  6.04093290e-03   4.62233958e-02]
 [ -8.81915279e-03   2.68109021e-03]
 [  3.00517676e-03  -3.34184607e-02]
 [  3.41837444e-04   3.98456280e-02]
 [ -2.64427067e-03   1.63544363e-02]
 [ -7.05111357e-03   1.08947572e-02]
 [ -7.09479883e-03  -1.67802479e-02]
 [ -7.08297401e-03  -2.14211178e-02]
 [ -2.95965539e-03  -1.66929208e-02]
 [  4.32169166e-04  -1.08468201e-02]
 [ -1.03398447e-02  -4.63523214e-03]
 [ -1.14119738e-02   1.81556290e-02]
 [ -1.55875782e-02  -2.04817475e-02]
 [ -6.13339124e-03   1.16650181e-02]
 [  9.83724617e-05   2.27994617e-02]
 [  1.31990118e-03   1.37082814e-02]
 [ -1.07689117e-02  -1.24434563e-02]
 [ -8.66152069e-03  -9.45358972e-03]
 [ -1.80059120e-02   1.03228698e-03]
 [ -1.97921400e-03   2.75092350e-02]
 [ -1.20026156e-02   3.07910533e-02]
 [  9.28092357e-03  -3.01300079e-02]
 [ -1.72056438e-02   1.27884165e-03]
 [ -4.74766685e-03   7.37941391e-03]
 [ -8.64578441e-03   4.13258050e-03]
 [ -1.73632981e-03   1.99113397e-02]
 [ -1.55435343e-02  -1.50285924e-02]
 [ -9.00774995e-03   2.35943092e-02]
 [ -4.39762164e-03  -2.68896903e-02]
 [  3.38676778e-03   3.81023932e-02]
 [  7.03695612e-04   2.76747374e-02]
 [ -4.62849822e-04   2.23792402e-02]
 [ -1.15747854e-02   1.47975260e-02]]Output bias: [-0.43897948  0.14519534]
Value MLP:Hidden weights: [array([[ -3.69799905e+00,  -6.06839864e-01,  -6.19925312e-01,
          7.29804360e+00,   2.29677929e+00,  -1.02145913e-01,
          2.56322272e+00,  -2.31134144e+00,  -1.05856805e+00,
          4.15836792e+00,   5.52193354e+00,  -1.15830368e+01,
          6.10251279e+00,   9.77895017e-02,   4.90166955e+00,
         -2.57006828e+00,   3.74235900e+00,   6.24146749e+00,
         -1.03307802e+01,   2.05482526e+00,   2.14807331e+00,
         -9.20096829e+00,   2.10486396e+01,  -2.14487911e+00,
          1.32745022e+01,   3.33228322e+00,  -3.20863266e+00,
         -8.45401943e+00,   1.20090258e+01,  -5.07872399e+00,
         -2.60187253e+00,   8.87888992e+00,  -7.85513481e+00,
         -3.52887012e+00,   4.34021348e+00,   1.39911747e+01,
          2.52505359e+00,  -7.07419686e-01,   1.07414673e+01,
         -1.13699307e-01,   6.09225523e+00,  -7.88245882e+00,
         -1.52683188e+00,  -1.86615819e+01,   1.53159996e+00,
         -6.46141474e+00,  -2.14869450e+01,  -4.24766606e+00,
          3.50697166e+00,  -4.48576032e+00],
       [  7.77753329e+00,   7.68052586e+00,  -7.71596435e+00,
         -7.92456503e+00,   1.16490653e+01,   7.45025351e+00,
          1.06534204e+01,   8.29519647e+00,   3.87159608e+00,
         -6.70507062e+00,  -8.17923618e+00,   4.07541358e+00,
         -7.16975295e+00,  -2.62841707e+00,   4.32792892e+00,
          8.42232228e+00,  -4.50817888e+00,  -1.24016326e+00,
          7.46917866e+00,  -7.95962356e-01,   4.34425976e-01,
         -2.60017122e+00,   4.84594201e+00,   5.02900800e+00,
         -8.58738523e-01,  -8.13391779e+00,  -7.32170896e+00,
          3.25678680e+00,   1.40967092e+01,   1.01577674e+01,
         -3.76890646e+00,   5.43681090e-01,   4.52611992e+00,
         -1.00038045e+01,   4.50116736e+00,   4.57708273e+00,
          4.14086401e+00,   4.32868085e+00,   8.62885949e+00,
          2.96205578e+00,   1.11434405e+00,  -5.50262372e-04,
         -2.52645628e+00,  -1.97387885e+00,   3.38646695e+00,
          1.42831070e-01,   3.01107411e+00,   6.43053478e+00,
         -2.26439265e+00,   1.06919008e+00],
       [ -9.35359155e+00,  -2.08286917e+01,   1.13503808e+01,
          4.21830475e+01,   1.38588789e+01,   7.63811299e+00,
          2.55212850e+00,  -1.92657885e+01,  -7.21803915e+00,
          1.44146237e+00,  -5.59518815e+00,   1.18976893e+01,
          9.53576090e+00,  -7.08103426e-01,   1.79321114e+01,
          5.91898357e+00,  -3.89890294e+00,   4.14662596e+00,
          3.87574875e+00,   2.12489743e+01,  -7.28242915e+00,
          1.23401372e+00,   1.16033909e+01,   2.80199235e+01,
         -5.13001406e+00,   3.04242735e+00,  -6.95789019e+00,
         -2.96239560e+01,   2.34931302e+01,  -5.81773121e+00,
         -1.14140642e+00,   4.24651424e+01,  -2.88715604e+01,
         -3.40125293e+00,  -2.97720732e+01,   2.58695820e+01,
         -1.54727070e+01,  -1.53430578e+01,   1.08516789e+01,
         -6.83448639e+00,   2.26009822e-01,   1.67334748e+01,
         -1.83808828e+01,  -1.78733184e+01,  -7.31576759e+00,
         -4.08414259e+01,  -6.91015857e+00,  -1.69086288e+01,
         -3.68401641e+00,  -3.71261463e+00],
       [  1.02073171e+01,   4.87361625e+00,   1.24554462e+01,
          1.49537488e+01,  -5.36514687e-01,   1.55401838e+01,
          3.03587756e+00,   1.13652544e+01,   1.21779787e+01,
          2.48078893e+00,  -8.49436047e+00,   1.43507372e+01,
          1.44003521e+01,   3.11378122e+00,   8.17859973e+00,
          5.36459684e+00,  -2.66652434e+00,   1.67140530e+01,
          2.39403870e+00,   1.16374120e+01,   1.91608385e-01,
          1.41330203e+00,   3.91468060e+00,  -2.44781109e+01,
          5.62512640e-01,   1.11973363e+01,  -5.98166125e+00,
         -2.61942575e+00,  -1.29565059e+01,  -3.99289364e+00,
          7.83754328e+00,   8.26439850e+00,   8.08798545e+00,
          6.09824041e+00,   3.56540329e+00,   6.35239270e+00,
         -4.47276547e+00,   1.40735725e+01,  -3.75863939e+00,
         -2.35666015e+00,   6.00524753e+00,  -2.02509481e+01,
         -6.23749930e+00,   4.14383548e+00,   1.95928210e+01,
          9.17905696e+00,   4.52238975e-01,  -3.55046049e+00,
         -7.84139922e+00,   5.10341413e+00],
       [  1.01079260e+01,  -1.28902119e+01,  -9.56636639e+00,
         -2.29196538e+01,  -2.12079391e+01,  -2.14825224e+01,
          2.41400793e+01,  -2.01446860e-01,   1.81716649e+01,
         -4.22118820e-01,   3.82426382e+00,  -2.87618691e+01,
          5.22760767e+00,  -8.11027597e-01,   8.62534493e+00,
          1.28293804e+01,  -5.88742346e+00,   7.59570421e+00,
         -2.26907262e+01,  -1.95262418e+01,   2.42292447e+01,
         -2.21926414e+01,   2.08855354e+01,   2.08365540e+01,
          8.12664985e+00,  -2.85291050e+00,  -7.64161756e+00,
          3.71927820e+01,  -9.96093170e+01,  -1.07591043e+01,
          3.20387778e+00,  -5.51072115e+01,   1.31696516e+01,
         -3.96189216e+00,   1.69933348e+01,  -3.11519828e+00,
          5.01888201e+01,  -3.56858680e+00,   8.25757487e+00,
          2.89164041e+01,  -6.21144880e+00,   2.04468355e+01,
         -3.91158796e+00,  -1.87833127e+01,   2.80134326e+00,
         -2.16954344e+00,  -2.02902185e+01,  -2.40959702e+01,
          2.37677517e+01,   1.31577349e+01],
       [ -2.42308489e+01,  -2.81249907e+01,   2.92139693e+01,
          2.74919783e+01,   1.02894225e+01,  -1.48923048e+01,
          3.06886211e+01,  -1.50351140e+01,   1.83297017e+01,
         -2.90616980e-01,  -4.32747625e+00,   4.30425013e+00,
         -1.33591274e+00,  -2.96077804e-01,   1.67124144e+01,
          3.69186221e+01,  -2.13335488e+01,   2.96620555e+01,
         -7.70229062e+00,   1.14249032e+01,  -9.91000904e+00,
         -1.01088986e+01,   3.11864707e+00,   2.72441182e+01,
         -1.97981251e+01,   5.20573608e+00,  -3.34679951e+01,
         -5.35419315e+01,   3.82659174e-01,  -2.57875103e+01,
         -3.39941604e+00,  -2.03734179e+01,   1.13049500e+00,
         -4.33291809e+01,  -1.54326483e+01,  -7.14219971e+00,
         -2.74484005e+00,  -9.45324557e+00,   2.51010732e+01,
          1.11745079e+01,  -2.03309853e+01,   3.90050223e+01,
         -1.55737778e+01,  -1.06648562e+01,  -9.88972254e+00,
         -3.19712314e+01,  -1.09419528e+01,  -7.26582443e+00,
          1.39385587e+01,  -2.59105982e+01],
       [ -8.80290612e+00,  -7.66394108e+00,  -6.98658766e+00,
         -1.25478020e+00,  -7.15342307e+00,  -1.15241891e+01,
          5.98364031e+00,  -1.24879467e+01,  -1.28082589e+01,
         -7.51159833e-01,   8.31619710e+00,   7.61393560e+00,
         -1.39921134e+00,  -2.04538337e+00,  -5.67328936e+00,
          2.87979827e+00,  -2.20333179e+01,  -2.52842916e+00,
         -1.12781139e+00,  -5.81367660e+00,  -8.33168636e+00,
         -3.21792927e+00,  -1.25681063e+01,   6.91825776e+00,
         -5.11704499e+00,  -3.37565489e+00,   1.61510786e+00,
         -1.48496262e+01,  -1.16658480e+01,  -1.61067987e+01,
         -1.13947469e+01,   2.21033012e+01,  -5.54481054e+00,
          2.09782780e+00,  -6.85069773e+00,  -4.79168148e+00,
         -1.53511167e+01,  -1.23242255e+01,  -1.23348316e+01,
         -7.59502127e+00,  -5.14140173e+00,   1.11090223e+01,
         -1.07761093e+01,  -5.33325953e+00,  -7.27030503e+00,
         -1.15021874e+01,   2.67802318e+00,  -1.30538061e-01,
          2.52771271e+00,  -1.82659617e+01],
       [ -1.86863760e+00,   1.14063817e+00,   4.16186397e-01,
         -1.13777997e+01,  -1.29687057e+01,  -1.15361347e+01,
         -7.80593765e+00,  -3.34301478e+00,  -4.71586212e+00,
         -1.18845039e+00,   1.34126017e+01,  -1.75572469e+01,
         -4.12703275e+00,  -4.02727980e+00,  -1.34526169e+01,
         -2.43618716e-01,   6.63518605e-01,   1.10544150e+00,
          8.78251841e+00,  -3.84387396e+00,   2.41882346e+00,
         -1.11245399e+01,  -6.71225003e-01,  -2.33524520e+00,
          4.70075639e+00,  -8.00788896e+00,   5.94617024e+00,
          4.88470983e+00,  -1.08582803e+01,  -1.96363405e+00,
         -7.86735504e+00,  -3.66504646e+00,  -8.22268070e+00,
          2.67209807e+00,   1.15814356e+01,  -1.77294366e+00,
         -6.77727272e-02,  -1.25728379e+01,  -1.52744920e+01,
         -2.35231357e-01,   2.15226537e+01,  -4.22876573e+00,
         -8.20998946e-02,   1.79873906e+00,  -3.40090679e+00,
          9.05840502e+00,  -3.00531250e+00,  -1.08051534e+01,
         -1.18917387e+01,  -7.22448886e+00]])]Hidden bias: [array([-25.18037222, -15.1401335 , -17.28919148, -17.78872537,
        -7.57127932, -18.72081663,   0.17020915, -21.95018507,
       -19.07753086, -13.58441923,  24.41353066,  -6.05900212,
       -21.74271438, -10.80762507, -13.63186438,  14.40367526,
         8.9144409 , -16.08739157,   3.86073728, -10.64537781,
         8.49146814,  -3.4373177 ,  -1.90704944,  15.8869587 ,
       -13.74759682, -23.55445703,  12.49585581,  -3.79044418,
       -11.63738488,   3.53732343, -25.33254196,  -2.20686201,
       -13.35782895, -14.17310019,   1.76994867,  -8.91980247,
        -2.39000468, -20.50553653,  -5.38549605, -12.57529562,
        -7.29553408,  18.8795669 ,   6.72022139,   4.12268284,
       -24.09161494,  -7.5660422 ,   7.10626068,  -4.96792054,
         5.32256631, -18.08708354])]Output weights: [[ -5.37051097e+00]
 [  1.07145683e+00]
 [  3.42383647e+00]
 [  2.96144263e-01]
 [  2.14251075e+00]
 [ -1.00346679e+01]
 [ -6.09789216e-03]
 [ -2.27948054e+00]
 [ -1.07571260e+01]
 [  3.05817800e+00]
 [  1.34714121e+00]
 [  2.29066096e+00]
 [  5.38664117e+00]
 [  1.23038334e+01]
 [ -2.27820396e+00]
 [  4.56174010e-01]
 [  6.23980337e+00]
 [  2.11473854e+00]
 [  9.18912582e-01]
 [  7.07455324e+00]
 [ -3.48352489e+00]
 [  3.44528996e+00]
 [ -2.59610031e+00]
 [  3.12701509e-01]
 [  3.35413763e+00]
 [  1.14324051e+00]
 [  4.99514938e+00]
 [  4.08101538e-01]
 [  4.23668312e+00]
 [  1.39546551e+00]
 [  2.24174181e+00]
 [  2.54986003e+00]
 [ -4.38129885e+00]
 [  1.08749209e+00]
 [ -2.41493645e+00]
 [ -1.22311998e+00]
 [ -9.07850927e-01]
 [  6.99431266e+00]
 [ -2.85570330e+00]
 [ -1.99829122e+00]
 [ -2.48075980e+00]
 [  2.57287479e+00]
 [  1.92364390e+00]
 [  1.43511883e+00]
 [  8.40560766e+00]
 [  2.55601806e+00]
 [  2.49990136e+00]
 [  1.49800371e+00]
 [  1.96087563e+00]
 [  5.01876396e+00]]Output bias: [-32.12388196]