Action MLP:Hidden weights: [array([[  3.23760805e-01,  -4.62338788e-01,   4.26088501e-01,
          9.00630591e-04,   4.95907262e-01,  -2.75044381e-02,
         -9.08233167e-02,  -3.30980912e-01,  -1.58334609e-01,
          3.87614815e-01,   2.59709717e-01,   3.94805679e-01,
         -2.46261407e-01,   1.37529277e-01,  -4.77968716e-01,
          1.64296277e-01,   4.44441208e-02,   5.03683095e-01,
         -8.26019273e-02,  -3.27604765e-01,   3.35527963e-01,
         -4.92902918e-01,  -1.77883184e-01,   5.02406016e-02,
          1.14484840e-02,   3.50054473e-02,   2.41044858e-01,
         -1.02469689e-01,  -2.57437352e-01,   3.50687483e-02,
          5.06753262e-01,  -3.78415912e-01,  -3.42944900e-01,
         -2.90553804e-01,  -1.77857407e-01,   2.30359609e-01,
          3.55467439e-01,   2.34332073e-01,  -4.61205435e-01,
          3.25207976e-01,  -1.96911088e-01,   1.01382860e-01,
          4.02190174e-01,  -5.57929329e-02,   2.12133976e-01,
          4.54776011e-01,   2.92096698e-01,  -2.32610135e-01,
          2.27612389e-01,  -5.08326578e-02],
       [  4.65885998e-01,   5.82621410e-01,   5.77148421e-01,
          2.83901607e-01,  -3.05050075e-01,  -7.79930216e-02,
          6.71432638e-01,   5.12695707e-01,   6.76178636e-01,
          6.88389676e-01,   5.96624423e-01,   5.45230799e-02,
          2.93357806e-01,   9.31825257e-02,   7.42008981e-02,
          8.02590050e-01,   8.45769772e-01,  -2.19295909e-01,
          7.31560692e-01,   5.52037607e-01,   7.00518619e-01,
          4.63411330e-01,   4.49032030e-02,   1.46779421e-01,
          3.58389943e-01,   1.98601449e-01,  -3.01038789e-01,
          2.30161216e-01,   1.37301721e-01,   4.53904290e-01,
          4.31584687e-01,  -1.89237166e-01,   2.16486568e-01,
         -1.06414635e-01,  -3.00194435e-02,   4.57697212e-01,
          5.60939474e-01,   3.47622511e-01,   3.42543908e-01,
         -4.22482640e-01,  -3.95506301e-01,  -5.34778079e-01,
          5.64452185e-01,   5.23006426e-01,   3.61603417e-01,
          8.97699344e-02,   1.25575721e-01,   5.93739683e-01,
         -2.62157457e-01,   7.09828341e-01],
       [ -7.79570001e-02,   1.66937247e-01,  -2.02764329e-02,
          5.31906209e-01,  -1.23088651e-01,   1.21575132e-01,
          1.09691621e-02,   3.39525994e-01,   4.50132921e-01,
         -9.52947792e-02,  -6.89915844e-02,  -4.93620746e-02,
          2.29440476e-01,   4.63483910e-01,   1.54894035e-01,
         -3.10835857e-01,   2.09633933e-01,   3.53656403e-01,
          2.22791176e-01,  -3.66766768e-01,  -3.87779129e-01,
          3.97832539e-01,   2.24418592e-01,  -1.40624601e-01,
          3.01012505e-01,  -1.36765692e-01,   2.68014199e-01,
         -4.41763124e-01,   1.79349435e-01,   1.29621868e-01,
         -3.80564990e-01,   4.71404195e-01,   4.51841186e-01,
         -1.03150988e-01,   3.91097717e-02,   2.88428574e-02,
          3.15425686e-01,   1.30574129e-01,   3.64454802e-01,
          3.09258767e-01,   9.94846472e-02,   1.84816057e-01,
          9.32915155e-02,  -8.52034872e-02,   3.51977081e-01,
         -1.45553994e-01,   2.36999937e-01,   3.94975552e-01,
         -1.11648794e-02,  -4.62049407e-03],
       [ -4.29602266e-01,  -4.11338840e-01,  -5.45556089e-01,
         -7.96456234e-01,  -3.87426890e-01,  -9.93991206e-02,
         -3.84042815e-01,  -7.14046152e-02,   5.13169778e-01,
         -1.93029385e-01,  -2.84264360e-02,   8.41292768e-02,
          1.83721953e-01,  -3.80789565e-01,   2.41203776e-02,
          2.61994969e-01,  -3.74813076e-01,   4.06954213e-02,
          1.08838175e-01,   2.68754446e-01,  -7.76254587e-01,
         -6.15711943e-01,   6.60092690e-02,  -7.09631638e-01,
          3.68596502e-01,   2.16862548e-01,  -3.43474307e-02,
          2.68695201e-03,  -9.93441217e-02,  -8.14963971e-01,
          2.24367179e-01,  -3.79906535e-01,  -3.55951107e-01,
          3.82172538e-01,  -4.59060663e-01,  -3.14282759e-01,
         -1.01683529e+00,  -3.54987202e-01,  -3.34897648e-01,
          3.37354846e-01,  -1.94327179e-02,  -1.95923978e-01,
          1.25524355e-01,  -6.03448581e-01,   1.51571869e-01,
         -5.24355134e-01,   3.10231334e-01,  -4.06089766e-01,
         -1.42997762e-01,  -1.32148657e-01],
       [ -3.55660089e-01,  -7.18249252e-01,   3.49935138e-01,
          1.11774469e-01,   3.65264418e-01,  -4.41525745e-02,
          3.85555260e-01,  -4.71534071e-01,  -5.57832730e-01,
         -4.59363473e-01,  -2.98675393e-01,  -2.97104235e-01,
         -4.87961634e-01,  -7.90201409e-02,  -1.61438114e-02,
         -4.58207871e-01,   3.75947062e-01,  -6.25032268e-02,
         -4.35242780e-02,  -1.32573092e-01,   1.72171834e-01,
          3.17370915e-01,   3.04179176e-01,  -3.05671971e-01,
         -4.28783141e-01,   1.69847278e-01,  -3.54353143e-01,
         -3.13405721e-01,   6.76800731e-02,  -2.21878808e-01,
          5.62840464e-01,   2.90156786e-01,   1.25857343e-01,
         -1.14026969e-01,   4.13920316e-01,   1.81415653e-01,
         -2.31692221e-02,   2.02040206e-01,  -4.72308740e-01,
         -2.63628310e-01,  -1.68366717e-01,  -7.26732030e-02,
         -3.99558450e-01,  -3.83228469e-01,  -3.04382870e-01,
         -4.36430943e-01,   4.70195394e-02,  -2.13134682e-01,
         -1.24671924e-01,  -2.09041536e-01],
       [ -3.67541834e-01,  -1.28624637e+00,  -3.08079242e-02,
         -2.25182516e+00,  -7.45808112e-01,  -2.30195531e-01,
          5.82137264e-02,  -3.36074785e-01,  -5.61512955e-01,
          6.08876508e-01,   1.44126719e-01,   2.63688328e-01,
         -2.67923071e-02,   1.68703438e-01,   2.59062013e-01,
          4.31395746e-01,   6.69731030e-01,   2.50707087e-01,
          8.31413693e-01,   2.79996147e-01,   2.69081959e-01,
          2.22954544e-01,   3.12918176e-01,  -3.86794312e-01,
         -1.97361873e-01,  -7.46960857e-02,  -2.05028038e-01,
         -1.04951983e-01,   3.96947210e-01,  -1.53296724e-01,
          4.81087620e-01,  -4.97047838e-01,  -4.62348968e-02,
         -5.87386035e-02,  -5.12306079e-01,   5.60913091e-01,
         -2.15057719e-01,   3.39234882e-01,   5.04678085e-02,
          5.63578491e-01,   4.63153252e-01,  -7.41129654e-01,
          2.00927619e-01,   3.36244975e-01,  -9.36550963e-02,
          2.75148068e-01,  -4.49218882e-01,   2.40488909e-01,
          5.25077505e-01,   6.63923378e-01],
       [ -4.72794695e-01,  -2.20189930e-01,   1.35969496e-01,
         -3.99235027e-01,  -2.98917903e-01,  -1.16230024e-01,
         -3.74499900e-01,  -3.48300166e-01,  -1.15955044e-01,
         -4.31475899e-01,  -3.73850093e-01,  -4.61739800e-01,
          4.05116329e-01,  -4.83514569e-01,  -3.60979492e-01,
          3.87186371e-01,  -1.90393369e-01,  -4.48625264e-01,
         -4.26488727e-01,  -1.06285939e-01,  -2.62209090e-01,
          5.16714777e-01,  -1.99992148e-02,   3.42529046e-01,
         -1.94931957e-01,   9.56248792e-02,   3.28592194e-01,
         -2.15579063e-01,  -3.28381722e-01,   4.12955283e-01,
         -3.33723362e-01,   3.27385563e-01,  -2.40793103e-01,
         -2.19913972e-01,  -2.69720952e-01,   2.36345352e-01,
          4.46513875e-01,   3.03928768e-01,   2.72463048e-01,
          4.08696597e-01,  -2.43330086e-01,   4.72111700e-01,
         -4.14992415e-01,  -1.66283147e-01,  -2.49321109e-01,
         -1.13366969e-02,  -2.96590846e-01,  -2.64711263e-01,
          3.73685968e-02,  -2.79841882e-01],
       [ -2.20605003e-01,  -2.74860824e-01,   3.72751021e-02,
         -4.23643747e-01,   3.11677408e-01,  -1.06980192e-02,
         -3.00129855e-01,  -1.72619881e-01,  -1.98414200e-01,
         -1.04131709e-02,   8.61830571e-02,   2.07536126e-02,
          1.06986813e-01,  -3.31775874e-01,   1.37961822e-01,
          3.85247495e-01,  -2.75447643e-01,   4.05140378e-01,
         -2.70922020e-01,  -5.34018675e-01,  -4.33417605e-01,
          3.12192818e-01,   3.08460442e-01,  -3.42527779e-01,
         -3.59155142e-01,  -3.54394475e-02,  -2.54477459e-01,
          4.78249725e-01,   1.45957831e-01,   6.69823829e-03,
         -2.10197361e-01,   7.50023340e-02,   4.51564748e-01,
          1.73081341e-01,   5.15313572e-01,   4.26564160e-01,
         -3.04479185e-02,  -3.59214968e-01,   9.29927382e-03,
          3.24200105e-01,   3.42832211e-01,   1.06875319e-01,
          2.01224034e-02,  -3.30633358e-01,   6.28873131e-02,
          5.04782979e-01,   1.62078740e-01,  -4.35110191e-01,
         -3.81539737e-02,   2.01435522e-01]])]Hidden bias: [array([-0.64580793, -0.51521077, -0.67767989, -0.37958039, -0.90171994,
       -0.60529954, -0.69477854, -0.65266158, -0.7072484 , -0.71617448,
       -0.64816138, -0.73349188, -0.6810721 , -0.60175194, -0.61323856,
       -0.6679894 , -0.83181769, -0.64527866, -0.65671435, -0.60895534,
       -0.71696698, -0.69032346, -0.75515351, -0.60001152, -0.5727477 ,
       -0.62337362, -0.76093573, -0.5999118 , -0.76819963, -0.64479155,
       -0.52171535, -0.65032051, -0.6205865 , -0.61326889, -0.72679366,
       -0.59259645, -0.74036276, -0.63535975, -0.59606343, -0.80335102,
       -0.65705728, -0.96228002, -0.65288436, -0.68802818, -0.70079484,
       -0.57206353, -0.60699851, -0.68856454, -0.70420913, -0.67294272])]Output weights: [[  3.14861541e-01  -1.33724566e-01]
 [  6.03501680e-02  -6.76900997e-01]
 [  2.43205919e-01   1.17841350e-01]
 [  2.93085992e-01  -1.10030828e+00]
 [  4.16567212e-01   7.73901003e-01]
 [  1.07359680e-01   2.84617226e-02]
 [  1.34389569e-01   6.57819170e-02]
 [ -1.09420118e-01  -2.51589550e-01]
 [ -4.09750272e-01  -4.65568206e-01]
 [  1.47794420e-01   4.04566223e-01]
 [  1.12257576e-01   7.53727639e-02]
 [  2.11030147e-01   3.84309989e-01]
 [ -3.17798351e-01   1.25803054e-01]
 [  1.37174898e-01   3.61809682e-02]
 [  9.22903340e-02  -1.52891695e-01]
 [ -7.58392168e-02   2.04162042e-01]
 [  2.72083939e-01   4.45321474e-01]
 [ -9.66853327e-02   1.67090793e-02]
 [  2.33526684e-02   4.76134943e-01]
 [ -1.42946838e-01   1.25698327e-01]
 [  4.68453457e-01   1.10532619e-01]
 [  2.59614820e-01  -2.53339982e-01]
 [ -2.49301309e-01  -3.01198086e-01]
 [  4.82079553e-01  -2.42044568e-02]
 [ -3.57260060e-01  -1.59284142e-01]
 [  9.64127709e-04  -6.93831016e-02]
 [ -2.16516293e-01   2.02306993e-01]
 [ -8.30337181e-02   7.71028601e-02]
 [  2.87118568e-01  -2.69029227e-01]
 [  4.13662662e-01  -8.37390525e-03]
 [ -1.05468816e-01   3.75690438e-01]
 [ -1.27444615e-01   1.80852120e-01]
 [  4.47076830e-02   1.10041538e-01]
 [ -3.52942290e-01  -6.16683872e-02]
 [  3.17147133e-01   3.88682965e-01]
 [  3.01071473e-01   1.39132562e-01]
 [  5.53371490e-01  -3.48113307e-02]
 [  5.26031178e-02   3.89816557e-02]
 [  8.41475923e-02  -3.56168662e-01]
 [  6.14536359e-02  -3.58676750e-01]
 [ -2.91840737e-01  -3.47619132e-01]
 [ -1.07739572e-01   7.04904881e-01]
 [ -5.75672693e-02   1.08597809e-01]
 [  3.18235778e-01   1.34616605e-01]
 [ -3.16884778e-01  -1.82973085e-01]
 [  4.23050974e-01   2.83815846e-02]
 [ -2.55888743e-01   1.85668093e-01]
 [  1.38120185e-01   7.48217858e-02]
 [  2.83241077e-01  -2.27474378e-01]
 [  1.44818953e-01   2.44600119e-01]]Output bias: [ 0.98803283  0.97849833]
Value MLP:Hidden weights: [array([[ -6.01291442e-01,  -2.13185342e+00,  -4.83234838e-01,
         -7.25972768e+00,  -9.19696004e+00,  -7.43400861e+00,
          6.53282957e+00,  -6.61788612e+00,  -1.27775351e+01,
          8.16808671e-01,  -4.83873792e+00,  -1.61375388e-01,
         -7.56792685e-01,   4.75491974e+00,  -7.86707732e-01,
         -5.03713913e+00,  -1.94091545e+00,  -9.88025191e-01,
          2.85913456e+00,   6.16265335e-01,  -1.78208073e-01,
          7.95915529e+00,   5.40952574e+00,  -7.90211149e+00,
         -7.04386273e-01,  -2.83045234e+00,  -5.97777298e+00,
          5.01137918e+00,  -9.42193478e-01,  -7.93295985e-02,
          9.20594411e+00,  -3.74386824e+00,   2.96446323e-01,
         -3.38676023e-01,  -8.14138646e+00,  -6.17621373e+00,
          9.89847263e+00,   1.36719886e+01,  -2.95738589e+00,
          9.13237712e-01,  -1.96121484e+00,   3.96392107e+00,
          3.85877471e-02,  -1.02393226e+00,   2.42896094e-01,
          8.42201325e+00,  -8.11352169e-01,  -6.02703708e-01,
         -5.98711553e+00,   6.10347152e+00],
       [ -2.49345620e+00,  -7.29582073e+00,  -4.38097185e+00,
          7.84081438e-01,  -3.24856183e+00,   6.46131365e+00,
         -4.96581824e+00,   2.47229653e+00,   5.62438588e-01,
         -7.26159609e+00,  -6.66281347e+00,  -1.99030437e+00,
          5.79773767e+00,  -1.48846377e+00,  -1.70215183e+00,
          1.17276186e+00,  -3.17774170e+00,  -3.80472869e+00,
          1.63053715e+00,   4.95523309e-01,  -1.35791896e+00,
          8.56595850e-01,  -8.55200725e-01,   1.39250602e-01,
         -5.39026752e+00,  -2.86722497e+00,  -4.09177768e+00,
         -2.26242962e+00,  -1.43964202e+00,  -4.96492051e+00,
         -4.47048102e-01,  -6.35566708e+00,  -1.75299306e+00,
         -5.70297423e+00,  -3.68588499e+00,   2.36221225e+00,
          2.27092336e+00,  -9.93285549e+00,   1.36857880e+00,
         -5.60913949e+00,  -5.09771911e+00,  -4.52327012e+00,
         -7.46694265e+00,  -3.60934827e+00,  -1.11410915e+00,
         -1.11553961e+00,  -3.91106236e+00,  -2.26618632e+00,
         -4.89715529e+00,   5.25059247e+00],
       [ -1.78995354e-01,  -1.04680156e+01,   2.77418141e+00,
         -8.26688126e+00,  -8.81686615e+00,  -3.78415490e+00,
          1.06139010e+01,  -7.33736000e+00,  -7.75187778e+00,
          3.24048990e+00,   1.53725732e+00,   8.12075721e-01,
          2.91635960e+00,   8.42047356e+00,  -8.08371385e-01,
          6.48718915e+00,  -1.25313815e+00,   6.89761988e-02,
          3.07888026e+00,   1.55387993e+01,  -4.72213639e-02,
          9.52148089e+00,   8.71165703e+00,  -2.60629262e+00,
          6.60712971e-01,  -1.13394626e+01,  -7.47092379e+00,
          3.78109892e+00,   3.06502905e-01,   3.50268885e+00,
          6.60773659e+00,  -7.90658388e+00,   2.04673563e-02,
          5.96713076e-01,  -6.95748202e+00,  -2.25391246e+00,
          4.83653781e+00,   3.31468873e+01,  -6.62095689e+00,
          3.94965088e+00,  -2.39383568e-01,   6.18006550e+00,
          4.91888089e+00,  -5.83835428e-01,   1.91930671e+00,
          1.75546471e+01,   4.26900099e-01,   1.45022641e+00,
         -1.10169804e+01,   1.30719080e+01],
       [  5.83580417e+00,  -9.19800145e+00,   6.61108520e+00,
          1.12412342e+00,  -4.20893036e+00,  -5.28596432e+00,
         -4.51066139e+00,  -3.71660125e+00,  -4.91190456e+00,
          9.52522168e+00,  -8.51096067e+00,   2.96401379e+00,
         -1.13677041e+01,  -7.17413400e+00,   4.44156562e+00,
          3.60419881e-01,   4.45406964e+00,   6.38793492e+00,
         -2.45985139e+00,   2.55697539e+00,   1.46574511e+00,
         -3.66675097e-02,   9.87914669e-01,  -3.96987454e+00,
          7.99349616e+00,  -9.69481241e+00,  -1.04524679e+01,
         -1.70552074e+01,   1.54843653e+00,   7.19937200e+00,
         -4.99245417e-01,  -3.44147991e+00,   2.11548587e+00,
          7.64221100e+00,  -9.58007478e+00,  -2.31448486e+00,
          5.90919547e+00,  -2.97778859e+01,  -3.16209745e+00,
          2.74110693e+00,   4.97390597e+00,  -2.34214663e-01,
         -6.42125336e+00,   5.17737833e+00,   6.78214398e+00,
          6.45456240e+00,   4.64155620e+00,   3.76561666e+00,
         -9.77171365e+00,  -8.68633840e-01],
       [ -1.64212237e+00,   1.42259925e+01,  -4.60771786e+00,
         -6.64135852e+00,   2.25089672e+01,   8.84206172e+00,
         -4.23701364e+00,   1.25058345e+01,   1.49961223e+01,
         -1.38000460e+01,   1.17181005e+01,  -1.51873130e+00,
          1.98871246e+00,  -1.26915717e+01,  -1.20566847e+01,
         -5.06990325e+00,  -2.21728568e+00,  -2.14418329e+00,
         -1.01501102e+01,  -2.60483408e-02,  -5.29228987e-01,
         -1.04048082e+01,  -8.74296398e+00,   5.24015162e+00,
         -2.82402287e+00,   8.02906579e+00,   1.08446730e+01,
          4.58020802e+00,  -1.78794774e-01,  -5.22763187e+00,
         -1.31326470e+01,   1.68627208e+01,  -7.79968292e-01,
         -2.20289701e+00,   4.48391341e+00,   5.67305744e+00,
         -6.85921464e+00,  -1.28144083e+01,   1.27109599e+01,
         -5.60288530e+00,  -3.09901328e+00,  -4.98526539e+00,
         -3.10695472e+00,  -1.98166277e+00,  -8.30207365e-01,
         -1.42850450e+01,  -1.68911737e+00,  -1.85320413e+00,
          1.11979260e+01,   4.52739274e+00],
       [  1.51632300e+00,   1.60083142e+00,  -2.21395896e+00,
         -1.52994770e+01,   6.98446168e+00,   8.13900343e+00,
          3.73022901e+00,   2.65467684e+01,   2.63328855e+01,
          1.16801647e+01,   1.45253803e+01,   1.24941384e+00,
          2.58729303e+01,  -3.24101021e+01,  -1.58583123e+01,
         -7.91833534e+00,  -8.70905758e-02,  -7.40446218e-01,
          2.69565380e-01,   4.73418005e+00,   3.84849550e-02,
         -1.55799287e+00,  -2.24448539e+00,   1.19712163e+01,
         -5.77749321e-01,   4.88683017e+00,   2.45000241e+00,
         -2.95450299e+00,   2.75485889e-03,  -2.17403422e+00,
         -1.17295583e+01,  -1.09281718e+01,  -4.44510702e-01,
         -1.29290953e+00,   3.26107163e+00,   1.45134847e+01,
         -4.26457184e+00,  -7.50765341e+01,   5.42712878e+00,
         -2.92045235e+00,  -7.68094986e-01,  -1.28593683e+00,
         -1.40172702e-01,  -7.37662299e-01,   1.18096387e+00,
         -4.17784796e+01,   3.61391132e-01,   2.76575703e+00,
          5.23395600e+00,   1.71381664e+01],
       [ -2.94885527e-01,   1.48928759e+00,  -5.16520801e-02,
         -3.37915188e+00,  -2.21094668e-01,  -1.14670923e+01,
          5.29382853e+00,  -8.17399704e+00,  -1.15108435e+01,
          2.56929579e+00,  -7.49431230e+00,  -1.53218624e+00,
         -7.16943535e+00,   5.04827109e+00,   2.42665695e+00,
         -4.53641704e-01,  -8.15539151e-01,  -1.00863100e+00,
          3.20234257e+00,  -3.29826791e+00,  -3.00629172e-01,
         -3.28259087e-01,  -5.44574695e-01,   1.92580420e+00,
         -1.17551843e-01,   1.18442100e+00,  -1.29933809e+00,
          1.02312976e+00,   1.70069484e-01,  -1.06502481e-01,
          5.10456076e+00,  -2.34322278e+00,  -1.02314104e+00,
          3.18776975e-01,   1.33478093e+00,  -2.78006942e+00,
         -3.06826456e+00,   3.57043123e+00,  -8.21418386e-01,
          1.55484879e+00,   1.35109426e+00,  -8.60108133e-01,
          9.75979136e-01,  -2.28566839e-03,  -5.16428926e-01,
          1.11198262e+00,  -3.29498383e-01,  -1.14156135e+00,
          2.19255166e+00,  -4.80350298e-01],
       [ -3.86899215e+00,   2.78703452e+00,  -8.24678254e-02,
          1.41451234e+01,  -1.91861568e+00,  -8.41192307e+00,
          2.89981880e+00,  -5.76043824e+00,  -7.68625228e+00,
          2.73910094e+00,  -8.35525456e+00,  -9.35877339e-01,
         -5.12813256e+00,   2.01332977e+00,  -7.09791054e-01,
         -7.08952634e+00,  -4.59520442e-01,  -4.55004875e-01,
          6.43908259e+00,  -9.00320953e+00,  -1.30386621e+00,
         -3.54991063e+00,  -2.04931423e+00,   1.51282943e+00,
          2.69916676e-02,   2.16009897e+00,   5.11603795e+00,
          2.11055107e+00,  -1.16416734e-01,  -6.66156168e-03,
          4.07721714e+00,   4.65042650e+00,   7.10775411e-02,
          1.86493193e-03,   4.46721524e+00,   4.20297683e-01,
         -7.10824555e+00,   1.35750556e+01,  -3.62922977e+00,
         -1.11901034e+00,  -5.91353225e-01,  -1.85136483e+00,
         -7.18292367e-01,   4.94141955e-02,  -3.46112272e-01,
         -5.64306633e+00,   9.01605851e-02,  -7.80839496e-01,
          3.80155939e+00,  -9.56250163e+00]])]Hidden bias: [array([-13.14149477,   6.57015074, -10.52277143,   4.71876307,
         0.44933805,   0.6150267 ,  -2.25784515,  -7.6082868 ,
        -8.69633264, -14.23800554,   2.57952753,  -6.94827989,
         0.72510276,   4.26826529,  -6.8681424 , -10.82254358,
        -7.40045012, -11.00970362,   0.7148552 ,  -7.18919358,
        -3.87144095,  -4.50288156,  -7.25813903,   1.26636502,
       -12.93549533,   3.93352819,   5.14164173,  10.08165222,
        -4.02071619, -11.27242449,  -1.18289446,   0.41049134,
        -5.73271646, -11.18189876,   7.12759746,   1.85163596,
        -3.74744433,  23.26397229,   0.65981726,  -9.62594233,
        -9.05697746,  -5.66516984,  -5.92728219,  -9.32110781,
        -8.31588697, -10.23491578,  -9.28194091,  -6.94643187,
         2.37252031,  -0.41899167])]Output weights: [[ -0.28295627]
 [  0.68585458]
 [  2.00887899]
 [ -1.15597369]
 [ -6.37623566]
 [  6.14491178]
 [ -1.65675694]
 [ -4.67126438]
 [-12.15872897]
 [  5.79240071]
 [-11.95976953]
 [ -0.24013036]
 [  0.77347451]
 [  6.58703412]
 [ -2.89297205]
 [  7.03438416]
 [  5.03348323]
 [ -0.15339019]
 [  2.87357519]
 [  7.38543242]
 [  6.56555943]
 [ -3.07104102]
 [  6.52613401]
 [  3.2719395 ]
 [  1.52933934]
 [ -5.16972418]
 [  2.96578919]
 [ -8.56473956]
 [ 12.07193817]
 [  2.14658815]
 [ -6.08779733]
 [ -4.93007984]
 [ 12.68717124]
 [ -1.7632121 ]
 [  1.95756327]
 [  3.2878154 ]
 [ -4.369221  ]
 [ -5.26932075]
 [  5.57557357]
 [ -1.02082   ]
 [ -1.07568567]
 [  3.48034197]
 [  1.16611831]
 [ -1.39213772]
 [ 12.13574872]
 [ -1.16376889]
 [  2.55056682]
 [ -0.01638059]
 [ -1.74651588]
 [ -1.62571484]]Output bias: [-12.64671588]