Action MLP:Hidden weights: [array([[ -1.09464630e-02,  -1.74215247e-02,  -2.37543236e-02,
         -2.60546267e-02,  -3.04484449e-02,  -3.13747920e-02,
         -1.51857302e-02,  -1.97969826e-02,  -2.43057663e-02,
         -2.13216250e-02,  -2.32520845e-02,   3.28538129e-02,
         -2.30789410e-02,  -3.27076686e-02,   2.52268134e-02,
         -2.69629479e-02,  -1.20727253e-02,  -1.16539978e-01,
         -3.22446380e-02,  -2.31217846e-02],
       [ -1.45389160e-01,   9.24973674e-02,   1.01654842e-01,
          1.03161409e-01,   1.00085042e-01,   9.93599940e-02,
          6.29691523e-02,   1.04206799e-01,   9.67731315e-02,
          7.98689474e-02,   1.01929916e-01,   2.88220213e-02,
          8.46778465e-02,   1.00117482e-01,  -8.14617599e-03,
          9.85833146e-02,   6.38756781e-02,  -5.45779166e-01,
          9.93218040e-02,   1.03783752e-01],
       [  2.23857339e-01,  -1.75487496e-02,   1.64281439e-02,
          1.43804617e-02,   2.33250369e-02,   2.40784434e-02,
         -8.10673809e-03,  -4.75815598e-03,  -1.22183363e-02,
         -1.30396676e-02,   1.69720025e-02,   1.06684711e-01,
         -1.40301274e-02,   2.28068598e-02,   1.50182246e-01,
          1.76392416e-02,  -1.13973485e-02,   3.31493965e-01,
          2.67084367e-02,   9.68388229e-03],
       [ -3.26797717e-01,  -2.25525099e-02,  -7.13042216e-02,
         -6.85952441e-02,  -7.52772136e-02,  -7.57646668e-02,
         -2.88074292e-03,  -4.75007161e-02,  -3.05498663e-02,
         -1.32366059e-02,  -7.21693705e-02,  -2.81544993e-01,
         -1.66956120e-02,  -7.49380472e-02,  -3.33741894e-01,
         -6.86067587e-02,  -2.88107908e-03,  -2.00654568e-01,
         -7.90406302e-02,  -6.36812195e-02],
       [ -1.53531036e-01,   2.02651377e-02,   8.42051073e-04,
          1.42150494e-03,   5.39140858e-03,   6.12879909e-03,
          4.54092013e-02,   9.82342807e-04,   1.60266924e-02,
          3.46754986e-02,   6.80934121e-04,  -2.93647046e-01,
          3.02549316e-02,   6.39090142e-03,  -2.88809111e-01,
          2.72525025e-03,   4.08218043e-02,   9.81808985e-02,
          7.44000671e-03,  -4.77215313e-04],
       [  1.00452221e+00,   7.08521953e-02,   2.07186968e-02,
          2.12262481e-02,   1.84788229e-02,   1.78155575e-02,
          1.64034819e-01,   3.19567278e-02,   5.16690521e-02,
          1.07730055e-01,   2.07673201e-02,   7.08255556e-01,
          8.78623401e-02,   1.69054709e-02,   7.94100189e-01,
          2.01442683e-02,   1.60351214e-01,   1.72282002e+00,
          1.60997783e-02,   2.26829501e-02],
       [  8.18940793e-03,   7.11709807e-02,   1.04032165e-01,
          9.86793463e-02,   1.14096303e-01,   1.11429386e-01,
          7.16102860e-02,   8.52512813e-02,   7.54060993e-02,
          8.23799005e-02,   1.06191290e-01,   1.06826116e-02,
          7.66276252e-02,   9.62100818e-02,   1.55129552e-02,
          1.11041363e-01,   7.80744194e-02,  -4.51765959e-02,
          1.04200681e-01,   9.26491820e-02],
       [  1.61190151e-01,   1.00220394e-01,   9.84378587e-02,
          9.80865792e-02,   9.29241120e-02,   9.68784608e-02,
          9.98693986e-02,   8.69348071e-02,   9.72983606e-02,
          1.07654949e-01,   9.66338919e-02,   1.08813153e-01,
          1.06139314e-01,   1.05838007e-01,   1.19945142e-01,
          8.80577332e-02,   9.90671007e-02,   2.32003866e-01,
          1.01475614e-01,   8.88100722e-02]])]Hidden bias: [array([-0.26683429, -0.17373716, -0.1339171 , -0.13640689, -0.13632126,
       -0.13623092, -0.21172771, -0.14239449, -0.1635501 , -0.19392217,
       -0.13402395, -0.14002546, -0.18468956, -0.13715221, -0.1590408 ,
       -0.13180413, -0.20658708, -0.74857897, -0.13714808, -0.13494968])]Output weights: [[-0.05962959  0.09396523]
 [-0.01848122 -0.02331965]
 [-0.01902208  0.00608486]
 [-0.01866138  0.00452846]
 [-0.02358923  0.0087508 ]
 [-0.02416632  0.00908847]
 [-0.03456739 -0.0384823 ]
 [-0.01208714 -0.00678724]
 [-0.01769732 -0.01707467]
 [-0.02780291 -0.03048575]
 [-0.0191551   0.0064485 ]
 [ 0.03142417  0.04546409]
 [-0.02481863 -0.02699718]
 [-0.02377055  0.00837147]
 [ 0.01023241  0.06355627]
 [-0.02006052  0.00602454]
 [-0.03151338 -0.03836845]
 [-0.19319988  0.28426194]
 [-0.02561134  0.01055288]
 [-0.01588889  0.00220497]]Output bias: [ 0.61905003 -0.58711539]
Value MLP:Hidden weights: [array([[ -7.69915991e+04,  -3.30100246e+24,   3.04880446e+03,
         -1.04628558e+09,  -9.23027305e+04,   2.28354890e+05,
         -1.51096179e+05,   2.90601365e+02,  -2.08693593e+04,
         -8.39179506e+04,  -6.75746247e+04,   2.97645034e+03,
         -1.17587764e+07,   8.71541315e+17,   9.96403241e+05,
          6.39626992e+06,  -2.06488144e+05,  -4.00854301e+06,
          3.30213535e+02,  -1.21546767e+05],
       [ -6.64561744e+06,  -1.62700330e+23,  -1.76181640e+04,
         -2.96388860e+10,   1.05782253e+07,   1.17165602e+06,
         -1.27803840e+07,  -2.66776458e+04,  -4.87469333e+04,
         -3.79719662e+05,   1.45424001e+07,  -2.66352576e+04,
         -5.91599013e+07,  -2.17617781e+17,   1.48894294e+07,
         -2.54447614e+06,  -9.12478961e+05,  -1.74372906e+07,
          5.78652760e+05,  -1.03327838e+07],
       [ -2.78178730e+06,  -4.43080011e+24,   2.45369804e+03,
         -1.15929943e+10,   4.65251518e+06,   4.32762985e+05,
         -5.35889562e+06,  -8.38618635e+03,  -4.52650233e+04,
         -2.33064211e+05,   6.28556197e+06,  -1.22521107e+03,
         -4.60043510e+07,   2.55989305e+18,   8.71941159e+06,
          1.13192072e+07,  -5.74018669e+05,  -1.11502502e+07,
          2.59298093e+05,  -4.33074995e+06],
       [  2.15447891e+06,  -2.78560195e+24,   1.15498762e+04,
         -2.43734254e+09,  -3.10119066e+06,  -2.30013199e+05,
          4.13790294e+06,   3.35644154e+03,   4.56630542e+04,
          1.03251130e+05,  -4.17822488e+06,   1.45292939e+04,
          4.34926666e+07,   1.90925993e+18,  -3.83373744e+06,
          1.19877186e+07,   2.39916914e+05,   4.47851893e+06,
         -1.60763557e+05,   3.34654371e+06],
       [  2.18750275e+06,   9.11103482e+24,  -1.69673059e+03,
          1.57314102e+09,  -2.84918627e+06,  -2.30705159e+05,
          4.21383469e+06,  -4.91021524e+03,  -8.14865270e+03,
          2.04388137e+02,  -4.09979391e+06,   1.20035047e+03,
          2.00823416e+07,  -2.18998533e+18,  -2.53299778e+06,
         -4.86847368e+06,   1.04410682e+04,   3.28461386e+05,
         -1.70094367e+05,   3.40542112e+06],
       [  9.90388893e+05,   4.73845656e+24,   1.51825703e+03,
          2.42382977e+09,  -2.86083100e+06,  -1.22805980e+05,
          1.90567660e+06,  -2.75039977e+03,  -3.20144471e+04,
         -1.13393716e+05,  -3.38026741e+06,   2.85334476e+03,
         -1.79479962e+07,  -6.13716206e+17,  -5.53299676e+06,
         -3.27325838e+06,  -2.71599654e+05,  -5.17869285e+06,
         -1.35629614e+05,   1.54050701e+06],
       [ -2.24025834e-03,   7.27580420e-03,  -4.19465720e-04,
         -5.73417288e-03,   2.66458548e-03,   4.00440090e-04,
          7.40025891e-03,   4.41202642e-03,   2.36933731e-03,
          5.34484939e-03,  -8.52065248e-03,  -4.86116449e-03,
          4.26055564e-03,   5.32462741e-03,   5.71794160e-04,
         -1.68317038e-03,   5.29891783e-03,  -3.40499940e-03,
          2.92837214e-03,  -2.16330416e-03],
       [  3.70958614e-03,  -7.44073742e-03,   2.23892564e-03,
         -9.16625750e-03,  -5.11669760e-03,  -7.66011348e-03,
         -5.43269663e-03,  -8.63832213e-03,   3.03698529e-03,
          6.53552926e-03,  -3.15120231e-04,  -3.82988233e-03,
         -3.84315456e-03,  -1.61505209e+18,  -9.72800222e-03,
          6.43518143e-03,  -2.40118038e-03,  -8.00528766e-04,
         -6.15278248e-03,  -8.23484493e-03]])]Hidden bias: [array([ -7.03643191e+06,   3.26536255e+24,  -2.08069014e+04,
        -3.13526295e+10,   1.09549196e+07,   1.13790296e+06,
        -1.35299657e+07,  -2.97631483e+04,  -8.58868584e+04,
        -4.63748952e+05,   1.51256375e+07,  -3.03743789e+04,
        -7.97794226e+07,  -1.61505209e+18,   1.64615660e+07,
        -1.25306598e+07,  -1.11164591e+06,  -2.12075894e+07,
         5.99827895e+05,  -1.09392171e+07])]Output weights: [[ -8.54742237e+18]
 [ -1.05345534e+19]
 [  7.79143651e+18]
 [ -1.41824374e+19]
 [  4.96321393e+19]
 [ -1.31894996e+19]
 [ -1.64870477e+18]
 [  7.79132235e+18]
 [ -6.31263607e+19]
 [  4.71029038e+17]
 [  3.54632133e+18]
 [  7.79143651e+18]
 [  4.24595327e+19]
 [  1.57760976e+19]
 [  1.34395469e+18]
 [  7.78805413e+18]
 [  4.71032151e+17]
 [  4.71034233e+17]
 [  2.70056011e+19]
 [ -1.64870463e+18]]Output bias: [ -7.79143651e+18]