Action MLP:Hidden weights: [array([[-0.01945433, -0.01580772, -0.02174952, ..., -0.02917492,
        -0.02741437, -0.025244  ],
       [ 0.37105382,  0.35185633,  0.41360175, ...,  0.26662985,
         0.38842081,  0.37275508],
       [-0.07045327, -0.07402025, -0.07337532, ..., -0.0505161 ,
        -0.06690452, -0.05693173],
       ..., 
       [-0.02378668, -0.00820986, -0.01343573, ..., -0.04168857,
        -0.02254504, -0.04996359],
       [ 0.04644982,  0.02806069,  0.07749177, ...,  0.02001509,
         0.04129592,  0.04381007],
       [ 0.04232165,  0.0401641 ,  0.0687216 , ...,  0.00510582,
         0.05655157,  0.04811539]])]Hidden bias: [array([-0.21718606, -0.22718869, -0.22113196, -0.23598918, -0.22684619,
       -0.25337463, -0.23879967, -0.25241149, -0.2234897 , -0.21384617,
       -0.20906666, -0.23635902, -0.20468176, -0.20771701, -0.23232366,
       -0.20849587, -0.19548733, -0.21874059, -0.22408913, -0.2388808 ,
       -0.22557138, -0.20642815, -0.22374588, -0.20276934, -0.21893099,
       -0.2178503 , -0.24651957, -0.20594963, -0.21324246, -0.21879805,
       -0.21548191, -0.20932447, -0.21848168, -0.19988758, -0.21327607,
       -0.23569738, -0.22524165, -0.18615079, -0.20922629, -0.21802922,
       -0.21439225, -0.22986461, -0.20999869, -0.22643408, -0.23222332,
       -0.2075366 , -0.22638566, -0.22275047, -0.23368344, -0.18229671,
       -0.20181853, -0.19633481, -0.21973806, -0.22855706, -0.21755006,
       -0.22598888, -0.21489679, -0.21082919, -0.20496165, -0.25247905,
       -0.21902313, -0.22236743, -0.21131825, -0.23066505, -0.19285762,
       -0.24389279, -0.22490269, -0.25284095, -0.19648775, -0.22312431,
       -0.19674651, -0.25204125, -0.20122413, -0.22643041, -0.22540268,
       -0.20501838, -0.22360165, -0.20791604, -0.21347512, -0.20530654,
       -0.21752398, -0.23427479, -0.22795246, -0.23894536, -0.20433365,
       -0.21609354, -0.19999501, -0.21649098, -0.21623644, -0.21429509,
       -0.21350437, -0.22397329, -0.2345675 , -0.19363907, -0.2223388 ,
       -0.21164548, -0.22951304, -0.23465477, -0.20994026, -0.2130225 ,
       -0.23444014, -0.25022913, -0.23006416, -0.19083145, -0.24703222,
       -0.20297744, -0.22670831, -0.21160535, -0.20932786, -0.20030822,
       -0.23316776, -0.24541257, -0.20787979, -0.2165526 , -0.1996884 ,
       -0.23638339, -0.24935778, -0.19179375, -0.21682885, -0.20761672,
       -0.20265789, -0.22375625, -0.20273854, -0.21888508, -0.21042445,
       -0.21885248, -0.21577869, -0.23672803, -0.22939459, -0.2054365 ,
       -0.21270043, -0.22958179, -0.21832297, -0.23343865, -0.23102867,
       -0.2211121 , -0.21467742, -0.21893502, -0.22780041, -0.22319653,
       -0.25906836, -0.21437465, -0.21481081, -0.2213205 , -0.23015963,
       -0.21090873, -0.20099488, -0.20683981, -0.22284804, -0.20379256,
       -0.22495661, -0.2124726 , -0.20045048, -0.23132419, -0.21491908,
       -0.21600326, -0.19093964, -0.21576699, -0.23377738, -0.19925628,
       -0.24048304, -0.20557586, -0.20864778, -0.19273582, -0.21280633,
       -0.2298695 , -0.24108099, -0.20262119, -0.22313   , -0.21254309,
       -0.20943604, -0.21127097, -0.23460026, -0.23493905, -0.21738112,
       -0.23233514, -0.20057432, -0.23692991, -0.24734692, -0.21590381,
       -0.21979357, -0.2109321 , -0.22569909, -0.19874258, -0.20762341,
       -0.22426569, -0.23393486, -0.21453002, -0.19791785, -0.19736374,
       -0.20265637, -0.20533138, -0.23563847, -0.21175049, -0.22873372,
       -0.21375562, -0.23074264, -0.21762939, -0.22747153, -0.22833295,
       -0.23174767, -0.22565722, -0.22294855, -0.19683968, -0.22641932,
       -0.23613284, -0.21347163, -0.23202303, -0.24351574, -0.21578186,
       -0.23667713, -0.21740705, -0.21662349, -0.19964021, -0.23567094,
       -0.22478383, -0.22336881, -0.21284207, -0.20584258, -0.21401022,
       -0.21079402, -0.19539495, -0.23117845, -0.22082547, -0.22761236,
       -0.21667766, -0.2169939 , -0.2103559 , -0.20624119, -0.2137177 ,
       -0.21686247, -0.22041484, -0.22485144, -0.23341011, -0.23136534,
       -0.20010652, -0.20522532, -0.23401656, -0.20219355, -0.20334438,
       -0.22951716, -0.21574186, -0.20280046, -0.22442656, -0.22201757,
       -0.21909328, -0.23429336, -0.25825786, -0.24164139, -0.21042161,
       -0.22627953, -0.23747408, -0.21905944, -0.20697803, -0.22228129,
       -0.22655136, -0.22376773, -0.21123006, -0.22791182, -0.20513376,
       -0.21001098, -0.20690209, -0.20943333, -0.20497998, -0.19956919,
       -0.22911406, -0.21059008, -0.24074115, -0.20915674, -0.22268086,
       -0.22100494, -0.22118927, -0.21851933, -0.21780654, -0.23782625,
       -0.2093737 , -0.20179676, -0.23172267, -0.22133756, -0.23462221,
       -0.21252633, -0.20728852, -0.23828208, -0.20594005, -0.2369104 ,
       -0.20963237, -0.20385133, -0.20595727, -0.21242844, -0.22714748,
       -0.23836848, -0.22264722, -0.22980098, -0.21592077, -0.21828098,
       -0.22779638, -0.22132008, -0.20069431, -0.23877348, -0.21648727,
       -0.19641091, -0.2333566 , -0.23820177, -0.2105339 , -0.19805578,
       -0.2494016 , -0.21480258, -0.21646073, -0.22050979, -0.23573373,
       -0.22014782, -0.24126398, -0.22065508, -0.23318573, -0.22573012,
       -0.20771833, -0.20186764, -0.2143631 , -0.21600631, -0.24883814,
       -0.1928961 , -0.22251656, -0.22529924, -0.21083296, -0.22401004,
       -0.20489541, -0.2237136 , -0.21091916, -0.21908004, -0.20442708,
       -0.24107959, -0.20326574, -0.21588271, -0.20454966, -0.22383884,
       -0.20772827, -0.21008425, -0.20965992, -0.20906233, -0.22551069,
       -0.21706768, -0.21398676, -0.20801006, -0.23195881, -0.23051064,
       -0.19801101, -0.21233142, -0.2243288 , -0.20385244, -0.22122547,
       -0.24731084, -0.22954229, -0.25623865, -0.22832895, -0.20601867,
       -0.2605252 , -0.23031541, -0.22941738, -0.22805955, -0.21143311,
       -0.20487156, -0.22696932, -0.23903515, -0.23714305, -0.22777813,
       -0.24342871, -0.20257795, -0.22688182, -0.23877162, -0.25017744,
       -0.23206693, -0.2170621 , -0.2631929 , -0.21251   , -0.23267971,
       -0.22282096, -0.21347295, -0.19620097, -0.25657241, -0.21569273,
       -0.21532338, -0.22010633, -0.21245052, -0.22272418, -0.23383194,
       -0.21062096, -0.20877099, -0.25086378, -0.23320994, -0.21256492,
       -0.20984293, -0.20739248, -0.21900423, -0.20177958, -0.20540581,
       -0.23058028, -0.21835171, -0.21406442, -0.21398482, -0.22549243,
       -0.22299024, -0.21140418, -0.19977301, -0.21558794, -0.22011128,
       -0.202878  , -0.23285536, -0.22619891, -0.21952083, -0.24154117,
       -0.19481708, -0.21421064, -0.2295641 , -0.2368059 , -0.22251158,
       -0.21473486, -0.19923681, -0.19922832, -0.2130786 , -0.243966  ,
       -0.21596553, -0.22653935, -0.19637363, -0.22895025, -0.21982421,
       -0.19766089, -0.20919215, -0.24648135, -0.2151943 , -0.20811453,
       -0.22475108, -0.2469568 , -0.23143749, -0.21869531, -0.22675648,
       -0.23513793, -0.22792119, -0.21811152, -0.1946613 , -0.22639989,
       -0.2163748 , -0.19871818, -0.23619471, -0.23030046, -0.20902339,
       -0.20894214, -0.20568112, -0.22560734, -0.23958051, -0.20571293,
       -0.20107777, -0.20572798, -0.22133331, -0.22245579, -0.21528557,
       -0.20447987, -0.23182362, -0.20118618, -0.23112531, -0.22005093,
       -0.24289271, -0.24607558, -0.22050719, -0.19441472, -0.19392668,
       -0.24700624, -0.2079034 , -0.21747272, -0.22275562, -0.20342084,
       -0.2414068 , -0.21431553, -0.24898971, -0.25379544, -0.22613643,
       -0.22099416, -0.22898036, -0.23661008, -0.23075354, -0.21751566,
       -0.20571762, -0.22815374, -0.21153718, -0.24147996, -0.21537921,
       -0.19881605, -0.21451711, -0.24690039, -0.24395009, -0.23917136,
       -0.21406166, -0.22317124, -0.23555188, -0.22457786, -0.21269564,
       -0.22940164, -0.21770888, -0.22240749, -0.22518015, -0.20649523])]Output weights: [[ -2.57123741e-02   1.46311841e-03]
 [ -1.29694146e-02   1.19884906e-02]
 [ -7.30254819e-02  -6.47977631e-04]
 [  1.17490039e-02   1.43123145e-02]
 [  6.77247418e-02   5.54426352e-03]
 [  1.97780200e-03   3.05094617e-02]
 [ -4.83020955e-03   1.90514466e-02]
 [ -4.51502469e-02   3.48151802e-02]
 [  8.86772571e-04   7.28429215e-03]
 [  3.22909434e-03  -9.44651018e-03]
 [ -1.83676881e-02  -6.76947624e-03]
 [ -3.55096243e-02   1.90938388e-02]
 [  1.25415892e-02  -9.15903012e-03]
 [  4.11100415e-02  -2.61208721e-03]
 [ -1.84536082e-02   1.18490480e-02]
 [  5.02322645e-02  -5.50406566e-03]
 [ -3.03946640e-02  -1.87420591e-02]
 [  7.45814545e-02   2.84699258e-03]
 [  4.88429301e-02   6.24013261e-03]
 [ -5.07690905e-02   1.52241426e-02]
 [ -1.50027542e-02   1.65105234e-03]
 [ -8.13510090e-03  -8.21516577e-03]
 [  2.30719697e-02   7.15751726e-03]
 [ -2.69845690e-02  -6.45628916e-03]
 [ -1.25069008e-02   5.35588715e-03]
 [  5.12381129e-02  -2.31506336e-03]
 [  7.83653520e-02   2.42329784e-02]
 [  7.33286376e-03  -1.59171276e-02]
 [  8.76718034e-02  -8.38543099e-03]
 [ -5.84280004e-02   8.52252817e-03]
 [  1.43289614e-02  -3.49733985e-05]
 [ -5.39003145e-02  -9.69495290e-03]
 [ -5.57270594e-02   4.64054622e-07]
 [ -3.06694850e-02  -1.02066948e-02]
 [  3.63757566e-04  -2.33399085e-04]
 [ -2.85814316e-02   1.87005284e-02]
 [  4.13043427e-02   5.21376212e-03]
 [ -2.75499268e-02  -3.02036913e-02]
 [  4.38625076e-02  -1.62071383e-02]
 [ -2.47941438e-05   2.41494846e-03]
 [ -1.93156574e-02  -5.44163330e-03]
 [ -2.43778337e-02   8.12642242e-03]
 [  1.22622019e-02  -5.58838466e-03]
 [ -5.91321883e-02   4.79050609e-03]
 [ -8.74947722e-02   2.37406978e-03]
 [ -1.82142720e-03  -1.42774801e-02]
 [ -4.72696063e-04   3.88368236e-03]
 [  7.55380567e-02   2.51448145e-03]
 [  7.08684504e-02   1.50452458e-02]
 [ -2.59311873e-02  -3.63538383e-02]
 [  6.24953726e-02  -2.06924466e-02]
 [  4.73940704e-03  -2.25173529e-02]
 [ -9.28290040e-02  -8.08462917e-03]
 [  4.65922790e-02   8.04570529e-03]
 [ -6.73101356e-02  -2.42450216e-03]
 [ -5.72011426e-02   8.17310055e-03]
 [  4.59991785e-02  -6.65663802e-03]
 [ -3.07051462e-02  -9.47266248e-03]
 [ -1.58753874e-03  -1.31972464e-02]
 [  6.38513175e-02   3.13532180e-02]
 [ -5.60542049e-02  -3.66121608e-03]
 [  4.79835067e-02   7.48566412e-03]
 [  3.68411751e-02  -4.67157915e-03]
 [ -3.37160038e-02   8.99050275e-03]
 [ -8.13190351e-03  -2.49596660e-02]
 [  5.42068678e-02   2.30937171e-02]
 [ -9.68789940e-03   2.24251233e-03]
 [ -4.48274080e-02   2.77032925e-02]
 [ -2.77539202e-02  -2.07730596e-02]
 [ -2.93881947e-02   6.36932164e-03]
 [ -3.48059910e-02  -2.31696194e-02]
 [ -8.96284839e-02   2.29974352e-02]
 [ -4.28366331e-02  -1.41864119e-02]
 [ -6.85319652e-03   1.11075629e-02]
 [ -3.02363680e-02   2.41183697e-03]
 [ -3.37150264e-02  -1.22756435e-02]
 [  3.47501515e-03   3.44537594e-03]
 [  1.75494456e-02  -3.04571946e-03]
 [  1.13120450e-02  -4.73688567e-03]
 [  1.86475710e-02  -1.25455716e-02]
 [ -2.20605755e-02   3.95823768e-03]
 [  2.70709461e-02   1.66795841e-02]
 [ -1.54411690e-02   6.89690512e-03]
 [  5.05996884e-02   1.75325629e-02]
 [  1.19961183e-02  -1.77775017e-02]
 [  4.27151580e-02  -4.88537736e-03]
 [ -5.49867106e-03  -1.57843553e-02]
 [ -3.16926184e-02  -8.23525003e-04]
 [ -4.57448376e-02   1.11494456e-03]
 [ -2.61205837e-02  -6.36815086e-03]
 [  3.66900602e-03  -7.06850063e-03]
 [  4.61663849e-03   7.97796232e-03]
 [ -6.40703131e-02   1.38796252e-02]
 [  1.18910169e-02  -2.52921341e-02]
 [ -2.74624614e-02   2.01611983e-03]
 [ -5.00948955e-02  -4.01952674e-03]
 [  8.16484024e-02   9.00301759e-03]
 [ -6.98963418e-03   1.62230996e-02]
 [  7.49113621e-02  -1.35440193e-02]
 [ -2.88992261e-02  -3.29001593e-03]
 [ -1.91519642e-02   1.49772750e-02]
 [ -7.30575030e-02   2.62766934e-02]
 [  2.53147586e-02   1.43917831e-02]
 [ -2.25713591e-02  -2.16036636e-02]
 [  3.72636986e-02   2.79264445e-02]
 [ -7.11335426e-03  -1.16954251e-02]
 [ -1.20357914e-04   1.36750899e-02]
 [  3.44553539e-02  -7.92707899e-03]
 [  5.55921518e-02  -7.38627484e-03]
 [ -5.42043227e-02  -2.13773677e-02]
 [  1.68970938e-02   1.74183869e-02]
 [ -2.16791507e-02   2.71239819e-02]
 [ -7.51878520e-03  -6.51999639e-03]
 [ -5.16054156e-02  -7.43670807e-04]
 [ -2.78191126e-02  -1.69268121e-02]
 [  3.24574138e-02   2.37463240e-02]
 [  9.62487552e-03   3.04419417e-02]
 [ -6.09721653e-02  -3.04626541e-02]
 [ -1.26977811e-03   4.63337174e-03]
 [ -5.37479242e-02  -7.33456021e-03]
 [ -1.16214777e-02  -1.22644887e-02]
 [  2.16622645e-02   5.67101615e-03]
 [  5.09169986e-02  -1.61321528e-02]
 [  1.36368433e-02  -2.27181219e-03]
 [ -2.64302226e-02  -1.04539135e-02]
 [ -2.97106449e-02   3.00852469e-03]
 [ -5.17570158e-02  -1.40896529e-03]
 [ -5.02699528e-02   1.84163320e-02]
 [  1.29716645e-02   1.36584596e-02]
 [ -2.49348241e-02  -1.73579954e-02]
 [  5.29316445e-02  -3.92529826e-03]
 [  5.29688034e-02   8.17462495e-03]
 [ -4.65909877e-02   6.12743350e-03]
 [ -8.22851742e-02   1.15185090e-02]
 [ -4.28702876e-02   1.12236576e-02]
 [  1.74755804e-02   6.29030077e-04]
 [ -1.43089025e-02  -1.36961885e-03]
 [ -4.96689602e-02  -3.88095868e-04]
 [ -2.52428841e-02   1.33172448e-02]
 [ -4.60783011e-02   7.64869284e-04]
 [ -5.75924729e-02   3.27407331e-02]
 [  3.03875580e-03  -1.10725114e-04]
 [  6.51530523e-02   1.24583949e-03]
 [  6.67248059e-02   8.73030473e-04]
 [  4.67206900e-02   1.38704197e-02]
 [  2.99396910e-03  -1.15802858e-02]
 [ -6.09283839e-02  -1.72872306e-02]
 [ -6.88686542e-02  -1.67258900e-02]
 [  2.80060697e-02   4.46120769e-03]
 [ -2.50048412e-02  -1.33327964e-02]
 [  6.82615841e-02   3.55140673e-03]
 [ -8.74419357e-02  -1.17860487e-02]
 [  3.21941788e-02  -1.63718734e-02]
 [ -1.57176089e-02   1.30594126e-02]
 [ -2.88266876e-02   1.08170676e-03]
 [ -7.41433642e-02  -9.22420862e-03]
 [ -8.59803777e-03  -2.33153582e-02]
 [  3.63520593e-02  -1.78493597e-05]
 [ -5.11488331e-02   2.08091089e-02]
 [ -1.23150240e-02  -1.31960377e-02]
 [  1.19604134e-02   2.20566851e-02]
 [ -6.33298714e-02  -1.70380078e-02]
 [ -7.42445701e-03   4.46891255e-04]
 [ -6.19058864e-02  -3.16872154e-02]
 [ -3.07085677e-02  -6.42332835e-03]
 [ -7.41023946e-03   1.27518141e-02]
 [  5.21819023e-02   2.36820465e-02]
 [ -3.06926588e-02  -1.32916993e-02]
 [ -8.78033289e-02  -3.76115035e-03]
 [  2.19376296e-02  -8.03165773e-03]
 [  7.11604200e-02  -7.50618344e-03]
 [ -5.17436552e-02  -7.23395150e-03]
 [  3.11499334e-02   1.69435341e-02]
 [ -4.39964509e-02   1.56922955e-02]
 [ -4.52023640e-02  -1.60602417e-03]
 [  3.43889339e-02   1.41718006e-02]
 [ -3.32124688e-02  -1.74052468e-02]
 [  4.51828148e-02   2.06517100e-02]
 [  2.13125832e-02   2.96220162e-02]
 [ -4.86138409e-02   2.75525260e-03]
 [ -7.66557248e-02  -1.41572235e-03]
 [  4.62452425e-02  -8.27680597e-03]
 [  2.49935716e-02   8.59349185e-03]
 [  1.41511260e-02  -1.31343514e-02]
 [ -5.42241778e-02  -1.07959755e-02]
 [  2.73768215e-02   4.75214512e-03]
 [ -1.95004680e-02   1.24450709e-02]
 [  9.64193344e-03   3.01573676e-03]
 [  1.41415626e-02  -2.79145877e-02]
 [ -8.71697500e-03  -2.27290451e-02]
 [ -5.12721066e-02  -2.19116024e-02]
 [  1.19578690e-02  -3.83983271e-03]
 [ -5.54901487e-02   1.98652230e-02]
 [  4.89069065e-02  -6.70988615e-03]
 [  9.11735244e-02   6.71626315e-03]
 [ -3.63179948e-02  -7.93381450e-03]
 [  4.96786672e-03   1.45488569e-02]
 [  5.11525528e-02  -3.64753097e-03]
 [ -8.13548682e-02   1.47130835e-03]
 [  6.32047583e-02   9.38957016e-03]
 [ -3.68525772e-03   1.56394765e-02]
 [ -6.89515314e-02   8.15287725e-03]
 [  4.16040436e-02   5.86858654e-03]
 [ -2.80540113e-02  -2.06333853e-02]
 [  6.48853997e-03   7.17617543e-03]
 [ -1.73630537e-02   2.12526444e-02]
 [  2.15958583e-02  -4.48991827e-03]
 [  7.44146440e-02   1.34001078e-02]
 [  1.36601723e-02   2.31364824e-02]
 [ -2.88657703e-02  -1.45997825e-03]
 [  3.29294117e-02   2.16358482e-02]
 [  1.50784922e-02  -1.58634991e-03]
 [  4.84642745e-02  -3.97394989e-03]
 [ -1.01154218e-02  -1.98317923e-02]
 [  3.23608179e-02   1.78210881e-02]
 [  5.18872254e-02   3.22816383e-03]
 [ -9.08157726e-02  -1.14300141e-03]
 [ -4.42738897e-02  -3.57373901e-03]
 [  1.37204821e-02  -4.98307212e-03]
 [ -8.43282402e-02  -9.94314155e-03]
 [  3.91825160e-02  -6.88670138e-03]
 [ -3.41565336e-02  -1.55278663e-02]
 [  1.86034537e-02   1.20044332e-02]
 [  9.53061019e-02   1.20501816e-03]
 [ -3.66764718e-02   9.37309188e-03]
 [ -6.08607485e-03   3.53035208e-03]
 [ -1.96123966e-02  -3.30727462e-03]
 [ -1.73909170e-02  -8.74265594e-03]
 [ -4.91597588e-02  -1.15100714e-02]
 [  5.71750250e-02  -1.07857494e-02]
 [ -1.00141005e-01  -1.16356701e-02]
 [ -4.53135934e-02   4.30344863e-03]
 [ -1.13187264e-02   7.11393877e-03]
 [ -3.49066198e-02   1.18592550e-02]
 [  8.57029495e-02   6.82326436e-03]
 [  6.76757193e-02  -2.43507502e-02]
 [ -7.01417480e-02  -1.81194130e-02]
 [  3.67311153e-03   1.66125699e-02]
 [ -3.69227453e-02  -1.25873092e-02]
 [ -3.18753902e-02  -9.65373259e-03]
 [ -2.80363758e-02   1.47393801e-02]
 [  3.72088563e-03  -1.94512265e-03]
 [  4.41384026e-02  -1.55953189e-02]
 [ -3.86529208e-02   5.00696073e-03]
 [  5.38548085e-02   4.34004630e-03]
 [ -3.39271093e-03   3.75304505e-03]
 [ -2.74255283e-02   9.78565943e-03]
 [ -2.44720471e-02   3.20696927e-02]
 [  8.50420579e-04   2.23791842e-02]
 [ -3.35745508e-02  -2.72787761e-03]
 [ -6.89706274e-02   4.84740105e-03]
 [  6.93013049e-02   1.98745308e-02]
 [  5.73394683e-03  -4.78693626e-04]
 [ -1.29323392e-02  -3.76996912e-03]
 [  6.08729550e-02   7.73127498e-03]
 [  2.92774473e-02   7.45059774e-03]
 [ -4.34366068e-02   1.89561533e-03]
 [ -6.80051240e-02  -9.42073579e-03]
 [ -4.37445075e-02   1.18759310e-02]
 [ -5.50941044e-03  -7.47592286e-03]
 [ -2.08978347e-02  -5.45284987e-03]
 [  5.01477576e-02  -5.85133535e-03]
 [ -5.51098276e-03  -3.45398598e-03]
 [  1.05357103e-02  -1.62026029e-02]
 [ -4.02608959e-02  -1.89526958e-02]
 [ -3.97450612e-02   1.31440655e-02]
 [ -2.47893005e-02  -7.52639470e-03]
 [  7.63768469e-02   2.06976629e-02]
 [  3.27462686e-02  -9.18297359e-03]
 [  7.02302258e-02   3.75415597e-03]
 [ -5.85716041e-02   6.08267205e-03]
 [  8.88773863e-03   1.35245613e-03]
 [  8.47073036e-02  -1.93359435e-03]
 [  2.76487368e-02  -3.62765403e-03]
 [ -1.61480750e-02   2.13442083e-02]
 [  2.60021345e-02  -1.28164932e-02]
 [  4.38380024e-02  -1.62528469e-02]
 [  4.23351097e-02   6.50591145e-03]
 [ -1.06537026e-01  -9.51279797e-03]
 [ -6.72901672e-02   1.61474764e-02]
 [ -4.19861278e-02  -3.78366253e-03]
 [ -6.63347234e-02  -9.30023052e-03]
 [  2.66839068e-02   2.04532498e-02]
 [ -5.10752171e-02  -1.13616016e-02]
 [  4.19415754e-02   2.06630790e-02]
 [ -2.26458657e-02  -4.17509393e-03]
 [ -7.72859412e-02  -2.26909796e-02]
 [ -5.22530235e-02  -1.26798305e-02]
 [  4.12658652e-02  -4.01560409e-03]
 [  9.94201173e-02  -4.78006312e-04]
 [  1.86860621e-02   1.50358641e-02]
 [ -2.69381458e-02   8.74721606e-03]
 [  4.93066960e-03   8.56443762e-03]
 [  5.57447863e-02  -2.44590734e-03]
 [ -5.75203048e-02  -9.89098754e-04]
 [ -5.50138931e-03   8.87604169e-03]
 [  3.78976245e-03   1.08730896e-02]
 [  4.74059302e-02  -1.55499735e-02]
 [  6.75621626e-03   2.04039638e-02]
 [ -3.13821822e-02   4.19486290e-03]
 [ -7.51203669e-02  -3.01989546e-02]
 [ -7.49301318e-02   1.26333908e-02]
 [ -9.06353184e-02   9.16956547e-03]
 [ -3.44312769e-02  -6.67647942e-03]
 [  2.66999100e-02  -2.17043158e-02]
 [  4.22122749e-02   2.97456226e-02]
 [  4.68137213e-02  -1.59986225e-03]
 [ -5.98151412e-02  -7.76550912e-03]
 [ -5.53273134e-02  -1.33607028e-04]
 [  2.62928373e-02   1.05437977e-02]
 [  5.74708326e-02  -3.38427978e-03]
 [  2.29234793e-02   2.37896113e-02]
 [ -3.41564937e-02  -9.65119545e-04]
 [  2.36713956e-02   1.43565788e-02]
 [  6.52430191e-02   5.69520665e-05]
 [ -3.87623920e-03  -7.97469486e-03]
 [ -2.81877249e-02  -1.51013150e-02]
 [  2.49167886e-02   4.84596022e-04]
 [  4.43705482e-02  -6.97254104e-03]
 [ -1.17452769e-03   3.17518801e-02]
 [ -4.15218584e-02  -1.84986319e-02]
 [  8.53763164e-02  -4.11386998e-04]
 [  3.12976431e-02   5.58384020e-03]
 [  6.99379019e-02  -8.07817847e-03]
 [ -2.00473608e-02   5.51954840e-03]
 [ -6.36632272e-02  -2.08574641e-02]
 [ -1.43166118e-03   7.45178272e-03]
 [  4.25808138e-02  -5.15577209e-03]
 [ -1.07174036e-03  -4.65801517e-03]
 [  9.73776289e-03  -1.44933274e-02]
 [  6.29353985e-02   1.82063450e-02]
 [ -3.81952681e-02  -5.83924386e-03]
 [  2.21442999e-02  -2.48250858e-03]
 [ -5.41441956e-03  -6.83067966e-03]
 [ -6.85737874e-02   1.24227814e-03]
 [  5.46436636e-02  -1.59406787e-02]
 [  1.02752136e-02  -3.77616834e-03]
 [ -6.99276568e-02  -8.37885810e-03]
 [  7.02364995e-03  -5.80723395e-03]
 [ -4.72878945e-02   2.42366481e-03]
 [ -7.80765247e-03  -3.37524672e-03]
 [  8.55565604e-03  -2.29468156e-03]
 [  1.52921806e-04  -1.12585875e-02]
 [  6.40432330e-02   1.48838163e-02]
 [  8.33152710e-02   1.01527939e-02]
 [ -2.05658895e-02  -1.83130474e-02]
 [ -2.64916419e-02   4.31445702e-03]
 [ -2.78695190e-02   5.51659890e-03]
 [ -2.84374817e-03  -1.95353402e-02]
 [ -5.22296606e-02   7.22349085e-03]
 [ -6.50586358e-02   2.71136083e-02]
 [  1.65709433e-02   9.75629691e-03]
 [  2.72958603e-02   3.54743054e-02]
 [ -8.45673385e-03   1.35537155e-02]
 [ -4.88931639e-02  -5.44316049e-03]
 [  4.88051350e-02   4.03673713e-02]
 [  5.08992780e-02   1.23674664e-02]
 [  1.81860850e-02   9.78355582e-03]
 [ -4.00873434e-02   9.61989629e-03]
 [  2.15068510e-02  -3.65331867e-03]
 [ -1.61058800e-02  -1.23225851e-02]
 [ -2.33031949e-02   1.05078898e-02]
 [ -3.99181871e-03   1.80732791e-02]
 [  8.36144382e-02   1.52798251e-02]
 [  2.58908396e-02   1.10424840e-02]
 [ -2.81359309e-02   2.31733833e-02]
 [ -4.49807957e-03  -7.08005848e-03]
 [  1.34605040e-02   9.63138118e-03]
 [ -2.08006882e-02   1.85894565e-02]
 [  3.13099810e-02   3.18777049e-02]
 [  4.82327577e-02   7.56966260e-03]
 [  2.50439392e-03  -2.71445699e-03]
 [ -1.28697170e-02   4.56157228e-02]
 [ -3.74220685e-02  -5.55796663e-04]
 [ -6.42476770e-02   1.04532553e-02]
 [ -6.90367397e-02   3.03288143e-03]
 [  5.90714951e-03  -3.70060289e-03]
 [ -3.66747628e-02  -2.45949282e-02]
 [  9.61394605e-02   2.65707077e-02]
 [  1.76802858e-02   4.16107927e-03]
 [ -1.60368675e-03  -7.67807267e-03]
 [ -1.24352802e-03   3.09263573e-03]
 [  2.61219593e-02  -8.10156622e-03]
 [ -2.85883504e-02   9.19454414e-03]
 [  2.48706695e-02   1.50604503e-02]
 [  1.89525125e-02  -1.17187517e-02]
 [  1.17698696e-02   1.19143416e-03]
 [  2.61085575e-02   2.46106536e-02]
 [ -1.96761641e-02   1.18023416e-02]
 [ -8.11026313e-02  -1.59666857e-02]
 [ -1.58091246e-02  -7.23359764e-03]
 [  1.17349268e-02  -6.79705259e-03]
 [  3.12662123e-02   3.50648338e-03]
 [ -2.64467620e-02  -2.09117286e-02]
 [  3.13120328e-02  -1.26325478e-02]
 [ -5.67774761e-02   4.28316251e-03]
 [ -6.13463426e-02  -5.41024519e-03]
 [  9.27542900e-04  -4.80908791e-03]
 [ -3.92446023e-02   5.32685959e-03]
 [  6.24715417e-02   6.13155232e-03]
 [  7.19761749e-02   5.73400287e-03]
 [  1.26602831e-02  -1.02204157e-03]
 [ -2.89929439e-02  -2.21705092e-02]
 [ -2.12084352e-02  -2.89726573e-03]
 [ -1.96006985e-02   4.31070410e-03]
 [  1.58781620e-02  -1.53335465e-02]
 [  6.47087242e-02   1.30652242e-02]
 [ -4.03904288e-02   6.00631943e-03]
 [  9.93292861e-03   1.70077208e-03]
 [ -2.05229154e-02   2.70512880e-02]
 [ -3.30839058e-02  -2.34434616e-02]
 [ -1.96466323e-02  -3.25523569e-03]
 [ -7.73292951e-02   1.77918732e-04]
 [ -2.16401179e-04   2.24055045e-02]
 [ -6.59531761e-02   1.75489930e-03]
 [ -6.65345130e-02  -3.63676422e-03]
 [  5.87297686e-02  -1.97203452e-02]
 [ -8.22442033e-02  -2.95054334e-02]
 [  2.18277660e-02  -1.23552463e-03]
 [ -1.13818668e-03   2.31410018e-02]
 [ -3.49408309e-02   3.35161254e-03]
 [  4.70562253e-02   7.63603752e-03]
 [ -4.26061609e-02  -1.91142355e-02]
 [ -3.62281815e-02   9.49367438e-03]
 [  8.45550588e-03   5.57245777e-03]
 [ -2.93354734e-02  -1.13204935e-02]
 [  3.52980259e-03  -4.90004817e-03]
 [ -2.76599977e-02   2.44146023e-02]
 [ -2.03274243e-02  -1.43415305e-03]
 [  2.67429594e-03  -1.14492692e-02]
 [  4.60163777e-02   4.26401753e-03]
 [  5.29782220e-02   3.22890923e-02]
 [  5.60331178e-02   1.10712570e-02]
 [  6.04046523e-02  -3.31018858e-03]
 [ -2.34815628e-03   1.11229498e-02]
 [ -4.32277787e-03   2.05024459e-02]
 [  5.31121033e-02   1.03119449e-02]
 [ -5.33557628e-02  -5.44800793e-03]
 [ -1.28134570e-02  -1.94438917e-02]
 [ -9.38248375e-03   9.14206331e-03]
 [ -3.03720625e-02  -1.53677004e-03]
 [ -7.50256737e-02  -2.91820553e-02]
 [ -1.22225074e-02   1.58075611e-02]
 [ -5.61307974e-03   1.56479103e-02]
 [ -3.57172493e-02  -8.83619184e-03]
 [  2.89901407e-02  -7.64602522e-03]
 [  4.05919702e-02  -1.18648181e-02]
 [ -7.99257134e-02   4.74583192e-03]
 [  8.42481232e-03   2.05964133e-02]
 [  1.08034866e-02  -1.59876001e-02]
 [ -1.03494424e-02  -1.05237705e-02]
 [  9.25596483e-03  -9.73723875e-03]
 [ -5.47227833e-02   3.96626525e-03]
 [ -2.64533430e-02   1.01146773e-02]
 [ -5.26844401e-02  -3.45329798e-03]
 [  1.54092346e-02  -1.61123542e-02]
 [ -6.65984394e-02   1.07886999e-02]
 [ -6.43315315e-02  -2.07057311e-02]
 [  8.21150046e-03   1.09167360e-02]
 [ -8.18689217e-02   9.79590598e-04]
 [  7.60602194e-02   1.89390216e-02]
 [ -7.86903669e-02   2.04454697e-02]
 [ -5.52498674e-02   5.13879256e-03]
 [ -2.80374324e-02  -2.09492160e-02]
 [ -4.79813840e-02  -2.96153835e-02]
 [  5.38216870e-02   2.72518218e-02]
 [ -4.92985278e-02  -6.37251938e-03]
 [  2.25937045e-02   5.96969874e-03]
 [ -6.65156243e-02   4.26942410e-03]
 [ -1.21378800e-02  -1.65138861e-02]
 [  5.35746085e-02   2.33076888e-02]
 [  7.30243659e-02  -3.06329975e-03]
 [  1.48434764e-02   2.74560562e-02]
 [  7.85457547e-02   2.68715156e-02]
 [  4.88528252e-03   6.95968389e-03]
 [  2.56190918e-02   7.20639509e-03]
 [ -8.00767501e-02   2.75621256e-03]
 [  1.60146450e-02   1.92669989e-02]
 [  3.16375865e-02   1.18378594e-02]
 [  7.90138948e-02  -7.70952595e-03]
 [ -5.17875805e-04  -1.95607556e-02]
 [ -3.53000995e-02   7.59255615e-03]
 [  3.15012593e-02  -7.59027516e-03]
 [ -2.09561538e-02   2.00493752e-02]
 [ -2.95975460e-02  -5.92058425e-03]
 [ -5.96253901e-02  -1.89985691e-02]
 [  2.64270136e-02  -1.81498622e-03]
 [  7.39033003e-02   2.50068361e-02]
 [  4.12623800e-02   2.25813175e-02]
 [ -4.79625240e-02   1.68962604e-02]
 [ -2.65055220e-02  -4.37542671e-03]
 [  4.61364077e-03   8.45090601e-03]
 [  4.04628795e-02   1.76984715e-02]
 [ -3.99534774e-02   1.09903625e-02]
 [  8.00346831e-02  -7.96179797e-03]
 [ -4.70550655e-02   9.92617636e-03]
 [  1.60755893e-02   4.09936647e-03]
 [  6.16901538e-02  -3.02434959e-04]
 [ -4.21080707e-02   4.75294057e-03]
 [ -2.58668115e-02  -2.75012436e-03]]Output bias: [ 0.47954254 -0.19905303]
Value MLP:Hidden weights: [array([[  1.97833296e+18,  -4.93718276e+07,   3.27188649e+04, ...,
         -2.79966594e+05,  -4.55789381e+03,  -3.17262606e+12],
       [ -2.98058304e+18,   1.08025960e+07,  -1.08763690e+06, ...,
         -1.16371789e+05,   8.54084851e+02,   2.49972442e+14],
       [  4.16794615e+18,  -1.50633027e+07,   8.32872357e+05, ...,
         -1.76652344e+04,  -2.58710947e+03,  -1.60661283e+14],
       ..., 
       [ -9.30244702e+17,   6.72703289e+03,  -2.03526286e+05, ...,
         -6.20848461e+05,  -4.33961449e+04,   3.55598535e+13],
       [  3.22658714e+04,   2.79046339e+03,   2.22337657e+00, ...,
          3.76356406e+00,  -2.38016040e+00,  -1.62281621e+00],
       [ -8.81069263e-01,   7.06637764e+00,   2.33713294e+00, ...,
          6.35713910e+00,   8.67185234e+03,  -8.71497849e-01]])]Hidden bias: [array([ -8.08646921e+018,   8.63014581e+007,  -1.16359378e+006,
         4.41257195e+111,   3.81395207e+004,  -8.39738194e+004,
         3.64474969e+005,   4.60314388e+006,   2.84674068e+010,
         3.66225495e+003,   2.73517600e+010,  -1.03135120e+007,
         9.57570120e+012,   2.90833022e+010,  -3.42561675e+004,
         3.44978971e+015,   1.17194696e+173,   9.32993707e+010,
         1.92825863e+003,   3.19831570e+114,   2.12445924e+144,
         2.69207542e+005,   6.51046442e+007,  -2.94861348e+008,
        -1.48363976e+006,  -7.04473960e+011,   1.95419938e+005,
        -1.77468178e+038,  -3.78243337e+048,   9.98334101e+021,
         4.74854335e+072,  -6.20297043e+008,  -6.68599518e+009,
        -1.16525193e+003,  -1.82299501e+006,   9.90125472e+096,
        -5.29757520e+003,   3.23111038e+017,  -6.34205389e+005,
         2.42927906e+004,   7.91003355e+005,  -8.38811072e+113,
        -8.30002521e+006,   1.08813439e+015,  -1.36920040e+020,
        -5.26430165e+137,   2.21775393e+111,  -4.65327557e+006,
         2.04360650e+003,   8.10952944e+010,   3.83739479e+008,
         6.32295813e+104,  -1.68843852e+009,  -2.68700227e+060,
        -1.40291206e+010,   1.02606379e+014,  -7.70484622e+005,
        -1.97687610e+005,  -5.76031108e+001,   8.76396871e+047,
         2.04921240e+009,   3.08605077e+007,   9.82101798e+012,
         2.91651468e+126,   1.83121994e+005,  -9.26598618e+029,
        -5.18542660e+004,  -3.76617214e+003,  -2.67595246e+014,
         3.09228986e+010,  -1.61029687e+072,  -1.48258426e+005,
        -4.41826016e+005,  -2.77173384e+079,   2.35566010e+006,
         4.75731717e+100,  -2.94654692e+011,  -9.21961635e+006,
         6.99116712e+050,  -9.57615075e+110,   7.51222478e+022,
        -2.26207304e+006,  -6.78985310e+003,  -4.98901088e+010,
         1.60867498e+009,  -8.47318736e+009,   2.08122355e+009,
        -1.66810074e+032,  -4.50543772e+117,   3.29204072e+029,
        -3.74515967e+009,   3.39694981e+087,   7.62696157e+011,
        -2.79251958e+028,   4.91461684e+006,  -1.43076075e+115,
        -4.42528851e+173,   2.18907753e+006,   7.16735929e+007,
         2.41366834e+005,   9.03338256e+003,  -1.38122100e+006,
         9.41549866e+098,   5.20349174e+005,   1.08250837e+006,
         1.72606839e+008,   1.41424675e+011,   1.26553858e+145,
         3.35211346e+015,   5.72409009e+032,   4.49445371e+002,
         8.25566252e+177,  -1.13853993e+009,   9.26317917e+005,
        -5.04203550e+112,  -6.78427401e+104,  -3.55462301e+006,
        -1.86969546e+030,   1.77326977e+042,   1.52456606e+016,
         2.42908442e+009,   2.59355622e+007,   1.22143728e+081,
        -4.50716262e+013,  -3.46466259e+005,   7.17590033e+012,
         2.79791607e+092,  -8.39451670e+008,  -4.00782328e+117,
        -5.77474183e+010,   1.23088747e+006,   2.24882020e+109,
        -2.42518067e+007,  -1.76277364e+002,   3.18304797e+145,
         7.94483573e+005,  -2.14237999e+004,   3.88739261e+100,
        -6.25498611e+004,   1.27176669e+006,   6.18962842e+007,
        -7.18728778e+007,  -1.09913097e+106,   4.68325999e+006,
        -8.40700989e+006,  -6.45389388e+004,  -4.87601550e+008,
        -3.11709530e+174,   1.43973930e+003,   7.91231479e+029,
         1.05748182e+004,   5.22047743e+009,  -6.62617205e+016,
        -5.90161276e+009,   4.85924076e+099,  -9.42660330e+089,
        -6.09551304e+133,  -1.22431008e+014,  -1.14658116e+067,
         1.96302487e+139,   4.48892243e+004,   1.42154767e+007,
        -1.37943161e+010,   5.94918543e+003,   4.67172281e+104,
        -1.60349039e+010,   9.36421142e+006,   3.90514165e+010,
         1.32125633e+008,  -3.67758269e+058,  -9.35369768e+004,
         1.90596700e+008,   3.11880463e+064,  -1.10048236e+107,
        -9.89099371e+114,   1.71091053e+099,  -2.78034104e+031,
         3.21490156e+005,   7.50981566e+204,   1.28687078e+006,
         1.03795339e+007,  -9.12090823e+098,   2.48276502e+008,
        -1.28036393e+005,   6.74147515e+098,   1.71877548e+178,
         2.25974109e+012,   4.30248107e+006,   1.90251297e+009,
         2.50684211e+114,   3.72367206e+020,   8.06321783e+006,
        -6.67454539e+005,   9.63076641e+006,  -5.07640179e+150,
         2.12345687e+005,  -1.53815703e+009,  -2.17682693e+013,
        -3.20177350e+002,  -8.08094752e+013,   2.44877958e+005,
         1.26501991e+015,  -1.37517524e+010,  -1.15197809e+174,
        -3.47998139e+014,  -3.97694300e+006,  -6.09802190e+002,
        -3.26641443e+058,  -5.58070528e+012,  -7.70839364e+047,
        -1.21201536e+017,  -1.43637058e+017,  -2.95525305e+014,
         3.98987149e+008,  -4.81898630e+002,   9.43880560e+007,
        -7.05651793e+009,  -2.18975124e+027,  -7.30457880e+103,
        -2.81303139e+015,  -2.66683902e+114,   2.40865846e+005,
        -2.64968388e+002,   9.45294707e+004,   6.51754620e+009,
         2.95541200e+004,   4.68026974e+136,   1.65460284e+004,
         5.44859708e+004,   1.20054405e+005,  -2.73435762e+064,
        -2.16922794e+010,   4.08612502e+054,  -1.60249839e+011,
         5.68265497e+011,  -8.08221621e+006,   3.77708319e+146,
         7.24929919e+027,   7.71069612e+008,   7.85232610e+006,
         5.61656227e+012,  -1.02998269e+008,  -2.57438766e+006,
         9.30581407e+004,  -7.55980215e+008,  -6.62227401e+005,
        -4.35517040e+004,   2.93450936e+003,  -2.91592748e+009,
         8.40662084e+005,  -1.68676959e+016,  -5.11151636e+005,
        -6.41887677e+141,  -5.81154426e+004,  -1.58070460e+101,
        -5.08275905e+007,  -2.50767786e+005,  -3.64232172e+008,
         4.56690722e+012,   1.46748849e+011,  -1.54592773e+010,
         1.61428577e+006,   5.70141547e+016,  -7.68819093e+060,
        -3.55978102e+012,   1.02393144e+004,   3.02971588e+058,
         1.86162857e+010,  -8.35016939e+066,   5.18489067e+010,
        -3.65356055e+007,   2.61210137e+017,  -1.02412056e+007,
         1.59850817e+007,  -1.43422922e+007,   1.42144501e+011,
         2.70824078e+139,   9.88955783e+013,   2.19079206e+009,
        -1.84692664e+013,  -1.27820560e+101,  -6.58624552e+004,
        -8.95942491e+008,  -6.38050915e+004,   3.17989526e+008,
         9.69505859e+020,   1.32415896e+005,   2.20999684e+002,
        -3.16109726e+007,  -2.12060151e+103,  -3.57998012e+146,
         4.91393372e+008,  -5.73674164e+003,   3.57215184e+010,
        -4.14991016e+003,  -3.21317144e+010,   2.90362376e+003,
         7.04106620e+005,  -8.60831629e+007,   2.83759388e+003,
         4.22424473e+110,   1.18867191e+171,   3.63675470e+114,
         2.06647374e+179,  -8.08050661e+003,  -1.07476309e+009,
        -2.64278215e+003,   2.69155539e+011,  -4.64513730e+110,
         3.20235677e+144,   3.23525659e+006,  -1.99912255e+005,
         2.87004823e+009,  -1.50205513e+009,  -1.11301034e+064,
        -4.59494477e+005,   8.74561073e+003,   4.40116116e+091,
        -1.71649187e+093,   7.05407266e+007,  -3.34935883e+106,
         9.37012616e+008,   9.76760844e+006,   1.64782101e+006,
         1.09122592e+008,   1.56196186e+007,   4.90961546e+101,
        -5.20554501e+014,   2.33855417e+027,  -7.61941686e+004,
         2.60601625e+008,   1.18397730e+008,  -5.42621705e+006,
         4.29992551e+004,   1.03344716e+091,  -1.44287574e+008,
        -4.24342260e+009,  -4.21570560e+015,   2.17396857e+010,
         8.50820168e+004,  -1.48094082e+016,  -5.95984944e+003,
         9.75124376e+002,  -2.77477452e+106,   1.41750356e+169,
         2.85433545e+006,   5.04452869e+010,   1.66067147e+013,
         4.08315582e+002,   1.31744350e+003,   7.43985391e+003,
         5.28023071e+112,   1.51440100e+005,  -1.15232018e+007,
        -3.54097515e+044,   2.56018039e+005,   2.92398782e+020,
        -7.92147507e+008,  -1.52267207e+163,  -3.25892563e+005,
         1.51569477e+009,  -1.58070460e+101,  -3.59968880e+010,
         4.16969150e+004,  -1.51640349e+014,  -2.72876410e+004,
        -7.28102762e+053,  -2.58034532e+099,  -1.04648839e+083,
         6.00333935e+013,   1.31827430e+006,  -6.03624352e+006,
        -6.52261464e+002,   4.23687799e+005,   1.85384838e+007,
         2.18772288e+005,   4.33775166e+103,  -2.89891986e+082,
        -7.86923131e+008,   1.94976384e+017,  -1.70467754e+004,
        -8.94304631e+008,   1.59124925e+005,  -2.84661789e+011,
        -6.71808964e+177,   3.14579269e+145,  -5.48175792e+062,
        -7.95692285e+006,  -2.20696949e+116,  -5.00010311e+011,
        -2.11333538e+016,   2.24587403e+004,   1.18646538e+016,
        -3.82627150e+007,  -2.67423099e+006,   1.56917606e+013,
         2.17881317e+005,   2.61898908e+004,  -6.08699493e+021,
         8.95492420e+003,  -2.09880503e+010,   6.56420595e+007,
        -6.96728892e+012,  -3.77159920e+103,  -5.91750252e+023,
         5.45802249e+007,  -1.32768132e+013,   1.77568010e+003,
         6.14134649e+002,   1.61690380e+022,   1.03186794e+023,
        -2.12465751e+002,  -1.70771829e+077,  -8.24787225e+013,
        -4.46787203e+011,  -2.86271022e+006,   1.29430280e+004,
         4.15157543e+007,  -4.31157978e+005,  -1.10179565e+008,
        -6.18523337e+009,  -2.55870152e+004,  -5.04357794e+005,
         7.44656362e+004,  -1.88943596e+016,  -6.98136852e+176,
        -1.43451722e+010,  -1.55393297e+015,   2.90981121e+066,
         2.73739629e+004,  -1.55403503e+014,  -2.02298305e+008,
         1.83613065e+009,  -2.34071532e+009,   4.02773019e+177,
         2.85613969e+010,   4.86608629e+007,  -2.20297564e+003,
         2.36763556e+109,  -1.87024584e+014,   5.47149891e+140,
        -1.00948831e+006,  -3.82277389e+013,   3.01965742e+007,
        -5.17113163e+011,  -1.30319207e+010,  -9.41931544e+007,
        -3.21635139e+008,  -1.86576424e+160,  -2.63308330e+003,
        -1.77700600e+006,  -5.64569593e+101,  -4.89099329e+011,
         6.16560782e+008,   6.74754307e+101,   1.21624346e+003,
         3.14269510e+018,   6.95261094e+020,   2.61766164e+025,
         1.87907162e+137,   2.66902987e+009,  -5.23872418e+026,
        -1.11436768e+018,   6.28351784e+006,  -4.46854465e+005,
         6.04836048e+011,  -4.69869927e+006,  -7.29229686e+006,
        -5.74642326e+019,  -3.01182420e+010,  -1.69302189e+009,
         2.51581621e+183,   5.72045000e+012,  -9.56570329e+012,
         1.33840679e+010,   3.61830501e+005,   6.90951705e+099,
        -7.76730783e+007,  -1.19282116e+010,   4.50764249e+008,
         1.01112779e+111,  -2.76302905e+008,   3.55009590e+013,
         4.39061901e+081,  -6.83764489e+008,   1.47784501e+006,
         8.99503925e+005,   1.07260395e+217,  -3.83461680e+101,
         2.95035025e+008,   2.23425824e+006,  -5.99230821e+068,
        -4.49833561e+007,   2.67990271e+004,  -1.53060472e+110,
         1.07189787e+111,   3.07388598e+011,  -5.80494965e+005,
         8.71728331e+003,   2.62813002e+014])]