Action MLP:Hidden weights: [array([[ 0.06162543,  0.37758403, -0.11445798, -0.23768565, -0.25803181,
        -0.35206077,  0.24897062,  0.24417848,  0.1840476 ,  0.1840509 ,
         0.38802261, -0.13455568,  0.21217346,  0.04301859, -0.24688498,
         0.03928861, -0.49029296, -0.2120977 , -0.38599855, -0.11304804,
         0.35812335,  0.01245623,  0.44006393, -0.34408248, -0.09031534,
         0.20512008, -0.37126509, -0.26534283, -0.26968082, -0.29819126,
        -0.35364445, -0.15891141,  0.3447332 ,  0.44448584, -0.34859538,
        -0.43863601,  0.03361261,  0.05859602,  0.11668975, -0.36301201,
         0.34955017,  0.07122162,  0.13621515, -0.14928775, -0.04364286,
         0.10864339, -0.33449351, -0.15170531, -0.35415408, -0.47749123],
       [-0.13753867, -0.07737399, -0.36046056,  0.08893894, -0.10416432,
         0.479117  , -0.18390486,  0.25245136,  0.37179631,  0.15346015,
         0.00663347, -0.17693729, -0.15861228, -0.4000229 ,  0.45340024,
         0.03261197,  0.37949586, -0.45177521, -0.49927414,  0.01210161,
         0.1023237 ,  0.13063041, -0.4357209 , -0.44872581, -0.06551785,
         0.05141614, -0.30873892, -0.45090044,  0.3516525 , -0.38453505,
        -0.37009832,  0.37984763, -0.43331748,  0.30060167, -0.30850267,
        -0.40515194,  0.16732378,  0.22008583,  0.3248905 ,  0.43501571,
        -0.04727592,  0.46032531, -0.30629845, -0.13240215, -0.05413553,
        -0.44428212,  0.20226578,  0.40196129, -0.41909016, -0.12738367],
       [ 0.2438531 , -0.18245028, -0.02013591, -0.36243446, -0.39228942,
         0.03651121,  0.08641088, -0.41439253,  0.095291  ,  0.01890797,
         0.30641808, -0.39116882,  0.3170663 , -0.17564359,  0.18200878,
        -0.11076451, -0.01984475, -0.40808737, -0.23179642,  0.024062  ,
         0.14835909, -0.15045009, -0.34402898, -0.15527007, -0.26506758,
        -0.40144841, -0.13720547,  0.10602749,  0.34601953, -0.26779531,
        -0.08214984,  0.4800343 ,  0.25239785, -0.03880023,  0.46981649,
         0.05241569, -0.29695589, -0.27648931,  0.30595871, -0.48859494,
         0.16980282,  0.29195393,  0.16433692, -0.07504629, -0.06250086,
        -0.15639914,  0.08807224, -0.44056577,  0.17887664, -0.35459429],
       [ 0.42367596, -0.46445609, -0.0689175 , -0.26889731,  0.09929786,
        -0.37248424, -0.43709608,  0.47133084, -0.38763134, -0.27169818,
        -0.32037727,  0.1722818 , -0.38943468,  0.3700449 , -0.467996  ,
        -0.20056299,  0.13971532,  0.35069997, -0.21070037,  0.17743355,
         0.12288959, -0.09823952, -0.26564885, -0.33514157, -0.18970104,
        -0.0773437 , -0.29924746,  0.32896668,  0.03869821, -0.38477471,
        -0.2106464 , -0.15275599, -0.20750267,  0.40778805,  0.01324823,
        -0.0861552 ,  0.21077624,  0.36538768,  0.14624955,  0.52501986,
        -0.09239349, -0.09384559,  0.3279944 , -0.23737931, -0.05416315,
         0.44718673,  0.19365918, -0.34214368, -0.25773777, -0.08594061],
       [-0.21194885, -0.05122423,  0.48478509, -0.03708932,  0.24223347,
         0.25501774,  0.44299002,  0.12005195,  0.15816051, -0.16823316,
        -0.08874375,  0.15821265, -0.05561522,  0.4062659 , -0.33284374,
        -0.08539729, -0.01376953,  0.11295537,  0.2677443 , -0.3601754 ,
        -0.07679757, -0.2651677 ,  0.28565276, -0.31524906,  0.0220178 ,
        -0.11280178,  0.02491356, -0.38073017,  0.26436952,  0.23274344,
        -0.30661966, -0.31276398, -0.05097035,  0.20475697,  0.03067463,
        -0.31709189, -0.03495219, -0.48597203, -0.05854158,  0.08370192,
         0.34408322, -0.33076632, -0.3236012 , -0.16488927,  0.32050538,
        -0.17850404,  0.14257818, -0.36550766,  0.23574466, -0.48144818],
       [-0.11218449,  0.196233  , -0.19694975, -0.12809751,  0.04684865,
         0.02392022,  0.3723459 , -0.39211909,  0.16893769, -0.2759463 ,
         0.31513328,  0.25212318, -0.1716836 ,  0.47972974,  0.12799365,
         0.02732178,  0.3730262 ,  0.12833192,  0.47077611,  0.16584424,
        -0.27583786,  0.19579695,  0.44515426,  0.26895582,  0.00121077,
         0.08613296, -0.11167648,  0.13668296,  0.09673159, -0.29574273,
        -0.34970284, -0.02454768, -0.00556009,  0.1512656 , -0.33064633,
        -0.07030033,  0.49361856,  0.34857352,  0.31470635,  0.04696015,
         0.01603866,  0.18688229, -0.18954216, -0.00220003,  0.44193669,
         0.29860361,  0.44728544,  0.27969856, -0.48135925, -0.27967556],
       [-0.22390646, -0.111512  , -0.15067843, -0.42235699,  0.07569162,
         0.35897948,  0.38823084,  0.32083418,  0.16271597,  0.40267168,
         0.43903077, -0.28098697, -0.13855227,  0.02657649,  0.17485529,
         0.20644545,  0.36473072, -0.40260203, -0.09870216, -0.29338757,
        -0.15732013,  0.13849448,  0.38814271, -0.39484075, -0.01880266,
         0.05177862,  0.28742182, -0.1871111 , -0.4146541 , -0.41087805,
        -0.22253838,  0.26601332, -0.231918  ,  0.41818293, -0.33431072,
         0.17519552, -0.14761197,  0.49008228,  0.01781775, -0.38937456,
        -0.24052951, -0.25429671, -0.34241495,  0.48344824,  0.44458672,
        -0.14448845, -0.4681765 ,  0.290408  ,  0.14308471, -0.24789751],
       [ 0.16392218,  0.05124999,  0.32097635, -0.40438374, -0.18762056,
         0.01011922, -0.33967808,  0.47603989, -0.37453076,  0.07468278,
        -0.26672752,  0.13589617,  0.03260744,  0.3482122 ,  0.13728305,
        -0.1983856 ,  0.46168256, -0.18647779, -0.07916149, -0.27373098,
         0.30821421,  0.01568905,  0.3386512 , -0.49288307, -0.00221061,
        -0.49686785, -0.42292643, -0.00652844,  0.22262052, -0.34779268,
        -0.14611917,  0.37423179, -0.20517614,  0.40994415, -0.42471605,
        -0.3033879 ,  0.45353103,  0.1775197 ,  0.17157501, -0.11820349,
         0.35680176,  0.00201044,  0.16523936,  0.20237177, -0.2133711 ,
        -0.04747893, -0.04680717, -0.17393321,  0.25036976, -0.13746724]]), array([[-0.41978125, -0.45922625,  0.15748009, ...,  0.30616913,
         0.16299713, -0.29645635],
       [-0.42163924, -0.47984409,  0.48566659, ..., -0.07689423,
        -0.06481144,  0.46076455],
       [ 0.44712596, -0.01429101,  0.32981612, ...,  0.02562055,
         0.32538766, -0.4165409 ],
       ..., 
       [ 0.23421682,  0.3963909 , -0.32162651, ..., -0.08214163,
         0.42300203,  0.22723529],
       [ 0.4144024 ,  0.13501897,  0.41542949, ...,  0.14749927,
        -0.29587144, -0.06867845],
       [ 0.45518374,  0.25969202, -0.11611219, ..., -0.42148903,
        -0.17030731,  0.20439884]])]Hidden bias: [array([-0.99974607, -0.95859002, -1.00550023, -1.001584  , -1.02213784,
       -0.9855012 , -1.00338096, -0.98397182, -0.99724275, -1.0183141 ,
       -0.96496401, -0.98870317, -0.9923875 , -0.99258285, -0.94354263,
       -1.01651439, -0.98399208, -1.01141765, -1.00323193, -0.98488503,
       -1.00344672, -1.00116128, -0.98614258, -0.97812322, -0.99284751,
       -0.99327086, -1.01185403, -1.01430191, -0.99835362, -0.97930216,
       -0.99823947, -0.9930648 , -0.99547657, -0.99948039, -0.97311191,
       -0.98879826, -0.99127139, -1.00562218, -1.00011906, -0.99915138,
       -1.0164763 , -1.03045515, -0.9973894 , -1.00705443, -1.00716506,
       -0.98638746, -1.0045442 , -1.00196993, -0.97161798, -1.00740042]), array([-1.00481287, -1.00784422, -0.99534738, -1.00349036, -1.01003641,
       -0.99561203, -1.01322648, -1.00040973, -1.00003292, -0.99774471,
       -1.00096522, -0.98257178, -0.99635838, -0.99388666, -1.01323212,
       -0.99455978, -0.97945541, -1.00010488, -1.00745918, -1.00002116,
       -0.97684141, -0.99331827, -1.00329074, -1.00513754, -1.01890515,
       -1.00913815, -1.00245145, -0.99897736, -0.99516856, -1.00671297,
       -1.01447542, -1.02001015, -0.98944281, -0.99961587, -1.01605099,
       -0.99955538, -0.99860141, -1.0066232 , -1.00260179, -1.00620743,
       -0.99976383, -0.99780699, -1.00351332, -0.99739776, -1.01230697,
       -1.01057108, -0.98740983, -1.00266863, -1.01895763, -0.9784248 ])]Output weights: [[-0.07165     0.19849294]
 [-0.2780618   0.1301039 ]
 [ 0.4753399   0.17019623]
 [-0.27346877  0.48617608]
 [ 0.42498001  0.18478247]
 [-0.03104637  0.46914278]
 [-0.28849549  0.44292673]
 [ 0.08024542 -0.22763827]
 [-0.44158581  0.18257239]
 [-0.05823002 -0.1672081 ]
 [-0.3478723   0.41383019]
 [ 0.46422268  0.23990919]
 [-0.08972377 -0.21999879]
 [-0.29191655 -0.39145929]
 [ 0.36289842  0.4780863 ]
 [-0.12817053 -0.44878856]
 [ 0.42408871 -0.18249837]
 [ 0.18160288 -0.24962311]
 [ 0.23522393  0.2991289 ]
 [-0.08334545 -0.01917536]
 [ 0.33921219  0.12865437]
 [ 0.05165311 -0.29363591]
 [ 0.35372121 -0.42924866]
 [ 0.41014225  0.13260877]
 [-0.30971754 -0.38744722]
 [ 0.19102523  0.08901264]
 [ 0.0266002  -0.04987101]
 [ 0.30147348 -0.11729107]
 [ 0.30385205 -0.26975266]
 [ 0.30801896  0.176105  ]
 [ 0.14137964  0.417432  ]
 [ 0.4548681  -0.13238331]
 [ 0.12771354  0.34234662]
 [ 0.25435132 -0.31469324]
 [-0.19034887  0.48465965]
 [ 0.06142933  0.37776853]
 [ 0.01564318 -0.19944492]
 [-0.17963327  0.08794878]
 [ 0.44151549 -0.04919131]
 [-0.11629215  0.37104541]
 [ 0.21396311 -0.13071872]
 [-0.39036638 -0.23738735]
 [ 0.13347613  0.29602775]
 [-0.16277527 -0.39237237]
 [-0.37772568 -0.04749737]
 [ 0.22200535  0.18607207]
 [-0.12754993 -0.45803293]
 [ 0.22607074  0.34341482]
 [ 0.35092392  0.38559827]
 [ 0.36172377 -0.20263335]]Output bias: [ 1.01266504  0.9738318 ]
Value MLP:Hidden weights: [array([[  7.09709377e+00,  -9.61915089e+00,  -7.05868913e-01,
         -2.99111094e+00,   1.17844070e+00,  -1.70905806e+01,
          5.57519184e+00,  -1.76315577e+01,   8.70457762e+00,
         -5.49059038e+00,   1.39401017e+01,   5.45174923e+00,
          1.28399143e+00,   1.20115571e+01,  -5.23251432e-01,
         -1.67616921e+01,  -1.44347376e+00,   2.52338113e+00,
          4.35664708e+00,  -4.02549869e+00,   4.56986235e+00,
          1.97404209e+00,   2.29595449e+00,  -5.33728404e+00,
          7.01403981e+00,  -3.21227112e+00,  -8.68993020e-01,
          1.23742772e+00,   1.85609758e+01,  -1.28805147e+00,
         -5.31450365e+00,  -3.81666638e+00,   1.14514833e+01,
          2.49051503e+00,  -2.19951114e-01,   1.29734602e-02,
         -1.19504807e-01,   2.24813162e+00,  -1.29900949e+01,
         -6.15484249e+00,  -1.96547617e+01,  -7.84505966e+00,
          4.73460129e-01,  -3.95043923e+00,   1.68101652e+00,
         -3.14286959e-01,   1.35759635e+01,  -4.23050430e-03,
         -2.16934794e-01,   8.24867691e+00],
       [ -1.77475270e-01,   7.75234124e+00,   6.93994516e+00,
          6.97107220e+00,   6.07192791e-01,  -3.21496437e+00,
         -7.84345015e+00,   1.16481589e+01,   5.73655327e+00,
         -2.52642444e+00,  -1.21380628e+00,   7.65567209e+00,
         -9.76391208e+00,   2.90195185e+00,  -1.36136432e+00,
         -1.78197549e+01,   4.36857141e+00,  -1.02937740e+01,
         -7.45530829e-01,  -4.88361985e+00,  -2.69644772e+00,
         -9.61378279e+00,  -1.33590082e+00,  -3.19506835e+00,
         -9.69558404e+00,  -8.96742297e+00,  -6.37326667e+00,
          1.01052210e+01,  -2.02532556e+01,  -7.09612079e-01,
         -1.36456868e+01,  -3.05537202e+00,   1.69506212e+01,
          2.25279856e+01,  -9.56964261e-01,   2.33582074e+01,
         -1.65918839e+00,  -1.51979756e+01,   6.24310483e+00,
         -6.22977472e+00,  -3.75874582e+00,   8.83140061e+00,
          1.22385665e+01,  -4.99578759e+00,   1.28941224e+01,
         -1.18705463e+01,   4.63414322e+00,  -8.20273635e-01,
         -2.65616878e+00,   1.51842843e+01],
       [  1.09072542e+01,   1.54858982e+00,   2.85721182e+01,
         -7.78217786e+00,  -9.66635631e+00,   1.05105586e+01,
          3.89774991e+00,   3.14692095e+00,  -1.76165197e+01,
          2.20957333e+01,  -1.48724804e+01,  -4.02910126e+00,
         -1.72976176e+01,   3.29111212e+00,  -1.76791967e+01,
          1.43695972e+01,   7.72418667e+00,  -1.51858398e+01,
          5.32918249e+01,   7.47991629e+00,   1.12853427e+00,
          1.48751471e+01,   3.42099306e-01,   1.41727602e+01,
         -4.72937474e-01,   8.60447966e+00,   1.24942929e+01,
          1.70126920e+00,  -2.85320490e+01,  -1.96272417e+00,
         -7.68065172e+00,   8.27957424e+00,  -1.64326014e+01,
          1.94637326e+01,   8.72524322e-01,  -1.53423166e+01,
          3.86292609e-01,  -1.17639966e+01,   2.09761120e+01,
         -1.86672219e+01,   4.05953874e+00,   5.16383216e+00,
          1.17388634e+01,   1.26737294e+01,   2.40363387e+00,
          1.37050005e+01,  -2.51651089e+00,  -2.79490488e-01,
          1.64972726e+01,  -4.75564279e+00],
       [  2.71876865e+00,  -4.48012226e+00,   8.45773690e-01,
          2.33150670e-01,  -3.09880428e+00,  -1.19395146e+00,
          4.15706423e+00,   1.29901709e+00,  -1.06578929e-01,
         -1.42699992e+00,  -3.45386141e+00,  -6.11621402e-01,
          1.55182466e+00,  -1.71602358e-01,  -4.20381358e+00,
          4.67031536e+00,   3.56182003e-01,  -2.01692924e+00,
         -6.21625353e+00,   2.09465105e+00,   2.31604725e+00,
         -1.27062969e+00,   2.33337551e+00,   1.12961001e+00,
          2.74183036e+00,   1.60808935e+00,   3.81555510e+00,
         -1.73969240e-01,   3.25280702e+00,   1.90462346e+00,
         -1.89636860e+00,   3.38061678e+00,  -3.47485691e+00,
          3.24302646e+00,   2.86692047e-01,  -5.55763952e+00,
          2.86143186e-01,  -1.99473019e+00,   4.08759661e-01,
          2.78921351e+00,  -1.32046892e+00,   1.24881146e+00,
          3.25525442e+00,   2.68959160e+00,  -1.13992831e+00,
          5.38734803e+00,   4.26643486e+00,   1.05932381e+00,
          1.03238407e-01,  -1.12071555e+00],
       [  3.21230582e+00,  -7.00298219e+00,  -1.32712079e+01,
          1.28637784e+01,   1.04529102e+01,  -1.92424798e+01,
          5.55302788e+00,  -2.72410975e+01,   1.23753092e+01,
         -1.34786840e+01,   2.02905751e+01,   1.20645535e+01,
          1.84106490e+01,   8.58507732e+00,   2.03661271e+01,
         -1.63249794e+01,  -1.11604069e+01,   1.59799830e+01,
         -3.51533630e+01,  -1.10715523e+01,   3.56892263e+00,
         -9.60685335e+00,   5.33247116e+00,  -1.25058730e+01,
          9.97804596e+00,  -1.03651271e+01,  -1.07783897e+01,
          2.26943248e+00,   3.78391739e+01,  -5.29642931e+00,
         -2.50590394e+00,  -1.15368109e+01,   1.95749699e+01,
         -1.54691693e+01,  -1.16181780e+00,   1.40635386e+01,
         -3.18645343e-01,   1.87100229e+01,  -2.58938337e+01,
          2.71193500e+00,  -1.50019944e+01,  -1.69466481e+01,
          7.62699219e-01,  -1.75645088e+01,   3.75150987e+00,
         -1.36701053e+01,   7.31837010e+00,   3.45885640e-01,
         -2.97072926e+01,   7.91039875e+00],
       [  1.02017481e+01,  -1.24933866e+01,   1.07718172e+01,
          1.57880038e+01,   1.06721944e+01,  -1.56563975e+01,
          2.35270823e+01,  -1.18109263e+01,  -4.83550627e+00,
          2.69667278e+00,   6.62653190e+00,   1.28948863e+01,
          2.52837006e+01,   9.64448803e+00,   2.19526616e+01,
         -1.60299126e+01,  -3.52125849e+00,   1.30720786e+01,
         -1.85155420e+01,  -1.23264219e+01,   1.05733303e+01,
         -1.74166428e+01,   2.85880120e+00,  -2.14620261e+00,
          1.14681368e+01,  -6.15300819e+00,  -5.70960263e+00,
          9.87232437e+00,   1.77229436e+01,  -1.34303247e+01,
         -1.75662228e+01,  -1.47731850e+01,   9.31281199e+00,
         -1.02097535e+01,   5.23923740e-01,   1.69617689e+01,
          3.18067866e-01,   1.52263640e+01,  -7.72203031e+00,
         -6.94896135e+00,  -1.22993167e+01,  -1.15361583e+01,
          2.09186078e+01,  -1.44036775e+01,   7.44766994e+00,
         -1.17528878e+01,  -4.41034117e+00,  -2.38363310e-01,
         -5.71653219e+00,  -3.87551988e+00],
       [ -1.03399018e+00,   7.55651387e-02,   2.16245511e+00,
          1.57967344e+00,   2.40927265e+00,  -2.14493911e+00,
         -5.65679575e+00,   3.51472093e+00,  -5.30919048e+00,
          4.44585213e+00,  -4.78881645e-02,  -5.63148266e+00,
         -2.89597984e+00,  -1.97775855e+00,  -2.21218913e+00,
          3.01167607e+00,  -3.58030966e-01,   5.26741863e+00,
          6.14656200e-01,  -6.11354657e+00,  -5.28492652e-01,
         -5.54542956e+00,  -2.12006855e+00,  -3.45203387e-01,
          3.66447540e+00,   7.30568401e-01,   2.65268225e-01,
          2.11100010e+00,  -1.81490187e+00,  -2.90621067e+00,
         -1.92829872e+00,  -7.47717319e-01,   3.40712475e+00,
         -2.45559946e+00,  -9.04532416e-01,  -2.06924702e+00,
         -2.96265648e-02,   5.03977656e+00,  -7.60900318e-01,
         -4.91081181e+00,   1.47783183e-01,  -3.11791213e+00,
          1.14688748e+00,  -9.84994492e-01,  -5.68455113e-01,
          7.52866846e-01,  -4.94800673e+00,  -5.73982917e-01,
          5.58658873e-02,  -1.33987915e+00],
       [ -2.12524204e+00,   1.95570496e+00,  -4.12252486e+00,
         -2.59246365e+00,   2.72718279e-01,  -1.52899571e+00,
         -3.42285306e+00,   4.66932712e+00,   1.17625424e+00,
         -1.77103936e+00,   2.58003723e-01,  -1.95033467e+00,
         -2.20423438e-01,   3.83563712e-01,  -2.22179338e+00,
          2.35888728e+00,  -4.22185359e+00,   1.04025016e+00,
         -1.49979570e+00,   7.51316136e-01,  -2.11022873e+00,
          6.08333174e-01,  -1.41277626e+00,  -4.16665801e+00,
         -6.73273412e-01,   4.97914428e-01,  -2.42128315e-03,
         -1.68265260e+00,   1.38922680e+00,   5.08112162e-01,
          4.08030440e+00,   1.11948116e+00,   1.11234983e+00,
         -1.66746218e+00,  -7.00730176e-01,   6.07421076e-01,
         -3.43374173e-01,   2.81620487e+00,  -3.49824511e+00,
          3.80511504e-01,  -1.30679719e-01,  -4.41189378e+00,
         -2.72007509e+00,  -3.28411814e-01,   7.90361721e-02,
         -2.68183500e+00,  -2.46462675e+00,  -3.06682398e-01,
         -1.01421494e+00,   1.87537557e+00]]), array([[  0.31570974,  -0.67016347,  -1.36087581, ...,  -0.43523364,
          7.12306113,   1.6061198 ],
       [  1.11057717,   0.80855258,  -0.28123387, ...,  -0.56506997,
        -12.3090181 ,  -0.10948556],
       [  2.88827625,   0.34061722,  -1.83432698, ...,  -2.14853939,
        -12.67098941,   1.62025687],
       ..., 
       [  0.91291943,  -2.01758746,   0.1312783 , ...,   0.09253354,
          4.43783115,   1.37244874],
       [  2.04557572,   0.83765291,  -3.15039425, ...,  -2.40031864,
        -16.42091125,   1.13033926],
       [ -2.00743995,   1.77797414,   0.11692815, ...,  -1.93480679,
          6.64176632,   0.30547727]])]Hidden bias: [array([-11.2967111 ,   9.22369984,   6.77219141,   3.05349523,
         4.09215612,  -0.53087746, -16.03068682,  15.51020976,
        -0.28732392,   0.14679323, -11.16150379,   1.58936386,
       -11.43127863,  -3.33744723,  -3.85552541, -13.92254771,
        -0.2624096 , -13.14539186,   7.67281599,  -9.69454529,
        -7.64133912, -18.81632067,  -5.89274655,  -8.15330733,
        -9.91884808, -10.14284018, -13.87227741,  12.54138801,
       -29.14149611,  -7.61306988, -17.02896251,  -6.12408252,
        17.08489328,  12.01355372,  -3.67057151,  25.89422228,
        -3.49030521, -14.01321587,   2.64235026, -10.04179881,
         3.35130896,  -2.93698958,   6.88241338,  -4.04057942,
        12.25665951, -15.21576166, -13.17780587,  -3.41123427,
        -8.02670184,  12.02208185]), array([-1.94955489,  0.59184505, -1.63830768, -1.83082448, -2.32453645,
       -3.60665229, -2.19132374, -1.72014093, -0.92680518, -1.07146081,
       -0.73358742, -0.83554615, -3.05046704, -0.15624502, -1.17609979,
       -0.12892319, -2.56044117,  1.54579911,  2.32131779, -3.96816388,
       -2.07335895, -1.22648182, -2.29677021, -1.20700615, -1.33399433,
       -0.53925129, -0.80480838, -1.93317773, -4.35162209, -1.86872542,
       -2.33434205, -1.04559678, -0.46044767, -0.76639832,  0.28114272,
       -0.10113089,  3.32330515, -2.40870125, -2.5861846 , -3.00684272,
        0.67876223, -1.87481255, -0.22132501, -3.39134871,  0.00952349,
       -0.77576783, -2.20735155, -1.27228584, -7.36652067, -2.32289942])]Output weights: [[  7.98534978]
 [  6.92366029]
 [ -0.04606933]
 [  9.41374895]
 [  8.97550189]
 [ 19.09642122]
 [ -5.96390709]
 [  9.39423575]
 [ 11.31212096]
 [  8.97001134]
 [  5.74213426]
 [  7.72007802]
 [  7.4646241 ]
 [ -3.8313952 ]
 [ -9.43367934]
 [  8.54659499]
 [ -1.0320412 ]
 [  0.97615711]
 [-15.74680228]
 [ 11.17739525]
 [  6.77522585]
 [  7.79034235]
 [ 10.7088403 ]
 [  8.94866278]
 [  8.46204482]
 [ 11.44830691]
 [ -6.67315579]
 [ 11.40806567]
 [ 27.88743774]
 [  9.51707251]
 [  9.66456193]
 [  5.30358957]
 [ -5.67671733]
 [  7.52827528]
 [  7.67892703]
 [  5.57842458]
 [-22.09296484]
 [ 16.40074551]
 [  6.07899241]
 [  8.33789767]
 [ 11.90622967]
 [ 17.32671384]
 [  9.63705323]
 [ -5.07730063]
 [  7.05418009]
 [ -9.15014295]
 [  6.2296071 ]
 [ -7.15812685]
 [ 32.82276995]
 [ 10.39778717]]Output bias: [-75.75534296]