Action MLP:Hidden weights: [array([[  1.63268422e-01,   3.85219898e-02,  -3.14206594e-01,
          3.63639563e-01,  -3.90611763e-02,   8.32612723e-02,
         -3.47994023e-01,  -7.89533086e-02,   4.81486114e-01,
          1.62253276e-01,  -2.40795047e-01,   1.48092489e-01,
         -7.47641347e-02,   4.86499818e-01,  -3.09391396e-01,
          3.29947429e-01,   3.40824946e-01,  -3.48716200e-02,
         -2.16104713e-01,  -3.89997156e-01,   1.86002142e-01,
         -4.38273831e-01,  -2.12188913e-01,   1.93746390e-01,
         -2.43343676e-01,   3.37904079e-01,  -1.54738062e-01,
         -5.67172556e-02,  -2.34689180e-01,  -2.68803004e-01,
          4.55904497e-01,  -2.41729218e-01,  -3.19764133e-01,
          7.71832037e-02,   3.95208878e-01,  -2.50578059e-01,
         -3.01554816e-01,  -1.45038966e-01,   2.39760706e-01,
          3.52134960e-01,   2.92075279e-01,  -3.55522141e-01,
         -3.76427907e-01,   3.49487271e-01,  -9.31428732e-03,
          5.05648401e-03,  -2.90533929e-01,   1.29357179e-01,
         -1.93467100e-01,   1.80193139e-01],
       [  6.82591709e-01,   3.28980636e-01,   8.36681387e-02,
          5.15082013e-01,   3.81640246e-01,  -4.50148430e-01,
          3.73927438e-01,   8.67345659e-02,  -2.50233014e-01,
         -2.91387691e-02,   5.59581408e-01,  -6.75281803e-02,
         -4.99724541e-01,  -1.05964003e-01,  -2.14737307e-01,
          5.25563351e-01,   4.12588144e-01,   5.01629676e-01,
          6.89277966e-01,   2.16731729e-01,   7.01336603e-01,
         -1.11763889e-02,   7.05978106e-01,  -3.71941092e-02,
          1.56464119e-01,   5.54034276e-01,   4.77454763e-01,
          6.11444049e-01,   5.79484610e-02,   4.22773797e-01,
          9.43055547e-02,   3.25866238e-01,   2.68693350e-01,
          2.53739213e-01,   1.24628661e-01,   6.09390331e-01,
          6.59355047e-02,  -1.33026863e-01,   7.22610960e-01,
          9.84535509e-02,  -7.28430761e-02,   3.61968874e-01,
          9.56151211e-01,  -1.77015574e-01,   5.42712885e-01,
          6.33078489e-01,   4.70332565e-01,  -7.93964125e-02,
         -7.61903216e-02,   2.77293472e-01],
       [ -5.43785857e-01,   3.30218610e-01,  -1.79691563e-01,
          7.22614281e-03,  -4.32764007e-01,   2.47590470e-01,
         -3.69352479e-01,  -2.14876601e-01,  -6.83107076e-02,
         -3.45035035e-01,   1.80128320e-01,  -4.03528543e-01,
         -2.89131721e-01,   4.14833033e-01,  -5.70718462e-01,
         -2.46512122e-01,  -2.98485971e-01,   1.15866031e-01,
         -7.56382177e-01,   6.03226969e-01,  -4.66107091e-01,
          1.32850670e-01,  -4.80295413e-03,   1.66397544e-02,
          1.87561673e-01,   1.96629943e-01,  -3.86509432e-01,
          1.43198369e-01,   2.82429037e-01,   3.45515504e-01,
          3.48073096e-01,  -4.35965872e-01,  -2.64422287e-02,
         -4.54912662e-01,  -3.48671233e-01,  -1.93122018e-01,
          9.22836565e-02,   4.47674316e-01,   2.05650807e-01,
         -3.97107662e-01,  -2.39511242e-01,  -8.58924154e-02,
          3.16677165e-01,   3.57839987e-01,   1.84831155e-01,
         -2.42702399e-02,  -1.34117722e-01,   4.79075860e-01,
         -1.11654905e-01,  -2.54606078e-01],
       [ -1.04622316e-01,   1.76445074e-01,  -5.50734509e-01,
          1.39705395e-01,   1.99802687e-01,  -2.08454365e-01,
         -9.16617663e-03,  -3.06647306e-01,   1.61734997e-01,
          4.28298675e-01,  -9.19960925e-01,   5.06558725e-01,
          1.03951134e-01,  -8.56059989e-01,  -4.82754846e-02,
         -3.18675806e-01,  -4.48642905e-01,  -3.91960254e-01,
         -9.13406092e-02,  -3.73689523e-01,  -1.50760767e+00,
          1.27150019e-02,   3.79722972e-01,   3.19921951e-01,
          2.72408463e-01,  -1.62327229e-02,   6.51337999e-01,
         -1.12939839e+00,   3.10726147e-01,  -2.31101787e-01,
         -4.31487286e-02,   1.69291838e-01,  -1.40701998e-01,
          3.29979822e-01,   7.52466391e-02,  -5.72825208e-02,
         -3.61164105e-01,   1.85666163e-01,  -2.32429474e-01,
          2.18792158e-01,   3.68735490e-01,  -8.11347816e-01,
         -3.71329705e-03,   5.90364378e-02,  -1.30548418e+00,
          6.48223598e-01,   3.22462112e-01,  -3.15612151e-01,
          1.20209634e-01,  -5.11220949e-01],
       [  9.42456132e-02,  -2.37688911e-01,  -3.54002000e-01,
         -7.73764721e-02,  -1.64800144e-01,   3.68567789e-01,
         -2.59110268e-01,   3.42070700e-01,  -7.85669419e-02,
          1.24978573e-02,   2.68005135e-01,  -4.18885843e-02,
         -1.64472533e-01,   4.25322476e-01,  -3.96856078e-01,
          6.93836280e-02,  -2.34036566e-01,  -1.75622933e-01,
          6.76897581e-01,  -5.27442956e-01,   4.26610264e-01,
         -4.90225038e-01,   1.61202922e-01,   3.63366508e-01,
          2.30651871e-01,  -2.19256176e-02,   5.15600982e-01,
         -1.31902824e-01,   3.88911597e-01,   1.17974381e-01,
         -5.86767442e-02,  -2.44251951e-01,   3.55781268e-01,
          3.77079464e-01,   2.33210369e-01,  -2.56544480e-01,
         -1.07951970e-01,   1.23466571e-01,   2.37145436e-02,
          3.75620441e-02,   1.28485718e-01,  -3.95035690e-02,
         -5.11134411e-01,   4.01248998e-01,  -6.19224383e-02,
          1.29961274e-01,   1.99748089e-01,   3.07310927e-02,
          2.23799625e-01,   2.75296673e-01],
       [  1.66843607e+00,   5.08442904e-01,   3.90174329e-01,
          3.83885405e-01,  -7.05658104e-03,  -7.75932610e-01,
          2.41853828e-01,  -2.26548118e-02,  -4.28154487e-01,
          5.78898843e-01,  -1.16507914e-01,  -2.98747938e-01,
          9.55564461e-01,   3.59382700e-01,  -4.00820183e-01,
          8.06774213e-01,  -3.21988711e-01,  -6.06068629e-01,
          1.52474565e+00,  -6.93708803e-02,   1.45320239e+00,
         -1.24372528e-01,   8.31839939e-02,  -2.13582970e-01,
         -6.32623962e-01,  -5.75198105e-01,  -1.27636666e-01,
         -1.28618964e+00,  -1.31489989e-01,   1.13840699e-01,
          2.61229371e-01,   2.02513571e-01,  -5.06320614e-02,
         -2.60708362e-01,   3.10086581e-01,   5.46202190e-01,
         -2.97158965e-01,   6.20695446e-01,  -1.31971924e+00,
         -2.13381526e-01,   1.09579478e-01,   2.22054173e-01,
         -1.09641656e+00,   4.64251237e-01,   1.41895203e-01,
          1.67353912e-01,   1.14494600e-01,   5.21526626e-01,
         -6.12227137e-01,   3.24974997e-01],
       [ -4.79654069e-01,   6.22612887e-03,  -2.16205307e-02,
          6.44040444e-01,   2.78997157e-01,   1.26444206e-01,
         -3.14529059e-02,  -2.78114818e-01,   3.51518026e-01,
          3.84317537e-01,   2.03293885e-01,   2.71733284e-01,
          3.56803203e-01,   2.72043663e-01,   1.93467150e-01,
         -2.74279188e-01,   1.80109317e-01,  -1.23278412e-01,
         -6.35577274e-01,   2.72623926e-01,   4.49938073e-02,
          3.26547754e-01,   2.85101512e-01,   4.93846368e-01,
          5.53095364e-01,  -2.26765550e-01,   3.76197251e-01,
         -4.43415927e-01,  -1.35313439e-03,   4.96316279e-01,
         -1.55206680e-01,   5.42064624e-01,   7.64617250e-02,
          4.81715385e-01,   2.33373155e-01,  -4.39197163e-01,
          2.07653677e-01,   2.37426923e-01,   4.39715176e-01,
         -1.30102476e-01,  -9.99156596e-02,   3.60508959e-01,
         -5.36629285e-03,   1.09412508e-01,   3.92131012e-01,
          9.80735201e-02,   4.61681752e-01,   2.33103604e-01,
          4.60910464e-01,   5.44339002e-01],
       [ -3.55691346e-01,   4.80851367e-01,   2.73320870e-01,
         -1.52824105e-01,   2.85124281e-01,   5.20274112e-01,
          3.33985891e-01,   3.28642356e-01,   9.50688371e-02,
          3.38595755e-01,   1.97368192e-01,  -1.70269495e-01,
          1.83232420e-01,   1.83661701e-01,  -1.18733663e-01,
          3.27785230e-01,   3.57033323e-01,   4.69801227e-01,
          3.25083077e-01,   4.08962241e-01,  -3.87720778e-01,
          2.36682995e-02,   3.57226144e-01,   8.21159795e-02,
          4.78556467e-01,  -3.01371443e-01,  -2.76921771e-02,
          1.78267838e-01,   3.24165300e-01,  -1.33569877e-03,
          2.65750771e-01,  -4.04392787e-02,  -1.37341683e-01,
          5.95779185e-02,  -3.23758838e-02,  -2.39095532e-01,
         -1.84784474e-02,   7.83382595e-02,   2.00868398e-01,
          4.27490725e-01,  -1.26067548e-01,  -1.22044467e-01,
         -2.98336864e-01,   5.51254124e-01,  -4.04088989e-01,
         -7.02041971e-02,  -1.33443043e-01,   3.80923685e-01,
          1.70510180e-01,  -1.47797787e-01]])]Hidden bias: [array([-0.64184624, -0.30519432, -0.27032183, -0.44186538, -0.4100306 ,
       -0.61282538, -0.31095664, -0.28941912, -0.37396028, -0.37447899,
       -0.47250752, -0.13781672, -0.5283782 , -0.41909234, -0.44091764,
       -0.47998752, -0.52542594, -0.41911619, -0.50573037, -0.49951323,
       -0.55247795, -0.30868825, -0.46511046, -0.43902799, -0.64716299,
       -0.45021506, -0.34041215, -0.47947863, -0.24203018, -0.46385423,
       -0.414456  , -0.38201019, -0.21042151, -0.4632498 , -0.23572685,
       -0.55842179, -0.31880466, -0.22875267, -0.59906108, -0.25248179,
       -0.19359601, -0.35347946, -0.6667907 , -0.48172501, -0.33129258,
       -0.28209188, -0.38394919, -0.43320911, -0.52831311, -0.39494498])]Output weights: [[-0.00047702  0.39714527]
 [-0.09395783 -0.10821418]
 [ 0.0628566  -0.10663144]
 [-0.00402335 -0.06931594]
 [ 0.00568582 -0.04198004]
 [ 0.07587107  0.36562284]
 [ 0.0144188  -0.10446563]
 [ 0.05230005  0.11203049]
 [ 0.04247671  0.24347161]
 [-0.04568508 -0.16947194]
 [ 0.05044079 -0.00244583]
 [ 0.04182744  0.08559539]
 [-0.04614528 -0.38107303]
 [ 0.14615796  0.03011916]
 [ 0.47612088  0.1354753 ]
 [ 0.02545853 -0.00456114]
 [ 0.06101632  0.00048162]
 [-0.02406186 -0.01921135]
 [-0.06275465  0.35750411]
 [-0.16298222  0.00503146]
 [ 0.45456849  0.32104841]
 [ 0.06465371  0.04476634]
 [-0.14535483 -0.07144429]
 [ 0.05096896  0.12086758]
 [-0.13051594  0.22576397]
 [ 0.10886805 -0.09396522]
 [-0.11980687  0.03033982]
 [ 0.38046486 -0.16745994]
 [-0.0229135   0.04501176]
 [-0.00146159 -0.02182962]
 [ 0.18542382  0.03758573]
 [ 0.04597352 -0.07466835]
 [ 0.01012012  0.03181794]
 [ 0.01526038  0.11041763]
 [ 0.03971259 -0.00146329]
 [ 0.06456086  0.15926959]
 [ 0.04910239  0.12992357]
 [ 0.00626361 -0.14186674]
 [-0.01727316 -0.00705218]
 [-0.02646906  0.04538998]
 [ 0.07852954 -0.0175985 ]
 [ 0.11575706 -0.051745  ]
 [ 0.08161887 -0.32629222]
 [ 0.17018881 -0.07902021]
 [ 0.31350757  0.00552044]
 [-0.13313531 -0.0100553 ]
 [-0.03201392  0.03089717]
 [ 0.04400258 -0.09818359]
 [ 0.07282874  0.2632124 ]
 [ 0.07642882 -0.0267059 ]]Output bias: [ 0.5059981   0.54948352]
Value MLP:Hidden weights: [array([[  2.65330137e+01,  -2.07563101e+01,  -3.03779853e+00,
         -1.38097161e+00,   8.00393731e+00,  -5.10635260e+00,
         -1.04389009e+01,  -8.91856498e+00,   1.05550220e+00,
         -1.63690189e-01,   3.90497248e+00,  -2.19834191e+00,
          1.14429627e+01,  -1.03980039e+01,  -5.42948135e+00,
          3.50294210e+00,   1.84227309e+01,  -9.25681724e+00,
          2.17135164e+01,  -6.32209937e-01,   1.60840324e+01,
          4.58783549e+00,  -1.09166602e+00,   2.20951005e+00,
          9.70758335e+00,  -8.41864556e+00,   1.30002501e+00,
         -1.12279137e+01,   1.16412817e+00,  -2.17981960e+00,
          2.56241397e+01,  -1.20885875e-01,   3.43944274e+00,
          2.54216166e+01,   3.72923584e+00,   3.07273328e+00,
          1.33373191e+00,  -7.72999823e-01,  -3.44102237e-01,
         -3.02028168e+00,  -1.22369212e+01,   7.04363342e+00,
          1.55344949e+01,   1.24212528e+01,   2.21611216e-01,
         -1.30638459e+01,  -2.43222724e+01,  -1.42436094e+00,
          8.34195224e+00,   6.95516759e+00],
       [  5.61389231e+00,   6.60451982e+00,   1.90161850e+00,
         -3.29155407e+00,  -1.05916762e+01,   1.39155603e+01,
          7.21887408e-01,   1.36940434e+00,  -4.91301222e+00,
          2.95660493e+00,  -1.16964267e+00,  -5.85364736e+00,
          2.57405126e+00,   5.83017042e+00,   9.05790069e+00,
          1.80080187e+00,   1.72324545e+01,  -2.42575865e+01,
          6.33599066e+00,   6.48538982e-01,   3.07595264e+00,
          6.36315175e+00,  -2.32252329e+00,   3.19677024e+00,
          2.32748214e+01,  -7.11019863e+00,   3.51204711e+00,
         -7.50644343e+00,  -2.05072792e+01,   3.25964906e+00,
         -2.23440873e+00,  -2.78250376e+00,   1.78904599e+00,
         -2.57467465e+00,  -1.29313637e+00,   5.74215741e+00,
          4.54927147e+00,  -2.92593844e+00,  -1.40053915e+00,
         -3.36519691e+00,  -2.65701004e+00,  -1.80695305e+00,
          1.22515396e+00,  -6.99615363e+00,   4.41733338e+00,
          1.26734298e+01,   1.56897373e+01,   6.37644189e-01,
          1.84281848e+01,  -1.30756657e+00],
       [  1.12073625e+01,   1.05895588e+01,  -8.95195250e+00,
         -3.66289255e+00,   8.76825950e+00,   6.56520569e-01,
         -3.38559669e+00,   1.65295783e+01,   1.11874980e+00,
          1.46560033e+01,  -2.18766621e+01,   8.90857394e+00,
          3.01622668e+01,  -2.33220754e+00,  -2.49515202e+01,
          2.45626293e+00,   8.66778804e+00,  -1.65871603e+00,
          3.23510560e+01,   7.78619042e-01,   1.17545626e+01,
         -3.14022021e+00,  -5.05447391e-01,   9.26751703e-01,
         -2.27519150e+01,   2.08715104e+00,   4.36762912e+00,
         -4.80767433e+00,  -8.07575624e-01,   1.51762044e+01,
          1.14274529e+01,  -4.80763452e-01,   1.27085022e+01,
          1.20336173e+01,   5.78509994e+00,   1.08939723e+01,
          3.57085298e+00,  -5.23027531e+00,  -2.33969894e-03,
         -2.82337997e+00,  -2.77036121e+01,   7.30200952e+00,
          8.13673307e+00,   1.87678927e+01,  -5.91410973e+00,
         -2.51147335e+01,  -6.94679151e+00,   1.27111925e+01,
          2.60547643e+01,   9.23150867e+00],
       [ -3.47864639e+00,  -4.50915308e+00,   1.99779875e+00,
          4.47464445e+00,   5.39807553e-01,   2.39122038e+00,
          9.08970127e+00,   9.37263557e-01,   2.92617054e+00,
         -4.28830823e+00,   3.30624100e+00,  -1.12959652e+01,
         -6.11649774e+00,   3.03894154e+00,   7.81061484e+00,
         -2.38288571e+00,   1.94722264e+00,   1.42234674e+00,
         -6.90367746e+00,  -2.41072756e+00,  -1.36149121e-02,
          2.84846552e+00,   2.22019651e+00,  -7.66611030e+00,
          8.36066973e+00,   7.35093198e+00,  -1.89568694e+00,
          3.34436237e+00,  -9.99176472e+00,  -4.78170764e+00,
          1.93443470e+00,   1.66312759e+00,  -5.00833271e+00,
         -1.32924660e+00,  -3.03230016e+00,  -4.60090241e+00,
         -2.43893535e+00,   2.81320071e-01,   5.58365195e-01,
          6.30917087e+00,   2.53581022e+00,  -8.37598175e+00,
         -4.34391371e+00,  -8.43623894e+00,   7.57571661e+00,
          9.36874531e+00,   8.32420368e+00,  -5.01764448e+00,
         -3.30388976e+00,  -3.04954317e+00],
       [ -1.37146747e+01,  -1.33179428e+01,   7.33201118e+00,
         -6.57659151e-01,  -1.90791441e+00,   9.73601838e+00,
          3.35939874e+00,   6.71093338e-01,  -3.24322473e+00,
          9.05691705e-01,  -1.62902998e+00,   7.65433334e+00,
          1.43815064e+00,  -4.38274584e+00,  -5.58491168e+00,
          5.13645525e+00,  -5.09185231e+00,   2.58856422e+01,
          1.17272380e+00,  -4.54779574e+00,  -1.14217902e+01,
         -4.00001754e+00,   3.90158892e-02,  -1.64509385e+00,
          1.69112238e+01,  -3.53293002e+00,  -1.59101308e+01,
          3.10354862e+00,  -7.00973487e+00,  -5.34885759e+00,
         -1.30316115e+01,   1.27582736e+00,   3.32886691e+00,
         -2.12910145e+01,   5.05942225e+00,  -3.64254502e+00,
         -3.55975408e+00,   5.28909919e+00,   7.31751188e-01,
         -1.07551445e+00,   2.15916647e+01,  -2.77873866e+01,
         -1.73558943e+01,  -8.36827707e+00,  -1.82404827e+00,
          2.03505015e+01,   2.45982782e+01,  -1.10713713e+01,
          1.88939051e+01,  -2.12622573e+01],
       [ -4.06466330e+01,  -2.36223738e+00,  -8.69191539e+00,
         -3.48941768e-01,  -1.60122710e+01,   3.58335139e+00,
          4.42760629e+01,  -4.77280617e+00,   8.39589301e-01,
          1.45771466e+00,  -1.49772678e+00,  -1.21828700e-01,
         -2.06480040e+01,  -3.64573574e+00,  -6.40808116e+00,
         -3.24323069e+00,  -2.18689764e+01,   5.39897288e+01,
          2.93182921e+00,  -1.39555700e+00,  -2.99546805e+01,
         -7.08328807e+00,  -4.13356582e-01,  -3.50737592e-01,
         -3.16268428e+01,  -1.03949964e+01,   2.58812233e+00,
          1.05711408e+01,  -4.02488198e+00,   2.62507357e+00,
         -4.07699751e+01,   3.18068353e-03,   4.08010250e-02,
         -4.01366694e+01,  -3.82024425e+00,  -1.94349410e+01,
         -7.44104235e+00,   6.78987659e+00,  -3.67784111e-01,
         -3.08758822e-01,   6.99165441e+00,  -2.38974973e+00,
         -2.86894163e+01,  -5.62729047e+00,   1.13865157e+01,
          1.37341779e+00,   2.45500875e+01,   3.22897836e+00,
          1.44645330e+01,  -1.21551683e+01],
       [ -1.50441796e+01,  -5.28572348e+01,  -6.90070807e+00,
         -5.34811868e-01,  -2.31996188e+01,  -1.63697426e+01,
          6.57570363e+00,  -4.04315816e+01,  -1.42349340e+00,
          2.34364836e+01,  -2.16387793e+01,   9.34860067e+00,
         -2.27044317e+01,  -1.51728838e+01,  -3.46999918e+01,
          3.49638714e+00,  -6.31180686e+01,   2.55062207e+01,
         -2.80913595e+01,   8.18098865e+00,  -1.62677207e+01,
         -5.39540812e+01,  -2.95729869e+00,   6.70063075e+00,
         -2.48081980e+01,  -8.92237313e+00,  -6.90740105e+00,
          4.14966401e+00,   1.32983179e+01,  -1.20364921e+01,
         -8.59481260e+00,  -2.66658303e+00,  -3.45015591e+01,
          5.69074913e-02,  -3.28248931e+01,  -3.67570560e+00,
         -5.17168601e+01,  -6.82365292e+00,  -1.22002643e+00,
         -5.67238821e+00,  -4.56163642e+00,  -5.26095877e+01,
         -1.57871665e+01,   1.68062755e+01,  -2.75523865e+00,
         -2.33695824e+01,  -6.99205155e+00,   4.38002581e+00,
         -1.96081473e+01,  -5.06562826e+01],
       [  4.91754627e+00,   1.35665308e+01,  -6.11643951e-01,
         -2.36053642e+00,   3.55947001e+01,   9.80322047e-02,
         -2.40031262e+01,   1.82819975e+01,  -3.62910827e+00,
          7.68078199e+00,  -9.20526041e+00,   9.40523343e+00,
          2.31972040e+01,  -4.58487763e+00,  -1.57535931e+00,
          1.45770010e+00,   4.04095451e+01,  -1.38374831e+01,
          1.99155188e+01,   9.12283212e+00,   4.25768026e+01,
          3.33171852e+01,  -1.13824009e+00,   1.02652907e+01,
          9.95848642e+00,  -7.65173581e+00,   2.23865114e+01,
         -7.83281134e+00,   3.52135050e+00,   1.68900491e+01,
         -1.94893984e+00,   5.46773588e-01,   3.95502112e+01,
          1.23491492e+01,   2.64767326e+00,   1.10451917e+01,
          4.47634806e+00,  -9.95386953e+00,  -9.99081206e-01,
         -2.34143266e+00,  -1.04024518e+01,   8.04083453e+00,
          1.82707789e+01,   6.94520776e+00,  -1.23908107e+01,
          4.56772395e+00,  -1.21597810e+01,   3.56453582e+00,
          1.52877439e+01,   1.65121620e+00]])]Hidden bias: [array([  0.38039284,  -2.30943849, -20.47211381, -12.50825986,
        14.58383994, -23.33954453, -24.82998113, -11.76558719,
       -13.71695435,  16.82378884, -24.09900453,  19.11288502,
        13.45101106, -21.28936457, -33.3371161 ,   9.91933769,
       -13.86135371,   9.52973766,   8.36306767,   9.79554092,
         8.78940253, -17.22162011,  -7.72398456,  15.36735282,
       -33.16839739, -15.7806664 ,  18.16275736, -16.3310948 ,
        24.42697149,  28.37975407,   7.25823292,  -7.18988117,
        13.66305467,  14.64102489,  12.0335889 ,  12.05468124,
        20.65546831, -18.91553403,  -5.30975378, -14.36186981,
       -18.28399293,  22.66685668,   8.81145113,  30.91153814,
       -22.78780273, -21.73456224, -20.52934897,  20.27909774,
        -6.687474  ,  10.40852609])]Output weights: [[ -3.16546005]
 [ -2.45850259]
 [  2.30001356]
 [  1.53675095]
 [ -6.99644746]
 [ 10.46285515]
 [ -0.66513651]
 [  6.31204521]
 [ -3.29786424]
 [  9.94922414]
 [-11.19727155]
 [  4.23488382]
 [ -4.78828177]
 [  9.94506739]
 [  2.16781347]
 [  2.26501719]
 [-21.69404617]
 [ 10.08441233]
 [ -2.48469381]
 [ -0.93375777]
 [ -0.86520576]
 [  4.23729421]
 [  1.46792571]
 [  8.34183542]
 [  4.51126578]
 [  0.61312402]
 [ -2.42082537]
 [ -5.07443127]
 [-18.45565622]
 [ -4.93356915]
 [ -2.76834267]
 [  8.61471965]
 [ -6.9056186 ]
 [  6.28695582]
 [  1.43783875]
 [ -3.76757065]
 [ 14.0148821 ]
 [ -2.21321343]
 [  8.98773175]
 [ -3.9688448 ]
 [ -4.82986415]
 [ -8.00679148]
 [  1.86401799]
 [  0.08355209]
 [  6.56187572]
 [ -1.70714657]
 [ -8.40719812]
 [  4.68626286]
 [ -2.6613332 ]
 [  2.07732475]]Output bias: [-11.93324818]