Action MLP:Hidden weights: [array([[  1.63460874e-01,   3.83564066e-02,  -3.14078830e-01,
          3.63316449e-01,  -3.92265298e-02,   8.26282315e-02,
         -3.47920862e-01,  -7.87685873e-02,   4.81823546e-01,
          1.62228078e-01,  -2.40772227e-01,   1.48346433e-01,
         -7.46312648e-02,   4.86624159e-01,  -3.08910729e-01,
          3.29962116e-01,   3.40862955e-01,  -3.48879144e-02,
         -2.15952650e-01,  -3.90096480e-01,   1.85751457e-01,
         -4.38192996e-01,  -2.12396687e-01,   1.94177202e-01,
         -2.44027795e-01,   3.37801427e-01,  -1.54723532e-01,
         -5.63978800e-02,  -2.34530774e-01,  -2.68861544e-01,
          4.56144826e-01,  -2.41871869e-01,  -3.19647518e-01,
          7.76873422e-02,   3.95227136e-01,  -2.50534891e-01,
         -3.01498145e-01,  -1.45092396e-01,   2.39752275e-01,
          3.52350798e-01,   2.92090127e-01,  -3.55522876e-01,
         -3.76120640e-01,   3.49532831e-01,  -9.13295199e-03,
          4.93823845e-03,  -2.90505804e-01,   1.29348701e-01,
         -1.93695384e-01,   1.80207537e-01],
       [  6.82890233e-01,   3.28813987e-01,   8.36334037e-02,
          5.14999483e-01,   3.81599904e-01,  -4.50199891e-01,
          3.73850717e-01,   8.68157229e-02,  -2.49996653e-01,
         -2.92685463e-02,   5.59590869e-01,  -6.74621901e-02,
         -4.99838158e-01,  -1.05716871e-01,  -2.14532660e-01,
          5.25537805e-01,   4.12640999e-01,   5.01614130e-01,
          6.89639648e-01,   2.16641800e-01,   7.01257383e-01,
         -1.11314341e-02,   7.05823124e-01,  -3.71550384e-02,
          1.56541727e-01,   5.54007415e-01,   4.77368321e-01,
          6.11493137e-01,   5.79626625e-02,   4.22763719e-01,
          9.44615339e-02,   3.25832333e-01,   2.68711327e-01,
          2.53777697e-01,   1.24632212e-01,   6.09514741e-01,
          6.60086717e-02,  -1.33150801e-01,   7.22609667e-01,
          9.84667100e-02,  -7.28365580e-02,   3.61959461e-01,
          9.55931197e-01,  -1.76995076e-01,   5.42607848e-01,
          6.32933425e-01,   4.70308818e-01,  -7.94189979e-02,
         -7.62024264e-02,   2.77299202e-01],
       [ -5.43806956e-01,   3.30232622e-01,  -1.79673021e-01,
          6.98058514e-03,  -4.33104993e-01,   2.47326267e-01,
         -3.69466684e-01,  -2.14628573e-01,  -6.83206830e-02,
         -3.44947384e-01,   1.80071870e-01,  -4.03217471e-01,
         -2.88067457e-01,   4.14726824e-01,  -5.70122995e-01,
         -2.46536468e-01,  -2.98521791e-01,   1.15878294e-01,
         -7.55151849e-01,   6.03404489e-01,  -4.64573139e-01,
          1.33092254e-01,  -5.04786783e-03,   1.74266694e-02,
          1.88012868e-01,   1.96497338e-01,  -3.86213958e-01,
          1.42931255e-01,   2.82766312e-01,   3.45368642e-01,
          3.47974364e-01,  -4.36342933e-01,  -2.62616173e-02,
         -4.53965663e-01,  -3.48735734e-01,  -1.93424749e-01,
          9.27814794e-02,   4.47897705e-01,   2.05684889e-01,
         -3.96761089e-01,  -2.39676546e-01,  -8.61112603e-02,
          3.16099010e-01,   3.57799794e-01,   1.84830069e-01,
         -2.42213107e-02,  -1.33954428e-01,   4.79091226e-01,
         -1.10853061e-01,  -2.54744412e-01],
       [ -1.04926197e-01,   1.76685790e-01,  -5.50796616e-01,
          1.39759391e-01,   1.99817185e-01,  -2.08512318e-01,
         -9.15419832e-03,  -3.06842974e-01,   1.61609678e-01,
          4.28491906e-01,  -9.20035806e-01,   5.06413742e-01,
          1.04260481e-01,  -8.56349121e-01,  -4.89925463e-02,
         -3.18711783e-01,  -4.48749944e-01,  -3.91913964e-01,
         -9.12622879e-02,  -3.73397294e-01,  -1.50748294e+00,
          1.25926018e-02,   3.80048746e-01,   3.19741265e-01,
          2.72626436e-01,  -1.64120439e-02,   6.51543861e-01,
         -1.13007292e+00,   3.10729210e-01,  -2.31084199e-01,
         -4.35163179e-02,   1.69243807e-01,  -1.40750527e-01,
          3.29831766e-01,   7.51691144e-02,  -5.74671793e-02,
         -3.61278260e-01,   1.85734884e-01,  -2.32397245e-01,
          2.18806933e-01,   3.68599398e-01,  -8.11461983e-01,
         -3.96502405e-03,   5.88716141e-02,  -1.30576619e+00,
          6.48463967e-01,   3.22506495e-01,  -3.15626299e-01,
          1.20074011e-01,  -5.11318638e-01],
       [  9.92664452e-02,  -2.39068390e-01,  -3.55707850e-01,
         -7.80222008e-02,  -1.65035467e-01,   3.71994673e-01,
         -2.60577542e-01,   3.43333251e-01,  -7.58174185e-02,
          1.00535645e-02,   2.68004672e-01,  -4.09599572e-02,
         -1.70490461e-01,   4.25722802e-01,  -3.96115974e-01,
          6.92927367e-02,  -2.34033910e-01,  -1.75749901e-01,
          6.78516477e-01,  -5.27433635e-01,   4.28844178e-01,
         -4.90028146e-01,   1.60610816e-01,   3.64150572e-01,
          2.32382069e-01,  -2.26735985e-02,   5.15840659e-01,
         -1.32754568e-01,   3.89156352e-01,   1.17818257e-01,
         -5.84034184e-02,  -2.44929158e-01,   3.56020279e-01,
          3.77636016e-01,   2.33195893e-01,  -2.54216709e-01,
         -1.06729606e-01,   1.21139318e-01,   2.36749421e-02,
          3.78493023e-02,   1.28277558e-01,  -4.01697264e-02,
         -5.11562203e-01,   4.00057224e-01,  -6.18910552e-02,
          1.29852468e-01,   2.00040491e-01,   2.92229815e-02,
          2.26023363e-01,   2.74991198e-01],
       [  1.67026991e+00,   5.09055146e-01,   3.90458832e-01,
          3.84957130e-01,  -6.13955194e-03,  -7.75471310e-01,
          2.42203509e-01,  -2.32420823e-02,  -4.28657722e-01,
          5.78380127e-01,  -1.16386464e-01,  -2.99829668e-01,
          9.53710830e-01,   3.59252023e-01,  -4.02772558e-01,
          8.06763323e-01,  -3.21932820e-01,  -6.06035389e-01,
          1.52553983e+00,  -6.95182488e-02,   1.45440929e+00,
         -1.25012210e-01,   8.40604871e-02,  -2.15745383e-01,
         -6.32949394e-01,  -5.74735553e-01,  -1.28148233e-01,
         -1.28653314e+00,  -1.32450665e-01,   1.14366705e-01,
          2.60920712e-01,   2.03547346e-01,  -5.10959817e-02,
         -2.63070280e-01,   3.10142151e-01,   5.46861308e-01,
         -2.98704457e-01,   6.20812717e-01,  -1.31974903e+00,
         -2.14372002e-01,   1.09836028e-01,   2.22690350e-01,
         -1.09633842e+00,   4.64286378e-01,   1.42049812e-01,
          1.67417025e-01,   1.14173710e-01,   5.22055844e-01,
         -6.13219077e-01,   3.25155735e-01],
       [ -4.80506875e-01,   5.81855352e-03,  -2.18887272e-02,
          6.43503836e-01,   2.78619379e-01,   1.27462494e-01,
         -3.17394485e-02,  -2.77652552e-01,   3.51959505e-01,
          3.84145919e-01,   2.03256705e-01,   2.72288040e-01,
          3.56741545e-01,   2.72206177e-01,   1.94448744e-01,
         -2.74268358e-01,   1.80108215e-01,  -1.23342040e-01,
         -6.36064733e-01,   2.72625652e-01,   4.44863682e-02,
          3.26810154e-01,   2.84628335e-01,   4.94848794e-01,
          5.53500791e-01,  -2.27046959e-01,   3.76378476e-01,
         -4.43571670e-01,  -8.88208988e-04,   4.96089103e-01,
         -1.54986321e-01,   5.41538576e-01,   7.66754099e-02,
          4.82731510e-01,   2.33363990e-01,  -4.39383753e-01,
          2.08412925e-01,   2.37200276e-01,   4.39707639e-01,
         -1.29694479e-01,  -1.00008729e-01,   3.60221295e-01,
         -5.62944731e-03,   1.09234110e-01,   3.92151890e-01,
          9.79871500e-02,   4.61829238e-01,   2.32739918e-01,
          4.61662624e-01,   5.44236397e-01],
       [ -3.56176746e-01,   4.80778396e-01,   2.73213350e-01,
         -1.52892591e-01,   2.85083610e-01,   5.20402566e-01,
          3.33873012e-01,   3.28818644e-01,   9.52677609e-02,
          3.38563999e-01,   1.97360013e-01,  -1.70163677e-01,
          1.83026539e-01,   1.83689440e-01,  -1.18359587e-01,
          3.27791408e-01,   3.57032299e-01,   4.69790349e-01,
          3.24865839e-01,   4.08984568e-01,  -3.88120660e-01,
          2.37797340e-02,   3.57140241e-01,   8.22521918e-02,
          4.78587575e-01,  -3.01420791e-01,  -2.76436382e-02,
          1.78224022e-01,   3.24215674e-01,  -1.38119075e-03,
          2.65759666e-01,  -4.05479067e-02,  -1.37295353e-01,
          5.97024292e-02,  -3.23717519e-02,  -2.39123737e-01,
         -1.82511791e-02,   7.82280174e-02,   2.00864220e-01,
          4.27575412e-01,  -1.26072131e-01,  -1.22140475e-01,
         -2.98783748e-01,   5.51140162e-01,  -4.04079400e-01,
         -7.01944130e-02,  -1.33382334e-01,   3.80842268e-01,
          1.70649201e-01,  -1.47814695e-01]])]Hidden bias: [array([-0.63892978, -0.30633216, -0.27130347, -0.44286474, -0.41067383,
       -0.61037127, -0.31197027, -0.28791878, -0.37261938, -0.37615302,
       -0.47258906, -0.13665605, -0.53200777, -0.41845865, -0.43980948,
       -0.48004293, -0.52542076, -0.41920279, -0.50564873, -0.49951087,
       -0.55260751, -0.30835788, -0.46619348, -0.43692464, -0.64601095,
       -0.45082631, -0.33996522, -0.47967893, -0.2411832 , -0.46425529,
       -0.41397346, -0.38307541, -0.20993735, -0.46112596, -0.23574687,
       -0.55754898, -0.31750382, -0.23013739, -0.59907024, -0.25173264,
       -0.19384561, -0.35426251, -0.66673449, -0.48273815, -0.33152708,
       -0.28231575, -0.38354199, -0.43434829, -0.52626688, -0.39528369])]Output weights: [[  1.67755452e-03   3.95185899e-01]
 [ -9.40911226e-02  -1.20400167e-01]
 [  6.41260310e-02  -1.19898755e-01]
 [ -3.41194024e-03  -7.70993024e-02]
 [  5.90893898e-03  -4.97964085e-02]
 [  7.56638830e-02   3.71337202e-01]
 [  1.49101092e-02  -1.16339671e-01]
 [  5.29971593e-02   1.08860299e-01]
 [  4.22916085e-02   2.46138607e-01]
 [ -4.57360622e-02  -1.77909391e-01]
 [  5.20537007e-02  -2.56540295e-03]
 [  4.10907219e-02   8.81779600e-02]
 [ -4.59799988e-02  -3.92139490e-01]
 [  1.47614357e-01   2.86230173e-02]
 [  4.76104618e-01   1.31053821e-01]
 [  2.71965342e-02  -1.12883408e-02]
 [  6.23669589e-02  -3.87541902e-04]
 [ -2.35829994e-02  -1.75882359e-02]
 [ -6.13708093e-02   3.59207071e-01]
 [ -1.63053688e-01   3.65516462e-03]
 [  4.57025018e-01   3.21397307e-01]
 [  6.41563577e-02   4.19423434e-02]
 [ -1.45778194e-01  -7.66674736e-02]
 [  5.04241727e-02   1.25570407e-01]
 [ -1.31408887e-01   2.31890056e-01]
 [  1.08810394e-01  -9.18883157e-02]
 [ -1.20667516e-01   3.02461821e-02]
 [  3.81949885e-01  -1.67510109e-01]
 [ -2.39910187e-02   4.78935818e-02]
 [ -1.15470918e-03  -2.47359851e-02]
 [  1.85623918e-01   2.83396494e-02]
 [  4.62901837e-02  -8.50837719e-02]
 [  1.03256310e-02   3.16965704e-02]
 [  1.50393594e-02   1.11396324e-01]
 [  4.04559538e-02  -6.02616657e-03]
 [  6.54956836e-02   1.45851237e-01]
 [  4.93343007e-02   1.31360787e-01]
 [  5.69785721e-03  -1.48082115e-01]
 [ -1.72892879e-02  -5.45414677e-03]
 [ -2.64292999e-02   4.40076973e-02]
 [  7.82550722e-02  -2.28748574e-02]
 [  1.17423896e-01  -5.93552375e-02]
 [  8.08466159e-02  -3.25523809e-01]
 [  1.69980064e-01  -8.31990255e-02]
 [  3.15830556e-01   1.74746704e-03]
 [ -1.33811669e-01  -1.54717395e-02]
 [ -3.23346881e-02   2.62375400e-02]
 [  4.43395288e-02  -1.07336997e-01]
 [  7.22976879e-02   2.68838648e-01]
 [  7.81138034e-02  -3.09935774e-02]]Output bias: [ 0.50604538  0.56646113]
Value MLP:Hidden weights: [array([[  1.72434657e+01,   1.07135943e+01,  -3.05813311e+00,
         -1.38097128e+00,   1.36189547e+01,  -5.40457165e+00,
         -1.90908134e+01,  -1.15263051e-01,   1.05560498e+00,
         -3.29805263e-01,   3.65677942e+00,  -2.19700628e+00,
          2.25522255e+01,  -1.06521528e+01,  -1.58867459e+01,
          3.51735275e+00,   2.10362568e+01,  -3.65297254e+01,
          6.40511479e+00,  -6.36636427e-01,   2.02595646e+01,
          2.84629533e+01,  -1.09152139e+00,   2.20951008e+00,
          2.67449327e+01,  -1.09737368e+01,   1.28455493e+00,
         -4.65228032e+00,   3.11854625e+00,   7.33396748e+00,
          1.42159560e+01,  -1.26851060e-01,   1.30225170e+01,
          3.10502834e+01,   4.68008759e+00,   2.37143777e+00,
          1.58020117e+01,  -7.72964912e-01,  -3.41076435e-01,
         -3.02028172e+00,  -1.54488600e+01,   2.54854774e+01,
          2.02213494e+01,   1.25068172e+01,   2.18859952e-01,
         -8.49820995e+00,  -1.19446818e+01,  -6.13294126e-01,
          1.10681877e+01,   9.30917227e-01],
       [  6.69323831e+00,   4.86390742e+00,   1.90190132e+00,
         -3.29155398e+00,  -1.18747616e+01,   1.38594209e+01,
          5.58411139e+00,   3.55683741e+00,  -4.91301746e+00,
          2.91575675e+00,  -1.48363538e+00,  -5.86053500e+00,
          8.59775897e+00,   6.06812958e+00,   1.74508055e+01,
          1.79974399e+00,   1.26033672e+01,  -1.45903795e+01,
          1.45375065e+01,   6.47319143e-01,   2.20162733e+00,
          5.51753763e+00,  -2.32248827e+00,   3.19677025e+00,
          1.83426182e+01,  -6.86802629e+00,   3.41939071e+00,
         -6.63291683e+00,  -2.13177778e+01,   3.43070341e+00,
          2.27894512e+00,  -2.78338621e+00,  -4.48729455e+00,
         -8.13357394e+00,  -2.16737723e+00,   4.71790783e+00,
          4.53998886e+00,  -2.92592562e+00,  -1.40591030e+00,
         -3.36519692e+00,   8.34504243e+00,   2.81442558e+00,
          6.55571057e+00,  -6.94407413e+00,   4.41729935e+00,
          8.63475200e+00,   1.05046835e+01,   8.61615350e-01,
          1.32000371e+00,   3.29397949e+00],
       [  6.99569048e+00,   1.52692825e+01,  -8.93331316e+00,
         -3.66289220e+00,   1.78016717e+00,   4.92854276e-01,
         -1.55897859e+00,  -1.53508514e+01,   1.11891255e+00,
          1.55912227e+01,  -2.47345125e+01,   8.90862244e+00,
          1.51260033e+01,  -2.44573419e+00,  -2.56420717e+01,
          2.45359251e+00,   8.01374074e+00,  -1.65792863e+01,
         -1.29399017e+01,   7.78864126e-01,   1.09210822e+01,
          5.16656001e+00,  -5.05358159e-01,   9.26751706e-01,
          3.15781833e+01,  -6.52364653e-01,   5.97765531e+00,
         -1.07642798e+01,  -1.43291425e+00,   1.29603888e+01,
          1.87899660e+00,  -4.80005924e-01,   6.31886335e+00,
          4.30017261e+00,   4.22884877e+00,   8.07548066e+00,
          3.73814450e+00,  -5.23028112e+00,   7.03674150e-03,
         -2.82338000e+00,  -2.49299165e+01,   1.50701301e+01,
          1.74776603e+01,   1.88241105e+01,  -5.90196883e+00,
          2.60069871e+01,  -1.96137376e+01,   1.27353909e+01,
          2.95758947e+01,  -4.89713170e+00],
       [ -3.29035727e+00,  -9.45803659e+00,   1.97994454e+00,
          4.47464447e+00,  -2.84197929e+00,   2.38635248e+00,
          9.65249387e-01,   5.34406919e+00,   2.92617250e+00,
         -4.14511675e+00,   2.63112625e+00,  -1.12930453e+01,
         -4.94894880e+00,   3.02453461e+00,   6.96073579e+00,
         -2.37867678e+00,   9.42303879e-01,   4.11926904e+00,
          3.08048153e+00,  -2.41016396e+00,  -7.21949558e-01,
         -3.02904355e+00,   2.22019948e+00,  -7.66611030e+00,
         -3.76210008e+00,   5.85655266e+00,  -3.98153135e-01,
          5.80949764e+00,  -9.49725588e+00,  -2.42219865e+00,
          1.62317501e-01,   1.66147520e+00,  -3.14826786e+00,
          1.65574692e+00,  -3.54934812e+00,  -5.31641027e+00,
          6.18386474e-02,   2.81322040e-01,   5.82187037e-01,
          6.30917088e+00,   7.41593217e+00,  -6.58226490e+00,
         -2.94638958e+00,  -8.42151043e+00,   7.57242815e+00,
         -1.07387632e+00,   3.25266085e+00,  -5.05965603e+00,
         -9.21416182e-01,  -1.37315438e+00],
       [ -1.35345872e+01,   4.38340310e+00,   7.34291814e+00,
         -6.57659298e-01,  -1.89790674e+01,   1.01935654e+01,
          2.55135791e+01,  -1.80128015e+01,  -3.24351952e+00,
          6.99624541e-01,  -2.24169269e+00,   7.65332562e+00,
          6.90569582e+00,  -4.41677812e+00,  -1.14244360e+01,
          5.14278828e+00,  -2.40910887e+01,   7.12382125e+00,
         -2.47613393e+01,  -4.53986686e+00,  -1.36657082e+01,
         -1.72451976e+01,   3.89706026e-02,  -1.64509390e+00,
          3.40309135e+00,  -9.04848252e-01,  -1.38381031e+01,
          2.45641850e+00,  -8.03265378e+00,  -2.60290151e+00,
         -9.79072757e+00,   1.28102655e+00,   1.48795044e+01,
         -6.36931722e+00,   7.19620375e+00,  -2.96108181e+00,
         -6.62327604e+00,   5.28901449e+00,   6.76050772e-01,
         -1.07551444e+00,  -2.36554090e+00,  -2.71547836e+01,
         -1.13495812e+01,  -8.47091769e+00,  -1.82131480e+00,
          7.89967539e+00,   1.43154887e+01,  -1.24861450e+01,
          2.38001547e+00,  -9.44792021e+00],
       [ -3.29103855e+01,  -2.47195036e+01,  -8.89186667e+00,
         -3.48941566e-01,  -2.39958113e+01,   4.13816742e+00,
          2.01551980e+01,  -9.25869758e+00,   8.39482796e-01,
          2.19448185e+00,  -6.23270671e+00,  -1.16522302e-01,
         -2.70690904e+01,  -3.65099666e+00,  -7.78952603e+00,
         -3.27369168e+00,  -2.56677238e+01,   3.42946490e+01,
         -1.60870957e+01,  -1.39614317e+00,  -3.08766703e+01,
         -1.69250771e+01,  -4.13254441e-01,  -3.50737597e-01,
         -3.77890535e+01,  -6.06044410e+00,   5.98179532e+00,
          4.96491975e+00,  -5.31974446e+00,   8.31637764e+00,
         -3.07750798e+01,   1.30112330e-02,  -8.45460335e+00,
         -4.32450478e+01,  -5.83062552e+00,  -1.16766043e+01,
         -1.38076397e+01,   6.78983662e+00,  -3.11033979e-01,
         -3.08758863e-01,  -1.33914725e+00,  -7.83128452e+00,
         -1.40452077e+01,  -5.81824280e+00,   1.14365140e+01,
          2.49972323e+00,  -1.18106756e+00,   3.04435570e+00,
         -4.36787025e+00,  -1.48307599e+01],
       [ -8.95188440e+00,  -2.51583706e+01,  -6.90070807e+00,
         -5.34811826e-01,  -9.87268194e-01,  -1.63697426e+01,
         -1.13087954e+00,  -1.16476523e+01,  -1.42348758e+00,
          2.34364836e+01,  -2.16387793e+01,   9.34860067e+00,
         -1.31573764e+01,  -1.51728838e+01,  -3.46999918e+01,
          3.49631750e+00,  -4.27385572e+01,   3.17202890e+01,
         -1.58625726e+01,   8.18098865e+00,  -1.29303480e+01,
         -3.76971520e+01,  -2.95729884e+00,   6.70063075e+00,
         -1.61024363e+01,  -8.86240297e+00,  -1.10485183e+01,
         -1.04884675e-01,   1.32983179e+01,  -1.78553561e+01,
          1.66345571e+00,  -2.66663808e+00,  -2.90006544e+01,
         -2.13482877e+00,  -2.20694501e+01,  -1.14460985e+00,
         -4.61506379e+01,  -6.82365292e+00,  -1.21964334e+00,
         -5.67238821e+00,  -7.64959074e+00,  -4.17125473e+01,
         -1.54398539e+01,   1.68062755e+01,  -2.75523895e+00,
         -1.74996445e+01,  -1.51209745e+01,   4.38002576e+00,
          4.81676453e+00,  -4.47211471e+01],
       [  8.12624452e+00,   2.67629844e+01,  -5.06943385e-01,
         -2.36053642e+00,   1.93579341e+01,   4.53870152e-01,
         -1.09794342e+01,   1.54993636e+01,  -3.62910827e+00,
          7.68078197e+00,  -9.20526042e+00,   9.40523343e+00,
          5.62686021e+00,  -4.58487761e+00,  -1.53810102e+00,
          1.45785757e+00,   8.34815493e+00,   5.32126959e+00,
          2.13249058e+01,   9.12283212e+00,   3.90408324e+01,
          1.42630219e+01,  -1.13824768e+00,   1.02652907e+01,
         -5.01158910e+00,  -7.64387692e+00,   2.23865114e+01,
         -6.56332729e+00,   3.52135050e+00,   1.84826778e+01,
          1.14850119e+01,   5.50421668e-01,   3.87428923e+01,
          1.46039975e+00,   6.89251779e+00,   8.51057380e+00,
         -2.00559264e+00,  -9.95386971e+00,  -1.00597323e+00,
         -2.34143266e+00,  -9.10853431e+00,   1.36794936e+00,
          1.47897132e+01,   6.89657679e+00,  -1.23908107e+01,
          2.18693960e+01,  -5.54153384e+00,   3.56456370e+00,
          6.62829961e+00,   3.65015106e+00]])]Hidden bias: [array([  3.85314374,  19.4361339 , -20.39376626, -12.50826042,
        11.14776511, -22.97285249,  -6.42488736,  -6.54851083,
       -13.71680668,  15.83238168, -19.75272706,  19.10672713,
        11.89290339, -21.03989398, -22.72653733,   9.89730109,
        -6.88198769,  10.04756613,  -5.6494503 ,   9.80087166,
         8.63900223,   7.74362244,  -7.72434444,  15.36735278,
         0.24401429, -14.93159153,  15.03351443, -16.37161352,
        23.96141593,  19.40225264,  27.27695955,  -7.19283938,
         6.61915262,   3.72193283,  17.38626233,  18.05015803,
         9.34366422, -18.91558484,  -5.49010035, -14.36186973,
       -24.93405492,   2.2920631 ,   3.16002467,  30.81793314,
       -22.76413007,  14.56998398, -24.74484066,  19.32800279,
         7.08946147,  12.93722726])]Output weights: [[  7.75635308]
 [ -4.66184053]
 [  2.84003157]
 [  2.03848823]
 [  1.90886921]
 [ 10.98171128]
 [ -6.01741698]
 [  2.32020551]
 [ -2.79617461]
 [  9.50966658]
 [-11.54107416]
 [  3.73057917]
 [ -0.36816166]
 [ 10.46047286]
 [ -3.89355508]
 [  1.76828206]
 [ -7.77180683]
 [  2.09512112]
 [ -2.89332484]
 [ -1.43431575]
 [ -3.68314843]
 [ -1.58140147]
 [  1.96955159]
 [  7.840098  ]
 [ -1.02425582]
 [  5.31209466]
 [ -1.81432467]
 [ -1.24010503]
 [-17.11522358]
 [ -1.77424298]
 [ -1.77766352]
 [  9.11629628]
 [  1.49218723]
 [ -3.37806575]
 [ -0.76315182]
 [  0.41123897]
 [  6.09098529]
 [ -1.7114481 ]
 [  9.47982932]
 [ -3.46710739]
 [ -0.8382514 ]
 [  2.86930331]
 [  1.75740651]
 [  0.28389023]
 [  7.0653806 ]
 [ -7.24938673]
 [ -0.25499959]
 [  4.33924681]
 [  0.95916996]
 [  4.02106876]]Output bias: [-12.4349856]