Action MLP:Hidden weights: [array([[  1.63848097e-01,   3.82394579e-02,  -3.14048907e-01,
          3.63240754e-01,  -3.92175979e-02,   8.23113094e-02,
         -3.47909636e-01,  -7.86417283e-02,   4.81865680e-01,
          1.62188024e-01,  -2.40746401e-01,   1.48369562e-01,
         -7.46977746e-02,   4.86704438e-01,  -3.08877763e-01,
          3.29971167e-01,   3.40890614e-01,  -3.48860403e-02,
         -2.15897760e-01,  -3.90164111e-01,   1.85820793e-01,
         -4.38193680e-01,  -2.12472094e-01,   1.94203042e-01,
         -2.44405186e-01,   3.37817816e-01,  -1.54760360e-01,
         -5.60646030e-02,  -2.34534386e-01,  -2.68856256e-01,
          4.56245384e-01,  -2.41833888e-01,  -3.19621039e-01,
          7.77352032e-02,   3.95249419e-01,  -2.50419312e-01,
         -3.01583306e-01,  -1.45132947e-01,   2.39749516e-01,
          3.52356873e-01,   2.92121489e-01,  -3.55478876e-01,
         -3.75677674e-01,   3.49516791e-01,  -8.99087294e-03,
          4.87471315e-03,  -2.90518767e-01,   1.29311020e-01,
         -1.93955040e-01,   1.80242416e-01],
       [  6.83507767e-01,   3.28565077e-01,   8.34529502e-02,
          5.14855585e-01,   3.81521465e-01,  -4.49927646e-01,
          3.73663765e-01,   8.70118304e-02,  -2.49651861e-01,
         -2.95367055e-02,   5.59590396e-01,  -6.73192632e-02,
         -5.00236299e-01,  -1.05522855e-01,  -2.14282579e-01,
          5.25519727e-01,   4.12663413e-01,   5.01579624e-01,
          6.90147249e-01,   2.16606233e-01,   7.01463106e-01,
         -1.10686286e-02,   7.05640091e-01,  -3.69833695e-02,
          1.56836703e-01,   5.53882714e-01,   4.77363988e-01,
          6.11370334e-01,   5.80375031e-02,   4.22723227e-01,
          9.45782606e-02,   3.25711943e-01,   2.68768686e-01,
          2.53940867e-01,   1.24637085e-01,   6.09770253e-01,
          6.62218066e-02,  -1.33394815e-01,   7.22595539e-01,
          9.85302935e-02,  -7.28557095e-02,   3.61864411e-01,
          9.55545330e-01,  -1.77074243e-01,   5.42499754e-01,
          6.32842845e-01,   4.70340573e-01,  -7.95688153e-02,
         -7.59455519e-02,   2.77267166e-01],
       [ -5.43849357e-01,   3.30442268e-01,  -1.79585286e-01,
          7.04262325e-03,  -4.33081874e-01,   2.47491487e-01,
         -3.69393042e-01,  -2.14652961e-01,  -6.83663646e-02,
         -3.44672411e-01,   1.80048572e-01,  -4.03322216e-01,
         -2.87162360e-01,   4.14588504e-01,  -5.70390859e-01,
         -2.46546358e-01,  -2.98555027e-01,   1.15894858e-01,
         -7.54585616e-01,   6.03514564e-01,  -4.63662304e-01,
          1.33064039e-01,  -4.91168330e-03,   1.73295289e-02,
          1.88121839e-01,   1.96441837e-01,  -3.86132534e-01,
          1.42504620e-01,   2.82763415e-01,   3.45398428e-01,
          3.47812144e-01,  -4.36296525e-01,  -2.62707976e-02,
         -4.54004626e-01,  -3.48763954e-01,  -1.93569954e-01,
          9.27025587e-02,   4.48151356e-01,   2.05695795e-01,
         -3.96771704e-01,  -2.39721916e-01,  -8.60993155e-02,
          3.15955735e-01,   3.57797935e-01,   1.84804919e-01,
         -2.41234860e-02,  -1.33950337e-01,   4.79218140e-01,
         -1.10808724e-01,  -2.54759008e-01],
       [ -1.05288835e-01,   1.76963560e-01,  -5.50693379e-01,
          1.39861356e-01,   1.99876869e-01,  -2.08693403e-01,
         -9.01724846e-03,  -3.07039908e-01,   1.61350820e-01,
          4.28781682e-01,  -9.20085048e-01,   5.06244055e-01,
          1.04775011e-01,  -8.56558844e-01,  -4.95725026e-02,
         -3.18725742e-01,  -4.48817887e-01,  -3.91869856e-01,
         -9.13339440e-02,  -3.73224075e-01,  -1.50750037e+00,
          1.24819995e-02,   3.80323128e-01,   3.19552649e-01,
          2.72609892e-01,  -1.64451410e-02,   6.51657850e-01,
         -1.13042869e+00,   3.10691926e-01,  -2.31048070e-01,
         -4.37612465e-02,   1.69306082e-01,  -1.40803509e-01,
          3.29684681e-01,   7.51267278e-02,  -5.76934086e-02,
         -3.61492789e-01,   1.85942199e-01,  -2.32373030e-01,
          2.18783209e-01,   3.68535128e-01,  -8.11475628e-01,
         -3.85330676e-03,   5.88445326e-02,  -1.30595445e+00,
          6.48630591e-01,   3.22511805e-01,  -3.15514738e-01,
          1.19836583e-01,  -5.11350712e-01],
       [  1.00418092e-01,  -2.39703096e-01,  -3.56365754e-01,
         -7.83898155e-02,  -1.65302650e-01,   3.72863494e-01,
         -2.61166303e-01,   3.43705217e-01,  -7.46999211e-02,
          9.02347045e-03,   2.68009284e-01,  -4.04612165e-02,
         -1.72861722e-01,   4.25893332e-01,  -3.95450098e-01,
          6.92582675e-02,  -2.34028702e-01,  -1.75821956e-01,
          6.78865982e-01,  -5.27446865e-01,   4.29233811e-01,
         -4.89879126e-01,   1.60240538e-01,   3.64761296e-01,
          2.33092524e-01,  -2.30356300e-02,   5.15941910e-01,
         -1.33051951e-01,   3.89348227e-01,   1.17691720e-01,
         -5.82311397e-02,  -2.45390686e-01,   3.56147041e-01,
          3.78102297e-01,   2.33174541e-01,  -2.53635889e-01,
         -1.06096877e-01,   1.20268901e-01,   2.36542052e-02,
          3.80650175e-02,   1.28174190e-01,  -4.04576500e-02,
         -5.12492033e-01,   3.99661397e-01,  -6.18387737e-02,
          1.29752479e-01,   2.00164744e-01,   2.86211970e-02,
          2.26943676e-01,   2.74854346e-01],
       [  1.67127684e+00,   5.08996699e-01,   3.90393003e-01,
          3.84891591e-01,  -6.15193980e-03,  -7.74794036e-01,
          2.42142434e-01,  -2.31673467e-02,  -4.28324777e-01,
          5.78145932e-01,  -1.16372449e-01,  -2.99761156e-01,
          9.52939771e-01,   3.59295912e-01,  -4.02645433e-01,
          8.06748506e-01,  -3.21915131e-01,  -6.06066313e-01,
          1.52630617e+00,  -6.95625289e-02,   1.45515357e+00,
         -1.25037750e-01,   8.40343915e-02,  -2.15632730e-01,
         -6.32744237e-01,  -5.74726693e-01,  -1.28176382e-01,
         -1.28673708e+00,  -1.32440548e-01,   1.14381123e-01,
          2.60972941e-01,   2.03521478e-01,  -5.10733341e-02,
         -2.62953839e-01,   3.10150499e-01,   5.47187421e-01,
         -2.98679179e-01,   6.20659897e-01,  -1.31976782e+00,
         -2.14343538e-01,   1.09829426e-01,   2.22690214e-01,
         -1.09602956e+00,   4.64267954e-01,   1.42084261e-01,
          1.67360165e-01,   1.14174166e-01,   5.22064375e-01,
         -6.12841873e-01,   3.25152421e-01],
       [ -4.80804204e-01,   5.90035098e-03,  -2.17704479e-02,
          6.43534148e-01,   2.78651917e-01,   1.27263699e-01,
         -3.16661720e-02,  -2.77543717e-01,   3.51707559e-01,
          3.84302003e-01,   2.03261343e-01,   2.72230213e-01,
          3.57368783e-01,   2.72206711e-01,   1.94418075e-01,
         -2.74255902e-01,   1.80114100e-01,  -1.23325997e-01,
         -6.36150530e-01,   2.72614262e-01,   4.43314511e-02,
          3.26816670e-01,   2.84622222e-01,   4.94767610e-01,
          5.53171958e-01,  -2.27013254e-01,   3.76382531e-01,
         -4.43426024e-01,  -8.74628932e-04,   4.96103403e-01,
         -1.54999324e-01,   5.41598143e-01,   7.66881457e-02,
          4.82718715e-01,   2.33370262e-01,  -4.39565029e-01,
          2.08327923e-01,   2.37408025e-01,   4.39714693e-01,
         -1.29720535e-01,  -9.99844160e-02,   3.60259913e-01,
         -5.44762390e-03,   1.09262366e-01,   3.92174547e-01,
          9.79920253e-02,   4.61815100e-01,   2.32832239e-01,
          4.61403006e-01,   5.44248975e-01],
       [ -3.56565465e-01,   4.80689146e-01,   2.73134131e-01,
         -1.52962862e-01,   2.85029054e-01,   5.20429352e-01,
          3.33771119e-01,   3.28967652e-01,   9.53846644e-02,
          3.38423359e-01,   1.97369025e-01,  -1.70069800e-01,
          1.83144519e-01,   1.83752652e-01,  -1.18112801e-01,
          3.27798892e-01,   3.57043913e-01,   4.69781698e-01,
          3.24742471e-01,   4.08958639e-01,  -3.88343812e-01,
          2.38508415e-02,   3.57018225e-01,   8.23872442e-02,
          4.78589550e-01,  -3.01543238e-01,  -2.76300660e-02,
          1.78268444e-01,   3.24267357e-01,  -1.42133788e-03,
          2.65810875e-01,  -4.06188645e-02,  -1.37249454e-01,
          5.97910366e-02,  -3.23691717e-02,  -2.39199000e-01,
         -1.80716397e-02,   7.81796250e-02,   2.00862396e-01,
          4.27621228e-01,  -1.26071894e-01,  -1.22191572e-01,
         -2.99269036e-01,   5.51094224e-01,  -4.04024944e-01,
         -7.02274068e-02,  -1.33355896e-01,   3.80759031e-01,
          1.70749229e-01,  -1.47832417e-01]])]Hidden bias: [array([-0.63764332, -0.30678478, -0.27164159, -0.44315785, -0.41080412,
       -0.61033852, -0.31231826, -0.2873957 , -0.3722912 , -0.37669926,
       -0.4725972 , -0.1364015 , -0.53300831, -0.41819934, -0.43960386,
       -0.48007654, -0.52540157, -0.41922217, -0.50529942, -0.49952533,
       -0.5528942 , -0.30828156, -0.4664942 , -0.43662415, -0.64610353,
       -0.45101709, -0.33988988, -0.47959194, -0.24100575, -0.46433742,
       -0.4138349 , -0.383301  , -0.20980201, -0.4607577 , -0.23574727,
       -0.55710583, -0.31725372, -0.23066858, -0.59907501, -0.25159411,
       -0.1938912 , -0.35446869, -0.66663069, -0.48303954, -0.3316636 ,
       -0.28240906, -0.38346061, -0.43472269, -0.52620516, -0.39537445])]Output weights: [[ 0.00282177  0.39966757]
 [-0.09429881 -0.1220385 ]
 [ 0.06481233 -0.12113102]
 [-0.00321242 -0.07841928]
 [ 0.00603455 -0.05112186]
 [ 0.075682    0.37062901]
 [ 0.01516661 -0.11730387]
 [ 0.05352834  0.11027988]
 [ 0.0422097   0.24374666]
 [-0.04575058 -0.17882514]
 [ 0.05300755 -0.00068707]
 [ 0.04067284  0.08648275]
 [-0.04603906 -0.39417427]
 [ 0.1485076   0.03059673]
 [ 0.47603519  0.12784173]
 [ 0.02822096 -0.00936376]
 [ 0.0632198  -0.00160558]
 [-0.02329797 -0.01811281]
 [-0.06041725  0.36380481]
 [-0.16326316  0.00120397]
 [ 0.45829425  0.32675673]
 [ 0.06370981  0.03875498]
 [-0.14607681 -0.0763478 ]
 [ 0.05013281  0.12541264]
 [-0.13191527  0.23131622]
 [ 0.10863396 -0.09291597]
 [-0.12115528  0.03139656]
 [ 0.38276087 -0.16825613]
 [-0.02458494  0.04886309]
 [-0.00113066 -0.02511744]
 [ 0.1856441   0.0273771 ]
 [ 0.04637649 -0.08721531]
 [ 0.01042295  0.03306432]
 [ 0.01496372  0.1117446 ]
 [ 0.04093874 -0.00518346]
 [ 0.06584259  0.14549826]
 [ 0.04940872  0.13034123]
 [ 0.00521757 -0.1488662 ]
 [-0.01741074 -0.00733436]
 [-0.02626865  0.04403721]
 [ 0.07807446 -0.02318622]
 [ 0.11829285 -0.05913375]
 [ 0.08003815 -0.32719254]
 [ 0.16990191 -0.08255359]
 [ 0.31705713  0.00223832]
 [-0.13435027 -0.01543539]
 [-0.0326325   0.02614368]
 [ 0.04444549 -0.10838992]
 [ 0.07200807  0.267981  ]
 [ 0.07910119 -0.02963589]]Output bias: [ 0.50628685  0.56962655]
Value MLP:Hidden weights: [array([[  2.46997339e+01,   2.56191282e+01,  -3.08599463e+00,
         -1.38097129e+00,   1.62315109e+01,  -5.40462537e+00,
         -1.51833781e+01,   2.19548470e+00,   1.05560540e+00,
         -5.10540313e-01,   2.07688932e+00,  -2.19302039e+00,
          2.31364755e+01,  -1.08119570e+01,   9.69377229e+00,
          3.85711914e+00,   2.31124645e+01,  -2.71430216e+01,
          1.66697554e+01,  -6.36563940e-01,   2.84761335e+01,
          2.54914644e+01,  -1.09153777e+00,   2.20951008e+00,
          3.27269281e+01,  -1.12069025e+01,   4.90415062e+00,
         -4.64337689e+00,   4.20769779e+00,   1.13262986e+01,
          1.47038770e+01,  -1.28561236e-01,   2.94223691e+00,
          6.85655711e+00,   3.13290735e+00,   1.92898990e+00,
          1.42148026e+01,  -7.72958337e-01,  -3.62528253e-01,
         -3.02028171e+00,  -3.02082528e+01,   3.31892862e+01,
          2.19839047e+01,   1.24608306e+01,   2.20626080e-01,
          1.82600392e-01,  -1.05828894e+01,  -6.13277347e-01,
          9.98935161e+00,   2.17886218e+00],
       [ -2.03297920e+00,   2.51213784e+00,   1.90280282e+00,
         -3.29155398e+00,  -9.42121560e+00,   1.38595992e+01,
          6.92867681e+00,   1.96421758e+00,  -4.91301813e+00,
          2.90729814e+00,  -1.01488101e+00,  -6.08654781e+00,
          8.36364304e+00,   6.17613710e+00,   1.81081301e+01,
          1.71859634e+00,   2.13300284e+01,  -1.34924108e+01,
          8.45573741e+00,   6.47359532e-01,   8.26865165e+00,
          1.78041762e+01,  -2.32248232e+00,   3.19677025e+00,
          1.12082366e+01,  -6.84846422e+00,   3.47735304e+00,
         -6.63193470e+00,  -2.07996713e+01,   3.51181685e+00,
          2.50461820e+00,  -2.78336027e+00,   3.23775772e+00,
          1.55843602e+00,  -2.10720341e+00,   4.67390772e+00,
          3.40665713e+00,  -2.92592403e+00,  -1.41127270e+00,
         -3.36519692e+00,   1.28977991e+01,   7.72486988e+00,
          7.44838483e+00,  -6.93792829e+00,   4.41691247e+00,
          7.05917886e+00,   9.89077975e+00,   8.61626074e-01,
          5.66165298e+00,   1.15100780e+00],
       [  7.96614137e+00,   1.90715702e+01,  -8.94234681e+00,
         -3.66289220e+00,   3.14896923e+00,   4.92824704e-01,
         -1.26439208e+01,  -2.88662565e+00,   1.11889764e+00,
          1.59290030e+01,  -2.36830247e+01,   9.09757279e+00,
          1.46073359e+01,  -2.48393082e+00,   3.32440248e+01,
          2.41096693e+00,   1.12221725e+00,  -1.56646704e+00,
          1.79771512e+01,   7.78899409e-01,   5.45892383e+00,
          1.02694959e+01,  -5.05350730e-01,   9.26751706e-01,
          1.87851178e+01,  -6.72814991e-01,   2.75631602e+00,
         -1.07580959e+01,  -2.63220257e+00,   1.12980834e+01,
          2.23767158e+00,  -4.79195574e-01,   1.40290264e-01,
         -6.79967536e+00,   2.05251137e+00,   7.79451640e+00,
          3.88349881e+00,  -5.23027855e+00,   1.74487357e-02,
         -2.82337999e+00,  -3.42611853e+00,   1.50406221e+01,
          1.35434675e+01,   1.87935360e+01,  -5.90215558e+00,
          2.13179894e+01,  -1.93949830e+01,   1.27355462e+01,
          2.51967747e+01,  -1.34022719e+00],
       [ -2.33445900e+00,  -6.06321118e+00,   1.97497971e+00,
          4.47464447e+00,  -2.91765790e+00,   2.38632080e+00,
          6.32214746e-01,   7.16912058e+00,   2.92621469e+00,
         -4.07832041e+00,   3.27383955e+00,  -1.14112741e+01,
         -4.11321307e+00,   3.00352283e+00,  -5.50930588e+00,
         -2.32878816e+00,   4.20053147e+00,  -1.87659994e+00,
         -1.70171864e+00,  -2.41017241e+00,  -2.49564290e-02,
         -9.96034029e-01,   2.22019918e+00,  -7.66611030e+00,
         -1.68727749e+00,   5.80154513e+00,   5.47543790e-01,
          5.81160261e+00,  -9.44823985e+00,  -2.50360123e+00,
          7.80597418e-01,   1.66149208e+00,   3.59261262e-01,
          1.19146416e+01,  -3.23560638e+00,  -5.35300367e+00,
         -3.55690776e+00,   2.81324871e-01,   5.88009578e-01,
          6.30917088e+00,   2.35891146e+00,  -5.42887360e+00,
         -1.86966169e+00,  -8.43357368e+00,   7.57270211e+00,
         -2.04260557e+00,   3.36774710e+00,  -5.05960291e+00,
         -2.05147165e+00,  -3.24489538e+00],
       [ -1.20327856e+01,   1.42060931e+00,   7.32281016e+00,
         -6.57659302e-01,  -1.92427327e+01,   1.01935973e+01,
          1.85682170e+01,  -1.07535733e+01,  -3.24347494e+00,
          6.41832942e-01,  -5.02046411e+00,   7.64874688e+00,
          7.85732761e+00,  -4.47447552e+00,   1.24296237e+01,
          5.06293217e+00,  -1.93181321e+01,   9.67082920e+00,
         -1.32379648e+01,  -4.53979811e+00,  -1.21986595e+01,
         -1.45276837e+01,   3.89633488e-02,  -1.64509390e+00,
          8.65885984e+00,  -7.62945434e-01,  -1.16971735e+01,
          2.45267621e+00,  -8.85761592e+00,  -1.62116281e+00,
         -8.57312562e+00,   1.28055211e+00,  -1.24616180e+01,
         -1.15716138e+01,   5.78742112e+00,  -2.71440747e+00,
         -1.25210159e+01,   5.28900908e+00,   6.52929321e-01,
         -1.07551444e+00,  -1.75302333e+01,  -1.79976162e+01,
         -4.37504996e+00,  -8.44944613e+00,  -1.82178125e+00,
          7.66077898e+00,   1.42818410e+01,  -1.24862243e+01,
          7.17096467e+00,  -1.24330906e+01],
       [ -1.80982390e+01,  -2.84576404e+01,  -8.94691348e+00,
         -3.48941565e-01,  -1.86660706e+01,   4.13815821e+00,
          5.48772636e+00,   1.94339100e+00,   8.39506126e-01,
          2.47113133e+00,  -4.96897849e+00,  -1.59651911e-01,
         -2.65864015e+01,  -3.72118980e+00,  -8.31791199e+00,
         -3.96870598e+00,  -2.42998669e+01,   3.54276376e+01,
         -4.02188787e+00,  -1.39607647e+00,  -3.03738041e+01,
         -1.57350993e+01,  -4.13242258e-01,  -3.50737597e-01,
         -4.26419227e+01,  -5.96858152e+00,   4.56825733e+00,
          4.95683813e+00,  -4.71524607e+00,   4.29354193e+00,
         -3.20592330e+01,   1.45320894e-02,  -2.26286881e+01,
         -1.96565531e+01,  -4.48044911e+00,  -1.17263688e+01,
         -2.04318708e+01,   6.78983380e+00,  -3.01383632e-01,
         -3.08758862e-01,   4.99881413e+00,  -1.04254113e+01,
         -1.28748202e+01,  -5.80850981e+00,   1.14329094e+01,
         -5.33936958e+00,  -1.17858676e+00,   3.04444192e+00,
         -3.45068652e+00,  -1.28282746e+01],
       [  5.23312433e+00,  -1.66179056e+01,  -6.90070807e+00,
         -5.34811829e-01,   1.81500792e+00,  -1.63697426e+01,
         -1.01391150e+01,  -5.97078410e+00,  -1.42348478e+00,
          2.34364836e+01,  -2.16387793e+01,   9.34860067e+00,
         -1.30604100e+01,  -1.51728838e+01,  -2.36488856e+01,
          3.49609712e+00,  -3.31213934e+01,   2.42578978e+01,
         -1.67642865e+00,   8.18098865e+00,  -1.63397585e+01,
         -3.23273691e+01,  -2.95729894e+00,   6.70063075e+00,
         -2.49461821e+00,  -8.86259501e+00,  -9.46266081e+00,
         -9.32773620e-02,   1.32983179e+01,  -1.81455185e+01,
          1.37710518e+00,  -2.66665241e+00,  -2.84478149e+01,
         -9.90593423e+00,  -2.66097659e+01,  -1.43258376e+00,
         -3.53711148e+01,  -6.82365292e+00,  -1.22031496e+00,
         -5.67238821e+00,  -7.15710454e+00,  -3.67689307e+01,
         -1.69256526e+01,   1.68062755e+01,  -2.75523895e+00,
         -1.81637716e+01,  -1.51209745e+01,   4.38002577e+00,
          6.06471208e+00,  -4.18024450e+01],
       [  9.01498189e+00,   1.95976201e+01,  -6.19568796e-01,
         -2.36053642e+00,   1.52575314e+01,   4.53870992e-01,
         -1.44482708e+01,  -2.56579634e+00,  -3.62910827e+00,
          7.68078199e+00,  -9.20270626e+00,   9.40523343e+00,
          3.25408166e+00,  -4.58487777e+00,   4.29052067e+00,
          1.45803793e+00,   6.31274122e+00,   1.32791306e-01,
          2.00759739e+01,   9.12283212e+00,   3.13918891e+01,
         -7.41321704e-01,  -1.13824859e+00,   1.02652907e+01,
          6.73416964e+00,  -7.64528986e+00,   2.23865114e+01,
         -6.56332729e+00,   3.52135050e+00,   1.87518567e+01,
          1.17942506e+01,   5.48389208e-01,   3.01700703e+01,
         -5.47632266e+00,   5.55351987e-01,   8.33937440e+00,
         -9.00770948e+00,  -9.95386971e+00,  -1.00747094e+00,
         -2.34143266e+00,  -9.98932207e+00,   5.61600383e+00,
          1.48125270e+01,   6.89657679e+00,  -1.23908107e+01,
          1.81566866e+01,  -5.54068598e+00,   3.56456362e+00,
          6.14805592e+00,   4.14754102e+00]])]Hidden bias: [array([ 11.89775142,  10.15050427, -20.3621481 , -12.50826044,
        15.87117102, -22.97266331, -11.69689087, -17.09554525,
       -13.71680453,  15.40812747, -20.08344525,  18.8704384 ,
        10.50004313, -20.8768247 ,  11.27712245,   9.49100999,
        -7.29106804,  14.84606267,  12.65368889,   9.80099133,
        -2.29818654,  -7.10567746,  -7.72440698,  15.36735278,
         5.81736885, -14.82686448,  17.1743235 , -16.38219915,
        24.55987681,  17.60624398,  25.38196786,  -7.1966803 ,
        11.97587342, -16.20795102,  12.83240837,  18.23217751,
        12.97809902, -18.91558994,  -5.53803171, -14.36186974,
       -10.88914226,   7.58609706,   5.86623417,  30.86388544,
       -22.76625296,  15.87825855, -25.6642203 ,  19.32780166,
        13.71922919,   8.97745645])]Output weights: [[ -0.18115745]
 [ -2.97845741]
 [  3.57363734]
 [  2.76491644]
 [  6.72646261]
 [ 11.70814939]
 [ -6.15509833]
 [  9.23204115]
 [ -2.06978867]
 [  8.80657676]
 [-14.19590999]
 [  3.06284383]
 [ -3.98710251]
 [ 11.19472025]
 [ -9.64604741]
 [  1.14204499]
 [-13.04752419]
 [  6.85911875]
 [  8.03879858]
 [ -2.16071382]
 [ -4.65822836]
 [ -4.60710891]
 [  2.69596965]
 [  7.1136698 ]
 [  0.26249345]
 [  6.46706288]
 [ -3.04931925]
 [ -0.51754595]
 [-16.55172523]
 [ -1.02199554]
 [  3.06495873]
 [  9.84251258]
 [ -2.27461085]
 [ -6.44484783]
 [  7.40558797]
 [  0.20461814]
 [  1.01367957]
 [ -0.98501474]
 [ 10.20394458]
 [ -2.74067919]
 [  4.24784951]
 [ -1.70224633]
 [ -0.59690986]
 [ -0.42564391]
 [  7.7916573 ]
 [ -2.62275489]
 [  0.69354258]
 [  3.6128632 ]
 [  3.70550795]
 [  4.07687114]]Output bias: [-13.1614138]