Action MLP:
Initial hidden weights: [array([[ -5.37068055e-03,  -1.83304275e-03,   5.06058365e-03,
          9.28979279e-03,   3.06938031e-03,   2.74412967e-03,
          5.64217898e-03,   3.88457788e-03,   5.62838798e-03,
          9.63968801e-03,   8.57616189e-03,   1.56986895e-04,
          2.48958635e-03,  -4.42673438e-03,  -5.37852266e-03,
          9.10428049e-03,  -4.58545813e-03,   2.07752015e-03,
         -8.25074748e-03,  -2.75969235e-03,   6.12812414e-03,
          3.54439153e-03,  -4.81427042e-03,   4.53796497e-03,
          4.99749236e-03,   5.32578216e-03,   7.95176440e-03,
         -7.88988218e-03,   4.74432394e-03,  -5.11156877e-03,
          8.32345100e-03,   2.11061419e-03,   8.46283242e-03,
         -8.44300831e-05,   8.52051931e-03,  -6.05031424e-03,
         -5.55349197e-03,  -6.11991916e-03,   4.73474333e-03,
         -2.29025817e-04,  -5.99342183e-03,  -6.65217883e-03,
          3.12817324e-03,   5.60427577e-03,   3.74504540e-03,
         -9.87486012e-03,  -9.20400412e-03,   6.65229940e-03,
         -3.02746468e-03,   3.92600166e-03,   5.14753352e-03,
          5.18949080e-03,   9.22238227e-03,  -3.86399796e-03,
          1.92177988e-03,  -6.64634602e-03,   7.67555267e-03,
         -7.21413052e-03,  -9.89857759e-03,  -9.95400204e-03,
          5.46450114e-03,  -3.34951512e-04,   5.05336592e-03,
          2.63720459e-03,   2.12979083e-04,   2.18732588e-03,
         -1.74707188e-03,  -4.69981549e-03,  -6.05233556e-03,
          8.76054167e-03,  -8.94826961e-03,  -3.20793400e-03,
          3.03131990e-03,  -8.57227567e-03,  -2.34484336e-03,
         -3.76792934e-03,  -8.70425401e-03,   7.83646803e-03,
          7.10355468e-03,  -9.53843296e-03,  -1.15352909e-03,
         -3.11505505e-03,   1.56945900e-03,   6.19264818e-03,
         -4.66382494e-03,  -7.82043994e-03,   6.23853485e-03,
          5.42290406e-03,  -3.93925659e-03,   8.22753241e-03,
          7.20983093e-03,  -6.91485877e-03,  -1.75734357e-04,
          2.22825600e-03,   8.28645656e-03,  -8.45842485e-03,
          5.28103358e-03,  -7.23035084e-03,  -4.50696519e-04,
         -2.48212171e-03],
       [ -9.15152555e-03,   9.72567140e-03,  -1.81974197e-03,
         -5.91564486e-03,  -9.45555016e-03,  -2.39960306e-03,
         -2.02698467e-03,  -3.86139727e-03,  -6.87933069e-03,
         -2.10759746e-03,   4.97628504e-03,  -7.38493364e-03,
          7.01984457e-03,  -1.30769781e-03,  -5.53133104e-03,
         -6.60496867e-03,   8.91591370e-03,   3.98741990e-03,
          7.37615040e-03,   7.96215898e-03,  -2.49347308e-03,
         -3.91438820e-03,  -2.09024292e-03,   4.03057358e-03,
          4.41691619e-03,  -1.34270447e-03,   3.50618676e-03,
          5.21160959e-04,   1.68470750e-03,  -3.19053316e-03,
         -7.08756885e-03,  -2.06531740e-04,  -6.40060028e-03,
         -5.33785725e-03,  -1.46677998e-03,  -7.35169703e-04,
         -1.61724937e-03,   3.03114929e-03,  -1.54123564e-04,
         -3.40386113e-03,   8.83591192e-03,  -4.76458285e-03,
         -1.15516618e-03,   4.41223914e-03,   7.84772498e-03,
         -4.27804630e-03,  -8.89060734e-03,  -5.08937686e-03,
         -7.82507073e-03,  -5.40535795e-03,  -3.43862416e-03,
          4.42294063e-03,  -9.30384297e-03,   6.74752595e-03,
          7.44519019e-03,  -4.29622389e-03,   8.16791743e-04,
          3.20592674e-03,   1.89321190e-03,   4.24908067e-03,
         -7.87951136e-03,   4.53052863e-03,   8.08077517e-03,
          1.71014750e-03,   2.75065274e-03,  -8.99821337e-03,
         -4.52980792e-03,   3.35343891e-03,  -6.06179067e-03,
          5.37986097e-03,  -5.39175077e-03,  -5.25309648e-03,
         -8.93907187e-03,   9.45661816e-03,   3.12697506e-03,
         -2.60783290e-03,   5.57639139e-03,   5.11320109e-03,
         -4.38491574e-03,  -6.46975936e-03,   1.46291793e-03,
         -3.95916377e-03,  -4.63646197e-03,  -4.06489481e-03,
         -4.61295947e-03,  -6.05386591e-03,   6.15235155e-03,
         -2.70921076e-03,   9.09241411e-03,   7.77647858e-03,
         -8.19628401e-03,  -8.94555258e-03,   6.66024553e-05,
          7.12131759e-03,  -2.23030547e-04,   4.93182658e-03,
         -9.29095322e-05,  -2.02732218e-03,   3.24484972e-03,
         -1.46763641e-03],
       [ -6.93088796e-03,  -2.27436170e-03,  -3.42643863e-03,
          1.04886963e-03,   2.45028606e-03,   6.54241298e-03,
          2.83875405e-03,  -9.67384104e-03,   2.72874154e-03,
          9.45481372e-03,  -9.19429680e-03,  -8.49213684e-03,
          4.46328226e-03,   1.74082475e-03,   1.47726370e-03,
          5.88469923e-03,   6.40239603e-03,   4.81149833e-03,
          5.45326698e-03,   5.95359735e-03,   1.03737336e-03,
          9.88812566e-03,  -3.53795240e-03,  -3.91256260e-03,
          2.52813416e-03,   9.46427371e-03,  -4.95944058e-03,
         -4.37808856e-03,  -8.78537596e-03,   1.86522906e-03,
         -4.09586759e-03,  -7.07611799e-03,   8.28914806e-03,
          7.40422324e-03,  -7.20371404e-03,   4.51411376e-04,
         -3.09009945e-03,  -8.62604567e-03,   3.70365051e-05,
          7.89202754e-03,  -6.32647925e-03,   7.80370076e-04,
          3.16760009e-03,   2.96009959e-04,  -4.14845294e-03,
         -8.80111266e-03,  -4.75649636e-03,   7.27972104e-03,
          4.37004550e-05,  -4.50275661e-03,   6.89060420e-03,
         -1.39172031e-03,  -3.45172076e-03,  -5.18523000e-03,
         -7.37451287e-03,   5.27916665e-03,  -1.47170369e-03,
         -8.15116130e-03,   7.72375392e-04,   1.23820337e-03,
          5.45153410e-03,  -2.26348715e-03,  -4.85381278e-03,
          8.05340573e-03,  -9.08798399e-03,  -7.48604187e-04,
          4.20614849e-03,  -2.00551434e-03,  -8.37033181e-03,
          8.20137834e-03,   8.72391958e-03,  -1.08063143e-03,
         -7.34478136e-03,   3.08592178e-03,   7.86804838e-03,
         -7.40072133e-03,   1.59004541e-03,   6.62002422e-03,
          1.10479002e-03,   6.55558751e-03,   6.19727881e-04,
         -4.78773334e-03,   2.29368512e-03,   3.18879260e-03,
         -2.44873796e-03,  -3.72848724e-03,   1.50008706e-03,
          3.26662837e-03,  -7.57584926e-04,  -5.52495083e-03,
          5.07774488e-04,   9.17388627e-03,   9.60162069e-03,
         -3.61547538e-03,  -9.04633930e-03,   8.11915247e-03,
          6.43230614e-03,   2.79790535e-03,   7.34605404e-03,
         -9.96731236e-03],
       [  4.93091251e-03,  -7.08247839e-03,   3.67955972e-03,
          5.11469209e-03,  -4.19981544e-03,   5.96884485e-03,
         -8.18413407e-03,   5.29302358e-03,  -9.12553941e-03,
          4.01938242e-03,  -6.09260818e-03,  -8.59878700e-04,
         -1.50237527e-03,  -9.25618321e-03,   6.13706220e-03,
         -7.44512335e-04,   7.86609824e-03,  -7.63283603e-03,
         -1.75786992e-03,   2.81070685e-04,   2.74870827e-04,
          7.10268336e-03,   6.13681491e-04,  -4.87600788e-03,
          3.08782604e-03,   4.98611511e-04,   2.27054200e-03,
          1.57148939e-03,  -8.93080996e-03,   1.65828359e-03,
         -4.05060653e-03,   7.66168255e-04,   7.16632465e-03,
         -4.67608906e-03,   4.12335297e-03,   5.68544224e-03,
          2.14902814e-03,  -3.33842183e-03,  -3.65380271e-03,
          3.76937864e-03,  -9.95014817e-04,  -4.06173227e-03,
         -1.86252572e-03,  -5.72223090e-03,   5.11604860e-03,
          6.81062016e-03,   1.92675515e-03,   1.16424239e-03,
          5.79350574e-03,  -7.50252168e-03,  -8.05942567e-03,
         -6.62846473e-03,   1.09706626e-03,  -4.27300846e-03,
         -3.74432769e-03,   7.45259841e-03,  -3.56627938e-03,
          8.37230548e-03,   2.15005714e-03,   3.92724049e-03,
         -7.26691181e-03,  -7.17317156e-03,   4.51155059e-03,
          1.48972647e-03,  -8.71804307e-03,  -2.01197240e-03,
          2.83493692e-03,  -3.11791471e-03,  -9.67814988e-03,
          2.75088762e-03,  -4.20239551e-03,  -2.04527611e-03,
          7.76840542e-03,   7.95459482e-03,  -6.16608168e-03,
          1.36409257e-03,  -8.29228136e-03,  -3.78557447e-03,
          2.61958995e-04,  -1.25319457e-03,  -2.94112957e-03,
         -3.00265650e-03,  -3.25090581e-03,   8.99179657e-04,
          2.54243432e-03,  -4.25996113e-03,   2.29654623e-03,
          7.55648686e-03,  -4.24461381e-03,  -3.65916768e-04,
          2.78375205e-03,  -9.06425312e-03,   5.03769257e-03,
         -9.93206897e-06,  -3.37019857e-03,   7.72566672e-03,
         -2.93422373e-03,   5.47732354e-05,  -2.16114717e-03,
          2.67921142e-03],
       [ -7.12487191e-04,   3.56922496e-03,  -4.07898711e-03,
         -2.83254178e-03,   8.43616652e-04,  -1.24173840e-03,
          5.81519090e-03,  -3.85860177e-03,  -8.27036023e-03,
         -9.47585147e-03,  -6.43211104e-03,   7.57564224e-03,
         -4.54647672e-03,  -1.57785713e-03,   8.35114943e-03,
          4.63043561e-04,   4.22183183e-03,   1.74237275e-03,
         -7.73701904e-03,  -2.64950333e-03,  -7.43975812e-04,
         -7.99915493e-03,   1.59452879e-03,   6.02380306e-03,
         -1.96133912e-03,   9.28101428e-03,   4.96483757e-04,
          6.10057854e-03,   9.43768829e-04,  -4.65720419e-03,
          8.78498944e-03,  -5.93698965e-03,  -9.99356450e-03,
         -2.05840957e-03,   9.39007293e-03,  -5.00203616e-03,
         -1.07641587e-03,   5.60219856e-03,   3.72933669e-03,
          5.64311388e-03,  -6.27431433e-03,  -5.28220262e-03,
          7.41911150e-03,   1.83651153e-03,   3.92215732e-03,
          7.53703483e-03,  -2.34585300e-04,   1.77688046e-03,
          9.36961433e-03,  -7.85192445e-04,   2.70206443e-03,
         -7.62844778e-03,   9.36511082e-03,  -7.47129032e-03,
          5.10700088e-03,   6.88572330e-03,   6.64194010e-03,
         -5.07761853e-04,   3.19657985e-03,   3.07007990e-03,
         -8.45230777e-03,   9.93911470e-03,   4.60210048e-03,
         -6.16544572e-03,   2.30839966e-03,  -2.44695840e-03,
         -2.22708447e-03,   2.66028022e-04,  -4.69519478e-03,
         -8.63910095e-03,  -3.98144198e-03,  -5.73037706e-04,
          9.18703454e-03,   9.32198517e-03,  -3.33186440e-03,
         -7.72998802e-03,  -2.74025115e-03,  -3.76591083e-03,
          6.11015552e-03,   6.07397298e-03,   8.39614946e-03,
          9.69846315e-03,  -3.96515691e-03,   5.91766665e-03,
          4.23786706e-04,   6.03922233e-03,  -3.83461052e-03,
         -7.31474206e-03,   3.45860962e-03,   5.71687917e-03,
          7.50229260e-03,   1.90298990e-03,  -2.58921510e-03,
         -2.43685779e-04,  -7.10890569e-04,  -5.46246609e-04,
          4.73134166e-03,   7.23772664e-03,   5.39868670e-04,
         -2.07331164e-03],
       [  6.33734498e-03,  -6.45511606e-04,  -5.78617429e-03,
          3.55235751e-03,   3.34196873e-03,   1.75985618e-03,
         -9.00677989e-03,   7.86942969e-03,   8.76195097e-03,
         -6.01706570e-06,  -1.12304533e-03,  -1.28626832e-03,
          8.01934479e-03,   6.07258113e-03,   8.68875902e-03,
          3.26503012e-03,  -4.84110466e-03,  -5.16657797e-03,
         -2.64826611e-03,   6.10573074e-03,  -4.31407908e-03,
         -3.19411710e-03,  -8.22065402e-03,  -2.62323347e-03,
         -7.81206486e-03,  -7.61212906e-03,   5.72887922e-03,
         -6.62483449e-03,   1.02327253e-03,   3.18500358e-03,
         -1.28402245e-03,   2.99689044e-03,   8.78006229e-03,
          6.79728004e-04,   3.75801835e-03,  -8.61187763e-04,
         -4.99358841e-04,  -4.61837115e-03,  -1.00502852e-03,
         -6.26623255e-03,  -7.15400792e-03,   8.63312637e-03,
         -2.60656311e-03,   8.87491913e-03,  -9.42957167e-04,
         -6.05565810e-03,   7.26967563e-03,   3.65622997e-03,
          7.39160013e-03,  -7.32574043e-03,  -6.07982751e-03,
         -9.38743926e-03,  -9.60864352e-03,  -6.16562482e-03,
         -5.14033918e-03,   2.88921453e-03,   7.28548982e-04,
          1.60682438e-03,  -8.80691998e-04,   3.72000209e-03,
         -4.92675621e-05,   4.54710053e-03,  -7.78007656e-03,
          1.31209798e-03,  -6.14349639e-03,  -2.53967834e-03,
          2.00901091e-03,  -9.88460875e-03,  -5.63120560e-03,
         -7.05517355e-03,  -8.49760734e-03,   4.86454523e-03,
          3.49156270e-03,  -6.46908209e-03,  -1.73083431e-03,
          7.19339092e-03,  -7.66722003e-03,  -8.47592300e-03,
         -6.92282141e-03,  -5.00863120e-04,  -6.94159584e-03,
         -1.27194341e-03,   1.11457746e-03,   7.98427133e-03,
         -3.19006372e-03,  -5.01673218e-03,  -2.15837371e-03,
         -2.63146040e-03,   6.60208739e-04,  -1.28623702e-03,
         -4.11728686e-03,   7.78086641e-03,   1.24970134e-03,
          6.37297944e-04,   2.42584678e-03,   3.10846119e-03,
         -1.31260892e-03,   5.63010402e-03,   3.21804982e-03,
         -9.75297378e-03],
       [ -4.69627889e-03,  -8.43812195e-03,  -5.11660759e-03,
          1.79225124e-03,   7.06725273e-03,   3.37846213e-04,
          5.20418546e-03,   6.96072792e-03,  -3.18109051e-03,
          7.67497353e-03,   8.35538797e-03,  -3.42751284e-03,
         -3.41540468e-03,   4.67064889e-05,  -6.67500716e-04,
         -8.40294921e-03,   3.19747035e-03,  -3.33796199e-03,
          3.06323565e-03,  -5.14616951e-04,   5.51287573e-04,
          7.34059689e-03,   6.95693731e-03,   2.77942628e-03,
         -6.61229765e-03,   8.26235696e-03,   7.88742918e-03,
         -1.52069139e-03,   5.70137325e-03,  -8.23541298e-03,
         -9.18762521e-03,  -1.91058189e-04,   1.24830861e-03,
          2.08029397e-04,  -3.04917150e-03,   7.26200358e-03,
         -1.26632726e-04,  -7.95932254e-03,  -6.07290007e-03,
         -4.93079136e-03,   2.79240776e-03,  -3.27659704e-04,
          8.22216014e-03,   1.76954144e-03,  -3.27606175e-03,
         -3.20115938e-03,  -9.47616974e-04,   6.18718712e-03,
          1.65201583e-03,   6.56913069e-03,   6.79125161e-03,
         -7.55697517e-03,   7.67237858e-03,   6.41723168e-03,
          9.72393961e-03,   6.81308707e-03,  -3.44838822e-03,
         -3.64832189e-04,   6.43449693e-03,   2.65115196e-04,
         -9.19463878e-06,  -8.98148434e-03,  -4.27696327e-03,
         -2.88567664e-03,  -6.05779685e-04,   5.24249544e-04,
         -9.45072138e-03,   6.86335708e-03,   2.27810291e-03,
         -6.65417547e-03,   2.75415863e-04,   2.84684567e-03,
         -1.62344489e-03,   8.72007961e-03,   6.50340930e-03,
          1.20336646e-03,   6.27870449e-04,   9.10815720e-03,
          6.47153833e-03,   4.91890369e-03,  -4.24067721e-03,
          2.02456957e-03,   1.95490239e-03,   3.13973967e-03,
          5.17634280e-03,  -1.58132465e-03,   5.03453491e-03,
         -9.60576191e-03,   6.76175011e-03,   3.27137655e-03,
          5.76372091e-03,   1.35944035e-03,  -9.55201117e-03,
          3.86603819e-03,  -9.21972863e-03,  -7.43550432e-03,
         -8.17359979e-03,   7.24241732e-03,   6.74636639e-03,
         -7.88999431e-03],
       [ -2.59930446e-03,   9.64023593e-03,   6.26666007e-03,
         -1.28031533e-04,  -8.24572803e-03,   3.74899734e-03,
          6.39796560e-04,   3.16917143e-03,   9.20449256e-03,
          2.20469873e-03,   8.58524038e-04,  -8.28044587e-05,
         -3.72679455e-03,  -1.05884411e-03,   4.45188009e-03,
          1.14964679e-03,  -3.50795785e-03,  -4.02163823e-03,
          3.28792644e-03,   5.01987881e-03,   7.97309478e-03,
         -5.30254435e-03,   7.33155475e-03,   1.27577228e-03,
         -4.45092489e-03,   1.46349500e-03,   8.43708661e-03,
         -8.81530550e-03,  -9.43247279e-03,  -2.58326233e-03,
          3.30770887e-03,   4.58718977e-03,  -9.65967802e-03,
          8.45099220e-03,  -1.23851239e-03,   8.98654233e-03,
          9.43209348e-03,   3.04649744e-03,   5.33505947e-03,
          4.27343952e-03,  -9.50303624e-03,  -2.25528705e-03,
          4.28828934e-03,  -5.63911460e-03,  -1.49620779e-03,
          1.29568560e-03,  -4.78096104e-03,  -9.13506538e-03,
          1.50647063e-03,  -9.40443978e-03,  -6.84543882e-03,
         -8.60512804e-03,  -9.56555723e-03,   5.30859872e-03,
         -2.25967505e-03,  -1.88834907e-03,   7.01803908e-03,
          8.63444004e-03,   5.77798734e-03,   6.74757473e-03,
         -5.46481795e-03,  -9.66338376e-03,   7.78882600e-03,
          7.43003826e-04,  -2.70717655e-03,   5.16561038e-03,
          9.15435678e-03,  -1.14709549e-03,   4.94744390e-04,
          5.84171253e-04,  -1.44939095e-03,   5.32434259e-03,
          1.42707990e-03,  -1.05911730e-03,  -8.79093304e-03,
          9.95422329e-04,   8.85580075e-03,   4.20247377e-03,
          6.58084758e-03,   1.50703477e-03,   2.05575351e-03,
          2.84468031e-03,   6.48749699e-03,   8.30949761e-03,
         -2.66985091e-03,  -7.58126132e-03,  -1.11201209e-03,
         -8.31273605e-03,   2.59873838e-03,   2.30489407e-03,
          5.39803609e-03,   5.52807178e-03,   6.58687917e-03,
         -7.18779116e-03,  -2.26206105e-03,  -2.20447389e-03,
          9.58622497e-03,   3.33676335e-03,   6.11915482e-04,
         -6.97023323e-03]])]
Initial hidden bias: [array([-1., -1., -1., -1., -1., -1., -1., -1., -1., -1., -1., -1., -1.,
       -1., -1., -1., -1., -1., -1., -1., -1., -1., -1., -1., -1., -1.,
       -1., -1., -1., -1., -1., -1., -1., -1., -1., -1., -1., -1., -1.,
       -1., -1., -1., -1., -1., -1., -1., -1., -1., -1., -1., -1., -1.,
       -1., -1., -1., -1., -1., -1., -1., -1., -1., -1., -1., -1., -1.,
       -1., -1., -1., -1., -1., -1., -1., -1., -1., -1., -1., -1., -1.,
       -1., -1., -1., -1., -1., -1., -1., -1., -1., -1., -1., -1., -1.,
       -1., -1., -1., -1., -1., -1., -1., -1., -1.])]
Initial output weights: [[ -4.32923533e-04   1.56667817e-03]
 [  3.92508272e-03  -5.02940996e-03]
 [ -1.88014426e-03  -6.35116076e-03]
 [ -3.90819886e-03  -9.00405733e-03]
 [  2.37717822e-03   3.60518067e-03]
 [ -1.36497893e-04   5.92231691e-03]
 [ -9.89918012e-03   6.55930389e-03]
 [ -4.12340766e-03  -4.32693749e-03]
 [ -8.83620243e-03  -7.17370072e-03]
 [  5.30700251e-03  -2.83092050e-04]
 [  6.61359954e-03  -4.86196318e-03]
 [ -1.30643891e-03   5.38821741e-03]
 [ -4.10086747e-03   7.40150013e-03]
 [  4.15455832e-03  -7.52010299e-03]
 [  3.66390893e-04  -5.60891316e-03]
 [  1.30798161e-03  -7.13916970e-04]
 [  5.49955482e-03   7.92561064e-04]
 [  5.18562869e-03  -1.61065926e-03]
 [  5.83413895e-03   5.11876094e-04]
 [  3.92765918e-03  -1.65079680e-03]
 [ -4.84361929e-03   3.96974417e-03]
 [ -3.67552957e-03   8.39979217e-03]
 [  3.13530099e-03  -2.97606141e-03]
 [  3.68638364e-03  -8.23684605e-03]
 [ -8.92372263e-03  -6.11621518e-03]
 [ -1.40418446e-03  -2.90294726e-03]
 [ -4.52627749e-03   1.06741023e-03]
 [ -6.49542726e-03  -2.31816847e-03]
 [ -8.20633456e-03  -1.27089229e-03]
 [  9.58431127e-03   7.37248551e-03]
 [ -4.08642251e-03   8.24924067e-03]
 [  6.94433116e-04   4.85868512e-03]
 [ -2.09567782e-03  -2.61469491e-03]
 [  8.74743556e-03  -6.16629735e-03]
 [  6.01528837e-04  -9.67741295e-03]
 [  9.72356715e-03  -8.51256692e-04]
 [  8.45307849e-03   7.96698162e-03]
 [ -5.54560397e-03  -2.09643516e-03]
 [ -7.73497690e-03  -3.95287327e-03]
 [ -5.25236129e-04  -6.04293268e-03]
 [  3.24380414e-04   1.58180914e-04]
 [  3.17758922e-03  -4.67257138e-03]
 [ -5.40883957e-03  -3.87340531e-03]
 [  5.39852862e-03  -7.34609772e-03]
 [  9.62606783e-03  -1.32231296e-03]
 [  9.76037538e-03  -7.51175247e-03]
 [  8.39752537e-03   5.04867303e-03]
 [ -9.94010479e-03  -4.29985359e-03]
 [  8.47682634e-03   1.85147283e-03]
 [  6.78217508e-03  -5.59737378e-03]
 [ -1.30353755e-03  -5.45219446e-04]
 [ -2.51689958e-03   1.77400590e-03]
 [  9.14769830e-03  -8.54494973e-03]
 [ -2.36444026e-03   9.05990276e-03]
 [  2.10107806e-03   6.77553791e-03]
 [  2.11188457e-04   4.76856468e-03]
 [ -4.22952842e-03  -2.19897192e-03]
 [ -1.42089844e-03  -4.52316622e-03]
 [ -9.11278390e-03   2.58552669e-05]
 [  4.08140027e-03   5.55382282e-03]
 [  2.83674400e-03  -4.61627490e-03]
 [  1.06650436e-03  -9.72776787e-03]
 [  5.23159679e-03   4.38475108e-03]
 [  7.31707699e-03   9.04639163e-03]
 [  3.12370517e-03  -5.58450112e-03]
 [  7.72699230e-03  -6.87472818e-03]
 [  9.18910757e-03  -5.08654362e-03]
 [ -4.09925748e-03  -9.81186297e-03]
 [  6.91338901e-03   3.15400539e-03]
 [  6.50376642e-03  -8.17660139e-03]
 [  7.91013054e-03  -5.00765643e-03]
 [ -4.65414749e-03   1.23903795e-04]
 [  6.98596875e-03  -3.14266148e-03]
 [ -5.47046958e-03  -2.99374502e-03]
 [  7.17882758e-03  -9.54592366e-03]
 [  8.30420918e-03   6.00447652e-03]
 [  7.45161685e-03  -8.59894449e-03]
 [  1.84512976e-03  -9.64780008e-04]
 [ -2.14287970e-03   5.33041695e-03]
 [ -2.34287048e-03   7.61458248e-03]
 [ -1.99502436e-03  -5.28490906e-03]
 [  9.27871505e-05   2.65202196e-03]
 [ -3.41819658e-03  -8.66372833e-03]
 [ -1.75184699e-03   4.09968744e-03]
 [  1.26061260e-03  -2.13467019e-03]
 [  9.12001797e-03   4.32532147e-04]
 [  5.75623784e-03  -6.02430741e-03]
 [ -3.70245165e-03  -5.46008159e-03]
 [  3.72341888e-03  -8.32149002e-03]
 [  8.74059343e-03  -6.08107674e-03]
 [ -7.25112658e-03  -1.61714274e-03]
 [  5.41367073e-03   4.95262828e-03]
 [ -7.17381503e-03   8.06229444e-03]
 [  5.26124301e-03  -4.22499985e-03]
 [  6.07634221e-03  -1.02059083e-03]
 [ -2.35737015e-03  -3.64235444e-03]
 [ -1.98197316e-04   9.33992792e-03]
 [  1.99135298e-03  -2.19368893e-03]
 [  4.38233547e-03   8.39116003e-03]
 [  2.55960846e-04  -9.25970027e-03]]
Initial output bias: [ 1.  1.]
Value MLP:
Initial hidden weights: [array([[ -3.89343744e-03,   8.06728527e-03,   7.85680917e-03,
          1.80290327e-03,  -5.81635675e-03,  -4.73994192e-03,
         -2.82610298e-03,   7.81037173e-03,  -6.69993731e-03,
          5.05993176e-03,  -6.01822207e-03,   5.23776380e-03,
         -2.55797307e-03,   1.64060852e-03,  -1.65922652e-03,
          1.67595919e-04,  -2.56017514e-03,  -5.35031469e-04,
         -2.28805431e-03,  -4.27969478e-03,  -8.58235619e-05,
         -7.85928120e-03,   4.62365611e-03,   9.80678924e-03,
         -1.88686069e-03,   5.72286525e-03,  -1.07163800e-03,
          7.12174429e-05,  -6.70566943e-03,  -4.40795232e-03,
          7.71953009e-03,  -7.31189827e-03,   8.51389674e-03,
          7.98583686e-03,   7.91551306e-04,  -8.82325313e-03,
         -9.04299613e-03,   8.92588938e-03,   8.26247539e-03,
         -9.31222310e-05,  -6.97748910e-03,   9.74452960e-03,
          4.41955803e-03,   1.95807875e-03,   1.27229285e-03,
         -8.26950365e-03,  -4.25768049e-03,  -6.15568747e-03,
          8.45182929e-03,   7.58629647e-03],
       [  3.15651940e-03,   4.82791838e-03,  -4.07293769e-03,
         -8.12058944e-03,  -5.98942533e-03,   2.26814546e-03,
         -7.13057472e-04,   4.23139217e-03,  -6.98764436e-03,
          6.01726164e-03,  -7.71227503e-03,  -5.62227610e-03,
          6.33767184e-03,   5.94430881e-03,  -5.33730286e-03,
         -4.15422068e-03,  -6.71301791e-03,  -5.38645799e-03,
         -6.13129985e-03,   9.75506144e-03,   8.89342727e-03,
         -4.17276401e-03,   9.69633681e-03,   7.17371922e-03,
         -4.73928140e-03,  -2.75383313e-04,  -9.46817902e-03,
          6.48416110e-03,   9.84250079e-03,  -1.53906658e-03,
         -9.39098464e-03,   9.24647204e-03,  -1.99192959e-03,
         -8.09411543e-03,  -1.73512725e-03,   9.74201022e-03,
         -2.58330970e-03,   8.80353092e-03,   2.23829213e-03,
          3.47612069e-03,   3.28646004e-03,   7.58275697e-03,
         -2.48499842e-03,   9.69479446e-03,  -4.12503316e-03,
          1.07982377e-03,  -6.86369009e-03,   8.89815008e-03,
          5.57493770e-03,  -6.16711065e-03],
       [ -6.54137503e-03,   5.24189797e-03,   1.46502406e-03,
         -5.55208254e-04,  -9.66314013e-03,  -2.68203578e-03,
          1.78974234e-03,  -7.81052080e-04,   7.57271980e-03,
          6.54189827e-03,  -4.00597086e-03,  -4.32874688e-03,
         -3.78279905e-04,  -7.23389041e-03,   7.93785357e-03,
         -6.03418426e-03,  -4.45858531e-04,  -9.43594994e-04,
          1.20545440e-03,  -4.94460031e-03,   6.87953126e-04,
         -9.83426729e-04,  -8.81366023e-04,   4.56259031e-04,
          1.83983527e-03,  -4.37040327e-03,   1.94684246e-03,
          9.86972556e-04,   7.42606134e-03,  -2.48393928e-03,
         -5.27692213e-03,   4.82036856e-03,  -9.87870148e-03,
         -9.77478718e-03,   8.02181530e-03,  -2.96778686e-04,
          6.85092704e-04,  -6.40877621e-03,   4.82324798e-03,
         -6.22817371e-03,   1.79014502e-04,  -6.28785187e-03,
          1.51130843e-03,   8.71810206e-03,   7.41434193e-03,
         -4.39651814e-03,  -7.37550753e-03,  -7.00925744e-03,
         -8.91111794e-03,  -1.28613468e-03],
       [ -5.70215481e-03,  -2.69245404e-03,  -8.52983878e-03,
         -2.84346351e-03,   3.79787631e-03,   2.30322565e-03,
         -9.72780161e-03,  -8.46903847e-03,   3.65165956e-03,
         -7.97308175e-03,   2.21913689e-03,  -5.15794090e-03,
         -8.46175661e-03,  -6.55265757e-03,   4.09784049e-03,
          6.98500986e-03,   5.44986670e-03,  -4.04438701e-03,
         -4.39053858e-03,   7.36211272e-03,   5.54975065e-03,
         -4.02305002e-03,   9.32239412e-03,   7.27767991e-03,
         -3.61419323e-03,   3.13477239e-03,   2.61704858e-03,
          8.24185073e-03,   4.76965583e-03,   3.01671349e-03,
          6.19088182e-03,   9.35825317e-03,  -4.60243252e-03,
         -8.17328998e-03,  -4.21136295e-03,   3.78214968e-03,
          7.95444638e-03,  -8.51523971e-03,   5.60885019e-04,
         -5.82110517e-03,  -5.33901532e-03,   8.95608801e-03,
          2.18381529e-03,  -9.41122440e-03,  -1.36994652e-03,
          6.43245019e-03,  -3.40261464e-03,  -2.28719717e-04,
          2.97968070e-03,  -2.28693058e-03],
       [ -1.12263945e-03,   6.47840630e-03,  -5.42798955e-03,
          9.93846234e-03,   8.51214719e-03,   5.66733745e-03,
         -2.37307223e-03,  -5.75929629e-03,  -5.43335474e-03,
         -3.78891019e-03,   7.93489427e-04,  -6.00196898e-04,
          8.84433870e-04,  -2.60600874e-03,   8.49216565e-03,
          1.93615995e-03,   9.21104687e-03,  -2.74320886e-03,
          8.51613802e-03,  -9.21495620e-03,   6.69027015e-03,
         -5.49652048e-03,   8.08678308e-03,  -2.17629705e-03,
         -6.84542615e-03,  -3.70500946e-03,  -3.32963117e-03,
          5.37709120e-03,  -5.33301089e-03,   7.10950594e-03,
          3.30105245e-03,  -1.76118488e-03,  -3.79183964e-03,
          5.64633749e-03,   3.84679602e-03,   8.42713443e-03,
         -6.50470749e-03,   9.11167897e-03,  -7.20682170e-04,
          7.15642035e-03,   5.78376416e-03,  -9.25125183e-03,
          4.88559409e-03,   3.14023711e-04,   4.69970802e-03,
          1.54974942e-03,   1.84534274e-03,   3.74603836e-03,
         -1.81674751e-03,  -1.00585932e-03],
       [  3.31758370e-03,  -2.31807109e-03,  -3.68246001e-03,
          6.59278207e-03,   9.72951791e-03,  -5.07475227e-03,
          8.51730378e-03,   6.72624301e-04,   5.10916562e-03,
         -5.78500527e-03,   2.48237653e-03,   5.16017449e-03,
         -3.99123262e-03,   6.65940326e-03,  -3.23396142e-03,
          6.55615951e-03,   3.86802702e-04,   5.72412326e-03,
          5.60741095e-03,   6.56133715e-03,  -7.19672609e-03,
          8.81890562e-03,  -4.01292025e-04,  -4.66129550e-03,
          4.54365207e-03,   9.29117606e-03,   4.36330406e-03,
          8.43590022e-03,  -3.88467678e-03,   9.00848167e-03,
          5.26784554e-03,  -2.03136116e-03,   9.56106616e-03,
          6.25166660e-03,  -9.04583037e-03,  -4.36631803e-03,
          7.73934628e-03,  -9.88020369e-03,  -2.10630582e-04,
          5.61115714e-03,   2.47733295e-03,   4.02920398e-03,
         -8.57673432e-03,  -8.34728269e-03,   8.17351683e-03,
          2.97685010e-03,   3.40111743e-03,   2.93898702e-03,
         -5.82895636e-03,  -9.71565169e-03],
       [ -1.57803046e-03,   6.00594244e-03,   4.06611223e-04,
          5.40855827e-04,   6.42450171e-03,   8.06024001e-03,
          6.77000396e-03,   6.78734836e-03,   3.66753340e-03,
          4.87022092e-03,  -8.40041272e-03,  -3.36053965e-03,
         -2.59521320e-03,  -8.09242587e-03,   9.69566895e-03,
          8.32505995e-03,   1.50012560e-03,   6.52679130e-03,
         -2.62609712e-03,   7.26804872e-03,  -3.75525565e-04,
         -1.43980256e-03,   1.79065448e-03,  -4.16664614e-03,
          6.64602245e-03,   1.27886116e-03,   8.97205595e-03,
          1.92817975e-03,   3.17216793e-03,  -4.32075992e-03,
          6.79369327e-04,  -8.72165767e-03,   9.51421337e-03,
         -5.98349939e-04,   9.27702015e-03,   5.27718676e-03,
         -9.69288611e-03,   6.30598514e-03,  -2.00689235e-03,
         -3.07503244e-03,  -8.65964902e-03,  -2.72505832e-03,
         -8.49544424e-03,  -3.16320282e-03,  -3.24218857e-03,
          3.35047518e-03,   9.92246828e-03,   5.24226973e-03,
         -1.38954418e-03,  -1.88292887e-03],
       [ -1.88631678e-03,  -1.78051131e-03,   2.60510625e-03,
          9.17093174e-03,   2.85592955e-03,   9.24709682e-03,
          4.07534762e-03,   8.10165720e-03,  -6.78387718e-03,
          7.01373772e-03,  -1.54930019e-03,  -7.57861000e-03,
          3.44158989e-03,   9.11094372e-03,   6.38032267e-04,
          2.98362458e-04,  -6.00871043e-03,  -1.27526850e-03,
          9.11033543e-03,  -3.98282799e-03,  -2.57033977e-03,
         -3.29522402e-03,  -2.25669826e-03,   3.69693914e-03,
         -2.75665510e-04,   9.03434835e-03,  -5.55273149e-03,
         -3.79794299e-03,  -2.36867481e-03,   4.05117766e-03,
          7.98406686e-03,  -3.14557880e-03,   5.27607972e-03,
         -6.30955946e-03,   3.69324953e-03,   9.93463154e-03,
          9.26172752e-03,   3.25431504e-03,  -3.94004562e-03,
          1.20734624e-04,   3.58298871e-03,  -2.61613082e-03,
          6.26829361e-03,   2.60676089e-04,  -2.29221281e-03,
          8.59068390e-03,  -4.68099072e-03,  -9.14952107e-04,
         -6.64872978e-03,   6.36900584e-03]])]
Initial hidden bias: [array([-1., -1., -1., -1., -1., -1., -1., -1., -1., -1., -1., -1., -1.,
       -1., -1., -1., -1., -1., -1., -1., -1., -1., -1., -1., -1., -1.,
       -1., -1., -1., -1., -1., -1., -1., -1., -1., -1., -1., -1., -1.,
       -1., -1., -1., -1., -1., -1., -1., -1., -1., -1., -1.])]
Initial output weights: [[-0.00749908]
 [ 0.00975753]
 [-0.00100673]
 [-0.00130571]
 [ 0.00863304]
 [ 0.00397122]
 [-0.00147683]
 [-0.00789422]
 [-0.00844411]
 [-0.00108348]
 [ 0.0047638 ]
 [ 0.00060424]
 [ 0.00813446]
 [-0.00159115]
 [-0.00406682]
 [-0.00098255]
 [-0.00683916]
 [-0.00448831]
 [-0.0017148 ]
 [ 0.00514539]
 [ 0.00291008]
 [-0.0091028 ]
 [ 0.00231315]
 [-0.00724251]
 [ 0.00415391]
 [-0.00828453]
 [ 0.00525763]
 [ 0.00467186]
 [-0.00440622]
 [ 0.00306367]
 [ 0.0050333 ]
 [ 0.0007695 ]
 [ 0.00142592]
 [-0.00906372]
 [ 0.00704774]
 [-0.00381937]
 [-0.00614523]
 [-0.00737568]
 [-0.00283684]
 [ 0.00279502]
 [ 0.00488787]
 [ 0.00528635]
 [ 0.00115852]
 [-0.00840731]
 [ 0.00108549]
 [ 0.00281554]
 [ 0.00089082]
 [-0.00375248]
 [-0.00037792]
 [ 0.00160101]]
Initial output bias: [ 1.]
