Action MLP:Hidden weights: [array([[  1.02401643e-02,  -1.45841775e-02,   4.12815507e-02,
          4.30963625e-02,  -8.73188634e-03,  -1.39885781e-03,
          1.97237397e-02,   2.79693378e-02,   8.35672374e-03,
          2.51692112e-02,  -9.59985207e-03,   3.47427992e-03,
         -6.59614671e-02,  -1.67220922e-02,   1.89083649e-02,
          6.45275064e-03,   3.15956317e-02,  -9.71229145e-03,
          3.54503775e-03,   9.38262350e-03,   2.90253259e-02,
          1.49254798e-02,   1.56242092e-02,  -3.66301863e-03,
          6.19994115e-02,   3.15754509e-02,   6.93385104e-03,
          3.68637219e-02,   7.69635133e-03,  -9.20015269e-03,
         -5.68593626e-03,   5.80137988e-03,  -3.66855758e-02,
         -8.27565504e-03,   2.13208556e-02,   9.86446794e-03,
         -3.02943668e-03,   1.27519169e-02,   2.49653970e-02,
          3.87124811e-02,   1.93526596e-02,  -5.16981279e-03,
          2.65565082e-02,  -3.19283287e-03,   7.18906406e-03,
          6.96752130e-02,  -1.36336971e-02,   3.48979289e-02,
         -5.12188138e-03,  -1.58157147e-02,   6.94479761e-03,
          1.24168893e-02,   9.45898348e-03,   9.35924994e-03,
         -1.08004805e-03,   1.66909864e-02,   1.61059836e-02,
          3.46462257e-02,   3.55870501e-02,   4.91639087e-03,
          3.38842657e-03,  -1.31368160e-02,   1.68803287e-02,
         -2.80047523e-02,  -1.01991145e-02,  -5.34280097e-03,
          4.33473182e-03,   1.10272005e-01,  -3.04369132e-02,
          3.85723659e-02,   2.53819700e-03,   1.11597444e-02,
          9.41223970e-03,   5.59400443e-02,  -4.62210786e-03,
         -1.48803115e-02,   6.36201707e-02,   1.94704068e-02,
          2.34806169e-02,   4.77087853e-03,   1.95931054e-02,
         -3.24641609e-03,   2.11360533e-02,  -1.33195117e-01,
          1.68274713e-02,  -2.77649081e-02,   2.22339062e-02,
          5.39086556e-02,  -2.38293263e-03,  -3.11654974e-03,
          3.87244801e-02,   2.92079408e-03,  -2.18971508e-02,
          5.39725297e-03,  -4.06654665e-03,   4.20205493e-02,
         -1.69432127e-02,   3.97122129e-03,  -3.22590867e-02,
          1.62883040e-01],
       [  3.48051146e-01,   1.64671050e-01,   4.54768074e-01,
          4.76553890e-01,   1.63374786e-01,   4.08810497e-01,
          2.96978210e-01,   4.39760137e-01,   2.79350725e-01,
          3.33206257e-01,   1.26145147e-01,   2.53425049e-01,
          2.00669929e-01,   1.14426451e-01,   4.08194763e-01,
          2.63600120e-01,   4.30469704e-01,   1.40639892e-01,
          2.57796191e-01,   2.88917874e-01,   3.77196449e-01,
          4.88249702e-01,   3.29080591e-01,   2.10256228e-01,
          5.86347806e-01,   3.96962421e-01,   4.08209407e-01,
          4.63828720e-01,   2.43359331e-01,   1.67594500e-01,
          2.31176649e-01,   2.79834463e-01,   4.87445729e-01,
          1.56523191e-01,   3.66056315e-01,   3.09208738e-01,
          2.05982701e-01,   3.37319977e-01,   3.66934708e-01,
          4.62226818e-01,   3.30556398e-01,   1.97286244e-01,
          3.85116131e-01,   1.44881139e-01,   2.71374686e-01,
          3.54098442e-01,   1.71157945e-01,   4.82306224e-01,
          2.58983225e-01,   1.06127307e-01,   2.13380861e-01,
          2.50563067e-01,   2.35268390e-01,   2.64309945e-01,
          1.94778413e-01,   4.24260591e-01,   3.03392014e-01,
          5.01036210e-01,   5.04540681e-01,   3.12071721e-01,
          1.66940674e-01,   1.76150160e-01,   3.20060441e-01,
          1.92224866e-01,   1.30398053e-01,   1.98640397e-01,
          2.62010079e-01,   4.67211768e-01,   2.39675330e-02,
          3.83813195e-01,   2.22024399e-01,   3.23989298e-01,
          3.08752387e-01,   6.39157831e-01,   1.92595266e-01,
          1.67871289e-01,   2.47005417e-01,   2.85447995e-01,
          3.35193904e-01,   3.01661389e-01,   3.43591135e-01,
          2.27163689e-01,   3.46410180e-01,   3.15199655e-01,
          3.52579011e-01,   9.24519437e-02,   3.29640480e-01,
          5.37015032e-01,   2.44496633e-01,   2.04554315e-01,
          4.62055777e-01,   2.19207781e-03,   5.09622535e-01,
          2.56007729e-01,   1.32192349e-01,   5.32382631e-01,
          2.24429692e-01,   2.89748893e-01,   1.68840409e-01,
          5.13226979e-01],
       [ -9.58142567e-02,   4.39620078e-02,   1.18792115e-01,
         -8.29380237e-03,  -2.22246262e-01,  -2.32970608e-01,
         -5.83441028e-02,  -8.66661120e-02,  -1.45887568e-01,
         -1.13393120e-01,  -2.12223386e-02,  -8.03506575e-02,
         -1.22013765e+00,  -5.22655739e-02,  -3.63029141e-02,
         -1.66885116e-01,   8.47200218e-02,  -2.87558512e-03,
          3.64048156e-02,  -7.60975278e-02,  -6.82907702e-02,
         -2.24381941e-01,   1.44188552e-01,   7.79607754e-02,
          1.76984209e-01,   5.61340365e-02,  -2.11872576e-01,
          1.62854673e-01,  -5.54211733e-02,  -1.80764909e-01,
         -2.19099859e-01,  -1.45354697e-01,  -3.67261848e-01,
         -2.55353854e-02,   1.99687286e-02,   3.31949449e-02,
         -9.57063263e-02,   1.12558976e-01,   3.04288810e-03,
          1.28158455e-01,   1.33063104e-01,  -7.56946755e-02,
          2.46605964e-02,  -1.17016436e-01,   1.08552124e-02,
          3.79489485e-01,  -1.62703082e-01,  -1.09432065e-01,
         -1.50646425e-01,   7.50628510e-02,  -2.53126371e-02,
          3.15722565e-02,   1.41937968e-01,  -3.32313212e-02,
         -5.21094623e-02,  -1.15071295e-01,  -5.89020119e-02,
          1.07406439e-01,   6.37820203e-02,  -8.23791631e-02,
         -6.46618234e-02,   2.10856526e-02,   2.23422202e-02,
         -3.13714124e-01,   1.46726202e-01,   3.57448268e-02,
          2.61862013e-03,   4.04305968e-01,  -4.78651617e-02,
          1.23159533e-01,   1.65137616e-01,  -9.39647391e-02,
         -3.50434071e-02,   2.27819039e-01,   9.36001187e-02,
         -2.17866840e-01,   6.04147753e-01,   2.58996976e-02,
         -5.96715880e-02,  -1.02452179e-01,   1.34337471e-01,
         -3.98357027e-02,   3.52622189e-02,  -5.54035897e-01,
          6.68260621e-02,   2.85640908e-02,   5.23307715e-02,
          8.14794774e-02,   9.51045853e-02,   2.77092119e-02,
         -3.75975211e-03,  -6.90900533e-01,  -3.23175085e-01,
          1.93259952e-02,  -1.09146790e-01,   6.81005477e-02,
         -2.61611691e-01,  -4.33561928e-02,  -3.42988009e-01,
          5.88540452e-01],
       [ -1.64825027e-01,  -6.70165466e-01,  -9.66673255e-02,
          3.24676555e-02,  -5.01196404e-01,   7.59938729e-03,
         -2.92220618e-01,  -4.78864593e-03,  -2.82913257e-01,
         -1.92111466e-01,  -6.93445681e-01,  -3.64694639e-01,
         -4.10045329e-01,  -6.87146013e-01,  -8.89827015e-02,
         -3.05349309e-01,  -1.30653473e-01,  -6.68983473e-01,
         -4.41139017e-01,  -3.16426987e-01,  -1.32498652e-01,
          1.68885376e-01,  -3.73602932e-01,  -5.84361967e-01,
          1.34153402e-01,  -1.67869533e-01,  -1.97281056e-02,
         -1.06586222e-01,  -4.07786340e-01,  -5.08386884e-01,
         -3.58986757e-01,  -2.92774088e-01,   2.62250913e-01,
         -6.02370557e-01,  -2.13674403e-01,  -3.27294220e-01,
         -4.63140063e-01,  -3.40861988e-01,  -1.97613514e-01,
         -8.27441636e-02,  -3.67348499e-01,  -4.81767502e-01,
         -1.73654929e-01,  -5.93563095e-01,  -4.06950330e-01,
         -5.97944852e-01,  -4.98194709e-01,   9.76847646e-02,
         -3.25065725e-01,  -7.99963529e-01,  -4.75576005e-01,
         -4.48851774e-01,  -5.64131731e-01,  -3.84024194e-01,
         -5.22794543e-01,  -1.61785052e-02,  -2.90812274e-01,
         -4.68648324e-03,   3.56790309e-02,  -2.64145053e-01,
         -5.42246206e-01,  -6.13375873e-01,  -3.18709723e-01,
         -4.53232226e-01,  -8.32927744e-01,  -5.50648241e-01,
         -3.99381621e-01,  -3.65305995e-01,  -9.14413460e-01,
         -2.47340600e-01,  -6.03892154e-01,  -2.20013136e-01,
         -2.80778555e-01,   2.04523394e-01,  -6.18800722e-01,
         -5.05879282e-01,  -1.18573016e+00,  -3.76519892e-01,
         -2.17447216e-01,  -2.55793886e-01,  -3.41513043e-01,
         -4.47103832e-01,  -2.48734759e-01,  -3.62192198e-02,
         -2.56541509e-01,  -7.95057628e-01,  -3.09079821e-01,
          1.04616015e-01,  -5.26731860e-01,  -5.64406817e-01,
          4.94149528e-04,  -1.17820470e+00,   2.63518359e-01,
         -4.38339048e-01,  -6.17717307e-01,   9.05809015e-02,
         -3.78226058e-01,  -3.19196914e-01,  -5.27381660e-01,
         -5.28155680e-01],
       [  3.05952476e-02,  -9.82534440e-02,  -6.13865434e-02,
          1.63812644e-03,   1.93592593e-01,   1.67823334e-01,
          2.09675849e-02,   2.36287660e-02,   8.06098238e-02,
          6.09506873e-02,  -6.62363035e-02,   1.41776389e-02,
          2.08643708e+00,  -1.08707927e-02,   1.57295613e-02,
          1.01639433e-01,  -2.83573200e-02,  -4.74410398e-02,
         -3.78743412e-02,   3.13274506e-02,   2.11603094e-02,
          1.64497832e-01,  -1.05848895e-01,  -1.06941990e-01,
         -5.42040748e-02,  -1.65603982e-02,   1.20609796e-01,
         -7.24500433e-02,  -3.23782430e-03,   1.21864163e-01,
          1.50544441e-01,   6.27565968e-02,   3.33227165e-01,
         -1.65114742e-02,  -3.44946607e-02,  -3.22925137e-02,
          3.23032198e-02,  -8.92393598e-02,  -1.69329329e-02,
         -4.22882550e-02,  -1.03293744e-01,   2.48144542e-02,
         -1.20477296e-02,   4.54408921e-02,  -4.30340658e-02,
         -4.49141598e-01,   9.72609954e-02,   6.85069605e-02,
          8.84534784e-02,  -1.59542498e-01,  -5.65866065e-04,
         -5.74287138e-02,  -1.57372216e-01,  -9.07504381e-03,
         -7.48964560e-03,   7.16140237e-02,   6.06309973e-03,
         -4.33232640e-02,  -8.00006573e-03,   3.59884724e-02,
          1.39636394e-02,  -6.70073861e-02,  -4.27804141e-02,
          3.61013758e-01,  -2.43109415e-01,  -6.86534291e-02,
         -2.61069282e-02,  -4.60197443e-01,  -8.65950146e-02,
         -7.42144143e-02,  -1.54853727e-01,   4.03302902e-02,
         -1.11952361e-02,  -5.35540159e-02,  -1.00108747e-01,
          1.54664292e-01,  -6.66498058e-01,  -3.00788161e-02,
          1.78885053e-02,   6.71127932e-02,  -9.14992897e-02,
         -4.91637759e-03,  -2.82067046e-02,   9.28835265e-01,
         -4.21558629e-02,  -1.08909842e-01,  -4.60934557e-02,
         -2.37933642e-02,  -9.46003227e-02,  -7.40163809e-02,
          4.11574809e-03,   7.86212105e-01,   2.73290694e-01,
         -4.51925939e-02,   1.01961923e-02,  -5.60118545e-03,
          2.46403383e-01,   1.74459632e-02,   4.29796686e-01,
         -7.59100648e-01],
       [  7.61189613e-02,  -3.23780670e-03,   9.35654780e-03,
          4.61111092e-02,   1.74032811e-01,   1.52585171e-01,
          5.84598879e-02,   6.70318708e-02,   1.20559851e-01,
          1.01946039e-01,   2.45053206e-02,   5.92103014e-02,
          1.11087463e+00,   4.39041803e-02,   4.78865036e-02,
          1.22725805e-01,   2.29296458e-02,   2.00815182e-02,
          3.74990351e-02,   8.07970023e-02,   6.42488561e-02,
          1.37601798e-01,  -2.21028231e-02,  -1.62072249e-02,
          9.98139608e-03,   2.04436101e-02,   1.26440464e-01,
         -1.17506718e-02,   5.70562485e-02,   1.38378570e-01,
          1.48409036e-01,   1.12181776e-01,   2.25467880e-01,
          3.78313452e-02,   2.06867237e-02,   3.50773467e-02,
          7.94812890e-02,  -1.00500872e-02,   3.60214958e-02,
          4.90286956e-03,  -3.34867602e-03,   7.65127170e-02,
          2.99517788e-02,   7.97185436e-02,   2.67252092e-02,
         -1.94727555e-01,   1.20670647e-01,   7.49220792e-02,
          1.05396966e-01,  -3.60192811e-02,   4.39098535e-02,
          2.83672985e-02,  -5.75470290e-02,   6.09899479e-02,
          4.78735260e-02,   8.06449240e-02,   5.27686071e-02,
          2.09661417e-02,   3.52002511e-02,   7.75347573e-02,
          6.59653858e-02,   5.91345855e-03,   2.36897972e-02,
          2.84097792e-01,  -7.18092924e-02,   1.01083118e-02,
          3.71154753e-02,  -2.27130010e-01,   5.34977004e-03,
          7.34875089e-03,  -3.59351713e-02,   8.19766658e-02,
          3.71977702e-02,  -2.43353894e-03,  -3.66766416e-03,
          1.69975709e-01,  -1.42684883e-01,   3.38731115e-02,
          5.48631381e-02,   8.86810480e-02,  -2.09046180e-02,
          4.07259458e-02,   3.37497688e-02,   6.06681685e-01,
          2.00612999e-02,  -1.68273825e-02,   2.62192871e-02,
          3.57743025e-02,  -6.19716202e-03,   5.67568421e-03,
          3.48873120e-02,   2.91986567e-01,   1.81774498e-01,
          2.91959552e-02,   6.43168327e-02,   4.04290283e-02,
          2.08982937e-01,   5.57551951e-02,   3.04853980e-01,
         -3.48738917e-01],
       [  1.11088033e-01,   2.00570744e-02,   1.03444258e-01,
          1.42686064e-01,   7.11962096e-02,   1.45112646e-01,
          9.88161446e-02,   1.44195669e-01,   9.07099200e-02,
          1.14824390e-01,   3.46090566e-02,   8.18775032e-02,
         -1.92686523e-01,   3.29797782e-02,   1.22314199e-01,
          8.67504162e-02,   1.14245101e-01,   3.24584582e-02,
          7.12460078e-02,   9.14765364e-02,   1.17146480e-01,
          1.83125275e-01,   6.87363258e-02,   4.23168640e-02,
          1.39841936e-01,   1.11725889e-01,   1.46734816e-01,
          1.04540264e-01,   8.53668607e-02,   5.83654542e-02,
          7.81136267e-02,   9.43272304e-02,   1.92980727e-01,
          4.31723471e-02,   9.91191879e-02,   8.74970804e-02,
          6.75943765e-02,   6.76215858e-02,   9.98531770e-02,
          1.06165052e-01,   7.58365937e-02,   6.75130630e-02,
          1.12484102e-01,   5.51660697e-02,   7.36055128e-02,
          2.04015929e-02,   6.51881279e-02,   1.66495880e-01,
          9.14923083e-02,   5.53862915e-03,   7.39138356e-02,
          6.48946209e-02,   4.42533896e-02,   8.48657146e-02,
          6.95498549e-02,   1.45139217e-01,   9.11930533e-02,
          1.23493606e-01,   1.41453880e-01,   9.90274350e-02,
          5.85477980e-02,   3.77567214e-02,   8.19999207e-02,
          7.12784856e-02,  -1.27238167e-02,   4.72331266e-02,
          6.63122132e-02,   5.69543957e-02,  -2.11777497e-02,
          8.34929942e-02,   3.14716509e-02,   1.06331641e-01,
          9.26418317e-02,   1.59008077e-01,   4.33916832e-02,
          6.38902332e-02,  -5.50753544e-02,   8.47539964e-02,
          1.08509598e-01,   1.03777973e-01,   6.83057152e-02,
          7.19163624e-02,   9.49013043e-02,   1.25997785e-01,
          9.58225193e-02,   3.46623628e-03,   9.06714351e-02,
          1.42560553e-01,   5.46613071e-02,   5.05247354e-02,
          1.38354785e-01,   3.24594008e-04,   1.88253648e-01,
          7.55080868e-02,   4.03474349e-02,   1.43541989e-01,
          7.44143872e-02,   9.50593024e-02,   7.21009156e-02,
          2.65758372e-02],
       [  1.14099244e-01,   1.94185143e-03,   1.20977741e-01,
          1.51108461e-01,   5.70572195e-02,   1.69987981e-01,
          8.78448050e-02,   1.48196653e-01,   1.04414608e-01,
          1.13229585e-01,  -1.02440936e-02,   7.39717166e-02,
         -1.58752194e-01,  -5.12412752e-04,   1.31622016e-01,
          9.73878193e-02,   1.11975698e-01,  -2.74899779e-03,
          5.45748445e-02,   9.05549228e-02,   1.25412959e-01,
          1.98908252e-01,   5.80969184e-02,   1.10100534e-02,
          1.63959612e-01,   1.06876864e-01,   1.61400218e-01,
          1.05437755e-01,   5.55947583e-02,   5.63204125e-02,
          9.37161126e-02,   9.73673125e-02,   2.29926064e-01,
          2.51344830e-02,   9.59936598e-02,   8.03234452e-02,
          6.32351770e-02,   6.82367255e-02,   1.07285932e-01,
          1.24664842e-01,   5.03863764e-02,   5.01417738e-02,
          1.08826052e-01,   2.60491851e-02,   5.80945247e-02,
         -3.09644509e-02,   5.26043071e-02,   1.68106005e-01,
          9.07772161e-02,  -6.22162556e-02,   4.25353265e-02,
          4.31953933e-02,  -3.52236183e-03,   7.06886799e-02,
          3.57678364e-02,   1.48678166e-01,   9.27754799e-02,
          1.44909702e-01,   1.55610323e-01,   1.02284340e-01,
          3.24495636e-02,   5.15510160e-03,   8.21446079e-02,
          9.41762492e-02,  -7.32301209e-02,   2.64064150e-02,
          6.99817519e-02,   1.69385038e-03,  -7.88986954e-02,
          8.63621171e-02,  -1.76464658e-03,   1.08696737e-01,
          8.73291834e-02,   1.79970315e-01,  -3.94756718e-03,
          6.06577960e-02,  -1.62470770e-01,   6.68165244e-02,
          1.05548662e-01,   1.01781193e-01,   6.52250510e-02,
          5.62234323e-02,   9.48919451e-02,   2.23001782e-01,
          8.42299121e-02,  -5.02811668e-02,   7.52971200e-02,
          1.60402074e-01,   2.66808517e-02,   2.13684868e-02,
          1.46897876e-01,  -2.33241421e-02,   2.42409771e-01,
          4.59354752e-02,   2.04627398e-02,   1.65611583e-01,
          1.05351610e-01,   8.44337713e-02,   8.49624084e-02,
         -5.78690633e-02]])]Hidden bias: [array([-0.16447555, -0.14565989, -0.17300164, -0.16746167, -0.1296171 ,
       -0.16848833, -0.16216317, -0.17074797, -0.15810446, -0.16523261,
       -0.14296499, -0.15585108, -0.27659502, -0.1397703 , -0.16921148,
       -0.15320874, -0.17335878, -0.14214142, -0.15890351, -0.16296695,
       -0.16891657, -0.16507749, -0.16379341, -0.14994443, -0.17067683,
       -0.17057075, -0.17321762, -0.17309195, -0.15589583, -0.13781875,
       -0.14456203, -0.15987726, -0.18435134, -0.14513088, -0.16706095,
       -0.16515863, -0.1517355 , -0.16409587, -0.16772977, -0.17242154,
       -0.16338703, -0.14939064, -0.17046986, -0.1413794 , -0.15912399,
       -0.09374936, -0.1409037 , -0.16422275, -0.15523869, -0.13659201,
       -0.15126488, -0.15439871, -0.14667953, -0.16107981, -0.15128701,
       -0.16876478, -0.16333101, -0.17482717, -0.17190252, -0.16539442,
       -0.14444784, -0.14508613, -0.16545734, -0.11111209, -0.13094092,
       -0.14904829, -0.15721022, -0.11740434, -0.13436727, -0.16900973,
       -0.14418956, -0.16498188, -0.16203151, -0.17413005, -0.14682513,
       -0.13499927,  0.00681788, -0.16243283, -0.16649104, -0.16169298,
       -0.16419924, -0.15396255, -0.16683385, -0.12828551, -0.16651448,
       -0.13702725, -0.16615542, -0.16381953, -0.15552814, -0.15128339,
       -0.16911304, -0.02348922, -0.17760809, -0.15743821, -0.13953284,
       -0.16675347, -0.13504494, -0.16258008, -0.0937642 , -0.03722454])]Output weights: [[ -1.42827584e-02  -3.14597252e-02]
 [  3.50553744e-02   1.90303659e-04]
 [ -5.13530625e-02   3.64997587e-02]
 [ -5.04733023e-02  -1.62289085e-03]
 [  5.53690193e-02  -1.61058650e-02]
 [ -2.63039528e-02  -4.68466677e-02]
 [ -3.99055178e-03  -1.06095544e-02]
 [ -3.38675309e-02  -3.11897769e-02]
 [  7.69531744e-03  -3.34188565e-02]
 [ -6.40464527e-03  -2.70516376e-02]
 [  4.84724882e-02  -1.66796669e-02]
 [  7.27368917e-03  -2.27326917e-02]
 [  1.41148952e-01   8.46314215e-01]
 [  5.15133518e-02  -8.32386860e-03]
 [ -3.33545831e-02  -7.36605706e-03]
 [  1.44257155e-02  -3.52381399e-02]
 [ -4.61661483e-02   3.43022310e-02]
 [  4.00889107e-02  -9.87887454e-04]
 [ -2.18955221e-03   1.67150173e-02]
 [ -4.96196432e-04  -1.61232639e-02]
 [ -2.09304357e-02  -2.00807633e-02]
 [ -5.36250062e-02  -4.25839114e-02]
 [ -1.20734434e-02   3.88787423e-02]
 [  2.02825252e-02   1.13091026e-02]
 [ -9.15204081e-02   5.86757060e-02]
 [ -3.73185206e-02   2.79939462e-02]
 [ -2.05250002e-02  -5.46810886e-02]
 [ -5.19562170e-02   5.09991124e-02]
 [  9.04300495e-03  -1.67849478e-02]
 [  4.72686966e-02  -2.59445196e-02]
 [  2.94214154e-02  -3.87826949e-02]
 [  8.61953692e-03  -4.05212689e-02]
 [ -9.86196543e-02  -3.43234844e-02]
 [  3.17090466e-02   1.40791512e-03]
 [ -2.80569750e-02   2.70038631e-03]
 [ -1.61302997e-02   1.52038583e-02]
 [  2.30793917e-02  -1.91909308e-02]
 [ -1.92241090e-02   2.86160206e-02]
 [ -2.69132023e-02   1.71449707e-03]
 [ -5.57369967e-02   4.86793913e-02]
 [ -1.26366154e-02   3.16731397e-02]
 [  2.25119149e-02  -1.26849592e-02]
 [ -3.24353500e-02   1.46159552e-02]
 [  4.93622800e-02  -2.03954113e-02]
 [ -3.64983481e-03   2.19903919e-04]
 [  1.51491093e-01  -3.13024093e-02]
 [  4.19877290e-02  -2.72387900e-02]
 [ -4.52197482e-02  -2.58350372e-02]
 [  1.34812594e-02  -3.08181539e-02]
 [  7.09504934e-02  -1.16391332e-02]
 [  1.38040852e-02   3.12550543e-03]
 [  1.64203822e-03   4.91717829e-03]
 [  2.67012380e-02   1.88709603e-02]
 [  1.49427992e-03  -7.60305973e-03]
 [  2.37143560e-02  -1.17598607e-02]
 [ -2.98180792e-02  -2.63901870e-02]
 [ -5.83510390e-03  -1.71195876e-02]
 [ -6.52331053e-02   3.63461424e-02]
 [ -6.48961964e-02   3.00874738e-02]
 [ -6.37600678e-03  -1.86950870e-02]
 [  3.18026002e-02  -8.80224008e-03]
 [  2.64381473e-02  -1.56485974e-04]
 [ -1.63449488e-02   4.34314329e-03]
 [  5.76936106e-02   1.31101677e-02]
 [  9.24287586e-02  -1.74516509e-02]
 [  1.59756993e-02   7.57959979e-03]
 [ -3.38314835e-03   4.35025367e-03]
 [  1.20958895e-01  -3.30069850e-02]
 [  1.04483649e-01  -3.57105606e-02]
 [ -3.07657998e-02   3.68666825e-02]
 [  3.17540075e-02   3.07705480e-02]
 [ -7.96250585e-03  -2.40127031e-02]
 [ -1.14022279e-02  -1.24699977e-02]
 [ -1.12481958e-01   7.98816117e-02]
 [  2.55030252e-02   2.09594043e-02]
 [  5.23492069e-02  -3.11234631e-02]
 [  4.19531592e-01  -1.10190579e-01]
 [ -7.74885856e-03   1.37956141e-02]
 [ -1.25230152e-02  -1.41648315e-02]
 [ -2.53372881e-03  -1.65528664e-02]
 [ -1.85636458e-02   3.82960893e-02]
 [  1.00312205e-02  -6.32720695e-03]
 [ -2.50381997e-02   1.52332112e-02]
 [ -8.92466822e-02   1.91625084e-01]
 [ -2.81508183e-02   2.43388894e-02]
 [  6.58994442e-02  -1.13097651e-02]
 [ -1.96236031e-02   1.68604911e-02]
 [ -7.52260845e-02   2.84631313e-02]
 [  8.16053558e-03   2.33418264e-02]
 [  1.82190329e-02   7.77974077e-04]
 [ -4.74144122e-02   3.34840115e-03]
 [  4.17745587e-01   2.00541250e-01]
 [ -8.87519580e-02  -3.84852043e-02]
 [  2.45626869e-04   4.13247612e-03]
 [  5.14768158e-02  -2.99246872e-02]
 [ -7.36926836e-02   3.05101198e-02]
 [  3.57612801e-02  -1.75922813e-02]
 [ -5.63996112e-03  -3.59325647e-03]
 [  8.16119276e-02   3.99482021e-02]
 [  3.01950953e-01  -1.56732724e-01]]Output bias: [ 0.0879699  0.0753875]
Value MLP:Hidden weights: [array([[ -1.84784827e+00,  -6.13759670e-01,   1.31558477e+01,
          1.03735541e+01,   5.26293466e-01,   6.30438740e+00,
          2.52751358e+00,   1.62685515e+01,   6.53271689e+00,
          1.24606434e-01,  -4.52723428e-01,  -2.67290297e+00,
          1.83868575e+00,  -3.47198898e-01,   1.76419071e+00,
         -9.94380985e+00,   1.24027482e+00,  -1.29823436e+01,
         -8.64641576e-02,  -2.03577416e+01,  -2.77842510e+00,
         -1.15241068e+00,   8.30893562e-01,   5.13299238e-01,
         -2.99462319e+00,  -3.65382326e-01,  -1.57315189e+01,
         -9.28839362e+00,  -2.29655480e+01,   1.28446583e+00,
         -7.23794285e+00,  -1.55371131e+00,  -2.24489535e-01,
         -1.19459543e+00,   1.98295865e+00,   4.97503923e-01,
          6.11915837e+00,  -6.18411501e-03,  -1.21237915e+00,
         -7.72550430e-01,  -9.55659426e+00,  -5.02905848e+00,
         -1.29689525e+00,   2.44184193e+00,  -5.81011906e+00,
          2.32042530e-01,   2.51826876e+00,   3.03546642e+00,
          6.59250484e-01,   2.17857121e+00],
       [  6.55615962e-01,  -2.12081802e+00,  -9.55316494e+00,
          1.21477825e+01,  -2.47307772e+00,  -6.41068151e+00,
         -3.33589478e+00,   6.44910457e-01,  -6.89575819e-01,
         -2.21682181e+00,   2.07680627e+01,  -1.94966450e+00,
         -3.95597040e+00,   2.88733036e+01,  -7.98141081e+00,
          6.24574118e+00,  -1.87831718e+00,  -1.48822146e+00,
         -6.76386851e+00,  -4.76500025e+00,  -7.02105301e+00,
          1.22222248e+01,   2.83933790e+01,  -5.87331736e+00,
         -6.59747407e+00,  -1.53505386e+01,  -5.58901959e+00,
         -4.15125273e+00,  -2.32766759e+00,  -2.76283605e+00,
         -2.14222355e+00,   7.54874770e-02,  -9.82670869e+00,
         -5.30876492e+00,   2.32601354e+00,   4.63299729e+00,
         -2.17085938e+00,  -2.26236946e+00,   2.69752892e+01,
          8.80911560e+00,   7.11973227e+00,  -2.46206887e+00,
          4.57872610e+00,  -2.05310684e+00,   5.73949494e+00,
          5.05145191e-01,   2.48128278e+00,  -6.14648218e+00,
         -3.73110192e+00,  -6.12273912e+00],
       [  2.64788521e+00,   6.03381086e+00,  -3.47194297e+01,
         -6.66552709e+00,  -7.70581322e+00,   2.88246970e+00,
          6.22200282e+00,   1.47114777e+00,  -1.40298309e+00,
         -4.55753246e-01,  -1.09591286e+00,   7.41250249e+00,
         -6.84893332e+00,   4.64299403e-01,  -6.57902040e+00,
          1.59320145e+01,   2.25945248e+00,  -9.16839074e+00,
         -1.78208261e+00,  -2.32153158e+00,   1.00171488e+00,
          7.21267632e+00,   6.02076978e-01,   1.28347218e+01,
          3.34083506e+00,   6.34500673e+00,   7.67509289e+00,
         -9.30898203e+00,  -1.13643313e+01,  -7.53560003e-01,
         -1.51388217e+01,  -5.48687701e-02,   2.68519066e+01,
         -5.00639539e+00,  -1.29237194e+01,   9.98689815e+00,
          3.12081951e+00,   4.93914565e-01,   7.67937243e-01,
          1.01417471e+00,   1.39491666e+01,   1.77588063e+01,
          1.30190542e+01,   2.12387731e+00,  -7.22658819e+00,
         -1.06343879e+00,  -2.71808262e+00,   1.81656277e+01,
          2.79600576e+00,   5.80323753e-01],
       [  9.39191574e+00,   5.75830063e+00,  -2.90976996e+00,
          5.53274133e+00,  -2.48467703e+00,  -1.24878909e+00,
         -2.57164710e+00,  -4.34228950e+00,   4.29325600e+00,
          3.77574522e+00,   7.63624891e+00,  -1.00993216e+00,
          8.37481690e+00,   9.92654004e+00,  -7.72626438e-02,
          6.09706723e+00,   3.37215896e+00,  -5.43282195e+00,
          4.08349315e+00,   1.03683629e+01,  -2.52687574e-01,
          3.34802533e+00,   9.11294507e+00,   6.21213698e+00,
         -1.14723346e+00,   4.04458694e+00,   2.33071066e+00,
          8.25985475e-02,   2.85706948e+00,   9.67535986e+00,
         -5.38245751e+00,  -2.67848135e+00,   1.19905039e+00,
         -1.09998661e+01,   5.20320151e+00,   4.72211712e+00,
          3.30604132e+00,   2.06155196e+00,   9.90146471e+00,
         -2.11880311e+00,   2.43639662e+00,  -5.71795915e+00,
         -7.21415548e+00,   1.36805400e+00,   1.55351278e+00,
          1.17590651e+01,   3.08069441e+00,  -9.11434120e+00,
          5.60304907e+00,   3.36835890e+00],
       [ -4.09113776e-02,  -4.86350897e+00,  -1.50224845e+01,
         -3.18155351e+01,   5.36569057e+00,   8.52384045e+00,
          1.16464491e+01,  -1.19467679e+00,   1.72865790e+00,
         -1.45309404e+00,   7.32813182e-02,   4.73441209e+00,
         -7.59274665e+00,   8.28121492e-03,   8.35849782e+00,
          4.37294926e+00,   8.99095823e-01,   1.14948962e+01,
         -6.20179319e+00,  -6.41608741e+00,   1.16417186e+01,
          3.66244539e+00,   4.25697513e+00,   1.20380779e+01,
          6.78257043e+00,  -6.38900333e+00,  -1.22401418e+01,
         -1.82399587e+01,   7.20978040e+00,   2.40440060e+00,
         -5.64294175e+00,   1.57532080e+01,  -6.22950908e+00,
         -1.53395814e+01,   3.38724570e+00,  -1.63957676e+00,
          4.97107523e+00,   3.11805917e+00,   4.43091760e+00,
          1.10622856e+01,  -2.76327707e+00,   1.04191912e+01,
         -2.52547060e+01,   1.20469374e+01,  -3.44765860e+00,
          7.61423500e-01,  -6.96465005e-01,   1.37211231e+01,
         -3.66348340e+00,  -5.08647219e+00],
       [ -3.51914535e+00,  -9.68921314e+00,  -3.47173249e+00,
         -2.13118042e+01,  -9.92206971e+00,   2.39815440e+01,
          6.01288928e+00,  -1.82601021e+01,  -3.60039538e+00,
         -4.31196706e-01,   1.44975917e+00,   1.00561735e+01,
          1.21113023e+01,   5.78272122e+00,  -1.00458519e+01,
          1.49668940e+00,  -6.77308826e+00,  -1.62052634e+00,
          4.67989123e+01,  -7.76370429e+00,  -7.65117863e+00,
         -1.02380838e+01,   2.82205977e-01,   2.16571950e+00,
         -5.31395827e+00,   1.91301491e+01,   5.49671430e+00,
         -7.57347512e+00,  -5.88393284e+00,  -2.64303747e+00,
          1.18195436e+00,  -1.63169418e+01,   9.57263888e+00,
         -8.74574787e-01,  -1.08971344e+01,   9.35878306e+00,
         -1.05385276e+01,  -2.76511041e+00,  -1.18232241e-01,
         -8.27666895e-01,   1.89572049e+01,   5.05112258e+00,
          4.89540703e+00,  -1.05581145e+01,  -1.45465006e+01,
         -3.19405146e+00,  -7.29856375e-01,  -1.34413472e+01,
         -1.10062729e+01,   3.15630135e+00],
       [ -5.99015730e+00,  -2.35667103e+00,   1.12132745e+01,
         -3.50624312e+00,   6.77435174e+00,  -9.59048309e+00,
         -8.64151858e+00,  -7.08219810e+00,  -7.03821777e+00,
         -2.01491814e+00,  -9.19399201e+00,  -7.26742334e+00,
         -4.79536929e+00,  -8.26064634e+00,  -6.29886739e+00,
          5.81016698e+00,  -4.61821946e+00,   6.49910902e+00,
         -2.85889859e+00,   7.65790731e-01,  -1.53749889e-01,
         -6.70963975e+00,  -9.79467878e+00,  -5.74991397e+00,
         -1.04635021e+01,   1.36834251e+01,   3.49940766e+00,
          8.54321617e+00,  -6.73106092e+00,  -7.35204448e+00,
          2.00286619e+01,  -5.01925652e+00,  -2.02593578e+00,
          5.79915946e+00,  -1.36820512e+00,  -9.34315487e-01,
         -4.36251089e+00,  -5.35265184e+00,  -9.64040652e+00,
         -1.65326407e+01,  -6.66358970e+00,  -4.43380779e+00,
          1.23430984e+00,  -6.55147219e+00,  -4.09553190e+00,
         -3.74003014e+00,  -7.11557740e+00,  -1.01212842e+00,
         -9.18414775e-01,  -8.42534337e-01],
       [ -4.23933567e+00,  -5.67362264e+00,   8.41590994e+00,
         -1.08940213e+01,   1.48819183e+00,  -3.05710637e-01,
         -1.93078187e+00,   7.97961902e+00,  -1.62244476e+00,
         -2.26060604e+00,  -6.60188667e+00,  -5.45181431e+00,
         -6.14765457e+00,  -7.95242860e+00,   3.62562326e+00,
         -3.73290108e+00,  -2.85223109e+00,  -2.60605140e+00,
          1.34035626e+00,   6.99767507e+00,  -3.53887835e+00,
         -2.22728328e+00,  -8.74355178e+00,  -1.57558673e+00,
         -6.65023477e-01,   3.25792917e+00,   1.53789447e+00,
          7.29237037e+00,  -3.16319883e+00,  -5.64732941e+00,
          9.85890659e-01,   4.85023899e+00,   1.58756831e+01,
          3.67567594e+00,  -3.53287444e+00,  -3.19064742e+00,
          3.49888197e+00,   2.46049273e-01,  -7.69727034e+00,
          1.39924060e+00,  -3.74921545e+00,  -1.00993858e+01,
         -1.68696279e+00,   5.03764223e+00,   1.33638688e+00,
         -7.11407572e+00,  -5.87217907e+00,   9.45575918e+00,
         -5.52456552e+00,  -7.87027419e+00]])]Hidden bias: [array([-11.76569127, -12.24103187,  -2.50248778, -19.07321693,
        11.98802692,  -7.49179555, -12.44505057,  18.35423916,
       -14.93945992, -11.62742332, -15.45235728, -14.37100691,
       -15.2561788 ,  -5.4302469 , -15.37721882,  16.10651654,
       -10.28118325,  13.80097178, -25.82768708,   7.29853781,
       -13.63783605, -16.60710157,  -2.44785816,  -9.60874586,
       -10.10330742,  -6.01335982,  -0.32289101,  -0.437336  ,
       -11.09692103, -15.26699618, -14.34353562,  12.46397972,
       -11.31038438,  16.10810754, -16.584271  , -13.26480076,
       -15.96417991, -10.19095023,  -7.27702032,   8.31478992,
        -7.34335544, -13.84849746,  13.48069641, -13.75276654,
        14.21150816, -14.78881203, -11.06261385, -12.39033499,
       -16.49615616, -23.85569208])]Output weights: [[ -2.79026813]
 [  0.04044263]
 [ -1.36838707]
 [  6.55130506]
 [  4.50782539]
 [  3.54968172]
 [ -0.99058505]
 [  3.30059163]
 [ -0.92275427]
 [ 20.93636598]
 [  8.28931357]
 [ -1.26242889]
 [  5.18701368]
 [ -2.63733596]
 [ -4.87631016]
 [  4.62063534]
 [ -5.60629365]
 [  9.99559579]
 [ -1.18703762]
 [ -2.89537244]
 [ -3.35224056]
 [  7.02272693]
 [ -4.30245464]
 [  0.06585778]
 [  1.25650722]
 [  3.2883348 ]
 [  3.84066981]
 [  4.52104264]
 [ -4.61520004]
 [ -9.79835993]
 [ -7.2772427 ]
 [ -3.35738807]
 [  4.08834956]
 [-14.86292599]
 [ -2.83222476]
 [ -5.99178337]
 [ -7.65248786]
 [  2.74583691]
 [  1.84740395]
 [ -2.38196524]
 [  1.84214671]
 [ 10.12320569]
 [  0.59657171]
 [  1.22229734]
 [  6.02130336]
 [  2.59787164]
 [ -5.12912126]
 [ -1.89378455]
 [ -5.82183977]
 [  9.55551622]]Output bias: [-43.64330549]