Action MLP:Hidden weights: [array([[  2.75901444e-04,  -4.04800383e-02,  -2.80292093e-02,
          2.29888889e-01,  -3.04195581e-02,  -4.00762925e-02,
         -3.55996921e-02,  -5.10458182e-02,   2.09328975e-01,
         -1.53389069e-02,  -8.95684649e-02,  -5.42840835e-02,
         -8.62766971e-01,  -4.71908303e-02,  -1.90531585e-02,
         -4.70411454e-02,  -4.36280219e-02,  -4.12625814e-02,
         -2.35321882e-02,  -1.39992343e+00],
       [  7.38555991e-03,   2.91934370e-02,  -1.88387343e-02,
          1.26861174e-02,   3.14117870e-02,   2.78554364e-02,
          3.39279950e-02,   3.16083909e-02,  -5.04929476e-01,
          1.16639374e-02,  -9.16852797e-02,   2.89682326e-02,
          9.28379261e-01,   2.79678664e-02,   2.62920011e-02,
          3.25987743e-02,   3.15833555e-02,   3.02477589e-02,
          3.36727114e-02,   1.83485718e-01],
       [ -1.72133101e-01,  -3.11153162e-02,  -1.82548274e-01,
          7.68716229e-01,  -9.83090178e-02,   1.39002731e-02,
         -8.38769847e-02,   2.54754762e-02,   1.70587002e+00,
         -1.53674664e-01,  -1.77004717e-01,  -5.46111400e-02,
         -2.67330572e+00,  -1.71117980e-02,  -1.23406316e-01,
         -6.80046632e-02,  -5.04382839e-02,   1.79954515e-02,
         -9.72859816e-02,  -4.83164353e+00],
       [ -5.29540560e-01,  -2.58363521e-01,  -5.72671682e-01,
         -5.66360551e-01,  -2.98993226e-01,  -2.91104316e-01,
         -2.79186815e-01,  -3.23755631e-01,  -9.63548158e-01,
         -4.49973179e-01,  -6.37727152e-01,  -2.65509842e-01,
         -2.76698097e+00,  -2.66456749e-01,  -3.48818308e-01,
         -2.68615774e-01,  -2.47164020e-01,  -2.88396315e-01,
         -2.90669275e-01,   1.47338278e+00],
       [ -1.38885056e-01,   4.12623956e-02,  -9.39911027e-02,
         -4.31486982e-01,  -2.12385780e-02,   8.43824856e-02,
         -7.43396643e-03,   9.41083006e-02,  -1.39605608e+00,
         -8.76202075e-02,   4.24408431e-02,   1.92006003e-02,
          7.04401563e-01,   5.66264497e-02,  -4.91400808e-02,
          8.49423049e-03,   1.85102154e-02,   8.62427285e-02,
         -2.06207726e-02,   9.90914113e-01],
       [  2.02322940e-01,   6.02100249e-02,   2.62416125e-01,
          2.46282372e-01,   8.06957024e-02,   1.66847007e-01,
          6.92431237e-02,   1.84138246e-01,  -1.78136072e+00,
          1.60503454e-01,   5.63554054e-01,   4.07328439e-02,
          7.57521749e-01,   7.35423477e-02,   1.10849108e-01,
          5.37260877e-02,   4.19414239e-02,   1.67342038e-01,
          8.56039101e-02,   2.13459994e+00],
       [  1.73045305e-01,   1.13004746e-01,   1.72333267e-01,
          1.54091797e-01,   1.45991675e-01,   9.39402781e-02,
          1.30324649e-01,   1.23605273e-01,   2.94570268e-01,
          1.74351108e-01,   1.65063433e-01,   1.34450953e-01,
         -2.20016671e-01,   1.23084834e-01,   1.58429256e-01,
          1.23406274e-01,   1.20604454e-01,   9.59184589e-02,
          1.31487751e-01,  -3.08932669e-01],
       [  6.49396578e-02,   8.88068142e-02,   7.54384277e-02,
         -2.03162984e-01,   9.05633826e-02,   9.26183240e-02,
          9.50858981e-02,   7.73473458e-02,  -2.05411916e-01,
          7.83227226e-02,   1.02936216e-01,   8.51189592e-02,
         -8.63525236e-02,   7.34975800e-02,   8.55296441e-02,
          9.79234528e-02,   8.77291670e-02,   9.31791064e-02,
          9.93278356e-02,   4.46085001e-01]])]Hidden bias: [array([-0.19215703, -0.13122685, -0.19961767, -0.12489203, -0.14778453,
       -0.1205873 , -0.14303287, -0.13764365, -0.66678594, -0.17913408,
       -0.19456918, -0.13906605, -0.38480758, -0.12861236, -0.15948092,
       -0.14011196, -0.1325297 , -0.12089725, -0.14527849, -0.71656325])]Output weights: [[-0.14059991  0.02523245]
 [-0.08198328  0.06146773]
 [-0.17347069  0.0764909 ]
 [ 0.03428645  0.00580643]
 [-0.07942939  0.03070679]
 [-0.12341285  0.12463149]
 [-0.07523286  0.0335462 ]
 [-0.13699711  0.14095261]
 [-0.17802334 -0.31982872]
 [-0.12176794  0.03244226]
 [-0.26595122  0.28309559]
 [-0.07555677  0.04113949]
 [ 0.67085535  0.07369801]
 [-0.09151023  0.07423604]
 [-0.09155996  0.02903773]
 [-0.0745216   0.03754473]
 [-0.06999526  0.04014362]
 [-0.12321884  0.12570476]
 [-0.07741933  0.0322224 ]
 [-1.08879624  0.15104367]]Output bias: [-0.81259359 -0.28369687]
Value MLP:Hidden weights: [array([[ -1.38979926e+02,  -6.81866832e+01,  -2.54231789e+01,
         -2.83103860e+02,  -1.13737238e+02,   2.10534871e+02,
         -6.20893137e+02,  -1.79097505e+02,  -2.25410317e+00,
          3.12681785e+02,  -6.60483356e+02,  -1.20626085e+03,
         -2.81665036e+01,  -8.77195087e+01,   3.11388833e+02,
         -1.14035719e+02,  -5.27361735e+01,  -5.42432625e+02,
          3.18885976e+02,   9.38242387e+00],
       [ -2.94427887e+02,   1.53797568e+02,  -1.30524745e+02,
          8.88538652e+02,  -1.36741415e+02,  -5.14838199e+02,
         -1.36731202e+02,   3.52352560e+02,  -1.89591421e+02,
         -7.39413131e+02,   1.34715715e+02,  -6.14389859e+02,
          5.49354875e+01,  -2.52380191e+02,  -3.47958720e+02,
         -3.32829883e+01,   7.66109501e+01,  -2.05436493e+03,
         -4.73943196e+02,  -3.03760940e+02],
       [  9.64038234e+01,   2.26182703e+02,  -3.60013264e+01,
         -6.61309865e+02,  -7.65340217e+00,  -7.94977984e+00,
         -9.23718564e+02,  -4.13834809e+02,   4.69698166e+02,
          2.00341436e+01,  -1.74990347e+03,  -6.18985706e+02,
         -2.46367989e+02,  -5.55213310e+02,   1.21257767e+03,
         -4.56405272e+02,  -2.68044797e+02,   5.06400648e+02,
          3.29510998e+02,  -4.07402898e+01],
       [ -3.43497718e+02,   1.67932204e+02,   1.02651081e+01,
         -4.80850410e+02,   6.13645607e+01,  -6.15397137e+01,
          6.90830933e+02,   1.09442694e+02,   1.26611306e+02,
          6.33451215e+02,  -5.09303013e+02,   2.13724286e+02,
          4.02355077e+02,  -1.88391491e+02,  -7.31843392e+02,
          1.68417643e+02,   9.58604735e+01,   1.51799050e+02,
          8.58746559e+02,   6.67997758e+01],
       [ -5.24717640e+02,  -6.17715510e+02,   1.96829196e+01,
         -4.44816703e+02,  -8.06975596e+02,   5.31224508e+02,
          2.98686259e+03,   3.02120409e+02,  -5.96977886e+02,
          6.34106901e+02,   2.08254940e+03,  -1.92220167e+03,
          6.39329312e+02,   7.01433612e+02,  -1.19748307e+03,
          3.27896902e+02,   5.38492467e+02,  -1.95765146e+03,
          2.87605882e+02,   2.86245420e+01],
       [ -5.47342624e+02,  -4.39456567e+02,   1.33953479e+00,
         -6.04460198e+02,  -6.55079558e+02,   4.73739998e+02,
          8.17929160e+03,   3.44405758e+02,  -2.09784634e+02,
          7.82115624e+02,   5.43146068e+03,  -2.10178585e+03,
          8.52624605e+02,   6.02944009e+02,  -3.29744834e+03,
          3.16674486e+02,   5.53461393e+02,  -3.81546384e+02,
          3.63205311e+02,  -1.27099152e+02],
       [  1.25634793e+02,   7.18235019e+01,  -8.57019125e+01,
          2.15395187e+01,  -1.14806220e+02,   2.27261999e+01,
         -3.79275825e+00,   7.64192152e+00,  -4.18987428e+01,
          4.42264118e+01,   1.60234909e+01,   2.20122072e-02,
         -1.72566563e+00,  -7.12590532e-01,   7.87920827e+02,
          2.26385364e+02,   5.39760880e-02,   8.22654944e+01,
          1.53192558e+01,   1.18863239e+01],
       [  1.36126368e+02,  -1.70922196e+02,  -4.23748463e+00,
          2.22353646e+01,   2.36190325e+01,   1.58814727e+02,
         -3.91527363e+00,   6.44530673e+01,   4.37626315e+01,
          1.71817541e+01,   1.07568919e+03,  -7.11907413e+00,
          2.46839005e+00,  -4.59670762e+00,  -2.14219708e+01,
          3.75707908e-01,   1.52345530e+02,  -4.95859761e+01,
          1.58607990e+01,   2.36416098e+01]])]Hidden bias: [array([   83.23673186,   137.93578413,  -223.94906737,  1250.75087175,
        -158.1288573 ,  -633.02702984, -1152.75199239,   356.24766077,
        -291.39889761, -1442.13104385,  1098.37030773,  -837.71895863,
          59.26351148,  -220.64073355,   473.05544159,   -39.95579687,
         155.80280865, -1801.86711464, -1100.88475303,  -331.29937794])]Output weights: [[  -6.05496598]
 [ -25.81170476]
 [ 149.10583904]
 [  93.262444  ]
 [ -38.08629813]
 [ -27.88111841]
 [   3.74609829]
 [ -54.01136576]
 [  37.30464849]
 [ -35.36130914]
 [  23.49053381]
 [ -12.44800102]
 [ -13.43514632]
 [ -13.892286  ]
 [  -6.29804447]
 [  16.12184218]
 [  37.52611646]
 [-148.29531828]
 [ -68.71899659]
 [ -57.30730063]]Output bias: [-206.75899949]