Action MLP:Hidden weights: [array([[  1.76518506e-02,  -2.18363728e-02,  -6.20457650e-02,
          3.53113100e-02,  -1.71020558e-03,   1.31079283e-02,
          2.87495373e-02,  -9.94517834e-02,  -8.90796491e-02,
         -6.23907552e-02,   6.03384479e-03,   1.74273710e-02,
         -4.22430399e-02,   7.08804896e-02,  -1.84789807e-02,
          5.29054548e-02,  -1.23647289e-02,  -8.87573657e-04,
         -8.53352086e-02,   7.47767757e-03,   4.90180082e-02,
          7.29548480e-03,   4.05216078e-02,   5.57332064e-02,
          1.58139113e-02,   7.53173423e-03,   2.31050679e-02,
         -6.66889693e-03,   9.70775349e-03,   3.16346633e-02,
          7.19387667e-02,   9.72241950e-03,   7.61164831e-02,
          3.06168323e-02,   7.23102817e-03,  -4.11309906e-03,
          8.49842875e-02,   4.72699491e-02,   2.19640779e-02,
          2.48618215e-02,  -2.70109970e-02,  -1.16463364e-02,
          5.89534746e-02,   9.50948320e-03,  -2.98243901e-03,
         -4.99091600e-02,   3.12085873e-02,  -1.92489832e-02,
          6.03085757e-02,  -3.67924904e-02,  -4.41350039e-02,
          1.83357284e-02,  -1.75127196e-02,  -4.71504966e-02,
          6.82802997e-03,   1.42533850e-02,   5.55367174e-03,
          4.69149784e-03,   2.87784959e-02,   1.43683327e-03,
         -1.03676690e-03,  -7.79229685e-02,   6.06676680e-03,
         -4.84535313e-01,  -3.15297856e-02,   1.93832351e-02,
          3.78157718e-02,   6.62874384e-02,   4.85121212e-02,
          4.84074089e-02,  -1.38855960e-02,  -2.36199494e-02,
          5.74579004e-02,  -3.21480583e-02,   3.14229177e-02,
         -8.09748048e-02,  -1.36196608e-02,   1.03498560e-02,
          4.64431121e-03,   4.52381379e-02,   1.02550421e-02,
          1.87265696e-02,  -3.36584877e-02,  -9.63288183e-02,
          1.98009417e-02,   2.51926735e-02,   5.23472696e-02,
          2.69346988e-02,  -1.30331041e-02,   7.92551286e-03,
          2.95313079e-02,   4.41503432e-03,  -5.40219765e-03,
          2.16076623e-02,  -2.71656397e-02,  -4.22121558e-02,
          7.93619421e-02,  -1.59646576e-02,  -2.78049727e-02,
          1.20279429e-01],
       [  1.78322685e-01,   2.23471232e-01,   1.27051965e-01,
          1.60800301e-01,   9.94441884e-02,   1.36218922e-01,
          1.81335578e-01,   1.61042041e-01,   2.39531040e-01,
          7.62690643e-02,   2.07191490e-01,   1.41409222e-01,
          1.26113848e-01,   1.32549295e-01,   1.61028810e-01,
          1.32093277e-01,   1.47158181e-01,   1.69094007e-01,
          1.51010229e-01,   1.47341979e-01,   1.21389440e-01,
          1.43250250e-01,   1.58359570e-01,   5.59287396e-02,
          1.64569569e-01,   1.40537509e-01,   1.25298083e-01,
          1.14842325e-01,   1.69660146e-01,   7.38783889e-02,
          1.34064620e-01,   1.50916671e-01,   1.31637048e-01,
          1.02045493e-01,   1.23649292e-01,   1.40652447e-01,
          2.37691141e-01,   1.73634060e-01,   1.16202988e-01,
          7.98451367e-02,   1.37632248e-01,   1.33159853e-01,
          1.43501769e-01,   1.68553018e-01,   1.82680076e-01,
          2.20472882e-01,   5.99775384e-02,   8.41039121e-02,
          1.11528187e-01,   1.55077632e-01,   1.77184035e-01,
          1.78413557e-01,   1.96243841e-01,   1.85346509e-01,
          1.74534538e-01,   1.10469783e-01,   2.77339119e-01,
          1.93726721e-01,   9.28052360e-02,   1.35546623e-01,
          8.06856206e-02,   1.73756664e-01,   1.74811916e-01,
         -2.45261219e-01,   1.44743212e-01,   8.48887861e-02,
          1.67420882e-01,   1.28507248e-01,   1.42221264e-01,
          1.64433111e-01,   1.45262190e-01,   9.64065135e-02,
          1.84662598e-01,   1.70881867e-01,   2.70076145e-01,
          2.00020692e-01,   1.35462661e-01,   7.49650690e-02,
          2.10442796e-01,   1.76540224e-01,   1.45776714e-01,
          1.32033908e-01,   1.29391333e-01,   2.03744764e-01,
          2.02709309e-01,   1.63005534e-01,   1.53951272e-01,
          1.47884523e-01,   1.43334297e-01,   1.32127911e-01,
          1.90553602e-01,   7.60396405e-02,   1.41374926e-01,
          1.46652757e-01,   6.25769759e-02,   1.11554653e-01,
          1.38978188e-01,   2.08468557e-01,   1.95857664e-01,
          3.41906667e-01],
       [ -1.24415506e-01,   7.88381848e-02,   9.59820654e-02,
         -6.47066619e-02,  -1.01309508e-01,  -1.54947622e-02,
         -3.20029953e-02,   1.69901211e-01,   2.57899757e+00,
          4.84398793e-02,   5.74955292e-02,  -5.00894843e-02,
          2.05068812e-02,  -2.94268781e-01,   6.89185773e-02,
         -7.75893890e-02,   6.77200090e-02,   3.54229131e-02,
          1.28311059e-01,  -1.48625337e-02,  -7.79081633e-02,
          2.79160583e-02,  -1.05455646e-01,  -1.22844404e-01,
         -2.66874837e-02,  -1.11688319e-02,  -8.63108422e-02,
          2.10213733e-02,  -4.50986400e-02,  -1.41887684e-01,
         -1.72067915e-01,   3.43419058e-02,  -2.28037596e-01,
         -1.53238735e-01,  -6.16762222e-03,   1.21847779e-02,
         -1.25746346e-01,  -6.70251218e-02,  -9.54515131e-02,
         -1.03890086e-01,  -3.76154687e-02,  -3.13793337e-02,
         -2.24736891e-01,   1.32873045e-02,   7.58851300e-02,
          1.53418326e-01,  -9.55278595e-02,  -1.10796919e-01,
         -1.39262071e-01,   6.37712061e-02,   8.17704900e-02,
         -8.32796996e-02,   3.32670841e-02,   1.43772150e-01,
          4.40702778e-02,  -1.42351304e-01,   3.94585556e-03,
          4.98683334e-02,  -3.32972988e-02,  -3.99405357e-02,
         -5.70731520e-02,   1.78216867e-01,   1.16000743e-02,
         -2.62800887e+00,   6.80171770e-02,  -1.62860461e-01,
         -8.91848206e-02,  -1.12173648e-01,  -6.17965555e-02,
         -1.30637580e-01,   1.25923121e-02,  -6.34358954e-03,
         -3.11845617e-02,   8.03095415e-02,   4.32014952e-02,
          2.07221682e-01,  -2.67201448e-02,  -7.02224548e-02,
          2.89105452e-02,  -6.08882890e-02,  -1.31265886e-02,
         -2.89206080e-01,  -3.78408617e-02,   2.68514314e-01,
         -1.92401797e-02,  -4.72954507e-02,  -6.16532860e-02,
         -3.37987768e-02,   2.21696865e-02,  -7.76919999e-02,
         -8.27984229e-02,  -1.15033526e-01,  -2.16205248e-02,
         -1.18555082e-01,  -2.10637647e-01,  -1.29627470e-03,
         -1.33383953e-01,   1.96258574e-02,   9.28401519e-02,
         -1.26834440e+00],
       [ -2.93236044e-01,  -6.45503362e-02,  -2.59276278e-01,
         -1.33015366e-01,  -3.19966306e-01,  -2.26651349e-01,
         -6.84294781e-02,  -2.37994208e-01,  -3.30345845e+00,
         -3.48785812e-01,  -2.24805546e-02,  -1.75047319e-01,
         -2.24077012e-01,  -3.10182944e-01,  -1.94925692e-01,
         -2.02417467e-01,  -1.27054327e-01,  -7.80427201e-02,
         -2.70071252e-01,  -1.10926269e-01,  -2.00436711e-01,
         -7.02881057e-02,  -2.21262889e-01,  -4.21011479e-01,
         -1.65153435e-01,  -2.11575217e-01,  -2.43675964e-01,
         -3.10868357e-01,  -1.79465860e-01,  -3.32601454e-01,
         -2.20478990e-01,  -1.47804847e-01,  -3.36158697e-01,
         -3.70272858e-01,  -2.53587779e-01,  -2.07451749e-01,
         -1.17889259e-01,  -2.08221576e-01,  -3.28281483e-01,
         -2.76834837e-01,  -3.17175673e-01,  -2.81271048e-01,
         -3.39338023e-01,  -9.09926650e-02,  -7.69604567e-02,
         -7.93037974e-02,  -3.82002194e-01,  -3.46988417e-01,
         -3.59657282e-01,  -1.81257067e-01,  -2.26535382e-01,
         -1.67545707e-01,  -1.51770254e-01,  -7.72762804e-02,
         -8.14267450e-02,  -3.41258455e-01,   1.03549463e-01,
         -8.76444344e-02,  -2.63834457e-01,  -2.99643196e-01,
         -2.84845389e-01,  -8.59040684e-02,  -1.48944476e-01,
         -1.60726075e+00,  -1.54646288e-01,  -3.78998922e-01,
         -1.07747536e-01,  -1.67216108e-01,  -1.80422989e-01,
         -1.69917394e-01,  -2.15059774e-01,  -2.86599575e-01,
         -6.56834926e-02,  -1.18822653e-01,   1.40151067e-02,
         -8.57205115e-02,  -2.55674879e-01,  -2.59235699e-01,
         -3.97459916e-02,  -1.16342366e-01,  -2.77886993e-01,
         -4.21241487e-01,  -3.22930638e-01,  -2.17674385e-02,
         -1.34856934e-01,  -2.11744948e-01,  -1.50894817e-01,
         -1.83601380e-01,  -3.11861821e-01,  -2.93005745e-01,
         -1.55876767e-01,  -3.82841461e-01,  -1.79845127e-01,
         -2.67723109e-01,  -4.45567624e-01,  -2.85437407e-01,
         -2.50301507e-01,  -1.67202618e-01,  -1.23511333e-01,
         -9.06011312e-01],
       [ -8.90062870e-02,   1.75336158e-03,   1.76603338e-01,
         -1.27839156e-01,   8.65959837e-02,   1.37984437e-02,
         -9.98663734e-02,   9.39561882e-02,  -2.06976855e+00,
          1.88161909e-01,  -5.41688037e-02,   3.03874147e-02,
          5.91489414e-02,  -8.32032127e-02,  -7.17339930e-03,
         -4.87797262e-02,  -1.51253956e-02,   3.27578727e-03,
          1.72759606e-01,  -8.70187045e-02,  -6.63482056e-02,
         -2.31156998e-03,  -1.21640625e-01,  -1.81369743e-01,
         -6.21031042e-02,  -1.44082545e-02,  -6.13757191e-02,
         -1.55295896e-02,  -6.22212338e-02,   7.27866056e-02,
         -8.39050045e-02,   7.62773836e-03,  -1.68367018e-01,
         -2.84509116e-04,   6.78196117e-02,   3.70369633e-02,
         -1.61270469e-01,  -9.40519496e-02,   3.51702992e-02,
          3.00586350e-02,  -2.71167461e-02,   4.50339162e-03,
          4.37135009e-02,  -7.62563194e-02,  -5.33297435e-02,
          1.15623971e-01,   3.79543558e-02,   1.06724896e-01,
         -9.63418794e-02,   1.32149127e-02,   1.36689233e-01,
         -6.92669747e-02,   1.89926698e-02,   5.15779557e-02,
         -5.06296486e-02,   4.13060288e-02,   5.60677547e-02,
          1.22163974e-02,   1.39454723e-02,  -1.02648545e-02,
          9.45593910e-02,   8.10805028e-02,   2.05175154e-02,
          2.33060498e+00,   6.47610616e-02,   1.14136389e-01,
         -1.16946845e-01,  -9.30928596e-02,  -9.21860840e-03,
          3.56993066e-03,   5.36830061e-04,   6.32410791e-02,
         -5.24202219e-03,   7.67755602e-02,  -1.68624767e-02,
          1.04973767e-01,  -5.76924757e-02,   6.06401958e-03,
         -3.44674537e-02,  -2.96917197e-02,  -2.82565231e-02,
          2.04125313e-01,   1.08603216e-01,   8.17901752e-02,
         -1.90812929e-02,  -6.45319486e-03,  -7.68143193e-02,
         -6.52695126e-02,   9.53857411e-02,   9.86526683e-04,
         -9.46114374e-02,   6.65564883e-02,  -4.26480663e-02,
          7.30588897e-02,   2.73218461e-01,   3.11945944e-02,
         -1.53394640e-01,  -3.16936588e-02,   2.12077449e-02,
          7.43011989e-01],
       [  1.63568150e-01,   9.42011262e-02,  -1.15982097e-01,
          3.51036497e-02,   2.25097462e-02,  -4.71655926e-02,
          2.59020389e-02,  -3.79157398e-02,  -1.05470876e+00,
         -1.82112459e-01,   8.81446069e-03,  -2.80785293e-02,
          1.28622727e-01,   1.85012271e-01,  -7.96031450e-02,
         -6.30863803e-02,  -5.20595631e-02,   5.87476954e-02,
         -1.30103397e-01,   1.50397592e-02,  -1.03177507e-01,
         -9.62715443e-03,  -1.01400322e-02,  -1.49329235e-01,
          1.48417132e-02,   6.97456883e-03,  -2.52655495e-02,
         -1.49208020e-01,   1.21174538e-01,  -1.17265725e-01,
          2.22166625e-02,  -6.07602785e-02,   4.73900579e-02,
          2.11686048e-02,  -4.88338838e-02,  -1.85712186e-03,
          3.55198862e-02,   3.41157450e-02,  -9.82590311e-02,
         -1.46453246e-01,   1.26008440e-01,   5.86805149e-02,
          5.15737489e-02,   7.72796214e-02,  -2.28472811e-02,
         -2.58953181e-02,  -2.68396188e-01,   8.91159804e-02,
         -2.45508787e-02,  -1.75679407e-01,   4.14001901e-02,
          1.85076641e-01,   3.92868074e-03,  -2.06279472e-02,
         -4.27898042e-02,   6.14399534e-02,  -1.03504469e-01,
         -6.73226478e-02,  -1.76468495e-01,  -5.38752297e-02,
         -9.21504502e-02,  -7.46397088e-02,  -1.11724734e-01,
          3.12695641e+00,   6.47462062e-02,   1.93745076e-02,
          1.46718246e-01,  -7.82610916e-02,  -6.71039674e-02,
         -3.78352677e-02,   4.28996762e-02,  -7.28159465e-02,
         -1.55095919e-01,  -3.77889233e-02,   3.55225407e-03,
         -4.04055440e-02,  -4.88099417e-02,  -1.66057455e-01,
          3.69384902e-02,  -7.72619914e-02,  -4.67701070e-02,
          9.03882956e-02,   9.13053918e-02,  -2.10120352e-01,
          1.76568434e-02,  -6.40995227e-02,  -9.79185689e-02,
         -1.26027041e-01,  -1.58963513e-01,   2.16719098e-02,
          1.03996167e-01,  -1.34996774e-01,  -3.70168180e-02,
          4.32212399e-02,  -3.50024623e-01,   5.27504189e-02,
         -1.42406657e-01,   1.45288373e-01,  -2.76059220e-02,
         -9.20411867e-02],
       [  8.32105596e-02,   6.39052933e-02,   9.04659297e-02,
          7.12468126e-02,   8.75911529e-02,   4.82211914e-02,
          4.89691854e-02,   5.79049318e-02,  -1.25612872e-01,
          8.81897512e-02,   2.57257289e-02,   5.71720105e-02,
          5.88152425e-02,   5.75898871e-02,   4.51819147e-02,
          4.05553523e-02,   5.64993531e-02,   3.34012295e-02,
          7.88726179e-02,   2.70018631e-02,   7.50218492e-02,
          2.27434473e-02,   5.95176833e-02,   9.38230462e-02,
          2.90095121e-02,   6.01671370e-02,   5.22493808e-02,
          7.66379022e-02,   9.00438771e-02,   6.41998762e-02,
          6.52974347e-02,   2.84655475e-02,   8.81309546e-02,
          8.07298367e-02,   7.34140276e-02,   7.86810066e-02,
          5.38168842e-02,   5.20753765e-02,   1.17492836e-01,
          5.92856118e-02,   8.21159616e-02,   4.24635885e-02,
          9.50990324e-02,   4.55900247e-02,   2.20733221e-02,
          6.94414782e-02,   7.61111219e-02,   3.38143774e-02,
          5.35627948e-02,   1.00712804e-01,   7.27232885e-02,
          3.96112422e-02,   9.99931584e-02,   3.45896491e-02,
          5.19179638e-02,   6.31671226e-02,   8.20190814e-02,
          5.74202654e-02,   8.08119225e-02,   1.16534278e-01,
          3.73447346e-02,   6.19567253e-02,   7.45664892e-02,
         -4.54809694e-01,   3.16865912e-02,   8.62229774e-02,
          5.56620236e-02,   1.01918399e-02,   7.00413273e-02,
          5.34018533e-02,   4.12112871e-02,   1.08334384e-01,
          5.84224131e-02,   9.81019222e-02,   5.95226098e-02,
          9.55352672e-02,   5.59837254e-02,   3.77972470e-02,
          1.87765613e-02,   7.81056541e-02,   7.40425516e-02,
          1.07035785e-01,   9.36148318e-02,   7.64122426e-02,
          8.91561786e-02,   6.76455340e-02,   5.92212776e-02,
          8.68928959e-02,   9.66707815e-02,   5.97806168e-02,
          2.75919245e-02,   1.05466542e-01,   5.19443735e-02,
          5.74347010e-02,   5.60383606e-02,   7.34836709e-02,
          6.72543011e-02,   7.02999059e-02,   6.85855621e-02,
          1.25575792e-01],
       [  5.03645447e-02,   5.20784042e-02,   7.22573074e-02,
          1.88056258e-02,   4.32765144e-02,   8.56571849e-02,
          3.39067586e-02,   1.01041473e-01,  -2.71162420e-01,
          7.97338217e-02,   6.47612504e-02,   5.39411476e-02,
          5.48866560e-02,   3.20794192e-02,   9.36819242e-02,
          7.66678932e-02,   5.26381862e-02,   5.72006711e-02,
          1.01812935e-01,   5.69037872e-02,   3.65587381e-02,
          5.78737268e-02,   5.50749140e-02,   4.04420599e-02,
          7.85656775e-02,   5.99084649e-02,   6.47047106e-02,
          8.07559715e-02,   1.25172207e-02,   6.43067116e-02,
          3.26897723e-02,   9.33862630e-02,   2.39272438e-02,
          5.70405902e-02,   7.05149637e-02,   5.18316006e-02,
          6.46735272e-02,   7.25774898e-02,   3.20150290e-02,
          5.81276141e-02,   5.32805440e-02,   8.87614907e-02,
          3.96904873e-02,   3.65417648e-02,   8.63186981e-02,
          7.54557315e-02,   7.57581555e-02,   9.16927604e-02,
          8.68985248e-02,   3.71738061e-02,   8.98629898e-02,
          5.86440732e-02,   3.34694160e-02,   8.48422755e-02,
          4.92560552e-02,   6.56156874e-02,   2.32111323e-02,
          6.86541677e-02,   5.50802545e-02,   3.02896768e-02,
          8.86806558e-02,   5.78753605e-02,   5.70825321e-02,
         -8.15172255e-03,   8.27866793e-02,   5.20901046e-02,
          1.15567880e-02,   8.92108114e-02,   4.88637850e-02,
          5.64612472e-02,   7.80832880e-02,   2.73825023e-02,
          6.10673362e-02,   2.92577725e-02,   5.78501389e-02,
          4.24870360e-02,   6.94648360e-02,   7.74546102e-02,
          7.74463231e-02,   3.87253139e-02,   7.54836066e-02,
          3.48783690e-02,   5.55377354e-02,   5.25401515e-02,
          3.70690248e-02,   7.26798409e-02,   5.58468469e-02,
          3.76755643e-02,   8.60676899e-02,   7.18896373e-02,
          7.32215382e-02,   4.37487637e-02,   5.60290245e-02,
          7.51547667e-02,   8.99022694e-02,   5.25586706e-02,
          6.39569503e-02,   5.75736399e-02,   6.95602728e-02,
          7.34675501e-02]])]Hidden bias: [array([-0.10392981, -0.08725873, -0.11456582, -0.07370513, -0.09913851,
       -0.10246787, -0.06694401, -0.10387415, -0.00443212, -0.11455786,
       -0.06935868, -0.08699414, -0.08180801, -0.07767468, -0.10023964,
       -0.0951767 , -0.08081064, -0.07029199, -0.12229237, -0.06223759,
       -0.0907095 , -0.06262961, -0.09027024, -0.10429297, -0.08216413,
       -0.09275368, -0.08901034, -0.11475794, -0.08229523, -0.09752137,
       -0.08525928, -0.09282936, -0.0948579 , -0.10747546, -0.11135446,
       -0.10019103, -0.10189145, -0.10166486, -0.11578682, -0.08804026,
       -0.0987412 , -0.09643317, -0.11132192, -0.06525012, -0.07997976,
       -0.10476079, -0.11145977, -0.08994062, -0.11253429, -0.09598944,
       -0.11952225, -0.07772635, -0.10056436, -0.08332246, -0.07758366,
       -0.09863642, -0.07957055, -0.09627067, -0.1052672 , -0.11177469,
       -0.09188027, -0.07895015, -0.09998311,  0.00057646, -0.0832074 ,
       -0.10682742, -0.05868354, -0.08088263, -0.09841753, -0.08926562,
       -0.08811883, -0.09963145, -0.09841586, -0.09439894, -0.09640185,
       -0.09566185, -0.08865604, -0.08212476, -0.07271784, -0.09534358,
       -0.11403196, -0.10673852, -0.11002585, -0.08169625, -0.10091989,
       -0.10877953, -0.0932613 , -0.0963848 , -0.13490454, -0.09978949,
       -0.07936692, -0.10874078, -0.07810424, -0.10368984, -0.08225859,
       -0.08875999, -0.10620952, -0.09655374, -0.10073095,  0.11095658])]Output weights: [[ -1.12429702e-02  -3.46073446e-02]
 [ -1.82925667e-02  -1.25702869e-02]
 [ -2.11567034e-03   3.49627063e-03]
 [ -1.66064295e-03  -2.12438735e-02]
 [  6.40881380e-04  -1.81533405e-02]
 [ -3.79007558e-03  -1.12839786e-02]
 [ -8.73852451e-03  -1.73055213e-02]
 [ -1.98834749e-02   2.16388157e-03]
 [  7.69327577e-01  -2.20144731e-01]
 [  5.58437554e-03   2.85091336e-03]
 [ -1.76394651e-02  -1.00354737e-02]
 [ -4.43128235e-03  -1.30816186e-02]
 [ -1.63635667e-02  -1.55934866e-02]
 [ -8.66403523e-03  -4.40746256e-02]
 [ -8.84817617e-03  -4.91936965e-03]
 [  1.26613304e-03  -1.57934640e-02]
 [ -4.87080417e-03  -4.29174874e-03]
 [ -1.62526241e-02  -1.21242809e-02]
 [ -8.92333464e-03   5.54580712e-03]
 [ -1.16932567e-02  -1.41790568e-02]
 [  1.04998348e-02  -1.41523554e-02]
 [ -1.18671136e-02  -7.69819867e-03]
 [ -2.92746774e-03  -2.33417536e-02]
 [  2.39759997e-02  -2.31655024e-02]
 [ -1.36033925e-02  -1.71736718e-02]
 [ -5.53324241e-03  -1.47372033e-02]
 [ -2.13415160e-03  -1.82685540e-02]
 [  6.66945046e-03  -7.13883011e-03]
 [ -7.87632399e-03  -2.47793216e-02]
 [  9.71816819e-03  -1.44016947e-02]
 [  2.32875183e-03  -2.78647089e-02]
 [ -7.65036101e-03  -6.16079212e-03]
 [  5.40402047e-03  -3.75917930e-02]
 [  3.31522215e-03  -2.51936500e-02]
 [  1.81643961e-03  -9.45079870e-03]
 [ -2.02257897e-03  -1.08381410e-02]
 [ -6.32155658e-03  -2.93746917e-02]
 [ -5.83315750e-03  -2.35709860e-02]
 [  1.35255908e-02  -1.56316135e-02]
 [  8.70541185e-03  -1.13817133e-02]
 [ -1.13964916e-02  -2.43492020e-02]
 [ -1.40659173e-02  -1.90225693e-02]
 [  3.44337378e-03  -3.15469825e-02]
 [ -1.31151749e-02  -1.72263639e-02]
 [ -1.36249733e-02  -6.37433821e-03]
 [ -1.56300659e-02   1.47725825e-03]
 [  2.30808473e-02  -1.18738476e-02]
 [ -1.38316489e-02  -2.04686542e-02]
 [  3.78944283e-03  -2.60348672e-02]
 [  4.71135501e-03   1.92521303e-04]
 [ -1.42840057e-02  -7.97042696e-03]
 [ -2.00942197e-02  -2.91893878e-02]
 [ -5.88311369e-03  -1.11613019e-02]
 [ -1.84325642e-02   6.19244870e-04]
 [ -6.48648178e-03  -7.53126191e-03]
 [ -5.89400379e-03  -2.51372953e-02]
 [ -8.25335599e-03  -1.69953531e-03]
 [ -5.89736040e-03  -4.60993240e-03]
 [  1.58376948e-02  -7.50129349e-03]
 [  6.95221321e-03  -1.51404423e-02]
 [ -1.88988055e-03  -8.33742055e-03]
 [ -1.46206951e-02   6.98229960e-03]
 [ -7.60134976e-04  -6.01064074e-03]
 [  2.61747028e-01   4.48408945e-01]
 [ -1.77382305e-02  -8.63623396e-03]
 [  5.31220143e-03  -2.11704480e-02]
 [ -1.21262242e-02  -2.85382086e-02]
 [ -1.51106621e-03  -1.70311336e-02]
 [  5.18332123e-03  -1.37373499e-02]
 [ -4.07830099e-03  -1.93121973e-02]
 [ -1.47177704e-02  -1.49319445e-02]
 [  7.31243824e-03  -7.46000147e-03]
 [  6.39632076e-03  -6.08014522e-03]
 [ -2.46758579e-03  -2.00543701e-03]
 [ -1.31063683e-02  -1.18596484e-02]
 [ -1.15711385e-02   6.28476557e-03]
 [ -7.00455466e-03  -1.38233896e-02]
 [  5.34176212e-03  -8.08706815e-03]
 [ -2.10362432e-02  -1.27598779e-02]
 [  4.57653285e-03  -1.25142102e-02]
 [ -2.92688968e-04  -1.42493919e-02]
 [  4.97576743e-03  -2.98953576e-02]
 [ -7.93710452e-03  -1.85703814e-02]
 [ -8.39699896e-03   1.80618456e-02]
 [ -4.07265947e-03  -1.65336089e-02]
 [ -1.68884894e-04  -1.35575258e-02]
 [  5.49590275e-03  -1.32048550e-02]
 [  9.25085709e-03  -1.04472069e-02]
 [  6.40681611e-03  -4.97516713e-03]
 [ -7.33288582e-03  -2.05727968e-02]
 [ -1.91656150e-02  -2.72247559e-02]
 [  1.53990903e-02  -1.31250137e-02]
 [ -7.06581455e-03  -1.19558679e-02]
 [ -8.35137003e-03  -2.21722593e-02]
 [  2.34032718e-02  -5.80917056e-03]
 [ -9.31745696e-03  -1.46481157e-02]
 [  1.46043863e-02  -2.11423389e-02]
 [ -1.84358872e-02  -2.14521558e-02]
 [ -9.52478336e-03  -4.29069925e-03]
 [  3.77055841e-01   4.07516900e-02]]Output bias: [-0.40481232 -0.08291537]
Value MLP:Hidden weights: [array([[ -4.60878510e+00,  -2.80770233e+00,   7.27888385e+00,
         -7.68705999e+00,  -9.22406215e+00,   4.46624340e+00,
          2.22813684e+00,   1.49011993e+00,  -2.37887743e+01,
         -8.79124876e+00,   7.03077645e+00,   3.37328897e+00,
          8.13111359e+00,   4.78738409e-01,   1.45239360e+01,
          1.30381570e+00,   3.19727137e+00,  -6.47269819e+00,
          4.19185670e+00,  -5.36862611e+00,   8.42376140e-01,
         -2.02091043e+00,  -2.63475846e+00,   1.57002090e+00,
          1.23913077e+00,  -2.46654395e+00,  -2.55878203e+00,
          4.84307392e+00,   3.32188513e+00,  -1.56980042e-01,
         -2.05750020e-01,  -6.48188608e+00,   4.19248482e-01,
         -2.30984526e+00,   7.24137141e+00,   1.85573383e+01,
         -1.68349951e-01,  -3.08533098e+00,   6.92958987e-01,
         -4.24601278e+00,  -1.49848581e+00,   4.84737617e+00,
         -2.85445637e+00,  -2.90090734e+00,   3.91192089e+00,
          1.13051102e+00,   5.64533429e+00,   7.31338576e+00,
         -1.13292745e+01,  -7.97881113e+00],
       [  1.00329407e+01,  -2.03278744e+00,   2.75520517e+00,
          2.72380890e+00,   9.61246513e+00,   2.99825802e+00,
         -2.50303430e+00,   9.75551639e-01,   9.19413555e+00,
          5.86336386e-01,   9.73608750e+00,   7.06417873e+00,
          6.93036110e+00,   8.49180570e+00,  -2.60147853e+00,
          5.77304446e+00,   2.01261811e+00,  -3.54023888e+00,
         -3.43303420e+00,   1.04989632e+01,  -8.89632574e+00,
          7.58965106e+00,   6.76282687e+00,   4.82970496e+00,
          5.46814199e+00,   7.59260354e+00,  -1.12476920e+00,
         -7.88330953e-01,   1.06998289e+01,  -4.53855541e+00,
          4.93070244e+00,  -1.09334010e+01,   1.27005734e+01,
          7.74450841e+00,   5.90033848e+00,  -1.17789534e-01,
          4.60406130e+00,  -4.80647512e+00,   5.94526293e+00,
         -4.82754189e+00,  -1.95983552e+00,  -1.97619900e+00,
         -4.31697323e+00,   6.80664622e-01,   2.34495235e-01,
         -9.75423416e-01,  -7.13106090e-01,   1.94306622e+00,
          4.76279403e+00,  -5.93364222e+00],
       [  1.96259024e+01,  -4.92876647e+00,  -1.33821040e+01,
         -1.86818160e+01,  -4.04986678e+00,   3.11466006e+00,
         -7.46380525e+00,  -2.68422270e+00,  -5.43080255e+01,
         -2.51391658e+01,  -5.60828909e+00,  -8.43733320e+00,
          1.24621315e+01,   4.86834079e+00,   1.14390622e+01,
         -6.66589683e+00,   3.76050016e+01,  -7.99946172e+00,
         -9.12101067e+00,  -7.70977646e+00,  -2.08955558e+00,
         -1.57971839e+01,   1.63283776e+00,   2.02174815e+01,
         -1.06475424e+01,   4.53935108e-01,  -8.68725067e-01,
          5.89626486e+00,   1.23002752e+01,  -8.91787645e+00,
         -6.95272906e+00,  -7.70280883e+00,   2.12532436e+00,
          1.83629345e+00,   9.62675999e+00,   4.96199136e+00,
         -2.49050009e+01,   2.66008599e+01,   3.88664283e+00,
         -3.05415887e+01,  -2.03524505e+01,   1.95817636e+00,
         -1.76309161e+01,  -6.41202500e-01,  -1.47178562e+01,
          3.86632041e+00,   7.38023980e-01,   1.24643071e+00,
          1.28184583e+01,  -7.78690294e+00],
       [ -8.17779067e+00,   9.44026373e+00,   1.01899459e+01,
         -6.30514201e+00,  -2.21229683e+00,  -2.61196757e+01,
          2.36486043e+01,  -5.74613075e-02,  -2.61041325e+01,
         -1.09504555e+01,   7.06467933e+00,   7.47808520e+00,
          3.36847169e-01,   1.14314454e+01,   3.47597465e+00,
          9.45481938e-01,  -9.48752595e+00,  -7.18599736e+00,
          6.01283638e+00,   1.55973898e+01,   1.90722692e+01,
          1.11562029e+01,   3.83420354e-01,   6.38142783e+00,
         -3.86808259e+00,   2.89718789e+00,   6.16908547e+00,
          1.11255105e+01,   4.71762710e+00,  -1.29333276e+01,
          7.92780581e+00,   1.91982087e+01,  -4.28126073e-01,
          3.17295926e+00,   1.30564250e+01,   4.41576085e+00,
         -7.82898442e+00,  -4.80591763e+00,  -2.33761002e+00,
         -3.26796191e+00,  -1.70727592e+00,  -4.94659728e+00,
          1.97502188e+01,  -1.23857028e+01,   1.52957786e+00,
          9.03026373e+00,   1.08221711e+01,  -3.80670461e+00,
          1.43537979e+01,  -1.95517764e+01],
       [ -3.85297875e+01,  -9.54412454e-03,   9.93552757e+00,
         -1.68857752e+01,   1.29885865e+01,  -1.15232219e+01,
          1.43625081e+01,  -6.53314975e+00,   4.43266131e+01,
          9.77967035e+00,  -4.66699373e+00,   2.54629326e+01,
          4.31289461e+01,   4.39966854e+00,  -3.04932185e+01,
         -6.03101005e+00,  -2.19196764e+01,   1.75884598e+01,
         -1.25985338e+01,  -1.39484673e+01,  -7.21931937e+00,
         -1.41030651e+01,   6.20145132e+00,   2.54319660e+01,
          7.51179687e+00,  -5.79708333e+00,  -1.21888727e+00,
         -7.55578630e+00,   7.85418712e+00,   6.11336274e+00,
          1.93143631e+01,   8.95764096e+00,  -1.27361605e+01,
          2.03063907e+01,   1.71612858e+01,   2.39250530e+01,
          2.44860998e+01,  -8.27370586e+00,   2.96320620e+01,
          3.95809788e+01,   1.02498224e+01,  -7.35516986e+00,
          3.35012673e+01,   1.95140146e+00,   3.01399877e+01,
          2.72994387e+01,  -7.21845387e+00,   9.07384765e+00,
          1.51059383e+01,  -5.67048515e-01],
       [  1.17452794e+01,  -1.88969643e+01,  -1.96709155e+01,
         -2.16483696e+01,   3.30981602e+01,  -3.48045715e+01,
          4.06201721e+01,  -2.77759381e+01,   1.11679036e+02,
         -2.10703710e+01,  -1.95284905e+01,   2.76005122e+00,
          1.45924571e+01,   3.74277599e+00,  -1.24233833e+01,
         -2.92478035e+01,   2.88204938e+00,   3.08310902e+01,
         -2.27305553e+01,  -3.66997110e+01,  -2.80707970e+01,
         -1.63652450e+01,   2.35069101e+01,   2.63368947e+01,
         -1.68362466e+01,  -1.08739105e+01,  -2.67667516e-01,
          3.87849495e+00,   2.50445835e+01,  -1.72057782e+01,
          7.97557484e+00,   1.44251677e+01,  -2.20802518e+01,
          4.19920411e+01,   1.49139433e+01,   2.10896236e+00,
         -4.29708538e+00,   2.51085395e+01,   1.46671018e+01,
         -1.53152365e+00,  -3.32632499e+01,  -2.04324603e+01,
          3.00297915e+00,  -1.81590462e-01,   1.38913145e+01,
          4.20945820e+00,  -2.29479893e+01,  -2.18746072e+01,
          2.93985016e+01,   2.33368303e+01],
       [  2.34268121e+00,  -1.13174555e+01,  -1.19106408e+01,
         -2.68103869e+00,  -4.92091794e-01,   8.07248265e+00,
         -2.11609813e+01,  -3.81093882e+00,  -1.60219917e+01,
          1.68649200e+00,  -7.89389233e+00,  -1.07526929e+01,
         -1.68871595e+01,  -1.39266875e+01,  -7.36826754e+00,
         -7.59508279e+00,   2.24134682e+00,   8.57419688e+00,
         -5.28385082e+00,  -1.22408294e+01,  -5.46505340e-01,
         -4.22240226e+00,  -4.80883839e-01,  -3.48958289e+00,
         -1.41629759e+01,  -1.21997284e+01,  -4.77980985e+00,
         -1.21832955e+01,  -7.92140078e-01,  -1.84290868e+01,
         -1.53595388e+01,  -5.69666973e+00,  -4.91723609e+00,
          2.43388292e+00,  -1.15069353e+01,   7.41708740e-01,
         -4.88890259e+00,  -5.89972482e+00,  -4.01829063e+00,
         -1.65673704e+01,  -2.94437589e+00,  -9.51377069e+00,
         -1.10811072e+01,   5.81540198e+00,   2.34352158e-01,
         -5.63990279e+00,  -4.16651601e+00,  -7.14663939e+00,
         -8.71029492e+00,   7.61977017e+00],
       [ -1.69607104e+01,   1.78490033e+01,   4.49464307e+00,
         -4.23702062e-01,  -1.02014741e+01,   2.18983224e+00,
         -8.75446405e+00,   1.72902059e+00,  -1.32930979e+01,
          4.94859819e+00,  -6.03786709e+00,  -7.58948330e+00,
         -1.14766532e+01,  -1.54888800e+01,  -2.24523562e+00,
         -3.73489433e+00,   1.25838345e+01,  -2.50232801e+00,
          1.83198099e+01,  -8.05508153e+00,  -6.42537043e+00,
         -4.66917941e+00,  -6.59841712e+00,  -8.00852515e+00,
          7.40309770e+00,  -2.06003704e+01,  -4.34065970e+00,
         -1.22907458e+01,  -9.21346021e+00,  -9.95285126e-01,
         -1.11588532e+01,  -1.90792781e+01,  -1.50422350e+01,
         -4.89767743e+00,  -1.30008139e+01,   1.44723374e+01,
         -5.86512762e+00,  -9.45062183e+00,   2.11539018e+00,
          7.73237176e+00,  -1.54308043e-01,   1.09085197e+01,
         -5.15505618e+00,   1.34260211e+01,  -4.25984556e+00,
         -2.88554435e+00,  -7.85448032e+00,   2.10004027e+01,
         -1.70728004e-01,   2.29403879e+00]])]Hidden bias: [array([ 10.87749274, -13.83186564,  -6.8655894 ,  15.91909901,
       -31.74495299,  16.00944331, -30.47926911, -13.53509916,
        11.29196048,  12.76202137, -19.06986036, -16.82194306,
        -2.05234973, -22.33254007, -15.34052359, -18.4874575 ,
        12.9656153 , -19.91845959,  -6.82627783, -15.38505767,
       -19.3126796 , -12.54702044,  -9.04312372,  -3.33988685,
        -5.20166524, -17.6325141 , -10.57751723, -26.35884839,
       -18.78878031,  10.67572472, -15.18436333, -24.03100825,
         1.64103339, -22.96620814, -19.22368394,   3.27205324,
         9.40924636,  -2.44280379, -10.39747386,  -3.66146417,
         8.35564337,  15.04251151, -15.74929053,  22.15955447,
        -2.34914435, -13.95496617, -20.74515883,   2.70946928,
       -15.73547401,  17.95207121])]Output weights: [[-0.79559223]
 [-1.29587531]
 [ 0.40909234]
 [ 1.90112276]
 [-7.87508772]
 [-6.58722591]
 [ 4.35318603]
 [-3.25492446]
 [-0.05633148]
 [ 3.62801741]
 [-3.57040568]
 [-0.94534805]
 [-0.64687114]
 [-5.53715856]
 [-2.75443546]
 [-5.038605  ]
 [ 1.44988026]
 [ 0.33875026]
 [-2.05017733]
 [-3.56986321]
 [ 0.25570179]
 [-5.02476974]
 [-2.68465908]
 [-1.1150009 ]
 [-1.26046092]
 [-3.51511627]
 [-1.8156688 ]
 [ 5.28067166]
 [-2.4924274 ]
 [ 3.15799899]
 [-4.76253757]
 [ 5.91956944]
 [ 1.62865125]
 [-2.06760036]
 [-4.17771036]
 [ 0.26228224]
 [ 0.02057084]
 [-0.47329801]
 [-0.58284037]
 [ 2.61203947]
 [ 0.91667316]
 [ 1.91177093]
 [ 1.76000262]
 [-2.27423475]
 [ 1.19826043]
 [-2.33498717]
 [ 4.60388825]
 [-1.86703587]
 [-5.01106903]
 [-2.94512991]]Output bias: [-59.11785962]