Action MLP:Hidden weights: [array([[ -3.49141744e-03,  -8.53470261e-03,  -1.13351891e-02,
          7.34562461e-04,   6.28661598e-03,  -1.12464622e-02,
         -4.86168233e-03,  -4.53735502e-04,  -2.59000746e-03,
         -2.65001246e-03,   4.56515659e-03,  -6.01595734e-03,
         -3.29353201e-03,   8.09117170e-03,   1.71686058e-04,
          2.40267915e-03,   2.91918662e-03,   9.13989879e-04,
         -1.09719624e-02,  -7.07359954e-03,   7.50309794e-04,
         -1.10449172e-02,  -8.51166985e-03,  -5.79238866e-03,
          4.61694469e-03,   2.44198759e-03,  -6.05104512e-03,
          2.71989519e-03,   2.44831824e-03,  -8.40655820e-03,
         -2.15733606e-03,  -2.66048166e-03,  -7.08066310e-03,
         -9.37328440e-03,  -4.30264023e-03,   8.10026450e-03,
         -1.14530961e-02,  -7.06668333e-03,  -1.77797750e-03,
         -8.38032639e-03,   7.01850025e-03,  -8.46933469e-03,
         -4.05806154e-03,  -6.93693427e-04,  -3.81802650e-03,
          1.74792695e-03,  -5.35382612e-03,   7.47876217e-03,
         -1.01425171e-02,  -4.19017755e-03],
       [  7.17044077e-03,  -5.97013226e-03,  -2.07622714e-03,
          2.23604296e-03,   1.29901849e-03,  -6.61952331e-03,
         -2.87244306e-03,  -2.60813114e-03,  -8.87440818e-03,
         -8.11690183e-03,   4.49584232e-04,  -4.26034029e-03,
          6.75143803e-03,   2.63117267e-03,  -9.43606909e-03,
          2.62765392e-03,  -4.31092772e-03,  -1.10501712e-02,
         -4.43780562e-04,  -5.71325631e-03,   1.39888375e-03,
         -3.18726865e-03,  -1.09202910e-02,   7.70809569e-03,
         -4.21444715e-03,   1.06355785e-03,  -9.09153698e-03,
         -4.64204427e-03,  -2.46291617e-03,   4.52737124e-03,
         -2.21898887e-03,   3.80564996e-03,  -7.46380024e-03,
         -6.02743750e-03,  -4.66358141e-03,  -3.92925245e-03,
          4.19483816e-03,  -2.30749388e-03,  -2.84864434e-03,
          3.52432956e-03,  -6.55819662e-03,  -7.37508147e-03,
         -2.33015514e-03,  -6.10894213e-03,  -9.70010033e-03,
          3.80595047e-03,  -5.83997197e-03,   5.87186402e-03,
          6.32708138e-03,   1.88109209e-03],
       [ -1.76933928e-02,  -1.55176653e-02,  -5.93882726e-03,
         -2.05263525e-03,  -1.77210796e-03,  -1.12120130e-02,
         -8.71429497e-03,  -1.48384321e-02,  -1.82744200e-02,
         -8.90437372e-03,  -2.99754590e-03,  -9.59862882e-03,
         -1.59976873e-02,  -7.78200846e-03,  -7.63011671e-03,
         -1.09986292e-02,  -1.63244116e-02,  -1.44812902e-04,
         -1.54030153e-02,  -6.63904769e-03,  -1.42011766e-02,
         -2.48445775e-02,  -2.04510745e-02,  -1.80080100e-02,
         -5.86942947e-03,  -2.05462229e-02,  -2.09456495e-02,
         -2.01819789e-02,  -1.05960963e-02,  -1.77763917e-02,
         -1.13860966e-02,  -1.12547899e-02,  -1.42720035e-02,
         -1.65303112e-02,  -2.12422104e-02,  -6.49835745e-03,
         -1.33004523e-02,  -2.73571243e-03,  -1.59566117e-02,
         -1.52339769e-02,  -1.72302003e-02,  -1.52889631e-02,
         -1.85588960e-02,  -5.21940321e-03,  -1.75335096e-02,
         -1.31890557e-02,  -1.51669799e-02,  -5.74623006e-03,
         -1.46985233e-02,  -1.83500725e-02],
       [ -1.52092034e-02,  -1.92888442e-02,  -1.89608420e-02,
         -1.14513823e-02,  -1.36258493e-02,  -1.90353890e-02,
          4.45243218e-03,  -9.27233789e-03,  -2.31210504e-03,
         -1.93000167e-02,  -2.12645747e-02,  -1.18668557e-02,
         -7.44616945e-03,  -9.60053251e-03,  -3.47685978e-04,
         -1.07739637e-02,  -6.87632486e-03,  -8.03989554e-05,
         -2.04285928e-02,   3.04624842e-04,  -2.10201496e-03,
         -1.74967756e-02,  -7.29542709e-03,  -1.76193046e-02,
          9.65789654e-04,  -2.84817239e-03,  -7.03396778e-04,
         -1.63584004e-02,  -1.52629463e-02,  -3.49989791e-03,
         -5.64164360e-04,  -1.31375445e-02,  -1.59507287e-02,
         -1.90641178e-03,  -1.38042019e-02,  -1.66164130e-02,
          2.53974431e-03,  -6.65013202e-03,  -1.42256580e-02,
         -2.02750875e-02,   3.19177045e-04,  -1.52348072e-02,
          1.65571538e-03,  -5.68878839e-03,  -1.12003496e-02,
         -3.87661915e-03,  -1.82644311e-02,  -1.95085241e-02,
         -7.81132691e-04,  -7.86993597e-03],
       [  1.64343070e-02,   2.92252190e-03,  -1.38077383e-03,
          1.01992748e-02,   8.99600447e-03,   8.00427822e-03,
          1.12683242e-02,   4.93067597e-03,   9.66261575e-06,
         -5.70703859e-04,   1.50172970e-02,   1.82672507e-02,
          1.51244977e-02,   9.92346410e-03,  -3.72329426e-03,
          5.79966495e-03,   4.96267392e-03,   3.62532853e-03,
          8.94982692e-03,   3.63212634e-03,  -2.61104003e-03,
          1.19369733e-02,   2.47762126e-03,   1.01198322e-02,
          5.12790322e-03,  -2.24125545e-03,   1.31853661e-03,
         -2.22165553e-03,   7.95682531e-03,   6.09782885e-03,
          7.34302698e-03,   1.82040759e-02,  -2.45136296e-03,
          5.96389998e-03,   1.40405438e-02,   1.73160883e-02,
          6.61499045e-03,   8.02727894e-03,   4.14162903e-03,
          1.40705272e-02,   9.02047092e-03,   1.06009521e-02,
         -1.57864708e-03,   1.23981675e-02,  -2.48535738e-03,
         -2.64609495e-03,  -3.95958684e-03,   2.14506324e-03,
          1.30055335e-02,   1.13915296e-02],
       [ -1.83625846e-03,   7.71089275e-03,   1.09059785e-02,
          2.06845980e-03,  -5.90039929e-04,   1.51016839e-03,
          5.48386448e-03,   2.29928037e-03,  -5.74220143e-03,
          9.30763928e-03,  -6.08081381e-03,   7.98404389e-04,
          9.35167153e-03,  -8.47734592e-04,  -1.67442438e-03,
         -6.53030688e-04,  -1.29050879e-03,  -5.93710785e-03,
          6.37874983e-03,   1.70303791e-03,  -5.27209445e-03,
          5.44075606e-04,   9.58092252e-03,   7.22871144e-04,
          1.69325336e-03,  -1.29383846e-03,   1.16516345e-02,
          9.96077642e-03,   1.13814539e-02,  -6.58838710e-03,
         -3.65843705e-03,   5.98730824e-03,  -4.64163334e-03,
          7.01634930e-03,  -4.53763285e-04,  -1.18714299e-03,
          2.71207141e-03,  -5.32959341e-05,   1.00563401e-02,
         -4.46909631e-03,  -6.65588739e-03,   1.05956207e-02,
          5.64079275e-03,   1.33866562e-02,  -6.06120879e-03,
         -2.61111332e-03,   5.15954119e-04,   2.28509725e-03,
          6.28606793e-03,  -4.35495897e-03],
       [ -9.86742050e-03,   2.02339712e-03,  -2.81001538e-04,
         -8.74033337e-03,  -9.01160031e-03,  -1.04257044e-02,
         -1.49907752e-03,   8.99188182e-03,  -9.90113699e-04,
          7.24818108e-03,   8.48452621e-04,   1.56984085e-03,
         -7.84039819e-03,  -7.27267903e-03,  -4.06825294e-03,
          1.63148159e-03,   7.12120336e-03,  -1.67873297e-04,
          8.75397822e-03,   2.11735104e-03,   1.57784102e-03,
          1.09086311e-03,  -6.51289751e-03,   3.49794808e-03,
         -9.17470160e-03,  -9.68276883e-03,   4.79431997e-03,
         -4.04268675e-03,  -6.88354522e-03,   3.89990542e-03,
         -3.36673908e-03,   3.20084520e-03,   1.22216609e-03,
          3.07694580e-03,  -8.29877840e-03,  -6.29230750e-03,
          9.29387078e-03,   2.94398775e-04,  -6.00964595e-03,
          7.35648082e-03,   7.93505674e-03,  -1.52232882e-03,
         -5.36923542e-03,   3.63663895e-03,  -7.74408605e-03,
          1.51668908e-03,  -5.39164926e-03,   4.89099988e-03,
          6.87559219e-05,  -2.35997473e-03],
       [ -3.22641298e-03,  -6.04406827e-03,  -7.82090170e-03,
          1.17289463e-03,  -3.16913111e-04,  -1.07764986e-02,
          7.27618532e-03,   2.17595870e-03,  -8.02422488e-03,
         -4.42964005e-03,   5.14404437e-03,  -6.69555800e-03,
          2.77819683e-03,  -8.86697946e-03,   8.70792723e-03,
         -1.45356852e-03,  -8.89561542e-03,   2.15832161e-03,
         -3.24674177e-03,  -5.62611617e-03,   3.43042154e-03,
         -2.33911193e-03,  -4.08714163e-03,  -8.31577053e-03,
          3.36251112e-03,   6.43873916e-04,   1.77014284e-03,
          4.33173164e-03,   2.25470994e-03,  -3.66495150e-03,
         -1.12747542e-04,   2.55017051e-03,  -8.34849078e-04,
          8.26498351e-03,  -6.49041866e-03,   3.64017882e-03,
          6.28791475e-03,  -7.97820826e-03,  -8.25226579e-03,
          4.76498298e-03,   3.97198489e-03,  -2.36673918e-04,
         -8.04144318e-03,  -7.81261382e-04,   5.11036240e-03,
         -3.14162443e-03,   1.17409448e-03,  -1.52542652e-03,
         -6.79306713e-03,   5.18888858e-03]])]Hidden bias: [array([-0.99785643, -0.99790145, -0.99783496, -0.99805963, -0.99804167,
       -0.99796445, -0.99768844, -0.99797835, -0.99782697, -0.99777374,
       -0.99794825, -0.99770865, -0.9978331 , -0.99802055, -0.99792031,
       -0.99800762, -0.99809831, -0.99824546, -0.99759188, -0.99795262,
       -0.99800893, -0.99733375, -0.99789297, -0.99762752, -0.99788813,
       -0.99798443, -0.99775356, -0.99783909, -0.99779042, -0.99804054,
       -0.99780673, -0.99781741, -0.99788445, -0.99782299, -0.99757612,
       -0.99792866, -0.9977247 , -0.99823012, -0.99798207, -0.99777497,
       -0.99766012, -0.99752082, -0.99770969, -0.99818441, -0.99803122,
       -0.99801177, -0.99791009, -0.99811795, -0.99754315, -0.99788563])]Output weights: [[ 0.05035401  0.03371943]
 [ 0.05497174  0.02722679]
 [ 0.04433134  0.01617996]
 [ 0.04440398  0.01728785]
 [ 0.04596589  0.01424778]
 [ 0.05394042  0.03072542]
 [ 0.02734888  0.01488811]
 [ 0.04588207  0.02037944]
 [ 0.03428537  0.02409124]
 [ 0.04522702  0.01446379]
 [ 0.04675089  0.0212304 ]
 [ 0.03698295  0.03031783]
 [ 0.04248003  0.03267926]
 [ 0.04498375  0.0176763 ]
 [ 0.03075976  0.01365791]
 [ 0.04086912  0.02580894]
 [ 0.04808415  0.02528621]
 [ 0.03913371  0.01527173]
 [ 0.04560787  0.01668895]
 [ 0.03618023  0.01317245]
 [ 0.03693604  0.01610146]
 [ 0.03727715  0.03473953]
 [ 0.04622122  0.03337592]
 [ 0.0429155   0.02341535]
 [ 0.03206057  0.01243015]
 [ 0.03987265  0.02295376]
 [ 0.03422875  0.03396941]
 [ 0.04785742  0.02581006]
 [ 0.04186464  0.02366233]
 [ 0.04284498  0.02541678]
 [ 0.03109013  0.02011636]
 [ 0.04282039  0.03227597]
 [ 0.04802492  0.01386613]
 [ 0.03465388  0.03294428]
 [ 0.04188655  0.03585876]
 [ 0.04720767  0.02424671]
 [ 0.02846193  0.02069215]
 [ 0.04691065  0.01968038]
 [ 0.05152273  0.03083351]
 [ 0.04936291  0.02691949]
 [ 0.02893982  0.02004765]
 [ 0.03916322  0.01882673]
 [ 0.03064242  0.01865012]
 [ 0.04863231  0.02479891]
 [ 0.04931151  0.01878782]
 [ 0.03677376  0.01870994]
 [ 0.05258244  0.0137701 ]
 [ 0.05091831  0.0184872 ]
 [ 0.02892497  0.0193226 ]
 [ 0.04487855  0.01921219]]Output bias: [ 0.94694414  0.976411  ]
Value MLP:Hidden weights: [array([[ -2.78600324e+00,  -2.00774151e+00,  -8.79624620e-01,
         -3.10720509e+00,  -6.94655984e+00,  -5.31266991e+00,
         -1.11858666e+00,  -4.99266443e-01,  -2.11440610e-02,
          8.07941263e-01,  -7.24984735e-01,  -2.40829248e-01,
         -2.15509779e+00,  -7.36008880e-01,  -2.56160963e+00,
          6.86241489e-01,  -4.15659233e+00,  -2.80526010e-01,
          1.43563137e-01,  -3.62917008e-01,  -5.80499178e-01,
         -1.87109284e+00,  -1.39037931e+00,  -4.97006485e+00,
          2.10138742e+00,  -9.35395263e-01,  -5.64639193e-01,
         -4.61423372e+00,  -2.02595710e-01,  -1.28368496e+00,
         -1.70102342e-01,  -4.33606532e-01,  -2.05996460e+00,
         -7.45529052e-02,  -1.86075224e+00,  -1.65014278e+00,
         -1.34830356e+00,  -4.94076304e-01,   2.15448518e-01,
         -4.98256379e-01,  -2.43088622e+00,   3.54110509e-02,
         -7.06112989e-01,   1.22635478e+00,   2.68444217e-01,
         -2.02174425e+00,   1.02570927e+00,  -2.56959942e+00,
          3.39313874e-01,   1.49935988e+00],
       [ -1.24422092e+00,  -1.38640608e+00,  -1.24955864e+00,
          1.85055645e+00,  -4.75094627e-01,   2.45573979e+00,
          1.69987432e-01,  -1.03261986e+00,  -5.43748859e-01,
          1.05240180e+00,  -1.34646841e+00,  -7.69255312e-01,
          2.39853841e+00,   4.14142596e+00,  -1.33955031e+00,
         -1.60064289e+00,  -4.42523918e+00,  -1.06111654e+00,
          3.75565396e+00,  -1.60009306e+00,  -1.26591321e+00,
         -1.95692016e+00,   3.16514795e+00,   3.69923866e+00,
         -1.45214840e+00,  -3.72840332e+00,  -5.95057023e+00,
          1.70693253e+00,  -3.51621388e+00,   5.52686438e+00,
         -1.42745170e+00,  -1.25020299e+00,  -3.63473650e+00,
         -3.36416228e+00,  -1.16589495e+00,   3.84820101e+00,
         -1.60682232e+00,  -1.41473880e+00,   4.20505956e+00,
         -1.54263211e+00,   3.94100974e-01,  -4.32966560e+00,
         -1.27839990e+00,  -1.47274809e+00,   5.97146736e+00,
         -1.79510066e+00,  -1.48071729e+00,  -1.49247013e+00,
          3.38790997e+00,   6.55558298e-02],
       [ -2.33965289e+00,  -1.59146170e+00,   2.64243127e+00,
          3.33606900e+00,  -7.92604147e-01,  -8.55738507e+00,
          5.49492983e+00,   2.63133207e-01,   3.42508322e+00,
          1.02116016e+01,   1.67496466e+00,   3.28257247e+00,
          1.58811732e+00,   3.03666521e+00,  -3.75251059e+00,
          2.02670331e+00,  -5.89904767e+00,   2.83158244e+00,
          1.00028928e+01,   1.46477818e+00,   1.07412202e-01,
          1.71944120e+00,   4.03605142e-01,  -1.36798505e+01,
          8.79509340e-01,   1.13685958e+00,  -2.10988561e+00,
         -2.53649420e+00,   1.00133667e+00,   3.58194126e+00,
          1.28668729e+00,   7.03553823e+00,  -1.52985537e+00,
          2.18731647e+00,  -1.93422098e+00,   3.04393404e+00,
         -2.53495500e-01,  -1.27579904e+00,  -9.95366655e+00,
          1.01195552e+00,   5.08497432e+00,   4.47088586e-01,
          2.12609858e+00,   4.25767537e+00,  -4.67352106e+00,
          2.40551294e+00,   1.67833144e+00,  -4.69661860e-02,
          2.06188970e+00,   4.82761970e+00],
       [  1.41128645e+00,   3.19693434e+00,   2.93162205e+00,
         -6.01729970e+00,  -1.36052144e+01,   2.70681393e+00,
          1.37298915e+00,   3.59052420e+00,   1.12128179e+00,
         -8.97055570e+00,   3.83219601e+00,   1.10214135e+00,
         -6.77104282e+00,  -7.19721062e+00,   2.75719465e+00,
          2.11535063e+00,  -1.32060014e+00,   4.39875447e+00,
         -8.29870643e+00,   2.38856073e+00,   2.45712715e+00,
          4.60451758e+00,  -6.72047621e+00,  -1.00672449e+01,
          4.51931078e+00,   8.00832806e+00,   1.48494492e+00,
         -1.08405155e+01,  -8.90637509e-01,  -8.53137667e+00,
         -9.73978751e+00,  -1.61552555e+00,   1.27698531e+00,
         -6.53345141e+00,   2.11533115e+00,  -9.71619648e+00,
          2.79182024e+00,   3.43050040e+00,  -8.16341252e+00,
          3.76802250e+00,   3.87935194e+00,   4.04633279e-01,
          3.90600729e+00,   6.77050482e-01,  -1.08958028e+01,
          4.68095065e+00,   5.36255999e+00,   1.90391656e+00,
         -1.09900082e+01,  -8.55429988e+00],
       [ -9.89200145e-01,   1.40087710e+00,  -1.40823518e+00,
         -1.26003301e+01,  -8.69871685e+00,   2.03768994e+01,
         -2.78924448e+00,   1.29660981e+01,  -5.98357547e+00,
         -1.77584625e+01,   7.84204883e-01,  -6.17591947e+00,
         -1.70758051e+00,  -7.88557000e+00,   5.29108587e+00,
         -3.58225659e+00,   6.43494991e+00,  -3.06173164e-01,
         -7.53746789e+00,   7.17119066e-01,   1.71991402e-01,
          1.87462088e+00,  -2.45326964e+00,   1.05453805e+01,
         -1.24848333e+01,   5.94888024e+00,  -1.51553290e+01,
          8.21607131e+00,  -3.86053921e+00,  -1.02209219e+01,
         -4.90032706e+00,  -7.81179431e+00,  -1.92275237e+00,
         -4.98294630e+00,  -1.38505396e+00,  -8.36823570e+00,
         -4.10531824e-01,  -1.13928178e+01,   1.14224231e+01,
          5.30503130e-01,  -8.00648120e+00,   1.27554796e+00,
          7.67860480e-01,  -5.64621750e+00,   2.24132750e+01,
          4.51442364e+00,  -4.19684336e+00,  -6.86044436e+00,
         -7.55672196e+00,  -5.85230725e+00],
       [  1.78725401e-01,   3.31129206e-01,  -1.77995574e+00,
         -1.51562351e+00,  -3.90363700e-01,  -9.69328069e+00,
         -1.18819989e+01,  -2.48885081e+01,  -3.37864669e+00,
         -1.66723556e+01,  -6.54389780e-01,  -3.62425779e+00,
          9.58070109e+00,   4.53701301e+00,  -1.46415944e+01,
          6.13654486e+00,   1.07951987e+01,   1.61261713e-01,
          3.72930681e+00,   1.39636771e+00,   1.90168269e-02,
         -2.09506091e+00,   5.61658816e+00,   1.55045316e+00,
          2.70831882e+01,  -6.85352500e+00,  -1.55592393e+00,
          1.81370495e+00,  -6.14490792e+00,   3.54003980e+00,
         -2.25226993e+00,  -5.19634410e+00,   9.55162981e-01,
          4.26331347e+00,  -4.08907464e-01,  -6.63064343e-01,
          2.96432018e-01,  -9.99355866e-01,  -4.44601019e+00,
         -5.03330288e-01,  -1.95443106e+01,  -6.92392441e-01,
          7.01855535e-02,   1.82980929e+00,  -1.81354912e+01,
         -9.33891433e+00,   8.08782684e+00,   9.32332020e+00,
         -9.96903509e-01,  -2.91946565e+00],
       [ -5.37326809e-01,  -1.37191856e+00,  -1.35584057e+00,
          3.98749838e+00,   1.97332026e+00,  -8.19276883e-01,
         -1.12761163e+00,  -1.14130289e+00,  -1.55702326e+00,
          2.06153061e+00,  -2.69432881e+00,  -1.52254260e+00,
          3.94905365e+00,   3.46647323e-01,  -1.39315789e+00,
         -3.01787142e+00,   1.01076461e+01,  -1.43392747e+00,
         -3.10372931e+00,  -1.23271819e+00,  -8.11313792e-01,
         -3.12817842e+00,  -5.42093348e-01,   2.95176627e+00,
         -1.51022135e+00,  -8.98592689e-01,  -1.84345569e+00,
          4.01203130e+00,   2.46192007e-01,   7.62819959e-01,
          8.85378475e-01,   4.26875395e+00,   2.22986593e-01,
          2.21389399e+00,  -1.54705395e+00,   3.07629072e+00,
         -5.72567049e-01,  -3.46906928e+00,  -7.52135997e-01,
         -1.48624654e+00,  -8.35999590e-01,  -1.66636721e+00,
         -8.89863104e-01,  -9.65426679e-01,   6.70299409e-01,
         -2.15100529e+00,  -3.41265185e+00,  -1.91533736e+00,
          3.50503779e+00,   1.19847245e+00],
       [ -2.91288716e+00,  -4.03600098e+00,  -2.97826798e+00,
          5.00154436e+00,   3.97507934e+00,   3.07858052e+00,
         -3.52414606e+00,  -2.60338839e+00,  -3.20492107e+00,
          3.39403583e-01,  -2.84860837e+00,  -2.79217140e+00,
         -1.39877860e+00,   8.38828903e-01,  -2.68297116e+00,
         -3.86189348e+00,   3.41165805e+00,  -3.19306257e+00,
          4.17540013e+00,  -3.50100693e+00,  -3.09396246e+00,
         -5.22617340e+00,  -1.59067844e+00,  -1.76262280e+00,
         -3.65640399e+00,  -4.64660918e+00,  -2.35983167e+00,
          4.70959717e+00,  -3.25226249e+00,   4.29057800e+00,
         -8.59705285e-01,   7.27597551e+00,  -1.89024598e+00,
         -2.77909546e-01,  -2.77694120e+00,   2.87998405e+00,
         -2.84001242e+00,  -3.45841417e+00,  -2.57405844e+00,
         -3.46803937e+00,  -1.47284405e+00,  -2.84817549e+00,
         -2.91214228e+00,  -3.24239463e+00,   1.26044097e+00,
         -5.55762789e+00,  -3.35619360e+00,  -3.29502309e+00,
          4.00667647e+00,  -2.81005989e+00]])]Hidden bias: [array([ -9.95403474, -12.15127283, -11.83639666,   5.17341159,
         9.06744662,  -5.29637072,  -8.3623856 , -14.74360863,
        -7.57393817,  -3.24641092, -10.88616409,  -7.37185852,
         5.00671038,   2.09295161, -11.69652258, -13.49466763,
         6.37225732, -10.57236559,   0.4070137 , -11.00788286,
        -9.0612547 , -14.89793494,   1.75645971,   1.78734788,
       -15.02195199, -18.59364476, -14.89861885,   6.19169291,
       -10.20059713,   4.49224122,  -1.70884008,   4.05758715,
        -9.96174403,  -3.68418378,  -8.98596596,   4.57042724,
        -9.66447265, -13.05237906,   6.45759174, -10.03734418,
        -8.66195778, -12.02236694, -10.96565698,  -8.05833695,
         1.57700865, -14.60446761, -17.10701401, -10.51721176,
         4.57635437,   0.47568978])]Output weights: [[ 18.122608  ]
 [ 11.33821664]
 [ 12.77508824]
 [  7.83755884]
 [ 10.71321628]
 [  7.89540035]
 [  2.03792913]
 [  9.20142462]
 [ -5.12053016]
 [  3.26218969]
 [ 11.55103668]
 [ -3.33927783]
 [  3.90241407]
 [  5.93039087]
 [  3.84619168]
 [  3.57740742]
 [ 17.69443298]
 [ 12.28576763]
 [  5.89178261]
 [  4.01504636]
 [ 13.93994464]
 [  8.16204657]
 [  3.96237137]
 [  5.92312244]
 [  7.54965568]
 [  4.66987025]
 [  5.92067301]
 [  4.41064791]
 [ -3.71918394]
 [  3.14076472]
 [  6.73814485]
 [  9.72884522]
 [  6.82388906]
 [ 10.2693133 ]
 [ 19.91054144]
 [  4.32354008]
 [ 14.92579254]
 [  9.47827422]
 [ 11.14595847]
 [ 11.5373027 ]
 [  6.55546605]
 [ 10.4226501 ]
 [ 11.84431931]
 [ -0.63115948]
 [  8.79307556]
 [  4.47104135]
 [  5.57345505]
 [ -0.28985975]
 [  8.61018544]
 [  5.99473259]]Output bias: [-31.1290694]