Action MLP:Hidden weights: [array([[  2.02500296e-01,  -2.49089031e-01,   1.06845732e-01,
         -5.39979669e-02,  -3.96893377e-05,   2.01782024e-01,
         -8.97339435e-02,  -7.92798562e-02,   1.56787029e-01,
          9.89997958e-02,  -3.93379452e-02,   3.02335544e-02,
         -1.78645167e-01,   3.19906478e-02,   1.50121746e-01,
         -1.10038332e-01,   1.20079507e-01,   2.75543714e-02,
          2.81073732e-02,  -4.20508811e-02,   4.81504116e-03,
         -2.49669280e-04,  -6.05115036e-02,  -9.66272050e-03,
          6.78773393e-02,   9.71304288e-02,  -8.49238788e-02,
         -1.24454469e-01,  -5.60588905e-02,  -8.57299816e-02,
         -5.16674949e-02,  -1.28916554e-02,   7.51171445e-02,
          9.28306390e-03,   2.30526383e-01,   5.67677282e-02,
          2.95151331e-02,  -9.50444733e-03,  -6.09909273e-03,
          1.54658534e-02,  -2.78897431e-01,   1.64269197e-02,
         -5.75071891e-02,   2.24699590e-02,   6.72228118e-02,
          1.94605509e-01,  -3.33639942e-02,   5.44063239e-03,
          1.73902672e-01,   6.23187633e-02,   2.26310683e-01,
          1.57354403e-01,  -8.47359835e-02,  -4.76185428e-02,
         -1.58089277e-01,   4.12245281e-02,   2.54256657e-02,
         -2.05814293e-02,  -5.24374497e-03,  -4.99815300e-02,
          9.34803455e-02,  -4.95259667e-02,  -3.69213000e-02,
          1.34579131e-02,   5.52853243e-02,   1.07179167e-02,
         -6.86352675e-02,  -3.62277685e-02,  -2.36817286e-01,
         -7.80831962e-02,   1.14205488e-02,   1.54737714e-01,
         -6.91196494e-02,   2.21868986e-01,   8.55977552e-02,
          4.32279054e-02,   7.83072116e-02,  -5.47005904e-02,
         -4.11646180e-02,  -1.66569279e-01,  -6.99598682e-02,
          2.18414297e-02,  -5.78151783e-02,   2.63094152e-02,
         -2.08574930e-02,  -2.55211399e-02,   4.70114606e-02,
         -2.28404412e-01,   3.20504691e-02,  -7.47307178e-02,
         -3.46209212e-02,  -1.94427184e-01,   1.17013080e-01,
          2.28682867e-02,   5.46899008e-03,  -5.93864960e-02,
         -1.47398820e-01,   1.84552781e-02,   8.72117649e-02,
         -2.19694237e-02],
       [  4.18723773e-01,   2.95704973e-01,   3.00942432e-01,
          2.97491971e-01,   5.24606291e-01,   7.37914614e-01,
          3.83154056e-01,   3.63070005e-01,   6.19547134e-01,
          4.10535881e-01,   4.74364831e-01,   2.36866681e-01,
          3.10238847e-01,   5.74558561e-01,   3.35767006e-01,
          1.36452913e-01,   5.33043175e-01,   3.04803932e-01,
          4.22154690e-01,   2.81519966e-01,   2.97877599e-01,
          5.00638027e-01,   3.60089044e-01,   4.11278200e-01,
          5.00981879e-01,   3.25311171e-01,   4.39046725e-01,
          5.58060442e-01,   5.48422172e-01,   2.63165215e-01,
          4.34032894e-01,   2.73498754e-01,   4.80344243e-01,
          3.93337661e-01,   6.32097721e-01,   4.29445757e-01,
          3.29139837e-01,   5.68226090e-01,   2.37605787e-01,
          3.36454124e-01,   5.39520144e-01,   1.79904253e-01,
          3.07198779e-01,   4.44306283e-01,   4.44564282e-01,
          2.19911267e-01,   3.91123718e-02,   4.01472773e-01,
          4.06992632e-01,   4.18178104e-01,   3.18307127e-01,
          3.11145089e-01,   4.62218014e-01,  -4.80738439e-02,
          2.50345026e-01,   2.89861168e-01,   5.68955897e-02,
          4.94625879e-01,   4.49609035e-01,   4.99606504e-01,
          1.43872645e-01,   3.17171894e-01,   4.10831679e-01,
          2.10600871e-01,   2.17966695e-01,   2.53640408e-01,
          6.17858587e-01,   3.77478664e-01,   5.91946194e-01,
          5.26172825e-01,   1.49158670e-01,   3.13868727e-01,
          6.31487369e-02,   4.68409634e-01,   2.29014604e-01,
          2.53984845e-01,   6.62168584e-01,   2.97152002e-01,
          3.77502602e-01,   2.47646385e-01,   5.64927134e-01,
          3.31354721e-01,   3.35506325e-01,   3.19995693e-01,
          5.73634969e-01,   8.60124296e-02,   4.17651830e-01,
          3.18148003e-01,   1.26659447e-01,   1.67944280e-01,
          4.72188929e-01,   2.11498821e-01,   2.90790080e-01,
          3.87219656e-01,   3.19187327e-01,   3.46602717e-01,
          4.15728419e-01,   4.17673868e-01,   2.15321033e-01,
          2.78121524e-01],
       [  2.25185944e-01,  -2.93997848e-01,   1.08083739e-01,
         -6.63426421e-02,   1.59914406e-02,   3.06741287e-01,
         -7.62948889e-02,  -8.52797410e-02,   2.06935166e-01,
          8.99436538e-02,  -2.61572109e-02,   1.04762246e-02,
         -1.91955483e-01,   5.69559324e-02,   1.63225710e-01,
         -1.55062989e-01,   1.34930850e-01,   2.28155390e-02,
          3.65086469e-02,  -5.42919257e-02,  -1.05807322e-02,
          2.95392330e-02,  -6.43010319e-02,  -7.92419945e-04,
          9.18797776e-02,   1.05145802e-01,  -8.54529771e-02,
         -1.02767188e-01,  -4.24843151e-02,  -1.05813998e-01,
         -2.62258954e-02,  -2.42476261e-02,   9.57501355e-02,
         -1.45543535e-03,   3.08626202e-01,   4.96417235e-02,
          2.29992711e-02,   2.88820653e-02,  -2.33994835e-02,
          1.22674182e-02,  -3.32806042e-01,  -1.19321801e-02,
         -5.10346886e-02,   4.24662844e-02,   6.11098255e-02,
          2.68809878e-01,  -9.88041496e-02,   7.19087786e-03,
          1.73357948e-01,   5.90267830e-02,   3.16331438e-01,
          1.72162546e-01,  -7.51585352e-02,  -1.31782880e-01,
         -1.83482338e-01,   2.42915763e-02,  -1.88108899e-02,
          7.88602858e-03,   1.16770701e-03,  -4.31070413e-02,
          6.73459024e-02,  -7.41754712e-02,  -3.27218544e-02,
         -1.18454451e-02,   3.63249068e-02,  -3.38522404e-03,
         -4.56616875e-02,  -3.67662409e-02,  -2.49413656e-01,
         -4.26878963e-02,  -1.76774879e-02,   1.71674849e-01,
         -1.32601611e-01,   2.60771789e-01,   5.99319115e-02,
          3.00256438e-02,   1.40110457e-01,  -7.16631755e-02,
         -3.90712287e-02,  -2.13684941e-01,  -4.59775310e-02,
          6.19478311e-03,  -5.98333281e-02,   3.02763198e-03,
          1.30649425e-02,  -8.20971747e-02,   4.13270208e-02,
         -2.57358007e-01,   1.42121171e-02,  -1.08153241e-01,
         -2.55195337e-02,  -2.26100348e-01,   1.09895204e-01,
          1.99600831e-02,  -1.64571330e-02,  -5.25488915e-02,
         -1.45496641e-01,   2.53782759e-02,   7.45439516e-02,
         -5.06457304e-02],
       [ -4.08191764e-01,  -3.99847065e-01,  -4.53973803e-01,
         -3.01532181e-01,  -1.46554809e-02,   8.66619471e-02,
         -1.92937065e-01,  -2.25048008e-01,  -2.41834778e-02,
         -2.72511669e-01,  -8.10807988e-02,  -4.52793145e-01,
         -3.30295841e-01,   9.57027197e-03,  -4.79304175e-01,
         -5.76273961e-01,  -1.17143069e-01,  -3.43177961e-01,
         -2.04118256e-01,  -3.46047466e-01,  -3.55272410e-01,
         -5.15035445e-02,  -2.37837289e-01,  -1.79534496e-01,
         -1.06636235e-01,  -4.11295859e-01,  -1.08962863e-01,
          6.07282173e-02,   2.09499734e-02,  -3.77611641e-01,
         -1.22539215e-01,  -3.73227781e-01,  -1.43387416e-01,
         -2.17595311e-01,  -9.81663640e-02,  -2.04410645e-01,
         -3.28673941e-01,   3.93828094e-02,  -4.35942393e-01,
         -2.91332396e-01,  -3.02811783e-02,  -5.45859106e-01,
         -2.97056611e-01,  -1.59540341e-01,  -1.89424623e-01,
         -8.76964468e-01,  -7.04428941e-01,  -1.97553402e-01,
         -3.91209656e-01,  -2.34059272e-01,  -7.13126330e-01,
         -5.21121082e-01,  -7.57031881e-02,  -8.55259737e-01,
         -4.08820494e-01,  -3.72415195e-01,  -7.26864164e-01,
         -6.27971697e-02,  -1.39159771e-01,  -3.64042887e-02,
         -6.97196431e-01,  -2.73975611e-01,  -1.68167156e-01,
         -4.78537971e-01,  -5.04588532e-01,  -4.27056695e-01,
          1.15652936e-01,  -2.23934910e-01,   7.41831186e-02,
          1.50767998e-03,  -5.89825506e-01,  -5.34274508e-01,
         -6.72256090e-01,  -3.59132783e-01,  -5.17733937e-01,
         -4.46201362e-01,   9.99445225e-02,  -3.14507240e-01,
         -2.05204162e-01,  -4.41212331e-01,   5.29968973e-02,
         -3.13319992e-01,  -2.49227779e-01,  -3.15736793e-01,
          4.01881994e-02,  -6.05837148e-01,  -2.07736931e-01,
         -3.62038045e-01,  -6.40243341e-01,  -4.81993775e-01,
         -7.06842399e-02,  -4.96654137e-01,  -4.81206900e-01,
         -2.22026740e-01,  -3.12504716e-01,  -2.37369867e-01,
         -1.62271308e-01,  -1.84340848e-01,  -5.60101779e-01,
         -3.47505276e-01],
       [ -3.93642492e-01,   5.51327081e-01,  -2.20108338e-01,
          1.61433563e-01,   1.69725691e-03,  -4.82591859e-01,
          2.08625738e-01,   2.18421538e-01,  -3.74047196e-01,
         -1.91056891e-01,   8.38486705e-02,  -4.42878840e-02,
          4.05252898e-01,  -8.89416303e-02,  -3.01737452e-01,
          2.92463286e-01,  -2.47569286e-01,  -2.45459834e-02,
         -6.22690003e-02,   1.04197393e-01,   2.52562565e-02,
         -6.59263850e-03,   1.60499394e-01,   3.11695153e-02,
         -1.58043820e-01,  -1.94339920e-01,   2.15380911e-01,
          2.27468113e-01,   1.02654550e-01,   2.72903920e-01,
          1.15122533e-01,   4.82875151e-02,  -1.83451921e-01,
         -7.82863929e-03,  -5.07421934e-01,  -9.99035255e-02,
         -4.01973088e-02,  -2.62374013e-02,   4.73083076e-02,
         -4.98256528e-03,   5.65277253e-01,  -1.85252765e-02,
          1.55227471e-01,  -4.75711515e-02,  -1.28531145e-01,
         -3.72401169e-01,   1.49545883e-01,   1.39338184e-02,
         -3.48855738e-01,  -1.30652881e-01,  -4.68920662e-01,
         -3.31957941e-01,   2.01556862e-01,   2.00441558e-01,
          3.81970007e-01,  -4.77488738e-02,   1.11797217e-02,
          2.37026949e-02,   8.72031423e-03,   1.19325281e-01,
         -1.45478245e-01,   1.60354092e-01,   9.60139547e-02,
          1.08662433e-02,  -7.42225238e-02,  -1.28254893e-03,
          1.26141000e-01,   9.12253188e-02,   4.53516828e-01,
          1.51082200e-01,  -1.86321710e-03,  -3.20124003e-01,
          2.03434449e-01,  -4.57347404e-01,  -1.51550218e-01,
         -5.54080181e-02,  -2.18842946e-01,   1.45784908e-01,
          1.07650044e-01,   4.13491447e-01,   1.06331370e-01,
         -2.30577215e-02,   1.59572839e-01,  -1.67158695e-02,
          4.31767490e-03,   1.31571838e-01,  -6.83178391e-02,
          5.10178618e-01,  -3.34408367e-02,   2.25322049e-01,
          7.19454166e-02,   4.57656141e-01,  -2.28674166e-01,
         -1.60190280e-02,   3.14653259e-02,   1.49201100e-01,
          3.57682312e-01,  -3.16247989e-02,  -1.48627123e-01,
          1.04771322e-01],
       [ -4.68044164e-02,   2.81693844e-01,  -3.71395634e-02,
          4.92790527e-02,   1.85720944e-02,  -2.97328155e-02,
          7.82526094e-02,   7.59874250e-02,  -1.28073814e-02,
         -9.67214806e-04,   2.57169219e-02,  -2.00565887e-02,
          1.85810876e-01,   1.17412523e-02,  -3.27012338e-02,
          1.43240632e-01,   4.55522111e-03,  -1.23527959e-02,
         -3.41348241e-03,   3.02229524e-02,   5.73213242e-03,
          1.27973944e-03,   4.39807729e-02,   8.85900480e-04,
          7.94349523e-03,  -3.05177386e-02,   7.20937707e-02,
          6.49850466e-02,   3.42176276e-02,   1.04288142e-01,
          1.90538995e-02,   1.20791873e-02,  -1.96297775e-03,
          1.36500597e-02,  -4.13933128e-02,  -1.15847903e-02,
         -4.53713902e-03,   7.42217072e-03,   2.61383718e-03,
         -2.06427354e-03,   2.84538185e-01,  -1.06611474e-02,
          4.89526799e-02,   2.54995943e-04,   9.75900687e-03,
         -7.30182648e-02,   2.59184948e-02,   1.63245319e-02,
         -3.71214754e-02,  -5.65421773e-03,  -9.68079682e-02,
         -5.62047291e-02,   4.86791884e-02,   5.12406645e-02,
          1.78236452e-01,  -2.24061764e-02,  -1.26829830e-02,
          2.68910826e-02,   1.42227925e-02,   2.82510939e-02,
         -2.86927445e-02,   5.19807345e-02,   2.26164164e-02,
         -1.46253021e-03,  -1.91660826e-02,   1.83498470e-03,
          3.14573660e-02,   3.31049895e-02,   1.98051360e-01,
          4.81314849e-02,  -1.57394390e-02,  -3.29655514e-02,
          6.78096784e-02,  -5.59450453e-02,  -2.15291949e-02,
         -7.24520014e-03,   1.79896750e-02,   5.05830622e-02,
          1.16361645e-02,   2.15989420e-01,   4.26870705e-02,
         -5.89142286e-03,   3.01283706e-02,  -1.23256697e-02,
          8.88330015e-03,   3.55923156e-02,  -5.97473409e-03,
          2.64354730e-01,  -2.88610532e-02,   6.87553327e-02,
          2.15237729e-02,   2.17996719e-01,  -2.61823158e-02,
          6.97528499e-03,   1.53823843e-02,   1.95573504e-02,
          1.53274819e-01,   1.03646082e-02,  -2.59456805e-02,
          1.62090079e-02],
       [  5.62990435e-02,  -9.08163439e-02,   3.87075925e-02,
          7.55987544e-03,   8.07553645e-02,   1.35134399e-01,
          1.20962365e-02,   3.54153306e-03,   1.00240942e-01,
          6.48399357e-02,   6.20433510e-02,   1.50803767e-02,
         -5.09985571e-02,   9.93157615e-02,   2.78239322e-02,
         -6.15567833e-02,   8.70709277e-02,   4.37189688e-02,
          6.22046441e-02,   5.94851570e-03,   1.97029810e-02,
          7.55388681e-02,   2.67966625e-02,   5.78532977e-02,
          9.21019339e-02,   4.52601259e-02,   3.24572774e-02,
          5.39908145e-02,   7.83518190e-02,  -2.10660283e-02,
          5.83502091e-02,   2.85446201e-02,   8.76657489e-02,
          4.81078406e-02,   1.01900720e-01,   7.32188659e-02,
          4.21978872e-02,   9.55771310e-02,   1.53234250e-02,
          4.51619487e-02,  -4.38921658e-02,   1.50889340e-03,
          2.05921941e-02,   6.20437173e-02,   8.10615861e-02,
         -2.23666790e-02,  -4.89870036e-02,   5.11711661e-02,
          5.39278647e-02,   5.96423496e-02,   7.14184761e-03,
          2.33008897e-02,   4.81862630e-02,  -8.30847912e-02,
         -6.57835368e-02,   2.96648023e-02,  -4.32442972e-02,
          7.47348714e-02,   6.34426284e-02,   6.01785643e-02,
         -4.29085956e-03,   1.82167687e-02,   4.64561535e-02,
          1.51373375e-02,   1.95920436e-02,   2.52157499e-02,
          9.65634693e-02,   3.30759399e-02,  -6.91841370e-03,
          7.31909444e-02,  -5.45461094e-03,   3.59476191e-02,
         -6.29603445e-02,   4.76189997e-02,   1.11576788e-02,
          2.39386171e-02,   1.16754404e-01,   1.82832476e-02,
          4.10182181e-02,  -6.61845195e-02,   7.91980208e-02,
          3.50679105e-02,   1.05945644e-02,   3.01141553e-02,
          8.97019556e-02,  -3.74506089e-02,   7.48656995e-02,
         -8.45632871e-02,  -6.29052693e-03,  -2.97057162e-02,
          6.09329138e-02,  -9.47127330e-02,   3.82982752e-02,
          6.28882431e-02,   3.26368179e-02,   1.72076831e-02,
         -1.54621495e-02,   7.31047347e-02,   1.63075795e-02,
          1.79039526e-02],
       [ -1.93214132e-02,  -1.58625918e-03,  -4.73751252e-03,
          2.91762580e-02,   7.62640945e-02,   5.70558372e-02,
          5.28350264e-02,   4.33322765e-02,   5.63620473e-02,
          2.55018235e-02,   7.64791003e-02,   1.04763753e-02,
          7.21137828e-03,   8.41643861e-02,  -3.88387217e-03,
         -3.20670314e-03,   5.27165799e-02,   3.23066307e-02,
          5.96178010e-02,   1.95593990e-02,   3.07450192e-02,
          8.08712197e-02,   3.27468296e-02,   5.32780486e-02,
          6.96164494e-02,   1.37405214e-02,   6.20690497e-02,
          7.46164817e-02,   7.85747951e-02,   1.11274485e-02,
          5.19958968e-02,   1.69561521e-02,   5.79664861e-02,
          5.03204042e-02,   1.78796008e-02,   5.08254267e-02,
          2.97250942e-02,   7.88179678e-02,   9.17139475e-03,
          3.18873855e-02,   3.54049678e-02,   2.85683980e-03,
          2.75024689e-02,   5.65785935e-02,   4.33640836e-02,
         -7.10980348e-02,  -3.54664853e-02,   5.19448841e-02,
          1.63925429e-03,   4.02776769e-02,  -6.81701345e-02,
         -3.59674467e-02,   5.99504304e-02,  -4.34410685e-02,
          6.35801958e-03,   2.33788030e-02,  -2.42969556e-02,
          6.26634099e-02,   5.31006847e-02,   8.04217807e-02,
         -3.07463042e-02,   2.28613731e-02,   5.81022264e-02,
          6.69226723e-03,  -6.05537467e-03,   1.15704272e-02,
          9.21569225e-02,   4.81662885e-02,   6.07174382e-02,
          6.68968887e-02,  -1.15851962e-02,  -2.92112935e-02,
         -1.27411286e-02,  -1.98523392e-02,  -1.23006245e-02,
          1.14112811e-02,   9.28556976e-02,   2.64953424e-02,
          4.68075448e-02,  -6.62398184e-04,   8.13596413e-02,
          3.45427311e-02,   4.50970548e-02,   3.08006074e-02,
          9.05137803e-02,  -1.76169566e-02,   4.34951262e-02,
         -6.98330736e-03,  -1.09541565e-02,   5.71558860e-04,
          6.03999196e-02,  -1.05157555e-02,  -9.51538202e-03,
          4.24821998e-02,   3.92664584e-02,   3.26485924e-02,
          4.55211128e-02,   4.73314313e-02,  -9.61508324e-03,
          2.61943380e-02]])]Hidden bias: [array([-0.17921472, -0.31912479, -0.24186028, -0.32958923, -0.23662242,
       -0.02962166, -0.31903853, -0.32562872, -0.12619451, -0.2376042 ,
       -0.27802936, -0.29668227, -0.33498023, -0.20241269, -0.21403532,
       -0.36108654, -0.19564005, -0.29153943, -0.26876307, -0.32435395,
       -0.30621607, -0.24803853, -0.32125239, -0.28783844, -0.22037485,
       -0.24649802, -0.30204707, -0.24142988, -0.24528466, -0.34772321,
       -0.29418222, -0.31355693, -0.22232699, -0.28412863, -0.09748174,
       -0.25769621, -0.28615274, -0.20629554, -0.31840239, -0.29186498,
       -0.239233  , -0.31077495, -0.32804952, -0.26386397, -0.24584006,
       -0.18079828, -0.36906337, -0.28534324, -0.19895515, -0.25346625,
       -0.15489388, -0.20906386, -0.29346799, -0.3896486 , -0.34480514,
       -0.28807834, -0.3354271 , -0.2589213 , -0.2754191 , -0.27099882,
       -0.27499935, -0.32509274, -0.29973937, -0.31292614, -0.28824398,
       -0.30473719, -0.19689773, -0.30741844, -0.21759364, -0.26084943,
       -0.31867555, -0.20900701, -0.36989537, -0.15788843, -0.26711231,
       -0.28953338, -0.10966668, -0.32745351, -0.30824998, -0.34054203,
       -0.23023581, -0.29039641, -0.32364271, -0.29233003, -0.21459877,
       -0.35951514, -0.26521059, -0.32558628, -0.31277   , -0.35775391,
       -0.27231617, -0.34587095, -0.23885382, -0.2802498 , -0.30345844,
       -0.32091915, -0.31582595, -0.27138251, -0.26768278, -0.32458344])]Output weights: [[ -2.41828549e-02  -6.77124797e-03]
 [  5.53671353e-02   5.99795372e-03]
 [  2.97407268e-03   2.35109356e-02]
 [  4.91547342e-02   3.72940709e-02]
 [ -6.12207344e-02   3.52341214e-02]
 [ -1.88453401e-01  -7.79763100e-02]
 [  2.14330031e-02   3.33640654e-02]
 [  3.24973088e-02   3.59859772e-02]
 [ -1.33115649e-01  -1.87398666e-02]
 [ -3.75117030e-02   2.05435990e-02]
 [ -2.65378647e-02   3.71309427e-02]
 [  3.41206217e-02   3.28450429e-02]
 [  5.50841989e-02   1.92450995e-02]
 [ -9.84796185e-02   2.67349913e-02]
 [ -4.47536006e-03   6.66620003e-03]
 [  1.11093299e-01   7.56060820e-03]
 [ -9.05631022e-02   1.25946409e-02]
 [  1.14399814e-02   4.03163007e-02]
 [ -3.10000101e-02   3.66164586e-02]
 [  4.52100484e-02   3.32273084e-02]
 [  2.33100332e-02   3.43070003e-02]
 [ -5.41669750e-02   4.41099298e-02]
 [  2.78614741e-02   3.93450798e-02]
 [ -1.09927645e-02   4.49761641e-02]
 [ -7.64047040e-02   2.59236971e-02]
 [ -8.01138480e-03   2.74367346e-02]
 [  1.93126375e-04   3.42998115e-02]
 [ -6.61198178e-02   2.77413850e-02]
 [ -5.93360871e-02   3.01805874e-02]
 [  7.01825691e-02   3.26043681e-02]
 [ -8.15727298e-03   4.83396522e-02]
 [  3.45605178e-02   3.28591352e-02]
 [ -6.84579407e-02   2.60359276e-02]
 [ -8.76329797e-03   3.17178428e-02]
 [ -1.11286816e-01  -5.47172955e-02]
 [ -3.68176730e-02   3.69729842e-02]
 [  2.56600713e-03   3.46906966e-02]
 [ -8.90166056e-02   3.38303403e-02]
 [  4.39416750e-02   3.41218554e-02]
 [  6.19323722e-03   4.02758280e-02]
 [ -6.27707585e-02   1.09629711e-02]
 [  5.40549005e-02   2.30268177e-02]
 [  4.12406992e-02   3.81474298e-02]
 [ -3.75735313e-02   4.13766471e-02]
 [ -4.63788512e-02   2.56985248e-02]
 [  7.76855379e-02  -1.34704263e-02]
 [  1.25991723e-01   2.74816012e-02]
 [ -1.08853123e-02   3.74287133e-02]
 [ -2.69211283e-02  -3.08707715e-04]
 [ -3.55659591e-02   3.02226516e-02]
 [  4.86332329e-02  -2.12750237e-02]
 [  9.97827937e-03   8.13200096e-03]
 [ -1.15903325e-02   4.15694105e-02]
 [  1.61558604e-01   2.04762195e-02]
 [  7.90201330e-02   1.74831449e-02]
 [  1.62305519e-02   4.04337365e-02]
 [  1.00800946e-01   2.27490201e-02]
 [ -4.49240270e-02   3.49959384e-02]
 [ -2.61084214e-02   3.66896763e-02]
 [ -3.33464043e-02   3.84325373e-02]
 [  6.06455892e-02   1.26740595e-02]
 [  4.54303734e-02   3.59725234e-02]
 [  5.00274258e-04   4.07261979e-02]
 [  4.73934751e-02   2.91439632e-02]
 [  3.54381379e-02   2.94729742e-02]
 [  3.13525913e-02   2.89961496e-02]
 [ -1.04893499e-01   2.54890920e-02]
 [  1.16165647e-02   3.42729649e-02]
 [ -9.49085733e-02   1.34525048e-02]
 [ -4.85537685e-02   3.52896200e-02]
 [  6.60467035e-02   2.60414418e-02]
 [  6.15878796e-03   8.37332356e-05]
 [  1.24547575e-01   1.64599877e-02]
 [ -3.44345528e-02  -2.16606376e-02]
 [  3.09011767e-02   2.02042760e-02]
 [  2.36667272e-02   2.88447887e-02]
 [ -1.70983702e-01  -4.46861778e-03]
 [  4.70584859e-02   3.02441724e-02]
 [  1.41697326e-02   4.62471951e-02]
 [  8.11932023e-02   5.62634652e-03]
 [ -7.13174361e-02   2.45513113e-02]
 [  7.20940619e-03   3.57213825e-02]
 [  3.57713139e-02   4.53761333e-02]
 [  1.36589938e-02   4.02118886e-02]
 [ -8.60489050e-02   3.32566013e-02]
 [  1.10668068e-01   2.68534693e-02]
 [ -2.94644485e-02   3.91333884e-02]
 [  5.05213660e-02   1.07562060e-02]
 [  6.83294367e-02   2.83699742e-02]
 [  9.70687167e-02   3.22651927e-02]
 [ -2.53345512e-02   3.97163063e-02]
 [  9.25452812e-02   1.43613723e-02]
 [  6.67134824e-03   1.54593288e-02]
 [ -1.17638435e-02   3.83519879e-02]
 [  1.93829484e-02   3.16869969e-02]
 [  3.08579508e-02   5.04267256e-02]
 [  1.11072647e-02   2.68552507e-02]
 [ -2.47900881e-02   3.57264875e-02]
 [  3.26784791e-02   2.10809792e-02]
 [  4.61779814e-02   3.89112072e-02]]Output bias: [ 0.84309245  0.45100557]
Value MLP:Hidden weights: [array([[ -1.45010560e+00,  -2.72836642e+00,   1.00874638e+01,
         -1.24854623e+01,   1.65515315e+00,  -1.48307577e-02,
         -3.13695379e+00,  -1.40758416e+00,  -2.45353194e+01,
          1.16802782e+01,  -1.72943068e+01,  -9.05267153e+00,
         -2.19838645e+00,   1.80804476e+00,  -3.18949135e+00,
         -6.46050599e+00,   7.17441948e+00,  -4.02576056e+00,
          2.15685590e+00,   2.52257354e+00,  -5.77972750e+00,
          3.94517830e+00,   2.80427877e+00,   9.49308677e+00,
         -1.32234141e+01,  -4.22795016e+00,   2.51276647e+00,
          1.00989775e+01,  -2.13423185e+00,   2.86816765e+00,
          1.09018142e+01,   2.86696421e+01,   1.56143653e+00,
         -4.01092600e+00,   3.46748551e+00,   4.18063353e+00,
         -1.44790700e+01,   1.07840964e+01,   4.38019546e+00,
          2.84082094e+00,   7.96943300e+00,   4.51728717e+00,
         -4.22156166e+00,   1.44087010e+00,   5.18888288e-01,
          7.65240487e+00,   3.29069303e+00,   8.71481117e+00,
          1.44393453e+01,   9.58271451e+00],
       [  9.72559181e+00,   2.58952613e+00,   7.70886744e+00,
         -7.65024010e+00,  -1.45029849e+00,   6.70142773e-01,
         -4.66130780e+00,   1.04431579e+01,  -2.79819569e+01,
          5.86589880e+00,  -1.76145677e+01,  -1.05036272e+01,
         -9.05144912e+00,   8.18454998e-01,   3.99762740e+00,
          7.26337172e+00,  -1.60053926e+00,   2.25772333e+00,
          1.17414037e+01,   9.20252343e-01,   2.51880011e-01,
          3.68873257e+00,   3.93073760e+00,   6.88874596e+00,
          8.23658567e+00,  -2.24171096e+00,  -3.37597477e+00,
          1.23320014e+01,   2.77597510e+00,  -1.25913847e+01,
          6.53063101e+00,   1.08702752e+01,   5.90796020e-01,
         -1.25920987e+01,  -1.23600218e+01,   1.01379614e+01,
         -1.44323261e+01,  -1.69549029e+00,   6.00828674e+00,
         -2.48619186e+00,   8.66997998e+00,  -2.01150053e+01,
          3.65571765e+00,   1.46710495e+01,   5.50051201e+00,
          2.18359961e+00,   9.57199716e+00,  -1.42013485e+01,
          1.57062441e+01,  -2.50320542e+00],
       [ -6.35228912e+00,  -2.67965946e+00,   2.78951489e+01,
         -2.41305889e+01,   1.00171557e+00,  -3.46385219e+00,
         -7.80310419e+00,   1.55621354e+01,  -9.59349774e+01,
          4.61905267e+00,  -4.36460424e+01,   1.37082967e+01,
          2.23014696e+01,   2.24110276e+00,   5.74446876e+00,
          2.06742839e+01,  -2.99974209e+00,  -3.28870968e+00,
          1.12679587e+01,  -1.87101571e-01,   6.41799653e-01,
          1.70542423e+00,  -5.41209852e+00,   5.67470399e+00,
          8.88681144e+00,  -1.87240212e+01,   3.99608077e+00,
          2.85667868e+01,   8.42457162e-01,  -1.27822715e+01,
          1.13190896e+01,   2.88381301e+01,  -3.56138946e+01,
         -2.04176034e+01,   1.03891234e+00,   1.02093210e+01,
         -9.75647722e+00,  -1.61650273e+00,   2.11435037e+01,
         -1.13930520e+00,   3.79228172e+00,  -2.85042051e+00,
         -5.83605176e+00,   2.63379418e+01,   8.47445151e+00,
          2.18142559e+01,   1.05579506e+01,  -1.84929632e+01,
          1.66234706e+01,  -1.82472854e+01],
       [  1.03392254e+01,   8.81358185e+00,  -1.42160592e+01,
          1.08811027e+01,   7.03716603e+00,  -4.60339250e+00,
          1.08647457e+00,   1.94150690e+00,   7.65498122e+01,
         -6.68312809e+00,   5.47044548e+01,  -4.57052617e+00,
          3.46004629e+00,   9.16010347e+00,   1.08176826e+01,
         -9.65427619e+00,   6.19059529e-01,  -1.79887258e+01,
          2.59905709e+00,  -3.34686223e+00,   7.03179027e+00,
         -2.01278198e+00,  -1.36552640e+01,  -1.24700988e+01,
         -5.72610574e+00,   7.80819404e+00,   6.87825715e+00,
         -1.90437562e+01,   4.51455175e+00,   2.76329661e+00,
         -2.96361094e-02,  -1.22263037e+01,   1.51029436e+01,
          1.66471062e+01,  -9.65318910e+00,   3.50309727e+00,
          8.36232701e-01,  -5.67324086e+00,  -2.02752336e+01,
          7.53151739e+00,  -2.66829292e+00,  -1.26065189e+01,
          1.89293546e+00,  -7.62681185e+00,  -8.13763480e+00,
         -1.79713380e+01,  -1.33015889e+01,   1.31514149e+00,
         -4.95638159e+00,   6.42231458e+00],
       [  1.17043947e+01,   2.50229564e+00,  -5.96440922e+00,
          1.38771006e+01,   3.42362595e+00,   2.37713119e+00,
          1.07753230e+01,  -9.02400258e+00,   1.06580478e+02,
         -1.11498826e+01,   7.17240402e+01,   3.88435120e+01,
          3.79460596e+01,   1.65888101e+00,  -7.11614702e+00,
         -7.36916142e+00,   1.26659404e+00,  -3.72620861e+00,
         -8.72510370e+00,  -5.23550280e+00,  -8.40064115e+00,
          3.29508934e+00,  -3.19559369e+01,  -1.86961258e+01,
         -2.86820826e+01,   1.95347521e+01,   1.11818621e+01,
         -2.53877296e+01,   4.15683669e-01,   8.41525251e+00,
         -3.05283511e+00,  -8.07694463e+00,   2.75811162e+01,
          2.96196701e+01,   2.42097808e+01,  -7.17605139e+00,
          5.34741931e+00,  -3.00005835e+01,  -8.25839358e+00,
          9.83099752e+00,  -9.40869300e+00,   1.12614275e+00,
          3.40237288e+01,  -4.01235279e+01,  -1.42643005e+01,
         -5.28220669e+00,  -1.52638917e+01,  -1.08148625e+01,
         -3.89816742e+00,   2.36010717e+01],
       [  1.69767650e+01,   1.69775337e+01,   6.93675598e+00,
          1.77475480e+01,  -1.37476328e+00,  -1.50145998e+01,
         -9.76005100e-02,  -3.02822071e+00,   1.99881228e+02,
         -5.35359300e+00,   2.47663065e+01,   4.09779552e+01,
          6.28089872e+01,   1.79343593e+00,   1.85341550e+01,
          6.46420005e+00,  -3.41841209e+01,   1.56869763e+00,
         -1.60916171e+01,  -1.36549478e+01,   2.00702730e+01,
         -1.41228481e+01,  -2.48732533e+00,  -2.88602930e+00,
         -8.33140664e-01,   6.48292495e+00,   9.56759987e+00,
         -5.90066789e+00,  -1.26906240e+01,   7.76369426e-01,
         -7.86838803e+00,   8.87777876e+00,  -1.01936226e+01,
          5.67704779e+00,   2.44719419e+01,  -1.02965739e+01,
          3.85816922e-01,  -3.44579106e+00,   5.28827995e+00,
         -3.37389277e+00,  -2.46615526e+01,  -1.86723133e+00,
          7.25885496e+01,   1.57349316e+01,   1.83660284e+00,
          7.80148933e+00,  -1.13271948e+01,   3.68522013e+01,
         -2.18078656e+01,  -7.65617404e-01],
       [ -1.07068667e+01,  -4.62932698e+00,  -6.35921349e+00,
         -7.50373666e+00,  -2.52379023e+00,  -9.25042132e-01,
         -3.66575267e+00,  -1.41924247e+01,  -4.91649749e+01,
         -1.05742823e+00,  -3.07706354e+01,  -7.54614996e+00,
          3.54194949e+00,  -4.61743794e+00,  -9.15741062e+00,
         -5.73922981e+00,  -1.77567891e+00,   5.26533409e+00,
          5.33615456e-01,   7.89422403e+00,  -1.20338686e+01,
         -5.02422383e+00,  -5.18308912e+00,   1.47533362e-01,
          7.92911805e+00,  -2.99832493e+00,  -1.54668661e+00,
          1.11833643e+01,   3.37938149e+00,   2.50330453e+00,
          3.41900964e+00,   8.46305241e+00,  -1.23737305e+01,
          3.51610880e+00,   1.27906568e+00,   2.01944958e+00,
          2.14625313e+00,   1.03765617e+01,   1.41401113e+01,
         -2.68979368e+00,  -2.19573811e+00,   1.02827719e+01,
         -1.17259664e-01,  -5.98583046e+00,  -3.46436415e+00,
          7.59390610e+00,  -1.27722679e+01,   5.47124761e+00,
         -8.67473674e+00,  -1.07799035e+01],
       [ -4.14237122e+00,   3.41209261e-01,  -2.48578840e-01,
         -5.66264089e-01,  -1.08361891e+00,   5.68032009e+00,
          1.52056912e+00,  -6.61092848e-01,   3.47303220e+00,
         -2.07760331e+00,  -2.91522389e-02,  -2.36519208e+01,
         -8.56034936e+00,  -7.38798184e+00,  -5.01730712e+00,
          7.40264194e-02,   3.72319806e+00,   4.93734562e+00,
         -1.32094045e+00,   4.06054199e+00,  -9.10335416e+00,
          7.39959976e+00,  -3.41769583e+00,   2.49897004e+00,
          1.29230202e+01,   4.40349151e+00,  -3.55177133e+00,
          1.85390895e-02,   1.60601850e+01,  -1.90190703e+00,
         -1.34806504e+00,   2.55940678e+00,  -6.36074651e+00,
          6.53020764e+00,   1.66961913e+01,  -1.85096519e+00,
          1.06815439e+01,   6.64396685e+00,   1.10368686e+01,
         -1.05099647e+00,  -1.95710321e+00,   3.12824391e+00,
         -5.83270714e+00,  -9.20235389e+00,   4.51626527e+00,
          7.29346167e-01,   9.51283747e+00,   5.76908160e+00,
         -1.80745981e-02,   7.63822285e+00]])]Hidden bias: [array([-22.07295245, -12.4617922 ,  24.06625874, -22.72303836,
       -11.21669587,  12.17640553,  -9.35043558,   7.00353481,
       -60.45299578,   4.32090383, -41.24262801,  -5.50027035,
        -1.39878732, -12.98154449,  -5.98855593,  12.14278556,
         7.16731653,  13.14927076,   3.77645426,   7.58667298,
       -20.31628896,  10.91386135,   4.96673624,   5.58633232,
         3.20330337, -17.85729179, -11.21842173,  18.13397803,
        20.03167303,  -0.20086513,   6.75498054,  14.34212598,
       -28.08164337, -13.72586077,  -0.38336118,   4.02574151,
         0.59105241,  11.68012896,  11.2380906 , -19.83156492,
         4.22370667,  24.76080199, -22.34378223,   6.69474616,
         5.87928798,  20.81009064,   9.55100012,  -4.33904526,
         4.66576059,  -6.79519749])]Output weights: [[  4.20564905]
 [  4.76907116]
 [ 20.76241264]
 [ -8.9997644 ]
 [ 15.70535182]
 [  4.3751683 ]
 [  3.22749566]
 [-12.68451731]
 [ -3.46384995]
 [-12.67789606]
 [ -7.83462777]
 [  6.56470634]
 [-12.62661144]
 [  4.24263801]
 [ 10.79626996]
 [ -6.33609378]
 [  1.31481512]
 [  1.20396325]
 [ -4.18886742]
 [  1.09121652]
 [ -4.63947765]
 [  2.66415046]
 [  5.48204291]
 [ -9.45581442]
 [-12.62395945]
 [  8.43098192]
 [ -1.87008442]
 [ -7.16761674]
 [ -0.6970414 ]
 [  6.08853391]
 [  8.43924757]
 [  5.47607737]
 [  7.01103557]
 [ 13.01955952]
 [ 12.03584802]
 [-13.22841403]
 [ -9.864527  ]
 [-15.89885235]
 [ -0.31941374]
 [ 16.14346976]
 [  4.8057545 ]
 [-18.92855568]
 [ -1.67074022]
 [ -9.6599347 ]
 [ -8.22271167]
 [  4.52825917]
 [  6.66508113]
 [  4.52047063]
 [ -3.40324428]
 [ 14.26654375]]Output bias: [-62.19929693]