Action MLP:Hidden weights: [array([[  1.79371624e-02,   2.52168017e-01,   4.54051161e-02,
          3.14840731e-02,   1.63813216e-02,  -5.33876614e-01,
          5.67694016e-02,   3.40838092e-02,   6.65171161e-03,
          6.74984900e-02,  -4.70696712e-02,   9.15595732e-04,
          2.59788674e-01,   2.26216957e-02,   4.54679566e-02,
          2.63218192e-02,   4.93371181e-02,  -1.47213111e-01,
          1.26399383e-02,   1.44385924e-01],
       [  1.20063271e-01,   3.33199909e-01,   7.93150489e-02,
          1.67125161e-01,   1.63462532e-01,   2.33895144e-01,
          1.88654996e-01,   1.40006532e-01,   1.39096378e-01,
          1.88973664e-01,   1.71698300e-01,   1.73571796e-01,
          2.37177073e-01,   1.23922494e-01,   1.65051323e-01,
          1.46728198e-01,   1.78964343e-01,   1.33415929e-01,
          1.55355219e-01,   1.54385063e-01],
       [ -1.28526858e-01,   7.46743506e-01,  -1.85660779e-01,
         -7.19811961e-02,  -6.62572906e-02,  -2.85656191e+00,
          2.45382772e-02,  -1.09630135e-01,  -1.10717124e-01,
          7.00667656e-04,  -1.31737209e-01,  -4.51790819e-02,
          2.23059690e+00,  -1.39162022e-01,  -6.96964766e-02,
         -8.61560233e-02,   3.64443262e-02,  -2.51902137e-01,
         -7.97028459e-02,   3.35873088e-01],
       [ -1.45711994e-01,  -6.23786286e-01,  -1.54866813e-01,
         -1.65873756e-01,  -1.69046708e-01,  -2.87136925e+00,
         -2.29460957e-01,  -1.42339662e-01,  -1.58300488e-01,
         -1.87724697e-01,  -2.23174848e-01,  -1.98223689e-01,
         -2.45649733e+00,  -1.41008967e-01,  -1.60666646e-01,
         -1.51292326e-01,  -2.42949070e-01,  -2.47025881e-01,
         -1.66606888e-01,  -5.42122688e-01],
       [  1.66992029e-02,  -9.87943061e-02,   6.31747142e-03,
         -2.55430360e-03,   1.99217006e-03,   1.89247047e+00,
         -1.21722982e-02,   1.79020037e-02,   1.70244447e-02,
         -5.34601308e-03,  -4.45802013e-02,  -1.61988614e-02,
         -2.19472985e+00,   2.28979918e-02,   7.25627931e-03,
          1.74041753e-02,  -1.17422455e-02,  -6.98281963e-02,
          4.51316462e-03,   1.00446535e-01],
       [  1.70071223e-01,  -2.87442288e-01,   2.24454980e-01,
          5.41914525e-02,   5.55269734e-02,  -2.69866630e-01,
         -9.96524924e-02,   1.44599440e-01,   1.44444419e-01,
         -5.22596449e-02,   6.83674363e-02,  -3.03755196e-03,
          4.79010125e-01,   1.97684954e-01,   6.55139370e-02,
          1.09485434e-01,  -1.16622293e-01,   2.06949202e-01,
          7.79418526e-02,  -2.46963274e-01],
       [  9.43851667e-02,   1.54587468e-02,   8.26138335e-02,
          9.55075341e-02,   9.80411628e-02,  -3.18994917e-01,
          5.68983521e-02,   1.21557427e-01,   1.16911895e-01,
          6.00955646e-02,   9.63634129e-02,   7.51885738e-02,
         -3.88002908e-02,   1.28711848e-01,   1.02159431e-01,
          9.15554165e-02,   4.33846549e-02,   1.33012771e-01,
          8.09976104e-02,   7.80274856e-02],
       [  8.82030112e-02,   1.92540221e-01,   9.18116215e-02,
          1.15653157e-01,   1.08350907e-01,   8.60035812e-05,
          1.76043074e-01,   7.98735391e-02,   8.18498643e-02,
          1.66089912e-01,   1.19807803e-01,   1.33719541e-01,
          3.60949304e-02,   6.79870266e-02,   1.12463757e-01,
          1.04242534e-01,   1.81144007e-01,   6.90777300e-02,
          1.16836532e-01,   2.15690151e-01]])]Hidden bias: [array([-0.15157386, -0.47874862, -0.1356366 , -0.19212005, -0.19149184,
        0.11409511, -0.24830497, -0.16163269, -0.16997194, -0.22263434,
       -0.22695301, -0.21641605,  0.2272519 , -0.1519156 , -0.18803781,
       -0.17046312, -0.25093881, -0.21778303, -0.18466947, -0.40965493])]Output weights: [[-0.02764116 -0.03233354]
 [-0.16820136 -0.0893594 ]
 [-0.03243599 -0.05052838]
 [-0.03175618  0.00300493]
 [-0.0320581   0.00362493]
 [ 0.64759431  0.51861156]
 [-0.04774984  0.01722453]
 [-0.03186517 -0.02176813]
 [-0.03056178 -0.01772926]
 [-0.03923449  0.00504022]
 [-0.02016506  0.04150889]
 [-0.03062644  0.02143028]
 [ 0.68638629 -0.36364021]
 [-0.02886005 -0.03413894]
 [-0.03595768 -0.00638642]
 [-0.03169453 -0.02093459]
 [-0.0513207   0.01684988]
 [ 0.00359275  0.05692724]
 [-0.02981804 -0.00697217]
 [-0.20635048 -0.08067004]]Output bias: [-0.34260387  0.03610061]
Value MLP:Hidden weights: [array([[  6.72993669e+00,  -2.47123887e+01,  -3.28811666e+01,
          2.52945121e+01,  -1.39618315e+01,   1.80972625e+01,
          3.94700316e+01,   3.29834836e+01,  -2.47009780e+01,
          1.21341982e+01,   1.59700595e+00,   1.65345028e+01,
         -7.32523467e+01,   3.66615956e+01,   8.75483060e+00,
          3.29608586e+01,   1.06002725e+01,  -3.93057043e+01,
          3.00270488e+00,   4.32808313e-01],
       [ -1.17299285e+01,  -1.52612714e+01,   6.31222023e+01,
          2.84869459e+01,   1.06206146e-01,  -1.99157656e+01,
          3.54218732e+01,   4.50378178e+01,   4.34132064e+01,
         -1.57717178e+01,   2.15043007e+01,  -7.38901034e+00,
          5.42756841e+01,   1.23403205e+01,  -8.75781743e+00,
         -3.97239198e+01,   1.05764645e+01,   2.45148649e+01,
          5.21701173e+01,   8.21976293e-01],
       [ -7.42538650e+00,  -3.10606578e+01,  -5.87037876e+01,
         -2.77287484e-01,  -2.29162226e+01,  -5.42218955e+00,
          4.31056566e+01,   4.04450978e+01,   3.69023358e+01,
          1.56802717e+01,   3.66951801e+01,   2.89769160e+01,
         -2.92155120e+01,   6.82151169e+01,  -5.40511314e-01,
          1.50552185e+00,  -2.41462055e+01,  -5.02941130e+01,
          2.21593803e+01,   2.13959254e+01],
       [  7.50339421e+01,   1.14670917e+01,   1.87414101e+00,
         -7.74361484e+01,  -3.87205335e+01,   4.72032772e+01,
          8.57596866e+01,  -8.14149967e+00,   2.92327501e+01,
          1.24521967e+01,   5.61934204e+01,   3.69072498e+01,
         -3.56738802e+00,  -2.96382899e+01,   4.78649250e+00,
         -1.12264266e+01,   5.05977277e+01,  -1.14128805e+02,
          6.17275011e+01,  -3.19175739e+01],
       [ -3.62290677e+01,  -2.26835826e+01,  -2.58819811e+01,
          1.68394629e+02,   1.11517530e+02,   3.98291877e+01,
         -1.22499397e+02,  -3.32861667e+01,  -4.39927177e+01,
          6.94637427e+00,  -1.23561502e+02,   7.81977715e+01,
          1.53492337e+02,   6.85280179e+00,   2.40210386e+00,
          1.23423170e+02,   7.73049466e+01,  -2.46690300e+01,
         -2.15243658e+02,   4.25620901e+01],
       [  1.51081534e+01,  -1.09639250e+02,  -1.18772470e+02,
          1.55849275e+02,  -5.92328535e+01,   1.02597723e+02,
          1.01992160e+01,   1.21769937e+02,   8.97441048e+01,
         -1.00043531e+01,   4.30785521e+01,   1.12313903e+02,
          1.13276978e+02,   2.02600311e+01,   4.60740013e+00,
         -4.84241011e+01,  -4.53946441e+01,  -1.23559973e+01,
         -5.36357324e+02,   5.99021508e+01],
       [ -7.06729814e+01,   2.65694280e+01,   7.85176901e+00,
         -4.52230267e+01,  -3.03016745e+01,  -4.58930182e+01,
         -4.44298109e+01,  -1.76003352e+01,  -5.29997457e+01,
         -2.91955004e+01,  -1.76674727e+01,  -2.86563506e+01,
         -1.01031322e+02,  -1.76602091e+01,  -1.93939963e+01,
          3.08249636e+01,  -1.18962231e+01,   2.30653616e+00,
          8.83805801e+01,  -2.04622955e+01],
       [ -2.24786352e+01,  -3.98358908e+01,   1.96618271e+01,
          6.67727543e+01,   3.14830466e+01,   1.38671055e+00,
         -3.45686579e+01,  -2.91881046e+01,  -2.60164725e+01,
         -1.28255507e+01,  -4.49874407e+01,  -5.36302154e+01,
          2.73943737e+01,   3.05487299e+01,  -1.55943879e+01,
          5.75234708e+00,  -3.03943393e+01,   5.74148203e+01,
         -1.09466640e+02,   1.30116087e+00]])]Hidden bias: [array([-110.48007267,  -44.91662069,   80.50914375,   82.25394896,
          5.56989842,  -81.93899258,   -0.14021349,  -43.1132627 ,
        -33.73621058,  -63.03247002,  -94.87920429,  -54.50534156,
        -13.1334666 ,   78.81083478,  -48.85492407,  -61.49850238,
        -49.73082093,  138.68094587,   46.9120851 ,   31.68425168])]Output weights: [[ 14.97995747]
 [  3.93757868]
 [ -5.38099739]
 [  0.64282059]
 [ -4.08470097]
 [  0.20044663]
 [  7.03106606]
 [  8.71651959]
 [  8.89900565]
 [  9.18223131]
 [  6.20305152]
 [  5.24748124]
 [  7.25491111]
 [ 20.32277273]
 [  3.52207892]
 [  0.37473547]
 [ 12.90214712]
 [-15.41931459]
 [  5.79606754]
 [ -0.06553353]]Output bias: [-7.16791014]