Action MLP:Hidden weights: [array([[ -5.44977723e-02,  -5.38857334e-02,  -6.62626986e-02,
         -5.81390424e-02,  -3.19126308e-02,   5.53889980e-03,
         -6.91079786e-02,  -2.22920472e-03,   6.80292701e-03,
         -8.56724405e-02,  -4.23904603e-02,   6.40611451e-02,
          3.76912570e-03,   2.78318347e-02,  -5.78689045e-02,
          6.81027189e-03,   2.23135279e-02,  -8.86520029e-03,
         -2.08138923e-02,  -7.85129651e-02,  -2.68990424e-02,
         -6.06659350e-03,  -7.16664644e-02,  -5.16434047e-02,
          1.93634307e-02,   5.91387147e-03,  -3.57751814e-02,
         -3.23934477e-02,   6.05425242e-03,   1.43272143e-02,
         -2.80294224e-02,  -2.41413374e-02,  -3.39655818e-02,
         -7.13008025e-02,  -9.42591192e-03,  -5.45429671e-02,
         -9.86074409e-02,  -6.09228664e-02,  -1.03132834e-03,
          1.54941218e-02,   2.32871731e-02,   3.01296302e-02,
         -2.49523055e-02,  -6.80797390e-02,   1.24855576e-02,
         -6.00974524e-02,  -3.66642986e-02,  -1.00857845e-01,
         -5.64175619e-02,   4.60335592e-03,  -2.11581251e-02,
         -5.66281169e-02,  -2.12834264e-03,  -5.33705928e-02,
         -1.19575536e-02,  -2.78238493e-02,   7.30007996e-02,
         -8.56329183e-02,  -7.17606896e-02,  -4.62399152e-02,
          1.87149968e-02,  -5.67767298e-02,  -1.35216512e-03,
         -3.07147048e-02,   5.62104682e-02,   2.24403253e-02,
         -2.96674445e-02,  -4.46829136e-02,   2.70098321e-02,
         -8.45889858e-03,  -3.57028319e-02,  -6.70332047e-02,
         -3.28966286e-02,  -3.04808995e-02,  -5.58630525e-02,
         -1.07373996e-02,  -3.44642244e-02,  -7.81510058e-02,
         -1.63968654e-02,  -2.23894585e-02,  -3.36449606e-02,
         -5.11197001e-02,  -9.68686114e-02,  -1.04544569e-01,
         -6.20052109e-02,  -5.62204405e-02,  -2.38509860e-02,
         -8.52362957e-02,   5.27097201e-02,  -2.68131324e-02,
          9.40691066e-03,  -5.64776281e-02,  -3.83297459e-02,
          2.75717669e-02,  -2.13678597e-02,   3.55738865e-02,
          4.81204775e-03,  -1.09034310e-02,  -4.76122626e-02,
         -6.15694762e-02],
       [  2.28203999e-01,   2.07973821e-01,   2.56974607e-01,
          2.36652062e-01,   1.86428966e-01,   1.88990783e-01,
          2.35125784e-01,   1.97803746e-01,   1.87039611e-01,
          2.75175273e-01,   2.48978644e-01,   2.61332102e-01,
          1.99207371e-01,   1.67563328e-01,   2.27607741e-01,
          1.75971196e-01,   1.77610343e-01,   1.78312661e-01,
          1.92643592e-01,   2.34736176e-01,   2.29530134e-01,
          1.76910525e-01,   2.49230339e-01,   2.33887288e-01,
          1.70242171e-01,   1.67689430e-01,   1.95987005e-01,
          2.02223378e-01,   1.84795153e-01,   1.89161298e-01,
          1.97785742e-01,   1.81411994e-01,   2.02769680e-01,
          2.28495874e-01,   1.89566215e-01,   2.17776306e-01,
          3.00411373e-01,   2.37509403e-01,   1.92286466e-01,
          1.87739190e-01,   1.68338091e-01,   1.71617829e-01,
          1.87177140e-01,   2.47854862e-01,   1.79535136e-01,
          2.28580106e-01,   2.30740698e-01,   2.87529564e-01,
          2.61861903e-01,   1.71442396e-01,   1.96148089e-01,
          2.18407319e-01,   2.05470695e-01,   2.56324290e-01,
          2.10636057e-01,   1.79304090e-01,   1.29420926e-01,
          2.73972233e-01,   2.62389082e-01,   2.26745984e-01,
          1.58418420e-01,   2.55628880e-01,   1.99657472e-01,
          2.28339939e-01,   1.35295175e-01,   1.61767398e-01,
          1.95911260e-01,   2.28091316e-01,   1.62975584e-01,
          1.80188624e-01,   2.49544371e-01,   2.28605405e-01,
          1.95839613e-01,  -8.93388008e-02,   2.43275988e-01,
          1.92720925e-01,   2.31056132e-01,   2.66898619e-01,
          1.85511449e-01,   1.98762443e-01,   2.39609103e-01,
          2.21170984e-01,   2.53847104e-01,   3.07853906e-01,
          2.35834212e-01,   2.18859885e-01,   1.99698201e-01,
          2.70470050e-01,   1.44072740e-01,   2.10349734e-01,
          1.83591660e-01,   2.59682139e-01,   2.06690706e-01,
          1.82944183e-01,   2.26593263e-01,   1.89278348e-01,
          1.73410054e-01,   1.83551623e-01,   2.36769368e-01,
          2.46590992e-01],
       [  3.98265447e-02,   2.85851253e-02,   2.10955818e-02,
          2.13870951e-02,   3.68491652e-02,  -5.38405815e-03,
          4.69047764e-02,  -9.98581182e-03,  -3.26593307e-02,
          5.54315722e-02,   8.15953533e-03,  -1.08121199e-01,
         -1.42110750e-02,  -2.10047149e+00,   2.19149068e-02,
         -9.08947782e-03,  -5.37356225e-02,   2.22172896e-02,
          1.73682162e-03,   8.61000781e-02,  -7.26092956e-03,
         -7.62999958e-03,   4.79250125e-02,   1.50262366e-02,
         -8.37191548e-03,  -2.02352214e-02,   2.76118178e-02,
          1.51171609e-02,  -1.03056075e-02,  -2.25013264e-02,
          1.39719612e-02,   1.93989160e-02,   8.09769349e-03,
          9.28242160e-02,   2.57560998e-04,   4.19285050e-02,
         -5.58547655e-01,   2.86961988e-02,  -1.78731403e-02,
         -4.94556317e-02,  -2.29921443e-02,  -6.29412866e-02,
          1.35936650e-02,   2.76205447e-02,   6.85109939e-03,
          4.98766202e-02,   2.53360241e-03,   4.67497004e-02,
          1.53423584e-02,  -2.63680537e-03,   1.40134161e-02,
          4.90182975e-02,  -2.98364882e-02,   1.50926956e-02,
         -2.01626599e-03,   1.79944666e-02,  -8.76503066e-02,
          5.45269579e-02,   4.51927319e-02,   1.45533676e-02,
         -2.29743722e-02,   1.91590147e-02,  -1.53382165e-02,
          3.40788596e-03,  -7.42639382e-02,  -4.28208351e-02,
          4.97355656e-03,   1.62084379e-02,  -2.47545020e-02,
          2.86122769e-02,   6.01123699e-03,   5.21171666e-02,
          3.51183561e-02,  -1.91621193e+00,   2.51557923e-02,
         -1.17041725e-02,   9.00449458e-03,   3.49955953e-02,
          1.43979607e-02,  -5.55403026e-03,   2.01830618e-03,
          4.17181984e-02,   1.19722340e-01,   5.63998686e-02,
          2.09918834e-02,   5.44933552e-02,   1.40164697e-02,
          5.96454176e-02,  -7.69489514e-02,  -4.44462527e-03,
          4.99601022e-03,   1.87762589e-02,   1.08480157e-02,
         -6.19729436e-02,  -4.02196304e-03,  -6.61985185e-02,
         -1.09297927e-02,   1.60197213e-02,   1.29609892e-02,
          2.64630001e-02],
       [ -2.65444323e-01,  -2.87059530e-01,  -2.16692795e-01,
         -2.43918075e-01,  -3.10343400e-01,  -2.63874150e-01,
         -2.64645578e-01,  -2.56628503e-01,  -2.52621806e-01,
         -2.42211120e-01,  -2.07989793e-01,  -9.24614091e-02,
         -2.42722799e-01,  -2.16060007e+00,  -2.50558896e-01,
         -2.63433342e-01,  -2.33440817e-01,  -2.96616841e-01,
         -2.58976995e-01,  -3.07924688e-01,  -2.16621730e-01,
         -2.70594806e-01,  -2.62309717e-01,  -2.30577982e-01,
         -2.75622667e-01,  -2.79622412e-01,  -3.00044057e-01,
         -2.62507642e-01,  -2.60690564e-01,  -2.53264680e-01,
         -2.79454653e-01,  -2.91179371e-01,  -2.53941286e-01,
         -3.23355503e-01,  -2.67892309e-01,  -2.81697729e-01,
         -4.86898218e-01,  -2.53392835e-01,  -2.49413324e-01,
         -2.29337193e-01,  -2.62267744e-01,  -2.37070010e-01,
         -2.80565434e-01,  -2.32717648e-01,  -2.79135699e-01,
         -2.81942484e-01,  -2.27592957e-01,  -2.17491480e-01,
         -2.12369669e-01,  -2.74111664e-01,  -2.77493319e-01,
         -2.82022556e-01,  -2.32742269e-01,  -2.06113354e-01,
         -2.45249285e-01,  -3.04172783e-01,  -2.69849260e-01,
         -2.42206749e-01,  -2.42654863e-01,  -2.43602759e-01,
         -2.85670536e-01,  -2.12742022e-01,  -2.44444610e-01,
         -2.38407292e-01,  -2.66840897e-01,  -2.67779639e-01,
         -2.69743982e-01,  -2.44016171e-01,  -2.68749537e-01,
         -3.02577576e-01,  -2.05182738e-01,  -2.88645158e-01,
         -2.92080050e-01,   2.09847046e+00,  -2.40531184e-01,
         -2.56017537e-01,  -2.29765602e-01,  -2.23297745e-01,
         -2.82977130e-01,  -2.55467691e-01,  -2.12640101e-01,
         -2.89223705e-01,  -3.13717280e-01,  -2.07312800e-01,
         -2.37968993e-01,  -2.91098292e-01,  -2.75821045e-01,
         -2.46017923e-01,  -2.66846429e-01,  -2.40452349e-01,
         -2.65894917e-01,  -2.15845706e-01,  -2.53173860e-01,
         -2.34948521e-01,  -2.28015786e-01,  -2.18328876e-01,
         -2.81144948e-01,  -2.89524956e-01,  -2.29235268e-01,
         -2.34028151e-01],
       [  1.38095337e-02,   1.82652264e-02,   2.92818016e-02,
          2.41103809e-02,  -2.00745520e-03,  -1.53300374e-02,
          1.54334933e-02,   1.90408896e-03,   2.69399293e-02,
          1.44266227e-02,   1.68903858e-02,   1.11509830e-01,
         -5.13045140e-03,   1.33162352e+00,   2.20255495e-02,
         -8.91730189e-03,   5.80256084e-02,  -2.00935509e-02,
          9.51011327e-03,  -2.26280079e-02,   2.39869641e-02,
          1.12919664e-02,   8.37461115e-03,   2.34235714e-02,
         -2.28081950e-02,   1.68551657e-02,   4.92552329e-03,
          5.49583181e-03,  -9.85759067e-03,  -6.17272472e-03,
          8.62417913e-03,   1.69331630e-03,   9.89164825e-03,
         -5.48948497e-02,   4.18066281e-03,   1.31076637e-02,
          1.18490122e+00,   1.59396365e-02,   6.65679021e-03,
          5.30026665e-02,  -1.29386416e-02,   6.75682360e-02,
          1.23447711e-02,   1.87862732e-02,  -1.65006200e-02,
          8.80788676e-03,   1.36733639e-02,   2.35480027e-02,
          1.08791755e-02,  -1.02869555e-02,   3.42805147e-03,
          5.73296264e-03,   2.96693892e-02,   1.33894232e-02,
         -3.86708259e-03,   9.34543289e-03,   9.00252439e-02,
          1.90678000e-02,   8.30245254e-03,   1.75005177e-02,
          7.21960006e-04,   1.38725466e-02,   2.43447956e-03,
          1.20258036e-02,   6.73406146e-02,   2.40826360e-02,
          1.74554517e-02,   2.01030229e-02,  -9.28306409e-03,
         -2.83151248e-02,   1.64903970e-02,   1.50609131e-02,
          1.01273279e-04,   1.63045952e+00,   1.25027538e-02,
          1.58231383e-02,   7.23837366e-03,   2.00254971e-02,
          3.38160607e-03,   2.27975758e-02,   1.75604246e-02,
          4.72802794e-03,  -8.73763712e-02,   1.05871163e-02,
          2.20900402e-02,   1.30966131e-03,   1.27972737e-03,
          1.25414804e-02,   7.30488272e-02,   1.71302159e-02,
         -1.64373647e-02,   1.41112015e-02,   1.18925085e-02,
          7.19134378e-02,   7.50144030e-03,   6.00287139e-02,
         -4.31555815e-03,  -4.31691448e-03,   1.19420511e-02,
          1.11130197e-02],
       [ -2.38498943e-02,   2.15626449e-02,   6.36283777e-02,
          4.88928158e-02,  -5.05371292e-02,   5.81464582e-02,
         -2.64053332e-02,   8.95828970e-02,   1.71123866e-01,
         -2.53029181e-02,   6.21969619e-02,   2.70549719e-01,
          8.62691160e-02,  -2.10519738e-02,   5.58892275e-02,
          7.87063748e-02,   2.42736839e-01,  -2.11330696e-02,
          7.13471563e-02,  -1.43197610e-01,   1.04696604e-01,
          8.61201640e-02,  -2.01991416e-02,   5.92750523e-02,
          6.05937189e-02,   1.30489553e-01,  -1.36053518e-03,
          3.75078049e-02,   7.45909065e-02,   1.10337609e-01,
          4.00579432e-02,   9.89055693e-03,   6.70633689e-02,
         -1.78447718e-01,   5.95555890e-02,  -3.04235205e-02,
          3.08307724e+00,   3.12530399e-02,   1.21314629e-01,
          2.25049775e-01,   1.12930313e-01,   2.75718297e-01,
          3.36227973e-02,   4.06052925e-02,   8.31855705e-03,
         -4.09841007e-02,   8.45484105e-02,   2.69593659e-02,
          6.71866701e-02,   5.87697168e-02,   2.75345027e-02,
         -4.83605698e-02,   1.62302682e-01,   6.33490066e-02,
          6.55587303e-02,   2.22659418e-02,   3.64467212e-01,
         -2.08845597e-02,  -1.08960320e-02,   5.87083239e-02,
          1.29000210e-01,   5.20077636e-02,   1.00290871e-01,
          7.19745662e-02,   3.15869205e-01,   2.07027013e-01,
          7.96669382e-02,   4.95188157e-02,   1.23237511e-01,
         -4.80894465e-02,   6.37816234e-02,  -4.10237046e-02,
         -4.44547220e-02,   1.89854721e-01,   3.12025128e-02,
          1.06924470e-01,   5.86858814e-02,   2.39493500e-02,
          1.29623181e-02,   9.98659765e-02,   7.62185070e-02,
         -2.35966471e-02,  -2.35349406e-01,  -1.04149944e-03,
          6.46514083e-02,  -6.66576207e-02,   2.80978486e-02,
         -3.96857675e-02,   3.29373422e-01,   1.00694375e-01,
          1.69120515e-02,   5.76333329e-02,   6.23307653e-02,
          2.71551780e-01,   8.28996935e-02,   2.63453973e-01,
          9.01239574e-02,   1.30340142e-03,   6.89851283e-02,
          3.11955669e-02],
       [  8.40466807e-02,   7.55427766e-02,   7.77624751e-02,
          7.54635120e-02,   9.96523503e-02,   9.03206310e-02,
          6.82250854e-02,   7.86487896e-02,   6.26756849e-02,
          6.99978692e-02,   9.69719452e-02,   1.14968683e-01,
          9.23805759e-02,  -1.41523108e-01,   6.60176477e-02,
          8.76009987e-02,   5.69803530e-02,   1.00051971e-01,
          7.96093121e-02,   1.02167591e-01,   8.97655270e-02,
          6.41597054e-02,   8.35151924e-02,   7.50257401e-02,
          9.27811471e-02,   6.19114184e-02,   7.27646400e-02,
          7.73953135e-02,   8.31191185e-02,   8.22020220e-02,
          7.49071427e-02,   7.22653283e-02,   7.33036426e-02,
          1.13191624e-01,   8.57979358e-02,   8.94666386e-02,
         -1.03425782e-01,   7.21255923e-02,   8.42215145e-02,
          6.25684984e-02,   8.03913076e-02,   5.31870978e-02,
          8.66864388e-02,   7.21855700e-02,   1.07536219e-01,
          8.64690421e-02,   9.26247920e-02,   7.16941511e-02,
          8.85093353e-02,   7.95869065e-02,   8.05114038e-02,
          8.94826653e-02,   7.42686033e-02,   8.31032586e-02,
          8.48483570e-02,   7.46341647e-02,   1.59311942e-02,
          7.72139695e-02,   8.29410329e-02,   7.98845113e-02,
          7.04543302e-02,   8.95252440e-02,   8.24786908e-02,
          8.28348133e-02,   2.97359859e-02,   4.77402262e-02,
          6.57318263e-02,   7.52414952e-02,   6.54835661e-02,
          1.02675418e-01,   8.72072822e-02,   8.09178115e-02,
          9.52233067e-02,   2.73550642e-01,   8.36158356e-02,
          6.74736972e-02,   8.99631112e-02,   7.66562213e-02,
          8.99129477e-02,   7.59753925e-02,   9.17098460e-02,
          8.41424119e-02,   1.21680303e-01,   8.24391727e-02,
          7.80683564e-02,   8.14132473e-02,   7.61297928e-02,
          8.62463811e-02,   3.33785272e-02,   8.10817537e-02,
          1.04939377e-01,   8.54098283e-02,   6.61599499e-02,
          5.86683672e-02,   8.28393660e-02,   5.73475405e-02,
          6.73199560e-02,   9.66934355e-02,   8.85713015e-02,
          8.35639048e-02],
       [  1.06547191e-01,   1.10376989e-01,   9.65949875e-02,
          1.00425513e-01,   9.02607906e-02,   6.83588105e-02,
          1.15394761e-01,   6.98049152e-02,   7.87022776e-02,
          1.05240721e-01,   8.17241288e-02,   3.71458823e-02,
          6.64700473e-02,   2.66163243e-01,   9.81054675e-02,
          6.26882542e-02,   6.55775519e-02,   8.15142839e-02,
          8.34478445e-02,   1.11513852e-01,   7.77785815e-02,
          8.27716841e-02,   1.10054065e-01,   9.76652780e-02,
          6.61461892e-02,   7.62620041e-02,   1.00511991e-01,
          9.61709142e-02,   7.27729234e-02,   6.23976175e-02,
          9.55307380e-02,   9.53741049e-02,   8.28209876e-02,
          1.08343087e-01,   7.72573380e-02,   1.01290601e-01,
         -5.85696954e-01,   1.01010691e-01,   6.76866781e-02,
          6.11321633e-02,   5.74097089e-02,   6.42915836e-02,
          8.74222063e-02,   9.89331746e-02,   6.39659904e-02,
          9.96205342e-02,   7.82977439e-02,   1.14234822e-01,
          9.83698811e-02,   7.67461005e-02,   9.17424824e-02,
          1.02252063e-01,   7.55924273e-02,   9.29520763e-02,
          7.76050474e-02,   9.67700027e-02,   6.88239641e-02,
          1.10518561e-01,   1.05626199e-01,   9.20345967e-02,
          7.11575711e-02,   9.71007116e-02,   7.02561873e-02,
          9.10712066e-02,   6.02568297e-02,   7.67856879e-02,
          8.97956967e-02,   8.84702131e-02,   5.72399484e-02,
          8.51086484e-02,   8.13357573e-02,   1.15118569e-01,
          9.13865942e-02,   4.35276741e-01,   1.04231212e-01,
          7.67683409e-02,   8.61492044e-02,   1.04884050e-01,
          8.14138622e-02,   8.59441430e-02,   7.16019696e-02,
          1.06140458e-01,   1.13751383e-01,   1.02806546e-01,
          9.17320535e-02,   1.05620993e-01,   9.50684715e-02,
          1.02323585e-01,   6.50893419e-02,   7.92495860e-02,
          6.65495851e-02,   9.47749765e-02,   9.74655397e-02,
          7.22779295e-02,   8.01076131e-02,   6.09179431e-02,
          8.21181465e-02,   8.42394277e-02,   8.44543992e-02,
          9.41635114e-02]])]Hidden bias: [array([-0.18280427, -0.18218548, -0.17368655, -0.17541634, -0.18175213,
       -0.15595701, -0.18518827, -0.15437373, -0.1451957 , -0.19000963,
       -0.16658297, -0.10734155, -0.15238672,  0.04241224, -0.17239868,
       -0.15012466, -0.12807842, -0.17055323, -0.15973863, -0.20768328,
       -0.15855516, -0.15269893, -0.19096684, -0.16904977, -0.15254642,
       -0.14822858, -0.17763795, -0.16775549, -0.15290321, -0.14778457,
       -0.16993646, -0.16821145, -0.16159209, -0.21209728, -0.15994138,
       -0.18492437, -0.3491836 , -0.17859779, -0.15104607, -0.13162509,
       -0.14223862, -0.12401433, -0.16780056, -0.17593613, -0.16002537,
       -0.18792281, -0.16487052, -0.19040175, -0.17538524, -0.15373537,
       -0.16850495, -0.18611207, -0.14793092, -0.16924543, -0.15942377,
       -0.17246266, -0.10437571, -0.19227582, -0.18756203, -0.17012797,
       -0.14692899, -0.17385995, -0.15205636, -0.16699892, -0.11115727,
       -0.13580361, -0.16303755, -0.16852324, -0.13842095, -0.17446455,
       -0.16259271, -0.19294442, -0.17825792, -0.24799101, -0.17886396,
       -0.15254121, -0.16663886, -0.18210105, -0.16648458, -0.15956615,
       -0.16067412, -0.18751766, -0.22339376, -0.19363537, -0.17287299,
       -0.18796881, -0.16917101, -0.19291106, -0.11547032, -0.15898368,
       -0.15769177, -0.17433444, -0.16460841, -0.12972675, -0.15978138,
       -0.12325116, -0.15408229, -0.16939131, -0.16930001, -0.17665058])]Output weights: [[ -1.43955193e-02   2.95405812e-02]
 [ -8.92440146e-03   1.35028192e-02]
 [  3.26410334e-03   1.63453923e-02]
 [ -1.29613340e-03   1.39794093e-02]
 [ -2.50852082e-02   3.10907041e-02]
 [ -8.34030718e-03   1.02894073e-02]
 [ -1.00963441e-02   2.91926301e-02]
 [ -3.04654913e-03  -4.41038525e-04]
 [  3.51699090e-03  -2.63683909e-02]
 [ -4.31038580e-03   3.96321492e-02]
 [ -8.11110176e-04   2.02834729e-02]
 [  3.13682756e-04  -3.67677977e-02]
 [ -4.32786690e-03   5.61097837e-03]
 [  1.11352271e+00   2.93110879e-01]
 [  6.30552558e-04   1.00052397e-02]
 [ -6.87419637e-03   2.93537385e-03]
 [  5.81185888e-03  -4.51985693e-02]
 [ -2.11868622e-02   2.78391924e-02]
 [ -4.70007887e-03   3.16827844e-03]
 [ -2.80017987e-02   6.73894435e-02]
 [  1.12284553e-03   3.82260465e-03]
 [ -4.31717086e-03  -9.25065892e-03]
 [ -9.19730947e-03   3.64971112e-02]
 [ -1.29990587e-05   1.17115957e-02]
 [ -1.12177302e-02   7.62308608e-03]
 [ -1.96411969e-03  -2.20362451e-02]
 [ -1.35693639e-02   1.57590664e-02]
 [ -6.91026182e-03   1.25936189e-02]
 [ -6.08649783e-03   3.43973935e-03]
 [ -2.08639843e-03  -4.16808399e-03]
 [ -8.52025044e-03   7.89515221e-03]
 [ -1.31851572e-02   1.16125714e-02]
 [ -1.32107799e-03   6.38374228e-03]
 [ -3.16376216e-02   8.02481405e-02]
 [ -8.71860364e-03   5.24138353e-03]
 [ -1.70588085e-02   3.01312505e-02]
 [  1.39954817e-01   5.37677899e-01]
 [ -2.13262782e-03   1.90812149e-02]
 [ -5.21947890e-04  -5.52705513e-03]
 [  6.18252100e-03  -3.84836714e-02]
 [ -3.51633521e-03  -6.93284735e-03]
 [  6.59527305e-03  -5.30470058e-02]
 [ -1.24968360e-02   9.20037224e-03]
 [  1.71163686e-03   2.05428394e-02]
 [ -2.07582386e-02   2.08987759e-02]
 [ -1.64697846e-02   3.53762918e-02]
 [  8.58700906e-04   1.22900468e-02]
 [  6.01557425e-03   3.30869093e-02]
 [  3.95957770e-03   2.28634341e-02]
 [ -9.26984420e-03   3.62429921e-03]
 [ -1.13662172e-02   1.19178898e-02]
 [ -1.85150997e-02   3.64580395e-02]
 [  3.96835221e-03  -1.81519416e-02]
 [  3.52206437e-03   2.09546374e-02]
 [ -3.75227481e-03   1.07677644e-02]
 [ -1.30656128e-02   6.82967531e-03]
 [  5.13035269e-03  -8.60013174e-02]
 [ -5.95773554e-03   3.87495503e-02]
 [ -5.99760778e-03   3.76899840e-02]
 [ -1.60801133e-03   1.23753148e-02]
 [ -3.75726828e-03  -1.83605880e-02]
 [  8.81023648e-04   2.42794214e-02]
 [ -1.48933603e-03  -6.40597778e-04]
 [ -1.42953014e-03   9.75202263e-03]
 [  5.92256801e-03  -7.11436819e-02]
 [  5.57693762e-03  -3.93582852e-02]
 [ -1.98068788e-03  -2.97036181e-03]
 [ -2.75417196e-03   1.19333356e-02]
 [ -1.96332665e-03  -1.49683570e-02]
 [ -2.48215266e-02   3.54052509e-02]
 [ -1.95309987e-04   1.68003697e-02]
 [ -1.63503822e-02   3.22770261e-02]
 [ -2.24091021e-02   3.08844344e-02]
 [ -7.65105305e-01   4.34680594e-01]
 [ -3.42960203e-03   2.32750091e-02]
 [ -1.62181700e-04  -9.36169467e-03]
 [ -2.38080717e-03   1.73718831e-02]
 [  1.13419771e-03   2.86774922e-02]
 [ -1.58340587e-02   1.46349481e-02]
 [ -1.71100294e-03  -5.63923913e-03]
 [  1.32677358e-04   1.37410295e-02]
 [ -1.51808400e-02   2.94483234e-02]
 [ -2.95617234e-02   1.04881263e-01]
 [  4.62179554e-03   4.92443305e-02]
 [  2.01153190e-03   1.42438374e-02]
 [ -2.00681512e-02   3.83376075e-02]
 [ -9.52264636e-03   1.22400727e-02]
 [ -9.24547881e-03   4.61804380e-02]
 [  6.85862178e-03  -7.07964046e-02]
 [  9.25399412e-04   7.65906678e-04]
 [ -1.77685540e-02   2.06276019e-02]
 [  2.25936124e-03   2.25029865e-02]
 [ -9.48487326e-04   5.67884491e-03]
 [  5.46498985e-03  -5.12445743e-02]
 [  2.81165863e-04   8.36836583e-03]
 [  7.21530972e-03  -4.72759991e-02]
 [ -4.35923610e-03  -7.45434909e-03]
 [ -1.89665260e-02   1.90854391e-02]
 [  1.08761672e-03   1.72486104e-02]
 [ -1.06543701e-03   2.59554988e-02]]Output bias: [-0.55904718  0.04431931]
Value MLP:Hidden weights: [array([[ -5.91660980e-01,  -4.67338635e+00,   1.14803749e+01,
          4.61154699e+00,   3.68135519e+00,   2.65768602e+00,
         -3.24815206e+00,  -4.32632420e+00,  -8.84261298e+00,
         -8.55765145e-02,   3.77983437e+00,  -6.92413300e-01,
          1.04523483e+01,   5.31136824e+00,  -1.13695488e+01,
          7.61776562e+00,  -3.82003751e-01,   1.64992314e+00,
         -2.57382603e+00,  -6.07769624e+00,  -5.37405170e+00,
          6.92075963e+00,   5.70248050e+00,   1.18178646e+01,
         -1.15617028e+01,  -3.35105918e-01,   1.63324499e+01,
          8.63052593e+00,   1.11087326e+01,   3.26808868e+00,
         -3.23238854e-01,   1.09925379e+01,   6.53211487e+00,
         -2.72256020e+00,  -4.11666940e+00,   1.58479198e+01,
          1.78081219e+00,  -2.56461811e+00,  -1.48119593e+00,
          6.40943238e-01,  -3.33007050e-01,   8.07689307e+00,
          4.46790169e+00,   3.89969293e+00,   1.43710733e-01,
         -7.06227438e+00,   5.15444200e+00,  -1.35294012e+01,
         -4.66852330e+00,   1.13758700e+00],
       [ -2.94608117e+00,   5.46477033e+00,   7.60765566e+00,
          5.88173614e+00,   4.04717922e+00,  -2.00585878e+00,
         -3.41950012e+00,  -9.52044237e+00,  -2.80168729e+00,
         -5.34989925e+00,  -6.35153846e-01,   8.73892222e+00,
         -6.36730232e+00,   2.05792775e+00,   4.49121096e+00,
         -5.69583918e+00,  -5.86758591e+00,  -6.32252440e+00,
          4.99700320e+00,  -4.11479373e+00,   5.86865073e+00,
          6.31509237e+00,   4.07822009e+00,   6.67803930e+00,
         -1.38542544e+00,   7.08241130e-01,   4.34388355e+00,
          1.40299798e+00,   5.41577291e+00,   1.70701247e+00,
          1.32706580e+00,   3.67310432e+00,  -4.57757706e+00,
         -4.99896141e+00,  -7.62293836e+00,   4.72464578e-02,
          1.22244590e+01,  -4.46254148e+00,  -4.45450618e+00,
         -2.69808239e+00,  -2.56001118e+00,  -1.88964777e+00,
          5.84298465e+00,  -7.71215082e+00,   3.19440820e+00,
         -8.68368946e+00,   1.37804389e+00,   6.73716964e-01,
         -9.29892183e+00,  -9.01989969e+00],
       [ -1.60118047e+00,   2.36674521e+01,   2.30820669e+01,
          8.38856212e+00,   4.12645809e+00,   3.46414603e+00,
         -4.29711889e+00,   1.18192160e+01,  -1.68626068e+01,
          6.17166669e+00,   3.19940940e+00,  -1.60814971e+01,
          8.22334622e+00,   7.86064103e+00,  -1.25699123e+01,
          3.42286485e+00,   5.55376096e+00,   9.19344388e+00,
         -2.13464359e+01,   1.24700962e+01,  -1.79295050e+01,
          7.16610951e+00,   1.67405617e+01,   2.26398793e+01,
         -1.97424945e+01,  -1.53540753e+01,   5.98981723e+00,
          2.26790226e+01,   1.48370583e+01,  -2.20825692e+00,
         -2.16274858e+01,   2.07432278e+01,   1.06314699e+00,
         -1.74135578e+01,  -3.08958172e+01,   2.04316628e+01,
         -7.75853563e+00,  -5.92908106e+00,  -4.65271500e-01,
          5.12239248e+00,   1.16669844e+01,   2.10423360e+01,
          5.91849295e+00,   1.24752819e+01,  -1.14495018e+01,
         -9.97541939e+00,   5.78949621e-01,  -6.60181056e+00,
         -2.94129597e+00,  -3.90019365e+00],
       [  2.91026389e+00,  -1.74621044e+01,   4.55577248e+00,
          6.21522415e+00,  -1.39716418e+01,   1.31782728e+01,
          2.15342186e+01,  -3.61066096e+00,  -3.59190288e+00,
          9.62691810e+00,  -1.08700413e+01,   1.45004864e+01,
          1.89909024e+01,   1.33217973e+01,   1.97068592e+00,
          1.92339017e+01,   7.67392435e-01,  -8.32752144e+00,
          1.88810006e+00,  -1.37089407e+01,  -1.57642995e+00,
          1.07404341e+01,   1.32131802e+01,   8.03853188e+00,
          1.42330183e+00,  -2.14516845e+00,   1.16666396e+01,
          9.80568899e+00,   2.12116446e+00,   1.21863873e+01,
          3.62914346e+00,   9.25017165e+00,   1.33191010e+01,
         -1.07784897e+01,  -3.09924599e+01,  -1.84972202e+00,
         -1.00034792e+00,  -8.32861782e+00,   3.48334881e+00,
          6.26313442e+00,  -1.07089580e-02,  -3.74133645e+00,
          4.97439822e+00,   4.79058435e+00,   1.60729382e+01,
         -2.53398894e-01,   1.31616006e+01,   1.24818964e+01,
          1.72489827e+01,  -1.23189157e+01],
       [ -5.78276698e-01,  -1.49342531e+01,   1.23580037e+01,
         -1.59834966e+01,  -5.98045740e+00,  -3.24151978e+00,
          7.66496597e+00,   2.28774231e+00,  -9.79859087e+00,
         -3.67712755e+01,  -2.68697819e+01,  -4.47126498e+00,
         -1.48177738e+01,   2.98489409e+01,  -1.18678104e+01,
         -2.24786236e+01,  -1.09091901e+01,  -2.40943649e+01,
         -7.51465107e+00,  -1.62058307e+01,   4.69737256e+00,
         -2.12630351e+01,   6.23090520e+00,  -3.36861803e+01,
          9.73070844e+00,  -6.71311069e+00,   5.36255860e+00,
         -1.78986405e+00,  -1.02256817e+01,   2.32233644e+01,
          9.62815545e+00,  -1.94640537e+01,   1.29116415e-01,
         -1.63708560e+01,   4.67684627e+01,  -1.32190934e+01,
          1.18394321e+01,   4.96103718e+00,   5.04228948e-01,
          7.14311661e+00,  -2.72774883e+01,  -4.14305857e+01,
          7.16619734e+00,  -2.63622448e+01,  -1.92816216e+00,
         -1.15423851e+01,  -1.93252592e+01,  -2.83772926e+01,
         -9.51981797e+00,   1.24026908e+01],
       [ -1.23857302e+00,   9.70111576e+00,   9.02186027e+00,
          7.39600423e+01,  -1.76395121e+01,   3.28532850e+01,
         -1.72128247e+01,   1.38162330e+01,  -2.77115431e+01,
          1.25133169e+01,  -1.05007876e+01,  -3.87879930e+01,
          6.03231015e+01,   3.33594023e+01,  -2.14626128e+01,
          6.82662359e+01,   2.40379610e+01,   1.40594441e+01,
         -2.02585113e+01,   6.29721508e+00,  -2.32861591e+01,
          8.11628275e+01,   2.37553419e+01,   6.28354604e+01,
          1.03129836e+01,  -2.03846125e+01,   3.94718742e+01,
          2.66582308e+01,   2.74073689e+01,   4.61747283e+00,
         -2.89375634e+01,   4.40481603e+01,  -2.39692241e+01,
         -7.77914443e+00,   3.88358541e+01,   2.49703945e+01,
          2.01972504e+00,  -1.80118064e+01,   8.41093801e-01,
          3.21778327e+01,  -4.95597938e+00,   3.25055694e+01,
          2.96021397e+01,   4.96786599e+01,   5.23338635e+01,
         -2.06606447e+01,   8.08056718e+01,   7.25655216e+00,
          2.97011279e+01,   2.35507962e+01],
       [ -1.05543025e+00,  -4.84459113e-01,  -1.07197227e+01,
          1.03321606e+00,  -1.20135645e+01,   6.53086484e-01,
         -6.66067767e+00,   1.39931101e+01,  -2.83935199e+00,
         -4.62852188e+00,   9.44432469e+00,  -7.97547913e+00,
         -3.12837108e+00,  -3.77208406e+00,  -1.42829439e+01,
          3.43695135e+00,   1.03156613e+01,   7.18291293e+00,
         -4.14789777e+00,   1.19448587e+01,  -1.66294881e+01,
          8.84316696e-01,  -8.65151849e-01,   7.12177871e-01,
          1.21691146e+00,   2.70728770e+00,  -9.36293980e-01,
          1.48476325e+00,   2.99300049e-01,  -1.32557239e+01,
         -9.82759188e+00,  -2.68331161e-01,   3.21373387e+00,
          1.17609805e+01,   3.26599068e+00,   1.15981009e+00,
         -1.03955542e+00,   9.58695345e+00,  -1.74131702e+00,
          8.01121553e+00,   9.58281537e+00,   5.62415196e-01,
          5.90712767e-01,   1.57390121e+00,   5.92900640e+00,
          1.53700040e+01,   4.71986142e-01,  -2.47908787e+00,
         -1.55518503e-01,   2.92829786e+00],
       [ -3.12064063e+00,   1.61104355e+01,  -1.08028168e+01,
         -2.92491856e+00,   2.58943404e+00,  -1.57569322e+01,
         -2.47032499e+00,   1.59853112e+00,   6.94565119e+00,
         -1.18828477e+00,   4.81040523e+00,  -3.04713158e+00,
         -1.59384113e+00,  -5.97508244e+00,   1.25753363e+00,
         -3.93601886e+00,  -1.45974122e-01,  -3.43904341e+00,
         -1.11815962e-01,  -9.23514310e+00,  -2.64047625e+00,
         -2.13336442e+00,  -4.95620901e+00,  -8.78542814e-01,
          9.21931974e+00,   1.23335824e+01,  -1.12379531e+01,
          2.29565603e+00,  -1.13087876e+01,  -9.40834232e+00,
          6.00513589e+00,  -4.91334644e-01,   1.86845945e+01,
          4.53445698e+00,   2.18454596e+01,  -8.71879941e+00,
          1.44885058e+01,   7.48491169e+00,  -4.16472679e+00,
          7.53128635e-01,  -3.54020788e+00,  -1.39157555e+00,
         -2.13201473e+00,  -3.82060420e+00,  -1.14471194e+01,
          8.86245082e+00,  -2.18072716e+00,  -1.12518999e+01,
         -1.25337625e+00,  -2.68904632e-01]])]Hidden bias: [array([-10.19443478,  12.74650025,  -8.38018521,   0.95627773,
        14.06299493, -26.55225667, -17.24017282,  11.86732878,
         0.45460599, -12.19606305,  12.15423222, -18.63508872,
       -17.3992488 , -18.02205028,  -6.76561076, -26.75684189,
        -1.89788599,   3.90446866,  -8.15282234,   7.22916688,
        -8.86065394,  -5.69795162, -18.42756003,  -5.52107682,
       -14.22563914,   0.5484591 ,  -7.02699686, -12.04338305,
        -6.12288012, -22.64161867,  -7.24915734,  -7.34025955,
        -9.82513667,  17.75449639,  11.90356053,  -7.09343995,
        10.44869057,  19.57665692, -12.90355281,  -5.42735918,
        -2.64990607,  -1.86997284, -14.38562003, -10.03316485,
       -15.23751765,  -3.11867828, -12.4603778 , -11.18106514,
       -23.28796726,  -7.72982153])]Output weights: [[ 23.49800959]
 [ -3.72548127]
 [  0.30625461]
 [  1.03075409]
 [ -2.34095401]
 [  2.29533875]
 [  5.01261483]
 [  0.32264665]
 [ -2.03251261]
 [ -2.79164561]
 [  6.41488087]
 [ -1.77242278]
 [  1.4444012 ]
 [ -7.83285027]
 [ -1.848668  ]
 [  1.08971913]
 [ -2.55581499]
 [ -2.53557424]
 [ -0.40910512]
 [ -2.98956499]
 [  2.10958305]
 [  1.17190961]
 [ -1.73370342]
 [  0.92354173]
 [ -0.38878603]
 [ -1.45696656]
 [  0.13883463]
 [ -0.19797456]
 [  0.29925038]
 [ -4.27207724]
 [  1.97723594]
 [  0.47453672]
 [ -0.46147227]
 [  0.7815723 ]
 [  4.15845097]
 [  2.7275938 ]
 [  6.25936036]
 [ -0.85444458]
 [ 16.90376412]
 [ -1.50602641]
 [ -2.99432054]
 [  0.83605749]
 [ -4.30700921]
 [  0.97553179]
 [ -2.14880224]
 [ -4.41409597]
 [  0.88517169]
 [ -2.42751923]
 [  3.64840358]
 [ -3.098271  ]]Output bias: [-31.8870297]