Action MLP:Hidden weights: [array([[  7.61979457e-02,   8.63281938e-02,   1.11926128e-01,
          1.30833718e-01,   8.56317323e-02,   1.26769492e-01,
          5.51415688e-02,   1.01648187e-01,   6.49579224e-02,
          1.30234802e-01,   7.83072392e-02,   6.85368228e-02,
          9.08620576e-02,   7.00944444e-02,   6.44388697e-02,
         -3.92029333e-03,   6.17612947e-02,   1.32269019e-01,
          2.84047553e-02,   5.40783991e-02],
       [  2.24060288e-01,   2.45889264e-01,   2.44944461e-01,
          2.33107547e-01,   2.37250633e-01,   2.58073186e-01,
          2.41082536e-01,   2.24470199e-01,   2.23524729e-01,
          2.57286451e-01,   2.33838491e-01,   2.49726811e-01,
          2.31246152e-01,   2.27501788e-01,   2.06599278e-01,
          1.99803150e-01,   2.21680497e-01,   2.38344933e-01,
          2.03916331e-01,   2.17725612e-01],
       [ -3.00479661e-02,   1.14925699e-02,  -6.47574176e-03,
          2.15825694e-02,  -8.67794287e-03,   3.27630497e-02,
         -3.42187167e-02,  -8.53687727e-03,  -3.61313656e-02,
          3.36673120e-02,  -3.99980406e-02,  -3.15252490e-02,
         -1.16242969e-02,  -1.91089109e-02,  -3.72104900e-02,
         -1.03621462e-01,  -4.05174103e-02,   1.79473768e-02,
         -8.40539396e-02,  -4.47920720e-02],
       [ -2.89386101e-01,  -2.41430554e-01,  -3.01005022e-01,
         -2.88030194e-01,  -2.83870261e-01,  -2.39761273e-01,
         -3.08824534e-01,  -3.06248314e-01,  -3.35995952e-01,
         -1.97331290e-01,  -3.32218855e-01,  -2.77054846e-01,
         -2.89637416e-01,  -3.12608794e-01,  -3.44556829e-01,
         -4.12727343e-01,  -3.17379387e-01,  -2.99070985e-01,
         -3.89291402e-01,  -3.39176582e-01],
       [  6.48554551e-02,   3.63583161e-02,   2.14439064e-02,
          5.09790115e-02,   3.84755381e-02,  -4.64990914e-03,
          9.69459702e-03,   6.25870009e-02,   7.54727514e-02,
          1.13434885e-02,   4.52325648e-02,   3.86875995e-03,
          3.75412524e-02,   7.21722045e-02,   8.26320493e-02,
          9.73956615e-02,   6.63638701e-02,   6.04597132e-02,
          9.29223245e-02,   8.24447404e-02],
       [  9.83468895e-02,   1.11273575e-01,   1.26473848e-01,
          1.62774465e-01,   9.66617202e-02,   1.53618638e-01,
          8.39566975e-02,   1.14195071e-01,   9.26038272e-02,
          1.62510110e-01,   1.07681185e-01,   7.55554669e-02,
          1.24332676e-01,   1.18803108e-01,   1.01304944e-01,
          4.00860421e-02,   7.48857411e-02,   1.67732371e-01,
          6.62537396e-02,   8.55210702e-02],
       [ -4.66645758e-04,   1.84237376e-02,   7.36820127e-03,
          1.07555148e-02,   1.31784307e-02,   2.00756010e-02,
          1.57175924e-02,   9.83528089e-03,   2.08687871e-03,
          5.69113433e-03,  -2.16654607e-03,  -1.20004302e-03,
          1.56571247e-02,  -1.00900716e-03,   4.60738018e-04,
         -3.14321446e-03,   3.36060290e-03,   2.26728219e-04,
          1.32619691e-02,   1.37910088e-02],
       [ -1.45988660e-02,  -1.50111386e-02,  -1.38495366e-02,
         -1.78034836e-02,  -1.37302658e-03,  -1.78902110e-03,
         -6.85019482e-03,  -1.68798722e-02,  -1.87595939e-02,
         -4.12438000e-03,  -6.49915677e-03,  -1.45895732e-02,
         -1.69639645e-02,  -9.27161420e-03,  -5.00532970e-03,
         -6.73473541e-03,  -1.78988224e-02,  -1.01815820e-02,
         -2.36461001e-02,  -8.55606997e-03]])]Hidden bias: [array([-0.63008627, -0.63238434, -0.62890225, -0.63145042, -0.62848567,
       -0.63363643, -0.62607323, -0.62896028, -0.62543365, -0.63543467,
       -0.62784006, -0.62814337, -0.63010447, -0.62918673, -0.62498473,
       -0.61161095, -0.62556217, -0.63197474, -0.61801246, -0.62539121])]Output weights: [[ 0.12331568  0.09131021]
 [ 0.0615517   0.11052518]
 [ 0.10608026  0.11673714]
 [ 0.09535846  0.15732341]
 [ 0.10030249  0.09422698]
 [ 0.04636349  0.15562449]
 [ 0.12757551  0.06143775]
 [ 0.12515625  0.1145243 ]
 [ 0.16134239  0.07850697]
 [ 0.01252018  0.16452485]
 [ 0.14888686  0.0832014 ]
 [ 0.10217273  0.06897188]
 [ 0.10624889  0.10811868]
 [ 0.13699013  0.09921756]
 [ 0.17754654  0.08734818]
 [ 0.26289011  0.00289265]
 [ 0.14838699  0.06612337]
 [ 0.10592694  0.1618595 ]
 [ 0.23396396  0.03886904]
 [ 0.17215323  0.0715341 ]]Output bias: [ 1.09274499  0.70551557]
Value MLP:Hidden weights: [array([[  1.20296567e+01,  -6.65947639e+01,   1.91950944e+01,
          2.24322508e+01,   2.34148297e+01,   2.22518927e+00,
          2.90706289e+00,  -8.12903813e+00,  -5.17167381e+00,
          4.53134993e+01,   3.90164661e+01,   1.08630622e+01,
          1.26546737e+00,  -1.13104776e+01,   7.82625349e+01,
          3.41642532e+01,   6.36292086e+00,  -1.30097675e+01,
          2.36963052e+01,  -3.42677591e+01],
       [  3.15253197e+00,   2.70927445e+01,  -6.70485139e+00,
          1.23934634e+01,  -9.62299317e+00,  -1.15444951e+01,
         -5.06510838e+00,   2.49693772e+01,   1.28241759e+00,
         -2.68795441e+01,   7.82890922e-01,   2.05620065e+01,
         -1.14292797e+00,   1.23937032e+00,   2.53132105e+01,
          5.13600092e-01,   9.76818535e+00,   1.74910197e+00,
         -1.99278340e+00,  -3.82185947e-02],
       [  4.13506877e+01,  -4.52882939e+01,  -1.27430846e+01,
          4.50083758e+01,   5.70502613e+01,  -4.19305399e+01,
          3.66245176e+01,   2.19532318e+00,   2.59335503e+01,
          3.68300293e+01,   3.52940047e+01,  -1.97632841e+01,
          2.17915241e+01,   3.24600268e+01,   1.91019774e+01,
         -1.21782985e+01,   4.14623587e+01,  -4.30953636e+01,
          3.63179878e+01,  -3.26746480e+01],
       [ -1.41410050e-01,   5.81742689e+00,  -9.85624534e-01,
         -5.32034964e+00,  -5.78833794e+00,   1.80983207e+00,
         -2.53644445e+00,   6.41654631e+00,  -4.98603397e+00,
         -8.15342207e+00,  -1.93706178e+00,   6.34631658e+00,
         -1.82314591e+00,   1.66545603e+00,   6.76556376e+00,
          9.55695106e-01,  -1.98999547e+00,   3.47197779e+00,
         -4.98576823e+00,   4.21925806e+00],
       [ -7.74772652e+00,  -1.43128781e+01,   4.07603027e+01,
         -6.42437626e+00,  -1.05828498e+01,   1.72435259e+01,
         -2.99660259e+01,  -4.27928462e+01,  -4.45753672e+01,
          5.24114010e+01,   3.90538480e+01,   2.15191051e+01,
         -4.31289238e+01,  -3.10940610e+01,   7.03737907e+01,
          5.59901586e+01,  -2.66020576e+01,   1.74286612e+01,
          1.04338350e+01,  -1.07715369e+01],
       [  3.75896684e+00,  -4.24396711e+01,   2.01680123e+01,
          5.26286796e+00,   3.07416061e+01,  -1.28991413e+01,
          5.84043989e+00,  -4.79805034e+01,   8.04178260e-01,
          6.35306222e+01,   3.13355720e+01,   3.27065632e+01,
          1.81898009e+01,   1.63965908e+00,   6.61610593e+01,
         -3.87773370e+01,  -4.04807791e+00,  -1.91502847e+01,
         -3.70348408e+00,  -2.41134995e+01],
       [ -3.64310004e+00,  -2.79406982e+01,  -1.79503578e-01,
         -1.10867900e+01,   2.74020436e+01,   1.22274636e+01,
         -4.83462330e+00,  -3.75260759e+01,   5.62635143e+00,
          2.33998979e+01,  -1.72357790e+01,  -2.05529504e+01,
          1.74955431e+01,   2.26659266e+01,  -6.23912972e+01,
          1.40167555e+00,   1.93612346e+00,  -2.00626092e+01,
          1.70046112e+01,  -4.71852673e+00],
       [ -2.28806810e+01,  -6.99723972e+00,   1.26425276e+01,
         -1.86496204e+01,   9.03044614e+00,   1.20766189e+01,
         -1.22379557e+01,  -1.70730516e+01,  -9.16271324e+00,
          2.09915032e+01,  -8.93676532e+00,  -3.18321494e+01,
         -1.73492775e+01,  -1.46678319e+00,  -3.39703739e+01,
          2.05460007e+01,  -2.26430050e+01,   2.97951391e+00,
          3.29514094e+01,  -5.50423115e+00]])]Hidden bias: [array([ -3.42776838, -29.12765724,   2.08492274,  -1.68006231,
         4.92067145,   9.34258074,   8.13958707, -25.60205586,
        -1.59610671,  23.66093096,   1.58673643, -23.48782797,
         2.64418495,   5.93227808, -25.80944383,   1.4667439 ,
       -12.18404781,  -1.51904565,   1.0718459 ,   0.45818916])]Output weights: [[ -0.97425185]
 [ -5.09809477]
 [ -9.24457401]
 [  2.5786579 ]
 [ -2.83297714]
 [ -5.80757848]
 [  4.87168102]
 [-23.70610871]
 [ -8.04533016]
 [ -2.8669349 ]
 [ -4.94107639]
 [-14.53732931]
 [-12.10691425]
 [  6.09002787]
 [  1.02462124]
 [  6.20114806]
 [ -8.63260218]
 [  3.47582865]
 [ -6.90908645]
 [ -3.78031072]]Output bias: [-128.90885383]