Action MLP:Hidden weights: [array([[  7.71859026e-02,   8.67477396e-02,   1.12718721e-01,
          1.31474909e-01,   8.64015218e-02,   1.27010170e-01,
          5.61829503e-02,   1.02617284e-01,   6.62823674e-02,
          1.30223782e-01,   7.95217571e-02,   6.93464566e-02,
          9.16739537e-02,   7.11902552e-02,   6.58943977e-02,
         -1.98521968e-03,   6.29836983e-02,   1.33000789e-01,
          3.02368585e-02,   5.54939110e-02],
       [  2.23136215e-01,   2.45499784e-01,   2.44206752e-01,
          2.32514970e-01,   2.36531878e-01,   2.57850825e-01,
          2.40105196e-01,   2.23566485e-01,   2.22287457e-01,
          2.57286841e-01,   2.32702825e-01,   2.48961718e-01,
          2.30489421e-01,   2.26475619e-01,   2.05237644e-01,
          1.98096735e-01,   2.20537382e-01,   2.37663023e-01,
          2.02250812e-01,   2.16406182e-01],
       [ -2.58001363e-02,   1.32894376e-02,  -3.07670360e-03,
          2.43186056e-02,  -5.37003553e-03,   3.37876090e-02,
         -2.97270571e-02,  -4.37976879e-03,  -3.04360889e-02,
          3.36320106e-02,  -3.47740311e-02,  -2.80186359e-02,
         -8.14096664e-03,  -1.43939141e-02,  -3.09490316e-02,
         -9.54540336e-02,  -3.52579932e-02,   2.10836374e-02,
         -7.62415635e-02,  -3.87085030e-02],
       [ -2.88814388e-01,  -2.41180887e-01,  -3.00542089e-01,
         -2.87648772e-01,  -2.83422073e-01,  -2.39609486e-01,
         -3.08224058e-01,  -3.05684904e-01,  -3.35233668e-01,
         -1.97321063e-01,  -3.31518422e-01,  -2.76584890e-01,
         -2.89164412e-01,  -3.11974089e-01,  -3.43719255e-01,
         -4.11635125e-01,  -3.16675922e-01,  -2.98636206e-01,
         -3.88249204e-01,  -3.38363720e-01],
       [  6.30628283e-02,   3.55696868e-02,   1.99869393e-02,
          4.97728613e-02,   3.70687861e-02,  -5.13631973e-03,
          7.81798053e-03,   6.08166732e-02,   7.30837105e-02,
          1.13088240e-02,   4.30378223e-02,   2.40404124e-03,
          3.60543067e-02,   7.01838557e-02,   8.00078215e-02,
          9.38996352e-02,   6.41612405e-02,   5.90910404e-02,
          8.96231219e-02,   7.98953269e-02],
       [  9.72523076e-02,   1.10736690e-01,   1.25539267e-01,
          1.61952775e-01,   9.57825693e-02,   1.53220156e-01,
          8.28423215e-02,   1.13086232e-01,   9.11691131e-02,
          1.62404884e-01,   1.06357788e-01,   7.46876949e-02,
          1.23393124e-01,   1.17594393e-01,   9.97328198e-02,
          3.78161784e-02,   7.35731623e-02,   1.66828859e-01,
          6.42085199e-02,   8.39922305e-02],
       [ -4.66645758e-04,   1.84237376e-02,   7.36820127e-03,
          1.07555148e-02,   1.31784307e-02,   2.00756010e-02,
          1.57175924e-02,   9.83528089e-03,   2.08687871e-03,
          5.69113433e-03,  -2.16654607e-03,  -1.20004302e-03,
          1.56571247e-02,  -1.00900716e-03,   4.60738018e-04,
         -3.14321446e-03,   3.36060290e-03,   2.26728219e-04,
          1.32619691e-02,   1.37910088e-02],
       [ -1.46460195e-02,  -1.50347686e-02,  -1.38903349e-02,
         -1.78399564e-02,  -1.41107059e-03,  -1.80734865e-03,
         -6.89790580e-03,  -1.69279255e-02,  -1.88212251e-02,
         -4.12982799e-03,  -6.55610195e-03,  -1.46266325e-02,
         -1.70048423e-02,  -9.32386069e-03,  -5.07302720e-03,
         -6.83439025e-03,  -1.79547838e-02,  -1.02214458e-02,
         -2.37350556e-02,  -8.62178229e-03]])]Hidden bias: [array([-0.63110984, -0.6328312 , -0.62973223, -0.63213357, -0.6292875 ,
       -0.63391063, -0.62714566, -0.62997028, -0.62679755, -0.63545548,
       -0.6290934 , -0.62898079, -0.63095204, -0.63032206, -0.62648423,
       -0.61354979, -0.62681968, -0.63275174, -0.61986987, -0.62684507])]Output weights: [[ 0.12336318  0.09128116]
 [ 0.06350615  0.11032407]
 [ 0.10743876  0.11657901]
 [ 0.09724227  0.15708575]
 [ 0.10150502  0.09409995]
 [ 0.04942709  0.15530253]
 [ 0.12799668  0.06139753]
 [ 0.12600281  0.11441017]
 [ 0.16072787  0.07853526]
 [ 0.01552207  0.16420194]
 [ 0.1485146   0.0832059 ]
 [ 0.10304943  0.06889929]
 [ 0.10720047  0.10799692]
 [ 0.13695308  0.09917831]
 [ 0.1767979   0.08738003]
 [ 0.25926412  0.00321942]
 [ 0.14797783  0.06614891]
 [ 0.1074436   0.16164831]
 [ 0.23118213  0.0391044 ]
 [ 0.17111824  0.07160329]]Output bias: [ 1.08412062  0.70616779]
Value MLP:Hidden weights: [array([[  3.60014791e+00,  -6.33202470e+01,   3.93160584e+01,
          1.29435676e+00,   1.65940298e+01,   3.08077640e+01,
         -4.36735621e+01,  -2.86409269e+01,  -3.20612724e+01,
          4.97600858e+01,   3.78332461e+01,   3.07900203e+01,
         -2.96603717e+01,  -3.01374478e+01,   8.28619998e+01,
          4.73135073e+01,  -3.86902600e+01,  -2.42809705e+00,
          1.29008492e+01,  -2.76152761e+01],
       [  4.23411896e+00,   2.95092008e+01,  -9.39471598e-02,
          1.03997948e+01,  -5.24217241e+00,  -1.13609425e+01,
         -1.22372268e+01,   1.67692731e+01,   6.08616778e+00,
         -1.88583533e+01,   1.64253476e+00,   6.68243305e+00,
          1.17231766e+01,  -1.28311815e+01,   1.88609207e+01,
          8.29982835e+00,   2.06825186e+01,  -7.43453684e-02,
          1.00577845e+00,  -2.96298539e+00],
       [  4.45914079e+01,  -5.76293908e+01,   4.04300116e+01,
          4.51783190e+01,   6.05972331e+01,  -2.39225632e+01,
         -2.90099460e+01,  -3.81929140e+01,  -3.11093555e+01,
          4.81821494e+01,   4.34831449e+01,   3.65281660e+01,
         -2.01724199e+01,  -3.40774459e+01,   4.08639830e+01,
          2.16271946e+01,  -3.28704922e+01,  -3.45397549e+01,
          3.97443089e+01,  -4.22528973e+01],
       [  1.59077309e+00,   9.98142995e+00,  -4.54684134e+00,
         -5.56832931e+00,  -4.99896453e+00,   2.72986767e+00,
         -3.02546136e+00,   7.80949274e+00,   4.26845587e+00,
         -7.21322154e+00,  -2.43717856e+00,  -4.37720592e+00,
          6.86042610e+00,   2.36618064e+00,  -2.68828742e+00,
          5.12196260e-01,   8.84255119e+00,   9.61853374e-01,
         -1.95631746e+00,   4.22267832e+00],
       [ -1.89319801e+01,   5.47590936e+00,   6.16008354e+00,
         -2.52955282e+01,  -1.91154472e+01,   3.28249259e+01,
         -2.51311224e+01,  -2.30413300e+01,  -2.68414322e+01,
          3.99517563e+01,   3.27502018e+01,  -6.32288747e-01,
         -4.62467371e+01,  -1.43706032e+01,   5.39915630e+01,
          3.61970446e+01,  -1.52121099e+01,   1.85623589e+01,
         -4.35791935e+00,   4.87388811e+00],
       [ -1.04806384e+01,  -2.84349202e+01,   7.68609384e+00,
         -1.23010960e+01,   2.75161391e+01,  -5.86452355e-01,
         -1.54886395e+01,  -5.64657364e+01,  -3.25292392e+01,
          6.48441731e+01,   2.94658350e+01,   3.87736826e+01,
         -3.99239749e+00,  -1.16505792e+01,   7.34680745e+01,
         -4.64507403e+01,  -3.51766114e+01,  -3.98966986e+01,
         -1.03592852e+01,  -2.23457293e+01],
       [ -1.47114656e+01,  -2.95758998e+01,   6.93271266e+00,
         -1.47065726e+01,   2.69896725e+01,   1.15990928e+01,
          9.50987760e+00,  -2.73297373e+01,  -1.02563086e+01,
          2.09727216e+01,  -1.83817257e+01,  -1.23860062e+01,
          5.75596341e+00,   3.42679041e+01,  -5.96505135e+01,
         -1.93963576e+00,  -2.11681607e+01,  -1.92844297e+01,
          1.60394738e+01,  -3.37195626e+00],
       [ -1.29911904e+01,  -8.97381089e+00,   1.17571568e+01,
         -2.17860681e+01,   7.65690706e+00,   1.76586101e+01,
         -1.02232642e+01,  -2.11467387e+01,   4.41171939e+00,
          1.96877446e+01,  -8.96779840e+00,  -3.12010393e+01,
         -3.14303569e+01,   2.62031359e+01,  -3.23916520e+01,
          1.86966271e+01,  -3.60576851e+00,   1.61300709e+00,
          3.77904466e+01,  -8.16187901e+00]])]Hidden bias: [array([ -6.12285742, -31.2585928 ,   2.28658448,  -4.66504336,
        -0.99632298,   5.65391526,  15.63018729, -22.15304969,
        -5.06991499,  26.61682782,   1.02021954, -13.24923117,
        -6.62759848,  17.57577064, -23.26147429,   5.53641326,
       -21.8662228 ,  -3.63262568,   2.75011676,  -0.84904201])]Output weights: [[-14.17501901]
 [ -2.66795621]
 [  3.72193796]
 [  8.25059583]
 [ -8.40838214]
 [ -8.65769343]
 [  5.48011786]
 [ -1.87065458]
 [  0.85444515]
 [ -0.38448796]
 [  4.90652701]
 [ -5.95786542]
 [  2.13686677]
 [  9.94293031]
 [ -0.46294178]
 [  2.59467247]
 [ -3.25938011]
 [ -4.37075138]
 [  4.42469418]
 [  3.273599  ]]Output bias: [-120.93063034]