Action MLP:Hidden weights: [array([[  7.74339855e-02,   8.68689498e-02,   1.12929825e-01,
          1.31665945e-01,   8.66010239e-02,   1.27098326e-01,
          5.64352869e-02,   1.02869413e-01,   6.66068572e-02,
          1.30246346e-01,   7.98218436e-02,   6.95432099e-02,
          9.18872413e-02,   7.14647544e-02,   6.62487614e-02,
         -1.47621773e-03,   6.32834595e-02,   1.33212332e-01,
          3.06933077e-02,   5.58388133e-02],
       [  2.23104927e-01,   2.45484481e-01,   2.44180120e-01,
          2.32490850e-01,   2.36506716e-01,   2.57839674e-01,
          2.40073389e-01,   2.23534681e-01,   2.22246540e-01,
          2.57283951e-01,   2.32664985e-01,   2.48936913e-01,
          2.30462514e-01,   2.26440995e-01,   2.05192954e-01,
          1.98032553e-01,   2.20499591e-01,   2.37636316e-01,
          2.02193253e-01,   2.16362691e-01],
       [ -2.51553913e-02,   1.36045188e-02,  -2.52802936e-03,
          2.48152029e-02,  -4.85154426e-03,   3.40168584e-02,
         -2.90713287e-02,  -3.72448294e-03,  -2.95928009e-02,
          3.36908408e-02,  -3.39941657e-02,  -2.75073295e-02,
         -7.58662145e-03,  -1.36804972e-02,  -3.00280839e-02,
         -9.41312513e-02,  -3.44790033e-02,   2.16335355e-02,
         -7.50553385e-02,  -3.78121698e-02],
       [ -2.88633057e-01,  -2.41092351e-01,  -3.00387815e-01,
         -2.87509244e-01,  -2.83276250e-01,  -2.39545178e-01,
         -3.08039545e-01,  -3.05500636e-01,  -3.34996463e-01,
         -1.97304744e-01,  -3.31299050e-01,  -2.76441036e-01,
         -2.89008539e-01,  -3.11773470e-01,  -3.43460237e-01,
         -4.11263048e-01,  -3.16456758e-01,  -2.98481694e-01,
         -3.87915551e-01,  -3.38111593e-01],
       [  6.21612034e-02,   3.51292381e-02,   1.92197452e-02,
          4.90786961e-02,   3.63437235e-02,  -5.45655521e-03,
          6.90081223e-03,   5.99003686e-02,   7.19043615e-02,
          1.12270305e-02,   4.19471610e-02,   1.68892138e-03,
          3.52791736e-02,   6.91862466e-02,   7.87199244e-02,
          9.20496762e-02,   6.30717263e-02,   5.83223519e-02,
          8.79641789e-02,   7.86417866e-02],
       [  9.64074372e-02,   1.10323745e-01,   1.24820257e-01,
          1.61301923e-01,   9.51031419e-02,   1.52919610e-01,
          8.19831366e-02,   1.12227525e-01,   9.00641004e-02,
          1.62327606e-01,   1.05335888e-01,   7.40177256e-02,
          1.22666685e-01,   1.16659513e-01,   9.85260175e-02,
          3.60828442e-02,   7.25524418e-02,   1.66108156e-01,
          6.26541167e-02,   8.28177102e-02],
       [ -4.66645758e-04,   1.84237376e-02,   7.36820127e-03,
          1.07555148e-02,   1.31784307e-02,   2.00756010e-02,
          1.57175924e-02,   9.83528089e-03,   2.08687871e-03,
          5.69113433e-03,  -2.16654607e-03,  -1.20004302e-03,
          1.56571247e-02,  -1.00900716e-03,   4.60738018e-04,
         -3.14321446e-03,   3.36060290e-03,   2.26728219e-04,
          1.32619691e-02,   1.37910088e-02],
       [ -1.46460195e-02,  -1.50347686e-02,  -1.38903349e-02,
         -1.78399564e-02,  -1.41107059e-03,  -1.80734865e-03,
         -6.89790580e-03,  -1.69279255e-02,  -1.88212251e-02,
         -4.12982799e-03,  -6.55610195e-03,  -1.46266325e-02,
         -1.70048423e-02,  -9.32386069e-03,  -5.07302720e-03,
         -6.83439025e-03,  -1.79547838e-02,  -1.02214458e-02,
         -2.37350556e-02,  -8.62178229e-03]])]Hidden bias: [array([-0.63142522, -0.63298533, -0.63000062, -0.63237649, -0.62954112,
       -0.63402278, -0.6274664 , -0.63029082, -0.62721004, -0.63548427,
       -0.62947487, -0.62923089, -0.6312232 , -0.63067103, -0.62693472,
       -0.61419684, -0.62720072, -0.63302074, -0.62045012, -0.62728352])]Output weights: [[ 0.12339418  0.09128083]
 [ 0.06393925  0.11031334]
 [ 0.10775825  0.11657116]
 [ 0.09729988  0.1570846 ]
 [ 0.10186427  0.09409117]
 [ 0.05005177  0.15528671]
 [ 0.12842819  0.06138687]
 [ 0.12607798  0.11440869]
 [ 0.16060068  0.07853906]
 [ 0.0160376   0.16418889]
 [ 0.14851756  0.08320625]
 [ 0.1036558   0.06888412]
 [ 0.10737028  0.10799293]
 [ 0.13680062  0.09918268]
 [ 0.176548    0.08738697]
 [ 0.25873636  0.00323364]
 [ 0.14803516  0.06614798]
 [ 0.10736791  0.16165059]
 [ 0.23071737  0.03911693]
 [ 0.17092186  0.07160888]]Output bias: [ 1.08151476  0.70623399]
Value MLP:Hidden weights: [array([[ -3.20951033e+01,  -5.81443986e+01,   3.60989574e+01,
         -2.34373541e+01,  -6.34687590e+00,   4.37180625e+01,
         -3.86463683e+01,  -2.73433687e+01,  -2.95889259e+01,
          5.00200012e+01,   3.79451445e+01,   2.70172239e+01,
         -2.36903161e+01,   2.22634118e+01,   8.30302951e+01,
          4.73732766e+01,  -3.83214326e+01,   1.23893526e+01,
         -3.26584870e+01,  -2.63657066e+01],
       [  5.11478246e+00,   2.74967834e+01,  -3.84358155e-01,
          6.16747586e+00,  -6.91658192e+00,  -3.80068811e+00,
         -1.28187220e+01,   1.84284336e+01,   4.90650723e+00,
         -1.95359594e+01,  -7.22550681e-01,   4.72291782e+00,
          9.27298077e+00,  -1.33836939e+01,   1.97476986e+01,
         -2.37557134e-01,   1.78660905e+01,   1.56257958e+01,
         -5.82051098e+00,  -7.62521918e-01],
       [ -1.84898240e+01,  -6.61927423e+01,   4.62977088e+01,
          1.50841088e+01,   5.54425140e+01,   4.38779020e+01,
         -4.82497582e+01,  -4.87150877e+01,  -4.58106114e+01,
          5.84474512e+01,   4.85238878e+01,   4.40049128e+01,
         -3.43115569e+01,  -1.61672900e+01,   5.25296576e+01,
          3.74975190e+01,  -4.00642228e+01,  -2.38787722e+01,
         -2.13961574e+01,  -4.38536451e+01],
       [  2.92645633e+00,   7.35899255e+00,  -3.59366243e+00,
         -1.69964861e+00,  -5.69923624e+00,  -9.40453519e-02,
          1.91439216e+00,   7.42428860e+00,   6.63806061e+00,
         -9.23944536e+00,  -4.15768392e+00,  -3.57700326e+00,
          9.36435495e+00,   1.11825548e-02,  -4.78567428e+00,
         -3.83303667e-01,   3.88243337e+00,   4.14059856e+00,
          1.33934721e+00,   1.13460607e+00],
       [ -1.17830539e+01,   1.58491386e+01,  -4.27933922e-01,
         -3.60266764e+01,  -3.70947840e+01,   1.45944479e+01,
         -9.34692198e+00,  -7.48432886e+00,  -1.06801919e+01,
          2.76479634e+01,   2.92034574e+01,  -1.94707493e+01,
         -4.16287926e+01,   4.20640083e+01,   4.46678286e+01,
          2.09484600e+01,  -9.02725665e+00,   4.93693437e+01,
         -1.05175404e+01,   8.76872692e+00],
       [ -3.67777547e+01,  -2.23423238e+01,   8.21698446e+00,
         -4.06802284e+01,   1.64928054e+01,   1.28811514e+01,
         -8.23335106e+00,  -5.35823582e+01,  -2.55681808e+01,
          6.27545261e+01,   2.65951901e+01,   3.03688503e+01,
         -1.72501430e+01,   5.15328243e+01,   7.37546029e+01,
         -4.77639409e+01,  -3.69961646e+01,  -2.27927484e+00,
         -2.14519558e+01,  -2.08947793e+01],
       [ -2.70245217e+01,  -2.73792502e+01,   5.22807301e+00,
         -1.63638654e+01,   3.31441471e+01,   1.29682555e+01,
          7.43464404e+00,  -2.71821166e+01,  -1.38821111e+01,
          1.90117121e+01,  -1.62459271e+01,  -8.34266742e+00,
          6.00734844e+00,   4.36123687e+01,  -5.90793018e+01,
         -1.73692579e+00,  -2.25339214e+01,  -2.20595354e+01,
          2.17191259e+01,  -3.41011993e+00],
       [ -1.01119452e+01,  -7.83446521e+00,   5.54226090e+00,
         -2.04512440e+01,   1.48964549e+01,   9.53815994e+00,
         -6.89277432e+00,  -2.22584138e+01,   5.68381003e+00,
          2.02953615e+01,  -7.85253485e+00,  -3.41149334e+01,
         -3.42213805e+01,   1.98116784e+01,  -3.29061885e+01,
          1.96119550e+01,   1.30643742e+00,  -1.82661134e+01,
          4.30990696e+01,  -9.03156896e+00]])]Hidden bias: [array([-10.70643467, -31.42720361,   0.48092134,  -9.63069144,
        -0.25796734,   1.66073338,  15.14562938, -19.44164413,
        -5.92074235,  26.25372687,   4.74019239,  -8.52472877,
        -7.2293985 ,  22.00657569, -18.26882735,   0.32432046,
       -15.64391084, -20.02700688,   8.03702327,  -3.54039145])]Output weights: [[ -5.64227835]
 [ -4.83757807]
 [  6.49816237]
 [ 14.51156331]
 [ -9.87503902]
 [ -6.89165621]
 [  4.65718382]
 [  1.85241287]
 [  4.91509055]
 [  1.59230574]
 [  1.82551238]
 [  7.75310063]
 [ -4.0415025 ]
 [ 18.17779576]
 [  2.8683803 ]
 [  3.11159282]
 [  3.08184114]
 [-15.12934126]
 [ 10.69944326]
 [ -5.49494708]]Output bias: [-129.7666261]